%YAML:1.0
my_nn: !!opencv-ml-ann-mlp
   layer_sizes: !!opencv-matrix
      rows: 1
      cols: 3
      dt: i
      data: [ 11, 42, 42 ]
   activation_function: SIGMOID_SYM
   f_param1: 1.
   f_param2: 1.
   min_val: -9.4999999999999996e-001
   max_val: 9.4999999999999996e-001
   min_val1: -9.7999999999999998e-001
   max_val1: 9.7999999999999998e-001
   training_params:
      train_method: BACKPROP
      dw_scale: 1.0000000149011612e-001
      moment_scale: 1.0000000149011612e-001
      term_criteria: { epsilon:9.9999997473787516e-006, iterations:1000 }
   input_scale: [ 1.6350444254170402e+001, -8.1058496065814616e+000,
       1.0471126548368099e+001, -5.1320809492854789e+000,
       3.0312131675545584e+002, -4.9668822625498947e+000,
       2.4157178140921917e+002, -4.3146322239467381e+000,
       6.2092232043263023e+000, -1.8927145866431800e+000,
       5.9500202100030934e+000, -3.2044900136992638e+000,
       1.2249634712362084e+001, -2.0982676113500141e+000,
       7.7793257267840961e+000, -2.9164897034297281e+000,
       8.4134723422575397e-001, -2.2435926246020106e+000,
       4.2583123046825161e-001, -1.2369383361220641e+000,
       1.2039376643969124e+000, -3.7264737231333006e-001 ]
   output_scale: [ 1.0526315789473684e+000, 0., 1.0526315789473684e+000,
       0., 1.0526315789473684e+000, 0., 1.0526315789473684e+000, 0.,
       1.0526315789473684e+000, 0., 1.0526315789473684e+000, 0.,
       1.0526315789473684e+000, 0., 1.0526315789473684e+000, 0.,
       1.0526315789473684e+000, 0., 1.0526315789473684e+000, 0.,
       1.0526315789473684e+000, 0., 1.0526315789473684e+000, 0.,
       1.0526315789473684e+000, 0., 1.0526315789473684e+000, 0.,
       1.0526315789473684e+000, 0., 1.0526315789473684e+000, 0.,
       1.0526315789473684e+000, 0., 1.0526315789473684e+000, 0.,
       1.0526315789473684e+000, 0., 1.0526315789473684e+000, 0.,
       1.0526315789473684e+000, 0., 1.0526315789473684e+000, 0.,
       1.0526315789473684e+000, 0., 1.0526315789473684e+000, 0.,
       1.0526315789473684e+000, 0., 1.0526315789473684e+000, 0.,
       1.0526315789473684e+000, 0., 1.0526315789473684e+000, 0.,
       1.0526315789473684e+000, 0., 1.0526315789473684e+000, 0.,
       1.0526315789473684e+000, 0., 1.0526315789473684e+000, 0.,
       1.0526315789473684e+000, 0., 1.0526315789473684e+000, 0.,
       1.0526315789473684e+000, 0., 1.0526315789473684e+000, 0.,
       1.0526315789473684e+000, 0., 1.0526315789473684e+000, 0.,
       1.0526315789473684e+000, 0., 1.0526315789473684e+000, 0.,
       1.0526315789473684e+000, 0., 1.0526315789473684e+000, 0. ]
   inv_output_scale: [ 9.4999999999999996e-001, 0.,
       9.4999999999999996e-001, 0., 9.4999999999999996e-001, 0.,
       9.4999999999999996e-001, 0., 9.4999999999999996e-001, 0.,
       9.4999999999999996e-001, 0., 9.4999999999999996e-001, 0.,
       9.4999999999999996e-001, 0., 9.4999999999999996e-001, 0.,
       9.4999999999999996e-001, 0., 9.4999999999999996e-001, 0.,
       9.4999999999999996e-001, 0., 9.4999999999999996e-001, 0.,
       9.4999999999999996e-001, 0., 9.4999999999999996e-001, 0.,
       9.4999999999999996e-001, 0., 9.4999999999999996e-001, 0.,
       9.4999999999999996e-001, 0., 9.4999999999999996e-001, 0.,
       9.4999999999999996e-001, 0., 9.4999999999999996e-001, 0.,
       9.4999999999999996e-001, 0., 9.4999999999999996e-001, 0.,
       9.4999999999999996e-001, 0., 9.4999999999999996e-001, 0.,
       9.4999999999999996e-001, 0., 9.4999999999999996e-001, 0.,
       9.4999999999999996e-001, 0., 9.4999999999999996e-001, 0.,
       9.4999999999999996e-001, 0., 9.4999999999999996e-001, 0.,
       9.4999999999999996e-001, 0., 9.4999999999999996e-001, 0.,
       9.4999999999999996e-001, 0., 9.4999999999999996e-001, 0.,
       9.4999999999999996e-001, 0., 9.4999999999999996e-001, 0.,
       9.4999999999999996e-001, 0., 9.4999999999999996e-001, 0.,
       9.4999999999999996e-001, 0., 9.4999999999999996e-001, 0.,
       9.4999999999999996e-001, 0. ]
   weights:
      - [ -7.1425908994595533e-001, 3.6429707092900682e-001,
          7.1243825548824535e-001, 7.7058126508571301e-002,
          8.8114405352574338e-002, 1.0254571755699151e+000,
          -8.4655165947487218e-002, -6.9943472652684990e-001,
          2.9355129799285695e-001, -3.3846362828250831e-001,
          -1.9330061832445138e+000, -1.0803694670507369e+000,
          -3.6229396884320153e-001, -8.6737050400886695e-001,
          -1.9323900124220650e-001, 4.0084966095735136e-001,
          1.5109782944856587e-001, -1.3501205174665876e+000,
          -2.6736200192000520e-001, 1.1896544315690709e+000,
          -9.5758542931056356e-001, 2.1245683158046216e-001,
          1.9058448209986423e+000, -1.5087546841791126e+000,
          -3.7404729001067678e+000, -3.7179650504251494e-001,
          -5.2751827317436682e-002, 1.6203467757823453e-001,
          1.2404221184035560e+000, -2.6414170379127833e-001,
          -1.6288115262925237e-001, -4.0763992750596140e-002,
          -2.8354392025436281e-001, 8.7054943630377069e-001,
          -2.8397804378817454e-001, -1.4205284714647307e-001,
          3.2926743400031572e-002, -2.2265257245872033e-001,
          -1.4353878357719879e-001, 1.6084902439448581e+000,
          -1.2543121268138966e+000, -2.1175745177558633e-001,
          -3.0727612447835329e-001, 1.4092278273023691e+000,
          6.4157478170098947e-001, 4.8869942747108747e-001,
          1.8781018707562420e+000, -3.5364367343317289e+000,
          1.6882305605935459e+000, -1.2794988277970549e+000,
          -6.0405372342747077e-001, 1.1059447047183135e+000,
          -1.7127504195904264e+000, 2.3328130420521148e-001,
          2.1355933664509261e+000, -1.4694110420857040e-001,
          -7.8490296309916507e-001, -1.2986098905672134e+000,
          -3.3142798555657654e-001, 5.7258798402064978e-002,
          -1.8461483111537971e-002, -5.1038821397261258e-001,
          -4.0785280113786132e-001, 6.7127101437342707e-001,
          -1.7018704463072747e+000, 1.8087761916120049e+000,
          1.5241941241008656e+000, 8.6345037077376965e-002,
          6.8858511991390864e-003, -3.3124916490578971e-001,
          -1.9293286888442223e+000, 3.4233480891499135e-001,
          -1.2043123507353133e+000, -2.3946675373215287e-001,
          -5.1557711067317413e-001, 7.7704235161755530e-001,
          -1.7264776998336667e-001, 1.3092005567667921e+000,
          1.8121361071220971e-001, -9.0573088290475001e-001,
          6.5830360902302876e-001, -5.6659773016000203e-001,
          8.0347016149976414e-003, -1.9608695088258085e-001,
          8.8268035514768950e-001, -1.2733503430611937e-001,
          2.6070538811835436e-001, -4.3282029932208138e-001,
          1.2779496001307813e+000, -9.2364015704437696e-001,
          1.2186536511521255e+000, 7.2715899831414066e-001,
          7.1252783010361165e-001, 9.2748175526491594e-001,
          9.3776576760420297e-002, -7.0430923545645230e-001,
          8.3959620727847895e-001, 1.4409558044417325e+000,
          1.6664840759667343e-001, 4.7260380750520314e-001,
          -3.0292317264993467e+000, 1.9628830686699261e+000,
          8.4125117928008586e-001, -5.9141646924021940e-001,
          3.0635837582251707e-001, 7.0461700422332962e-001,
          -3.0228543051379847e-001, -4.4009435110736822e-001,
          6.6524210471499146e-002, 5.5909280975798981e-001,
          -8.2052763970166212e-002, 8.5115612072244351e-001,
          9.5567593733912826e-001, -1.4167683601299066e-001,
          6.6845028528646877e-001, 2.0220927362881916e-001,
          5.3536841500313914e-001, 9.2573982029904367e-001,
          3.4198122804473857e-001, -1.3053411443243421e+000,
          3.9990209579020702e-001, 1.0400565976418985e+000,
          -2.8094553290059954e-001, -1.2291828069729996e-003,
          7.6245861707473539e-001, -1.6478838156879891e-001,
          -2.7853810636780394e+000, 2.8214882628662807e-001,
          1.3587911610364373e-002, -9.8706357771297215e-002,
          8.0937076629909610e-001, -1.1086709139932689e+000,
          -9.3062472056509693e-001, -8.2933762139467637e-001,
          1.9683071514988686e+000, -9.2776786544621381e-001,
          -9.4425123692816804e-002, 3.6906789057210926e-001,
          -7.4851534299634204e-001, 1.0959999341591316e+000,
          -1.1512145328991767e-001, 1.4250071684113899e+000,
          -1.2072360214141029e+000, 1.7507269587104599e-001,
          -4.4384959308060751e-001, -6.6532357659641439e-001,
          -2.4534504508575647e-001, 6.5398264616425139e-001,
          2.3340666048334854e-001, 2.2382505735002813e+000,
          7.6120000987650260e-001, -9.1941213169021618e-001,
          -6.2480517676812709e-002, -1.3719118208226824e-001,
          1.9289118691516840e+000, -3.9483427860756998e-001,
          -1.3353558804427728e+000, -1.0205460062076328e+000,
          -6.9745316892164622e-001, -2.5903808054381139e-001,
          -6.2948979057292098e-001, -9.1834212101236545e-002,
          -4.0682971492235744e-002, 7.3191861910815326e-001,
          -1.6014274652413119e-001, -8.5372543499027731e-001,
          4.3277732834995841e-001, -1.0829968990221860e-001,
          1.4901453901415837e-001, 1.3803241819504635e+000,
          -3.4109278590838799e-001, -1.3272806466726239e+000,
          3.3546025587824146e-001, 9.1871151625785497e-001,
          -2.9609478167840242e-001, 1.5005993458200417e+000,
          3.5964616531444854e-001, 2.3248159069351496e-001,
          4.5972174174735808e-001, 3.7346956181820784e-001,
          1.3763635431918783e-001, -9.0094470890785228e-001,
          -3.1823536064186514e-001, 3.2512640668201209e-001,
          -1.0678185872591904e-001, 1.9551213568173713e+000,
          -4.2895314013291930e-001, -6.0571635813383401e-002,
          3.6899675177178803e-001, 8.9863852216440177e-001,
          -5.7190632858903012e-001, -1.4626416960351757e-001,
          3.3369934327245415e-001, 1.0440769956633307e-001,
          -1.1184601736698883e-001, 2.1408975046184761e-001,
          -1.4402575461228282e+000, -1.2242716760993397e-001,
          4.5826457027027478e-001, 4.1117383745641257e-002,
          -5.7004106845605473e-001, 8.4084763511721464e-002,
          -6.3054332898329790e-001, -6.5893505139570874e-001,
          2.0395838036690361e-001, 2.7121307185126797e-001,
          -6.1229686852290766e-001, -6.8183427098583826e-001,
          -1.0967290410299566e+000, 1.8085511648188710e-001,
          2.0245092776856710e+000, -8.4578048226944846e-001,
          1.7657606756715599e-001, 1.1488636709049793e+000,
          -9.2159869901692115e-001, -6.7812859781603851e-001,
          2.7038750083576657e-001, -8.4867813952871818e-001,
          -6.5298954149688637e-001, 5.1003443773248291e-001,
          5.8834555850242620e-001, 6.3245513272047249e-001,
          8.9573372431044007e-001, 9.3919893404021759e-001,
          1.9733640232050187e-001, -5.5866057294003757e-001,
          -7.6425407564352488e-001, -1.1353652450961857e+000,
          -8.0979732003914950e-002, 9.3910764464631324e-001,
          3.1506876453384136e-001, -1.0293858672319336e+000,
          6.9780462804406196e-001, -1.1922453056927294e+000,
          -1.8651175712716409e-001, -2.8117024987549993e-001,
          -5.9095810465781599e-002, -7.2338553162699604e-002,
          1.3566130202828186e+000, -2.2873128760537395e-001,
          2.0486789491119342e-001, -2.4651447576838345e-001,
          9.3740742571017632e-001, -3.2646680543888601e-001,
          9.6650800808234516e-001, 1.9616187232213086e-001,
          2.0218869123866964e-001, 5.9646387974605353e-001,
          1.1650247543558465e+000, 2.1316504773347239e-001,
          2.5986665863146095e+000, -1.2634562567125360e-001,
          -1.9283472435731894e+000, -4.3015148993584934e-001,
          -1.1188633149983274e+000, 4.1251534073438645e-001,
          -1.1893366622054273e+000, -8.2012104998518720e-001,
          -5.2346971073504212e-001, 8.0430473786584111e-001,
          -2.5522576240649165e-002, -1.4417168134259994e+000,
          2.2156886268278789e-001, 2.5248344799352235e-001,
          -6.7051047239390749e-001, 1.5672436745411080e+000,
          -1.3587619598431155e-001, -5.9376000332264445e-001,
          -2.5796360419423181e-001, -2.8048792393887734e+000,
          -5.3861905556391843e-001, -9.4078705506974714e-001,
          -3.3653712098800587e-001, -4.2531316399217353e-002,
          -6.2087593608723923e-001, -1.4132236946971470e+000,
          4.8329640006534091e-001, 2.2409111916544952e-001,
          3.7164466003355762e-001, -3.0387891350642032e-001,
          -6.7643399049743302e-001, -1.8008743792859500e-001,
          -6.8179285752861352e-001, 2.8646119236036610e-001,
          5.6276601334218246e-002, -9.2690440447590983e-001,
          -6.5671529786797611e-001, 2.3365021520296061e-001,
          1.9391281179789357e-002, 2.4541410457355359e-001,
          -1.2582122691426953e-001, 8.2861639678450749e-001,
          -1.2183405310369324e+000, -3.7465683890090218e-001,
          -4.0890117494727490e-001, -7.6703280692261055e-001,
          -1.1940504007512092e+000, -3.2810250221073027e-002,
          -4.1818359055121396e-001, -5.2840138721216179e-001,
          1.0773410765923606e+000, -1.5384722416275354e+000,
          2.3313508346456660e-001, 1.7073426600550370e+000,
          2.1824938255223600e-001, 1.6882594422546915e+000,
          -1.7269579533884618e+000, 2.5665246317121901e-003,
          -3.8118159787449601e-001, -4.7137125258009172e-001,
          1.1898774728158254e-001, 9.6873444518165064e-001,
          -3.8001013613669599e-001, -4.4283581621950896e-001,
          9.3745345418000892e-002, 3.4267122447113252e-001,
          -3.5469829973810818e-001, 5.2060290207331616e-001,
          -2.9487079221402424e-001, -4.4566106350817553e-001,
          2.2131788494761863e-002, 1.8177761102814347e-001,
          9.2412168986632137e-001, 1.8826101098113124e-001,
          1.4082003040467379e+000, -5.0733623486788400e-002,
          -2.0005226218250889e+000, -6.5027105387147344e-001,
          -2.7884985128961332e-001, -1.3764980952444936e+000,
          4.0361883751495831e-001, -9.0212515158850393e-001,
          3.9364874390014770e-001, 1.7673831942207767e+000,
          -1.6590189410096115e-001, 1.1435330415814528e-001,
          -6.7765343087585583e-001, -1.2512028423136282e-001,
          1.3942605061559549e-001, -1.7942872567221362e+000,
          1.8210144133231665e+000, 4.2308827809402477e-001,
          -1.1054942780777097e-001, -4.5264296099392359e-001,
          -4.6480596452166584e-001, -3.9049508640717939e-001,
          4.0641786377188266e-001, 9.6261210932572128e-001,
          -5.5598798194324603e-002, 9.5419779820266970e-001,
          -1.0389918334008681e+000, -5.9805462809012784e-002,
          7.0187599586097171e-001, -1.9554007735242225e+000,
          -2.1407444502516590e-001, 1.9125216335525870e+000,
          -6.4020450019113539e-001, -1.2832749792513545e+000,
          -1.5453954047896748e-001, 1.0456991647835638e+000,
          9.1048030749341546e-001, 1.0353986427016602e+000,
          -8.0306945876755020e-002, -1.0722739744433556e-001,
          3.7081990209538379e-001, -1.5562068369982887e-001,
          1.7331888280916947e+000, -8.2197377256416937e-001,
          3.9266091174665813e-001, 9.8784518167954116e-001,
          1.2832241249549263e+000, -6.4068848154868718e-001,
          -1.3585729193493021e-001, 8.5362020253190818e-001,
          -8.7477167955998947e-001, -3.9464569156890655e-001,
          4.1323036560348086e-001, -6.1487521553940139e-001,
          5.0521508760734992e+000, -7.0483382223122992e-001,
          -1.7876786334014785e+000, 9.2890741462827287e-001,
          1.1236724597683416e+000, -2.8902262236217613e-001,
          -3.7742217861149191e-001, 1.9164655964038173e+000,
          1.6947855052058003e+000, 8.5197506681508151e-001,
          7.1451761376810563e-001, 3.3900620177337321e-001,
          1.8265023697744884e+000, 1.7034509481545255e+000,
          -4.5977399522961132e-001, -1.2046811050874058e-001,
          1.8495733603390283e+000, 9.2604408219727541e-001,
          4.2630760982345600e-001, 6.6949180930063656e-001,
          5.6141314603067904e-001, 2.9560343519237919e-001,
          7.2758628970885109e-001, -1.6110306757356903e+000,
          -4.6988696893457493e-001, -1.1410905038358488e+000,
          -2.4298002729725129e-001, 5.0420869681371894e-001,
          1.2155857902338679e-001, -4.7702016542429682e-001,
          1.0855369974357441e+000, -7.2107481740526758e-001,
          1.7345529790811527e+000, 6.0286872841939998e-001,
          -7.9467482907456066e-001, 6.9905865195681904e-001,
          7.0929126589210489e-001, 5.8342134884182428e-001,
          1.7234610948652843e-001, 4.8206191992205806e-002,
          -3.0619876117760074e+000, 1.2988895392764571e-001,
          -2.2334562792073465e+000, -1.6766545946230083e+000,
          -7.5292979275560154e-002, 1.3331136468485800e+000,
          -4.5468012905037392e-001, -8.6229941545353828e-001,
          -1.1380376459970634e+000, 1.1901501617719494e+000,
          -1.0297123348782313e+000, -5.6069680472687311e-001,
          -4.5532203221106555e-004, -1.5414941115465979e+000,
          -4.0740511919202682e-001, 9.4030891215777535e-001,
          -4.8281307365006937e-002, -4.5644325878610142e-002,
          9.7410993069385055e-001, 2.3282090580309336e-001,
          7.7901812170530893e-001, 9.1591097556781742e-001,
          5.3184960344634513e-001, 1.1385266039302027e+000,
          1.7721889506018149e-001, -1.2366065369274365e-001,
          -1.7182034214876052e-001, 9.0922999304262586e-001,
          -3.1258007036637764e-001, -7.4376042706807888e-001,
          -4.7314206902928180e-001, 1.7210639358858296e-001,
          5.3357630541199641e-001, -4.5613571418230608e-001,
          -4.0386704643258370e-001, 6.0070021419027309e-001,
          -2.6419769385366393e-001, -1.5828788868212440e+000,
          -2.6384207225187362e-001, 1.1731797708197886e+000,
          5.9337956395563801e-002, 6.7232871212778067e-001,
          -7.8436770208010465e-001, -2.0945872998861731e-001,
          -1.1941319216188035e+001, 1.4812564838045816e+000,
          -7.1561133832350143e-001, 1.0845748282126442e+000,
          2.6894080545105753e-001, -4.6643890596525944e-001,
          -1.7362322775034438e+000, -8.0097289061254329e-001,
          3.7004095911011020e-001, 1.2118857732016423e-001,
          9.4615435979070783e-001, -2.3450664253439686e+000,
          -8.6814231414231546e-001, -9.7345908180180185e-001,
          2.3390249548499709e+000, 3.0253828928954403e+000,
          4.1768009905401104e-001, -4.2088998811116357e-001,
          2.9688683289418498e+000, -5.4478304402020405e-001,
          -1.9713769769456653e+000, -6.5467005873818496e-001,
          6.3507209244608653e-001, -6.6056300737965604e-002,
          -2.7096850837301079e-001, 1.7761553047520628e+000,
          -2.6580281498898874e+000, -3.2290929513924587e+000,
          2.1612629821254220e-001, 2.6449008919683350e+000,
          1.0391033252937769e+000, 2.5548547583018117e+000,
          2.8664159239915649e-001, 1.3599597128589260e+000,
          1.1192788678291477e+000, -4.2110592995132340e-001,
          -3.3859255897824383e+000, 4.2823233358729368e-001,
          -2.0258341466882146e+000, -1.2671737469039577e+000,
          2.4026744729681532e-001, 2.4239930028784444e+000 ]
      - [ 8.4920081865819019e-001, 6.0523720669380110e-001,
          -4.3128801358917856e-001, 1.3342887749426524e+000,
          -2.3354181052237466e-001, 1.5505333075832892e+000,
          1.1179548996035360e+000, 7.6586188176111636e-001,
          -5.7678239921590835e-001, 1.0146553374330238e+000,
          1.2066752514881693e+000, 1.0655909842949753e+000,
          2.5122596474386277e-001, 7.5545896415774472e-001,
          1.1606856567882777e+000, 2.9868392566171037e-001,
          6.8038282648998527e-001, 2.4339831897521889e-002,
          8.3124614778682257e-002, 2.4073370398536773e-001,
          9.0496519565020783e-001, 2.5516200163267327e-001,
          1.0491557486375844e+000, 1.5134323069455372e-001,
          3.7088957875607698e-001, 1.0509023578259600e+000,
          3.5674805893179884e-001, 4.5438160969824393e-001,
          -1.3648526853520770e-001, 9.1099003441764848e-001,
          3.0321365153028159e-002, 1.3191385081413798e+000,
          1.0030973734662949e+000, 5.6110354347875924e-002,
          4.9233857731226216e-001, -2.3738109976720650e-001,
          7.0083566675673659e-001, 9.3220314933887338e-001,
          -3.5973778647945953e-001, 7.8045917175201773e-001,
          -6.0382322684617096e-001, -5.6188353722003037e-002,
          6.6147440939040583e-002, -6.3239217046757959e-002,
          5.5392579829723709e-001, 7.9827501962902547e-001,
          7.0064814380233864e-001, -2.9381026607124455e-001,
          -8.4156034292420867e-001, -5.1967041822762328e-001,
          -6.0304994339013795e-001, -4.7084940660646540e-001,
          -1.3798182878454879e+000, 5.8906064791441981e-001,
          -9.0652107815241056e-001, -2.5603002674525432e-001,
          -1.1443940289797352e+000, 1.0832592187371952e+000,
          1.0616622054947495e+000, 5.6431954371005888e-001,
          -9.8180733468528691e-001, -9.3711877763432941e-002,
          9.4181359148208088e-001, 3.6308622832221016e-001,
          8.6746876088982394e-001, -2.5592759352398264e-001,
          1.0792624210358244e+000, -7.5914534050088911e-001,
          -1.0337140237399820e+000, -1.1332250928504155e+000,
          4.1462907524768755e-001, 5.1663992919289559e-001,
          -1.4697949074965220e+000, -1.2485965673829997e+000,
          -1.4543261930283629e+000, 4.9544178255921237e-002,
          1.0089615555728515e+000, -4.4131080898524605e-001,
          -1.4440269818777132e-001, -4.2052548434769488e-001,
          -3.1455734644051747e-001, 7.4897815026875758e-001,
          -2.4591037259488864e-002, -9.3520952497575716e-001,
          5.8566276441060461e-001, 4.0757147020345730e-001,
          -8.2960056040616725e-001, 4.0040301857733418e-001,
          2.9397731349530859e-001, -1.3847992955708027e-001,
          -7.5617459332748127e-001, -5.9335464670844273e-001,
          -1.6058771287239723e-001, 1.5424385000150229e+000,
          6.6232215670296113e-001, 1.1336758922347669e+000,
          6.6027489463161559e-001, 9.6991337534187905e-001,
          5.7784859255348098e-001, -5.5047625372251063e-001,
          5.4197340965372509e-001, 2.5818322113145709e-001,
          3.5049089567037517e-001, -1.0343129563587214e+000,
          4.1544627241079085e-001, 1.1453199717516833e-001,
          2.7942775827624261e-001, -9.2329773080801747e-001,
          1.6921604037565327e-001, 9.4888666683269907e-001,
          -4.4549644929416471e-001, -1.1147144746342212e+000,
          1.4370775533782441e+000, -2.7338056881456234e-002,
          -3.6736249522999093e-001, -4.7865162680457757e-001,
          -8.5394461313822634e-001, -4.5054090823296816e-001,
          -5.1660365834423039e-001, 1.7660027696538489e+000,
          6.7205924975569209e-001, -3.5097381411030804e-001,
          6.0461166231072339e-002, -3.5058856686395495e-001,
          -8.5354360117995876e-001, -1.1699565111217145e+000,
          -4.5239585393375970e-001, -1.1410509195540810e+000,
          -1.5387433364869416e+000, -2.5001258900639978e-001,
          -9.7821838541652284e-001, 5.9741443158388663e-001,
          -1.3213397688961293e+000, -2.4586506066670352e-001,
          1.4881361624266189e+000, 3.0568635457634885e-001,
          -6.7345302560693110e-001, 7.1755814610036051e-001,
          -1.7289038644678528e-001, -8.8329208473392817e-001,
          -7.2690280454526235e-001, 5.0565231340808303e-001,
          -1.6214450232006187e-002, -1.0625267090377049e+000,
          -2.3201812153272783e-001, -4.1734456164517775e-001,
          1.0312472451069130e+000, -1.1285759700322173e-001,
          -1.0643254833015066e+000, 1.9940414583964008e-001,
          -9.3993590489182843e-001, 2.2915762789693425e-001,
          2.6258352844816135e-001, -8.8939052396416796e-001,
          -4.5843823511265569e-001, 2.1079039530287605e-001,
          8.1976579685269091e-001, -1.0684365258747755e-002,
          3.6601773623687633e-001, -6.8662320803671173e-001,
          6.5020911232341161e-002, -3.0245538414503531e-002,
          -2.4052283041433886e-001, 4.6947433542351141e-001,
          -8.3045712061355803e-001, -3.0425404148065588e-001,
          2.2765478595375310e-001, -1.0067361014862535e+000,
          4.8899973017593373e-001, 1.1470680440354455e+000,
          1.1657452017273340e+000, 6.4522320653112464e-001,
          3.5848172256510996e-001, -1.2625839931956961e+000,
          1.5217561112183815e+000, -2.6017455023334429e-001,
          6.2164099707932512e-002, -1.1826875635969158e+000,
          -9.1136294321235389e-001, -1.0480961054068336e+000,
          -4.4022861521926505e-002, -8.0302324376357939e-002,
          3.7165377687365186e-001, -5.3799670972942597e-003,
          4.4538815871944459e-001, -1.8870098595957027e-001,
          5.8085866059216484e-001, 1.4114314663490579e-001,
          6.7203889032079545e-001, -3.4071408207173409e-001,
          1.0140260426323875e+000, 6.9036349385978391e-001,
          4.7521823829617033e-001, 7.4028680529372271e-001,
          1.2914873884581302e-001, -3.6645443697959962e-001,
          -1.1678378622664549e+000, -3.9065955259606339e-001,
          -6.2254695356596479e-001, 1.5136115008323130e+000,
          -8.0785972330219824e-001, -6.7699945919425297e-001,
          6.1842936410069627e-001, 7.3055964056552491e-001,
          -1.2334359254020015e+000, -1.4198399183911163e+000,
          1.0715353818227542e+000, -1.7923403096590145e+000,
          3.5297936971325727e-001, 5.4178278725320839e-001,
          -2.8025642469641820e-001, -3.0582763498502269e-001,
          7.1332104064274748e-001, 2.2231093639293903e-001,
          6.7031580203860464e-001, -2.3870599655811442e-001,
          1.1977255429006781e+000, -2.9816734869471345e-001,
          1.1419462042602129e+000, -8.8619365888655577e-001,
          -1.9202325495368495e-002, 6.0561218223346236e-001,
          3.0664759542040110e-001, 3.9294570389350678e-002,
          -8.1749679108338091e-001, -9.4591669538290557e-001,
          5.0211085697070036e-002, -4.4406625842857117e-001,
          -6.1431762939179257e-001, 1.6486580060108438e+000,
          9.7735879169875417e-001, 1.4920374805066794e+000,
          2.4621289325630827e-001, -5.9889340384681844e-001,
          -4.7754865325262413e-001, -8.4199658854736170e-001,
          4.0269029080437080e-001, 5.2512584107050364e-001,
          2.4710388895069273e+000, 5.9735511088591997e-001,
          2.2400381118605615e+000, -1.5423391887361684e+000,
          8.2561374556658518e-001, -2.7410608308599066e-001,
          2.9618743143094728e-001, 3.0480471574892432e-001,
          2.3842560354566927e-001, -5.4579565941184449e-001,
          -5.1835149012018056e-001, -1.1289895498136410e-001,
          -7.4735957286348312e-002, 1.8484020992065961e+000,
          -6.6356989984818016e-001, 7.9509756547984900e-001,
          1.5777799124193331e-001, 6.9021801038983421e-001,
          4.1728500783938449e-001, -5.1399243727027621e-001,
          6.2799131145583786e-001, 2.2802414071801214e-002,
          8.7874056487850613e-002, 1.7929479266660570e-001,
          6.9794242539016926e-001, -1.8936530097130164e-001,
          8.4064546610106608e-002, 6.9455189703825071e-001,
          6.8379470643310902e-001, 3.2460014178177193e-001,
          6.9853884505729502e-001, 5.9831829332472020e-001,
          9.3669929154492504e-001, 2.5528061900076238e-001,
          -1.1748327794007618e+000, -4.8717072330928540e-001,
          1.1699718885342025e+000, 9.7283185606300793e-001,
          1.1017124142742281e+000, -6.2522483826364728e-001,
          -9.2199661988438431e-001, -1.4195870339877376e-001,
          -9.6227809999275404e-001, 1.1342510767475289e+000,
          9.7071165500933176e-001, -4.1375864628012216e-001,
          -9.0589675036174944e-001, -3.6485675133138590e-001,
          4.4096791027322541e-001, 1.0113383192094778e+000,
          2.1173287986685785e-001, 6.0882649685073309e-001,
          -8.9793324304171451e-001, 7.8463786974819794e-001,
          8.6394102381490062e-002, -6.6627249513108577e-001,
          -9.6198437174735887e-003, -1.2884359360080881e+000,
          1.0671107133622120e+000, 1.2762490816475487e+000,
          -2.8796422596761420e-002, 7.3120499599707733e-001,
          -2.3348639484570707e-001, 3.4362259038059867e-001,
          1.5136504224845511e+000, 2.5641514536963889e-001,
          7.2115659349770478e-001, -2.6230866119276303e-001,
          8.6902500170143648e-001, -3.8570420341824668e-001,
          -3.9977049913033058e-001, -1.2146900130455427e+000,
          8.9008164643162901e-001, -4.4702076245988176e-001,
          -2.4072909448179164e-001, 1.4285051215021320e+000,
          1.2682165367391982e-001, -1.3837216450205228e+000,
          -1.1658031493916954e+000, -4.4818198444502150e-001,
          8.3954364999274811e-001, 1.4781042751872320e-001,
          -5.0511893880277348e-001, -3.3159592490789154e-002,
          -4.6375440774797250e-001, -8.2240297572393839e-001,
          1.5706086173857625e+000, 1.1984472566200653e-001,
          -8.3855983841495041e-001, -8.5471976731880908e-002,
          1.1498067017941052e+000, -7.8363105358254648e-001,
          -8.4672870782507825e-001, -3.8966864297377152e-001,
          -1.3703299894330272e+000, 4.1051580273905924e-001,
          1.0199456804575675e+000, 1.0196022376257126e+000,
          -3.4428385429945035e-001, 6.9258353027697672e-001,
          2.1996816877277520e-001, 1.0553828049838435e-002,
          -3.0026214047433203e-001, -1.3041112807807109e+000,
          8.9435440744435113e-001, 3.3779094043329178e-001,
          -4.7142210856281541e-001, -1.0122064986919743e+000,
          -7.8591116256884186e-001, 8.4989443132993814e-001,
          -8.1020695724550840e-001, -6.3901357621198729e-001,
          -2.5983574664039233e-001, 1.2158745560607916e-001,
          6.6121845764717646e-001, 3.0443604076558550e-001,
          -1.5241089128773930e+000, -3.2183884660922889e-002,
          -4.5184729764844217e-001, 1.3180302621465723e+000,
          -3.8834410789641388e-001, 6.0779502147070852e-001,
          -5.6831488004189257e-001, -7.7331244418908862e-001,
          -8.6641408693581112e-001, -1.3670118061642438e+000,
          4.7021932010072098e-002, 3.2798771096386869e-001,
          4.7173502496932379e-001, 1.0797900121421036e+000,
          -4.3676932443558414e-001, -3.1612414828465263e-001,
          5.9564364015088994e-002, -1.5826883165159105e+000,
          -1.7503147051371823e+000, -8.2535596692705149e-001,
          3.2177019179186189e-001, -6.9310727967457919e-001,
          -2.4725784349500590e-001, 1.7096043765317515e-001,
          -5.7363570304198558e-002, 4.9512738881642748e-001,
          -7.1649339723657793e-002, 7.9238766786847981e-001,
          -5.9773429919769294e-001, -3.0233786034722593e-001,
          -5.8278609127815595e-001, -5.6671189461640881e-001,
          5.5348249266878424e-001, -1.7202010096902529e-001,
          -1.9097780152014521e-001, -5.9607027050849004e-001,
          -5.2812828209879967e-002, -6.4002165791914978e-001,
          8.9792641626711589e-001, 3.0146864576921773e-002,
          5.5023042024255331e-001, -5.4356485822099498e-001,
          -8.5319648432891720e-002, 7.8660606237097686e-001,
          -4.7372940495167537e-001, 2.3483770055594988e-001,
          6.3132865149568551e-001, 3.5378515873647454e-001,
          1.0444870921152889e-001, -6.5238959273160158e-001,
          1.1773040189051773e+000, 3.3045631321599844e-001,
          -1.1921324032447913e+000, -3.1653838244728227e-001,
          -1.3616120049657512e+000, 1.1956586218219873e+000,
          -1.0343322264736902e-001, -1.3997096940529934e+000,
          -1.5664713698153288e-001, -1.7576627774634815e-001,
          1.3128732707301416e-001, -6.3302041541294887e-002,
          -9.4266652714784571e-001, 1.8145620683578316e+000,
          -8.9834728590065915e-001, -9.6962413240175782e-001,
          -2.4132838646468893e-001, -1.0693510230606118e+000,
          -9.5255294836973503e-001, -1.0901218360548708e+000,
          -4.4122106864844612e-001, 3.9548658186368474e-001,
          1.2230121865389325e-001, 4.9389297652015318e-001,
          -3.9019456226363636e-001, -9.8239700213184944e-001,
          -2.3188433156283830e-001, -9.5540793096478938e-001,
          2.1277004226239200e-002, 3.7284544368363953e-001,
          -2.6983244346172958e-001, -9.1778613910653006e-001,
          9.1694165584815424e-001, 9.1778222432917744e-001,
          -1.3632899341142373e+000, 3.4703913582334250e-001,
          5.7555509315086628e-001, -8.5648709563442227e-002,
          6.7444139745739240e-001, -8.7162837062489695e-001,
          -3.6071240958285655e-001, 3.5390719944938798e-001,
          -8.3285114971280005e-001, 2.5542342098348693e-002,
          -3.9907600889418771e-001, -9.9605310005590930e-001,
          -1.0616583515753755e-001, 8.1723791363046649e-001,
          -8.1173278391824899e-001, -4.6401036668194251e-001,
          -2.3611856971498343e-001, -1.6834711807255527e+000,
          -1.9195508549901895e-002, -2.0723103032598611e-001,
          -1.5685278591351298e-001, 1.4269069270702084e+000,
          1.2465902109241807e-001, 6.2242864636390050e-001,
          1.7621729369322023e-001, -5.1683636897249774e-001,
          1.5971501254794376e-001, 4.5407124040706653e-002,
          -2.3284030448441101e-001, 6.1968218852493073e-001,
          -3.5495011630169971e-003, 1.0435765180180481e+000,
          1.2946887374483473e+000, -8.3010892091174604e-001,
          -4.5537549844318348e-002, 8.8520727795649023e-001,
          1.7076726742823955e-003, 2.9925833446014066e-001,
          1.1312327491745628e+000, 1.0933085006455980e+000,
          2.8103787829649324e-001, 1.0262830936261398e+000,
          5.9497976330860479e-002, -1.8195550448872944e-001,
          1.4986193473206755e+000, -2.6575873183001980e-001,
          1.6466943061204220e+000, 7.1189744739976912e-001,
          -7.5436586084527102e-001, -2.8061974678649770e-001,
          -1.0522774669304171e+000, 2.3474983623243198e-001,
          -5.9256860974960057e-001, -3.8480659660745914e-001,
          -4.6115305194809580e-001, 4.7165384368720142e-001,
          1.8753590787225211e-001, 9.5139151237435737e-001,
          -2.3740758152608080e-001, -4.5648195703120197e-002,
          -4.2999729823070415e-001, 5.1329272901373635e-001,
          1.3199723101842094e+000, 2.2444914403056844e+000,
          9.1584410018060738e-002, -2.2038601028827437e-001,
          8.6457056290529510e-001, 6.4392946882567448e-001,
          -6.7207565617165399e-002, 7.7141712235002924e-001,
          3.4180572370278506e-001, -9.4121593203839338e-001,
          1.3021678898343708e-001, 1.1439890547845830e+000,
          8.9586642071567757e-001, 1.7503638385852323e+000,
          7.6248749176452280e-001, -8.3304213288122597e-001,
          -4.1913034683197392e-001, 3.4920404385965043e-001,
          -1.9582205061509550e-001, 5.0475925162420454e-001,
          9.4829813979251110e-001, 5.8500889310362636e-001,
          1.2506800556233482e+000, -2.3749166520179715e-001,
          4.5532348364399206e-001, -8.8057766440296026e-001,
          3.7237705846454439e-001, -6.9834624137799683e-001,
          -4.5345189754503623e-001, 5.5430666314877586e-001,
          2.4705520998305161e-001, -3.4075428618956660e-001,
          4.6609401665258965e-001, -2.3290844952702588e-001,
          -7.8075901790889213e-001, 8.6658087932531958e-001,
          -6.1159126400148756e-001, -2.4199451874173941e-001,
          9.9231091782353731e-001, -3.6230764575803337e-001,
          -7.0358080122772215e-001, 1.6401327393172256e+000,
          -1.2343028731705739e+000, -1.1447983131388628e+000,
          -1.6696158332643246e-001, 2.6167979697904931e-001,
          -6.4880925584441518e-001, -1.8005976226518289e-001,
          -2.8194480381844078e-002, -5.3077876686428382e-001,
          8.1473222260984623e-001, -8.1169303929202286e-001,
          -2.1787219462053559e-001, 9.0815117998680006e-001,
          -8.0253863876743603e-001, -7.8832108115790533e-001,
          1.1482530199388163e+000, 4.3912943662986470e-001,
          -8.7087982764507543e-001, 8.8549154386700679e-001,
          1.4736283802796243e-001, -2.5625281076544076e-001,
          1.5119737687237036e+000, -7.0469515138316108e-001,
          3.2824220350357612e-002, -4.3994532633851419e-001,
          1.1332930340565608e+000, -8.6202727471235774e-001,
          8.7435708664100864e-001, 5.6803923386357524e-001,
          -8.8290725772983192e-001, 1.1682968629660457e+000,
          8.0143945232843061e-001, -3.3213940862028835e-001,
          1.4333170589964209e-001, -3.6347466262077244e-001,
          1.2068265573791661e+000, 1.1592806728957825e+000,
          6.5347204122886804e-001, -9.3297216444067077e-001,
          1.0664197385931649e+000, -6.4390379590984426e-001,
          -4.2908630201918385e-001, 3.1623589046556366e-001,
          5.0859326023704376e-001, -1.3372978126534674e+000,
          3.9214646115986274e-001, -3.9565699263454801e-001,
          -1.7414795051534249e-001, 7.5693057131085720e-002,
          -4.4920427260948359e-001, -7.7276553855048347e-001,
          -5.4020499515089060e-001, -6.1932766404635631e-001,
          4.0839035663808493e-001, -1.3972556262472716e-001,
          6.8022005143863162e-001, -1.2939025392244787e+000,
          5.9144444420651021e-001, -8.3615394580042735e-001,
          2.5084803152278828e-001, -2.7451624284185899e-001,
          -3.2666070123740465e-001, -1.2946660811599253e+000,
          3.7062053737716166e-001, -5.5163396576037793e-001,
          -7.5483283997914519e-001, 1.7452231364740378e-001,
          6.2744154576189107e-002, 3.0583537754603379e-001,
          -1.2815590903992566e+000, -1.1576299359570121e+000,
          -2.8531898071495715e-001, -4.6624177906783304e-001,
          -9.9760944462102175e-001, -8.5678799058387800e-001,
          -1.1787060712981141e+000, -7.1830969657706567e-001,
          1.2150239785839628e-001, 1.3320887642766499e-001,
          -3.7983833072745865e-001, -2.1903188312095054e-001,
          -9.6926499021301527e-001, -1.8029408860660495e-001,
          2.2260521134080134e-002, 5.5053463230735766e-001,
          -5.6612620659848689e-001, -9.5432037006190717e-001,
          -1.0612596103322811e+000, -1.3897091806330035e+000,
          3.3758410976996039e-001, 1.0251664127211856e-001,
          -1.6663205599544240e-001, -8.2961294859349444e-001,
          -9.0827031625035226e-001, -1.8733547156505723e-001,
          -8.3686202104439800e-001, -6.2994474688494773e-001,
          -7.9741490088723477e-001, -7.9109933174516445e-001,
          9.8463721375860749e-002, -5.7002121938605410e-001,
          -8.3350361448168975e-001, 4.1315662217384680e-001,
          6.8334584756084782e-001, -1.4957925824415814e+000,
          1.2456748529869950e-001, -6.7483885724681614e-001,
          -6.3898195519468548e-001, -3.4445429721014054e-002,
          4.6468999883496662e-002, -1.1154682997148024e+000,
          -1.1900421957093734e+000, -8.8426574033137018e-001,
          -6.0195768179075815e-001, -2.0524127279780773e+000,
          2.3239420244125966e-001, -2.7871853521793577e-001,
          9.1653318657431937e-001, -1.1450892776743380e+000,
          -9.2453234019658981e-001, -6.9164130876552399e-001,
          1.5782014263966393e-001, -1.0901879525251221e+000,
          -6.1864249731801624e-001, -1.3297959892532214e+000,
          -9.4843383687702254e-001, -2.0659929334403579e+000,
          -3.6673350129275376e-002, -7.0017640074455534e-001,
          -1.1576066111630216e-001, 1.5782001155758768e-001,
          6.7046497822448681e-001, -6.8629807795376793e-002,
          -1.0970204481560879e+000, -1.1736365320701471e-002,
          -1.4610772597040695e+000, -1.0017758922455191e+000,
          -2.9847934831966560e-001, 4.4250300101141815e-001,
          -2.3092885557759253e+000, -1.1888775386178621e+000,
          4.5754584861102215e-001, 4.2112440396028389e-001,
          1.3181470896297406e-001, 3.2568337792240271e-001,
          -1.3115573217322410e-001, 3.2997553619837805e-001,
          4.3355506921117427e-002, -1.1040627080599945e+000,
          -4.4098282841456095e-002, -5.1202324632051133e-001,
          3.0817488363408741e-002, 3.8120868807444502e-001,
          6.2542537733404804e-002, 6.6038531248175569e-001,
          -8.6333241908103642e-001, 4.3153723317557330e-001,
          -5.5934771553131513e-001, 1.3167532566173154e-001,
          1.7633407345477603e+000, -3.5277671779052622e-001,
          -2.0311865553832481e-001, 6.1273544414891823e-001,
          -7.5897774908033044e-001, -5.5606927370721071e-001,
          6.3182621012754703e-001, 1.0614203270047380e-001,
          -2.2731104248405014e+000, 2.2780423866916782e-001,
          9.4370044401444697e-001, -6.1358351720422999e-001,
          7.5146390386764017e-001, 4.0855851728448966e-001,
          -2.4528871930644644e-001, 2.5252046133222994e-001,
          -6.7385835721918996e-001, -3.8667702403956850e-001,
          -6.1772321063452951e-001, -2.3746795081740438e-001,
          1.4227486715253479e+000, -6.4981740089219731e-001,
          7.7838649641634383e-001, 1.1712170036756375e+000,
          -8.2416001075036371e-001, -3.5881483131921860e-001,
          -4.6722048989988679e-001, 7.2974260690348980e-001,
          4.7146204247666063e-001, 5.4881302773457419e-001,
          1.9573147281286807e+000, 7.3803115227774918e-001,
          4.4863235022708653e-001, 8.6294500698209031e-001,
          -1.2798359293938506e+000, 1.1539505385690210e+000,
          -5.1499867926191445e-001, -9.0355355147744121e-001,
          3.0219141293883756e-001, -1.5114991505088256e+000,
          2.4467352889636823e-001, -1.2541067047798260e-001,
          -1.2545048889208246e+000, 1.0011285223249091e+000,
          -9.2900781590241255e-001, 2.2337706491220204e+000,
          6.3715048077466130e-001, -1.1653826048222402e+000,
          2.2614742072833725e+000, 1.4780201689895808e-001,
          -1.0632100098866712e+000, -2.4247770476923955e-001,
          -1.0772817577768459e+000, -9.8175674785962885e-001,
          5.3733274529210828e-001, -2.0677604586429940e-001,
          -5.6925923983423854e-001, -8.4240029382071846e-001,
          2.7160814751193008e-001, -1.1765461457456474e+000,
          6.5091853049755832e-001, 1.3853460248238975e-001,
          -1.0095471336529548e-001, -8.8133280993779728e-001,
          -1.1982130964328908e+000, -1.1428247532466431e+000,
          7.2669203507609059e-001, 1.1997267715021426e-001,
          2.3237229984555116e-001, 4.0072265896493781e-001,
          4.4369588900525297e-001, -3.2013472440332352e-001,
          -7.4618511254513964e-001, -9.4255815797748033e-001,
          -9.3445722787305474e-001, -5.5573650024761367e-001,
          3.6933211069447330e-002, -1.3877578448428012e+000,
          -5.3553397215188714e-001, 1.7685027482509844e-001,
          -1.1235417502473157e+000, 2.6160133077188769e-001,
          -6.3401791499282290e-001, -1.1725311939630192e+000,
          -1.2746766479450107e+000, 4.8267179040191172e-001,
          -1.2872542335869559e+000, -7.7421686624223707e-001,
          -9.4589246958098649e-001, -1.3220091676806662e+000,
          -3.6692639413612504e-002, -7.3773028975788169e-001,
          -1.6824262045482111e-001, -7.6660229838874749e-001,
          -1.0732937252446886e+000, -1.3456665949525626e+000,
          -6.6496513916670619e-001, -1.6182098062367174e+000,
          -1.7940519940349858e-001, -5.5880684364006972e-001,
          -5.4826793298556931e-001, 3.0808131428375751e-001,
          -6.0200889516103173e-001, 3.5758795607946725e-001,
          4.3677139223738620e-001, -9.9639743805515801e-001,
          -2.2640724616428518e-001, 6.0397572263782173e-001,
          -1.0329226795337765e+000, 3.3219932540890679e-001,
          2.4504139527599714e-001, 5.0147891062482419e-001,
          -9.1079546056142435e-001, -1.5484649250732059e+000,
          -7.8695705303205232e-001, 6.7914300619439616e-001,
          -3.9843736554180831e-001, -3.4203783569934848e-001,
          -1.2380400849112107e-001, -8.4120081567523830e-001,
          -5.4077155033838448e-002, 4.4509917065291671e-001,
          1.1127783417401618e+000, 1.7998835026576301e-001,
          -2.6983125224548060e-001, 2.7077890843915625e-001,
          -1.9891472234916493e-002, -2.6430978674298039e-001,
          9.4133454931012750e-001, 7.6162895916249018e-001,
          -7.8287387628667293e-001, 1.6825589684823850e-001,
          4.1399258048737941e-001, -9.2971312781968046e-002,
          -1.3815095147634888e+000, 1.0560294883654324e+000,
          8.5581806904481569e-002, 2.6398615629507921e-001,
          2.8865178199444796e-001, -6.3176161983593326e-001,
          9.2931102554055844e-001, 7.3566875902673246e-001,
          8.2868094028195771e-001, 6.1894952883588727e-001,
          -1.6202282017862010e-001, 3.8573813992668382e-001,
          -1.1359020761075483e-001, 9.7485362759669547e-001,
          -2.5931529716623353e-001, 5.0963609148739841e-001,
          8.7329019127774210e-001, -7.4393680769429693e-001,
          2.6056081026842148e-001, 1.1013793501483245e-001,
          3.6472055314371299e-001, -6.9885836761955800e-001,
          8.2260906024108538e-001, 2.2598876570026127e-001,
          3.5748069342834787e-001, 1.0496609543097886e+000,
          -5.0642077010563391e-001, 1.5137837352634884e-001,
          5.6712932801483951e-001, 1.0861862862086453e+000,
          2.2307942140081818e-001, 4.5278919720965921e-001,
          -4.0254520570971264e-001, -3.7720990351719808e-001,
          -6.6469854957142874e-002, 7.9929040609487612e-001,
          9.6252959018774087e-001, 1.4478640072153042e+000,
          5.3368391458073661e-001, 5.4941600196917417e-001,
          9.3394570139062671e-001, -4.2857319351242684e-001,
          1.6656462745128237e-001, 1.4020050868106677e+000,
          3.1392181716589518e-001, -3.5739926026992053e-001,
          -7.4131239750696598e-001, 7.9070040360477412e-001,
          -6.4736204684772827e-002, 7.2696105267978284e-001,
          -7.7996078584095618e-001, -6.6828266332828359e-002,
          -2.0329778136284624e-001, -7.5825449158322664e-002,
          6.9098299309685680e-003, 5.4812129096484186e-001,
          -7.8470171227668795e-003, 1.8922313013657457e-001,
          -7.0310221138257056e-001, -1.0667707200144823e+000,
          1.1630001558330101e+000, -7.6596911133989409e-001,
          -7.8042226452168884e-001, -9.4392582416841864e-001,
          -4.5816643156530595e-001, 3.4283806412160572e-001,
          2.6733701473869953e-001, 7.3270756157292194e-001,
          4.7426586352988781e-001, 2.8437562065846428e-001,
          1.1256234632993947e-001, -4.5239441267117958e-001,
          -4.6527221549381115e-001, -2.5279974229238183e-001,
          1.3719162160895901e+000, 1.1272599518740749e-001,
          -2.1435097191508570e-001, 6.3596055977224430e-001,
          -3.8419939726086254e-002, 1.4916204740742394e+000,
          4.9933581812697259e-001, -1.1216966870064900e-001,
          1.5484376169167896e-001, 8.8358163474821716e-001,
          -1.1008445653950849e+000, -6.7316461039170028e-001,
          -1.3659947165921080e+000, 2.7781047142397464e-001,
          1.0086644558186979e+000, -2.4597129490708906e-002,
          -3.0314767285087357e-001, -5.3383698501859456e-001,
          5.1751387429918461e-001, 3.7315740776546080e-001,
          -7.8969978188035383e-001, -1.1095258476269343e+000,
          6.0378547709861408e-001, -1.3602814394614091e-001,
          6.2777384020369442e-001, -2.8960721407707396e-001,
          -1.2415122491020578e+000, -4.0703541485291761e-001,
          -5.4867873548463020e-001, -6.4068406949619350e-001,
          -1.5864044595604823e-001, -6.0457073853502874e-001,
          -3.3594762286175145e-001, -7.5652554922862780e-001,
          8.7567050339631261e-002, -8.2531385440559313e-001,
          5.0447282163943685e-001, 1.2345976415681610e+000,
          -6.9748144187478645e-001, -8.7669123737940735e-001,
          2.5038509021089672e-001, -8.9531304978795145e-001,
          7.9944734034604825e-001, -1.4737594582495175e-001,
          9.2177149065838115e-001, 3.1456472819021891e-001,
          1.1744814973194027e+000, 4.9588974680840353e-001,
          9.6255626383980097e-001, -1.0004043231083932e+000,
          2.7602118621087657e-001, -5.8273969587992280e-001,
          8.4461838586695914e-001, -2.5794063111102156e-001,
          1.7420482687877054e-001, -9.6160606750787903e-001,
          -9.8458726339613722e-001, -5.9572435427695680e-001,
          1.0797701456978157e+000, 1.5134238559236608e+000,
          -8.8570218485897811e-001, 8.9456451144624666e-002,
          4.9148048834609726e-001, -1.9965599214771841e+000,
          2.3479255645665698e-001, -4.5331569421019435e-001,
          -1.2750001957212653e+000, -5.1184332228973950e-001,
          9.5460973555420214e-001, -4.9220306272626307e-001,
          8.8932066871772719e-001, -5.5745392358286983e-001,
          8.3928370842123878e-001, 1.0113967984420467e+000,
          -1.0894406976270496e+000, 8.7245779928346634e-001,
          -1.3479681341075747e+000, -9.3950171261145654e-001,
          3.3591718329655157e-001, -4.5080334256687016e-001,
          2.0358269793261052e-001, 2.9657088149137093e-002,
          -5.4628066508424189e-001, -7.9046099656242402e-002,
          -3.4858070032983612e-001, -8.3756144530068230e-002,
          9.2966892028223214e-001, -3.8060641023668523e-001,
          -9.3372454016611905e-001, -2.1060410204853635e+000,
          1.5827021092430502e-001, -5.0599868775120613e-002,
          2.1040236429312937e+000, 1.9889161492021994e+000,
          8.8767259853308222e-001, -1.6441751379040066e+000,
          6.4537333135390196e-001, 3.6597981986034583e-001,
          8.3259110576709405e-001, -3.9482144752762088e-001,
          -1.6035169188559639e-001, -7.4972165559068951e-002,
          -8.6890011701904191e-001, -3.3340028743340316e-001,
          9.1984873635243450e-002, 1.8092420868236221e+000,
          -5.1828642436382955e-001, -3.9714427081085923e-001,
          -7.9345501519792527e-001, 4.3093012593333008e-001,
          -2.0785870456307584e-001, 8.4901822760376999e-001,
          -4.7287180032373766e-001, -6.0069982554002432e-001,
          -6.4016456244926601e-001, 7.2796663056252919e-001,
          1.3609800871547542e+000, 1.6088909706289276e+000,
          -8.1494124548399127e-001, 4.9756376747840758e-001,
          -4.4901580446960698e-001, -1.4399599659439453e+000,
          5.3614090371542178e-001, -1.0475268247029841e+000,
          2.6618779488737077e-001, 4.5250033609987023e-001,
          1.2404039533566202e+000, -7.2833534405518563e-001,
          -1.0464368309495560e+000, -5.2485058605047452e-001,
          -2.3076117037739782e-001, -4.4103146711577851e-001,
          8.6198653487636223e-001, -1.4361662224922808e-001,
          8.2375300569460175e-001, 8.6982218566692893e-001,
          -5.9880235551886085e-001, -7.8364979576747917e-001,
          4.2587320268427387e-001, 1.1138306350495462e+000,
          -7.7487711279714688e-001, 8.4326428213795201e-001,
          -5.4332650896513812e-001, 1.6195056618565723e-001,
          -6.6506598519494597e-001, 5.6704010980293251e-001,
          -6.1672046542785031e-001, -7.1068893714485082e-001,
          9.8850104199303823e-001, 5.2729591040812859e-002,
          -8.9068232881397003e-001, 8.2606167659389232e-002,
          4.9039825269204107e-001, -3.1887639597926937e-001,
          -4.0947567252427181e-001, -3.8666128866723777e-002,
          -1.2998266118439772e-001, -1.0013706467099031e+000,
          -6.2348108817870829e-001, 3.2740014167189546e-001,
          9.4019856045385153e-001, -8.3089795949204670e-001,
          -1.4414577892857372e+000, -1.2432755556975190e+000,
          7.2642663201909108e-001, -1.0289862789269457e+000,
          7.8320956149998695e-003, 7.8080314280546459e-001,
          2.4256784001203477e-001, 6.0259341410066092e-001,
          -1.0404603354263053e+000, -9.8799905445382430e-001,
          -9.6313713298410764e-001, -8.4153840417382964e-001,
          -5.4302419148166448e-001, -7.1838448687251782e-002,
          2.6293215101438738e-001, -9.4699368205438186e-002,
          1.1582992339171434e-001, -6.2200922837578465e-001,
          -1.2354494261083290e-001, -4.4952461236664565e-001,
          -7.7308526812919087e-001, -6.3368297857600853e-001,
          -3.7544756345517766e-001, 9.0866273806220565e-001,
          5.7994962447867793e-001, -1.7074796154836205e-001,
          1.2851664604838222e+000, 6.7908514031248146e-002,
          7.2263812075883749e-001, 1.1369169257399400e-001,
          1.2201072586663446e+000, -6.0089988284766027e-002,
          1.0157741245183418e+000, -3.7269973417355723e-001,
          1.4241818945589568e-001, 2.8148333105383955e-001,
          8.6557473213686009e-001, -1.6286136393084061e-001,
          -9.3811084060629428e-003, 8.5064157621170519e-002,
          -2.4942811426933276e-001, 1.2848239429155668e+000,
          2.4656180220672400e-001, 1.1368063627814029e+000,
          2.9974939028723385e-001, -4.5268972520621453e-001,
          2.9592600892757970e-001, 6.3266933296665817e-001,
          1.0958161370863126e+000, -5.7625557072650402e-001,
          1.4764386543083738e+000, 4.8526633954402137e-001,
          3.2596222252723467e-001, 2.5919255619923948e-001,
          8.6882095674102200e-001, -3.8248756902137226e-001,
          2.2822852852931982e-001, 1.2509375301884751e-001,
          1.4933024247409838e+000, 1.2339546614684751e+000,
          1.2745920349633397e+000, 5.4101735287052100e-001,
          3.6298671406203231e-001, 8.7969012323401019e-001,
          -3.1811743005277743e-001, 1.4800422103587632e+000,
          1.3626654255104749e+000, 1.0925975499801783e+000,
          6.6521318878787361e-001, 1.0053333657994171e-001,
          1.2607019064547909e+000, 4.6703884424369714e-002,
          1.7455922467916214e+000, 1.3807028015731251e+000,
          1.0832811634854538e+000, 1.2541541062517982e+000,
          1.2341493646829874e-001, 5.0463476669622243e-001,
          5.9694033420928494e-001, -2.8005123198712711e-001,
          1.2357842727705959e+000, 1.4025128558328472e+000,
          4.9539015242417545e-001, 1.2340818621876213e+000,
          6.3250577730422819e-001, 9.8890087045419639e-001,
          4.3718558795854526e-002, 8.8632056345547039e-001,
          5.9558407342153552e-001, -2.4796399152757520e-001,
          -2.1051532801044523e-001, 6.7495023266347065e-001,
          3.2000565957156046e-001, 1.4136655901030173e+000,
          6.2663850357317430e-001, 9.2522480062872814e-001,
          -2.1758196818588540e-001, 4.9352249502644696e-001,
          1.4426008677685858e+000, 1.5075333818667525e+000,
          6.8690281147865317e-001, 1.5562532440414092e-001,
          3.1732396756635062e-001, 6.5557978156961239e-001,
          8.6914170247555400e-001, 8.6164177257489971e-001,
          3.0986106919298090e-001, 9.5402380512034934e-001,
          1.1643865433207168e+000, 5.5481100629873548e-001,
          -1.1372816629716178e+000, -1.9300379122641746e+000,
          -3.2127895367631215e-001, -6.9705297965849666e-001,
          -5.3939246343177449e-001, 9.2159287239778465e-001,
          2.5478179621949026e-001, 6.4075117034465390e-001,
          8.8945044707255450e-002, -6.6977251547466377e-001,
          5.3487822774323412e-001, -1.0259131269291109e+000,
          -8.1568807935466492e-001, -1.8678003711096861e-001,
          -5.9644772325586526e-001, 4.1290405015122472e-001,
          1.7845341838211775e+000, 1.7679430848883324e-001,
          7.0047879190037943e-001, 1.0139395500645429e+000,
          4.9489195649369927e-001, -8.9464747389927191e-001,
          1.0832116942694887e+000, 3.2486576206966816e-001,
          2.9845104271286726e-001, -4.3769874438711071e-001,
          1.1253131906101785e+000, -6.4782332729778913e-001,
          -1.4502817163599380e-001, -9.6972753946577650e-001,
          2.9077277081939329e-001, -8.1763780499924876e-001,
          1.0336428153054209e+000, -1.2236909413302324e+000,
          3.8503491244430188e-001, 7.5852159228919991e-001,
          2.1997772595129142e-001, 4.6932729472281892e-001,
          1.3396350151819447e-001, -8.2718977359091339e-001,
          -9.2473715050300698e-001, -6.1063967989629812e-002,
          -6.5806478848031669e-001, -9.8471341251354305e-001,
          1.9312699082519580e-001, -1.0403917052446694e+000,
          7.1052258045535568e-002, -4.8508139637368650e-002,
          -5.0018121343662902e-001, -1.1703461610768908e+000,
          2.1576856255476604e-001, -6.6245596370192683e-001,
          -4.3156832024178121e-001, -1.1557199667983371e+000,
          -1.2939120386352621e-001, 5.4315200715849643e-001,
          -1.0067927472290035e+000, -8.2117031371790480e-002,
          -1.3568236928825164e+000, -7.3079701573464351e-001,
          -4.4316785734292652e-001, 2.3994852940296391e-001,
          -2.6815136215938225e-002, -6.9669680818152557e-001,
          -2.8179133024482689e-001, -3.5174937991394623e-002,
          -5.8185603995612944e-001, 9.6422186025673526e-002,
          -1.3665790928933714e+000, -7.4157084642272109e-001,
          -3.2486892667344908e-001, -4.3724200567528287e-001,
          -7.6120732497256927e-001, -6.7777321487828590e-001,
          -4.6946503447146987e-001, 2.4165343054733679e-001,
          -9.6032736329042701e-001, -6.4053825245320561e-001,
          -1.3070762061794688e-001, -7.3106456596261393e-001,
          -1.3743247140338701e+000, 1.6971825260961354e-001,
          -4.6625927106235782e-001, 1.8383911608219619e-001,
          1.1583644994649567e+000, -8.8622355575232692e-001,
          -2.8722986671156198e-001, -2.1597593235267507e-001,
          -1.2297610671409138e+000, 2.4091594674413946e-001,
          -4.3164441951301408e-001, -7.9524084803270878e-001,
          -6.0742250508909224e-001, 1.3414836980065983e-001,
          5.8228431176760331e-001, -1.1798447856019781e-001,
          6.4920705284927538e-001, -1.2411579348374326e-001,
          1.0893384872776107e-001, 6.3135297702071014e-001,
          1.1326950789168601e-001, 4.6591760181413472e-001,
          6.1208599298722255e-001, -6.7927356294296282e-001,
          7.7182905588572892e-001, 4.1093126716865158e-001,
          -3.8603949584242453e-001, -2.7167868338453244e-001,
          5.9491320972075612e-001, -9.7645909738308889e-001,
          5.1100825295561586e-003, 2.8967992937421994e-001,
          8.2866588145993769e-001, -9.1396241004386380e-001,
          1.3013210420669530e-001, -4.4331840744248002e-001,
          -3.0276285884330423e-001, 1.0626319162992846e+000,
          -6.0168762905557016e-001, 1.4314967939950076e+000,
          2.2858721483444699e-001, -6.9416234452989023e-001,
          -1.2595875198506989e+000, -4.8950356405817491e-002,
          -1.0707986593214465e+000, 1.0154411696923736e-001,
          -6.0053960670935413e-001, -1.3211971440506698e+000,
          3.8349196638896765e-001, 4.4207669155763285e-001,
          -2.3048143277838790e-001, 1.9720736186866983e-001,
          -5.5588616218273390e-001, 3.3266271852479318e-001,
          -2.1423929790911334e-001, 5.1212260601822102e-001,
          -4.8667153312557654e-001, -1.3779064598063323e-001,
          -2.5781078033318461e-001, -8.3085685953801036e-001,
          1.7823265925197501e-001, 2.9221229820273598e-001,
          -1.2952929077727728e+000, 5.9226439661045416e-001,
          -3.4627447381504070e-002, -5.2490478315045497e-001,
          -9.0821648779947550e-001, -1.0650341913072627e+000,
          -1.0884843376261555e+000, -1.4504674801802395e-001,
          -1.1306694240292656e+000, 3.4297789151971403e-001,
          -3.2275042291840023e-001, 1.5152321708006650e-002,
          2.8085951791959640e-001, 2.8106149536229491e-001,
          -1.2472924651982409e+000, -7.2744546245426278e-001,
          -6.1423726308922355e-001, -3.8642859278353031e-001,
          -1.3961614112905396e-002, -8.6318852106050847e-001,
          -2.6897867947601828e-001, -4.7164932117951353e-001,
          -1.0096174933917508e-001, 8.0195390205522368e-002,
          5.3643057906444913e-001, 2.6021919771045959e-001,
          -4.6704840303579409e-003, 8.8498062313981135e-002,
          1.0614417326813583e+000, -5.9432728408067126e-001,
          5.6686031437488538e-001, 1.0362649208194514e+000,
          -2.6793168556134173e-001, 9.5741313094841385e-001,
          6.6652068952661370e-001, 8.6628263242599490e-003,
          -7.2783246584260608e-001, 6.6828071728120564e-001,
          8.0577949646657865e-001, -6.4387745669817220e-001,
          -9.6612061243156289e-001, -1.1474776146122476e+000,
          -2.8466588393522452e-001, -5.9952060164586318e-001,
          3.1964222656824182e-001, 7.6995845376935634e-001,
          -8.7429737235952443e-001, 1.7051489243335158e-001,
          -8.4117741820965486e-002, 1.0885923916939937e+000,
          -1.8097412285061829e+000, -6.9314209134960370e-001,
          2.3981194956278598e-001, -9.8296972471392774e-001,
          -2.5759054157653005e-001, -5.3760181182152100e-001,
          -2.9157526014383850e-001, -1.0526710941244977e+000,
          2.6990300705937020e-001, 5.1188262177026522e-001,
          -1.0644507062534609e+000, -1.4655418725379481e+000,
          -1.1960033014516507e+000, 2.2597486362857455e-001,
          2.4843734657819255e-001, 8.1733797891827364e-001,
          -3.7836681586605703e-001, -1.0133519582242374e+000,
          1.2294405243330832e-001, 2.9059760485474362e-001,
          8.8525025692968606e-001, -4.9728620300324339e-001,
          6.8563107159595105e-001, 4.6369411493951374e-001,
          1.3133759217442803e-002, 3.7741147135442910e-001,
          5.7147137426662276e-001, -9.0342005815910420e-001,
          -1.1172432620268165e+000, -8.4723520127303242e-001,
          -9.1862886941794997e-001, -6.2504949295207002e-001,
          1.1591822063766280e-002, -1.7769494896480657e-002,
          -8.0940061807728347e-001, 3.5861792876781107e-001,
          3.9106211307361655e-001, -1.0553250491474748e+000,
          7.5205035589182101e-001, 8.7804204094427141e-001,
          2.2563028370856311e-001, 7.0223955210669806e-002,
          -1.0615930937687892e+000, -8.3639365861513415e-001,
          -5.4362532646704276e-001, 4.3787825505924244e-001,
          -1.1011946876229424e+000, -7.7394022417856256e-001,
          -1.0002072204854391e+000, 7.4332667297925181e-001,
          -8.0386757631191241e-001, -7.0879783316920597e-001,
          -8.3802901475871505e-001, -4.6979059988356892e-001,
          3.5983981306659441e-001, -4.5626428906289407e-001,
          -9.0357189070646904e-001, 3.3253709745208992e-001,
          -1.0587314715696365e+000, 1.0850643944928476e-001,
          1.2837010391748089e+000, 7.5406826082318190e-001,
          -3.6730202910281662e-001, -1.2562486200815708e+000,
          -1.0510250064224629e+000, 7.9160737939519433e-003,
          3.6150205162306048e-002, -8.7217928619055407e-001,
          2.4457189599622201e-001, -4.7822238590613031e-001,
          -4.1563270836967797e-001, -6.4626674152509223e-001,
          7.1826370467358025e-001, -4.6567165071916250e-001,
          -2.8695928050636203e-002, -6.8984611932780404e-001,
          -5.6735618414019168e-002, -6.8634629483026188e-001,
          -7.5309054054196956e-001, 5.1902484123445647e-001,
          3.1027786973576355e-001, -8.1171506974292695e-001,
          -5.9600725168241520e-001, -1.9680360979578493e-001,
          -7.6438417242862911e-001, -7.2960655038929823e-001,
          -3.2818225250852284e-001, -7.6172781669818890e-001,
          -1.5944731861897687e-001, 3.9172835448493282e-001,
          -3.4916573683128338e-001, 4.9094271005931528e-001,
          -1.9474094870796252e-001, -1.6889165522539482e-001,
          1.0236207924446064e+000, 5.7070437586274736e-001,
          2.7730399213518947e-001, 5.2853393283561345e-001,
          5.4452970627654929e-001, 6.2062331177491847e-001,
          -6.3953049895757019e-001, 4.8947111384723158e-001,
          -1.2426313479710873e+000, 6.8365865736231518e-002,
          -7.7784429303833125e-001, 5.7354606855763068e-001,
          -3.4834232406999910e-001, 1.0997770819127455e+000,
          5.2435735120423133e-001, 4.4489816413154949e-002,
          -3.7745904235354300e-001, -7.7696793166732470e-001,
          -4.4812123044323510e-001, 7.4352938684671410e-001,
          7.5747697314361340e-001, -1.2297112257575189e+000,
          -2.8144190047136985e-001, 9.6961646867211126e-001,
          3.1866772291894191e-001, 1.2161911139682156e+000,
          4.3383931130629377e-001, 6.0596236185310748e-001,
          -2.5541233415021630e-001, -1.0064001615799525e-001,
          -1.0175663164581048e+000, 3.6107625430036799e-001,
          7.2335366189487338e-001, -3.8298654666459242e-001,
          -1.1534083489492810e+000, -5.5735653085412162e-001,
          -5.8076381529296872e-001, -6.4861435919658239e-001,
          -3.6530029414639498e-001, 1.3553249737466679e+000,
          8.6235502318612933e-001, 1.4605389401326170e+000,
          -4.8920682320439363e-001, -1.0307116040200675e+000,
          -8.2877218938276020e-001, 6.1089460053350242e-001,
          1.1723330019601241e+000, 5.5536866819821240e-001,
          9.5844272050727888e-002, -5.6466836105734164e-001,
          8.2904380087478025e-001, 6.9917709733770261e-001,
          9.5455887453310539e-001, 8.1044556390742661e-001,
          2.1265691548825560e-001, 7.8360244412435151e-002,
          4.3670945204267081e-001, -5.1989259706075974e-001,
          -6.5708973840792231e-002, 1.3310300866958402e-001,
          8.0544315991463639e-002, 4.9787757889176609e-001,
          1.2188257083767162e+000, 3.4169717867013927e-001,
          9.7446267910072282e-001, 6.4144309133006405e-001,
          1.0997403549066469e+000, 1.1744429607726474e+000,
          8.7130269042877617e-001, 3.4068600262247206e-001,
          1.0037575287207707e+000, 7.8094258865568089e-001,
          -2.7980886883933098e-001, 1.0585812463197994e+000,
          1.1075419276758132e+000, 1.1651441467703718e+000,
          8.7482966287162156e-001, 1.6608349876076784e+000,
          3.4336138402856597e-001, -4.3366133486552137e-003,
          -1.2375985947775274e-002, 6.4394914645939539e-003,
          1.2898016219553723e+000, -3.4463522890075848e-001,
          2.7901759144410504e-001, 5.4411285858068988e-002,
          1.0956132233206735e+000, 4.9139909413990657e-001,
          5.3032607192348091e-001, -5.1169133075913464e-001,
          -1.2349002140585356e-001, 2.6759386626570497e-001,
          1.0135273572640671e+000, -2.0190377744537691e-001,
          7.0279095525496282e-001, 5.7128539229124276e-001,
          -1.2873388820591127e+000, -3.8706334715786817e-001,
          4.0566480467924465e-001, 5.8436010254421057e-002,
          4.7141480680175007e-001, -8.5959806253438742e-001,
          -5.0114532743929641e-001, -6.4405561461543792e-001,
          -1.9051388664943755e-001, -3.1773829912184481e-001,
          -1.6690375075215427e-001, -1.3125635590011364e-001,
          7.9132813737420893e-001, -4.1035033418361899e-001,
          5.5803794195782873e-002, -9.0551618109776311e-001,
          3.0910329518142959e-001, -1.1117955704464536e-001,
          -1.0353154681805568e-001, -8.5215177979585680e-002,
          -4.6075295918350084e-001, -1.0953609751932389e+000,
          4.5479785617472046e-001, 1.6327706902875527e-001,
          -1.2796971276517685e-001, -5.4221222087266618e-001,
          1.2738459977621610e+000, -1.2914510331758202e+000,
          -1.1937540162881874e+000, -4.6838095630290189e-001,
          -9.1730144179607065e-001, -1.2184121599636255e+000,
          -7.9658309563330296e-002, 8.9459555184480355e-001,
          -7.3715279025756730e-001, -7.1723125203620752e-001,
          -1.4482080874075517e-001, 4.6886120154785554e-001,
          5.7914372631272934e-003, -9.0715718862493688e-001,
          -5.6334651640927269e-001, 5.3510878749850987e-001,
          2.5861757485777120e-001, 1.1517168219938416e+000,
          -4.9468973224981599e-001, 6.7704926680118138e-001,
          4.9170929260034474e-001, 3.1832376764491993e-001,
          3.0544016737346741e-001, 9.1308205464250569e-001,
          7.6932663619068464e-001, 4.2087932734663866e-002,
          -1.5854905695149552e-001, -4.6516221446402339e-001,
          -4.3746653095645904e-001, 1.8318979345712474e-001,
          1.2887449072988123e-002, 1.3595378996091800e-001,
          -1.0237467318019455e+000, 8.0627896472629512e-001,
          8.3865263188169625e-001, 4.5882479986733188e-001,
          1.5709737611699523e-001, 1.9798490551801912e-001,
          9.8002522817330751e-001, 1.1260482749306941e+000,
          -1.4793101332955314e+000, 6.1688898554869220e-001,
          5.5909033423281118e-001, 1.2352739321440787e+000,
          8.2837597731841206e-001, 1.6260599349798166e+000,
          6.4918987068884593e-001, 6.3415332968993821e-001,
          2.3839126716431508e-001, -4.1805330374849692e-001,
          7.9135080053585971e-001, -4.4567134659961127e-001,
          7.7316067886619000e-001, -7.3136460946362924e-001,
          -1.7166185709160259e-001, -4.5726060591956066e-002,
          8.1227217006558061e-001, 4.2799344267088885e-001,
          -6.0661671506253900e-001, -2.1742815574557602e-002,
          6.6219956030915753e-002, 6.6220934548604571e-001,
          1.6883227890430749e-001, -6.0962092279894398e-001,
          2.2057073901359225e-001, 4.1924597724102852e-001,
          1.9518864080114956e-001, 7.0893186319634793e-001,
          1.1319442399117816e+000, -6.8023507203330225e-002,
          -1.0233285506831329e+000, 1.2921141464969790e+000,
          -9.5002373492267603e-002, 1.1622862251342725e+000,
          1.2654569124356092e+000, 6.9339591530465583e-001,
          -7.7658512671069779e-001, 6.6050401853139806e-001,
          2.2815746829860772e-001, 9.4603246764263416e-001,
          2.9224759584305210e-001, -9.8720804162665532e-001,
          2.1814788204666644e-001, 2.4350997016169285e-001,
          -1.1618132000866903e+000, -5.9057694188136201e-001,
          9.2579961533477406e-001, 1.6156788492872318e-001,
          -6.8357892805225973e-001, 5.1625059583635480e-001,
          6.9701321782074455e-001, -7.6623611707745776e-001,
          1.1172442898079407e+000, -1.9105918684829337e+000,
          -9.4109563850321876e-001, -3.4064765319812779e-001,
          3.0912369935319339e-001, 1.4434778203996517e+000,
          1.3843192563389974e+000, -2.0648087474214805e-001,
          -1.3663210124698582e+000, 6.0167113781757275e-001,
          6.0804032790911389e-001, -1.8142104449393423e-001,
          -1.0018173739707618e-001, -6.0918447637084916e-001,
          -1.4287968022592207e-001, -1.6705222623272671e+000,
          3.5715936824104050e-001, 6.9664840098459879e-001,
          -7.5105281764547505e-001, -4.3365766358604119e-002,
          -1.6548409778179327e-001, -1.6179729154095643e+000,
          1.0757307917145278e+000, -6.6992521109839687e-001,
          9.3931128932504493e-001, -7.6715439870603930e-001,
          5.4976950711075390e-001, 5.4163055100544276e-002,
          1.8527064540162022e+000, 6.0058949017585483e-001,
          -5.7467893277523685e-001, -5.0812918885587255e-002,
          1.7585416414585267e-001, -6.2668542087208956e-001,
          -7.7874295383788983e-001, -1.9139714449250035e-003,
          -8.6293813829855326e-001, 1.2856985497673810e+000,
          -1.5012396627613245e+000, 2.1366034799637276e-003,
          1.4792062404149373e-001, -1.2323286939592100e+000,
          -4.8012350918269558e-001, -7.2710749960442800e-001,
          -4.4348870207366070e-001, 4.7144266182854921e-001,
          -8.4256842901532569e-001, 1.6335623295730994e-001,
          -7.1611919180903005e-001, 8.1674490003327760e-001,
          -7.3903278111922099e-001, -7.6775010981821379e-001,
          -7.4878751305778524e-001, -1.1107560198549626e+000,
          -1.0970239044173145e+000, -5.7406934202237203e-001,
          -9.8453270432657225e-001, -5.9868963848047840e-001,
          -5.3436530580929631e-001, -1.1794828948885214e+000,
          1.5170612276598081e-001, 2.0679978745478825e-001,
          -6.8473641245219208e-001, 3.0413067541635391e-001,
          3.5228019404204086e-001, 1.2524103377121898e-001,
          -4.2372243328686615e-001, -1.4239759633464435e+000,
          -1.2303349254280322e+000, -4.5976281667459568e-001,
          1.1417101504324889e-001, 8.3425139998692688e-001,
          4.6201208466998711e-001, -4.3529253398981255e-001,
          -6.5799282195133646e-001, -2.3781246001258430e-001,
          -2.3126357508808543e-001, -1.2030599353706801e+000,
          -6.5070672057372758e-001, -1.3499738660854361e+000,
          -1.3541012811396875e+000, -4.7439912595825862e-001,
          -3.8974756550921569e-001, -4.4968335426334521e-001,
          -6.4020517326191972e-001, -1.1061760748599370e+000,
          -1.1046890685960979e+000, -4.5221886571307490e-001,
          -9.7989304769357710e-001, -1.1955832524814771e+000,
          -1.7613694516872385e+000, -1.0328622326287469e+000,
          -1.1199288790083644e+000, -2.0580646462155808e-001,
          1.1242304483649572e-002, -2.4142712012401935e-001,
          -1.1659354247831957e+000, -4.4809991933277049e-001,
          -1.3708454988137653e+000, -1.5276764768542603e+000,
          -1.1753493700950357e+000, -8.6378080051236039e-001,
          -3.7830239267535976e-001, -1.1498290701639908e+000,
          -4.5793810022352216e-001, -1.8740971624385030e+000,
          -1.0228796446692681e+000, -1.8192317179065323e+000,
          -1.1290009823130067e+000, -4.9777533970790216e-001,
          -1.3206414110993838e+000, -6.9488746862029260e-001,
          -1.1908208398991207e+000, -1.3963070743716379e+000,
          -1.4127848157364089e+000, -1.5576930675412632e+000,
          -1.3367521640244548e+000, -1.5969566020410477e+000,
          -1.7745846985982117e+000, -6.9357240594592506e-001,
          -1.7871661383572575e+000, -4.6548143467757574e-001,
          -1.5381748709687797e+000, -1.8689962611162181e+000,
          -1.3408612584935586e+000, -1.1915354356133903e+000 ]
