%YAML:1.0
my_nn: !!opencv-ml-ann-mlp
   layer_sizes: !!opencv-matrix
      rows: 1
      cols: 3
      dt: i
      data: [ 8, 42, 42 ]
   activation_function: SIGMOID_SYM
   f_param1: 1.
   f_param2: 1.
   min_val: -9.4999999999999996e-001
   max_val: 9.4999999999999996e-001
   min_val1: -9.7999999999999998e-001
   max_val1: 9.7999999999999998e-001
   training_params:
      train_method: BACKPROP
      dw_scale: 1.0000000149011612e-001
      moment_scale: 1.0000000149011612e-001
      term_criteria: { epsilon:9.9999997473787516e-006, iterations:1000 }
   input_scale: [ 1.5266670943687567e+001, -7.8118969495847441e+000,
       1.2658033666073267e+001, -6.6569292439080918e+000,
       1.9250668437592438e+000, -6.4168894791974784e-001,
       7.9830021733319068e-001, -1.9007148031742636e+000,
       1.0011357187078720e+000, -9.5346258924559235e-001,
       3.4066498437460129e+000, -3.2444284226152503e-001,
       3.6173308818793243e-001, -1.3349673492649887e+000,
       4.5046852406889537e-001, -1.2119748385663138e+000 ]
   output_scale: [ 1.0526315789473684e+000, 0., 1.0526315789473684e+000,
       0., 1.0526315789473684e+000, 0., 1.0526315789473684e+000, 0.,
       1.0526315789473684e+000, 0., 1.0526315789473684e+000, 0.,
       1.0526315789473684e+000, 0., 1.0526315789473684e+000, 0.,
       1.0526315789473684e+000, 0., 1.0526315789473684e+000, 0.,
       1.0526315789473684e+000, 0., 1.0526315789473684e+000, 0.,
       1.0526315789473684e+000, 0., 1.0526315789473684e+000, 0.,
       1.0526315789473684e+000, 0., 1.0526315789473684e+000, 0.,
       1.0526315789473684e+000, 0., 1.0526315789473684e+000, 0.,
       1.0526315789473684e+000, 0., 1.0526315789473684e+000, 0.,
       1.0526315789473684e+000, 0., 1.0526315789473684e+000, 0.,
       1.0526315789473684e+000, 0., 1.0526315789473684e+000, 0.,
       1.0526315789473684e+000, 0., 1.0526315789473684e+000, 0.,
       1.0526315789473684e+000, 0., 1.0526315789473684e+000, 0.,
       1.0526315789473684e+000, 0., 1.0526315789473684e+000, 0.,
       1.0526315789473684e+000, 0., 1.0526315789473684e+000, 0.,
       1.0526315789473684e+000, 0., 1.0526315789473684e+000, 0.,
       1.0526315789473684e+000, 0., 1.0526315789473684e+000, 0.,
       1.0526315789473684e+000, 0., 1.0526315789473684e+000, 0.,
       1.0526315789473684e+000, 0., 1.0526315789473684e+000, 0.,
       1.0526315789473684e+000, 0., 1.0526315789473684e+000, 0. ]
   inv_output_scale: [ 9.4999999999999996e-001, 0.,
       9.4999999999999996e-001, 0., 9.4999999999999996e-001, 0.,
       9.4999999999999996e-001, 0., 9.4999999999999996e-001, 0.,
       9.4999999999999996e-001, 0., 9.4999999999999996e-001, 0.,
       9.4999999999999996e-001, 0., 9.4999999999999996e-001, 0.,
       9.4999999999999996e-001, 0., 9.4999999999999996e-001, 0.,
       9.4999999999999996e-001, 0., 9.4999999999999996e-001, 0.,
       9.4999999999999996e-001, 0., 9.4999999999999996e-001, 0.,
       9.4999999999999996e-001, 0., 9.4999999999999996e-001, 0.,
       9.4999999999999996e-001, 0., 9.4999999999999996e-001, 0.,
       9.4999999999999996e-001, 0., 9.4999999999999996e-001, 0.,
       9.4999999999999996e-001, 0., 9.4999999999999996e-001, 0.,
       9.4999999999999996e-001, 0., 9.4999999999999996e-001, 0.,
       9.4999999999999996e-001, 0., 9.4999999999999996e-001, 0.,
       9.4999999999999996e-001, 0., 9.4999999999999996e-001, 0.,
       9.4999999999999996e-001, 0., 9.4999999999999996e-001, 0.,
       9.4999999999999996e-001, 0., 9.4999999999999996e-001, 0.,
       9.4999999999999996e-001, 0., 9.4999999999999996e-001, 0.,
       9.4999999999999996e-001, 0., 9.4999999999999996e-001, 0.,
       9.4999999999999996e-001, 0., 9.4999999999999996e-001, 0.,
       9.4999999999999996e-001, 0., 9.4999999999999996e-001, 0.,
       9.4999999999999996e-001, 0. ]
   weights:
      - [ 3.2594009989762420e+000, -8.6397769172287153e-001,
          -4.6761279367934144e-001, -4.2858968191271340e-001,
          -1.3827538820085541e+000, 1.8112765887725929e-001,
          -1.4524629469214057e-001, 1.2144016073377681e-001,
          2.3617928151576857e+000, -4.0776733610278360e+000,
          1.7248085911928956e+000, -4.6927552040677382e-002,
          6.8607301285235534e-001, -4.2251208188002032e-001,
          -8.7761742801912110e-002, 1.5388439412673307e+000,
          -9.0944198011657884e-001, 6.3909235312957480e-001,
          -1.0085803467052607e-002, -2.9407675806286432e-001,
          -2.7720266709229324e-001, -3.0260032920316280e+000,
          -2.9852117085915220e+000, 5.6388424083256816e-001,
          1.9729292743731633e-001, 1.1095342533750503e+000,
          1.1208935594826048e-002, 5.9106224490224513e-001,
          4.0497655171976349e-001, 7.5285253946438124e-001,
          9.2864791433337435e-001, -6.5562825209645259e-001,
          -2.1753240597620391e+000, -5.3095205897190412e-001,
          2.1077362299607962e+000, 1.6990185685054487e-001,
          2.8958566429372601e+000, -7.4981882300202030e-001,
          -1.3301051881984964e+000, -9.4651197391272257e-001,
          1.1773970368200176e-001, 2.3999264799398117e+000,
          5.0740465455928412e+000, 1.3729323330411864e+000,
          -1.7703618769599001e+000, 5.7217420653693604e-002,
          4.2915691125818173e-001, -3.2843994931414233e-001,
          6.3329006499265789e-002, -1.1382477984837527e-001,
          1.8054286939017988e-002, 1.2209964443388512e+000,
          8.1081225462203832e-001, 1.8067606952914599e+000,
          -1.1772475727901337e-001, 9.4121840414177904e-001,
          3.2159510936543134e-001, -1.1646735937484365e+000,
          1.6284092655917681e+000, -9.7372446286108483e-001,
          2.1067778869767544e+000, 9.9912754903577247e-002,
          6.9486502727784838e-001, 2.6615099210419602e+000,
          -1.3273110044428735e+000, 1.5496970229731116e-001,
          8.7833190695042779e-002, -2.9838122455589450e-001,
          -1.1330519930038117e+000, 1.5779523708352021e+000,
          -1.4505051607553849e+000, 4.2252272685496561e-001,
          2.7572674618144513e+000, 1.6478726074468805e-001,
          -2.0653351125151898e+000, -1.0787853615166293e-001,
          -1.7061794322551263e-001, 6.3479046746321446e-002,
          8.3370353043892020e-001, 4.9339686725887455e-001,
          1.3280260482532988e-002, 1.9747668680968815e+000,
          1.4018920418534159e-001, -3.1369344124246401e-001,
          -2.6494999249780284e+000, -8.1816097798264364e-001,
          1.6245660715206030e+000, -6.7953690060172367e-001,
          1.3533478785381436e+000, 8.4313704765736697e-001,
          2.4144362709668779e-001, -6.9107781036793665e-003,
          -4.0685364703952154e-001, 3.2097727625947905e+000,
          -1.0275257721409423e+000, -1.1248980495690777e+000,
          9.8208058489218453e-001, 1.7232113100131989e+000,
          8.1634310016673606e-001, -3.5530442938035101e-001,
          -1.9120341685155931e-001, -3.3838089266795324e-001,
          6.8442331172662396e-001, -5.6683159828838581e-001,
          4.0615258535816418e-001, -1.0610053341254341e-001,
          1.4582398081696772e+000, -1.0834886707064857e+000,
          8.1367106073627249e-001, -1.5612625549843480e+000,
          6.5261812817083376e-002, 1.4037700738536366e-001,
          6.1492054912262484e-001, 2.2980773711340583e+000,
          5.9327472922846536e-001, 1.8733452720766908e-001,
          -8.7111087247827929e-002, 3.7962402570121673e-001,
          7.0106931725638999e-001, -2.4663042368300842e-001,
          3.4152710494460564e-001, -8.8276624629460898e-001,
          -3.2809056464252175e-002, 3.4240721082901493e-001,
          3.0528941667875131e-001, 3.5634496323948006e-001,
          3.2159691063601086e+000, -1.1498956721665119e+000,
          -8.2796492290847368e-001, 5.3863157662706629e-001,
          -4.1429584213648718e-001, -1.1745849628925973e+000,
          -6.7708547448689338e-001, 2.1003033647266298e-001,
          -1.4089413166700226e+000, -1.4000646724605431e-001,
          9.7106586253249705e-001, 1.5575402628364197e+000,
          -5.2150558059386887e-001, -7.0130864092945638e-002,
          1.1565297910071697e-001, 8.4653877578170378e-001,
          5.9172336738958531e-001, 2.6892428833211923e-001,
          -1.1897734949071426e-001, 6.0452427725588653e-001,
          1.4270658186533416e+000, -1.1277935416138949e+000,
          -1.3843929739544578e+000, 3.0235459083268068e-001,
          -1.0253666081954276e+000, 2.8409696575924881e-001,
          6.5877864643062445e-002, 3.8371971432108687e-001,
          -7.8960662883293553e-001, -2.0510576377179706e+000,
          9.8438631942532073e-001, -2.5330162664289607e-001,
          1.8474948919508394e+000, 2.5908245811364100e-001,
          -2.8795462813561115e-002, -4.4714252283895556e-002,
          -4.3039477836709211e-001, 1.2324719782525253e+000,
          7.8327137158989157e-001, 1.1911972686926493e+000,
          -4.5834687577200839e-001, 1.3649273525117450e-001,
          6.8784074047207566e-001, -1.7481844852850510e+000,
          6.0484441460759797e-001, -9.6257344341241691e-001,
          -1.0623306562215635e+000, -4.0352516688929818e-001,
          4.3969411801347391e-001, 4.1463680663328939e-001,
          -2.4005690003116271e+000, 1.4968155294576366e+000,
          -8.5438746169282487e-001, -1.5095323809263425e-001,
          -1.6548460454845726e+000, 1.0227106629731395e+000,
          2.3944300324599648e+000, 1.5677372281647328e+000,
          1.4022848598487490e+000, -3.2097744188646943e-001,
          7.9522759839112001e-001, -1.6729056734152783e+000,
          1.0724353573003564e+000, -1.5926613421739284e+000,
          -2.1253432586398984e+000, 2.9144489855667305e-001,
          -8.2325700260089785e-001, -1.9392010898640832e+000,
          1.0167385281251031e+000, 2.2261887103234654e+000,
          -6.8447877315077599e-001, 3.4525500602133741e-001,
          9.7179518434757500e-002, -1.4058263255472234e-001,
          1.6373676443317551e+000, 3.1689006731070463e-001,
          1.4283999151310349e+000, 4.8813244410616907e-001,
          7.0041759000047693e-002, -5.1132526643522032e-002,
          1.1922496007633043e+000, 8.4040331634639398e-001,
          -7.3231773995396754e-001, 1.4272480033503609e+000,
          -2.8970303729427893e-001, 6.0597329469334893e-001,
          5.6300710418607791e-001, -2.6673344335686161e-001,
          3.2706201280241175e-003, 3.6861087877746862e-001,
          -5.5249422202077436e-001, 1.1136760089742696e-001,
          -3.0805506149300177e-001, 1.4328175419246308e-001,
          -6.2777392861533132e-001, -4.8399462999468651e-001,
          8.0781240972678603e-001, 1.3764809128031133e-001,
          6.1232040408128707e-001, -1.1501116051570681e+000,
          9.7207194647778883e-001, 1.0541454970075359e+000,
          -4.6381641665256927e-002, -3.0290394853655317e-001,
          3.9881517480432027e-001, -1.5314160485435299e-001,
          5.6399086159883893e-001, -4.9810928421069028e-001,
          3.8864305202148924e-002, 8.5843236967932268e-001,
          -2.3277031876566345e-001, 6.2407281212912147e-001,
          5.7550156370337668e-001, 1.4990207438601206e+000,
          1.2435437772922737e+000, -5.0590326193052870e-001,
          -3.4966729099161009e-001, 7.5778765844839979e-001,
          -7.3196891576438128e-001, -2.5556432510553878e-001,
          -9.3753673518923553e-001, -4.4436707016204717e-002,
          3.7325544440381125e-001, 3.2187299262615959e-001,
          4.2197761682569945e-001, -6.7735281405064451e-001,
          -3.3862332775481918e-001, 2.2450494381314541e+000,
          -1.2172907039105407e+000, 1.6445460523615509e+000,
          -2.7380199503094410e-001, 1.3992571099054110e-001,
          -9.9500050416462182e-001, -4.3690377201522734e-001,
          1.4650354889109911e+000, -5.7235014912566129e+000,
          1.4879956307919159e-003, 1.6407836993740119e+000,
          1.4975389935215094e-001, 1.3618669906935423e+000,
          6.1788652428578483e-001, -7.5252439705926558e-002,
          -2.9475300871260992e+000, 9.1139904722436604e-002,
          -9.3905435833320816e-001, 4.7269720352143851e-001,
          8.2386166177258781e-003, -1.2558401761019397e-002,
          -2.6233039074952416e+000, -9.7409024619026863e-001,
          -1.6783123386193648e+000, 1.1999481496387554e+000,
          -1.3416646809996717e+000, -9.4452631698152723e-001,
          -5.4949879968581961e+000, -1.9099533056868125e+000,
          8.5320225209452960e-001, 2.4477553536675089e-002,
          -9.4648253840737817e-001, 2.6282831397701462e-001,
          1.7722728335344300e+000, 1.1936274751982551e-001,
          -8.0058686825916447e-001, 2.9791015499988056e+000,
          -6.7837510296010917e-001, -9.2220040418413052e-001,
          2.6527810170416755e-001, -2.5050750516290030e+000,
          2.2356530118464191e+000, 1.7539516950281360e+000,
          3.0894312103625442e-002, 1.6461042804223103e-001,
          1.4336187648282064e+000, -5.4926041685373939e-001,
          -6.0651071187249994e-001, -1.0764129167868874e-001,
          -3.8926724746497676e+000, -2.4991830332679568e+000,
          6.3247795610397761e-001, 2.3738265229232556e+000,
          -2.7559563615134186e-001, 1.7050158634709551e+000,
          -1.2973299687373101e+000, -1.4989950374541750e+000,
          9.5408070448733548e-002, 2.9530994871185823e-001,
          -2.7917763991825568e+000, 4.4445801193720169e-001,
          1.9341017194133006e-001, 8.2425561204940723e-001,
          -1.4985028952900145e-001, 3.5087897769294235e-001,
          -5.2250323881563043e-001, 6.1607485904418302e-001,
          -3.7610472760878327e-001, 2.4015569707596205e+000,
          -2.3715993857140258e+000, 2.5758118271028412e+000,
          7.1011285705800575e-001, -2.5611254311317977e-001,
          -1.9166735426851560e+000, 1.0436197337016220e+000,
          -1.0260429639238053e+000, -1.9133925452627581e-001,
          -1.6771399277913066e-001, -4.3227300635734672e-001,
          5.9327360474724922e-001, -4.1466004753385510e+000,
          -2.1480661911547042e-001, 2.9936043023185444e+000,
          6.3955896834129184e+000, -4.5673783002030921e-001,
          -9.5939652927864905e-001, -2.1969910529511609e+000,
          1.9354715954130013e+000, 2.4349400759291959e+000,
          1.8304142585562102e+000, 3.1540488164118377e+000,
          -4.8949444699969108e-001, -7.9240121782189962e-002,
          -2.8604531021974724e+000, 2.0444757574068440e-001,
          2.3115104394708648e+000, 5.9858733823572163e-001,
          2.0920076129598781e+000, 2.2697932627315542e+000,
          5.0506942345523650e-002, -1.9202597523633709e+000,
          1.4357264363427504e+000, 1.9110758241504318e+000,
          -1.7584329728834849e+000, 1.3533209800552213e+000,
          -3.9714706122251969e-001, -2.2788745626844471e+000,
          -2.8493678868505099e+000, 1.3711026967378304e+000,
          2.5279909326479508e+000, 1.1181172567820572e+000,
          -4.3381512365541974e-001, -2.5092553097541903e-001,
          4.0755870928607973e-001, 3.1095866946678004e+000,
          6.2135623109972249e-001, -2.9210051015609979e+000,
          1.9146577632387312e+000, -3.4554624778366758e+000,
          -1.6425393704795206e+000, 7.9423864106609432e-001,
          3.2958909153998279e+000, -7.0319789517480891e-001,
          -2.9624547853909822e+000, -5.7192343615496810e-001 ]
      - [ 3.3875869919995971e-001, -6.4817751709852178e-001,
          3.5421336795235592e-001, -3.4293830387829310e-001,
          -9.3844885479043266e-002, -1.4427637607564375e-001,
          -8.1040015544689359e-001, -1.0287061525282690e+000,
          6.2037363803637935e-001, -1.0304176786426535e+000,
          -2.5944386921459404e+000, 8.3340042893056721e-001,
          6.3100417210976245e-001, -1.5762947015855433e-001,
          7.2386151938737231e-001, -6.5790257534202978e-001,
          -1.0877586175124438e+000, -1.5970218276230179e+000,
          3.5466401362856775e-001, -3.3629253721797453e-001,
          1.4284452569666231e-001, 3.0541156923680962e-001,
          -6.6698323174003393e-001, 4.5603118463589926e-001,
          -9.0431232274701689e-001, -1.0990965953922804e-001,
          2.5968204532711808e-001, -9.4443718645347219e-001,
          5.9728171899645699e-001, -3.6735785934217352e-001,
          -6.2133076549148758e-001, 4.4368931865851602e-001,
          -4.5143345518358380e-001, 5.6803167443514835e-001,
          -2.5851765132298865e-001, -7.7841158492907112e-002,
          3.6361112393541056e-001, 6.6138916948391036e-001,
          -3.8538709273639871e-001, -2.8898631148292175e-001,
          -4.8754847114769773e-001, -5.7113833301897732e-001,
          3.9886409337804640e-001, 6.3914527572545765e-001,
          7.0874823330552295e-001, 5.9322887885660602e-001,
          6.4696474863518305e-001, 1.1664500527953929e+000,
          1.0862078645595630e+000, 3.2957380200735387e-001,
          -3.1167807523865904e-001, 1.1295160756374138e-001,
          -5.8438808244621232e-001, 1.1549621481939638e+000,
          -9.8616556828241164e-001, -5.9167627517272681e-001,
          -1.3724077279266731e+000, -4.5496468983558369e-001,
          -4.5004051894215957e-001, 8.9232896831546271e-001,
          -7.2824069123336233e-001, 1.6083559211970219e-001,
          -5.4852311775474250e-001, 1.2645300068616034e+000,
          -5.4997909969085067e-002, 6.2612706606030943e-001,
          -1.4315723328326060e+000, 1.6931888494571820e-001,
          2.3629740379653816e-001, -1.5373126587091482e-001,
          6.2319656496452580e-001, 7.6928187970891726e-001,
          3.1054729070411280e-001, -8.0489439413014219e-001,
          -3.9858849839521820e-001, 3.5204117710765770e-001,
          6.3925774542026570e-001, -1.0729600090851881e+000,
          1.2028920878247658e+000, 2.0844753657193866e+000,
          1.1290558144101404e+000, -1.0450653625741684e+000,
          -1.4022708517667375e+000, 1.8643247339624117e-001,
          1.3824519661026036e+000, -3.1400466788151093e-001,
          7.1644426677047415e-002, -2.1857519711399637e-001,
          2.6222111754366623e-001, 1.2607966704043918e+000,
          -4.8400587327395689e-001, 1.3931133036832359e+000,
          -5.4942945296924661e-001, 9.5904500445752405e-001,
          6.5422191637319382e-001, 7.9377203224178650e-001,
          -6.1927688481859999e-001, -6.4537433658494148e-001,
          8.1407176585542496e-001, 5.3712588134259887e-002,
          5.5027041985664860e-001, -1.0941075979739445e+000,
          -7.6246164834477026e-001, 4.5669364219185671e-001,
          -2.9260613503061805e-001, -8.0605015732536245e-001,
          6.2681290954831337e-001, 2.3834619746266891e-001,
          7.7462583914600103e-001, 6.6323962924692803e-001,
          -2.3257740309813948e-001, -1.2311270469416234e-001,
          -7.3283861023671193e-001, 6.8778008974474036e-001,
          -1.0951385285846761e-001, 4.8742688947883911e-001,
          1.2024348940690899e+000, 8.4527354342912764e-001,
          -4.5651896464079483e-001, -6.0604591203935451e-002,
          -7.2987094224592275e-001, 6.4175053678352201e-001,
          7.6091227090155311e-001, 8.5371695057835972e-001,
          -2.2367348729406844e-001, -7.7336668585576238e-002,
          5.3271691103775798e-001, -3.5875344539973603e-001,
          6.1065861743184091e-001, -5.0611936224376319e-001,
          7.3119135207111485e-001, 3.6261295279962780e-001,
          8.2341824420210596e-001, 5.4375412547698798e-001,
          -1.4384059490350187e-001, 1.4456162482878593e-001,
          -1.1794887824580701e-001, 1.2944128871034747e-002,
          -1.9080732335751072e-001, 1.0967127760276061e+000,
          2.6540454868212143e-001, 4.7598820161567462e-001,
          6.9547745275171480e-001, 1.3639191823919552e+000,
          -8.4830623783061054e-002, 1.3937307523028397e-001,
          1.0594408428593274e+000, 1.1332127488783343e+000,
          6.1248455343537411e-001, -6.1538776531264594e-001,
          -5.9619663121784616e-001, 6.2150389748557489e-001,
          1.0170072854330547e+000, 8.8756441510950324e-001,
          -4.3966747255485195e-001, 5.8236513746250196e-001,
          1.7569896337255980e-001, -4.1207625718119051e-001,
          7.6445494422885996e-001, 1.5930187595204852e+000,
          -5.9561395717345300e-001, -3.7904178808893690e-001,
          4.9955879011779714e-001, 1.7502949598569106e+000,
          1.2896686409634190e+000, -3.0863478466694144e-001,
          5.0971025269584191e-001, -4.7191748120003907e-001,
          -1.3190119597427497e+000, 4.5826046451147934e-002,
          -6.8922201053236309e-001, 9.0419462439997017e-002,
          -1.0162422477375084e+000, 8.2534554565637297e-001,
          8.9134072332050385e-001, -1.5531409755868980e-001,
          -5.4299321838586656e-001, -3.8969966383178722e-001,
          -1.4919005544391206e-001, 6.8540409645517375e-001,
          2.5311697588526205e-001, 6.1001029933583306e-001,
          6.5328159787264709e-002, 7.6482870358480426e-001,
          -1.0933715975600189e-002, -1.0246834186059932e+000,
          -1.4611169945277018e+000, 5.5780506935586971e-001,
          -9.2672394079621001e-001, -3.0770374549783047e-001,
          9.9497428821261946e-001, 3.9764766848824723e-001,
          -2.8249479644584730e-001, -8.5418752265945097e-001,
          -8.6338819320918470e-001, 7.4270222620933601e-001,
          -8.3626343593711017e-001, -3.2564543217155378e-001,
          2.8306925308564407e-001, 1.1794299144853545e-002,
          -4.5598526888596708e-001, 9.9873265717595650e-001,
          -8.2037468723959406e-001, -1.2485984509605306e+000,
          -1.8096392098527206e-001, -5.2955554859403586e-001,
          -1.2510217472399583e+000, -8.2681299240939932e-001,
          -9.7323773932297919e-001, 6.2515032753474542e-001,
          3.7188408343750051e-001, 1.5957004257002547e-001,
          -1.4273670735631139e+000, -2.8896509453378161e-001,
          4.7373649748716667e-001, -2.4200223721009104e-001,
          -5.7298734495916703e-001, 1.8692422730358704e-001,
          -1.0349565732359511e+000, 5.6386556274472466e-001,
          3.2629991974845056e-002, -9.7371305826693200e-001,
          -1.1418291135239875e+000, -9.2497425243451148e-001,
          2.0420486457296777e-001, -1.5644965068368493e+000,
          -7.3952313996608476e-001, -6.8760319891905541e-001,
          -2.0075969353168227e-001, 8.7212777500283001e-002,
          4.1585138380477733e-002, -1.0996663193630110e+000,
          9.5705388320747681e-002, -1.2869546902800288e+000,
          3.5646002281658051e-001, -5.5683539251117786e-001,
          1.9511889982969055e-001, -1.1266993419822495e+000,
          1.3310309925486194e-001, -1.6255872340769526e+000,
          -1.2895013285889751e+000, 7.3348018622785338e-001,
          3.8566720079348898e-001, 6.1926881816611885e-002,
          4.1188627526126032e-001, -9.7250648380997295e-001,
          -4.3662965115846103e-001, -9.6066609438637415e-002,
          -8.3565586539462566e-001, -1.1881963762531260e+000,
          -6.1255755279524760e-001, -6.0801734261142992e-001,
          -8.9891874979712538e-001, -9.3899300474632630e-001,
          -3.7753576479959078e-001, -2.7783823032886124e-001,
          4.2946600088967869e-002, -1.9393512531606033e-001,
          6.0708477039540054e-001, -4.3103657088735425e-001,
          6.7171373379393925e-002, -9.6497288576752416e-001,
          -4.4998686040966562e-001, 3.2023132832872242e-001,
          -6.9550858570861407e-001, 5.4938449368534571e-002,
          -1.3110533441608790e-001, -4.8421039692452522e-001,
          -5.5144690915705175e-001, 5.8116785521950021e-001,
          -9.9180137417516509e-002, 5.8210861125322297e-003,
          -5.1589946182749702e-001, -6.2182279035775734e-001,
          6.2843662468917660e-001, -8.3493447172626789e-001,
          -1.4967365266611551e-001, 5.7951447954850921e-001,
          3.7964472788484471e-001, -1.9698779522803153e-001,
          2.5397308135133689e-002, 3.4301886734642295e-001,
          4.0298871047368434e-001, -7.4501572532707583e-001,
          -4.5211448738785842e-001, -1.3089494189177648e+000,
          -4.4325961714603895e-001, 2.3062239537256538e-001,
          -1.4568424053214410e+000, -1.0900772815980035e+000,
          -6.5583166367279710e-001, -2.2460739904910765e-001,
          1.4803025945227716e-001, -8.9765407101356387e-001,
          -7.2391975782291806e-001, -5.4374712019919266e-002,
          -7.6713383037575356e-001, -3.7618225242028153e-001,
          -1.4978720764176254e+000, -1.3810231845720871e+000,
          -1.3561088107581771e+000, -1.1251680402769404e+000,
          -7.7906162886863395e-001, -2.7703232624218754e-001,
          3.9647817293958865e-001, -5.6316487548087935e-001,
          -8.6231095022719739e-001, -2.9343860465796778e-001,
          -1.3306046451643900e+000, -4.8300682377073129e-001,
          2.5169858935490158e-001, -9.0017829552652251e-001,
          -8.7368190726494721e-001, 5.1588018982900474e-001,
          3.1770859144983099e-001, -1.3706286465023778e+000,
          -3.9874250744653666e-001, -2.5624914167471413e-001,
          1.0063387499797044e-001, 4.6000543541693834e-001,
          -7.9368519219098133e-001, -2.2735764334480696e-001,
          2.6338883856259664e-002, -1.5602888668354957e+000,
          -6.0996507653063348e-001, -9.5959173479832960e-001,
          -8.1400268591311398e-001, -2.9953423101560078e-001,
          3.4346772886421223e-001, -1.4346799952858760e+000,
          -6.6340652944025147e-001, -9.6904155237561318e-001,
          -1.3649291955642513e+000, -5.7706926833458058e-002,
          -9.2006394765557808e-001, -7.5464848992884170e-001,
          3.1349419128898126e-001, 1.7339134304054087e+000,
          -1.6993826841651563e+000, -5.1772346113370971e-001,
          -1.3066052298580584e+000, -1.1950992706420098e+000,
          -4.4217149680644985e-001, -8.3601440127874749e-001,
          1.4749919010481629e+000, 3.8957350547415509e-001,
          1.3624209341905813e+000, 9.6400889852259086e-001,
          -1.1615880349338372e+000, -1.5426735819657808e-001,
          9.5458220841337638e-001, 7.3075403624185464e-001,
          -5.7217412476440366e-001, 1.0411729143403037e+000,
          9.0090429074395417e-001, 4.4532631688465069e-001,
          1.6058357473090523e+000, 1.4844629800495168e-001,
          -2.4493316017001865e+000, 1.4634338471323083e+000,
          -1.2178233098768259e+000, 6.4496478579226957e-001,
          6.7823458140752912e-001, -3.0727547581662296e-001,
          -8.5186945929126612e-001, -6.5584885684001737e-001,
          -9.5724922608081409e-001, -6.2931679631067272e-001,
          -1.3001132861020943e+000, -5.8285844746705812e-002,
          1.1519580112550083e+000, 3.3294885896085424e-001,
          -2.5234165466745112e-001, 1.3148420388586644e+000,
          -3.1409195560860559e-001, -9.1324472560768166e-001,
          -3.5421175658431048e-001, 1.9744979918059724e+000,
          1.9794492050964112e+000, -1.3487465810272066e+000,
          -4.0713955704986804e-001, 2.4845648969160344e-001,
          2.6142119267623851e+000, -2.0385181422918408e+000,
          4.9705217858937639e-001, -3.7883554153540100e-001,
          -1.2972645366906033e+000, 2.8226439204882117e+000,
          1.0377329472881620e+000, 3.1729950121745154e-001,
          7.4659695920954905e-001, 7.3603191297976045e-001,
          -1.8611873443546867e-001, -9.6266577438334378e-001,
          1.9758990625503809e+000, -1.2905969102511323e+000,
          -2.0653811349524903e-001, 4.0636655853113168e-001,
          -1.3392812089383979e-001, 1.2958703672210894e+000,
          -9.9541325055600938e-001, 2.9382270911534197e-001,
          -1.1245263078736850e-001, -7.4046436157097426e-002,
          -5.7478522935152687e-001, -7.9523810014958751e-001,
          1.5670833287095960e+000, -2.6804320909789561e+000,
          4.2736836234645731e-001, 1.6482285003569541e+000,
          3.1027373538461323e-001, -1.1239746012618104e+000,
          -3.0454131566365616e-001, -1.4091528328439336e+000,
          -3.5090248749948940e+000, 3.7260694753787449e-001,
          -8.6160154106623843e-001, -1.0480841746871681e+000,
          6.0763595309447449e-001, -1.0285021431665091e+000,
          1.0917776287937597e+000, 1.8923165639396489e+000,
          1.4231522497452447e+000, 1.0485521113725089e-001,
          1.2118821063705913e-001, 4.3784896578823451e-002,
          3.5080467258559643e-002, 3.0334964047608287e-001,
          6.3324314306040452e-001, 8.0854985115282912e-002,
          8.1544523062547614e-001, 3.6139061896666803e-002,
          -4.0948126849998623e-001, 1.1182096312348777e+000,
          1.4726574418763888e-001, -3.4598687188905619e-001,
          1.1204880771204997e+000, -1.6427004420830396e-001,
          -2.1521784177677175e-001, 1.3278218527650114e+000,
          -5.1802509677203901e-001, 1.2382343097248051e-001,
          1.0453979865454328e-001, 9.6234468082092850e-001,
          1.2496607099839611e-001, 5.9234517295266897e-001,
          6.9270095672108745e-001, -3.1016817284930764e-001,
          6.8205618486464181e-001, 8.9838032134919754e-001,
          8.3253916532386973e-001, 1.0347891767179502e+000,
          -1.6229554207416180e-001, 1.1138972789977801e+000,
          9.5779747889254241e-001, 2.4269189158519699e+000,
          -8.0272679194327856e-001, 1.6444678578225005e+000,
          -3.4352262216392737e-001, 6.6785577229305643e-002,
          5.1469066083582826e-001, 4.5903444030469237e-001,
          -4.4824425292988812e-001, 1.0070622211718747e+000,
          -9.2610287106645162e-001, -1.0699674966118787e-001,
          -6.1893692358383690e-001, 2.5550012277546691e-001,
          -5.0761811099081522e-001, -6.4094340927566384e-001,
          -3.9477951756027924e-001, -1.8876000212282507e-001,
          -6.2148750003601683e-001, 6.7193399573239765e-001,
          -1.1553189719046728e+000, 8.0919053914610295e-001,
          -9.6375902272213343e-001, 2.0172804513159973e-001,
          -1.3187436648934765e+000, -5.6961570999601352e-001,
          -9.1926573356409302e-001, 7.7672998567097062e-001,
          -5.0141529135623841e-001, -2.8483927267029396e-001,
          3.9178118006679202e-001, 2.1531560567899768e-001,
          5.0939533858023545e-001, -1.0863530808831836e+000,
          -8.1627044981192398e-001, -4.6824966271852964e-001,
          1.0570940342744011e+000, -7.8212364132592282e-001,
          -6.6944828884053975e-001, -7.5474558731286490e-001,
          -6.4979235616118491e-001, 3.8433431913409422e-001,
          3.3015176206722968e-001, 6.8077280202715007e-001,
          9.2059369665509228e-001, -5.9636562794374993e-002,
          4.1661431401987768e-002, 9.1572357151111083e-001,
          9.8469177681537490e-001, -1.3060679363073799e+000,
          -6.5738953596709060e-001, 3.2503944624282888e-001,
          1.5240818631109299e-001, 6.2970133918331539e-001,
          1.3669126633127254e-001, -2.3640439745701478e-001,
          -8.6132069964534985e-001, -7.3738027528459005e-001,
          -1.5935875362525037e-001, -9.5989236043096193e-001,
          -7.2204204737524991e-001, -7.5596297418091574e-001,
          -8.7021246579191569e-001, 5.4356128934195980e-001,
          -7.8073964073673918e-001, -1.5162525502043682e+000,
          2.4662065403248293e-001, 4.1098323247504731e-001,
          -1.2643261548580274e+000, 2.2189567032046876e-002,
          -9.7869584064710125e-001, -2.9141103737986296e-001,
          -6.3500814367976333e-002, -2.2995661406512283e-001,
          -1.1820892264487346e+000, -9.2218066391141829e-001,
          -6.6511337503917201e-001, -1.2086055649441463e+000,
          -1.1622061558589496e-001, -1.7776998073627048e-002,
          -1.1063172810926070e+000, 1.4339301972412071e+000,
          -1.5162551492683995e+000, -9.6638757988271939e-001,
          -6.6214197423884513e-001, -4.0768690857610368e-001,
          -1.3275140203466629e+000, -7.0744212026386599e-001,
          -9.7790684124651306e-001, -9.5478909015612656e-001,
          -1.5730498812135858e+000, -5.6338244673379212e-001,
          -9.2619016964627410e-001, -3.1005968796906197e-001,
          3.7779591335998597e-001, 7.6622018498071298e-001,
          -9.4534173369970720e-001, -6.9374740739494156e-001,
          5.3014728308165626e-001, -2.3934315726607419e-001,
          -2.7350573072623774e-001, -2.8840768189248611e-001,
          5.0664817151096930e-001, -5.1890680192774241e-001,
          -8.6749383819818793e-001, 2.8291043143001854e-001,
          4.2658440062340802e-001, 1.1465896864668561e+000,
          9.5256430003324866e-001, -1.0103487417494623e+000,
          2.0145569901229135e-001, 5.2834428560898916e-001,
          -7.2828061372422859e-001, 4.0558545055904838e-001,
          -1.3144483788161565e+000, -1.0306501792232292e-001,
          -1.4509447991121771e-001, -6.9923166915944956e-001,
          2.9224805518218666e-001, -3.2798452163825964e-001,
          -1.4400986989194389e-001, -7.0210233752463758e-001,
          5.1909169404632437e-002, 1.6963960526846644e+000,
          -1.4653093815813845e-001, -2.4234493761276824e-001,
          2.9860941098273736e-001, -1.7750892559432960e+000,
          -1.6261613422596549e-001, 8.3672310529772298e-001,
          1.2540054753097059e-002, -6.6344648753148239e-001,
          -5.7860608189903717e-001, 8.0684649384229656e-001,
          1.1195107064384351e+000, -1.6029664479321628e+000,
          -4.0747250413620106e-001, -8.2147506487222599e-001,
          -2.0985925698994987e+000, -8.5316367582436403e-001,
          -5.1106712452656500e-001, -5.9351963228157956e-001,
          -1.0348372502730392e+000, 9.1619089230533468e-001,
          -8.1810706673270273e-001, -3.3368969214182026e-001,
          5.5905644251352526e-001, -1.1365624725963364e+000,
          -2.8208514009078517e-001, -6.6532474728605639e-001,
          3.8864553990707623e-001, -4.4071490798053781e-001,
          2.3485524090916371e-001, 6.5171197032453521e-001,
          -7.4350892574637740e-003, 4.7217899072011182e-001,
          9.7153002502541641e-001, -6.8992461852420917e-001,
          5.1344960196505385e-001, -6.8387635379936784e-001,
          -1.2088188882597100e+000, 3.6664159474752478e-001,
          -4.8648719702469517e-001, 3.8401582522900202e-001,
          2.7131483681389484e-001, -1.2629209809568049e+000,
          7.5789265848897425e-001, -1.3261142404010731e+000,
          2.6335596101855241e-001, 1.2169054789621088e-002,
          -7.1330242661057741e-001, 4.1075461734427021e-001,
          2.7677433288148603e-002, -4.5304210474495510e-001,
          6.0689500942634778e-001, -1.0959441509494090e+000,
          -2.8015308055076782e-001, 6.0193723008044167e-002,
          -7.8742615191324861e-002, -3.9167099051348686e-001,
          -9.9359032911351153e-001, 6.3291315602778353e-001,
          -2.2167341238916793e+000, 5.4579209739159784e-001,
          8.7574352083987816e-001, -7.3487589175806500e-001,
          -6.0640741128248787e-001, -1.6023924791317712e+000,
          -6.8292397472318855e-001, 8.6121553720406108e-001,
          3.0005863969404456e-001, 4.5397616899441284e-001,
          1.3212693177076893e+000, 1.2721028819601415e-001,
          9.5339927900995047e-002, -1.5276282800018424e+000,
          1.0864290264057794e-001, -1.8345870508393669e+000,
          -1.6414420778977240e-001, -6.0481543464844738e-002,
          -5.6334835034665776e-001, -1.3151808347426139e-001,
          5.3087570478024582e-001, -1.0374256792573882e+000,
          7.0425906046965325e-001, 1.9296703449859778e-001,
          -1.1717900553242437e+000, -2.6355859334691162e-001,
          9.9008647924249049e-001, -1.4181528129994658e+000,
          -2.1895002488591236e-001, -1.2447456855765606e+000,
          -5.8551649763027491e-001, 3.3575916513758874e-001,
          -1.1962920399814149e-001, 6.8437390687354194e-001,
          -5.5546235922086384e-001, 9.4595432742594701e-002,
          9.5601180927660456e-001, -7.4551253842538023e-001,
          -3.5029720916394953e-002, -2.2353182120906639e-001,
          5.4475316061249925e-002, -1.2192046084884680e+000,
          9.4001752752425649e-001, -3.8766472132445406e-001,
          -5.0961473638320243e-001, -5.4900233583279878e-001,
          -1.0866716448172722e+000, 1.6365972834442472e-001,
          5.8814882804309776e-001, -6.5224598935395295e-001,
          1.0377339924835751e+000, 3.6906931051799774e-001,
          1.1494685700356704e+000, -8.9765122715688261e-001,
          -8.2688897485887092e-001, -6.2459805703421335e-002,
          9.9073075048199977e-001, -1.0433086948693927e-001,
          -6.1770738774832146e-001, 1.0480383589805667e-001,
          -6.1381881772021063e-001, -3.6439782456917275e-001,
          -2.0111401306702475e-001, 3.2783121406853427e-001,
          1.6202609441604920e-001, -6.4638116204422935e-001,
          -2.0998565451889356e-001, -1.7667477045031812e+000,
          -4.6163727057387749e-001, 3.9806690449186932e-001,
          1.1113927351157704e+000, -1.2145345830416832e+000,
          -1.7201226747640470e+000, -7.3993509446297179e-001,
          -8.7050554893759469e-001, -6.0093438733931126e-001,
          9.3697115237724971e-001, -5.7796253785765812e-002,
          3.5335363746715165e-001, -6.3593168772446446e-002,
          2.7997854345539221e-002, 1.0579668887408691e+000,
          1.0519129489065213e+000, 7.3206359620325989e-001,
          5.6754769571904251e-001, -2.2782253594711160e-001,
          6.7914224006209478e-001, -2.3150205629793582e-002,
          1.3838299011426882e+000, -1.9304674037419806e-001,
          9.2382311688673358e-001, 1.0192189765155113e+000,
          -7.2158239922312606e-001, 3.6127126093319012e-001,
          5.2233715352024779e-001, 8.1994089508348211e-001,
          -1.1792507220401265e+000, 7.5193300877554625e-001,
          2.1943160501686867e-001, 4.4500333289963745e-001,
          7.4610915025385871e-001, -2.6136496125931458e-001,
          -3.6105184895973391e-001, 1.0864573728107545e+000,
          1.0693426393735044e+000, 4.6864118649536995e-001,
          3.4253551207982808e-001, -7.9812383855891025e-002,
          -4.0826581435568898e-001, -1.8139281530962878e-002,
          8.1598730032025890e-001, 4.8917747295900227e-001,
          1.1450762540940445e+000, 9.2704512690666174e-001,
          8.5831998866489767e-001, 6.9519670282501056e-001,
          -5.7877129403775862e-001, 1.3630692951670212e-001,
          7.0600981597377277e-001, 4.3648594507041438e-001,
          8.0174546693063442e-001, -9.7867233213662019e-001,
          -9.5905430571415012e-002, -7.9790412616478301e-001,
          1.6058512973942396e-001, -1.9150633472409408e+000,
          3.5593438516936210e-001, 4.5046051583988930e-002,
          2.2084513260776575e-001, 2.5463231055659075e-001,
          5.2498907419429641e-001, 3.1716193252353042e-001,
          -4.2240099789215901e-001, -9.6192334517751177e-001,
          -8.4380086957658706e-001, 6.1004506864883312e-001,
          -1.1875903772975629e+000, -9.6822062302600675e-001,
          -1.0278399007702353e-001, -8.4613032749382111e-001,
          -3.0158505875571684e-001, -7.4697301311002129e-001,
          8.3229511867702033e-001, 1.0754591408500274e+000,
          1.0672274881452675e+000, -7.4476472970535024e-001,
          -1.4119032322874600e-001, -1.2669302100017168e+000,
          -3.2006822488613573e-001, 6.3600954532111265e-001,
          4.3302593234448039e-001, -1.0891288910294959e-001,
          -3.3068771421359955e-001, 8.0608018711096352e-002,
          9.9229874564979270e-001, -2.9905396755934621e-001,
          -1.8358099794731246e+000, -1.9323490005553747e+000,
          9.8498765134042821e-001, -1.2551023640790051e+000,
          -2.0647179892615036e-001, -1.9169729574165724e+000,
          -9.1082269274424310e-001, -6.3648963907538569e-001,
          2.7374826462741292e-001, -4.7867591022520961e-001,
          -5.5634324126311341e-001, 2.7286387613290419e-001,
          5.1513109853907746e-001, -1.2062627322383974e+000,
          -1.0377533917214503e+000, 4.0993761178760241e-001,
          -4.9807516517011519e-001, 1.3234038222027966e-001,
          -8.5659787944686183e-001, -6.7211438714917249e-001,
          -9.4596558028858502e-001, 2.9821704334221551e-003,
          -8.5698255669350865e-001, -1.8613361256848024e-001,
          -2.3916223736339073e-001, -3.6601959788764404e-001,
          -7.4861699593657116e-001, 3.5327055888900522e-001,
          -1.1070604611330255e+000, 1.2924595377612422e-001,
          6.6671205922882848e-001, -5.3584806886342318e-001,
          -9.1442284657016815e-001, -1.6286690411545229e-001,
          -3.2816129870720900e-001, 1.0878444347445539e+000,
          -1.1344918320841477e+000, 1.0039755662985150e+000,
          1.7302708126665314e-001, 1.0140507011565729e+000,
          4.0737003848425150e-002, 1.0482036426572532e+000,
          -9.2625093516917800e-001, -2.5402363661132260e-001,
          2.5936104343867261e-001, 6.8226384567429366e-001,
          -6.0262534649884469e-001, -3.2983742029722901e-001,
          3.4483532770623332e-001, 1.0232894113915328e-001,
          5.7255817447451829e-001, 1.0424795545903254e+000,
          7.2120424667135019e-001, -4.9471225405501179e-001,
          3.9082817148190840e-001, 1.0443727012354667e+000,
          -6.3963645388649615e-001, 6.1332376208196537e-001,
          2.0459789242734566e-001, -5.3756618842004078e-001,
          5.8394214643170989e-002, 7.8711071370638208e-001,
          3.9353622398523708e-001, 5.9944743816359536e-001,
          8.3830554517311875e-002, 1.0560647858354988e+000,
          1.2836968530676853e+000, -5.5325442760639321e-001,
          1.3890285539550029e-001, -7.7407950046036533e-001,
          -8.0314596899253832e-001, 9.1265673080761356e-001,
          9.1270535668301778e-001, -8.0121765349800600e-001,
          2.6236676844981366e-001, -1.8996856717881809e-002,
          -1.2017975689181599e+000, -3.9561795988146381e-001,
          1.4252640083767991e+000, 2.4327901659695067e-001,
          3.6646932503034241e-001, -6.4264148671664800e-001,
          -2.7480052768497693e-001, 3.2089730672847427e-001,
          2.0542390382138806e-001, 5.3292038491714000e-001,
          8.8212959841470484e-001, 9.8774010752621955e-001,
          -5.6179062081041742e-001, 5.6793377322101968e-001,
          -1.1620651402457172e+000, -5.8481575683358966e-001,
          9.4251281054095104e-001, -2.2191175238746649e-001,
          -3.0623448337789357e-002, -7.4852048613568345e-001,
          -1.7769402941110277e-001, -4.8258531078290379e-001,
          1.2050861634963226e+000, -3.4392282549509733e-002,
          -1.4791442723121095e+000, -2.9301119644656176e-001,
          -7.1377719765660194e-002, -3.3014187389082567e-001,
          1.1871511543614601e+000, -1.7956968653391034e+000,
          -1.2173916605646815e+000, -7.1630682261678702e-001,
          5.6285340441677578e-001, 1.1956525768334345e+000,
          1.4858026612935185e+000, -6.1978631826180974e-001,
          3.1184441350376157e-001, 1.4739524013196845e-001,
          2.9496808737574892e-001, -5.1435107533596636e-001,
          -1.0699927364861155e+000, 2.4868754506541418e-001,
          -2.3737680450171889e-001, 1.7993550744665991e+000,
          5.4692956758093814e-001, 4.6710215592573034e-001,
          1.2544037557654697e-001, 1.4533131285320682e+000,
          -4.2677257314043249e-001, -4.0719646624331229e-001,
          -2.6191655628688537e-001, -2.5155231568981196e-001,
          5.2479779544309102e-001, -6.1420332385886167e-001,
          -1.0849705472114202e+000, 1.4084420985074928e+000,
          -9.1259961321904792e-001, 3.7715894094667635e-001,
          4.9231182837922111e-001, -4.3267683284800212e-001,
          6.0602210579354510e-001, -1.4383687574946715e+000,
          4.5036796982258204e-001, -7.1940621421813256e-001,
          -1.0727444408043076e+000, 1.6487419154608320e+000,
          7.1017149966509974e-001, 3.5952977747369680e-001,
          4.4969266042403272e-001, 6.9185333619594758e-001,
          1.1193643087714000e+000, -1.7026887542955145e+000,
          7.7414994952696192e-001, -1.2777803422357148e-001,
          -7.8799749906252103e-001, 3.5109083937213820e-001,
          -1.0482489048270349e+000, 1.1508288928648838e+000,
          -1.1194865729793340e+000, -8.1568044740068457e-001,
          4.2159924000352671e-002, 1.1827476934022899e-001,
          -2.9524621917610550e-001, 7.6900004371569051e-003,
          2.0443797318745669e+000, 1.0882029043792893e+000,
          1.1088562601667320e+000, -1.0816087742104286e+000,
          8.3714927038550074e-002, -3.4167461644491609e-001,
          -3.0886264141973979e-001, -1.2736139785312104e+000,
          1.8525695109828992e+000, -3.5423550021311340e-001,
          -2.1999871989190800e-001, 8.6028891695602749e-001,
          -1.0074760753841940e+000, 5.1784849812017975e-001,
          -1.9723431976598424e-001, 7.1649083641527189e-001,
          1.5456478276020618e+000, -4.4744589467315848e-001,
          1.2634398919938357e+000, 5.9387795597883437e-002,
          3.8358847552222478e-002, 1.0900542666163673e+000,
          -3.9643568198220396e-002, 5.0872016300689715e-001,
          2.1212685084866387e-001, 1.0217374896717024e+000,
          -2.0706134722440059e-001, 7.6263408685138045e-001,
          1.8338093877969983e-001, 5.6907280678324745e-001,
          1.8134205772579648e-001, 8.7495197986009521e-001,
          -5.1033462018510478e-001, 1.1909833154631894e-001,
          -2.5810328982974101e-001, -7.5396145745449705e-001,
          8.2744573756851392e-001, 2.0074448567640826e-001,
          1.1178423110972149e+000, -8.4839215073207200e-002,
          -2.9931778524746500e-001, 3.9028659275156924e-001,
          8.8153988407424855e-001, 1.4764174940433243e+000,
          -4.9282167035858931e-001, 1.0857527123642357e+000,
          2.7524744992354405e-001, -2.0780274692827703e-003,
          -7.6051841075552545e-002, 1.5058665000962734e+000,
          -5.5629019224810716e-001, -9.5859869943535334e-002,
          -3.5250815859151413e-001, 1.6041037859616196e+000,
          1.3479226807701539e+000, 8.7667799191070483e-001,
          5.7132459493634768e-001, 2.8140956620814483e-001,
          -3.9151834895476711e-001, -4.3158977688622796e-001,
          2.0016316268541905e+000, 1.0107335362762089e+000,
          1.6021258651078663e+000, 3.7717461629914312e-001,
          6.9712509655730337e-002, 1.4479171930866359e+000,
          1.1621208904940709e-001, 1.6853796310018472e+000,
          1.1175967352978433e+000, 1.0135048681931988e+000,
          2.3052273744734886e+000, 1.5005304247445561e-001,
          1.0007793604071407e+000, 5.6472408245901073e-001,
          -5.3797344966881544e-001, 9.2373237306713396e-001,
          1.4493478707575371e+000, 3.4436358747910054e-002,
          1.4148661340214814e+000, 5.9085421103912261e-001,
          6.7606447002880143e-001, -1.7123701523647195e-001,
          1.5465036911493710e+000, 5.9457622454762038e-001,
          -3.9395038859113340e-001, -1.4563983110980808e-001,
          6.4939228623123268e-001, 1.0909584818291344e-001,
          9.9010232600338777e-001, 1.0502255810775059e-001,
          3.6935717266128154e-001, -1.1493668890744417e-001,
          2.0235593047197530e-002, 1.1780911884106788e+000,
          1.2666555378917959e+000, 9.4050117038766187e-002,
          2.1143572336682531e-001, 2.9472048087246489e-002,
          -1.2275895396070284e+000, -3.2693237706992762e-001,
          -4.1751784669288139e-002, 4.2234884386698140e-001,
          8.4089925090915318e-001, 2.2757284608728695e-001,
          2.9657458744145881e-001, -1.4923160360305525e+000,
          -1.4767438662361982e+000, -1.3084542120120499e+000,
          -5.0295376887515819e-001, 8.2585218306400740e-002,
          8.2534716154586085e-001, 4.0625993170192115e-001,
          4.5395647195071520e-001, 6.3504279056361235e-001,
          -9.9364748391546887e-001, 4.5694701051514858e-001,
          -7.0884945860644644e-001, -7.3313468184555064e-001,
          1.1282043403862097e-002, -8.0020052059738167e-001,
          5.1455125599069451e-001, 6.5313272952246093e-001,
          -1.0750142196515167e+000, 4.8923814766664003e-001,
          5.7614472336183720e-001, -1.3113684170286724e-001,
          3.8957763134494178e-001, 6.8459264177500057e-001,
          -4.0465821291207482e-001, -8.4547257982865942e-001,
          -2.1352738999337390e-002, 1.0184102334298992e+000,
          -5.1511211939724433e-001, 5.0922070712756795e-001,
          -7.9480312635575046e-001, 2.6303889454089652e-001,
          7.9060570454096868e-002, 8.0539413463266196e-001,
          -9.9788839507282312e-001, -5.5977338189543824e-001,
          -9.2288960042986601e-001, -2.6336186084027713e-001,
          -6.5970803653949150e-001, 1.9398727613425626e-001,
          -1.0921284404822824e+000, -9.4985222790722423e-001,
          -2.8147801131832589e-001, -5.6285753494394697e-001,
          -9.9111338909104763e-001, 3.1970278447785050e-001,
          -8.2681383434343758e-001, 3.0603485999476565e-001,
          9.9382442773746513e-002, -3.3025235027858885e-001,
          -1.1616912046235912e+000, -1.1710543033597726e-001,
          -6.6652334390541434e-001, -5.2794168291235177e-001,
          -8.8804196475441899e-001, -1.0812525999143217e-001,
          5.6846137600452651e-001, -1.4696422967506557e+000,
          -4.1339197056855903e-001, -1.3149804280077400e+000,
          -4.4527867668056553e-002, -4.1033382749510688e-001,
          2.4904955213517876e-001, -1.0100383546700564e-002,
          -7.0207372607851382e-001, -7.7861233011817765e-001,
          1.0386148333964505e-001, 7.9246150758291681e-002,
          2.1240976188350894e-001, -1.6470575600273769e+000,
          -4.1003910829888129e-001, -1.9904023187531714e-001,
          -2.8838570303424305e-001, -1.4326172017244159e+000,
          -7.3854921956022257e-001, -7.1113492423053593e-002,
          4.4909389897237595e-001, -9.8991115837491916e-001,
          4.3659773905877725e-001, -3.5963765954725713e-001,
          3.3281034731121606e-001, -8.2137228592038869e-001,
          -1.0927302116665563e+000, -4.9188322380942168e-001,
          -2.4911949565894700e-001, 7.0145290887870604e-001,
          -4.2693395250130278e-001, -7.8911494867649712e-001,
          3.6654647086508224e-001, -8.8689780954904496e-001,
          7.0597903534074979e-001, -8.7338225339538433e-001,
          -4.8306139166517131e-001, -1.6614529268631881e+000,
          8.9219965278989521e-001, -3.4169534918642042e-001,
          2.6727588002122684e-002, -1.5673765928284103e-001,
          -3.5594033840722072e-001, -8.5612731779051515e-002,
          3.2154421366366759e-001, 9.1123759217527252e-003,
          2.3051286952590783e-001, 4.0339173926807886e-001,
          -1.4880170199590212e+000, 4.7427565584751274e-001,
          1.0638830002024728e+000, -8.1592084149901523e-001,
          -1.7966368710691083e-001, -2.7955798922706460e-001,
          -1.0016990823186591e+000, -7.0383689993367293e-001,
          -4.9207817638123968e-001, 5.5072076794710045e-001,
          -1.3984468866828070e+000, -3.9079162572802961e-001,
          -3.3527705168587224e-001, 5.0246945499273332e-001,
          1.4508908136845167e+000, -2.0429938283676923e+000,
          1.4367730539935186e+000, 1.3580202423145269e+000,
          -7.2587358907774324e-001, -7.9897379889496534e-001,
          1.1249783442151460e+000, -2.3419849851003809e+000,
          -1.2863063259830318e-001, -4.4213315369283701e-001,
          -6.3668653401792330e-001, 1.4787318414578323e+000,
          4.7353043431129177e-001, 2.2919277115504041e-001,
          4.4806891814306499e-001, 1.5562250040930847e-001,
          2.1091929687721378e-001, -9.2653715190229946e-001,
          2.3309363240950973e+000, 4.9548677873124980e-001,
          3.4729625279712695e-001, -3.1030673960682947e-001,
          9.6197202046712380e-002, -6.8064905395090403e-001,
          2.0837028878684718e+000, -7.6439699589473031e-001,
          1.4142925013917382e+000, 5.0578888303196490e-001,
          1.6158204158964778e-001, -7.2037474249821309e-001,
          -1.4098216285958858e+000, -1.2149533302419502e+000,
          -4.2288986467427786e-001, -1.2182264581468127e+000,
          3.2046180438859606e-001, -9.4593286691047462e-001,
          4.3219437325341309e-001, -5.2900660054556503e-001,
          1.2037872702674828e+000, -6.7208439067775294e-001,
          -2.6718541401796825e-001, -9.1298211842985297e-002,
          -6.6641744246291967e-001, 4.9044813662660924e-001,
          -7.0394444374816745e-001, 8.1446500037244696e-001,
          4.8450868529384306e-001, 1.4050064165768783e-001,
          1.2801659714410258e+000, 9.7201888702262496e-001,
          7.0362474650135981e-002, -3.0663905552478404e-001,
          -2.1772402307921920e-001, 1.6171343812166552e+000,
          -8.5845394109346285e-001, 4.3914700110718574e-001,
          9.5697154737394552e-001, -5.9833718963430517e-002,
          1.2701001459595684e+000, 7.4669927933923230e-001,
          5.0518221795463580e-001, -1.3804436238492701e+000,
          1.0545978291475850e+000, 5.2734460218819279e-001,
          -8.6396606512787022e-001, -1.9592157647561531e-001,
          -1.9853107711619109e+000, -9.4774119158838221e-001,
          2.2762291946239469e-002, 6.1420583849585531e-001,
          9.8604723374895464e-001, -6.1233342323732043e-001,
          -1.1656105901247955e+000, -2.0421770582077833e-002,
          8.5325714706039735e-001, -5.3202716178066756e-001,
          -9.7760410111998514e-002, -2.8522759488262744e-001,
          -1.2666746993020066e+000, -5.5227558223441586e-001,
          -3.0299287827505000e-001, -3.7570051974565899e-001,
          -7.1582552571475377e-001, 1.4123614660163208e+000,
          -7.7485673489625884e-001, -1.2995189903757505e+000,
          -4.0280244745940536e-001, 7.1174687911959478e-001,
          1.3379372179758575e+000, 2.2968371128819415e-001,
          -4.4905525911375432e-001, -2.4962509437662161e-001,
          -1.2551011816085540e+000, -2.5109245741266578e-001,
          5.4884144233606058e-001, 3.9170045969962042e-001,
          -4.8823676853652687e-001, 8.8591649242421644e-001,
          3.6656240736496593e-001, 5.1434759290635501e-001,
          -8.9428619504425277e-001, 2.1114061387698924e-001,
          -8.0034911534447450e-001, -1.3037045356708903e+000,
          -2.5501837030178387e-001, -7.8466782132538671e-001,
          4.6102815652782286e-001, 2.5150019840929627e-001,
          -1.8910566818873051e-001, -8.1562807213315325e-001,
          8.9462357670515147e-001, 7.1258958494111102e-001,
          -1.5957348619402512e+000, 6.3733807812101462e-001,
          -9.1661076434476751e-001, -8.8801719446787108e-001,
          1.7128293054453508e-001, -9.3201945469261938e-001,
          -5.8623591964797361e-001, 5.3625679480016890e-002,
          3.9443863026465015e-001, -9.3370734565921010e-001,
          -1.8626867935528988e+000, -3.9238336480668079e-001,
          7.8070698324321408e-001, -2.5417430858316803e-001,
          -4.0765109691339912e-001, -9.3333344884816527e-001,
          -1.1513467548958664e-001, -7.8129643867974519e-001,
          -1.1726265428634399e+000, -1.4658853029746874e+000,
          -2.8776333912788419e-002, -1.3076002762002612e+000,
          -1.5133158247600187e-001, 6.1147338463485523e-001,
          3.5703389759247539e-001, -1.0365498914805584e+000,
          -1.3013924968218014e+000, -1.0469546883184773e+000,
          -1.4462274114155355e-001, 2.4566480375203835e-002,
          -9.3078061679280000e-001, -6.6785706014260465e-004,
          -9.6696990034488950e-001, -5.6455293092637615e-001,
          -9.1710986675958917e-001, 6.2485746076946169e-001,
          -1.3507894008217673e+000, -2.4387014557247184e-002,
          -9.1409939912073301e-001, -4.5412340066566559e-001,
          -6.5521860640155727e-001, -1.8015631045647102e+000,
          4.1725411137367957e-001, 1.2614535271045235e-001,
          -1.3157919456851268e+000, -1.0048375556657185e+000,
          -5.1588696814720625e-001, -6.7990202593780569e-001,
          -3.6811278202821029e-001, -3.5658471014693480e-002,
          -4.4350189014677432e-001, -1.0074211229987782e+000,
          1.7977098083029244e-001, -9.9083574953095332e-001,
          4.1326377888963017e-001, -7.0529261934467868e-001,
          -5.1117337485106495e-001, -6.8167062914981674e-002,
          7.4457423442411108e-001, -1.2479367380805064e+000,
          -7.6560525532687085e-001, 1.1518109308093912e-003,
          7.6551558841973755e-001, -7.1308367242583370e-001,
          5.2912749221684119e-001, -1.2954808050061319e+000,
          -4.9457937505414556e-001, -7.2706706056943038e-001,
          8.3812223888393234e-001, -1.1845223275616861e+000,
          8.3304617632279565e-001, 7.2392694258777457e-001,
          9.9323985304958706e-001, -4.1024512047069339e-001,
          -8.0504985565863174e-001, 3.0207916124040227e-002,
          2.5379691483634714e-001, 2.7715227755364918e-001,
          -1.7505662164574103e+000, -4.9660930817699078e-001,
          1.0647958182142461e+000, 2.2868752134046232e-002,
          9.5424494077607114e-001, 3.8388574914298906e-001,
          -2.6046890083166446e-001, 3.1019610886037929e-001,
          6.8328984678825755e-001, -9.2806051329838712e-001,
          3.0753630071601301e-001, 1.2822865666350465e+000,
          -3.5192949904393106e-001, -1.2374955360220679e+000,
          2.5578261929261281e-001, 3.4360908973320621e-002,
          -1.6735398714791803e+000, -5.6318928939422697e-001,
          1.0594204830624396e+000, 1.1362548013252034e+000,
          9.5494957507211597e-001, 1.2454759052320681e+000,
          1.3112962023029753e-001, 8.5817978674432568e-002,
          5.2178726682193355e-001, 1.4066854600234402e+000,
          1.8466445877203244e-001, 9.3348617517755680e-002,
          -1.1681683917679293e-001, 9.2821806999027645e-001,
          7.7374431231501983e-001, 1.2734058999540714e+000,
          1.0534914208621162e+000, 1.0414538890210437e-001,
          1.3186484322264236e-001, 1.5165182839856789e-001,
          -2.4779085087495026e-001, 5.8854665258294150e-002,
          -5.5296364293329514e-001, 2.9719858662803761e-001,
          1.3686817032861387e-001, 1.7693144840792301e+000,
          6.4038851176582867e-001, 8.2468235165792259e-001,
          5.6561905640108190e-001, 1.2954101830266507e+000,
          8.8062931382387755e-001, 9.5050666684801655e-001,
          -9.2461561419774657e-002, 1.5056135311822616e+000,
          -5.2523780708520755e-002, 1.1394845982888942e-001,
          1.6299114188563817e+000, 4.4904610201967676e-001,
          1.1383805946238872e+000, 8.4908626767648843e-001,
          1.3759476796438159e+000, 9.1099028099171209e-001,
          3.3578018414018262e-001, -5.2554769116027522e-002,
          -4.4447467470096774e-001, 1.0306039535135048e+000,
          -4.5022523612845344e-001, 5.2099922055410153e-001,
          6.6203737251688677e-001, 3.0533927557909257e-001,
          -1.4633794317519717e+000, 6.7199338300461819e-001,
          -9.9834590594388439e-001, 1.6710164626650154e-001,
          1.0806561341709867e-001, 4.0800436951663988e-001,
          4.5733421794638196e-001, 1.1514379858549300e+000,
          5.0024972815771773e-001, -1.5011519736976313e+000,
          -5.1201859904757419e-001, -9.5482262002590509e-002,
          -1.3980154568702501e+000, -1.6194695303093912e-001,
          -1.9041529559344392e-001, -4.7794665540720671e-001,
          -3.8478171537387290e-001, -7.6094362681383054e-001,
          1.9587077311616366e-002, 2.1357130493277124e-001,
          9.7235128044661179e-001, 1.1911604785311587e-001,
          -7.0895515780234442e-001, 8.5909219505710274e-002,
          -7.6184451834795008e-001, 3.2040483125668123e-002,
          -2.5917058081529970e-001, -7.1149104774501559e-001,
          6.3659097465582104e-001, 7.9394726994638776e-001,
          -1.6449007236981791e-001, -2.4103823723924109e-001,
          -3.7468706935138224e-001, 4.1976563647844067e-001,
          -8.4985685562478153e-001, 1.0451064881442196e+000,
          -5.7024525261639236e-001, -1.3192687903950397e+000,
          1.4393744688217591e-001, -1.6663126454778276e+000,
          1.2820374870915789e+000, 1.4603689171890828e+000,
          1.1235758620827514e-001, -3.4734442308832986e-001,
          -1.5545234092819193e-001, 4.4390451815489751e-001,
          1.2925196450410430e+000, 3.1380848448638149e-001,
          4.4947199382129549e-001, 1.8125694128306780e-001,
          8.0366314781457793e-001, 9.3195574105136481e-001,
          1.1147346056725973e+000, -5.4630810732055834e-001,
          1.2305255521865501e+000, 1.2057266462151088e+000,
          4.3258932852934817e-001, 4.8346683771063492e-001,
          9.3407497728059752e-001, 1.2020566213838819e+000,
          7.9115673877370707e-001, -6.3063351716682892e-001,
          4.2243396011851220e-001, 3.5396737144910090e-001,
          7.1525994015109040e-001, 2.2867939164507283e-002,
          -2.7931037962712507e-001, -6.9301829911675916e-001,
          8.3727619751151616e-001, 1.5737147403592338e+000,
          1.3011840317387666e+000, 9.2377292954354451e-001,
          6.2520485902034406e-001, 1.2320696754619744e+000,
          1.2664492324686984e+000, -1.7212933568689684e-001,
          1.2499193630029564e+000, 1.3113727577983028e+000,
          1.2468144658817275e+000, 4.9493335790858811e-001,
          1.5385074470751146e+000, 1.4903813932493419e+000,
          -2.0184361563159312e-001, 1.8706831150700796e+000,
          2.8760660196469240e-001, 4.9518663133272078e-001,
          -9.4913347257636102e-002, 5.1919159888011057e-001,
          -8.6603007897108220e-001, -4.5199418895711038e-002,
          -4.5226209167806598e-002, 7.6772287266721140e-001,
          -1.6116371971487115e-001, -6.0968685194490546e-001,
          8.8547134432590338e-002, -1.6406042654992122e-002,
          -2.2706544391806659e-002, 8.0667613784140546e-001,
          4.2715329916261291e-001, -8.8329405287780716e-002,
          9.2530534799675579e-001, 6.6050500019231130e-003,
          1.5040858422675607e+000, 1.9655166634639729e-001,
          2.8371404303360065e-001, 2.9808029831023947e-001,
          1.4438877475674958e+000, 7.2597554780624400e-003,
          1.7917098650307133e+000, 1.1233049082461990e+000,
          3.6467807150698439e-001, -5.9870674206339958e-001,
          1.1823520732211822e-001, -9.8236481646477511e-003,
          7.0688418204044301e-001, -7.9832117552736548e-001,
          -6.0998843092265342e-001, 1.7516523624329159e+000,
          -8.5514481863911951e-001, -8.2358316948457511e-001,
          -5.4276157060370589e-001, 7.7565224456882798e-001,
          4.2344273925127424e-001, -5.0994556024956628e-001,
          -6.9138117994074766e-001, -1.5152474725006075e+000,
          -5.8296778009600814e-001, 5.6480524619504091e-001,
          -1.8864650815732940e+000, -1.8799829637243926e+000,
          -2.6912990512040114e-001, 2.6707791657515156e-001,
          7.5431479088190179e-001, -4.0734675933673559e-001,
          -8.6347077765940927e-001, -8.2651223505065130e-001,
          1.2225326973738312e-001, 9.9554326187665110e-001,
          -9.8098095033141575e-001, -2.9480709184314235e-001,
          -1.1414581264409798e+000, 6.7197797064554876e-001,
          -3.5996508118934617e-001, -2.4775270239418717e-001,
          5.7061856893083657e-002, 4.7790706459752286e-001,
          2.0701965153809634e-001, 5.7999132061231562e-001,
          -1.0607998736486708e+000, 1.3275392099910832e-001,
          -1.7170110090729960e+000, 1.1265966087339800e+000,
          3.7747290057365757e-001, 9.3004900152805836e-001,
          7.5060959045639097e-001, 5.0728582221724550e-001,
          1.2750133371873609e+000, 4.1622649051602906e-001,
          8.9812722782945076e-001, 3.6071627100891701e-001,
          -1.5429639500026138e-001, 6.6707626916674279e-001,
          -1.5952671365864698e-001, -1.2582307737635892e+000,
          1.1347405196682936e+000, -8.2448374125086454e-001,
          1.0476868263733721e+000, -7.9553660596482667e-001,
          -3.5468876055913146e-001, -3.4671919603763907e-001,
          -1.1847441835414785e+000, -5.7892588030138437e-001,
          1.5480451489845062e-001, -2.2640840830245593e-001,
          -2.9541207139282749e-001, -6.5709516656216194e-001,
          7.5977724405958713e-001, -6.6979734164651550e-001,
          -9.7621432610281011e-001, -5.9846193807266101e-001,
          -7.4449770598661935e-001, -1.8841472987941534e+000,
          -7.8236557929023876e-001, -1.7208044898367780e+000,
          -7.3415374510109621e-001, -7.0796873148809525e-001,
          -1.7699530144182676e+000, 4.1921290296264990e-001,
          -1.1147003278627021e-001, -6.8764855075860210e-001,
          3.9418629668877281e-001, 7.7032150698736690e-001,
          -5.7844297354902396e-001, -5.8853365838999272e-001,
          -1.8066988540567825e+000, -2.4232336528726943e+000,
          -7.0273640070963939e-001, 3.9744393641263781e-001,
          7.6847309129445152e-001, 4.0532534600738235e-001,
          -2.3751717325369665e-001, -1.0378029852446065e+000,
          -7.6259566225629460e-002, -3.3909375038765283e-001,
          -8.8486498712931871e-001, -3.0546586994867442e-001,
          -1.6376006513046799e+000, -8.8454801838733699e-001,
          2.6486034221076726e-001, -8.6153070480772298e-001,
          -6.2609024117247869e-001, 9.1472143049380805e-001,
          -1.4565577212505347e+000, 2.9819232718087302e-001,
          7.9802216560113393e-001, -2.0491181497138472e-001,
          1.0394728247506866e+000, 3.0967721777285123e-001,
          -3.9712152376856291e-001, 1.1216808362686312e+000,
          3.3746594362244986e-001, 7.4772741530634446e-001,
          1.3684040156725883e+000, -3.3857610787251391e-001,
          3.8802312311323872e-001, -7.4057237039271773e-001,
          -5.5957005686815164e-001, 6.1875124765671294e-002,
          4.7928019365464763e-001, 9.1159319274231443e-001,
          -1.7048283172236696e+000, 1.0618917504988288e+000,
          6.9188540774876661e-001, -9.8761785179308392e-001,
          -5.2944842074951692e-001, -7.5890240495056061e-001,
          -2.7160177980514183e-001, -1.4715312288263021e+000,
          6.9536888555807319e-001, 3.9941513991538746e-001,
          -2.3313445012807785e-001, -3.2110491503143712e-001,
          9.1751094340360251e-001, -5.8331786263465124e-001,
          -8.9755071985755264e-001, -1.0438826896483908e+000,
          1.0041356851738994e+000, -7.6154749532288057e-001,
          9.1077305242501672e-001, -2.6391407419871435e+000,
          -6.0146004121920804e-001, 1.1851533644815571e+000,
          7.7854229756950555e-001, 9.1034033483743926e-001,
          1.0280689348040467e-001, 1.6019459397245956e+000,
          -3.6475302511330043e-001, 1.1007680919912706e+000,
          1.6360565021755231e+000, 1.0001292704851790e+000,
          -4.4657433508212113e-001, 1.0863248016614042e+000,
          1.2311714704054448e+000, 7.7370310839773582e-001,
          4.1538617251966914e-001, 1.0414210164292266e+000,
          1.4902348356416797e+000, 5.6285670840051194e-001,
          3.8696895736278508e-001, 9.8305926679305100e-002,
          3.7391434359020542e-001, 3.5563953800679110e-001,
          1.3841751702518921e+000, -5.2750415610862108e-004,
          1.3500509986972173e+000, -3.3580259485989022e-001,
          8.1164664161036637e-001, 8.9324976946565715e-001,
          6.4721560372696485e-001, 1.4136053502741817e+000,
          -4.8233247199737228e-001, 1.1136012886798641e+000,
          -2.1962372130760063e-001, 1.0857185245721050e+000,
          1.3921191164114006e+000, 5.9162814523701243e-002,
          7.1929786000993168e-001, -3.0234764458171060e-001,
          1.9114141626406203e-001, 1.1170862708583698e+000,
          -1.6214588868716123e-001, 4.0864652556408160e-001,
          8.1499564160178417e-001, 8.6058640443026757e-001,
          2.0510706892093128e-001, 6.0650292097217162e-001,
          1.3035499033513613e+000, 1.3682574879301002e+000,
          3.0017532719437334e-001, -8.8352488874992330e-001,
          -8.2658996294189679e-001, -6.1077368164169410e-001,
          -9.1711754084925790e-001, 7.4265037908757991e-002,
          -5.1780811462834475e-001, 5.2037667553187072e-001,
          -5.9216176110037833e-001, -1.1632006284747360e+000,
          -3.0885434964352926e-001, 4.5396989668965659e-001,
          9.4241345025344336e-001, 6.1262543865988273e-001,
          -1.4057100572144188e+000, -4.4314394431225557e-001,
          1.3077440614399820e+000, 1.0416230522215357e+000,
          1.5076959847258535e+000, 3.3983532672704647e-001,
          7.8254613269147899e-001, 3.3761845807252083e-001,
          -1.4374939070722332e+000, -5.8484325495590617e-001,
          1.4354321829768407e-001, 4.6599912326995141e-001,
          -6.3391123612605849e-001, -1.6559810145249894e+000,
          -1.0215845316683048e+000, 2.3446669091461936e+000,
          4.7937715660357483e-001, -1.1128996985104591e+000,
          -5.2799570450056388e-001, 5.5511634713998148e-001,
          6.1322288373603706e-001, -6.2175566698274576e-001,
          -1.8219485810394402e+000, -6.7732995152222530e-001,
          -6.9488751127792403e-001, -4.6371362377937941e-001,
          -1.6593483417592951e+000, -5.1046934303539893e-001,
          -1.3147249031252490e+000, -8.1189670594069152e-001,
          -2.3131703266602153e+000, -1.5630157323712395e+000,
          -1.2754984177649082e+000, -8.5957324012458780e-001,
          -1.1940531885557991e-002, 4.7967611357999279e-001,
          -8.0641202692674663e-001, -4.9015089899746994e-001,
          -6.0848487423152198e-001, -1.1230733478210448e+000,
          1.9406965936662851e-001, -8.5557937043928012e-001,
          -1.3826571584024852e+000, -1.5546952167293167e+000,
          -7.5344315551957908e-001, -5.5315535846446340e-001,
          -8.7972361409684707e-001, -1.2830830173321235e+000,
          -1.2101667561961469e+000, 8.9601365541590858e-002,
          -1.2542647774932720e+000, -1.8357474327792584e+000,
          -2.8700621736235540e-002, -1.0359491212693852e+000,
          -1.1489710055611899e+000, -1.4471419714235250e+000,
          -1.4794408875221692e+000, -1.6003706152185979e+000,
          -1.6773110499800221e+000, -1.8243318158187594e-001,
          -6.9649253280156065e-001, -1.0606405903329315e+000,
          -1.0237025431673015e+000, -1.2402747686118130e+000 ]
