%YAML:1.0
my_nn: !!opencv-ml-ann-mlp
   layer_sizes: !!opencv-matrix
      rows: 1
      cols: 3
      dt: i
      data: [ 8, 42, 42 ]
   activation_function: SIGMOID_SYM
   f_param1: 1.
   f_param2: 1.
   min_val: -9.4999999999999996e-001
   max_val: 9.4999999999999996e-001
   min_val1: -9.7999999999999998e-001
   max_val1: 9.7999999999999998e-001
   training_params:
      train_method: BACKPROP
      dw_scale: 1.0000000149011612e-001
      moment_scale: 1.0000000149011612e-001
      term_criteria: { epsilon:9.9999997473787516e-006, iterations:1000 }
   input_scale: [ 2.0295268689639965e+001, -1.0126156992829214e+001,
       8.9886915032718306e+000, -4.7601867639320199e+000,
       1.9250668437592438e+000, -6.4168894791974784e-001,
       7.5095846684475942e-001, -1.6449566416599493e+000,
       9.7568938640183167e-001, -7.2015168996325674e-001,
       2.3155349549638791e+000, -3.8592249249397981e-001,
       3.9898798066812086e-001, -1.1304659452263426e+000,
       4.1017111471633333e-001, -9.6683191325992857e-001 ]
   output_scale: [ 1.0526315789473684e+000, 0., 1.0526315789473684e+000,
       0., 1.0526315789473684e+000, 0., 1.0526315789473684e+000, 0.,
       1.0526315789473684e+000, 0., 1.0526315789473684e+000, 0.,
       1.0526315789473684e+000, 0., 1.0526315789473684e+000, 0.,
       1.0526315789473684e+000, 0., 1.0526315789473684e+000, 0.,
       1.0526315789473684e+000, 0., 1.0526315789473684e+000, 0.,
       1.0526315789473684e+000, 0., 1.0526315789473684e+000, 0.,
       1.0526315789473684e+000, 0., 1.0526315789473684e+000, 0.,
       1.0526315789473684e+000, 0., 1.0526315789473684e+000, 0.,
       1.0526315789473684e+000, 0., 1.0526315789473684e+000, 0.,
       1.0526315789473684e+000, 0., 1.0526315789473684e+000, 0.,
       1.0526315789473684e+000, 0., 1.0526315789473684e+000, 0.,
       1.0526315789473684e+000, 0., 1.0526315789473684e+000, 0.,
       1.0526315789473684e+000, 0., 1.0526315789473684e+000, 0.,
       1.0526315789473684e+000, 0., 1.0526315789473684e+000, 0.,
       1.0526315789473684e+000, 0., 1.0526315789473684e+000, 0.,
       1.0526315789473684e+000, 0., 1.0526315789473684e+000, 0.,
       1.0526315789473684e+000, 0., 1.0526315789473684e+000, 0.,
       1.0526315789473684e+000, 0., 1.0526315789473684e+000, 0.,
       1.0526315789473684e+000, 0., 1.0526315789473684e+000, 0.,
       1.0526315789473684e+000, 0., 1.0526315789473684e+000, 0. ]
   inv_output_scale: [ 9.4999999999999996e-001, 0.,
       9.4999999999999996e-001, 0., 9.4999999999999996e-001, 0.,
       9.4999999999999996e-001, 0., 9.4999999999999996e-001, 0.,
       9.4999999999999996e-001, 0., 9.4999999999999996e-001, 0.,
       9.4999999999999996e-001, 0., 9.4999999999999996e-001, 0.,
       9.4999999999999996e-001, 0., 9.4999999999999996e-001, 0.,
       9.4999999999999996e-001, 0., 9.4999999999999996e-001, 0.,
       9.4999999999999996e-001, 0., 9.4999999999999996e-001, 0.,
       9.4999999999999996e-001, 0., 9.4999999999999996e-001, 0.,
       9.4999999999999996e-001, 0., 9.4999999999999996e-001, 0.,
       9.4999999999999996e-001, 0., 9.4999999999999996e-001, 0.,
       9.4999999999999996e-001, 0., 9.4999999999999996e-001, 0.,
       9.4999999999999996e-001, 0., 9.4999999999999996e-001, 0.,
       9.4999999999999996e-001, 0., 9.4999999999999996e-001, 0.,
       9.4999999999999996e-001, 0., 9.4999999999999996e-001, 0.,
       9.4999999999999996e-001, 0., 9.4999999999999996e-001, 0.,
       9.4999999999999996e-001, 0., 9.4999999999999996e-001, 0.,
       9.4999999999999996e-001, 0., 9.4999999999999996e-001, 0.,
       9.4999999999999996e-001, 0., 9.4999999999999996e-001, 0.,
       9.4999999999999996e-001, 0., 9.4999999999999996e-001, 0.,
       9.4999999999999996e-001, 0., 9.4999999999999996e-001, 0.,
       9.4999999999999996e-001, 0. ]
   weights:
      - [ -1.0812543921468898e+000, -4.8402374935238013e-001,
          -7.0707273955136563e-001, -5.9575628706660588e-001,
          -1.4787326004254667e-001, 1.9973180479233038e-001,
          -1.0037980112078923e-001, 2.5174940474494589e-001,
          2.3811225004208228e-001, -1.0464807133288245e+000,
          1.6288878820938038e-001, -3.0532603390419077e-001,
          1.0290390301056811e-001, 1.3507463921706181e-001,
          -6.7928241720007876e-001, -1.7618339111021810e+000,
          -1.6984046919550172e-001, 9.2119041927328815e-001,
          -8.7564084109797069e-001, -2.2876250949863919e-001,
          -1.8339070192296986e-001, -1.5945023306096331e+000,
          -8.0765414512800476e-002, 5.8055720206133554e-001,
          -1.1091424592127044e+000, -2.1628843568123465e-001,
          -6.0355627454149308e-001, 2.1353384327421068e-001,
          7.2649103942072496e-002, -6.2736681761734109e-002,
          4.4075639686976886e-001, -3.0211886173935554e-001,
          6.5212719530102958e-001, 1.6875399237771720e+000,
          -3.4058056534878061e+000, -2.9722776459083350e-001,
          4.7321251062122044e-001, 1.2718632980324659e-001,
          1.1143516454576539e+000, 2.6194787023180466e-001,
          -1.5316783867738397e+000, -1.8703740920737313e+000,
          1.7441647850438393e+000, 5.7403983270831349e-001,
          1.5320778536416646e-001, -3.6172903988122096e-001,
          1.6532532684493970e-001, -8.4071220251351719e-001,
          3.9552601320504810e-002, 1.0820031946869364e-001,
          3.0067651685100505e-001, 6.7216465570453257e-002,
          6.4340346032210768e-002, 1.1101680756843831e-001,
          -2.8895918675451443e-001, -4.0205182540760559e-001,
          2.1802255734243063e+000, -5.1894039149613685e-002,
          -1.3027162519841344e+000, 1.4746042501102203e+000,
          1.7489047314273767e-001, 1.1068595787873066e-001,
          1.3321729177413044e-001, -1.9410877232562529e-001,
          3.4522082477394173e-001, 6.7227008850095671e-001,
          3.5425294691134079e-001, -3.0750355789771006e-001,
          5.0044105116455162e-001, 1.1820787563440733e+000,
          -1.8608502879894323e-001, 1.5254147724188836e+000,
          -6.5008577691205904e-001, 3.1811648998488262e-002,
          -9.0226054279106377e-002, -5.0305142471365416e-001,
          -5.4138483354434719e-001, -8.7322345387242861e-001,
          -3.5680661628105209e-001, 3.9080205654614109e-001,
          -5.4916291559182895e-001, -9.5693759670602208e-001,
          1.5963106431178636e-001, -2.3409338060154905e-001,
          -5.4239296018262828e-001, 3.3113759708013379e-001,
          -2.3984705951359922e-001, 9.4411477280773115e-001,
          1.7163880406253321e-001, 2.3752956477811679e-001,
          2.0916033309824358e-002, -7.2065077432768784e-002,
          -2.7732012819499291e-001, 5.4964943361736414e-002,
          3.8517033478065371e-001, 4.7266590629438626e-001,
          -1.2295673470717121e-001, 1.2324691235044451e-001,
          1.6792996789156747e-001, 9.7823343366013352e-002,
          3.5758206114705748e-001, 1.0540993493272932e-001,
          4.5342458015380849e-001, -1.4242896452328990e-002,
          5.4332754758568091e-001, -1.0092262685760229e+000,
          2.2794606852002991e-001, 6.4614738791428428e-001,
          1.2413429929407457e-001, 3.6212459562096633e-001,
          -5.0867118932721822e-001, 7.5182417933944479e-001,
          -5.6225882853102836e-002, 9.9985050098288297e-001,
          -3.1782210223334117e-001, -1.4695179912898155e+000,
          -8.6676533433217762e-001, -5.1826761617780626e-001,
          -8.6057725032464144e-002, -4.3033075523001885e-001,
          -4.6948497993634286e-001, -1.6946728578601042e-001,
          7.7951375989151128e-001, 6.8021904989007942e-001,
          8.6020429086094941e-001, 3.3453695283816370e-001,
          -2.3201080017945563e-001, -2.1994742277794554e-001,
          -9.0197816149924656e-002, 2.0485406949015250e-001,
          7.4004272903992630e-003, -2.0292936962251570e-001,
          -1.7970895486739344e-001, -2.7112955435989367e-001,
          8.3148209795876293e-001, -6.2592938874456272e-001,
          -3.7350857761778107e-002, 2.1110489715050668e-002,
          -1.5574097020724201e-001, -6.9269548195647312e-001,
          3.5408555429416355e-001, 4.4416618841905224e-002,
          -4.7767786915979521e-001, 8.1895723461876124e-001,
          -2.9179175781323063e-001, -2.3916181794165636e-001,
          8.8656110227256402e-001, 1.1430135163445392e+000,
          -3.4941559516450338e-001, 9.4847904002850614e-001,
          3.7481378595689896e-001, -1.9867788210382992e-001,
          -8.1697742631889703e-001, -1.5871352770840069e-001,
          1.0530436061040201e-001, -2.5130891084392626e-001,
          2.6223790416216608e-001, 1.7672268768073307e-001,
          -2.8244615035232051e-001, 4.3898913668720418e-001,
          2.5700898118331839e-001, 2.5448390508779883e-001,
          -3.1893282197029899e-001, 9.2232847844115251e-001,
          -1.2476694753300797e+000, -4.3931440704739305e-001,
          -1.0401401642380719e-002, 7.9710574295358869e-002,
          -1.2124041256879441e+000, 8.1676093994944091e-003,
          -1.8187443259570040e-002, 8.3959361036872493e-001,
          -1.0454793810030158e-002, 8.5645995545472708e-001,
          6.0166928415530736e-002, 1.0843929611152160e-001,
          8.6911498807965382e-001, -7.1707483189812538e-001,
          -4.9965354419184688e-001, -1.1215241452823371e-001,
          -1.0465562870432882e-001, 3.4557915619182755e-002,
          -3.8022131771529261e-001, 9.9943116836954990e-002,
          -3.4410589166146510e-001, 9.0488525514677021e-001,
          3.9658339372972184e-001, 3.7870963036880539e-001,
          1.3809652964021415e+000, 2.4851360088495941e-001,
          -2.7805405284335155e-001, 1.3137561995236910e+000,
          1.8000848629005006e-001, 7.7493416409604596e-002,
          1.7925254272196020e-001, 4.6109771385571419e-001,
          -1.0973473764691263e-001, 1.7642051125523018e-002,
          2.9890233735270488e-001, -8.0828586707931971e-001,
          -1.4717916822289843e+000, -1.8509086197756841e-001,
          -6.3575568476147426e-001, -1.7625499012578599e-001,
          -8.0011536516153825e-001, 1.4804295207098785e+000,
          -9.0540707642488871e-001, 6.1660005004791141e-001,
          -1.8025488670967468e-002, 5.9655853391379710e-001,
          9.8539605645197492e-001, -1.6826351669598996e-001,
          1.9297134014123529e-001, 1.8155470318089972e-001,
          -6.4211804360058092e-002, -6.3044357355962943e-001,
          2.7921005481174965e-001, -2.2229216389879770e-002,
          -2.1593617824814768e-001, 3.4453494531639450e-001,
          -1.3930920519386502e-002, -3.3536610195210048e-001,
          -1.1473389949170080e-002, -2.0785565938639802e-001,
          8.0801107414281115e-001, -7.5452489509290155e-001,
          -4.6441334375011342e-002, 5.1296317742834985e-001,
          -5.1560783178081139e-002, 2.6652939979250695e-001,
          6.4896613209041942e-001, -5.2432790717307387e-001,
          1.7980201813675722e-001, -1.6916950534449782e-001,
          1.7669244078683580e-001, 5.3702761047207292e-001,
          -1.3803413172235475e+000, 3.8680217105645515e-001,
          -1.6722518661794558e-001, 1.9073401359922484e-001,
          -3.4094817874132666e-001, -7.2995689094029215e-001,
          -1.1417779640265706e+000, -3.4993672439253337e-001,
          9.0056449002434302e-001, -7.2354088677252557e-002,
          -4.4601597869914827e-001, 1.2525214154523488e-002,
          -1.7951690148763122e-001, 3.7987668831463761e-001,
          1.0388604557634793e+000, -6.0832859086566615e-001,
          -3.4125641260395829e+000, -5.0911718934066119e-001,
          1.2462979444307401e-002, -4.1227320832382530e-001,
          3.5038774739439227e-002, 7.1240426929153167e-001,
          1.9196012072555166e-001, 4.4617382607960450e-002,
          5.4585588930010465e-001, 3.0545917452327909e-001,
          4.6333172914769247e-003, -6.3515140282130889e-001,
          2.9824723013441667e-001, -1.3498381512017472e+000,
          -3.9207474230265749e-001, -1.2085513075476899e+000,
          -1.5852807360536202e-002, 1.4410356831721241e-001,
          2.2770040732494237e+000, 4.1086603892411139e-001,
          -6.0588093826783451e-001, 2.3094789376840326e+000,
          1.1602167658086688e+000, 2.2735195237459555e-001,
          -4.5027355781512246e-001, -4.5604973872275034e-001,
          4.0913451722136379e-001, 2.9785243126956301e-001,
          1.7016005614300167e-001, 2.9211068353400244e-001,
          -6.7546758433303308e-002, -6.2151757618614878e-001,
          1.1831243916797517e-001, -4.9929985172033647e-001,
          -1.3304521628088497e+000, -5.9753419232116378e-001,
          -2.8782355317828318e-001, -1.6635916489508764e-002,
          4.5470795035750677e-001, -5.7765482164605741e-001,
          9.7234534230739933e-001, 2.6184355673042720e-001,
          6.0513568580428201e-001, 1.8417188492188180e-001,
          3.6407587065815988e-001, 2.2672559006210388e-001,
          -7.6299249619302414e-002, 7.0841284913621549e-001,
          1.4012570956029685e-001, -1.4773385231174382e-001,
          -3.8226121944346692e-001, -1.8411345604871905e+000,
          5.1481311698623500e-001, 2.2211148591305552e-001,
          -1.4511465589312260e-002, -9.5696691546446511e-001,
          -8.4623184833746520e-002, 6.4629753478840180e-001,
          8.1253918519447199e-001, 6.6292636053092469e-001,
          -7.2492714231363775e-001, -5.1936215676040931e-001,
          -1.6499569217789343e+000, 3.9388494380190892e-001,
          -7.9679245872146853e-001, -1.0711212611729071e+000,
          5.1145794372272757e-001, -3.4963837367168937e-001,
          -1.8819962980298030e-001, 1.6103339378720649e-001,
          2.6382752180180036e-001, -1.2396178341691023e-001,
          6.1882910798104362e-001, 8.1813689767607289e-001,
          8.9168362238455623e-001, -2.5145259273431342e+000,
          -9.3443001795780622e-001, 4.5420348718452525e-001,
          -1.7115920898233168e+000, -4.6625357331956679e-001,
          -5.5808397512017305e-001, -1.7895590999333783e-001,
          7.2850744557489744e-001, -1.3379687640809610e+000,
          -2.6956097893189170e+000, 2.0530676696484482e+000,
          -2.3345889426439101e+000, -2.3703809584501556e+000,
          3.0311684018187890e+000, 1.9864087529793964e-001,
          2.8177538796613635e+000, 2.6732428013097045e+000,
          -1.8287327628070718e+000, -4.9573951492069841e-002,
          -1.8163750223654416e+000, 1.9841820384417088e+000,
          -1.5871095187776245e+000, -1.4711278782752717e+000,
          -1.3376790825633258e+000, -1.8943357722524150e+000,
          -7.7164376585494521e-001, 8.8332986731276919e-001,
          1.5811487266521045e+000, 2.3012532231708334e+000,
          1.4712858050434321e+000, -8.1988112760555898e-001,
          -1.4608815714743555e+000, 1.2269216097055274e-001,
          1.7698288254159600e+000, -2.1404920204720059e+000,
          4.3780615170764364e-001, 1.6844655474866623e+000,
          2.0281871941588032e+000, -1.6182978612982453e+000,
          -2.3631045402739890e+000, -2.1323118673734559e-001,
          -4.0915342967035684e-001, -9.3648515004796673e-001,
          1.2921682267862573e+000, -8.5848630283046956e-001,
          1.6133558981334895e+000, 7.5992928668889370e-001,
          1.3008770210367424e-001, 1.4785431351839817e+000,
          9.5622171428717673e-001, 4.1735136244614596e-001 ]
      - [ 7.5682279194403612e-001, 9.3377616930667906e-001,
          6.3168783779858895e-001, -2.9674763091617668e-002,
          4.5721399691164358e-002, -6.1245004078938337e-001,
          3.2111286801410011e-001, -4.2776943398242800e-001,
          -4.6160308259220340e-001, 7.2954669274451767e-002,
          -1.6805609218321893e-001, 8.3989576976395852e-001,
          5.6783016174622514e-001, 8.9664636351484550e-001,
          1.0969615637631576e+000, -1.2861676443139361e-001,
          2.3052085257620428e-001, -7.9098444094573084e-001,
          -4.2312296410653982e-001, 1.3574117640945327e-001,
          -1.8176182626236281e-001, 4.1363601423785529e-001,
          -3.4977216942360889e-001, -1.5641343761186871e-001,
          1.2250769198066824e+000, 4.6583650695246731e-001,
          5.1712523544462874e-001, 3.4507179810756661e-001,
          1.2502521600436145e+000, 1.4464328945961935e-001,
          6.3868751657983569e-001, -1.5605972281654879e-002,
          -8.0814516573886530e-001, -3.5331453120396476e-002,
          2.7431875078951484e-001, -8.2305641421400247e-002,
          4.4841453738338155e-001, -5.5404556697562690e-001,
          -4.1667758309058278e-001, 3.1337434038334872e-001,
          -6.1708768494627553e-001, -1.2846052496871767e+000,
          2.9313774628749667e-001, -6.1441580646447325e-001,
          -5.0359688969218230e-001, 1.5701812306253524e-001,
          1.3273280314387309e-001, 2.2624414796095985e-001,
          -3.5840485391181615e-001, -1.5280218417971914e-001,
          3.6919330269339669e-002, -4.0252103290755253e-001,
          3.6568177595070916e-001, 4.4496486574930008e-002,
          7.4282039307266207e-002, -2.9479960304222902e-001,
          2.2105162646207193e-002, -2.3586023338471576e-001,
          3.0089258070611064e-001, -4.8613651072108932e-001,
          -9.6757844063360521e-001, -6.9181322949657065e-001,
          -9.7728286447557533e-001, -8.7148781493171523e-001,
          -2.8423622867351112e-001, -1.8487727406574014e-001,
          -9.7372917241324097e-001, -1.3866214278119924e+000,
          -1.6148900328714788e-001, -1.0220198187335217e+000,
          7.0513400909737844e-001, -1.3515916014969859e-001,
          -2.0452681384783528e-001, -7.1983457206430201e-001,
          1.5247345783136795e-001, -5.4321224461609008e-001,
          7.0770057994676427e-001, -1.1968532908832241e+000,
          -8.2036842198313609e-001, -7.4316608393211359e-001,
          -1.2018760677226661e-001, -1.2886503513718556e-001,
          -5.3131990945377960e-002, 8.0190178255075928e-001,
          8.0715067706249566e-001, 1.1236527488288308e+000,
          1.1435316688793051e-001, -1.6180552630056680e-001,
          -1.7674019397581398e-001, 7.1283462259824582e-001,
          1.3580561443414318e+000, 2.5168306111987321e-001,
          -5.9077012648205041e-001, -7.2536059353521010e-001,
          5.3433110765208458e-001, 4.8831306774458128e-002,
          8.5372828586007765e-001, 1.2589247855543024e+000,
          -2.4318084975306803e-001, 5.5512080224010152e-001,
          -3.8831342782784750e-001, -5.2932485171497745e-001,
          7.4271351704190847e-001, 8.0089520670569936e-001,
          1.0144899388026274e+000, -5.1773483900844108e-001,
          1.2041886723295570e+000, 8.4094952000163525e-001,
          -9.0734310409755992e-001, -3.4738750470167118e-001,
          8.1393008268869060e-001, 1.4156891671822929e+000,
          7.7664009763415542e-001, -4.8787039309071595e-001,
          6.0738538748165138e-001, 6.8647158541902986e-001,
          -1.7923295631942818e-001, 4.9918755979056340e-001,
          8.1704797983141053e-001, 4.2660869446193000e-001,
          -7.3007434440870478e-001, -5.7925329817835802e-001,
          2.7588950672812429e-001, 2.8354903391065650e-001,
          -3.7883580552020790e-001, 8.2592475103068752e-001,
          4.6208977984372146e-001, 4.9193893131330857e-001,
          -3.7425971350984860e-001, 1.0208824924281608e+000,
          4.0303389533924661e-001, -5.9090271406780726e-001,
          1.8505361395132888e-001, 1.7109741719198899e+000,
          3.1008802724461815e-001, -1.8414628713260722e-001,
          2.4349859196402993e-001, 8.6619756546436089e-001,
          7.1991991667324695e-001, -3.2060586344763664e-001,
          7.5731371733823516e-001, 9.2261578244087594e-001,
          4.6679434511299128e-001, -7.1774572720944485e-001,
          -6.7502289217758540e-003, 1.3145055830455477e+000,
          5.6820207833021907e-001, -2.7473300442022991e-001,
          -5.6331433175374679e-001, 9.0434063290944289e-001,
          4.2775751370871334e-002, 2.2392085224511021e-001,
          8.0672976511434602e-001, 9.1092221529598749e-001,
          6.5903127106972348e-001, -5.0587830843504167e-001,
          1.3530107858607361e+000, 1.2400670700739143e+000,
          1.2419375452714716e+000, -4.5991602583673924e-001,
          1.4788571096364331e-001, -3.6713734938295872e-001,
          2.0287040346464272e-001, 9.1048910361357960e-001,
          -2.1028664589887355e-001, -7.3558081344057569e-001,
          -2.9748779365082495e-001, -5.2817799859437897e-001,
          -1.1041625453038408e+000, -8.6682409979571107e-001,
          -1.3192139784317167e-001, 3.2171828908340439e-001,
          -2.7076741345253791e-001, -1.2028186128992650e-001,
          -9.5305585206754861e-002, -8.2085831302425039e-001,
          -1.1527784470240439e+000, -5.0107897091484521e-001,
          -1.9501974167543790e-001, -8.3427702292263106e-001,
          -1.6194482828871218e-001, -3.5789723256963779e-001,
          -7.9703391442670735e-001, -3.2279096242406818e-001,
          -1.3486308360760777e+000, -6.6083387332280119e-001,
          -6.4193859959244504e-001, -1.0498144936353584e+000,
          -8.1450279039654502e-002, -9.3126447723583861e-001,
          -1.0988535546144802e+000, 4.1614175357579464e-001,
          -4.3099994499747268e-001, -1.3042127337164644e+000,
          -1.0343834995448777e+000, 9.6971193197811639e-002,
          2.7116344880876431e-001, -5.4630234494895835e-001,
          -7.7511487755410480e-001, -8.8999823306632631e-001,
          -5.4440904351464270e-001, -1.0374059816068844e+000,
          1.2116955021195105e-002, -4.7834932261635765e-001,
          -4.8519659459900105e-001, -6.5657633422080264e-001,
          -4.3141186033767925e-001, -4.1987657477248214e-001,
          -1.1771456084414305e+000, -1.1129713919319419e+000,
          6.6609227800463044e-001, -1.0924227100952457e+000,
          7.9291079971793410e-001, -6.9770669741540770e-001,
          1.8894840281375994e-001, 4.0580147781891002e-001,
          -9.3800412129098487e-001, -3.4119011151750672e-002,
          -7.9591229016881948e-001, -5.5883667773305334e-001,
          -6.3657597232463070e-001, -6.5173636533634927e-001,
          2.9451435799798836e-001, -1.0419706889297544e+000,
          3.2231956596345773e-001, 2.4408736915334547e-001,
          -4.5274775402922451e-001, 6.7276524532368531e-001,
          7.1781449372718764e-001, 2.8102338788501097e-001,
          -5.5008300940510166e-002, 6.4335740237182826e-001,
          2.1253017190895268e-001, -4.6886556698731957e-001,
          -8.9258612211630506e-001, -1.7791546196988456e-001,
          3.7885804663906668e-002, 6.5169854930417326e-002,
          5.1131822069876187e-001, 5.2562499349890501e-001,
          3.6935277783948395e-001, 6.3713805665907208e-001,
          -6.9002679036518999e-001, -1.9471265895010087e-001,
          -3.2976805891158828e-001, -7.1224258040636734e-001,
          9.1998584395744132e-001, 4.5053713884124730e-001,
          1.5440629004671094e-002, 9.8235511469396047e-002,
          5.9241243673677912e-001, 9.1437879599521554e-001,
          -4.6440502611323659e-001, -1.1330793935598442e+000,
          6.8408040417018506e-002, -1.1335556969116349e+000,
          -6.3975680534270463e-001, -1.5038213317833087e+000,
          2.5193698037190954e-001, 3.9024088637146864e-001,
          -8.1373194361847601e-001, -2.4231207471059465e-001,
          -1.2522708519501067e+000, -1.7657846130616126e-001,
          5.7686158013528221e-001, -7.3248864597855046e-001,
          -1.3811311590779010e+000, -9.2035670825160976e-001,
          -1.8241017113085588e-002, -1.1131246201884189e-001,
          1.5691116022821688e-001, -6.7191670574127638e-001,
          3.1978651426522459e-001, -5.3222219786451341e-001,
          -1.2969820429742582e+000, -1.1592485198368432e+000,
          -1.0659780678215807e+000, -7.4054007858018425e-002,
          -5.6082442443023239e-001, -6.7394402850261081e-001,
          -6.5070161353190337e-001, -8.6806022112150261e-001,
          -1.0277797041689480e+000, -9.4533127866203062e-002,
          4.3791373277606949e-001, 3.8434116828248094e-001,
          2.4083213981336577e-002, -1.0798558742002138e+000,
          2.7033665053847861e-001, -4.5157753134891437e-001,
          -1.1026864519464679e+000, -9.0451385559732400e-001,
          -1.0171223752945338e+000, -3.8473612962897441e-001,
          -1.1390560936133944e+000, 2.4997401159027746e-001,
          -1.0723767353096589e-001, -1.0651027864744254e+000,
          -1.1497244234528048e+000, -5.7961840710949764e-001,
          -1.4832549434279814e+000, -3.8453312636067973e-002,
          -9.2814434561257064e-001, -4.4700067901734564e-001,
          4.4759531718992489e-002, -1.0980735899386185e+000,
          -3.1464022891201426e-002, 3.0474516702141391e-001,
          -5.9773655281717208e-001, -4.7333273873947362e-001,
          2.2716533700135078e-001, 4.7829060420162117e-001,
          -2.4074330157613483e-002, -1.1801943833756894e+000,
          -1.0650944237574218e+000, -8.5264628406214571e-001,
          -1.3452476134849929e+000, 8.0140205580567991e-001,
          3.9667057220283003e-001, 2.6997879749280634e-001,
          4.6199750618622315e-001, 3.5291042839638886e-001,
          -9.1638115758755434e-001, -5.6732767746008117e-001,
          -1.1081925927039733e+000, 1.8342360920218523e-001,
          -1.2802862425700130e+000, -1.1951733619873799e+000,
          4.3146429229885724e-001, -6.6719047187523628e-001,
          5.6965341924385449e-001, -9.7874131060707192e-001,
          -9.4796897285603787e-001, -1.0097540455677942e+000,
          4.2886858024527713e-001, -8.9440631606856191e-001,
          -9.0331876162571337e-002, 6.5210015098460350e-001,
          -1.0269258520862527e-001, 9.1110851735737886e-001,
          7.9963010310455152e-001, -2.8126687617002910e-001,
          -4.6645854856492902e-001, 9.9312135226091081e-001,
          1.0285616165134197e+000, -7.0106740844072224e-001,
          7.0861752588207960e-001, -6.4951970696707462e-001,
          7.1365251461941237e-001, 1.1021732727978617e+000,
          -2.1035142343319696e-001, -6.9417963518877202e-001,
          3.0893073033541256e-003, 1.0814611385786830e+000,
          1.2665465488197050e+000, -7.5595882641375423e-001,
          -2.2979221930720226e-001, 7.1787399373660943e-001,
          4.8955351043245587e-001, -4.8348406656658804e-001,
          6.4799064116794769e-001, 3.6065626082065078e-001,
          1.0072329688014412e+000, 1.6241212998989771e-001,
          6.3278094894371439e-001, 5.3683427026157937e-001,
          -4.0474498351515939e-002, 1.0918998956137253e-001,
          3.2108300130352108e-001, 9.4451147420149151e-001,
          4.1032855919713791e-002, 3.1987560410482124e-001,
          -8.6702060445708518e-001, 1.4028816658824872e+000,
          8.2954958727924599e-001, 4.7973600041536674e-001,
          1.0355891422627812e+000, -3.8164655209224169e-001,
          5.2909222055258509e-001, 6.6124932732308420e-002,
          -7.6485443536603237e-001, 1.0002775688569665e+000,
          -2.5357819677628396e-001, -6.4209868542955983e-001,
          7.0493092280687486e-001, -7.6933854245573319e-001,
          4.1934685846802611e-001, -7.0782484370848175e-001,
          3.6317940740064147e-001, -3.9877756441983814e-001,
          6.9936571496803868e-001, -7.0187064388821174e-001,
          8.7527277873859644e-001, 1.4612298633594126e-001,
          -2.1808931587778299e-001, -7.6926757800803680e-001,
          -1.0754008134840309e+000, -9.3434263877312601e-002,
          5.3087450587833551e-001, -1.6788704718591638e-001,
          -6.8596713361173822e-001, -8.0202574950512673e-001,
          2.3716454955849250e-001, 9.1921717855105348e-002,
          -1.0028904888183765e-001, -8.4635155832476949e-001,
          -1.9878550009325885e-001, 2.5549328010426509e-001,
          -1.4079716314138413e-001, 7.3823872419699743e-001,
          2.2997650132237063e-001, -5.7585741212946884e-001,
          7.9780228945841647e-001, 4.6060626030006640e-004,
          -1.0901523203558916e-001, -1.8286516719472703e-002,
          6.1247371751219593e-001, -9.8243969185908364e-001,
          -9.4184276578955439e-001, -3.1150473701396997e-001,
          -3.8461188762529563e-001, 5.9421381689561903e-001,
          1.0714421301007586e+000, 7.8977370454623164e-002,
          2.8207085724552322e-001, -1.8592317174650405e-001,
          -1.5320233475004416e-001, 1.1466365637208416e+000,
          6.3730391115546658e-001, -2.3411959980874020e-002,
          5.2712461177492542e-001, 3.2796592536282498e-001,
          8.5572772494766314e-001, 8.4078430267816717e-001,
          2.0469190561203052e-001, 6.2744058530834271e-002,
          -5.8091199721734342e-002, -2.6718486289840460e-001,
          4.0660746423240357e-001, 8.3782336713514327e-001,
          2.3984365112086403e-002, -2.3177613004257719e-001,
          4.1507514414434388e-001, 6.8271249074029247e-002,
          8.5821044319213358e-001, 8.6548455344658959e-001,
          6.0303980075895169e-001, -1.3085701625353721e-001,
          3.8435159834423999e-001, 6.8724652184815471e-001,
          -3.0433580911173702e-001, -8.9886659709143002e-004,
          -7.7051654595322361e-001, 1.7692324966381209e-001,
          8.3849950265414241e-001, 1.1431736912257178e+000,
          -3.5612259755105785e-001, -7.0840342561529512e-001,
          7.1395603424751250e-002, -1.8558070049847547e-001,
          -7.9349013006777880e-001, 3.1607687249025501e-001,
          -6.3364142552930569e-001, -6.4482819479128400e-002,
          -6.7893002128390112e-001, -5.0340332857394798e-001,
          -7.6340561601979839e-001, 1.9981446396317454e-001,
          -1.1308449303706040e-001, 6.0039006055069999e-001,
          -5.6016245588164826e-001, -1.8365812448242536e-001,
          4.1644179837274437e-001, 2.3693203926816547e-001,
          -7.5664089385605510e-002, -5.7811651146860832e-001,
          -8.1760209216181945e-001, 1.9374571106834823e-001,
          4.3377407967435627e-001, -7.9829685476379986e-001,
          -1.0468369245241833e+000, -3.2297410179877972e-001,
          -4.5303682510908710e-001, -4.6071462520324713e-001,
          -3.5354312913894997e-001, -6.6989628290522696e-001,
          -1.2608955703144212e-001, -1.2623368253150262e+000,
          -3.1196025664784888e-001, -1.0587947070006734e+000,
          -3.1014332409168632e-001, -8.9943536158934786e-002,
          1.2983397258660104e-001, -7.1797143456842283e-001,
          4.1517097191616997e-001, -4.0544310334618311e-001,
          -1.0544328103468283e+000, -6.0121011539453395e-001,
          -3.2635915152706779e-001, -4.8305333599693595e-001,
          7.5485635535102380e-001, 6.5060224638710717e-001,
          3.3796979464752588e-002, -2.5651315460261170e-001,
          1.6889843532735274e-002, -8.3819594449878265e-001,
          6.7976530079299247e-001, 1.4105940975064618e-001,
          1.2198487513314975e-001, 7.5799156225207232e-001,
          8.4338847917140403e-001, 7.2304510828813351e-001,
          3.9401145565771462e-001, -1.7138569721217095e-001,
          -5.7935267068220844e-002, -5.3656042850530805e-001,
          -5.9770731560685353e-001, -8.0376646356310832e-001,
          -1.9941026654675167e-001, 2.2767932367401436e-001,
          9.0643350066765382e-002, 4.0991845788589287e-001,
          8.2428068444059499e-001, 1.8477701760487134e-001,
          9.5430910127473811e-001, 5.7689869815401140e-001,
          -2.1685176073152687e-001, -2.2469547988041150e-001,
          5.9467295207121695e-001, 4.9604523923509886e-001,
          -5.6317855239036918e-001, 5.5429322882193832e-001,
          -4.7991738406513100e-002, 7.9810287631993364e-003,
          9.2672984908306177e-001, -2.5173972445880122e-001,
          -3.4154797688444788e-001, 6.9502360901254456e-001,
          6.1329845641191472e-001, 1.6056362883114170e-001,
          7.1679182279183973e-001, -6.0062227785201205e-001,
          5.7035051323787955e-001, -5.4625735893701477e-001,
          9.9435060697210564e-001, -9.1044502052496853e-002,
          -1.1512532770150735e-001, 1.4667744510598335e-001,
          -7.4192650826282747e-001, 4.2839171708163232e-001,
          1.1517224049294417e-001, 6.7070664402494262e-001,
          7.1054448455927421e-001, -6.3738996092673506e-001,
          2.5464824275899067e-001, 9.6990530660241436e-001,
          8.0005495468304599e-001, 8.3738446577726833e-001,
          1.6983260942620354e-001, 5.1818262813780047e-001,
          1.2885121595335316e+000, 5.3947520525748072e-001,
          1.7654199629970191e-001, -7.4088456908276035e-001,
          -6.9297791417863552e-001, -3.8026328578405336e-002,
          3.1677030242442011e-001, 8.9687990112205884e-001,
          1.1482843029017493e-001, 1.2594378288368588e+000,
          9.5469436890011572e-001, -4.9739326515209997e-001,
          7.2985106395522070e-001, -9.0493902912504354e-001,
          1.1974940764224355e-001, -5.7375162073814634e-001,
          4.7463608841088889e-001, -2.2040399753209872e-001,
          1.0222614159196686e+000, -1.7064512382486385e-001,
          -5.7565129012672955e-001, 5.8858698382340324e-001,
          2.6765273692329233e-001, -5.0954940123107029e-001,
          5.3941483307081969e-002, 7.2364264309719695e-001,
          2.3037947837431649e-001, 9.0972453165593148e-001,
          9.4980654038845003e-001, -3.1587078427768378e-001,
          -1.1625552984780960e-001, 7.1219119921907403e-001,
          -5.8611026422544177e-002, -1.8046231684482211e-001,
          1.0211596299278212e+000, 1.0821463252555299e+000,
          -5.7760376162878291e-001, 2.2545427533577619e-002,
          -7.4728454069199701e-001, -3.3437597256177459e-001,
          1.4149943112424357e-001, 9.7623827246983419e-001,
          -4.3983052759584679e-001, 3.0479146760375796e-002,
          6.1453105762051530e-001, 1.5387667185316595e-001,
          8.9829799885392070e-001, 2.0971366445294151e-001,
          -7.5283377474529445e-001, 1.7840710703929039e-001,
          -4.9095308647151131e-001, 8.6880290155017703e-001,
          6.0313593610890259e-001, -5.9978948949604460e-001,
          1.3408983652082451e+000, 4.2099471695463775e-001,
          1.0074521713503243e-001, 8.6499715383121811e-001,
          -4.9415384506153354e-001, 8.0386892504830831e-001,
          -3.5575232190112188e-001, -1.0985075987310473e+000,
          -8.9004496223318519e-002, -2.6093878599982645e-001,
          4.4758203062424229e-002, 4.5482891000606485e-001,
          -6.1564172393049854e-001, 5.6680342548895546e-001,
          8.2785713339852351e-001, -2.6696238099675124e-001,
          1.1029718165062388e+000, -7.5858767205811350e-001,
          3.6072298954962401e-001, 2.4371328701672645e-001,
          -2.4989331681639776e-001, -9.6585398756967178e-001,
          1.7329904660357167e+000, 5.7213314835404472e-001,
          9.1323790083826539e-001, 7.2774836520098329e-001,
          1.5407840242215692e-001, 2.8691507921662163e-001,
          2.2242799071278646e-001, -7.7635501057505019e-001,
          -5.7380993292216143e-001, -2.2077480821116718e-001,
          -1.1805932541300876e-001, -1.3239751553106127e-001,
          -5.0733222077489926e-001, 5.0002014399260053e-001,
          -6.3100584848642283e-001, 3.1557713225630651e-001,
          -2.9271827090147168e-001, 7.4042810955660177e-001,
          2.6468947927956954e-001, 2.4455418875334336e-002,
          -5.6697762924223882e-001, 1.3250461744496624e+000,
          9.8457066251694714e-001, 3.4202217047243610e-001,
          1.0477113921032859e+000, 3.3090269701178238e-001,
          1.4301446211825803e+000, -1.0362752007751130e+000,
          -4.8407512730857299e-001, 6.1594697876406235e-001,
          6.1738306202261206e-001, 9.8282795434768688e-001,
          1.0206520737488050e+000, -3.9875126972022418e-001,
          8.2794664208808422e-001, -2.0704129407228297e-001,
          -5.5932586550451613e-001, 4.8963325369484406e-001,
          -9.8283488754905912e-001, 7.8970249596125752e-001,
          3.4668525134092043e-001, 5.6711145016990416e-001,
          -5.7234527863751816e-001, 8.4177432816373687e-001,
          -1.0857927839205801e-001, 3.0724876537792151e-001,
          -6.8504527582602881e-001, 7.4215541001015761e-001,
          -3.8321065607331628e-001, -4.2412158425568514e-001,
          -9.7961096258311320e-001, -1.8669571259939072e-001,
          7.8968622611889971e-001, 6.9815776267237062e-001,
          -8.2638899047458103e-001, 5.6224675978859318e-001,
          5.2733188009158249e-001, 2.9708852080610104e-001,
          5.3162335148563489e-001, -5.5834811680830643e-001,
          7.1073048991251597e-001, -6.3435186468095273e-001,
          -7.2900172788349626e-001, -1.1232620007757302e-001,
          -2.5624745081716721e-001, 5.8636237318820683e-001,
          8.6161263707807967e-001, 1.7829750358928007e-001,
          1.2723210534007798e+000, -3.1606617526979386e-001,
          6.8341563938978189e-001, 9.7507967811181137e-002,
          1.2285305739964534e+000, -2.5138195896077042e-001,
          -8.4050655216130377e-001, 4.7247505501269288e-001,
          -3.8496735749519356e-001, -5.1003999979300307e-001,
          8.4616945151164580e-001, 6.8978055216732082e-001,
          -4.8880995611061695e-001, 2.2259527690540812e-001,
          -9.3958616565715969e-002, 5.6703703308789129e-003,
          -9.0137594865919268e-001, -6.1443281544502559e-001,
          1.4170925128496534e-001, -2.4834553232655474e-001,
          -1.0367447651125097e+000, -3.7284961620796220e-001,
          8.5281408916358914e-001, -4.1727906889210703e-001,
          -6.9506530114625975e-001, -2.0338431482438132e-001,
          -2.3408400905233623e-001, -7.6043747478973311e-001,
          -1.9435907883440295e-002, 6.9641195912351750e-001,
          -1.4462310464755801e-001, 2.1527876920427702e-001,
          2.5650659609977494e-001, 2.5389818248082158e-001,
          9.7652180897846619e-001, -2.3532346006226207e-001,
          3.4324245268494182e-002, 6.3830948357269834e-001,
          -7.7009515054493050e-001, -4.1604405345072404e-001,
          3.0788174525852509e-002, -4.8990413348067263e-001,
          -1.1149168253470523e+000, -6.6570180905773080e-001,
          -4.4476817465110796e-001, 2.0819851257792349e-001,
          -8.8495420480511822e-001, -5.4405725298122869e-002,
          2.6645061666946832e-002, -6.7969684414887277e-001,
          4.8459777030861073e-001, 4.0286138894457357e-001,
          -7.5222894593188505e-001, 5.5676520683295722e-003,
          -1.4364105142689834e+000, -2.7043002878540695e-001,
          -2.1368756998966381e-002, 7.2642723486790517e-001,
          2.5411200410455542e-001, 3.6234818595563756e-001,
          7.3133005219951086e-001, 5.4361239727701549e-001,
          3.0077737109572500e-001, 2.2825478366356852e-001,
          -1.7549749225311567e-001, -1.2860847834567282e+000,
          -4.9354303280676742e-001, -7.8838464714460738e-002,
          -1.1349710289480526e+000, 6.5327215458942312e-001,
          9.1410360720691175e-001, -3.9776190793829702e-001,
          3.9564150550501093e-001, -6.8906005630100112e-003,
          -1.4402807365406742e+000, -1.3027243434018696e+000,
          -4.3156899800739984e-001, -9.6861181787849904e-001,
          6.8547827143401519e-001, -1.1851718015640917e+000,
          -1.1232832571923925e+000, 7.2715262483111809e-001,
          -3.7412375791449631e-001, -4.4212384000374000e-001,
          7.2929110253696872e-001, 9.5070486275330254e-002,
          -9.8764300766460189e-001, 1.0996680631389435e+000,
          -1.5281854569623132e+000, -3.8816851813285141e-001,
          -4.1496508056524889e-001, 5.8725513225214676e-001,
          -6.1023205782740053e-001, 6.5440514999405608e-001,
          -5.7212116817250513e-001, 4.8975771214208451e-002,
          -1.0997853615169972e+000, 6.5637745206885409e-002,
          2.7824883703099440e-001, -1.6344357482588545e-001,
          -2.1973605496772941e-001, -8.9306118159021375e-001,
          -4.4388942925551739e-001, -9.4570828552691522e-001,
          -1.0853508685006460e-001, 5.9786338633848579e-001,
          6.9465976825532363e-002, 5.5805758826715557e-001,
          -1.5317330326168871e-001, -5.1938881046343466e-001,
          -1.2874696495185693e+000, -6.0886554404673421e-001,
          6.5181789079114139e-001, -3.7642474816698956e-001,
          -3.7151092981874212e-001, -1.1631467988474689e-001,
          -4.0837589046303961e-002, -1.1295349850392693e+000,
          -7.3243875242888390e-001, -1.0515210092260889e+000,
          -3.2869908502960060e-001, -1.1113481143462931e+000,
          -1.1357557305955088e+000, -1.1138439235672908e+000,
          4.3449328702950557e-001, -5.5566794704315559e-001,
          -3.6769442676411940e-001, -3.7993163642804417e-001,
          4.2016928687128874e-001, 4.3702373795201244e-001,
          -1.2898022882483084e+000, -1.2149276849234350e-001,
          3.3010877201319722e-001, -1.0970450175018909e+000,
          -5.7849090751567855e-001, -6.0443381724466694e-001,
          2.2067563315622804e-001, -8.9062740089760051e-001,
          -8.1205141813163872e-001, 8.7713703480801741e-001,
          -1.6609528875232304e+000, -1.2202205700740023e+000,
          -7.4992316332555831e-001, -8.6622635423414585e-001,
          -2.2708167036877158e-001, -4.9864638776070164e-001,
          5.2660191012898983e-001, -4.5009752153270133e-001,
          -3.5614653043278743e-001, 3.8995873977916978e-001,
          8.7836003824721320e-001, -2.4498650167674027e-001,
          -1.0562464437350577e-001, 1.9974298591498305e-001,
          -5.8599396517587599e-001, -1.2245005845900392e+000,
          6.9739567299155047e-001, -7.7850760093173033e-001,
          6.7056238976538896e-001, 1.5321235129590974e-001,
          -1.8396703868254907e-001, 7.6561371033979575e-001,
          -9.4120554178739047e-001, -7.1797874093500680e-001,
          -5.7599779531148587e-001, -8.1697126056706992e-001,
          -1.4642646583650913e-002, -8.1495432770870146e-001,
          -3.5939517344158844e-002, -1.3482071906854618e+000,
          5.5568211066758721e-001, -1.1276459121100324e+000,
          -1.0411976361926365e+000, 3.9566824680212126e-001,
          -7.9275041372173150e-001, -1.8694295302709119e-001,
          -4.6486684941288275e-001, 1.5292457620277064e-001,
          -9.8371644498653754e-001, -1.0240717249273454e+000,
          4.1030992662951299e-001, -8.8737217158857118e-001,
          4.0721724039488483e-001, 4.9886097593429946e-001,
          7.1082218666295061e-001, -2.2893416146510417e-001,
          9.3844477678146043e-001, -2.8653588202907687e-001,
          -2.0483257410318981e-001, -3.9379872070967881e-001,
          -6.9258216097523440e-001, 1.2720022551379371e+000,
          8.4014672385124722e-002, 5.6746364072763393e-002,
          4.3163935516835436e-002, 1.2701367818675113e+000,
          -1.0667822627087602e+000, -6.4422946723474483e-001,
          1.0565200238441352e+000, 1.4388541669643342e+000,
          -2.0251903548663944e-001, 6.1825841693551253e-001,
          -7.1953087599099841e-001, -4.8836635986332977e-001,
          5.3297190241980286e-001, 1.0984847662450545e+000,
          -1.2193616237037925e+000, 6.8933380605295602e-001,
          -3.0005965808069485e-001, 7.7654370818918739e-001,
          9.6170467470088361e-001, 7.2215962954763357e-001,
          8.4800768291808148e-001, 1.7316587372713144e-001,
          -1.0980069174396551e-001, 8.9146115046895813e-001,
          4.3271541684866627e-001, 4.0074846567439543e-001,
          4.1337742193054094e-001, -9.9167704828778813e-001,
          7.9845483394415107e-001, -3.4977564157057256e-001,
          -4.2646340961380252e-001, 5.4711159162878042e-001,
          -1.9525074455779626e-001, -4.7025232958217450e-001,
          -7.7719268670099192e-002, 3.0356724144084452e-001,
          7.8548071686871657e-001, 1.0505603800129131e+000,
          7.2551834074411303e-001, 8.5180821196653289e-001,
          8.1394695420336605e-001, 1.7958765528161480e-001,
          -5.4695577662650918e-001, 9.9103637889950469e-001,
          6.4175260582620930e-001, 1.2080909241329871e+000,
          -5.3183646931320140e-002, 1.5317886460118135e-001,
          4.5871813533952410e-001, 8.5576743386614487e-002,
          -7.0861292546635268e-001, -1.9152148565134949e-001,
          1.9094220557350453e-001, -7.4399236946276848e-001,
          4.5328705156636853e-002, 6.2191583181685028e-001,
          3.6419374921262071e-001, 1.0921512469022527e+000,
          -1.3388032715109799e-001, 1.1213409733129445e+000,
          3.0947923243247538e-001, 1.2846092621483984e-001,
          8.2448823408703686e-001, -5.3849413395414458e-001,
          1.3245935058356967e-001, -4.7784097215122578e-001,
          4.4125367190295584e-001, -5.8293571072617345e-001,
          -2.4673364937209080e-001, -1.7527444470581083e-001,
          -9.2003484791580847e-001, -1.0015555528404423e+000,
          4.9513184398567545e-001, -3.4796632390103072e-001,
          -1.2192799997815236e+000, -4.7794753007645224e-001,
          -8.1925989449302439e-001, 1.3176797298082648e+000,
          -6.2408604678955071e-001, 6.3987464829398999e-001,
          6.7242758166098204e-002, -8.6268537424087166e-001,
          2.6603303738442219e-001, -2.8283799089505851e-001,
          8.6288075036574152e-001, -6.2772198457063866e-001,
          9.6399399199294511e-001, -4.5938887291558722e-001,
          1.0973173086041998e+000, -8.6649008352420076e-001,
          -8.7455444548761330e-001, 6.1315514492797429e-001,
          7.8125832230663117e-001, -2.2624695437767342e-001,
          -1.9338462369286635e-001, 2.5756331116429487e-001,
          3.1509611877323684e-001, -3.1339759396243583e-001,
          -7.8068403019781829e-001, 4.7695807563034137e-001,
          -2.0021120267886069e-001, 1.2703363230711273e+000,
          6.4138798287116927e-001, -1.0153168183983221e+000,
          -1.4826198089620097e-002, -2.7063186284317148e-001,
          -4.1417479417978537e-001, 4.7647416693223993e-001,
          4.8718754033883072e-001, 5.2692974779846402e-001,
          -1.9179870184895982e-002, -6.5741063801528787e-001,
          1.6918384382123947e-001, -3.4899119706252002e-001,
          -7.1197044831660714e-002, -2.8301669299731481e-002,
          -1.7301071236696819e-001, 2.2481526231841728e-002,
          -6.0475274082082875e-001, -4.4976542268784087e-001,
          1.8747333165492008e-001, -1.9989397986536986e-001,
          -7.0470735934084749e-001, -5.1853315120652133e-001,
          -7.8545704825405971e-001, -4.6098596297077882e-001,
          -1.4172117607215531e-001, -4.5898209038926030e-001,
          -7.2782700059143890e-001, -1.2579975133927150e+000,
          -1.4780310960039602e+000, 6.4811086316086353e-001,
          -4.4533282131656965e-001, 3.4991330511148548e-002,
          9.6521870908072641e-002, -8.0447069349974809e-001,
          -4.3872462886487545e-001, -1.3819526878196082e+000,
          -7.5355281827992149e-001, 4.6170665583080378e-001,
          -1.6183338335951755e-001, -4.4499426510804102e-001,
          -3.0387992231482586e-001, 7.3386834474925000e-001,
          5.6799506746840966e-001, -1.3648201075670244e-001,
          -8.7951985881018901e-001, -1.7201481227766509e+000,
          -5.7682057792672525e-001, 5.0986586408296442e-001,
          -6.7457701826334437e-001, -4.9610702020360614e-001,
          3.4673673271572986e-001, -8.3076823748094819e-001,
          7.5848311353035069e-001, 9.2013218217066772e-001,
          -3.0886894937405812e-001, 8.7731206901457692e-001,
          9.1310415030008163e-001, -1.5330049495731668e-001,
          7.4164351532746120e-001, -4.9158110015207096e-001,
          -3.6243915779594943e-001, -5.0968798607975881e-003,
          1.3816459947537468e-001, 9.6868961147690857e-001,
          6.1564776325816850e-001, 9.6462732383537553e-001,
          1.1176759831851113e+000, 7.2986905860629248e-001,
          7.0110300061941677e-001, -2.2592550077400889e-001,
          4.8188875334932718e-001, 3.3341654531711234e-001,
          1.1503443602775676e+000, -8.1299271067458601e-002,
          -2.7825960244137832e-001, 5.2230850719627342e-001,
          -2.8810017509442054e-001, 5.8432323871692959e-001,
          -1.3703065560946584e-001, -6.0817038552441605e-001,
          -4.5629619201428891e-002, 1.7455310727303686e-001,
          7.6367725116598129e-001, -3.2643761146735373e-001,
          1.1643948033234106e+000, -5.6134663556755293e-001,
          -3.7592335727017934e-001, 8.9980947472798534e-001,
          5.6793413790407754e-001, 6.3752242420532468e-001,
          4.8330993304898229e-001, 7.8601899416204468e-001,
          -9.6321795656703396e-004, 3.2569899326613344e-001,
          1.2012117687798005e-002, 8.0816237464738394e-001,
          -1.7828741651549077e-001, -9.9449755793950689e-001,
          5.0810918640974423e-001, 4.9911329841091612e-001,
          -1.9743270721939890e-001, -1.3270246449217968e-001,
          -6.7670426388619975e-002, -4.2102329248775500e-001,
          7.8256033509701062e-001, 4.4684162476594835e-001,
          -8.9921680816396798e-001, -1.6056495909836041e-001,
          6.8106427155108051e-001, 5.7909562938637205e-001,
          -3.8869995928993006e-001, 1.2467723113208486e-001,
          -4.0024858854747131e-001, -3.4900120130288165e-001,
          -1.4205294051711570e+000, 7.1494078070341271e-001,
          9.9670676904496824e-002, -2.3621937118868747e-001,
          7.2014670099482300e-002, -1.1745730571221971e+000,
          3.0017591711119179e-001, 4.5919034634246686e-001,
          -6.4245556354618416e-001, 3.3592044191443138e-001,
          3.2105537746404922e-001, 8.0492290992530646e-001,
          -7.0405399953670367e-001, 3.5261940877306341e-001,
          -1.0097046458184973e+000, -4.6765183081739997e-001,
          -4.7112898625095695e-001, -7.9112484440565137e-002,
          4.6332402481163498e-001, -3.1687885058157439e-001,
          -4.7281959527159856e-002, -5.0420063838443885e-001,
          7.2281290185954628e-001, -5.3821739903277976e-001,
          -7.3753209088599420e-002, -4.1339233410496126e-002,
          -7.5830554433995145e-001, -7.6287724234799703e-001,
          -6.9898476628929423e-002, -1.2230657995709580e+000,
          1.3435119784499138e-002, 2.5570413903516837e-001,
          -2.0678573071922918e-001, 5.2726347615444658e-001,
          -6.6230320207754079e-001, 6.1620047910640863e-001,
          -7.3651464764749708e-001, 8.6600092361528624e-001,
          3.3215806033401757e-001, -1.1611170736148781e+000,
          -3.7734318968530500e-001, 3.2014547037240487e-001,
          -5.2830349189491554e-001, -8.9325921497845062e-001,
          4.0591567071573867e-002, 1.6440728097714183e-001,
          1.1182697404403521e+000, -5.0271173489732335e-001,
          -5.7062022072461427e-001, -2.0912674256862038e-001,
          -4.1666028134772337e-001, -4.3194680020798948e-001,
          8.6421762705574334e-001, -1.0257312972071986e+000,
          -1.4902679239137915e+000, 1.9185027742593916e-001,
          6.0517678099042160e-001, -6.8829117252337291e-001,
          -8.7932703529758494e-001, -2.4798630550135728e-001,
          2.9670308615632074e-001, -7.4416502096736115e-001,
          -7.8966407397509464e-001, -4.3831789609030125e-001,
          -1.0366682710060369e+000, 7.8272420513417507e-001,
          -5.8680292145782664e-001, -3.3564135530200795e-001,
          -2.2714857840986044e-001, -9.4509922702450000e-001,
          2.7990843172748725e-001, -1.3258940023558352e+000,
          2.2876801923333687e-001, -6.3583652192819595e-001,
          -8.1478185298269423e-001, -6.7603905035221734e-001,
          -3.7552995987465310e-001, 6.4375500242722328e-001,
          -3.0986759246344120e-001, 3.7382255459788544e-001,
          6.0944045572601679e-001, -3.0299303406737377e-001,
          -4.9061637331169122e-001, 3.9424491902218267e-001,
          -2.3895905269222820e-001, -3.3298982377651282e-001,
          -5.5817095206979295e-001, 2.4389484276918047e-001,
          -4.4918248914139325e-001, -1.1380137840421946e-002,
          -1.0857222053540899e-001, -1.2652437513396855e-002,
          8.1263416959337909e-001, -6.5540611347570432e-001,
          -9.0517685375026402e-001, -6.7226420732953512e-002,
          5.6324149608286878e-001, 1.6929249812491654e-002,
          -7.5541990504536027e-001, 5.3405868462204709e-001,
          -8.3762176075265238e-001, 5.0331904287935025e-001,
          -5.7401045163717479e-001, 1.3285196738038224e-001,
          -1.1226003779830489e-001, -9.7968374916689316e-001,
          1.3518859698625003e+000, 1.9860618411517800e-001,
          1.0969075227164393e+000, 1.4326159308309654e+000,
          -2.7610615920405041e-001, -8.0670036859933358e-001,
          -5.1850601402607284e-002, 1.1354650188002127e+000,
          4.3086220744485898e-001, 4.2503515463487601e-001,
          -7.0269738775181290e-001, -2.3080073814044003e-001,
          -7.9113281976737193e-001, -2.7412358120873254e-001,
          -3.2768031796720792e-001, -6.5953930192481081e-002,
          -3.4207831899388008e-001, -1.0789402637496133e-001,
          1.1682518576002410e+000, -1.8596804027627922e-001,
          1.4006315959116363e-002, 6.1255303547031861e-002,
          1.8760607068876275e-001, 2.4969538652244949e-001,
          -3.7828613945399625e-001, -7.4131648002513068e-002,
          1.5327111819446455e+000, -5.2386246334252917e-001,
          3.3200824538923213e-001, 8.8128131626404105e-001,
          5.3860383669551093e-001, 6.4788586761801847e-001,
          4.9025486398345403e-001, 4.1734983058271774e-001,
          5.8829231313981034e-001, -7.4580930869958695e-001,
          1.8252591110183217e-001, 8.2881448020584114e-001,
          2.9888631994921766e-001, 7.3054512440781913e-002,
          7.6432974888197336e-001, -5.8056646303493398e-001,
          3.1810955161420601e-001, 1.1215910197748440e+000,
          -4.9170175929350815e-002, 6.9285468098223646e-001,
          -1.7525642994872126e-001, 8.5830181667736993e-001,
          1.2097828024995687e+000, -6.3341577227595003e-001,
          2.7236873738383560e-001, -1.6905973724531115e-001,
          1.1631243016470110e+000, 6.6745553378545031e-001,
          1.6000327916002968e-001, -5.2601288055740797e-002,
          8.2456998393365163e-002, 6.2655744722065698e-001,
          1.2341478170608122e+000, 7.6698030755757574e-001,
          1.0377659539130779e+000, 1.0666002537923143e+000,
          7.2579209235273268e-001, -8.8457453527756613e-001,
          3.8025052277167304e-001, -3.2661859630286677e-001,
          7.6023176181746521e-001, 7.4984979563973486e-001,
          -7.6785985066701290e-001, 6.3373490046672976e-001,
          -1.5027375468474852e-001, -2.2279795914397121e-001,
          7.7087074756311480e-001, 2.3379122323913407e-001,
          -4.6386940313893782e-001, -3.4379308398704689e-001,
          1.0733429306092690e+000, -1.4887844720257848e-001,
          1.2730614511078167e+000, 1.4798975312549949e+000,
          -4.1350908163477279e-002, -1.9567696517736902e-001,
          -8.0033738339830185e-001, 6.2919958891659200e-001,
          -2.4019930335018053e-002, 3.0655425775028250e-001,
          7.0562670629917790e-001, 8.4736936341056196e-002,
          9.7586176872699848e-001, -7.9020573702709229e-001,
          -2.2121798093310155e-001, 2.1049340618349932e-001,
          3.0532753237557286e-001, -4.8569369738908574e-001,
          -8.7766563895821981e-001, 7.6578110460736826e-001,
          7.3657541884823707e-001, -1.0361450846732758e+000,
          -9.5873033240903655e-002, -1.7397279876438143e-001,
          -1.8909492096704542e-001, 8.0765433240367412e-001,
          -4.8722043001386922e-001, 9.0939909562850718e-001,
          4.8521679537909895e-001, -4.5490278220610614e-001,
          1.0359105773478379e+000, 4.6072508515302235e-001,
          -7.1208703694038034e-001, -8.7799443202088345e-001,
          2.9574707638957992e-001, 1.0009190085553312e+000,
          -7.6698609768518033e-001, -6.1876460238804332e-001,
          -7.4455029070290313e-001, 4.2304311501115535e-002,
          5.3995867867084835e-001, 7.1838850383790342e-001,
          -1.0189781412134585e-001, -3.3002854757400925e-002,
          6.5068703501626204e-002, -2.8814865402821094e-001,
          -5.0304098436005718e-001, 8.7855598327611006e-001,
          -4.4892165945416007e-002, 2.6985625499100280e-001,
          -4.2912220634396181e-001, 8.9410850115356832e-001,
          9.4073152149240080e-001, -5.1920625971347900e-001,
          1.1645424796785777e+000, -2.1502041345776715e-001,
          3.2083839407788212e-001, -3.4905187213879407e-001,
          -5.3559556148298249e-001, 6.5501632454095371e-001,
          -7.4263809169776662e-001, 1.9199116456233067e-001,
          -7.4122047435800442e-001, -2.7906154153755208e-001,
          -3.9160261979879429e-001, 2.8327918141916925e-001,
          -7.6129322713511693e-001, -1.9662107933723680e-001,
          1.4447916758877638e-001, 2.2278836835077778e-001,
          -7.8774276964093648e-001, 6.5901612154601052e-001,
          1.0067173951984096e+000, -8.2826953103822903e-002,
          -3.9413892037787140e-001, -2.9195805079734111e-001,
          -2.5954736024325098e-001, 9.2288147111257868e-001,
          1.2636421182222739e+000, 1.0342241154021208e+000,
          -1.1135816623702410e+000, -8.9413413647821471e-001,
          4.0723399252675752e-001, -4.3845238172632411e-001,
          -4.9718563796644077e-001, 1.2998580173761720e+000,
          -3.0828012744133360e-001, 5.7230004083940900e-001,
          -6.5616638744176725e-001, -7.2090345720131488e-001,
          2.3772341025999699e-001, 1.0016419694589274e+000,
          -4.6836669763168154e-001, -7.7547870147413733e-001,
          -5.1846030191634451e-001, 3.7303713991156873e-001,
          -1.6596757491701837e+000, 3.0344008714186488e-001,
          -4.1408789590076922e-001, -2.3513579097381859e-001,
          2.6692771087452943e-001, -3.6076144144366051e-001,
          8.8991285418496147e-001, 9.2187234229468018e-001,
          1.0725056515470239e+000, 1.7599012114446480e-001,
          1.6505516506243084e-001, 2.4546278677589775e-001,
          3.9603259384494371e-001, 1.0854820328455108e+000,
          7.0327221788905037e-001, 1.7582026259303021e-002,
          -5.3444630360454159e-001, -8.3563599733068639e-001,
          3.3607934864388367e-001, 1.3449183605728243e+000,
          1.1172993570544509e+000, 1.3339072145974935e+000,
          -4.5857901660333394e-001, 8.8254524315814697e-001,
          -1.3060360942461027e+000, 2.2274894269265016e-001,
          -6.6237830440084322e-001, 5.6659033852871710e-001,
          6.9971148347562984e-001, -2.6197619316784526e-001,
          4.3028759047858173e-001, 8.7585956412660582e-001,
          -3.0680907004418395e-001, -3.7841088135637690e-001,
          1.1304653103994649e+000, 6.6991245501506413e-001,
          1.3848964140193600e+000, 6.2681607558856114e-002,
          6.1654301164718106e-001, 6.7938840513682278e-002,
          2.8377140355063157e-001, 1.1473164900502495e+000,
          6.4005168871315066e-001, -1.2197205335049461e+000,
          -1.1780926600015481e-002, -3.2202119006860930e-001,
          -1.1430252896831630e+000, -6.0964138006836777e-001,
          6.5849335828695321e-001, -1.5962977579354409e-001,
          -4.1333014760365347e-003, -5.5244422941119897e-001,
          3.2224530903422827e-001, 5.8147536571754288e-001,
          -1.0925068768150454e+000, 9.1711198164896868e-001,
          -7.7753498602109594e-001, -5.8245881518663178e-001,
          -3.1368085704231491e-001, -1.0679909431774801e+000,
          -1.4849713517682517e+000, -1.1660726048612011e+000,
          1.7504639231859622e+000, 9.6079414309899625e-001,
          -1.1173731736198651e+000, 1.2549127800955577e+000,
          6.0994054046657098e-001, -9.0204113209259895e-001,
          1.6077899646333895e+000, 1.3649688437543452e+000,
          -4.3894899320521175e-001, -3.5285051221693153e-001,
          5.4758557241091432e-001, -1.7629614289112379e+000,
          1.0842181992441320e+000, -5.2969508114784092e-001,
          9.1274534875379554e-001, -6.9335207183230418e-001,
          3.2821132216358995e-001, 1.2609861806795086e+000,
          3.9513965415706437e-001, -7.0663436839467764e-001,
          2.6211781843114590e-001, -9.5973303378844776e-001,
          9.8198052776977407e-002, -2.7911212123210227e-001,
          1.7504159350133419e-001, -9.9941187435053824e-001,
          3.5722114215616108e-001, 7.3737049638238161e-001,
          -4.7554802533439317e-001, -5.8072688281732909e-001,
          -2.0114264337599483e-001, 8.4418703578700238e-002,
          4.8714588408741588e-001, 2.9490505146665175e-001,
          7.9257514805129115e-001, -5.8508377365130045e-002,
          1.4660425270322458e-001, 6.8168124392727936e-001,
          4.8591935491183336e-001, -6.6876771587860007e-001,
          9.7009771264680522e-001, -4.8018966491766518e-001,
          -7.0230654628015587e-001, 8.1933963961451084e-001,
          -1.2091250394669784e-001, 9.1810237036202091e-001,
          1.3461024963183785e-001, 9.3388506064067778e-001,
          3.4211761428052334e-001, -9.7265653303115318e-001,
          1.6259436054626047e-001, -2.7984404207201324e-001,
          8.8241778285951666e-001, 3.4330882508556865e-001,
          7.6766220207865082e-002, 2.9904606271237399e-001,
          4.9125079948400308e-001, -5.3090740618508359e-001,
          -4.8937992129883173e-002, -2.0710199282199991e-002,
          -5.2012348155949994e-001, 7.2909916564840349e-001,
          -1.1499609287889208e+000, -8.0409033976618816e-001,
          -1.8295619352978645e-001, -2.0060213178369352e-001,
          -3.2406130380668204e-002, -3.5697553866715298e-001,
          1.9147789739426369e-001, 8.2641693640040259e-001,
          -3.3092041328935307e-001, 3.1168275536199835e-001,
          1.5135523241590104e-001, -1.0770236868481582e+000,
          6.5595118872456193e-001, 5.1950172890146462e-001,
          -8.3831054580388031e-001, -7.8845700460277535e-001,
          4.3954578871896233e-001, -8.5161124635513419e-001,
          6.0703654207569691e-001, 6.7485687240756498e-001,
          1.1109165809049153e+000, -6.8243448725582201e-001,
          -6.4437530189108527e-002, -4.1897776791062707e-001,
          -3.0706832031161768e-001, -5.9401091179456089e-001,
          8.9759766497471960e-001, 6.9701193950582652e-001,
          -1.1186651825748861e+000, -5.0579994646926940e-001,
          -7.7617491592388221e-001, -1.9485214233218237e-001,
          -3.6041633705259518e-001, 3.6652884359932281e-001,
          3.6014244334084411e-001, -9.5218217292747409e-001,
          5.3991350356105394e-001, -5.0808864963642308e-001,
          7.2358371298386504e-001, -1.9797349111820606e-001,
          4.4791969212539373e-001, -1.1536838735164900e-001,
          -8.5607753329811062e-002, -6.4972443797146229e-001,
          -1.1888344881974453e+000, -3.6009402451569576e-002,
          -7.7667016945889855e-001, 1.0570655114716371e-001,
          7.2874625930866410e-001, -6.4499103171219374e-001,
          1.2672092565054535e-001, 8.1141844316651912e-001,
          -4.3746928097264942e-001, -1.1442716232760992e-001,
          -4.2829891502796980e-001, 1.3939888661199865e-001,
          8.4368905428337204e-001, -6.9108095958841276e-001,
          -2.7213496141127413e-001, -7.8357262778979409e-001,
          6.1525319798747535e-001, -2.1026842254009939e-001,
          -2.7021882018791354e-001, -3.6478503614434254e-001,
          -3.5500314760651303e-001, -3.2543079890589044e-001,
          7.5882703536156604e-001, 5.6265636455481460e-001,
          1.5273394857594175e-001, -1.2488137453393595e+000,
          7.2812689364348315e-002, 1.1561405301010172e-001,
          -1.0045590076304225e+000, -9.4305644874898586e-001,
          3.5784550220267641e-001, 7.3835174864640241e-001,
          -9.3529441691379100e-001, 4.9115718855579402e-002,
          9.6867387281983819e-001, -6.8286939650302247e-001,
          9.8996405550210953e-001, -2.4392383750440980e-001,
          -8.1177925446333909e-001, 3.2400336825834375e-001,
          -9.2785813844994536e-001, 9.8861711111093553e-001,
          5.3463716704651565e-001, 6.0883175561022940e-001,
          -3.1772213534304056e-001, 5.1289687554214847e-001,
          4.9633399135608447e-001, -4.5902576763398723e-001,
          2.6532926623306474e-001, -4.5861788097889811e-001,
          -7.3442447822087731e-001, -3.5075301880936421e-001,
          7.0858644754350530e-001, 5.3389162555537695e-001,
          7.7603778846837201e-001, 4.8269753683497635e-001,
          1.9029124218446083e-001, -1.0766990597751228e-001,
          -3.0906062502860254e-001, -1.7613650371540332e-001,
          -9.3794716822164892e-001, 1.0959447553999002e+000,
          1.6432900515862692e-001, -1.3584687203770307e-001,
          -5.7111787029834704e-001, 1.9724621192349920e-001,
          4.5322416737347698e-001, 4.7797356374761285e-001,
          -6.3642469328306472e-001, -5.9580416114043111e-001,
          -2.6789475088600456e-001, -1.8705967905231727e-001,
          -2.0596572441205074e-001, 8.6227756660071736e-002,
          4.1999003534380153e-001, -1.0724694030664774e+000,
          -9.9161433442591929e-001, 3.5747577880151371e-001,
          8.6925787843344829e-002, 9.2739409521433824e-001,
          -1.3159579018360616e+000, 8.1070330522111866e-001,
          -1.2380247421544339e+000, 5.4918214967940338e-001,
          -9.9768629986153390e-001, -3.3191079801474987e-001,
          -2.7773098689954062e-001, -1.3731081137083578e-001,
          -8.8270147135422616e-001, 5.0131569604366398e-002,
          -1.0328442041353758e+000, 5.2245938949879844e-001,
          -4.9751751405958089e-001, -4.9815246022724968e-001,
          -3.5494395451157101e-001, 6.3224407881117772e-001,
          5.2269416089548959e-001, -8.2648306839364472e-001,
          7.2212624218270627e-001, 1.4624896066213500e-001,
          -5.3316739804800051e-001, -4.8867176821058694e-001,
          6.7580827744602356e-001, -1.4468381012904652e-001,
          -8.2736289999724044e-001, 3.7791226307385201e-001,
          -1.2471483077069185e+000, 1.4909088107922788e-001,
          -5.6018141648587028e-001, -1.0118403211648297e+000,
          -3.9979915372492308e-001, 1.1535832167633903e-001,
          -1.2380289621819415e-001, -3.3355459059614612e-001,
          -3.9331270772574300e-001, 6.1915362264342177e-001,
          4.8061029297840030e-001, -6.9082230891816288e-001,
          -4.5270476897082085e-001, 4.1948764863583693e-001,
          4.6757130891787591e-001, -7.1057173126928164e-001,
          3.1779812455905182e-001, -9.8554210447521107e-002,
          -7.1184057878443874e-001, 9.2226449193791227e-001,
          4.9695370556689261e-001, 1.1907775848547326e+000,
          4.0956570042294244e-001, 8.4844048316685750e-001,
          1.1274156437505962e-001, 2.4732359862351813e-001,
          -9.6871751090249303e-001, -1.1239233153904284e-001,
          9.3881030775437302e-001, 4.6255089916958225e-001,
          -9.4762314839033390e-001, 7.3783506398271048e-001,
          -8.6532349942356912e-001, 5.2392230862770783e-001,
          5.9020828442218110e-001, 5.3182747733597413e-001,
          6.5050152737267852e-001, 7.9201932375097761e-001,
          -1.1605660594972289e+000, -5.6990363395967414e-001,
          -3.6697546910012829e-001, -8.4834401306427254e-001,
          -3.6197321698455709e-001, 2.9955387689437796e-001,
          3.6024273773724219e-001, 2.5629215678513256e-001,
          8.9137037717050546e-002, -3.5159733949407057e-001,
          -3.7458721601895845e-001, -4.5962512805805478e-001,
          -6.9272278370826046e-001, -1.1454080370637647e+000,
          -1.3010937590174683e+000, -1.8961076619838213e-001,
          -4.3581454125112096e-001, 4.9240087687580453e-001,
          2.7238391752027380e-001, 4.2320197561814710e-001,
          4.9296846797880156e-001, -1.1302956621334768e+000,
          -1.1232876250351322e+000, -4.7619919491255247e-001,
          -5.8609439471154312e-001, -1.1404725862379090e+000,
          1.1221500099814850e-001, -1.0014976097564120e-001,
          6.0200923874404177e-001, 1.4459616058194413e-001,
          1.8019775557240167e-001, -6.0157899262139491e-001,
          -4.1020258174252638e-001, 6.3452926367203555e-001,
          1.8719582015484333e-003, -2.9198912686056017e-001,
          9.1505653484703103e-002, 1.3182378060742528e-001,
          4.5982719824245760e-002, -5.1714366304686410e-001,
          7.8254892746870564e-001, -5.1710083532158990e-001,
          -1.2683570529756427e-001, 4.8683342927540574e-001,
          4.2568268224980887e-001, -1.0967225645901579e-001,
          -7.4069193292843771e-001, 9.0255917179403644e-001,
          2.5023372059662979e-001, -8.7790061110414458e-002,
          9.5077403782570802e-001, 5.6698993626790828e-001,
          -6.1929895589215500e-001, -1.0939591332180461e+000,
          6.2379576165349526e-001, 5.2332743244947943e-001,
          -8.9330290915893662e-001, 7.1548098150696471e-001,
          -1.7070895398649297e-001, -5.1107017601989735e-001,
          8.3532840513545892e-001, 3.2485051874271598e-001,
          -3.6434492705394450e-001, -1.4150790728206892e+000,
          -9.5750464424343040e-001, -1.7324401756112048e-001,
          -9.4752008770147189e-001, -1.5927897708825429e+000,
          -5.5052352774432667e-001, -3.9992906313042526e-001,
          -3.7154322701393394e-001, -1.0604762961049869e+000,
          -4.0001879054454820e-001, -9.5796961662598079e-001,
          -6.0690612350887396e-001, -8.1617639517197615e-001,
          -7.6839986907344915e-001, -5.3655476942172642e-001,
          -1.3108548135231450e+000, -1.1204379042048007e+000,
          -1.3608485973369375e+000, -1.1926770281726971e-001,
          -1.0000020589798664e+000, -1.5311015429229821e-001,
          -1.6069713803003762e+000, 3.8693950390827286e-001,
          -8.6724450166869971e-001, -1.2868348869919244e-001,
          -8.3551691341169743e-001, -3.7193445103641826e-001,
          -7.8667740722450386e-001, 2.6626831614873180e-002,
          -7.0230568631525847e-001, -2.5659146459564669e-001,
          -1.1144246781498539e+000, -1.7545758547958742e-001,
          -2.9977404874289543e-001, -8.3358096851050736e-002,
          -7.1192566253791834e-001, -1.0188072548992047e+000,
          -7.2333059451185300e-001, 2.1209081428017881e-001,
          -1.4463149009637024e+000, -1.3007516330783531e+000 ]
