%YAML:1.0
my_nn: !!opencv-ml-ann-mlp
   layer_sizes: !!opencv-matrix
      rows: 1
      cols: 3
      dt: i
      data: [ 11, 22, 42 ]
   activation_function: SIGMOID_SYM
   f_param1: 1.
   f_param2: 1.
   min_val: -9.4999999999999996e-001
   max_val: 9.4999999999999996e-001
   min_val1: -9.7999999999999998e-001
   max_val1: 9.7999999999999998e-001
   training_params:
      train_method: BACKPROP
      dw_scale: 1.0000000149011612e-001
      moment_scale: 1.0000000149011612e-001
      term_criteria: { epsilon:9.9999997473787516e-006, iterations:1000 }
   input_scale: [ 1.2439047797045914e+001, -6.0818978146944715e+000,
       1.8798665273646382e+001, -9.2427486093417084e+000,
       3.0642857667656233e+002, -5.3684872381977673e+000,
       2.5676901263794224e+002, -5.0026698287341471e+000,
       6.4823516001122163e+000, -2.1624650039948166e+000,
       5.4950320178834851e+000, -2.8278661738899356e+000,
       1.1183468766218448e+001, -2.2427966956065792e+000,
       9.3178245570738092e+000, -3.1605543570280461e+000,
       6.7706717423011897e-001, -1.8699950526355666e+000,
       3.9867221887440346e-001, -1.0707196735483977e+000,
       6.3778250910919454e-001, -3.4015067152490375e-001 ]
   output_scale: [ 1.0526315789473684e+000, 0., 1.0526315789473684e+000,
       0., 1.0526315789473684e+000, 0., 1.0526315789473684e+000, 0.,
       1.0526315789473684e+000, 0., 1.0526315789473684e+000, 0.,
       1.0526315789473684e+000, 0., 1.0526315789473684e+000, 0.,
       1.0526315789473684e+000, 0., 1.0526315789473684e+000, 0.,
       1.0526315789473684e+000, 0., 1.0526315789473684e+000, 0.,
       1.0526315789473684e+000, 0., 1.0526315789473684e+000, 0.,
       1.0526315789473684e+000, 0., 1.0526315789473684e+000, 0.,
       1.0526315789473684e+000, 0., 1.0526315789473684e+000, 0.,
       1.0526315789473684e+000, 0., 1.0526315789473684e+000, 0.,
       1.0526315789473684e+000, 0., 1.0526315789473684e+000, 0.,
       1.0526315789473684e+000, 0., 1.0526315789473684e+000, 0.,
       1.0526315789473684e+000, 0., 1.0526315789473684e+000, 0.,
       1.0526315789473684e+000, 0., 1.0526315789473684e+000, 0.,
       1.0526315789473684e+000, 0., 1.0526315789473684e+000, 0.,
       1.0526315789473684e+000, 0., 1.0526315789473684e+000, 0.,
       1.0526315789473684e+000, 0., 1.0526315789473684e+000, 0.,
       1.0526315789473684e+000, 0., 1.0526315789473684e+000, 0.,
       1.0526315789473684e+000, 0., 1.0526315789473684e+000, 0.,
       1.0526315789473684e+000, 0., 1.0526315789473684e+000, 0.,
       1.0526315789473684e+000, 0., 1.0526315789473684e+000, 0. ]
   inv_output_scale: [ 9.4999999999999996e-001, 0.,
       9.4999999999999996e-001, 0., 9.4999999999999996e-001, 0.,
       9.4999999999999996e-001, 0., 9.4999999999999996e-001, 0.,
       9.4999999999999996e-001, 0., 9.4999999999999996e-001, 0.,
       9.4999999999999996e-001, 0., 9.4999999999999996e-001, 0.,
       9.4999999999999996e-001, 0., 9.4999999999999996e-001, 0.,
       9.4999999999999996e-001, 0., 9.4999999999999996e-001, 0.,
       9.4999999999999996e-001, 0., 9.4999999999999996e-001, 0.,
       9.4999999999999996e-001, 0., 9.4999999999999996e-001, 0.,
       9.4999999999999996e-001, 0., 9.4999999999999996e-001, 0.,
       9.4999999999999996e-001, 0., 9.4999999999999996e-001, 0.,
       9.4999999999999996e-001, 0., 9.4999999999999996e-001, 0.,
       9.4999999999999996e-001, 0., 9.4999999999999996e-001, 0.,
       9.4999999999999996e-001, 0., 9.4999999999999996e-001, 0.,
       9.4999999999999996e-001, 0., 9.4999999999999996e-001, 0.,
       9.4999999999999996e-001, 0., 9.4999999999999996e-001, 0.,
       9.4999999999999996e-001, 0., 9.4999999999999996e-001, 0.,
       9.4999999999999996e-001, 0., 9.4999999999999996e-001, 0.,
       9.4999999999999996e-001, 0., 9.4999999999999996e-001, 0.,
       9.4999999999999996e-001, 0., 9.4999999999999996e-001, 0.,
       9.4999999999999996e-001, 0., 9.4999999999999996e-001, 0.,
       9.4999999999999996e-001, 0. ]
   weights:
      - [ 1.6628456931702955e+000, -2.0827415996219565e+000,
          3.5723547703463736e+000, 3.0530491460728369e-002,
          9.3442695999938086e-001, -2.5673854659803208e+000,
          2.3608897273062468e-001, -9.6660143714832980e-001,
          1.7092465127126985e-001, -8.7609101222305724e-002,
          -1.5965253957450796e+000, 6.8298924091911015e+000,
          -2.7209300601946786e+000, -4.3096760054455524e-001,
          -1.7013593054572431e+000, -1.8820770262238828e+000,
          8.7634085127942507e-001, -3.9362748324378320e+000,
          -1.4527544405367716e+000, -7.7849648460138166e-001,
          -2.1653239751092781e+000, 3.2589158590910015e-002,
          4.6022944452788055e+000, -1.5561854746292406e-001,
          2.6592677164785954e+000, -3.4935406455435147e-001,
          -1.2165554286571655e-001, -7.9799025738195273e-001,
          -5.5732667692969591e-002, 3.7873166651321357e+000,
          -3.3861091623840736e+000, -5.8755189216393817e-003,
          2.2132682185664114e+000, -9.0281366334698090e-002,
          4.8138154447836126e+000, 9.7085424063226747e-002,
          -4.5657722731636738e+000, -3.5282334605093779e+000,
          3.2129559360064150e+000, -2.6716840729786617e+000,
          -9.1990390911891107e-001, 5.8314052525778981e-001,
          -2.6648452305668502e+000, 5.4583651032645386e-001,
          3.3495541753257161e+000, -2.4190571935072018e+000,
          1.7275978492137687e+000, 7.3768558145745444e-001,
          -3.0382881544100898e-001, -1.3479187681192487e-001,
          1.3122353843353005e+000, 1.3019725149361656e+000,
          1.9329304037639918e+000, 5.5931214601756041e-001,
          2.8640545886200854e+000, 1.3882696691116685e+000,
          -2.4074419485951748e-001, 5.7926234619584471e-001,
          6.5144796657495174e-001, 2.2025137678938718e+000,
          1.6425992343259939e+000, 2.3585784794101161e+000,
          -1.5512192758589669e+000, -2.3195607100738411e+000,
          -5.5728504620313690e-001, 1.3384494555492927e+000,
          -1.0589744561638650e+001, -8.6112019390754535e-001,
          -2.3164006054513790e+000, -2.3895639057529867e+000,
          -3.1055170460291076e-001, -4.0343789139375046e+000,
          -3.2330745242902603e+000, -1.5090699354624861e+000,
          -1.3412995071247300e+000, -4.8291097404286581e-001,
          2.7527206058189919e+000, 9.5836652345688667e-002,
          1.5416331879648761e+000, -9.5983736634654437e-001,
          -4.8167779603732290e+000, 1.4426496204375241e+000,
          1.1945028847979775e+000, 5.2651200106830887e-002,
          -2.0625035143120032e-001, 1.0392810340782277e+000,
          -8.4922051777049778e-001, -9.5082837877996373e-001,
          7.7827750600458256e-001, 2.1535971235880091e+000,
          -7.8046756551855312e-001, 7.6500745162891726e-003,
          1.4604593149954883e+000, 6.4948490430576833e-001,
          -1.3074512424958553e+000, 1.5062318423198058e+000,
          -9.5179707303532857e-001, -1.0693006228818203e-001,
          -1.5945287424691112e+000, 6.4565145505041399e-001,
          1.7787739504914770e+000, -1.7395146279046866e-001,
          8.1057593797853489e-001, 3.9514731797929419e+000,
          5.2244003930694360e-001, -7.0069333788908761e-001,
          -3.7591376013900019e-001, -7.0485278758046288e-001,
          2.0274194070311879e-001, 7.1473849101868978e-002,
          2.0870210511383331e+000, -7.9112429671091966e-001,
          4.1303319108096481e+000, -7.1788276041728549e-002,
          -3.2462222237002356e+000, 2.7357154960139303e+000,
          8.1520184789148120e-001, 3.6632003505355120e+000,
          -7.9528655848107666e-001, -3.1903861938791195e-001,
          2.2662872873175468e+000, -1.7150510743357474e+000,
          -3.2882206616352749e-001, -3.8253055329827973e-001,
          1.3947185002655877e+000, -2.0120540591944529e+000,
          -2.6769057808730441e+000, -1.7449464217434625e+000,
          4.3466313965814807e-001, -5.2177618610339782e-001,
          2.5190782768199349e-001, -5.0308161416626207e-001,
          1.0609506500508161e+001, -2.7634386609185246e+000,
          5.0904768940350120e+000, 2.0536347314385539e+000,
          -2.3516015253772973e+000, -4.3916271115946193e-001,
          -1.9739470516365316e+000, 3.7485245776321308e+000,
          -4.8154210410592235e-001, -3.5797253818389740e-001,
          -2.6766441914476928e+000, -1.3354767106799139e+000,
          1.3947053310788857e-001, -7.7526302101697986e-001,
          8.8219989783285879e-001, -4.7995948664062410e-001,
          2.5102885615078723e+000, 1.1489030636818711e+000,
          5.7117341224266793e-001, -4.5911750132126572e-001,
          3.8532729783565789e+000, 2.2198139835698064e-001,
          1.0461916875911674e-001, 2.4869601601272057e-001,
          -2.6877129419246037e-001, 6.6054059417416389e-001,
          1.3709053509673910e+000, 9.6541826273352549e-001,
          -2.2236035658094502e+000, -3.9524433040630109e+000,
          6.0012586113886446e-001, 1.5127865610965674e-001,
          4.2081829398843618e-001, -2.4480474416001943e-001,
          -9.8497220991085410e-001, 3.8632255192326553e-001,
          -1.8669558048942632e+000, -3.5134480248435582e+000,
          3.1266432740982186e-001, 1.3574657230858425e+000,
          1.4948145660845078e+000, 7.7580108047154639e-001,
          1.9950742032184121e+000, -5.7707757502994739e-001,
          7.1247517105511005e+000, 5.6669021585368096e-001,
          -7.7341975300094046e-001, -5.5336688246520920e+000,
          5.7075418351138263e-001, 1.4026563985564957e+000,
          -1.6054088603763175e+000, 1.4086646962914033e+000,
          -2.7829460901944492e-001, 1.8141835229612660e-001,
          2.1919978882195248e+000, 8.0558173265058852e-001,
          5.6758906208427873e-001, 4.6305181981426879e-001,
          3.6143655229842326e+000, -1.1956910056704262e+000,
          -2.2339255594882816e+000, 4.7397962700824642e-001,
          -2.9659136583714218e+000, 1.0989863901841368e+000,
          1.3404371495798084e+000, -2.2004885611473404e-001,
          -8.4727617459765288e+000, -2.1577756168197076e-001,
          5.6598665003422510e-001, 1.7677858109943776e+000,
          2.2373822726893183e-001, -2.7097240310590114e+000,
          3.7302534004332504e+000, 1.8289483037552159e+000,
          5.6355392846753094e-001, -3.7877945277823033e-001,
          7.3259964554893764e-001, 3.8970879485317339e-001,
          -2.5021300998189144e-001, -9.0674981374455998e-001,
          -7.9794550945671527e-001, -1.5474876204076995e+000,
          -6.5390466391165836e-001, 2.3739852638872581e+000,
          1.6980486424392138e+000, 2.7226214146414596e+000,
          -1.6260224653812521e+000, 9.1282022557891063e-001,
          1.0262249872402286e+001, 8.6092964844919906e-001,
          4.0713772555793526e-001, 1.6348233645123986e+000,
          1.1380727742245485e-001, 1.1197276813275517e-001,
          -2.3935266051842321e+000, 1.1547143497905779e-001,
          -1.5073932128713159e+000, -1.2621778008753287e-001,
          1.4848301690419199e+000, 2.5535099711739184e-001,
          -1.0329696047954846e+000, -4.3623701255768738e-001,
          -5.2208817852651557e-001, 1.0435307013144315e+000,
          1.0913084389218939e+000, 2.7086677944335209e+000,
          1.3143775686932078e+000, -3.4456344335180972e-001,
          2.3515110321701188e-001, -3.4288165079887672e-001,
          -5.8468618211188243e+001, -2.6318156604784142e+000,
          5.0359689681166042e-001, -1.6929201522158199e+000,
          3.7918142611775041e+000, 1.6351875121898893e+000,
          -1.9497132411304530e+000, -1.7622424895335140e+000,
          -4.3751945971865265e+000, -4.5960153567543145e+000,
          1.7714524389761823e+000, 2.2548519756641311e-001,
          -8.4872884576712648e-001, -4.2028545887402693e+000,
          1.6300493992586482e+000, -1.1728775751805538e+000,
          -4.3153861202022767e+000, 2.5353712487447804e+000,
          2.6329959357387565e+000, -3.5927466417410576e+000,
          -1.9198872624549967e+000, 4.0921870620374987e+000 ]
      - [ 1.0719397529579267e+000, 2.2925300633977979e+000,
          2.2405662591900319e+000, 3.5379344002186802e-001,
          1.6094751503089912e+000, 1.4341904627447701e+000,
          1.7063973970993991e+000, 1.4599410763513618e+000,
          6.9993002937022752e-001, 1.3706419228538208e-001,
          1.8954712798608424e+000, 1.0882333454974209e+000,
          1.3490889899749960e+000, 1.5591678770401423e+000,
          1.0798660731140681e+000, 9.7377836292948661e-001,
          1.8623192552490242e+000, 1.6471679848531839e+000,
          1.2854271850705716e+000, 5.7938741803464944e-001,
          5.4760763844030824e-001, 7.9863949501220055e-001,
          2.7755560308725244e+000, 1.9516711555910349e+000,
          1.8200181116314988e+000, 7.2528238280631196e-001,
          1.5144415773518711e+000, 2.4701579319155473e-001,
          2.0973462190393555e+000, 1.5772323082517983e+000,
          2.0155027618632322e+000, 2.0524785400435270e+000,
          1.2900757754137380e+000, 1.5523050048908202e+000,
          1.7489694503896249e+000, 1.8637098042684308e+000,
          7.7190377575662783e-001, 1.9618765610660673e+000,
          5.3281466179489312e-001, 1.9193370841585085e+000,
          1.2686501362168006e+000, 1.7729224691393142e+000,
          8.7086581816920283e-001, -1.5791930399391374e+000,
          -6.8105774774256966e-001, 2.2506191447129495e+000,
          -2.0217208382360745e+000, -6.0022341764357634e-001,
          -4.7520858653777409e-001, -9.3821508101672307e-002,
          5.5085772132181088e-001, -5.5218973935758708e-001,
          -7.1015320851060382e-001, 4.4220589220942980e-001,
          1.2105801389584467e+000, 4.4043203188967889e-001,
          -1.1998645341171901e+000, 6.8161034685061794e-001,
          8.1921405378652745e-001, -8.2999401262136963e-001,
          -9.8599065658984986e-001, 2.8075655211408255e+000,
          1.3561708301202002e+000, 1.3270998725267478e+000,
          -3.2528942555328083e-001, 4.1391688513811070e-001,
          3.3832198879600023e-001, 1.0408240897081309e+000,
          -1.2760459294979447e+000, 2.0903504299170290e+000,
          -1.0734656271617129e+000, -3.5107547874366224e-001,
          -1.0904722825417907e+000, -5.2301122640122177e-001,
          3.9237100266065073e-001, 9.6620015515012792e-001,
          7.7927754106891878e-001, -3.4971446969677461e-001,
          -1.9768976654840023e-001, -7.7703247067155035e-001,
          -1.4097580917769490e+000, -1.6834636814946173e+000,
          1.6852228717299649e+000, 1.6589589297997895e+000,
          5.7531650875279383e-001, -1.4059887853476132e+000,
          2.0454486374606207e+000, 1.9874963886295256e+000,
          -1.1522414994305856e+000, 1.0748412042996334e+000,
          -1.4823700633067949e+000, -4.2479318425128032e-001,
          8.7940895469248526e-001, -3.1129576041981316e-001,
          -1.1532294914190779e+000, 6.6381394821945994e-001,
          -1.1681933690445683e+000, -1.2280542910826850e-001,
          -3.2199761665123243e+000, 1.9233242047212906e+000,
          4.2201400782924436e-001, -1.1112892860434822e+000,
          5.5945115536676338e-001, -8.8461478482851985e-001,
          -1.2476498894308461e+000, -1.4029603160778040e-001,
          1.5466609158674454e+000, 2.9849570295239181e+000,
          1.0647117834405433e+000, 1.2791506813004616e+000,
          -1.3167774993617676e+000, -1.2974971724342905e+000,
          2.7993236997036092e-001, 1.3044856949787303e-001,
          -3.4758645143259939e+000, 1.4984996748455353e+000,
          -6.4767023498815224e-001, -5.0981082575692283e-001,
          -2.4690984820846547e+000, 5.1789786785595815e-001,
          1.1295257420548983e+000, 1.7703890598505738e+000,
          -6.0227876577540584e-001, -1.2801897180746469e+000,
          -4.4237842555895501e-001, -1.6577491399371086e-001,
          8.0553259204447647e-001, 2.0682273354417843e-001,
          -2.5950329482560104e+000, 2.4537312202849142e+000,
          -1.7853212018082565e-001, 4.7425215389889884e-002,
          2.4800181067302751e-001, 1.0704713697002424e+000,
          2.4411787237750722e+000, 1.1269718914445253e+000,
          3.5712963779214291e-001, 3.4361968460017595e-001,
          9.8585056032705465e-001, 5.8446684649140734e-001,
          1.0159507622775127e-001, 1.9711392412996369e+000,
          2.7613132351040561e+000, -4.7104998645579661e-002,
          2.4981485056427735e+000, 1.7729379827145864e+000,
          -5.4337150237453669e-001, 2.1176165398869609e+000,
          -7.9420177750622922e-001, -4.5254522048854495e-001,
          3.2057518822899428e-001, 6.0346455455011205e-001,
          4.1014000533134537e-001, -2.3838200851528031e+000,
          -7.3700174120828854e-001, 2.3553595062060597e+000,
          2.6089162742275995e+000, 3.3898737463424164e+000,
          -6.3375020852220287e-001, 3.7226904118047899e-001,
          2.8756177779237040e-002, -2.6617620096558783e+000,
          -7.9356602992021852e-002, -6.2388059618671698e-001,
          2.4510695560280357e-001, -4.2473483179728572e-001,
          8.3128877823068226e-001, -6.0132414386100941e-001,
          7.0638891341157672e-001, 9.1518124183190913e-002,
          2.7535814840033657e-001, -8.2537438750707248e-001,
          -2.7332439806635478e-001, 2.0299739517136790e+000,
          2.7719335206355855e-001, -6.2690836529360972e-001,
          -8.9412050733683779e-001, -2.1126990854503589e+000,
          -2.8291533794602053e+000, -1.8753387124139367e+000,
          3.5315441958738392e-001, -3.1842148894088224e-001,
          4.9598543265634920e-001, 4.0964877159671925e-002,
          -9.0481904809903957e-001, 7.2035118445450941e-001,
          -1.9536829773020856e-001, -1.2814957458448175e+000,
          -4.8166674112964636e-001, -4.9777982812585586e-001,
          -6.1917430903751747e-001, -1.9956990951492588e+000,
          1.3530627514944709e+000, -4.4255607234376709e-001,
          -3.3068144698782169e+000, -7.8140380350562810e-002,
          -1.8029914071733408e-001, -5.5579818497389100e-001,
          -5.1259859407685848e-001, -2.0992311407097639e+000,
          -4.8897667429621783e-001, -5.0842432608278254e-001,
          -1.8044722128793891e-001, 2.3107186720722566e+000,
          -2.3492666082909470e+000, -1.2312285267639143e+000,
          -2.2167389754825509e-001, 2.4548817483597105e+000,
          -3.9583020958088455e-001, -1.4474654605270640e+000,
          -4.4143498314406587e-001, -2.0311109860435819e+000,
          -6.1903701619832763e-001, -3.5759979047958568e-001,
          -1.4877216352296461e+000, 2.2870065129814545e+000,
          -7.1467779497404604e-001, -1.8578296330953032e+000,
          -1.5806580445709376e-001, 5.2526477504188263e-001,
          -3.3177243773520659e-001, -6.7779313296940880e-001,
          1.0414921345512256e+000, 1.5404217284968005e+000,
          1.6189523945421977e+000, -6.8622630773720317e-001,
          1.6433673023041488e+000, 2.6817690592524340e-001,
          -1.0357913773165079e+000, 6.6312317663675668e-001,
          -1.7883604720664625e-001, -7.8602989591629743e-002,
          6.0956710269399228e-001, 2.1850178902185875e+000,
          -2.3496007779842926e-001, 6.3884478493742081e-001,
          -1.6175544399272376e-001, 1.0808369390494215e+000,
          6.6882620051415764e-001, 1.1139012484208071e+000,
          2.7598606785939878e-001, 1.2861363716584601e-001,
          1.0826363499310225e+000, -1.6839928728296973e+000,
          1.4186875478215739e+000, 1.6922755088862975e+000,
          6.4535711011457858e-002, 3.2090384369093300e-001,
          -2.0007231885858867e+000, 1.8409556179092859e+000,
          -8.0950663493037744e-001, -8.3571878042246250e-001,
          1.9478482438475889e-001, 9.1487966871704796e-001,
          -3.8956314240455570e-001, -5.4342449765021261e-001,
          1.4102348620871814e+000, 4.5459890916629542e-001,
          -1.7036940869098087e+000, 2.1274648914203356e+000,
          -9.1749076763452908e-001, 1.6049363897022353e+000,
          4.9547136332598518e-001, -1.6301266432057077e-001,
          1.0893782441313333e+000, -1.6213978413830201e+000,
          3.8151524563401068e-001, -1.2546821353763871e+000,
          -1.9770511987161454e-002, 6.6223750065742759e-001,
          2.4127131683100553e+000, -7.2873261644250453e-002,
          1.6873229589173917e+000, 1.2700911655946170e+000,
          8.7331628734155442e-001, -1.9887031515864004e+000,
          -1.3672962041466488e+000, -6.2421106707805696e-001,
          -1.2539122575223496e+000, 1.9264863886229262e+000,
          9.3002656251453353e-001, -1.9126009991578619e+000,
          2.5342535047918959e+000, 1.4614949491417517e+000,
          -2.3918892693830380e+000, -8.0180199762042348e-001,
          8.6290847522570679e-001, 6.3640370631760301e-001,
          -1.3958944863504348e+000, 1.6955070951666473e+000,
          -1.0950963267661551e+000, -7.2591900660801600e-001,
          -1.0557365225300555e+000, -1.0458249606993244e+000,
          -1.6079783874562409e-001, -1.5202004681753394e+000,
          -9.4699977765385002e-001, 4.2101632189076271e-001,
          1.4585206441287923e+000, 1.4699199244273260e+000,
          -2.8632025815431489e-001, 9.8921857432537438e-002,
          9.5201882314370001e-001, 1.3129798304408935e-001,
          7.8400796612411539e-001, 1.3646814332781023e+000,
          1.0531220973051891e+000, 1.4412232198502786e+000,
          -8.1004178947086725e-001, -1.3002154428604926e+000,
          2.9414763306849450e+000, -1.0205212982838023e+000,
          -1.5165620851620929e+000, -8.1485187483187582e-001,
          -1.9377101168884219e+000, -2.2076121556447967e+000,
          1.7155107814631008e+000, 1.7057609756999010e+000,
          -1.6742498350004207e+000, 4.8226279173503245e-001,
          -3.5533892070541087e+000, 4.6997710345941010e-002,
          -1.0321410049343440e+000, -1.5619585232666291e+000,
          1.3946546527526402e+000, -1.6517915583817040e+000,
          -3.1057254032179177e-001, 1.3058773723280517e+000,
          1.0782722764530068e+000, 5.1663471371304459e-001,
          -7.7483383199132172e-001, 2.5331003198197721e-001,
          -1.1390073959324274e+000, -1.8652399549817116e+000,
          -1.6601444455212655e+000, 2.6709438275513103e-001,
          2.3221729959101900e+000, 1.8161961781734329e-001,
          4.5635381663341601e-001, 8.2782662304344279e-001,
          7.4461162357879529e-001, 1.1088009055925481e+000,
          2.4575112550027995e+000, 1.5798712919871494e+000,
          5.6186324345076466e-001, 7.9063193545572930e-001,
          5.4492417471361210e-001, -3.3623390170442587e-002,
          3.9798757323939921e-001, -3.0006827940998138e-001,
          1.4209942261918025e+000, 1.1809551027613290e+000,
          2.2333759878615660e+000, 3.9689222555346115e-001,
          4.5002000527587999e-001, -1.9075745045195108e-003,
          1.0637968523432781e-001, -2.9371513458219680e+000,
          1.3111089207467053e-001, 2.3077892062523251e+000,
          -5.8165675496182523e-001, 8.0102081785545665e-001,
          -1.8495208478550026e-001, 1.7756221400075853e+000,
          2.1369041215431817e+000, 9.2903024281539826e-001,
          2.0944610724519026e+000, 2.0410448432168167e+000,
          2.4933613127348009e+000, 8.3636666726984188e-001,
          5.7252551869628998e-001, 6.3413576801426674e-001,
          8.8329176247642605e-001, 1.5484796165961796e+000,
          2.9561595699702031e-001, -1.8923681051700070e+000,
          1.1306599651528355e+000, 2.9452061102628613e-001,
          1.2422439519922921e+000, 2.4168080409016808e+000,
          2.0025536824434877e+000, 1.0102120289379608e+000,
          1.2998853028139168e+000, 2.3849708218154859e+000,
          1.0957973122116988e+000, 1.2324079201294473e+000,
          2.0827371056932602e+000, 2.9986368980544931e-001,
          2.3344066487128406e-001, 5.1201890699484520e-001,
          1.2573256889810740e+000, 1.5531819243531928e+000,
          2.1602193560298435e+000, 1.9021247353107640e+000,
          1.5601282949425892e+000, 1.0499915858015907e+000,
          1.4113024429177448e+000, 2.1194713300139361e+000,
          9.8256122005163249e-001, 2.2826411652545029e+000,
          2.8304864105809298e+000, 2.0873116142563588e+000,
          1.7581856968020622e+000, 7.0727183058785947e-001,
          1.5234164507380694e-002, 1.3083078914431978e+000,
          9.1041512430219740e-001, 2.3685858183648545e+000,
          1.2094232355988190e+000, 1.2258801769157164e+000,
          1.9223485273124725e+000, 8.9952684921009629e-001,
          1.7021507825339708e+000, 2.3898866170483624e+000,
          1.1054373993338968e+000, 1.4397544996776614e+000,
          3.8943231358155461e-001, 1.2553533650256474e+000,
          1.9949025036892440e+000, 2.4332650147046992e+000,
          1.7576596736176453e+000, 1.3734874480434511e+000,
          -2.6953599868762108e+000, 1.8657340433979233e+000,
          -5.1847645951448318e-001, -1.4899327948722876e+000,
          4.4272647439079899e-001, -2.4781992355706572e+000,
          -1.3528875299845859e+000, 5.9879949770303331e-001,
          1.1365933684216324e-001, 8.6811775729946938e-001,
          -7.1292498874469812e-001, -4.9485800858217471e-001,
          6.0843957346026510e-002, -2.5198041914652811e+000,
          7.7820386823608878e-001, 1.0432112022941107e+000,
          8.3896325662543614e-001, -1.4488253083332792e+000,
          1.5688144150009411e+000, -1.9591472525231497e+000,
          1.6960705116649415e+000, -7.4529816883142586e-001,
          1.1459848074188768e+000, -2.3788817119459130e-001,
          -4.2468354855465446e-001, -2.5959371235204829e+000,
          2.1823388366414589e+000, -6.3357241083824789e-001,
          -9.0087435624867970e-002, -2.1178027083062716e+000,
          -8.9049892692178345e-001, -1.8558489322577234e+000,
          1.3312343180768935e+000, -1.3081842799389798e+000,
          -8.5624977151425541e-001, 1.6598704346072943e-001,
          -2.1467809963756848e+000, 2.7672347551775139e-001,
          3.8656530254083299e-001, -2.6520273826483862e+000,
          -1.1789785019723971e+000, 1.4143752524188395e+000,
          6.3212505021847321e-001, 1.7226495099869066e+000,
          5.4966322930899736e-001, -1.5719774505641448e+000,
          2.7716379603227486e+000, -9.0804630800999075e-001,
          2.6178048297412957e+000, -7.3006568840160968e-001,
          3.4992442840238794e-002, 6.8294578746861256e-001,
          1.2493621315956434e+000, 2.2018675168361779e+000,
          4.8858434210699864e-001, -3.9340860768749131e-001,
          -1.7227335486935413e+000, -2.2279351819029278e+000,
          9.6473159264608654e-001, 6.0434331715348268e-002,
          3.4436322899462057e-001, 3.2906442872146041e-001,
          -2.7604155577029049e-001, -8.4188285016088427e-001,
          8.0359992908257283e-001, -5.9395331238970384e-001,
          -1.9678167645744105e+000, 8.2995093306119302e-002,
          1.1927290627870171e+000, -1.0223699583311208e+000,
          -8.0017960110358910e-001, 1.7465970729938787e+000,
          -3.6102898714764797e+000, 1.4538312513351663e+000,
          -4.1210695111133855e-001, 1.2280165654821236e+000,
          -4.5339993444172405e-001, -8.0135926321128337e-001,
          -6.3629299709595821e-001, -6.1047648820287792e-001,
          1.2940591352764066e+000, -1.3423456191856014e+000,
          1.0862140972684777e+000, 8.2998720890079281e-001,
          -1.4830546187540912e+000, 1.0933000341562322e+000,
          8.9691179297380219e-001, 1.2734226242548492e+000,
          -4.9088609270967903e-001, -1.9802968365631342e+000,
          -1.8430229220604255e+000, -9.1332482990291924e-002,
          1.6176626116470525e+000, -5.5797990999895952e-001,
          -1.0305322067924157e-001, -1.1560868949769930e-001,
          -5.2295888408470836e-001, 1.6684783103810190e+000,
          1.6409019217787377e+000, 1.0469308593972828e+000,
          4.4807974037852738e-001, 5.9080911878640718e-001,
          -2.0465218801651091e+000, -8.9613799086731871e-001,
          7.7189006746829092e-001, 4.0662600024242807e-001,
          -2.9995814828201905e-001, 3.4697642112686640e+000,
          6.7957937889336251e-001, -3.9903671740049898e-002,
          1.2167820547887549e+000, -9.3463520051303461e-001,
          -5.0544081668155794e-001, -2.8560772195837719e-001,
          -1.2854916507788111e-001, 1.4406331029384765e+000,
          2.4620442538481062e+000, 2.9801092418226247e+000,
          -9.2422906384576831e-001, -1.3806165572417863e+000,
          1.2028240768043699e+000, -1.0522317359868449e+000,
          1.6978492945415984e+000, 1.7699324723016403e+000,
          1.4092809891411548e+000, 1.0039285993612779e+000,
          1.3395483470954526e+000, 1.3615429188235080e+000,
          1.7392137042795133e+000, 2.0167095913008337e+000,
          4.5570816265977288e-001, 5.3703516349534641e-001,
          1.8553499375732785e+000, 7.6577313704390548e-001,
          7.8780339874816574e-001, 1.6667075252684316e-001,
          1.1338364256317730e+000, 3.3735810834883589e-001,
          1.9138543249928957e+000, 1.9222509099499996e+000,
          2.2285640734074788e+000, 1.1724590508690527e+000,
          1.1086353762523964e+000, 1.3362212328564986e+000,
          1.4328685169461239e+000, 1.9776675402709385e+000,
          1.8245115232915403e+000, 6.4727203789571963e-001,
          5.8305427087692951e-001, 2.5873428034075299e+000,
          1.1133367805107097e+000, 1.3738682764967303e+000,
          1.6946930320997324e+000, 1.0539451759073992e+000,
          1.9399458059190775e+000, 1.1609252465462085e+000,
          4.2774963885121797e-001, 1.8562353958335414e+000,
          1.6603748053091292e+000, 3.3550422839151102e+000,
          1.8834737988191836e+000, 8.7894488412967331e-001,
          9.7697076654541581e-001, 1.3159898598027981e+000,
          9.7830950499845426e-001, 6.7359549904100036e-001,
          -4.8820231126727742e-001, 2.7547105803793220e-001,
          -3.2047220891146877e-001, 1.1762179470691150e+000,
          2.1989525051557832e+000, 6.1689786483964382e-001,
          9.8084692508923721e-001, -1.9767997758570222e+000,
          2.4623744790924977e+000, 2.4498897946131074e-001,
          1.9252568907349692e+000, -6.8176530157559256e-001,
          -1.5216544273897231e-001, 7.0514125426379348e-001,
          -2.1253312110856961e+000, -1.9300295574976558e+000,
          5.1713859841848109e-001, -1.3100567773436729e+000,
          -9.2402281193942426e-001, 5.5264638651389608e-001,
          9.2095274571033214e-001, 1.0997495537845264e-001,
          4.0314817000599721e+000, -2.7759418883203208e+000,
          -2.4003422620941578e-001, 1.5443257192460982e+000,
          -8.4021411818728409e-001, -1.8073131894441219e-001,
          1.7391009963248172e+000, -3.0521704813831447e+000,
          1.6316420082992697e-001, 6.4963004423764348e-001,
          -2.2512403989683344e-001, -1.0948167028805764e+000,
          1.8231548780938884e+000, -1.4945394222357831e+000,
          2.1808280034684424e+000, 8.8413460345613515e-001,
          5.6043597651452814e-001, 2.9792220675648649e+000,
          -9.2783710019280641e-001, 1.3273693234293551e+000,
          1.5540221766773104e+000, -6.8457526303594540e-001,
          1.1278285106074322e+000, -4.6170610238555376e-001,
          7.8019457412151672e-001, 1.7237652520634326e+000,
          2.3563884526039031e-001, -1.2688342702306452e+000,
          8.5792658077221085e-001, 1.2784159969001174e+000,
          9.8609881790189513e-001, -7.5543051437573305e-001,
          9.9259381108179479e-001, 3.4377804919594163e-001,
          -9.4634043936738077e-001, -2.2824435170353787e+000,
          -3.3938046959282575e+000, 3.7975053678379622e-001,
          -2.0009867924928515e+000, 1.4992648376345872e+000,
          6.1025235469793615e-001, 2.3473399914165291e-001,
          -7.3483968363411811e-001, -1.1102191997842688e+000,
          -1.5335840112829959e+000, -1.3622045023188916e+000,
          1.4648287567542253e+000, -2.0222886751186868e+000,
          3.2857107822012777e-001, 2.1240534357309153e+000,
          2.9006324458344781e+000, -1.7841222312398890e+000,
          8.8650636161934504e-001, 1.5667150098994227e+000,
          -1.0045037928676168e+000, -1.4339085591468175e+000,
          -1.5037740476197541e+000, -5.8982951165001452e-001,
          -2.1813579477729115e+000, -1.8420897169034305e+000,
          -1.2102866594315211e-001, 1.6342268783949816e+000,
          -1.1218868432700266e+000, 2.3083463455031650e+000,
          2.1157048233258986e+000, -8.2446354238262576e-001,
          -5.0140300121681115e-002, 2.0943251899668920e+000,
          -5.6533958414409369e-001, 2.2432595667560222e+000,
          3.1003186398882745e+000, 1.1230367877222029e+000,
          -4.4902323319627147e-001, 1.2063700141871112e+000,
          5.2433880040805313e-002, 7.1565158891247382e-001,
          -9.8827625507281174e-003, -1.0679900320747107e+000,
          6.1043378939690884e-001, 2.3442680315346371e+000,
          1.8412680099192535e+000, 9.4381751459746754e-001,
          7.1639293949972693e-001, -2.6639265854500200e+000,
          -5.7521607752546278e-001, -1.7400145623255631e-001,
          -6.1640017687947679e-001, 5.0447729260073648e-001,
          -6.7292422951023245e-001, 1.7156049718720220e-003,
          1.0734901667421080e+000, 2.2423429110174755e+000,
          2.2182034601433609e-001, -8.9623339441564254e-001,
          8.5487812872559688e-002, 1.6646175224548192e+000,
          5.7690597575429747e-001, -1.4957872231412410e+000,
          5.1405899560389756e-001, 3.9055232217124686e-001,
          2.0695484794407309e-001, 1.3961403668852218e-001,
          7.0087209397022376e-001, -1.9730366893861089e+000,
          -3.0253539471201085e+000, 1.1880221795081216e+000,
          6.0538386619844731e-001, 3.6101271898922732e-001,
          1.2155711812338146e+000, 1.1881383029849850e+000,
          -2.4947897715393876e-002, 1.0146638539622349e-001,
          -5.6540972620348240e-001, -1.1698622969557770e+000,
          4.8390490482690246e-001, -1.0753278076106869e+000,
          -2.1712240502705145e+000, 4.8296928248270976e-001,
          4.8219103842803651e-001, 1.6573026353232063e+000,
          2.5770211970655532e-001, -4.7473120136526037e-001,
          -1.9810897312279920e+000, -1.4501920490144371e-001,
          1.0873653310792263e-001, -2.2355831975521809e+000,
          -1.3458344454455951e+000, 1.2352303589429467e+000,
          -1.0318407626251691e+000, 6.7048528388170114e-001,
          -2.0296274042587252e+000, -1.8644754351862682e+000,
          3.3685652351288245e-002, -5.1873413035386196e-001,
          3.2994496689972325e-001, 1.0031235814472017e+000,
          -6.2489957208558000e-001, -2.1860463358431323e-001,
          8.1974586136655991e-001, -1.5656521266721715e+000,
          -5.3397913653666185e-001, -2.8261780818603788e-001,
          -3.5305388433651824e-001, -2.1267866345769564e+000,
          8.2731222829619491e-002, -6.2108146007501497e-001,
          -3.1736350956986930e+000, -3.2802165504830522e-001,
          -1.6674218483171863e+000, -1.0533456073221599e+000,
          -2.8998137917713689e+000, -3.7331811629944484e-001,
          -1.3126838885843504e+000, 3.9506211938520297e-001,
          6.5394561887713132e-001, -3.8782218594964174e-001,
          1.9534162509283198e-001, -1.3328442562766523e+000,
          -1.2978070068500809e+000, 3.0081189984363554e-001,
          -1.2057460542572782e+000, -6.7901700084506278e-001,
          1.8877901930825650e-001, -3.1843053991173625e-001,
          -7.8713594617167731e-002, 9.8647514515307611e-001,
          -1.6838954371040880e+000, -1.4384776462213112e-002,
          5.9705817748673298e-002, -2.1268762036594907e-001,
          -1.6702337790369954e+000, -1.3994156764919571e-001,
          9.0865730490291852e-001, 2.7956837763561093e-001,
          3.5714961026506620e-002, 1.4089266648027568e-001,
          -9.0894900753791341e-001, -7.2991099477530974e-001,
          -1.0341044125567189e+000, 1.1817466187583872e+000,
          -1.1632163649907078e-001, 3.5495063832914023e-002,
          -1.4400957411435031e-001, 2.6307847210129437e-001,
          -8.1360176493217029e-001, -1.6485573214116060e+000,
          3.0373624341681543e-001, -1.8730119459913077e+000,
          1.9404162783628376e+000, -1.0210751804146816e+000,
          9.3558422591572110e-001, 1.0173729783254091e+000,
          -5.7974333474337691e-001, -8.1294018029772230e-001,
          3.5774299119728470e-001, -3.0767961804225741e-001,
          1.2354052922249981e+000, 4.9695455307075120e-001,
          -1.6416477868476786e-001, 4.0794688516877836e-001,
          -1.8702526765633842e-001, 1.6576134655625605e+000,
          7.3599178880226401e-001, -7.0198232993319187e-001,
          -2.0727512094859257e+000, 5.4662590521993693e-001,
          2.3439791407475994e+000, -1.4101266690858503e+000,
          2.6227913979914530e+000, 2.2244078311462867e-001,
          -2.8344794551463204e-001, 1.7035389673580351e-001,
          8.1369841706147583e-001, 1.9528106654510826e+000,
          1.5634615347324128e+000, 4.1612251067619038e-001,
          5.0582263023708163e-001, 1.9114909574631802e+000,
          8.2378227951505220e-002, 1.5692096198859224e+000,
          7.5763703608245259e-001, -5.3353523870958508e-001,
          1.4655291542553495e-001, -1.1128265713721921e+000,
          -1.6393514387043180e+000, 2.1839013345788008e+000,
          1.7158929547807935e+000, 8.9585560947216403e-001,
          2.3476232009405416e+000, 8.8227644084965984e-001,
          -3.4491180036678371e-001, -9.4100139031617380e-001,
          1.0517018126357397e-001, -1.8055741550580378e+000,
          -2.2857598144521132e-001, -8.6695099288259347e-001,
          1.3502788479042194e+000, 2.9510286580843348e-001,
          -1.2185408697646506e-001, -2.9168522777156081e-001,
          1.3370870050252046e+000, 7.0132166129586682e-001,
          -3.9309543875340952e-001, 1.0596639003280868e+000,
          -1.2712731396975507e+000, -1.9596974050297526e+000,
          1.3604826635287334e-001, 1.8218376785349957e+000,
          -1.1460831035601446e-001, -1.8611922022016264e-001,
          -6.7203858274812700e-001, -9.2689666924459513e-001,
          -2.4754215455087833e+000, -1.0101345112398534e+000,
          4.2733101338312224e-001, 1.9293271523223625e+000,
          -1.0696200376085634e+000, -3.7284644257289229e-001,
          -8.0843484176368119e-001, -1.1168674238972798e+000,
          1.8645685361724982e+000, -1.2476375172718073e+000,
          2.7237905163450893e-001, 2.4943702753375572e+000,
          -2.0221028171990323e+000, 1.0754035956362973e+000,
          1.3363713754319440e+000, 5.5649371218668642e-001,
          1.2049941578115575e+000, 6.9694749598236250e-001,
          9.4275546662219578e-001, 7.2202902264030222e-001,
          -8.6447227467717747e-001, -1.0021494680238285e+000,
          -1.1068700867360675e+000, -2.1418652164103588e-001,
          -1.1516248692341499e-001, -1.8507039484946997e+000,
          -2.2474064075646223e+000, -1.6625157890738287e+000,
          -1.9277133514432583e+000, -8.9112966260948812e-001,
          -1.0801097597875164e+000, -1.6403569843985368e+000,
          -2.7031831949110069e-001, -9.6141606040423944e-001,
          -1.6207377759658161e+000, -1.4401932066657563e+000,
          -1.0620098060037342e+000, -1.5829573146038356e+000,
          -2.4141720473450057e-001, -7.4455388214761276e-001,
          -1.2988402041023874e+000, -1.1004472547413835e+000,
          -1.2350547015431084e+000, -2.0938731897706231e+000,
          -2.1089316182773947e+000, -1.1647198928916047e+000,
          -2.4339899460906800e+000, -1.2465808051045209e+000,
          -1.3557689834417089e-001, -5.6372764949021137e-001,
          -1.2652147473933153e+000, -1.9805319207293450e+000,
          -1.7442125270364948e+000, -1.9548230550216028e+000,
          -1.2282835973692154e+000, -7.7993839508602425e-001,
          -1.3587590610211713e+000, -6.5025964660573610e-001,
          -2.6834016215114107e+000, -2.6176710085743635e+000,
          2.7344719849993180e-002, -2.5981119413669196e-001,
          -5.1612125781477769e-001, -1.9080439050295483e+000,
          -1.9933592875646085e+000, -2.0634448472189715e+000,
          -1.3911202496505042e+000, -2.3828889102501050e+000,
          -2.8304613571153694e+000, -1.5826982923660002e+000,
          -1.7906430547838150e+000, -1.3890407499708799e+000,
          -1.6063011416042996e+000, -1.4088877931269279e+000,
          -7.0585711029326847e-001, -2.3834964883803340e+000,
          -1.2566599129579987e+000, -1.9167562632667865e+000,
          -2.5130422737597584e+000, -8.2499317629811331e-001,
          -2.5185173822084619e+000, -2.3988425880640536e+000,
          -2.2387076713827163e+000, -2.5032570791671871e+000,
          -3.1051177303852744e+000, -1.3165696940861056e+000,
          -2.0826410787916112e+000, -2.4580320277443142e+000,
          -1.9501323695853172e+000, -2.2689225273135394e+000,
          -1.8667747868625688e+000, -2.6510238200995984e+000,
          -1.1316468711736283e+000, -2.0886306215246404e+000,
          -1.2993421091626494e+000, -2.3086690972029484e+000,
          -2.2712505111954280e+000, -2.6025649305597125e+000,
          -2.1020494266617602e+000, -1.8676760814984408e+000,
          -1.5473723563985147e+000, -3.4878789792545306e+000,
          -1.2676476423507661e+000, -2.1508305427201253e+000 ]
