%YAML:1.0
my_nn: !!opencv-ml-ann-mlp
   layer_sizes: !!opencv-matrix
      rows: 1
      cols: 3
      dt: i
      data: [ 14, 42, 42 ]
   activation_function: SIGMOID_SYM
   f_param1: 1.
   f_param2: 1.
   min_val: -9.4999999999999996e-001
   max_val: 9.4999999999999996e-001
   min_val1: -9.7999999999999998e-001
   max_val1: 9.7999999999999998e-001
   training_params:
      train_method: BACKPROP
      dw_scale: 1.0000000149011612e-001
      moment_scale: 1.0000000149011612e-001
      term_criteria: { epsilon:9.9999997473787516e-006, iterations:1000 }
   input_scale: [ 1.2635984218535555e+001, -6.1516060861863524e+000,
       1.8253306895962417e+001, -8.9367873868930801e+000,
       2.8895242003668068e+002, -5.3125020615935883e+000,
       2.4465428248747594e+002, -4.8130660899428745e+000,
       5.2229624766385330e+000, -1.6503227340557565e+000,
       4.5280384627420318e+000, -2.7568774002156862e+000,
       8.7965705992543004e+000, -1.4308258230258473e+000,
       8.3059320370504288e+000, -3.1339664123282125e+000,
       7.5095846684475942e-001, -1.6449566416599493e+000,
       3.8559706660551873e-001, -1.3404088505810889e+000,
       4.2194543383240268e-001, -5.8268655148284176e-001,
       1.9250668437592438e+000, -6.4168894791974784e-001,
       3.9898798066812086e-001, -1.1304659452263426e+000,
       4.1017111471633333e-001, -9.6683191325992857e-001 ]
   output_scale: [ 1.0526315789473684e+000, 0., 1.0526315789473684e+000,
       0., 1.0526315789473684e+000, 0., 1.0526315789473684e+000, 0.,
       1.0526315789473684e+000, 0., 1.0526315789473684e+000, 0.,
       1.0526315789473684e+000, 0., 1.0526315789473684e+000, 0.,
       1.0526315789473684e+000, 0., 1.0526315789473684e+000, 0.,
       1.0526315789473684e+000, 0., 1.0526315789473684e+000, 0.,
       1.0526315789473684e+000, 0., 1.0526315789473684e+000, 0.,
       1.0526315789473684e+000, 0., 1.0526315789473684e+000, 0.,
       1.0526315789473684e+000, 0., 1.0526315789473684e+000, 0.,
       1.0526315789473684e+000, 0., 1.0526315789473684e+000, 0.,
       1.0526315789473684e+000, 0., 1.0526315789473684e+000, 0.,
       1.0526315789473684e+000, 0., 1.0526315789473684e+000, 0.,
       1.0526315789473684e+000, 0., 1.0526315789473684e+000, 0.,
       1.0526315789473684e+000, 0., 1.0526315789473684e+000, 0.,
       1.0526315789473684e+000, 0., 1.0526315789473684e+000, 0.,
       1.0526315789473684e+000, 0., 1.0526315789473684e+000, 0.,
       1.0526315789473684e+000, 0., 1.0526315789473684e+000, 0.,
       1.0526315789473684e+000, 0., 1.0526315789473684e+000, 0.,
       1.0526315789473684e+000, 0., 1.0526315789473684e+000, 0.,
       1.0526315789473684e+000, 0., 1.0526315789473684e+000, 0.,
       1.0526315789473684e+000, 0., 1.0526315789473684e+000, 0. ]
   inv_output_scale: [ 9.4999999999999996e-001, 0.,
       9.4999999999999996e-001, 0., 9.4999999999999996e-001, 0.,
       9.4999999999999996e-001, 0., 9.4999999999999996e-001, 0.,
       9.4999999999999996e-001, 0., 9.4999999999999996e-001, 0.,
       9.4999999999999996e-001, 0., 9.4999999999999996e-001, 0.,
       9.4999999999999996e-001, 0., 9.4999999999999996e-001, 0.,
       9.4999999999999996e-001, 0., 9.4999999999999996e-001, 0.,
       9.4999999999999996e-001, 0., 9.4999999999999996e-001, 0.,
       9.4999999999999996e-001, 0., 9.4999999999999996e-001, 0.,
       9.4999999999999996e-001, 0., 9.4999999999999996e-001, 0.,
       9.4999999999999996e-001, 0., 9.4999999999999996e-001, 0.,
       9.4999999999999996e-001, 0., 9.4999999999999996e-001, 0.,
       9.4999999999999996e-001, 0., 9.4999999999999996e-001, 0.,
       9.4999999999999996e-001, 0., 9.4999999999999996e-001, 0.,
       9.4999999999999996e-001, 0., 9.4999999999999996e-001, 0.,
       9.4999999999999996e-001, 0., 9.4999999999999996e-001, 0.,
       9.4999999999999996e-001, 0., 9.4999999999999996e-001, 0.,
       9.4999999999999996e-001, 0., 9.4999999999999996e-001, 0.,
       9.4999999999999996e-001, 0., 9.4999999999999996e-001, 0.,
       9.4999999999999996e-001, 0., 9.4999999999999996e-001, 0.,
       9.4999999999999996e-001, 0., 9.4999999999999996e-001, 0.,
       9.4999999999999996e-001, 0. ]
   weights:
      - [ -2.1316107432889457e+000, 1.2165902342873154e-001,
          4.2958575985858621e-001, 2.7688664685707776e-001,
          -2.0673153340232467e-001, -9.2064982152052402e-002,
          -8.8252641731036130e-001, -7.0944442564111454e-001,
          -1.3606503535911776e+000, -9.2290474550873414e-001,
          -1.6301498499643327e-001, -1.3486759087176822e-002,
          -2.0681559222584713e-002, -4.5325475378926200e-001,
          -9.4076367042648634e-001, 5.6111466384045919e-002,
          -2.9982668070000863e-002, -1.4711245310693730e-001,
          -1.2184658136445237e-001, -3.1836137289752715e-002,
          4.0025518350145406e-001, -6.1321544055607004e-002,
          -8.1381567303788616e-001, 2.1877725084360562e+000,
          -2.1372121486348714e-001, 3.2939287032434199e-002,
          -2.6453940530010356e-001, -3.0462976641745293e-001,
          8.7083009904099151e-001, -7.3424410983420341e-001,
          3.2537338962194559e-002, 8.5256401471270638e-001,
          -1.3695627275543936e+000, 1.1593538912815067e+000,
          -8.0263128756554017e-002, 5.8605452369101119e-001,
          5.8125218947311090e-002, 7.1940777345702855e-001,
          -3.4574635343451271e-001, -6.7647022336858043e-002,
          1.4053767584901709e+000, -2.2261180191236110e-001,
          3.1517542236112797e+000, -1.0287599137354966e+000,
          1.3271060940513908e+000, -2.6635433782263858e-002,
          4.0955003472728835e-001, -1.1221293322520737e-001,
          -8.5914161184710081e-001, -1.1539483266465611e+000,
          1.3191282257544881e+000, -9.6902081699958331e-001,
          -8.6601268387420008e-002, -4.8447841133284603e-001,
          7.2414910386472975e-001, 4.1975219002318870e-001,
          -1.0978087590910097e+000, 1.0449965453804622e+000,
          1.6837720573004517e-001, 2.1270908550371892e-001,
          2.8814901306398871e-001, 7.5428992635670766e-002,
          -1.8657621129322130e-001, -4.6304448590999109e-001,
          -1.9271181189777549e+000, -2.5739869786428331e+000,
          -5.0158949356697868e-001, -1.3848334677437232e-001,
          -1.7010720693954298e-001, 1.1717039457418963e+000,
          3.5095915365930191e-001, 2.0231600813591881e+000,
          -3.2843744707609313e-001, -5.9369900490389949e-001,
          2.7215011484012569e-001, 5.5405290754117886e-001,
          -7.0458820921690946e-001, -9.4530069397558969e-001,
          -2.3648207983726224e-001, -1.1137442332311682e+000,
          -3.3808470151820369e-001, 6.8714824466319324e-002,
          -1.2481660353018839e-001, -6.1838674640223845e-001,
          4.0542595382141977e+000, 3.4969140123060360e-001,
          -2.2484915524887344e-001, 1.2118119833525354e+000,
          -4.7334610714504322e-001, 9.9619363824876306e-001,
          -7.3322751402662267e-001, 5.4488617694348773e-001,
          -7.4951810048465362e-001, -1.1809178108049700e+000,
          -8.4321736930183411e-001, -3.7758410534830084e-001,
          1.1052150912643013e+000, 9.1417455179938756e-001,
          1.8017214908211716e+000, -2.1782723888230890e+000,
          6.8253655180972517e-001, 2.7145565400181709e-001,
          -1.1852620246532664e+000, 4.2980922124888848e-001,
          -2.8777611971762290e-001, 1.4916544411966662e-001,
          -3.2628783450280291e-001, 9.6253597972291438e-001,
          1.8803339354762061e+000, -9.6048608570804128e-001,
          1.6105662972830428e-001, 1.3963279848914640e-002,
          -5.1096792676753122e-001, -5.1247829113547461e-001,
          1.5862793782753826e-001, -1.1279576741626513e-002,
          -1.9300586462146455e-001, -1.4738320305278247e+000,
          4.7009571041761578e-001, -6.9341955385759074e-002,
          1.7994305430607130e-001, -3.1281224552281994e-001,
          -6.2841945516117703e-001, -4.9450315063029215e-002,
          3.5933709086791416e-001, 1.3887260559020001e-001,
          1.0501829658284343e+000, 6.1028714176141208e-001,
          9.2748546711442581e-001, 2.4875537667138976e-002,
          7.1284264555433874e-001, -7.3075372735069133e-001,
          7.0660252030274229e-001, -5.0293802729930415e-001,
          1.3264845024641330e+000, -2.2156506135037662e-001,
          -2.0456313245612628e-001, -8.2733740710739156e-001,
          6.4826536140555613e-001, -5.1711564699971602e-001,
          -1.0211220106729217e+000, 1.9447235667450069e+000,
          -4.8074779707851090e-001, 6.5074624958221389e-002,
          9.7624149068814436e-001, -4.0765635109912146e-001,
          1.4503259003106983e+000, 5.2223417026820491e-002,
          4.0621312468793491e-001, -8.6828792663497453e-002,
          6.5445206910850162e-001, -4.0318083198316573e-001,
          -4.0652417730288831e-001, -4.4995210617717780e-002,
          -2.1174600177150030e-001, 2.8733156547686189e-001,
          -8.3054767075565514e-002, 6.5312608482228185e-001,
          8.8729429900130707e-001, 1.6769781375789866e-001,
          -8.7387074281478183e-001, -6.4933848185545329e-001,
          -1.0602062380794983e+000, 5.7674740476114740e-002,
          2.4377665036015411e-001, -2.1849818534185009e-001,
          -1.8261469388485596e-001, -6.1783444513388530e-001,
          -2.9069843261724211e+000, -2.9861800425424623e-001,
          4.6102167872157734e-001, 3.2544097429564034e-001,
          4.6901029441768061e-001, -4.4995279268404209e-001,
          3.4086954717855172e-001, -1.1796056583500145e-001,
          6.5926534592736141e-001, 5.2306934423216533e-001,
          -1.0043406447045788e+000, -2.1432730679088141e-001,
          -2.9031179970569154e-001, -3.3573241733367998e-001,
          -5.8700532399478356e-001, 9.5022613939660217e-001,
          7.9734720282210247e-001, 7.9140171275949700e-001,
          7.2882753470722395e-001, 7.4816226513400405e-002,
          -7.5817165990200774e-001, -4.8002822055577699e-003,
          -5.5011600979851943e-002, -9.0964491685838655e-001,
          -2.0657775414444010e-002, 1.7186078344380828e-001,
          5.2551036737878265e-001, 7.0779791145701998e-001,
          8.8753794523340501e-001, -8.7677295968298707e-001,
          1.0791024983083992e-001, -1.8446947290308410e-001,
          -1.0197022750167417e+000, 4.7078376657373733e-001,
          4.0558411525753701e-001, -5.0792164561180055e-002,
          5.3576030557891141e-001, 6.8074757072187164e-001,
          6.9122141358632794e-001, 4.0948616217474937e-001,
          -5.9743182495535341e-001, 3.0921346227872992e-001,
          3.2739551969446148e+000, -1.1918514320840680e-001,
          8.5205770325029281e-002, 3.2314171970515621e-001,
          -1.4924882923949156e-001, 5.6873989580404849e-001,
          7.6234495189312409e-003, -1.1675770903830088e-001,
          -1.8622672172600645e+000, -1.2330750984368651e-001,
          5.5074360190099703e-001, 5.7819499174370454e-003,
          2.8840979470315675e-001, 2.8595123227369917e-001,
          6.5008035093619654e-001, -1.0362605865663026e+000,
          2.6189667574094816e-001, -4.7585403238071350e-001,
          -4.8812148505581032e-001, 3.0171648745474228e-001,
          9.9911166624950043e-001, -6.6499992448054365e-002,
          6.1207424617090544e-001, 8.9664952895875061e-001,
          -1.2272533317060121e+000, -5.1962866101961869e-001,
          -4.7503687101611125e-001, 4.0523114033101293e-001,
          -3.6140811227300823e-001, 4.6561229550554445e-001,
          1.1348396103520311e-001, -5.2586550828666212e-001,
          7.0632921684509553e-001, -3.7955701125417696e-001,
          -4.3187061022648610e-001, -8.5006535828026819e-001,
          -5.4136079710004503e-001, -6.8457719310966958e-001,
          -7.2520605637168978e-001, -2.1530498701991321e-001,
          3.6555040725561858e-002, -5.4287392630756451e-002,
          -4.3903923276920684e+000, -4.0062572309510081e-001,
          2.6426718901515051e-001, 4.4259338040626350e-001,
          -1.3470247826699075e+000, 6.2408419967780182e-001,
          -4.2767416448738571e-001, -6.4966474558272702e-001,
          6.8664622604764594e-002, -7.0164375922487177e-001,
          7.9650448386138117e-001, -8.3573817845827325e-001,
          2.1699745190913469e-001, 8.2994598806442177e-001,
          1.0954614243385117e+000, 1.8564918447243297e+000,
          5.5295051461567157e-001, -5.1052088333053314e-001,
          1.7154062350376700e+000, -3.4483515114499258e-001,
          -9.3594485659292148e-001, 4.7483548033002415e-001,
          -1.1279627294537025e+000, -2.6946255656916335e-001,
          -7.3281262539232384e-001, -6.6747716747025776e-001,
          2.3838880049386726e-001, -1.1324781089213058e+000,
          -4.0392215354545985e-001, 4.5354018682780189e-001,
          1.8396259619596272e-001, 1.2824813635812977e+000,
          1.2278376636966240e-001, -7.5210845047676500e-001,
          -8.3917373062864442e-001, 1.0631936971762859e+000,
          -1.9836949885060612e-001, 9.0256525697117695e-001,
          2.0616390390374117e-001, 1.1315059082632853e-001,
          4.1404780421644932e-001, -6.5654787952024307e-001,
          2.2703172435508092e+000, 1.2697279701289435e-001,
          -1.1113174850257850e+000, -9.1041529172836244e-001,
          -5.5902444136324969e-001, 3.5979750401001004e-001,
          -1.2086963796815839e+000, -3.8873014874154588e-001,
          2.8717799390289869e-002, -1.2083375326489917e-001,
          9.7025260943224889e-002, -1.2842394436298490e+000,
          -7.6756749442129091e-001, -1.0601412544324118e+000,
          -1.6670500409017610e+000, 1.4191599292654979e+000,
          6.7882599747824868e-001, -1.5658466794467332e+000,
          1.3745825545596611e+000, -2.0850946035700839e+000,
          1.6866811004964793e-001, -1.3520062841898108e+000,
          7.9454529633883264e-001, -8.9298529763975609e-001,
          1.1778792114465635e+000, -1.4784393657993011e+000,
          -4.5441298387354190e-001, 7.6281078335480501e-001,
          1.1234486428302848e-001, -1.0764694954055687e+000,
          8.4315519138878649e-004, 2.7681606317843210e-001,
          4.0958243290298196e-001, 6.2725474696200589e-001,
          2.8969690440835927e-001, -6.9302164019042523e-001,
          1.3284652513328650e+000, 4.6149569125116008e+000,
          8.2812298805717310e-001, 1.3984249053360015e-001,
          9.0028621521653557e-002, 1.0657038748555948e-001,
          -9.7930966563151534e-002, 4.2811122087684272e-001,
          -3.7112236602353216e-001, 6.0010323351523898e-001,
          2.6451258225294799e-001, -1.1828708168202361e-001,
          2.8689166242173592e-001, -1.7549603963624438e-001,
          -1.8242090532305866e-001, -7.2556488967424748e-001,
          5.8114790678780859e-001, 6.5116267283481422e-001,
          -4.5163991606582993e-002, -1.6430434784486647e-001,
          -6.2395875079084928e-001, -2.7182069517796159e-001,
          9.8319442644057425e-002, -2.1139629185563086e-001,
          -1.7136385230044699e-002, 1.0997873442475814e+000,
          1.5947163522157587e-001, 3.1667077080201139e-001,
          2.4802523424890249e-001, -4.0892959040183652e-001,
          -9.8021157801379988e-001, -1.4973988140457833e-001,
          -1.5599470152674094e-001, 1.9158421989716748e-001,
          -8.6757285432119224e-001, 2.4124812875248267e-001,
          2.0436838438107183e-001, 4.2592448131257199e-001,
          -1.2503016884776672e-001, 8.0456980204747763e-001,
          -8.5247233522592350e-002, 8.9702465842362600e-001,
          -9.5935592402637093e-001, 2.2745045668920852e-001,
          3.9090409753536393e-002, -1.8439792294197956e-003,
          -1.7897570935915069e-001, -2.3392366040848198e-001,
          4.1255900526297357e-001, 1.0325355060609278e+000,
          -1.1069479567375420e+000, 6.9488691227723076e-001,
          -2.5732606082512161e-001, -1.2581319100771668e+000,
          1.1871698635186816e+000, -1.0777242986074480e+000,
          2.0063474239842621e-001, -2.6564356311300769e-001,
          -3.3666984377909166e-002, 2.9973720237501528e-001,
          -1.0455541791141393e-001, -1.1319324415601127e-001,
          -6.1015000646740869e-001, -1.6307234104815853e+000,
          4.1544683770133622e-001, 5.5370621929996078e-001,
          2.7149534211450910e-001, 1.9384391310649085e-001,
          1.3855219690098919e+000, 1.4864309861013770e-002,
          1.7936852365377623e-001, -9.3181076015398049e-003,
          6.3702196069946065e-002, -5.6656480516350430e-002,
          5.6273735543349557e-001, -6.0991832333837703e-001,
          8.2387796624719500e-001, 1.0013968279789212e-001,
          -3.8318300247985121e-001, 2.9076224466984185e-001,
          3.3982603553243268e-001, 7.2065828927655318e-001,
          1.1709773677331463e+000, -1.0448579201679666e+000,
          1.1127031769007076e+000, -1.4979103122773160e-001,
          1.8935756973858867e-001, -6.9006471614772968e-002,
          -3.9576313789947093e-001, 5.0005876861952281e-001,
          -1.6968155240460037e+000, 4.7702390463902866e-001,
          3.9953036130897124e-001, -3.7780713553273321e-001,
          4.9624096726197281e-001, -1.0167762333590964e-001,
          -5.7997191381207580e-001, 2.5553531553264930e-001,
          -8.0659183863898354e-001, 1.0686378429675233e-001,
          2.0690706539338197e-001, 8.9220226333927544e-001,
          6.9786009560330493e-003, -5.1287219699966049e-003,
          -2.6534935429545453e-001, -6.5241269385242773e-001,
          -9.1761198353145834e-002, 9.5985102041762721e-002,
          1.3142714567236047e-001, -5.9351874810244565e-001,
          5.5135527402617746e-001, 3.3799722527660636e-001,
          -2.5474659832531521e-001, -2.6666875594898820e-001,
          1.7142068268990732e-001, -1.0508736818576585e+000,
          -2.6451823713373684e-001, -1.0694413097357347e-001,
          -3.7405490814275036e-002, 3.1241351350984931e-001,
          7.6463662902760843e-001, -6.2633538591526916e-001,
          6.9749207979075789e-001, -3.0765758376503249e-001,
          3.7884659563375073e-001, 7.2643422346672981e-001,
          -2.3453540803112308e-001, 5.7821014364546286e-001,
          5.8755903709065826e-001, -2.8149413931738181e-002,
          -1.3638190114144946e-001, -5.7129757405925929e-001,
          -1.8603976331537656e-001, 4.7059159033196178e-002,
          1.8504652038708649e-001, -6.6608757318984035e-001,
          -1.7556586087336870e-001, 7.0204658103965023e-001,
          -2.2135741756101918e-001, -4.8090191175442126e-001,
          -2.7783798482284301e-002, 1.0685882540553548e+000,
          -1.0852985260197202e-001, -9.7605752294703607e-001,
          -4.1615955900025170e-001, -7.2389241258939407e-001,
          5.0465845048934171e-002, 5.9497504985679806e-001,
          -3.8150906620352015e-001, 2.8631432452732131e-001,
          -1.7787600272813872e-001, -6.8212542426975009e-001,
          5.0915637347762673e-002, -1.0116747710884644e-001,
          -9.4482322804207919e-001, 4.3142864266293046e-001,
          3.0402357266850782e-001, -1.2692823141392712e-001,
          -4.2432040045936004e-001, -5.5082345005754807e-001,
          5.9071489016644096e-001, 1.5561245661050310e-001,
          8.6771971483327687e-002, 6.2162900844630314e-003,
          3.3423305644995271e-001, -2.2948568021399873e-001,
          1.8425335755196462e-001, 3.5473229326380723e-001,
          7.1479184694981768e-001, 3.8187891490729187e-001,
          1.1667824564201350e+000, -1.4366253031674378e-001,
          1.9222956635044794e-001, -7.0130836980017286e-001,
          2.6340096782874109e+000, -3.5912889606930093e-001,
          2.4733001266180077e-001, -1.3871257365308576e+000,
          4.3352578191691371e-001, -5.7238440473118414e-002,
          1.0032725843466515e+000, -1.0560939330262269e+000,
          -4.1292334664919728e-001, 3.9538440012017402e-002,
          1.3705057402514755e+000, -1.7264639592978284e+000,
          1.2401080349673438e-001, -3.4679949765540763e-001,
          4.0489546111662650e-001, -2.1053555770816863e+000,
          5.5410097902822719e-001, -5.8239006205871535e-001,
          -2.8647202080950351e-001, 1.3928095626850737e-001,
          1.3427110621993457e+000, -3.6596527638148207e-001,
          1.6768147615108884e+000, -2.1174401648166105e-001,
          -7.1991135387987193e-001, 1.1439442099596013e+000,
          9.1826163492544813e-002, -1.7253495292936969e+000,
          1.5631768564542917e-001, -5.6457764306915603e-001,
          4.6088527783532690e-001, 4.4601685569605559e-001,
          -3.3435950759447153e-001, -2.5469874307712159e-001,
          7.0040258530453969e-001, 4.5841909578656907e-002,
          -5.8990050510044556e-001, 6.1686201480139491e-001,
          7.0841459666757878e-001, 1.4611223850667968e-001,
          -1.4245605531659963e-001, -2.8875899814329858e-001,
          -4.9465352244829832e+000, 8.7035479705327135e-001,
          -6.2655015290883354e-001, 1.2870607810310317e+000,
          2.5033182800918924e-001, 3.0818962497772945e-001,
          -2.1475252646126838e-001, -2.4335890794957635e-001,
          -1.1179537097140982e-001, 3.2862720258297068e-001,
          3.5220288084316725e-001, 8.3022634425406014e-002,
          1.6029770308582884e-002, 5.3023500916474253e-001,
          4.3916391988601416e-001, -1.7815784672412488e-001,
          -4.3115541538815605e-001, 1.2097230484499872e+000,
          -1.1161013435366049e-001, -5.6802639189638249e-001,
          -1.8428769883342211e+000, 4.6802465363990986e-001,
          -2.0496769477522774e+000, 3.3064116992268433e-001,
          2.0450412529105141e-001, -1.5558616357485013e+000,
          -4.5571726284074610e-001, 1.0344450519037556e+000,
          -3.4040397654823107e-001, 5.5183363148592446e-001,
          2.7559972277977834e-001, 1.0820543691592615e+000,
          -3.4431216032773843e-001, 3.2053281506268771e-001,
          -1.8327245002690543e-001, 5.2271880421934913e-001,
          5.3969266484636502e-001, 6.9207181276871399e-001,
          -9.7380877165571433e-001, 2.0762851421135700e-001,
          -2.9671429066975652e-001, 1.7866924619720026e-001,
          -7.9068295509252939e-001, 2.3599517420468850e+000,
          -8.4194083985582244e-002, -3.1144305161993651e+000,
          1.9192918786408615e+000, 1.5907977416789714e+000,
          1.7911224274067323e+000, 2.0641347595429012e+000,
          -1.0941299402775699e+000, -2.0302742407076630e+000,
          -4.5860862596150291e-002, 4.7595773057260521e-001,
          1.6614068051641875e+000, 9.7836631638854021e-001,
          -6.8501771643547604e-001, 1.0310980015920179e+000,
          -1.5389307470983078e+000, 1.6719828259184755e+000,
          3.6887693514955386e+000, 1.4512090218760336e+000,
          -1.3997633132537366e+000, 2.9175426746450670e+000,
          -2.4131399362788961e-001, 1.9883100758249662e-002,
          -6.2904302389048108e-002, 1.5946108499447751e+000,
          -2.4292766703598967e+000, -1.0573035911158264e+000,
          -4.9534247446917157e-001, -2.0170676375535224e+000,
          -3.0044883849029653e+000, -1.1274636280982525e-001,
          1.6318956407486374e+000, -6.6886575623367661e-001,
          4.3362696205249435e-001, 1.6750686101015305e-002,
          1.9840857145214976e+000, -9.4713337925898688e-001,
          4.3369317062622467e-002, -3.4489082922992402e+000,
          2.1369703503561799e+000, -2.7033310996997244e+000 ]
      - [ -5.3214494367027310e-001, -4.6472941430216236e-001,
          1.5328425030295664e-001, 5.5430066994128346e-001,
          4.6381562798270698e-001, -6.1498006840904673e-001,
          -7.7178804657853184e-001, 3.0463425451724169e-001,
          2.5917984747767836e-001, 4.0918275564435863e-001,
          9.5472402918548541e-002, -8.3998250788050155e-001,
          -5.1718786807085020e-002, -8.3027933470422066e-001,
          -1.6940365243850231e-001, 3.2919828622431313e-001,
          -4.4023521470982813e-001, 4.7739679736245738e-001,
          7.5338490637800004e-001, -2.3600837231455535e-001,
          6.3667261000365116e-001, -4.0510725298614286e-001,
          9.4807327390351714e-001, 5.7958755577057153e-001,
          6.8876359984675473e-001, 1.0043014826382175e+000,
          5.3248075906220338e-001, 4.9030363794843046e-001,
          -6.2602725343379129e-001, 3.1369826812670148e-001,
          1.8112073736244034e-002, 7.4388232643065644e-001,
          7.0258903809775997e-001, -1.5052153346486394e-001,
          -9.2007199284803998e-001, 8.4100242761003119e-001,
          -2.4937143260515782e-001, -6.6064439327517932e-001,
          -2.1797949523992502e-001, -1.3712316487628598e-001,
          -6.3392440363375407e-002, -1.3558209654964551e-001,
          -2.5937781600074045e-001, 2.6485991635752248e-001,
          -5.5185953786659803e-001, 3.8392335915616482e-001,
          -4.4711168760425857e-001, 6.0697061296706667e-001,
          -3.6712285384255194e-001, -8.4214852908045457e-001,
          -6.7658420428133048e-001, -1.6401623665834686e+000,
          -1.4111863262472939e+000, -5.8274660719657834e-001,
          -1.3125422185912599e+000, -5.2599216304270779e-001,
          -5.7927780795321826e-001, -1.4290958369106970e+000,
          2.6663111691276226e-001, -6.3969247438675658e-002,
          -8.8230506867103509e-001, 5.9208152663590374e-001,
          2.6758545943062723e-001, 3.5018813214636807e-001,
          -5.7170647496725824e-001, -9.3028188175213344e-001,
          -1.0142290074811255e+000, -4.5384586901636453e-001,
          1.7282007535602859e-001, 7.9163842226273251e-001,
          3.2781592453073655e-001, -2.4948943628941661e-001,
          -6.5430549818943873e-001, 1.4963733032375784e-001,
          4.4986531425745663e-001, -1.0632939656624922e+000,
          -2.8742706421905867e-001, -1.5927654732025036e+000,
          -1.4518289208319133e+000, 1.3056794206065206e-001,
          -6.9412388548447612e-001, -8.1380914253100650e-003,
          -1.0086795149335148e-001, -6.0290954623372328e-001,
          2.4705351178871723e-001, 1.0570688120484568e+000,
          1.3190554131679966e-001, 5.7158155694940571e-001,
          -7.2473963659822616e-001, -3.8544609058775137e-001,
          1.5095112986464204e-001, 5.9993887105474719e-001,
          1.3098775937369491e+000, 6.7600879786776469e-001,
          1.5151137595304845e-001, 1.1862073016928723e-001,
          -7.4757442912283112e-001, -4.8298402640563370e-001,
          -2.7459164928707556e-002, 2.2530475463646685e-001,
          8.9654738152398250e-001, -2.8031987584597590e-002,
          5.4651395080071508e-001, -4.9557595015271788e-001,
          -4.8263568420556202e-001, -3.2468537306099549e-001,
          -6.8759689320838480e-001, 9.2315008118034658e-001,
          -6.9590457517427695e-001, -3.2699458835183222e-002,
          8.1802966335485150e-001, -8.5476380827480747e-001,
          -8.6273784626436778e-001, -3.4126755606495673e-001,
          -4.4744498816729517e-001, -1.3551940293910716e+000,
          -5.8700448549939965e-001, 5.1149124000872803e-001,
          -3.4997141001687770e-001, 7.1326433692066304e-001,
          -9.3443092764624669e-001, -3.3119398284062973e-001,
          -8.3253341291829475e-001, -3.4008489440695333e-001,
          -2.3508855787549698e-001, 7.5221421935269095e-001,
          1.4256155312738956e+000, -6.7438121588172562e-001,
          2.0386249330249790e+000, 1.1895783472175103e+000,
          1.0487788306759780e+000, -9.5716109258227572e-002,
          8.5597483273642305e-001, 1.1928101737514920e+000,
          1.1797454508401373e+000, 3.9633419691026706e-001,
          1.3965610410652979e-001, 2.4459632180390387e+000,
          1.2221498528438685e-001, 4.9221773756479592e-001,
          -3.1710216939485440e-002, 4.1667030851682968e-002,
          3.1188455403963039e-001, 9.0227290177741604e-001,
          7.7661113866697398e-002, 1.2565178351853139e+000,
          1.7852697530459161e-001, 6.3757367110049024e-001,
          1.4317625749195841e+000, 5.6549423233048124e-001,
          4.6375229139165036e-001, -3.1415999140165057e-001,
          1.1473620004953355e+000, -3.2070993964600619e-001,
          1.2660209052210660e+000, 1.3079473466934457e+000,
          -2.4739910019044331e-001, 3.5876053455249679e-001,
          -4.7073527487120054e-001, 5.4337733086783724e-001,
          1.1759526966946741e+000, -5.1761607966405265e-001,
          2.7813395320458473e-001, -6.3009615506439909e-001,
          -1.7077907004885282e-001, 2.4116404353288109e-001,
          9.3859146353210243e-001, 9.1598911306476805e-001,
          6.5541324604405304e-001, 4.9801715544700875e-001,
          -9.1654765769911550e-001, -1.0614529979016125e+000,
          -4.5445648328579169e-001, -5.9557694222510349e-001,
          -2.7371252673207502e-001, -1.1874694130308285e+000,
          5.3908115257442779e-001, -1.0197387465982630e+000,
          -7.0887150101210183e-001, -1.0938674090618814e+000,
          7.2059079945886961e-001, 9.0480504250377647e-001,
          2.3378230169464265e-001, -6.9076565810176760e-001,
          -9.1454531041139250e-002, 6.3800551613450096e-001,
          2.9164268832543555e-001, 6.4582644851980986e-001,
          -1.6329197148283081e-001, 8.6163715127661711e-001,
          -4.3983274349126283e-001, -9.6624187245397919e-001,
          -5.4595257314748002e-001, -3.6604759306305268e-001,
          4.3218128277331053e-001, -8.4646413901884821e-001,
          -1.3560895145964862e+000, -1.8158943174761357e+000,
          8.6472712582331607e-002, 4.4371117337942140e-001,
          -5.4312173257975160e-001, 2.1367946728828069e-001,
          -1.8141141883115186e-001, -3.8500281404838094e-001,
          -2.3085510050622865e-001, -2.8829082316301724e-001,
          -1.0435692547549953e+000, -5.9985816508939971e-001,
          -4.1821851148504868e-001, -7.6719984082773707e-001,
          3.1714448856418986e-001, -4.0922016091130881e-001,
          -9.9040666206964545e-001, -7.0072682710430223e-001,
          -1.5791267717078152e+000, -3.0509688214874303e-001,
          4.1400755997097344e-001, 8.6546334911684342e-001,
          1.1617191659544746e+000, 4.0846274634172469e-001,
          6.4896694489671125e-001, 4.8195613981764779e-001,
          -1.2813941805524209e-001, 7.9028566047049120e-001,
          -1.4846295956083788e-001, -2.2069174501902356e-001,
          -1.0481146471094434e+000, 6.7229788997422102e-001,
          1.1426821921615309e-001, 1.8216743276858391e-001,
          -7.6194058520728070e-001, -4.9827314479378654e-001,
          8.0421715323812315e-001, -6.2423895099486082e-001,
          -7.0176490308030148e-001, 6.1551869203167608e-001,
          -1.5426992115281113e-001, -4.1906720227742578e-001,
          -5.0395171988107679e-001, -4.1255278563954173e-001,
          -7.1280274277269928e-001, -2.8025567829087294e-001,
          8.0684118657624149e-001, -3.3372716610856545e-001,
          -8.7715512143027519e-001, 2.1801260488407520e-001,
          -2.9368918369035429e-001, -8.7690587564117706e-001,
          -8.4991324655494038e-001, -1.4263015671031560e+000,
          -1.3529826712610289e+000, -5.0849669776647732e-001,
          -5.8686944748936298e-001, -1.2910313194715541e+000,
          -1.2356698204838915e-001, -1.0687427061046721e+000,
          -2.5030048936240007e-001, 8.7812121748172489e-001,
          1.6243866560489748e-001, -8.2876123189316830e-001,
          4.2048367461021224e-001, -4.0952583175013413e-001,
          -4.6203158669809768e-001, -1.6862869034079420e+000,
          4.3544631358038666e-001, -2.0586597417521676e-001,
          -1.1499491885096742e+000, -5.5992546165571777e-001,
          -5.8335990562908557e-001, 9.6290511174518090e-001,
          -4.6115559751355323e-001, -5.2054278226953887e-001,
          8.3789827749038925e-002, -7.1253555435234839e-001,
          -6.6519615914301367e-001, 3.2576116305986162e-002,
          -1.9351214027804606e+000, -8.6122153060277040e-002,
          3.4257800698014645e-001, 7.6197569549405575e-001,
          -1.5517971411046863e-001, 1.7606216544077583e-001,
          -2.8357557452919169e-001, 1.8502953912033571e-001,
          -4.6650328028451073e-002, -4.7924015667273634e-001,
          4.2822649596148267e-002, -7.2538252973826711e-001,
          -2.5232033431869311e-001, 4.1932998270468391e-001,
          -1.0324519182332639e+000, 7.2282546068019038e-001,
          -1.8730360192239734e-001, -7.6749814912679251e-002,
          4.8157794379692515e-001, 3.2175705903241913e-001,
          -1.4913219517753213e+000, 6.2143298406718539e-001,
          1.4614602819512448e-001, 6.3144816931251380e-001,
          -8.1191976305689395e-001, -1.0047742158070476e+000,
          -1.5742279757665629e+000, -1.5221271988222304e-001,
          1.8222800895192437e-001, 3.1788073777635939e-001,
          -7.7793049446525975e-001, -2.3092926307441991e-001,
          -9.1747810515884753e-001, 1.1154517896560778e+000,
          -2.0493889015533343e-001, 3.1796602123101503e-001,
          -1.2943856436573118e+000, -1.7202491056170283e-001,
          1.5435698137740567e-001, -8.5510753147162133e-001,
          5.8295280892656465e-001, -1.0133117893046586e+000,
          -2.1208115636635480e-001, -1.0372128368549696e+000,
          -1.1628142233810371e-001, -2.4839183605872944e-001,
          -1.3905662023076477e-002, -8.9326847047680547e-001,
          -5.7957325580862018e-001, 8.5867669378626332e-001,
          7.3482727894412181e-001, -1.0939169424074633e+000,
          -9.8190277882604671e-001, 3.8059338406668308e-001,
          -8.0250576680943819e-001, -2.3633704286828569e-001,
          -1.3103770514209734e-001, 3.0424748249788319e-001,
          -1.2281062027332810e+000, 5.2240225427168319e-001,
          -5.1368434973205024e-001, 1.1223927390554014e+000,
          -4.1245020707638486e-001, 3.9463064259306552e-001,
          4.6654433976014270e-001, 8.7595437718114300e-001,
          -9.8264413568020326e-001, -3.1843614754347971e-001,
          2.6096746778497704e-001, 1.6105428555019013e-001,
          -1.0210344372302825e-001, -8.0356954698082106e-001,
          -4.6215448039522294e-001, -1.1063417731763658e-001,
          -5.0695561815123169e-001, -1.5012448254578822e-001,
          6.3331961043622731e-001, 3.1140715648097078e-001,
          1.0508587151197430e+000, 8.8298542575515782e-001,
          -3.5315347913032685e-001, -6.1682858607366675e-001,
          -3.0303189590465973e-001, 1.9512056244707781e+000,
          -4.3750480214231990e-001, 1.0335826215881134e+000,
          -3.0255583014984533e-001, 8.4587788226402427e-001,
          -2.6149430582617134e-001, -9.9189159942905392e-002,
          -7.6296093637555074e-001, 5.7196762923743094e-001,
          1.0549557356516364e+000, 9.4995242284201664e-001,
          -2.0057418370450775e-001, -3.2301759146854880e-001,
          -2.3036130496947591e-001, 6.5797368202948375e-002,
          1.0155325894172680e+000, 2.0617310698425512e-001,
          4.7230128605780675e-001, 6.1303496259354340e-001,
          5.7741266775123634e-001, 8.8222985412313548e-001,
          -3.4128330062995466e-001, 7.7633957191737657e-001,
          -3.8715633904034136e-001, 1.6628578628262475e-001,
          -2.0580502530113981e-001, 1.2286638854182108e+000,
          -2.3364130179584530e-001, 1.3356173182695827e-001,
          6.4779041342142829e-001, 8.6646551886440404e-001,
          1.6356179147728689e-001, 1.0776716744927829e-001,
          9.3699122037032068e-001, 1.5522820921574207e+000,
          4.6174591798014325e-001, -3.3524363794387591e-001,
          -5.0676551544112192e-001, 1.3410587999948314e+000,
          1.3753399926129379e+000, 1.3375351056033764e+000,
          -2.4748234460562205e-001, -3.3986892097831026e-002,
          1.6479119831177513e-001, -2.3120183556871299e-001,
          8.9361556718044843e-001, 1.1276589748435373e+000,
          -7.6931862490612268e-001, -1.0606046834391956e+000,
          7.1612027626285268e-001, 1.2712938251161796e+000,
          7.1095896625208976e-001, -2.7629992503504885e-001,
          7.6499347426639130e-001, -7.7310125694571408e-001,
          1.5302745707000220e-001, 3.9288036277695830e-002,
          -2.8628460751221529e-001, -3.5859617129543703e-001,
          3.1578076569651148e-001, 1.0663998177052056e+000,
          6.4949111510264379e-001, -6.2570668611211588e-001,
          -2.1276261180662845e-001, 9.3279471985877965e-002,
          -4.8818738983085939e-002, 7.1235162863423429e-001,
          2.6126192496496825e-001, 7.1692822588852612e-001,
          3.3324471829745145e-001, 8.3352185369433607e-001,
          3.4764875483092628e-001, -5.9199478183328402e-001,
          -7.1316144436208195e-001, 5.5838199988319814e-001,
          9.2492370996866247e-002, -7.2080493209164709e-001,
          9.6229696153748123e-001, 8.8491341183715033e-001,
          -3.8381817111983796e-001, -8.5804049978502006e-001,
          -6.7822144673201856e-002, 6.8654051411216732e-001,
          -2.2365521662665205e-001, -3.4602484048917420e-001,
          1.4845886022647511e-001, -8.4221445580484694e-002,
          -5.4132976276010103e-001, 9.7863803175686326e-001,
          -7.6488854885820956e-001, -3.9500596920049480e-001,
          -2.0802038612638951e-001, -1.9971521505308926e-001,
          -8.0044388147085233e-001, -8.9688550028342762e-001,
          1.7761058222150802e-001, -4.6350560038951816e-001,
          9.9387804595370011e-001, 1.0223896562140917e+000,
          6.0807552089668715e-001, 4.3850688310917607e-001,
          -5.3282540781652099e-001, 5.8371423328658856e-002,
          -3.3828320957433738e-002, -6.7821910314860068e-002,
          -5.8046209923709824e-001, 1.2040074714886460e+000,
          2.5661128162801827e-001, -7.6403173922852952e-001,
          -5.4000254066255815e-001, -9.6711335455293501e-001,
          5.1793579360149067e-001, -9.0570739112740439e-001,
          -8.1458680338494471e-001, 1.3813075399358796e-001,
          7.9141145122535228e-002, 2.1086562996135103e-001,
          3.9459537179354048e-001, -8.1943476259648007e-001,
          4.3858111156157853e-001, -1.2168795846480562e+000,
          5.8230787869670075e-001, -2.2321609405587389e-001,
          7.6874552153625475e-001, -1.1207311040786476e+000,
          9.8800804108594320e-002, -4.6826869604122912e-001,
          -9.3528077010961819e-001, 1.0705125139126601e+000,
          6.7706651742026436e-001, 5.0554221755705420e-001,
          8.4546148004129018e-001, -1.3071622652927875e-001,
          2.4628291266088823e-001, -7.0118013941178101e-002,
          -4.8941788553999332e-001, -1.1356910678083532e+000,
          2.0432782366095173e-001, -2.6071838798500652e-001,
          6.8285717065888196e-001, -1.7059527848393008e-001,
          -5.9618205996570264e-002, 1.3157230229634648e-001,
          3.5173033373167750e-001, 3.5311085615432969e-001,
          9.6764885388079847e-001, -2.5836153383475413e-001,
          4.1341147567740821e-002, -1.0114121585006861e+000,
          -2.8798428344222804e-001, 5.0875710873584779e-001,
          -9.1391107794145687e-001, -6.7758366144498511e-002,
          2.8386950595767757e-001, -1.8696168530573007e-001,
          -6.1572537587248199e-001, 5.9634555877355544e-001,
          -3.3036011731996712e-001, -1.3858823486846576e-002,
          -7.4204963634739773e-001, -6.8377439677378715e-001,
          6.1360168480035693e-001, -7.1349569271369928e-001,
          -3.9891224955219745e-001, 1.6918948815828069e-001,
          1.8087482062498228e-001, -4.9687772543371106e-001,
          -4.1763332169401157e-001, 5.5372444139724519e-001,
          5.5238623386829155e-001, -1.0107246742199947e+000,
          -7.2583894170852981e-001, -1.1921188843078296e+000,
          9.6326884425921133e-002, 3.4268303939609074e-001,
          -1.3474384354097260e+000, -4.6621450984244145e-001,
          -2.4979399363871996e-001, -7.2695596660400333e-002,
          -5.6281799835737494e-002, -7.8003547162870301e-001,
          9.0840790519067161e-001, -1.1314774366196649e+000,
          -5.9644903602065724e-001, 3.6281308420684100e-001,
          -7.3683937023514856e-001, 6.1018956983926044e-002,
          -1.0134726661746074e+000, -9.3372885533469541e-001,
          2.1651141709817442e-001, 1.6090515634943833e-001,
          6.0627393052307477e-001, -1.6713705038150872e-001,
          -8.6698765875328054e-001, -4.4433400524197503e-001,
          -6.2368475959942649e-001, 5.1183131573643625e-002,
          5.3073824970169114e-001, -1.6668849116059314e-001,
          -7.1362312603125500e-001, 9.9770858640121696e-001,
          4.4963955392650995e-001, -1.0796054922390830e+000,
          3.3673431904900908e-001, -8.6031684804180608e-002,
          3.3068562557954551e-001, 3.1178527536528461e-001,
          -5.0729741426306540e-001, -4.7948475704187599e-001,
          7.4306689621360700e-001, -1.0883300632712587e+000,
          -2.4893439449232294e-001, -7.4801363224198625e-001,
          -4.7880604515973729e-001, -1.0759016419894733e-001,
          8.8185551429660125e-001, -6.8511321639803557e-001,
          -1.3151370297520235e-001, -5.3292812690501246e-001,
          -1.0104940058350109e+000, 1.4334517215483406e-001,
          -7.1324414578103068e-001, -1.2686548557967578e-001,
          1.0044327566610711e+000, 3.6664127178247191e-001,
          5.6703683357064327e-001, 3.6702336763192900e-001,
          -9.6592976880090664e-001, 4.2932525523054521e-001,
          -1.1129860058003695e-001, -7.9034344241872181e-002,
          4.3744977396406992e-001, -1.8185440013482890e-001,
          8.7690406255342002e-001, 1.2816260092136889e+000,
          -8.9906055680695129e-001, 1.3139997698816083e-001,
          1.4281916788065310e+000, 2.0933507298996551e-001,
          8.9028577151576838e-001, 1.3264516190343592e+000,
          6.5100405153107488e-001, 5.8067571424938313e-001,
          7.6187743298315291e-001, 2.1472638954775403e-001,
          -3.6776614576776956e-001, 1.2234783603892609e+000,
          -4.2077051206654611e-003, 9.4145008388887053e-001,
          5.6588011526706450e-001, -7.8406098223777265e-001,
          -1.5528539680683903e-001, -1.2852195030986768e+000,
          -1.0454572277225889e+000, -8.2731162688832682e-002,
          2.4567763483834215e-001, -3.5806270872188573e-001,
          9.7160664106489636e-001, 8.1410549755488593e-001,
          6.3876393041078972e-001, 9.8949111829638381e-001,
          -1.0516930468479486e-001, -3.0287212466801361e-001,
          1.3219773464323145e-001, 4.5960154874310394e-001,
          1.6794194808904150e+000, 2.7260895073182582e-002,
          -4.5342911233040467e-001, -7.8674762799386921e-001,
          -4.5683717928417789e-001, -2.6241379071890464e-001,
          8.6894251898621988e-001, -2.4426965453625554e-001,
          -6.2187319695036525e-001, 5.4804375414064278e-002,
          8.1867047607688281e-001, -5.5682956231721292e-001,
          1.2183956293795337e+000, 9.1058478784929131e-001,
          -1.0639956395022245e+000, -9.1075070527974888e-001,
          4.8691081480560769e-002, -1.4513795321130560e-001,
          -3.3526921484121996e-001, 3.0561007177054395e-001,
          -4.8657138650708415e-001, 1.4481250559957310e+000,
          -3.7552507819607206e-001, 9.9867631886977157e-002,
          -8.6813122537030374e-001, 5.0619523958560231e-001,
          -9.0687252392641582e-001, -3.0372182321658242e-001,
          -4.4356760200585610e-001, 1.5360576591248931e+000,
          3.4997192981023600e-001, 8.7915003374525036e-001,
          -1.9014630853460026e+000, -3.1187092887544211e-002,
          -2.9814808945065552e-001, -9.6313519595772312e-001,
          -7.1863343797914647e-001, -2.5372202847722991e-001,
          -6.0505766843823683e-001, -6.7676440365827506e-001,
          1.1821977455926642e+000, -1.4971233382422493e+000,
          -1.7770235396303757e-001, -4.3004199464137011e-001,
          -3.1215358200394408e-002, -8.9607017631849351e-001,
          3.9122222258715977e-001, 4.5536314176418707e-001,
          -3.1643398368983511e-001, 5.5607590060499201e-002,
          6.0738403408241237e-001, -1.2467856421858065e-001,
          1.1716131723503773e+000, 6.3011185485507687e-002,
          -6.0501402582218822e-001, 9.4782657764472533e-001,
          7.0346311948774853e-001, -7.2258059624620263e-001,
          8.8260099147108295e-001, -3.4553918204953550e-002,
          -2.9154321240026593e-001, 1.3401360768437571e+000,
          -6.1056781513110803e-001, -5.2228429681898371e-002,
          8.6737618884449891e-002, 7.1259827218171212e-001,
          -1.7351489003765880e-001, 5.7187263497364538e-001,
          3.4986631714237848e-001, -1.8186812418547785e-001,
          8.5697274117575195e-001, 3.8871575337843906e-001,
          4.9581833794161090e-001, 1.0201489082508146e+000,
          -7.4331915641243418e-002, 8.4655706240002560e-001,
          7.8539665349952625e-001, 1.1959259746710447e+000,
          -5.1114029803007421e-001, 8.2406912283084888e-001,
          -4.0785578124867483e-001, 3.5650570335973011e-003,
          -6.5343039835314282e-002, 7.3238929860324831e-001,
          -1.6603050504373679e-001, 7.0633045054419433e-002,
          -4.6549383040250331e-001, 7.9861525783555576e-001,
          1.1871017208260982e-001, 4.4907080972515451e-001,
          -5.9343601821132008e-001, -4.3148331449706140e-001,
          7.3577477973172975e-002, 2.5346815500878506e-001,
          6.8887940643526328e-003, 7.3954920217813247e-001,
          -1.2938571807134749e+000, 4.4972985105403301e-001,
          -8.9229481180303982e-001, 1.7315591908172959e-001,
          -1.3933472290853750e+000, 9.3500307068185518e-002,
          -8.7719959940240799e-001, 6.2223973090819740e-001,
          -1.0385434244305152e+000, -6.7632891648824323e-001,
          7.9164399561388252e-002, 2.1657768288370433e-001,
          7.0925170917555647e-001, -1.2545120091325246e+000,
          -7.4878996304107848e-001, -3.4481466089633922e-001,
          1.5194792491397560e-001, -4.6079665160381705e-001,
          -1.5337692971220409e+000, -9.4926048246813455e-001,
          -6.5455650291869366e-002, 2.6575192823699345e-001,
          3.2865895115590626e-001, -8.6608751814579565e-001,
          4.3492870216912333e-001, -3.6674665865361145e-001,
          1.3416872188458220e-001, 2.7495234803571950e-001,
          4.3435646323426308e-001, -9.6165582381298975e-001,
          -9.2480798141935816e-001, -7.4336533948004757e-001,
          -1.4120350273835796e+000, 5.9056278350169411e-001,
          4.0661838867702377e-001, 5.9297128631422613e-001,
          -1.1064181181151347e+000, -1.0125980837133131e+000,
          -3.5792823861274921e-002, -8.4398579426939158e-001,
          -4.9138792806516668e-001, -9.1210272372046264e-001,
          -8.4683404152369746e-001, -1.4852303042132339e-001,
          -5.0260313992341521e-001, -1.7291549102903396e+000,
          3.6149498522801149e-001, 2.9848472414022226e-001,
          -1.3666802232248518e+000, 8.9386575365871246e-002,
          -1.0739457090419451e+000, -5.8020270400378560e-001,
          -1.0025062908205414e-001, -3.5098070903989359e-001,
          -1.4896295609851353e+000, -1.1899165445833697e+000,
          -1.0170443298509291e+000, -1.0443351208304288e+000,
          -1.8725046244680768e+000, 2.6580448597932682e-001,
          -6.1421606221162821e-002, 3.4769812050547738e-001,
          -2.0149102662989651e+000, -9.0587838545746291e-001,
          -7.9060883824833295e-001, 9.8062133913415728e-002,
          -1.0113931681460204e+000, -1.1934344252546909e+000,
          -1.0156112422958716e+000, -7.7823247012994334e-001,
          -7.7859082295444815e-001, -6.5670787596854269e-002,
          -8.0646581618182001e-001, -1.1728825440681967e-001,
          3.0213023098769283e-002, -7.7537879650359909e-001,
          -3.4854494095460697e-001, 3.7603835887866810e-001,
          2.9254417929762994e-001, -1.2904446403226959e+000,
          -2.5100190810123746e-001, -9.9278330379659729e-001,
          7.0749349305600262e-001, -4.4139578231391435e-001,
          -1.0642792872927065e+000, 3.7052986239491159e-001,
          2.5397913931210020e-001, 5.4628784497414429e-001,
          6.3135714089374984e-001, -1.9165364389501163e-001,
          4.7315562300848463e-002, 4.8789345011012403e-001,
          5.2722912735233596e-001, -4.3531717631615158e-001,
          -1.2482075486543873e+000, -2.6964882961200687e-001,
          -2.3950836031195838e-001, -1.1602167439946145e+000,
          3.1943434705673507e-001, -6.4819508132803305e-001,
          2.7591817706280486e-001, -8.7889957068930091e-001,
          -1.2627936016298849e+000, 5.4651452681237511e-001,
          -4.1358783181877201e-001, -2.9468667453359160e-001,
          5.4933856054689112e-001, -1.0570617726019060e+000,
          -8.4162577057249599e-001, 6.7120168358997101e-001,
          2.5958939583205890e-002, -8.8301803362702247e-001,
          -4.4233577814049874e-001, 8.1419135154893185e-001,
          -7.8443778217851112e-001, 8.5553084219810716e-001,
          -5.7964780294885432e-001, -3.0139741761559546e-001,
          -1.3262360160423420e-001, -1.2223260723736569e-001,
          1.5989927460430726e-002, -7.2916619715522302e-001,
          -6.9236787570741143e-002, 1.3009266132406814e+000,
          -8.1646892884019839e-001, 1.0287875462314075e-001,
          8.3126471269449398e-001, -4.1474994535401088e-001,
          3.3523907586288393e-001, -5.5880201105603422e-001,
          1.8474132341697298e+000, -6.6738559913668727e-001,
          4.1821044629168547e-001, 9.1262620806625483e-001,
          3.9149513100687339e-001, -4.5096027519861565e-001,
          8.9237796838937566e-001, -7.0956056180733917e-001,
          7.5366141102431161e-001, -1.0442068523877990e-001,
          2.3912838831144709e-001, 6.6023972666430575e-001,
          -2.1708549322214409e-002, 1.3200264472763099e+000,
          9.0227633333617030e-001, -5.5572879247911866e-001,
          8.9474404600505586e-001, -7.0706534754501826e-001,
          8.0388304481170583e-002, 1.0187977792133303e+000,
          -1.8393735274488890e-001, 7.2242739273226508e-001,
          4.3972115984790755e-001, -7.2889713497469047e-002,
          8.0648857664878582e-001, -8.0508350208269819e-001,
          -7.0875857053753033e-001, 1.1972354790105346e+000,
          5.9790713496496739e-001, 1.3786314592291224e+000,
          1.4180884202163457e-001, 5.5013699049832232e-001,
          -1.1278601329589886e+000, 2.5532850636964566e-001,
          8.4667605842416074e-002, -2.0319254190777544e-001,
          -1.1787743565767816e+000, -1.0886665114968794e+000,
          -1.0314501451324452e+000, 5.0136342102117992e-001,
          4.1763155796653836e-002, -9.3328534012898506e-002,
          2.5622242302467801e-001, 4.6261047226298417e-002,
          -2.0761439177627661e-001, -6.9824303955837419e-001,
          -3.0463188855347267e-001, -1.1643845483031281e+000,
          -5.3109673722150075e-001, -8.4138220354471868e-002,
          -1.1629379924883010e+000, -6.6861392534734210e-001,
          1.1833841539886636e-001, -1.5113773852058714e+000,
          8.8690869323277077e-002, -7.3027132775050962e-001,
          -2.0066435775466993e+000, -1.0827159080722506e+000,
          2.0983705837147032e-001, -1.1541132584484470e+000,
          -5.7494748567995035e-001, -1.1926728727358431e+000,
          -9.7716902107646619e-001, 3.1234003443219355e-001,
          -4.2546295960282021e-001, -3.3673973569986700e-002,
          -6.5727881306221425e-001, -1.1533475013464722e+000,
          -8.8379907080210274e-001, -6.5526646149113477e-001,
          -1.4138986676678924e+000, -4.4215657184809165e-001,
          -1.1568098450223232e+000, -8.1836232031080125e-001,
          5.0530828889707002e-001, -8.9404621039414212e-001,
          -9.3249388049385262e-002, -4.4968757832026912e-001,
          -4.1760131318100269e-001, -1.8441739647201974e-001,
          1.1249029608437926e+000, -7.6684343226814222e-001,
          -3.2526814561664105e-003, 1.9611889120729359e-001,
          1.6789438742452976e+000, -1.3571655575300452e+000,
          -1.0420232949641655e+000, -7.0326842773120934e-001,
          9.3709219971168767e-001, -5.8923732266585416e-001,
          -3.9685880429178827e-001, 2.6646746590253734e-001,
          -8.0307860600262337e-001, -2.9766780059926257e-001,
          5.0778243337229734e-001, 6.9679081047397173e-001,
          -3.7568354902381529e-001, -7.0597494757899837e-001,
          -3.7928727409885077e-001, -5.8747312241978156e-001,
          3.6965307131080438e-001, 7.8749046263625877e-001,
          1.1220601761240834e+000, -4.5691923096075171e-001,
          1.5828764424603944e-002, 1.8274928376047489e-001,
          -1.4170672137202528e-001, -8.8925680004798036e-001,
          1.0026818058355214e+000, 7.0516531021134043e-001,
          3.1001160603616673e-001, 2.8829283661650451e-001,
          -9.2792504177640733e-001, 5.4490939142005435e-001,
          8.0474489190301834e-001, 6.5103083475539192e-001,
          7.2760236812193557e-001, -7.5311199663099085e-002,
          4.6609940655914361e-001, 2.2615992956488324e-002,
          7.6555670736588211e-001, -1.0618907852259696e+000,
          4.3943105113008984e-001, 7.6505101549238896e-001,
          -5.6256014150840938e-001, 1.7201723112186135e-001,
          1.9876017983333097e-001, 6.8106714502583754e-001,
          -9.0034151044934208e-001, 3.0139609935974604e-001,
          7.0937012424033508e-001, -1.2135278665414723e-001,
          5.1939413232066034e-001, -9.7204383686222240e-001,
          -5.3529135049376064e-001, 9.9324774568880461e-002,
          3.8845699810217599e-001, 2.4274711779828886e-001,
          3.0103209300116074e-001, -1.3281817265986164e+000,
          -2.4086316353871878e-001, -3.5238397193997806e-001,
          1.5132050177157721e+000, 9.3265915107206554e-001,
          7.9790624414312261e-001, 3.9504600137562018e-001,
          2.2249815193979502e-001, 7.3593865593854890e-001,
          -8.3577419449731272e-001, -4.4340639887285632e-001,
          7.0993899390461146e-001, -7.2571407538035859e-001,
          -1.1756826348630753e+000, -8.7542483343193378e-001,
          6.6204680136901783e-001, -1.9008516535154299e-001,
          -1.2552375845675741e+000, -9.4999635152795026e-001,
          1.1887428465573412e-001, 1.2623863814393652e+000,
          -1.7097181332577929e-001, 9.0086999714818483e-002,
          5.9713620961726521e-001, 1.2465255850210817e-001,
          6.2890529896557001e-001, -4.9668295956083702e-001,
          -1.2342762061237831e+000, 8.5240585051512607e-001,
          -1.4567474995213203e+000, -3.1750681932364622e-001,
          -1.0307431735413952e+000, -4.2971707543191567e-001,
          4.3596108292647284e-001, -3.8051400180594019e-001,
          4.6075918022267570e-001, 9.2158736214907888e-001,
          5.7849949585490423e-001, 4.9933961726610426e-001,
          -1.1077508839105181e-001, -8.0464880802411443e-001,
          -4.3106066490650935e-001, 2.5935235073945312e-001,
          2.9820975621978352e-001, -6.0909190502195654e-001,
          4.6130309454972673e-001, -5.7049048431685101e-001,
          1.0695837713910350e+000, 1.2561289241692180e+000,
          2.3172768700678006e-001, -6.4235821975940566e-001,
          6.9821109869818787e-001, -7.2426248878030441e-001,
          -7.0598580164857272e-001, -3.9383180480895941e-001,
          8.3904167781654948e-001, 8.1264426652334343e-001,
          -1.0937054508918378e-001, -1.5320600182192048e-001,
          5.4213857731188941e-001, -9.9421347718071862e-001,
          8.1836734068581107e-001, -2.5844492673261305e-001,
          -4.4646422367244926e-001, 6.0526706818231601e-001,
          6.9054784394558821e-001, 2.6026807288966963e-001,
          -9.3388583351056886e-001, -1.0520438004661878e+000,
          -4.0369758001525369e-001, -4.0285335990389104e-001,
          5.2198227752580040e-001, -1.3203415176783146e+000,
          2.0736577459584085e-002, -4.0777763284068846e-001,
          -6.8564697283597109e-001, -3.4641473987435397e-005,
          -1.0817924622266875e+000, 5.0802080900458502e-001,
          9.7386799017069658e-001, -7.5593830641239690e-001,
          -1.1234283442424435e+000, 2.3317978842596793e-001,
          -3.6129212431905033e-001, 7.8472025787605382e-001,
          -1.7902685646351428e+000, 1.7403079576010408e-001,
          9.5634297018881065e-001, 1.0031809301504295e+000,
          -5.0751615636121447e-003, 6.6603397313986779e-001,
          -1.3945724748194075e+000, -5.8844832591708425e-002,
          -1.9546421702664546e-001, 7.6655496029943315e-001,
          -9.7040770903181028e-002, 2.5340397413929411e-001,
          -8.9167662867077657e-001, -1.1381506854007084e+000,
          -2.9597314248237755e-001, -2.7677912759825768e-001,
          4.7274804423115552e-001, -3.1906554722427793e-001,
          3.5892774230254482e-001, 1.0738370059407332e+000,
          -4.8233403453514734e-001, 3.5683649707585380e-001,
          6.7341176510832168e-001, -4.6003253589006671e-001,
          1.6863079912120277e-001, 8.8032198229122760e-001,
          4.4444847107545926e-001, 9.5023065157521736e-001,
          3.9798287863886295e-001, 1.0488055541096299e+000,
          1.1724173553680666e+000, -4.0925115832078718e-001,
          6.8598853053526521e-001, -5.3340441042968512e-001,
          -6.2389749450060505e-001, 9.4650285881990892e-001,
          8.2011924214806464e-001, -4.7870376789645502e-001,
          6.9710241564282549e-001, 1.8016382844456705e-001,
          2.8295804052458440e-001, -4.4254497381275054e-001,
          1.0480392226020934e+000, 8.1080189102719236e-001,
          4.8754626145570912e-001, -6.1561449920125333e-001,
          -2.6373779988638812e-001, 4.1960194862125200e-001,
          -1.0284305140063718e-001, 1.0579172275991382e+000,
          1.0013843869079535e+000, 1.3847479483930611e+000,
          -6.9381491549676955e-001, 3.4168272358350915e-001,
          2.2913045797267731e-001, 1.0511762455036919e+000,
          -2.2758008102603117e-002, 1.0297657893722607e+000,
          1.4444274896725687e-001, 1.5313929368476242e+000,
          -3.2388794343278859e-001, 2.7804577062358771e-002,
          7.3624511613768684e-001, -5.6540885234806870e-001,
          -4.4928433059244532e-001, -3.6322759651281011e-001,
          8.1299439175982080e-001, -2.1794496860437279e-001,
          9.0640883432471575e-001, -3.3705606644705272e-001,
          -1.6146482888834648e+000, 8.5635596142913356e-002,
          5.6768964902664321e-001, 8.9762070697785079e-001,
          1.0975537338730930e+000, -3.9779002537053010e-001,
          7.8418122075185448e-001, 2.8543891095219781e-001,
          -7.9919008797742819e-001, 3.9216441334476942e-001,
          -6.9424005045903447e-001, 6.0772684448925951e-001,
          5.4552872778620476e-001, 1.1345376206014623e+000,
          9.2842694110060975e-001, 4.7679451240421339e-001,
          4.1661918525852787e-001, 8.7972943334299880e-001,
          -3.5902618325936542e-001, -2.3952790352313283e-001,
          -4.2965810334595211e-001, -2.9817627021520460e-001,
          7.9128918592105280e-001, -7.3914664972015920e-001,
          -2.1216591563615730e-001, 8.9744132484093941e-001,
          6.9035369045931982e-001, -5.3017007520050130e-001,
          3.5713600509442522e-001, 1.2628118127708621e+000,
          -1.7676432466878941e-001, 9.5380394869135543e-001,
          9.7039550145672793e-001, -1.8851090398079018e-001,
          -2.1814694767656814e-001, 9.0112410111259389e-001,
          5.3962688298466099e-001, -5.9054544403807196e-001,
          3.2637214939647902e-001, 6.5374331000079788e-001,
          -1.5138689445501116e-001, -3.1262378269259150e-001,
          -1.6356700539805491e-001, -2.2137082063728536e-001,
          -3.3669030085760848e-001, -4.5755884571261612e-001,
          5.4460572956158160e-001, 1.0484704315832776e+000,
          -3.8118825737898043e-001, -8.6167620605391237e-001,
          7.9548300829700311e-002, 8.9425892480209590e-001,
          -7.5325607205470102e-001, 2.6840603323097162e-001,
          8.6521564059972766e-001, 1.6486881237559933e-001,
          9.3682247730996793e-001, -5.0367920769097074e-001,
          -3.6160038618832263e-001, -5.6079762125821409e-001,
          -3.7845144655560392e-001, -3.9658596994692014e-001,
          6.8938119479462001e-001, 3.6308534066041581e-001,
          -1.3231531878068359e-001, 4.5279470936800009e-001,
          -7.0087562251541402e-001, 7.5675876602188372e-002,
          -2.3633579851996536e-001, -6.0243082309736040e-001,
          -5.7538999399736357e-001, 1.2213323434500856e+000,
          -8.0460300475054136e-001, 1.0504969665880479e+000,
          -1.6084772059372410e-001, 9.1992814803661171e-001,
          -2.4310818439288504e-001, 5.1376078416138737e-001,
          -1.8117611712184775e-001, 1.1342109917317325e+000,
          -7.4448737862683849e-003, 1.0787624396243061e+000,
          -4.4508029073526456e-001, 2.7802848275147346e-001,
          5.3777472187195563e-001, 1.0533161534480719e+000,
          -3.0934383247121722e-001, 5.2713063844051861e-002,
          -9.7661595409396385e-001, -2.3144036437399221e-001,
          1.4240555049402619e+000, 4.6444385589154862e-002,
          8.8123097480361778e-001, -9.4878389547419437e-002,
          -5.8544745485874639e-001, 3.3543434242631631e-001,
          7.7466880307918562e-001, 1.9172150675309068e+000,
          -1.2147881111292973e+000, 1.5893692284064427e+000,
          7.2172872317558523e-001, -2.2178424341709790e-001,
          -2.6584831297942552e-001, 4.0496459656907347e-001,
          -4.0239746576225205e-001, -2.1813096622982492e-001,
          -1.0328343924316082e-001, 1.0952548229493271e+000,
          1.0554122462196265e+000, 8.6081884529726282e-001,
          2.2667063329150133e-001, 5.0853072045449277e-001,
          6.1362891593016611e-001, -1.0828498011589935e+000,
          -8.7803578545068386e-002, -5.5358387973488365e-001,
          1.0570232488104399e+000, 6.5894842344835114e-001,
          -2.6079645537716689e-001, 1.1709208030964484e+000,
          -6.7313982456006227e-002, 1.3302575272845345e+000,
          1.2695160592499399e+000, 1.2102388624550919e+000,
          1.4743300472659686e+000, 2.1069616959655027e-001,
          7.7250337644313682e-001, 8.7801074503686638e-001,
          -5.1582768850014382e-001, 1.0661213009821355e+000,
          1.4872615694337898e+000, 4.5266721348504146e-001,
          1.1113360873502340e+000, 6.4778834210763048e-001,
          5.6690330656104726e-001, 1.7234822013532611e-001,
          1.1593541513075163e+000, 6.8093778573938557e-001,
          -1.0492030300766460e-001, 5.4010318347791422e-002,
          6.5342906405415146e-001, -1.2009630954717447e-001,
          1.5302444729437386e+000, 3.3509009578020593e-001,
          5.6087493466511695e-001, -1.2688292506539356e-001,
          4.4924601221174254e-001, 1.1010289481197788e+000,
          1.2741275620517183e+000, 4.2246891976108591e-001,
          1.0745031721021219e-002, 1.8964270183416163e-001,
          3.7560558846758618e-001, 8.4307884945730616e-001,
          8.5873628385823941e-001, 4.1573424756140692e-001,
          -3.0567902834291828e-002, -3.2672324011183229e-001,
          9.7582978898134620e-001, -6.7599295611054888e-001,
          -6.2562212859783917e-001, -9.7705384563245423e-001,
          -2.3188696324608143e-001, 3.2881377673398487e-001,
          4.8338721383548866e-001, 1.3727580107458512e-001,
          1.5249642858116634e+000, -1.3155769911800499e-001,
          -4.9919574197445371e-001, 1.7847325586227680e-001,
          -7.4555517152362538e-001, -6.7042556624363059e-001,
          -6.8867882030243091e-002, -1.0115532208682965e+000,
          3.3994851830943923e-001, 7.3029068663346930e-001,
          -3.9746638352911767e-001, 3.6955852349097551e-001,
          2.2056822246753996e-001, 4.6408446804018788e-001,
          -4.9906826891931472e-001, 1.1385379711630832e-001,
          -2.1590165367340561e-001, -5.1629198941018040e-001,
          -5.4228003453885225e-002, 6.1347337245837519e-001,
          -7.5046515739939046e-001, 7.0543171144980898e-001,
          -5.8730254932574699e-001, 2.1692672297050827e-001,
          -3.5339661159830993e-001, 8.9894758624714688e-001,
          -6.8966760208225686e-001, -4.4273568784290068e-001,
          -6.4707921020853418e-002, 1.5353330307336627e-001,
          1.0055555463793338e+000, -3.5305703697762780e-001,
          9.2277289088088021e-002, -6.2542209493460610e-001,
          -5.0612074790330563e-001, -7.9796941301611091e-001,
          -1.1995690765866864e+000, 7.3614516127169083e-001,
          -1.4081799785238007e+000, 4.0119540343332161e-001,
          2.0243031115809742e-002, -1.0151428546368454e-001,
          -1.2488068077723908e+000, -8.7369331495364584e-003,
          -6.1151171503669821e-001, -2.9024835787443659e-001,
          -1.1684939663078810e+000, -7.2613255167788854e-002,
          3.1034415323946202e-001, -9.3061961819605687e-001,
          3.8623061676835602e-002, -8.8508497006677689e-001,
          -2.9246563671669173e-001, -8.0893712045296318e-001,
          3.3686965210298198e-001, -3.0919607662224624e-001,
          -1.0108325501714743e+000, 7.1765376053803107e-002,
          1.9629328821986952e-001, -5.9035175414172102e-002,
          2.0062911922707008e-001, -1.2112933785542286e+000,
          -5.9978768773375168e-001, 9.2668282781760661e-002,
          1.6409853245478764e-001, -4.1133916351271904e-001,
          -4.5597288773660638e-001, -3.8304337656410398e-001,
          8.9557414499459709e-001, -8.7627710694619609e-001,
          -1.2678071403763655e-001, 6.8515832452974651e-003,
          -3.3623436849775357e-001, 3.7947481771771935e-001,
          -6.5307586225472758e-001, 6.7493980095860343e-002,
          1.5870538543209137e-001, 5.0561054056037735e-001,
          1.3949096956302909e-001, -4.1814921831443280e-001,
          3.5918104013611335e-001, -8.8976497328608062e-001,
          7.5239403254397874e-001, -4.1778446851542339e-001,
          -8.9902823612103056e-001, -7.3875584570366604e-001,
          5.3858169917701715e-001, 3.3865875578945431e-001,
          -1.1070039423110271e-001, -1.1442798303314812e-001,
          4.7873380791098158e-001, 1.4852896114752398e-001,
          4.6610688184072319e-001, -7.5806457195187513e-002,
          3.8594861789892987e-001, 1.9794931409533348e-001,
          -6.3919758161817886e-001, 1.1233191260747035e+000,
          7.2090090152796571e-001, -2.4896001740480914e-001,
          -4.9009365414065337e-002, 5.1440410182623497e-001,
          -1.0860782534658517e+000, 8.6683171953606974e-002,
          -8.9933848127290994e-001, -1.0263760776684312e-001,
          -4.4127982785434960e-001, -7.4010654096678552e-001,
          1.2191043121769243e-001, -1.6953769380650641e-001,
          1.2437007204134396e+000, -6.0418500159908117e-001,
          -2.6837333954719061e-001, 3.5500353129591461e-001,
          -1.8666596611827979e-001, 1.1778820813608517e+000,
          9.8616631111100772e-001, -9.9924126701771032e-001,
          -2.0620512928484838e-001, -7.8153777912367717e-001,
          -9.1473072580319237e-001, 5.4577036485174835e-001,
          5.8986205793301882e-001, 7.6445096951833436e-002,
          4.6236114089541847e-001, -4.1399106105509942e-001,
          5.3678700764740062e-001, 3.8896131018883895e-002,
          -8.5293008295531658e-002, -4.1412460503182319e-001,
          3.1907070200140708e-001, -2.3666461936738692e-001,
          -1.7945913414936446e-001, 4.1515771153887066e-001,
          5.2032705679408431e-001, -8.2584607438202073e-001,
          7.2455465127571750e-001, 4.6270018066537760e-001,
          -6.1651985105105167e-002, -7.2812085636604551e-001,
          -4.5977678732760874e-001, -7.2865258066237448e-001,
          -1.2148329987040407e-001, -5.9878453445269719e-001,
          3.5945538818141282e-001, -1.7143752682229196e-001,
          5.3295381221758076e-001, 5.2400246596548339e-001,
          8.0056894504601794e-001, 4.5276878935967178e-002,
          -3.4226094691249326e-001, -6.4291738688204270e-001,
          -5.0261364297969335e-001, 5.5723424723823423e-001,
          -6.7291105377279570e-001, 1.1661419236040785e-001,
          -3.1873024553232882e-001, -4.4299747714968640e-002,
          1.0270082642428204e+000, -7.0807790726941267e-001,
          4.8418014509294971e-001, -5.4771698819773662e-001,
          2.3124488952746691e-001, 1.0343067587069599e+000,
          -1.0254822886606503e+000, -1.1441822090009823e-001,
          1.0589514646834057e+000, -3.9839039163434531e-001,
          1.1701568373142175e+000, 1.0306437096003438e+000,
          -8.1810925071425533e-001, -2.1390403696387836e-001,
          1.0270984614725831e+000, 3.7748827401655138e-001,
          -2.6993514968725224e-001, -5.1223427470057126e-001,
          -9.8544994456930679e-001, -8.3916724716121593e-001,
          -3.4038857770112813e-001, 4.1939978963531160e-001,
          1.0094986325587076e+000, -9.8762273482284213e-001,
          -1.1563108906605300e-001, -4.8229393114611813e-001,
          4.1425985310769564e-001, -1.3226040131948558e+000,
          -3.3844828773557273e-001, 7.8805549837430777e-001,
          -3.5226886730757478e-001, -4.3441209850118317e-001,
          -7.0052813242761813e-001, -3.6113672994912732e-001,
          -5.2231599414375174e-001, 7.8709425618006790e-001,
          -2.4266908674143386e-001, -1.0025760268285522e+000,
          -3.7494230478789139e-003, -1.0067607294840379e+000,
          4.4106768313937061e-001, -1.1536227511957775e+000,
          3.5580171611357297e-001, -7.7632170213233750e-002,
          -1.3049051651665715e+000, -3.1610842609669959e-001,
          5.0534905446790268e-001, 6.7332512163296554e-001,
          -2.4669304809272533e-001, 7.9864122442899588e-001,
          2.2622507409348866e-001, 3.2259230921070486e-001,
          -3.8013249145518249e-002, 3.3977319571867537e-001,
          -1.5494547425856895e+000, -1.3421820065624477e+000,
          -7.3795341387028068e-001, -1.1164937169527855e+000,
          -6.2243682093105346e-001, -3.9043314983952643e-001,
          3.1117237890821359e-001, -1.2642811110413934e+000,
          5.1170057923423484e-001, 2.1956780525579492e-001,
          -1.6183635911613703e+000, 3.2461596790914415e-001,
          1.0397312399634460e+000, -1.1369026568526948e+000,
          8.7985976743791772e-002, -4.4559530838851019e-001,
          -1.0054398382422620e+000, -5.0910265786557019e-001,
          5.7358917455096459e-001, -5.1422201479950047e-001,
          -8.6880171107363624e-001, -4.7330819778708783e-001,
          3.9270825466913811e-001, -8.1997370980366868e-001,
          -1.1852712540694594e+000, -3.3753724448636302e-001,
          2.9395867480519983e-001, 1.7432912208507040e-001,
          -7.9215517942632774e-001, -3.4976391769924425e-001,
          -2.6813843067446019e-001, 7.7408863622006407e-001,
          2.5358314112439978e-001, 1.1304987985346018e+000,
          1.1210377680336108e+000, -1.3574560957482937e-001,
          -1.0484969222166902e+000, -1.0405190436824587e+000,
          5.5381856495354265e-001, 3.4847303591491258e-001,
          -2.8492457601998852e-002, 1.4515733419950308e-001,
          -2.6858942225051530e-001, -2.9663712375790408e-001,
          -8.4058682997376122e-001, 1.2776890915764811e+000,
          -2.5189662062194835e+000, 3.1856782037994280e-001,
          -6.3891003606785390e-001, 2.9522239243920023e-001,
          -4.2956153123792895e-001, -6.5302619426987574e-001,
          1.0723505559662303e+000, 6.1540174666309622e-001,
          -7.6887771441484076e-001, -5.9701554085859232e-001,
          1.0859104246492897e+000, -2.5765753257537483e-001,
          -2.3180512940919142e-002, 2.9095812669256288e-001,
          7.2378522117451008e-002, 3.6478372853189206e-001,
          7.8007879807261771e-001, -7.7348233925011578e-001,
          4.9909056944774827e-001, 3.0283555046398916e-002,
          -1.7897642246007339e-001, 4.4101494328250346e-001,
          7.3076609468801201e-001, 6.6185997270198538e-001,
          1.1428396483392342e+000, -5.3387346139624903e-001,
          9.9886643510639317e-001, -6.4275727434738072e-001,
          -2.1080687049090202e-001, -5.4591658822406108e-001,
          -6.0690814492889578e-001, -2.1951359048861163e-001,
          2.0517177796403138e-001, -1.1767183555011944e+000,
          6.7460036770438103e-001, 8.2289878267761529e-001,
          1.7367582354745059e-001, -3.4090746454517423e-001,
          -1.3223607505953903e+000, -5.5867673346571234e-001,
          -1.1995672953754156e-002, 6.9374599810500170e-001,
          -6.3101674977757860e-001, -1.3969599132716112e-001,
          6.8921919253099218e-001, 4.8212211680669881e-001,
          1.0079519999188775e+000, 5.5979663934814938e-001,
          2.5258055560537701e-001, 6.1640555329597879e-001,
          -7.7308502782777544e-001, -1.1336458955883582e+000,
          1.8984251700182606e-001, 1.1016858609926348e+000,
          -7.1452054572555279e-001, -1.0762358325669896e+000,
          -1.4122432332472654e-001, 8.0672343740550878e-002,
          -5.3282962774781850e-001, 1.6594461253949572e-001,
          6.4322673794683149e-001, 5.7641277322538065e-001,
          8.5264337187207151e-001, -5.4154053665323876e-001,
          -6.0034764873410029e-001, -9.6099960517905236e-001,
          5.3252768816545726e-001, -9.7233881174882131e-001,
          4.8021160066036456e-001, 1.7284380530950305e-001,
          -3.8613500970650466e-001, 9.7759980804312208e-001,
          8.0727364347131791e-001, 1.1897584519538427e+000,
          9.7910026817493168e-001, 3.1654146910144459e-001,
          7.1761501434487993e-002, 6.0860119465965801e-001,
          -3.2591241135699867e-001, 3.4918215163080485e-001,
          4.5070741087378813e-001, 3.8845561994095457e-001,
          4.2348058082722329e-001, 1.1860058882471709e+000,
          7.0873438753279738e-001, 9.8371337295833483e-001,
          9.3382385769395626e-001, 1.2934591627874181e+000,
          1.0142378969380503e+000, 1.2510798280742585e+000,
          2.8368185135550422e-001, 1.3143584601227094e+000,
          1.1550182926429964e+000, 5.0772807992164160e-002,
          1.3316744697360414e+000, 1.1522088617432724e+000,
          1.6093155728385153e+000, 8.4153470089546756e-001,
          1.4734158856111463e+000, 7.5212439077448834e-001,
          3.1223448464600817e-002, -1.9694735308491870e-001,
          -2.5775331678224451e-002, 1.3389536675697506e+000,
          -2.8846474042289322e-001, 4.3593926727896221e-001,
          6.1766175183406216e-004, 1.0662836892791707e+000,
          6.3339935874390596e-001, 3.7799827608372033e-001,
          6.6184655348606358e-001, 7.6231944982162503e-001,
          3.4175782021767909e-001, 5.8357273887210748e-001,
          3.2510571282097606e-001, 6.1501070932611701e-001,
          5.8458368310156850e-001, -1.3708648410097164e+000,
          -6.1966969809426187e-001, 1.0145490314901270e-001,
          -4.3324413502481435e-001, -1.5582742334717143e-002,
          -6.9976811968286801e-001, -7.4712107110956905e-001,
          -2.9803856666210160e-001, -1.6768204068688730e-001,
          -7.4310586331456918e-001, -5.5204408493993262e-001,
          -1.2890791001712040e-001, -5.0400717876133583e-001,
          -3.5682101275939632e-001, -5.7218552260766709e-001,
          -1.5960579853336683e+000, -1.8479020198072182e-001,
          -4.4668555886553424e-001, -1.2555220332500074e+000,
          2.8306331004685403e-001, -2.5177582787689773e-001,
          -6.2820934187651745e-001, 1.4551591624350921e-001,
          -3.4731533100685369e-001, -1.7464016226344431e-001,
          -7.7656885878385906e-001, 9.2699899019008214e-001,
          -1.3216673274243740e+000, -8.9397984732393199e-001,
          -4.4605474893217312e-001, -1.2437357986235429e+000,
          -3.4203300493268124e-001, -2.2751492987563315e-001,
          5.4325727377097788e-001, -8.9834907012425946e-001,
          -6.0800396136649049e-001, -1.2411083169157089e+000,
          1.0379694892225491e+000, 4.1830214509970542e-001,
          -3.4546895225748597e-001, -1.6464148666835987e-001,
          5.9503503172995331e-001, 8.0679377303603050e-001,
          1.2012406088484757e+000, -1.6761155936418901e-001,
          7.6955174284443240e-001, 9.6432897829692299e-001,
          1.2716177463732109e-001, 3.5788471259660043e-001,
          8.4184859298231796e-001, 9.7329865530665749e-001,
          8.2987162195402797e-001, -6.7706119599230585e-001,
          -2.0928636817670920e-001, 3.4302607351501049e-002,
          4.9374604745627626e-001, 1.9906590845721811e-001,
          -5.8743785104086210e-001, -6.9977320739889515e-001,
          5.4833286202413445e-001, 9.8766596069818702e-001,
          7.3194472221215912e-001, 7.6870658163994465e-001,
          1.0032167857183338e+000, 1.3757421076379750e+000,
          1.5288990506489415e+000, -6.5424837280885018e-001,
          7.5515747830830271e-001, 1.0370683630513109e+000,
          1.2358318084838893e+000, 5.8857021074779181e-001,
          8.4715463406668978e-001, 1.2164342411934226e+000,
          1.0076281106717195e+000, 4.4717009254956482e-002,
          -3.1093635360930477e-001, 1.1826891735571277e+000,
          7.5857573179023552e-001, 6.3782217000364405e-001,
          -1.2597147450007866e+000, -9.1000637889840807e-001,
          -1.5063035296599894e+000, 4.4449121576350552e-002,
          -6.0077199122596370e-001, -1.9770226289568287e+000,
          -1.0072714643416756e+000, -1.1134119825897670e+000,
          -8.6580597683520977e-001, -1.0639185077474882e+000,
          -1.8479202631731080e+000, -1.1573504124802305e+000,
          -4.3256395384556207e-001, -6.9833978675015163e-001,
          -2.1714429497255289e-001, -5.1030234922042272e-001,
          -9.1862216779527606e-001, -1.2426601076269028e+000,
          -5.2607656132501246e-001, -1.1808290519142119e+000,
          -1.1316003776413841e+000, -8.6176849041153719e-002,
          -1.1448156660368787e+000, -2.0052077658984615e+000,
          -9.6896041431883306e-001, -1.1216347981472172e+000,
          -8.9784083617392685e-001, -9.8657841014884817e-001,
          -1.9067664054183089e+000, -7.3597652647947565e-001,
          -1.0293296901288986e+000, -1.5194828597987429e+000,
          -1.2788329201686925e+000, -3.6266736262928534e-001,
          -1.0143155661597290e+000, -1.2826036394138853e+000,
          -1.4219408159554856e+000, -7.8576043117429850e-001,
          -1.7833630534730469e+000, -1.5151290523739203e+000,
          -1.4884773937881137e+000, -1.1092862174295222e+000 ]
