%YAML:1.0
my_nn: !!opencv-ml-ann-mlp
   layer_sizes: !!opencv-matrix
      rows: 1
      cols: 4
      dt: i
      data: [ 14, 28, 42, 42 ]
   activation_function: SIGMOID_SYM
   f_param1: 1.
   f_param2: 1.
   min_val: -9.4999999999999996e-001
   max_val: 9.4999999999999996e-001
   min_val1: -9.7999999999999998e-001
   max_val1: 9.7999999999999998e-001
   training_params:
      train_method: BACKPROP
      dw_scale: 1.0000000149011612e-001
      moment_scale: 1.0000000149011612e-001
      term_criteria: { epsilon:9.9999997473787516e-006, iterations:1000 }
   input_scale: [ 1.2635984218535555e+001, -6.1516060861863524e+000,
       1.8253306895962417e+001, -8.9367873868930801e+000,
       2.8895242003668068e+002, -5.3125020615935883e+000,
       2.4465428248747594e+002, -4.8130660899428745e+000,
       5.2229624766385330e+000, -1.6503227340557565e+000,
       4.5280384627420318e+000, -2.7568774002156862e+000,
       8.7965705992543004e+000, -1.4308258230258473e+000,
       8.3059320370504288e+000, -3.1339664123282125e+000,
       7.5095846684475942e-001, -1.6449566416599493e+000,
       3.8559706660551873e-001, -1.3404088505810889e+000,
       4.2194543383240268e-001, -5.8268655148284176e-001,
       1.9250668437592438e+000, -6.4168894791974784e-001,
       3.9898798066812086e-001, -1.1304659452263426e+000,
       4.1017111471633333e-001, -9.6683191325992857e-001 ]
   output_scale: [ 1.0526315789473684e+000, 0., 1.0526315789473684e+000,
       0., 1.0526315789473684e+000, 0., 1.0526315789473684e+000, 0.,
       1.0526315789473684e+000, 0., 1.0526315789473684e+000, 0.,
       1.0526315789473684e+000, 0., 1.0526315789473684e+000, 0.,
       1.0526315789473684e+000, 0., 1.0526315789473684e+000, 0.,
       1.0526315789473684e+000, 0., 1.0526315789473684e+000, 0.,
       1.0526315789473684e+000, 0., 1.0526315789473684e+000, 0.,
       1.0526315789473684e+000, 0., 1.0526315789473684e+000, 0.,
       1.0526315789473684e+000, 0., 1.0526315789473684e+000, 0.,
       1.0526315789473684e+000, 0., 1.0526315789473684e+000, 0.,
       1.0526315789473684e+000, 0., 1.0526315789473684e+000, 0.,
       1.0526315789473684e+000, 0., 1.0526315789473684e+000, 0.,
       1.0526315789473684e+000, 0., 1.0526315789473684e+000, 0.,
       1.0526315789473684e+000, 0., 1.0526315789473684e+000, 0.,
       1.0526315789473684e+000, 0., 1.0526315789473684e+000, 0.,
       1.0526315789473684e+000, 0., 1.0526315789473684e+000, 0.,
       1.0526315789473684e+000, 0., 1.0526315789473684e+000, 0.,
       1.0526315789473684e+000, 0., 1.0526315789473684e+000, 0.,
       1.0526315789473684e+000, 0., 1.0526315789473684e+000, 0.,
       1.0526315789473684e+000, 0., 1.0526315789473684e+000, 0.,
       1.0526315789473684e+000, 0., 1.0526315789473684e+000, 0. ]
   inv_output_scale: [ 9.4999999999999996e-001, 0.,
       9.4999999999999996e-001, 0., 9.4999999999999996e-001, 0.,
       9.4999999999999996e-001, 0., 9.4999999999999996e-001, 0.,
       9.4999999999999996e-001, 0., 9.4999999999999996e-001, 0.,
       9.4999999999999996e-001, 0., 9.4999999999999996e-001, 0.,
       9.4999999999999996e-001, 0., 9.4999999999999996e-001, 0.,
       9.4999999999999996e-001, 0., 9.4999999999999996e-001, 0.,
       9.4999999999999996e-001, 0., 9.4999999999999996e-001, 0.,
       9.4999999999999996e-001, 0., 9.4999999999999996e-001, 0.,
       9.4999999999999996e-001, 0., 9.4999999999999996e-001, 0.,
       9.4999999999999996e-001, 0., 9.4999999999999996e-001, 0.,
       9.4999999999999996e-001, 0., 9.4999999999999996e-001, 0.,
       9.4999999999999996e-001, 0., 9.4999999999999996e-001, 0.,
       9.4999999999999996e-001, 0., 9.4999999999999996e-001, 0.,
       9.4999999999999996e-001, 0., 9.4999999999999996e-001, 0.,
       9.4999999999999996e-001, 0., 9.4999999999999996e-001, 0.,
       9.4999999999999996e-001, 0., 9.4999999999999996e-001, 0.,
       9.4999999999999996e-001, 0., 9.4999999999999996e-001, 0.,
       9.4999999999999996e-001, 0., 9.4999999999999996e-001, 0.,
       9.4999999999999996e-001, 0., 9.4999999999999996e-001, 0.,
       9.4999999999999996e-001, 0., 9.4999999999999996e-001, 0.,
       9.4999999999999996e-001, 0. ]
   weights:
      - [ 1.8129726891783242e+000, 1.5402402451409483e+000,
          2.3915765326498682e-004, -2.1200313039871796e-001,
          -5.3519944122468199e-001, -1.1097869502706512e+000,
          -2.0508544559657644e+000, 8.0360740865578750e-001,
          -7.5552357897015521e-001, 9.7785029615928798e-001,
          -2.3413107564239297e+000, -6.7930611671342922e-001,
          5.5016218919921211e-001, -1.5787435579806304e+000,
          -4.7604158782054729e-001, -7.2239792617358978e-001,
          1.4414947726054868e+000, -7.5160769868426414e-001,
          -2.0190772622766224e+000, -2.4474435685802653e+000,
          -1.7972863506646055e+000, 1.4231589901538155e+000,
          -1.1524922534164594e+000, 1.2119580890854236e+000,
          1.3876296983608065e+000, 2.3028223427227852e+000,
          -5.6146440275545895e-001, -2.3932831759623605e-001,
          -1.4488589560114546e+000, -8.6089426088798420e-003,
          -1.7498640459845127e-001, -3.4708870166395567e-002,
          -1.4947756427155348e+000, 1.1820113934933802e+000,
          1.1210168196082513e+000, -1.1203950207391591e+000,
          6.7854264375207285e-001, -1.0038833897882933e+000,
          4.4566940645684339e-002, 1.5239930668285631e+000,
          -2.4048706563457829e+000, 2.6955346604580437e+000,
          1.7354181806868610e-001, 8.4338979526194890e-001,
          -3.2063332474099360e+000, -2.1124818349860183e-001,
          3.9728001219354119e+000, 7.5872337528418687e-001,
          -8.0311210687416079e-001, 3.0285131900587758e-001,
          6.4085295562501765e-001, -1.7882547214844629e+000,
          -1.7380736910005610e+000, 1.1945606902103216e+000,
          -1.4405115628821270e+000, 6.1517046556473154e-001,
          -4.4327096370361021e+000, -1.0456530210339363e+000,
          -5.6632046950402837e-001, 2.1499410214086918e+000,
          5.1158032188084779e-001, -1.0088415094417362e+000,
          4.3820024000027979e-001, 7.0917203726076838e-001,
          1.4112323280949546e+000, -1.3491280538272492e+000,
          1.8277883323439484e-001, 5.4257972682848610e-001,
          1.2985140065433554e+000, 2.1683667447367033e-001,
          -6.6239484502913359e-001, -1.1450612440314247e+000,
          3.0501713056826625e+000, -2.7570006980571377e-001,
          -1.4208821560668503e+000, 4.4349364759831444e-001,
          -7.2548609885719906e-001, -5.6274176312714230e-001,
          -9.1830015649797925e-001, 1.4043608594246930e+000,
          -5.0951120445229536e-001, 1.7640841225936348e+000,
          1.7819555411565173e+000, -1.1909554594168896e+000,
          -1.1162084650165070e+001, 5.0653205360360087e-001,
          1.0872311262257890e+000, -1.6541779412815854e+000,
          -3.8715595448504399e-002, 1.4887311160149983e+000,
          3.9017430861325565e-002, 1.2531463557858584e+000,
          -1.9354929000309704e-001, 6.6329023623148531e-001,
          -1.5458105992678242e+000, -4.7541303928738388e-001,
          -4.9780113739297221e-002, 2.4279531292412754e-001,
          7.5841613120066864e-001, 1.0790207793228616e-001,
          -2.6008032763352529e+000, 1.3691141363142506e-001,
          2.8229858846637321e+000, 1.5213485894908429e-002,
          2.6058077182068401e-001, -4.2117500863252666e-002,
          -1.2213849731095279e+000, -2.1838742355182026e+000,
          -3.3911310007573203e-001, 1.0521771315457842e+000,
          4.5624149958665011e-001, -2.3162023800907572e-001,
          3.4693505245650358e+000, -3.5591562014431105e-001,
          5.6328364460467528e-001, -1.0937534371125359e+000,
          4.9330775435972397e-002, 5.5339322723756323e-001,
          2.6082919267331434e-001, -4.8676442970990830e-002,
          -1.2147988053776626e+000, 8.4179838335527135e-001,
          1.1661800907891719e-001, 4.3808628404560462e-001,
          -6.0678423465635867e-001, -8.3617139543926008e-002,
          -9.7014204869086851e-001, 1.1579425970757571e+000,
          -3.0608546263232395e+000, 6.4817948814994186e-001,
          2.5647950957134888e+000, 3.3855057584728449e-001,
          8.1659912808578394e-001, 1.2855026974468302e+000,
          7.9738164515287036e-001, -1.4666496863131266e+000,
          8.7119198003695275e-002, -1.3178347918946001e+000,
          -4.2824644163856318e-001, -1.4444849411000671e-001,
          -7.5912546847901909e+000, 2.4937763540250685e-001,
          -8.4051432416545280e-001, 4.7216267904237497e-001,
          -2.9645766463244755e-001, -7.2124433814307332e-001,
          -4.6846769029948954e-001, 5.2988817116059428e-001,
          8.4794973010498442e-001, -1.1246508478042097e+000,
          -6.2732640644991366e-001, 5.3919241971703225e-002,
          1.3140001312100846e-001, -1.6368574075143577e-001,
          6.6586669011814348e-001, -9.4434231380787792e-001,
          2.7755260331258560e+000, -1.0892371458215846e+000,
          -2.0246984204995977e+000, -4.8383604422925386e-001,
          6.1680922519593506e-002, -1.2679070561235262e+000,
          -2.4916404658077745e-002, 1.5516281001527825e+000,
          -1.7055921801601934e-001, 1.0381985206867641e+000,
          4.9424980949812308e-001, 8.3901021238982487e-001,
          1.0625226424293443e+001, -3.1285394042332015e-001,
          -2.5971633907310032e-001, -4.6818589265953427e-003,
          1.2687874338148690e+000, 3.6650346063225858e-001,
          -9.1407774205008077e-002, -1.0245960277888595e+000,
          -3.1028491005126713e-001, 1.0955352099839777e+000,
          4.9949238304867782e-001, -8.4396537359066981e-001,
          -2.0171112305964192e-001, 2.1839604259767778e+000,
          -2.6161356393662183e-001, 8.4797740683694681e-002,
          -1.1005512539673858e+000, 4.1117001763232641e-001,
          1.6582629021994828e+000, -4.6672797419807460e-001,
          -1.7475559018712641e+000, -1.6337355359854252e-002,
          2.7079647121992664e-002, -2.7949166163015051e+000,
          2.1970664270324239e-001, 6.7090013088449663e-001,
          -1.3354870965624771e-001, -2.0147409095685158e+000,
          1.3494227578614033e+000, 5.3025715159247300e-001,
          -6.7604464896323480e-001, -1.8596326339182587e+000,
          -1.0540257726544677e+000, 2.1074049551218965e+000,
          -1.1205399027944776e+000, -4.1092743612949617e-001,
          3.5355579951256355e-001, -1.4353149906806123e-001,
          -1.0506085569054224e-001, 1.5244441777623805e+000,
          5.8701126420547267e-001, 2.5608738806140159e+000,
          8.5070347976400129e-001, 6.4268635696904985e-001,
          -4.8935554378500873e-001, 4.5355621603124385e+000,
          2.7001422562536468e+000, -3.2987443968922925e-001,
          -1.8769390178253522e+000, -1.1646693805957691e+000,
          -3.2262192609040874e-001, 2.0468816458110978e-001,
          3.4249779347011167e+000, -6.0921702406624068e+000,
          1.3054899855312066e-001, 9.7396653259167687e-001,
          5.7641486738791290e+000, 4.1970111719033604e-001,
          -8.9253427414820030e-001, -4.3091983727554034e-001,
          -7.1341063760046930e-001, 1.6979431043435086e-001,
          -2.6028049643851797e-001, -4.7288214964528330e-001,
          -8.5145962207480064e-001, -2.8438477784193522e-001,
          1.2868715338303816e+000, -5.5475470676628391e-001,
          -1.7896687192482577e-001, -5.3497740162064544e-001,
          6.2953426917555444e-001, -9.7861534951879359e-001,
          2.4872097887993114e-001, -1.6497952824313725e-001,
          -3.3965953358852424e-001, -6.5363175783649563e-001,
          1.8601182695351229e-002, -5.3394122090561813e-001,
          7.0664486860570341e-001, 5.4110597043241067e-002,
          5.1148533403342256e-001, 3.7296096835366560e-001,
          -9.5131826179122736e-001, 1.0790496545154711e-001,
          2.7462663734951076e+000, 1.6260125741092306e+000,
          -5.4572169103514798e-002, 9.4045101115060126e-001,
          -8.2691907174878765e-001, -5.5842002387748102e-001,
          -2.0329921314044657e+000, 4.3153541504447795e-001,
          5.7050622216370861e-001, -4.5198867147123722e-001,
          3.1064431777737339e-001, -5.7261134915011580e-001,
          -8.2221106569909319e-001, -1.3949118561960598e+000,
          4.3514543677735940e-001, 6.6109558411328526e-002,
          3.7136378921365226e-001, 6.2728923980455309e-001,
          -5.1779194031973230e-001, 1.6607069282408178e+000,
          -8.7880134030414137e-001, 2.1910822174911693e-001,
          8.3596189010957378e-001, 1.2644316726514255e+000,
          1.5280272312478307e+000, -1.4216459294037025e+000,
          -6.3329788409504839e-001, -1.2418903618171571e+000,
          4.5589679630003692e+000, 9.1080825788693887e-001,
          -6.1566480967293835e-001, 1.1370840223665390e+000,
          -1.0033270389047590e+000, 8.5126192328605199e-001,
          -2.8115916899937260e-001, -6.3357592772041083e-001,
          -1.2141683428179771e-001, -4.7245104880151806e-001,
          -2.1719922100959460e-001, -1.0263293630553858e+000,
          5.3178565859155746e-001, 6.5007564883824376e-001,
          -5.8090479094621938e-001, 6.3991588679709654e-001,
          2.0989746346125693e+000, 1.9060151799547126e-001,
          -2.3282458753697910e-001, -1.8474530380389487e-002,
          4.3535320672787181e-001, 8.5605216209376966e-001,
          2.1518423704004250e-001, -5.1961890209042530e-002,
          1.2496064706795398e+000, -1.0326043373544156e+000,
          -7.0053789497137087e-001, 5.1702497080464753e-002,
          4.1840559355789958e-001, 7.6103725102320541e-001,
          7.1784735410004774e-001, 7.9818960306724296e-001,
          -1.1829275619149971e-002, 7.0456912697592092e-002,
          -4.2480679567959112e-001, 7.1493806775181981e-002,
          8.7973983567175518e-001, 4.6106133489695267e-001,
          -4.1664246608982547e-001, -4.2287463738844622e-001,
          -1.5924421139126627e-001, 6.2831528299761386e-001,
          -4.4698418552510605e-001, 8.1783905660465150e-001,
          1.0072140161924479e+000, 8.2452398914411229e-001,
          -8.2910357624093312e-001, 7.9937280208573136e-001,
          -8.2328010150817005e-002, 6.8305749447254382e-001,
          -2.9429338445006603e-001, -1.7362039545918570e-001,
          4.4949474779139448e-001, -1.0187920864147517e+000,
          -2.4503557399302319e-002, 1.0399614876212407e-001,
          2.0252683171711610e+000, 1.3535003150976643e+000,
          1.6365807371061278e+000, -1.2218380931228923e+000,
          -6.3167020755066250e-001, -2.5791745372805792e+000,
          1.9704068902757901e+000, -7.6804611310389237e-001,
          -6.9798967982285812e-002, 6.9027715086316888e-001,
          2.1980172564340797e-001, -2.6817142226920705e+000,
          -5.3938484982114876e-001, 8.8275323081880719e-001,
          -4.6653905808479029e-001, -9.1937648862359944e-001,
          -5.4958936927794388e-001, 2.9354051947168808e-001,
          -3.5973942192439163e+000, 6.9101947115602969e-001,
          9.2259561961002268e-001, 1.1580309247685585e+000,
          -8.6328879330966835e-002, 3.6832409160918667e-001,
          -1.2921043578392657e+000, 6.1484591240261077e-001,
          -2.8147017339992572e-002, 3.9246782881335218e-001,
          6.6736698505759406e+000, -2.8463753253715096e-001,
          -1.5638013060123397e+000, 1.5323157824315026e+000,
          5.1909870735154162e-001, 1.8223783278961914e+000,
          -1.1386319002943062e+000, 6.5404443041485982e-001,
          3.4703321035283113e-001, -8.4492685629886011e-001,
          4.0002849978725441e-001, 2.3027976783884916e+000,
          -1.0140525080786151e+000, -2.7929009517147607e-001,
          -4.2280330073520700e-001, 1.9394638399271528e-003,
          7.9687372150367786e-001, -3.1668645526857919e-001,
          1.9407554926204595e+000, -2.3906304524370636e-001,
          -1.6983923450827625e+000, -5.0082589706626623e-001,
          1.0407379318234351e+000, -2.9171865672617942e-001,
          1.0032715119160900e+000, 5.9222950071741320e-001,
          -1.1144509014944239e+000, -1.4235183238846263e+000,
          -5.3903974621163053e+000, -1.1152662997911420e+000,
          1.7644992994546782e+000, -8.3120668728130032e-001,
          -7.8024078144895237e-001, 6.2517593584194531e-001,
          5.0817737058965196e-001, 2.2337854216017305e-001,
          6.8901738438067628e-002, -5.2319232090440326e-001,
          -5.9555763709454389e-002, -1.1471434268654335e+000,
          -1.1566921051580165e-001, 6.4722380964260440e-001,
          -6.3444099946160115e-001, -1.8628803774981868e+000,
          -2.1941960750252698e-001, -1.4986041756039621e+000,
          -6.7222357208036254e-001, 4.4204422429160911e-001,
          -5.3336240818546465e-001, 6.6227625271054991e-001,
          -1.2193698654390918e-001, -1.0242161367090481e+000,
          1.0374467703032121e-001, -8.0009450251820435e-001,
          -4.7539453920380886e-001, -9.4232168406834893e-001 ]
      - [ -1.6584985447214204e+000, -9.1587482842247769e-001,
          -2.3039812517956018e-001, 7.8393753709862690e-001,
          -9.0299951469514139e-001, 1.4604726406674021e-001,
          -2.1218648075975780e-001, -9.4355088538548837e-001,
          4.3939920271794741e-001, 1.3679574872558914e-001,
          5.1915696831382285e-001, 8.8963137424048114e-002,
          -1.1911759927006205e+000, 1.7980453934674290e-001,
          2.8166494581751858e-003, 5.7711011467794082e-001,
          -4.9320889363686715e-001, -1.7691960800879951e-003,
          -2.2190735804794359e-001, -4.3585970181814104e-001,
          -1.0977170274117745e-001, 2.6798902297425309e-001,
          -1.3908556670910444e-001, -3.3699198161095179e-003,
          6.7449923407731482e-002, 3.1895188739624508e-001,
          -7.0613529554323473e-001, 4.1714180245707050e-001,
          3.6017363001000952e-001, -2.5277116768674796e-001,
          -3.7656901720484171e-001, 2.0230479956718428e-001,
          9.9382003388178389e-002, 2.8102845294810452e-001,
          2.3537522356767737e-001, -2.2153111390509875e-001,
          2.3454945870950980e-001, -2.3561553808878025e-001,
          -3.0933269212631997e-001, -1.4326955904043759e-001,
          2.5247578257999942e-001, 4.5705391629208142e-001,
          -2.7722929830088248e+000, -1.9444559917025120e-001,
          -1.2198930882997842e-001, 2.7715747851483491e-001,
          7.7302984148069548e-002, -5.8709343445641804e-001,
          -2.3654184586703830e-001, 1.5885761119333314e-001,
          3.9616350159752241e-002, -8.2511833312464944e-001,
          -4.7090377685768448e-001, 1.2239404261708446e-001,
          -4.8289519412818721e-001, 3.1674426638288916e-001,
          1.9190419823929450e-001, -3.1583861012674591e-001,
          -6.8536443514372256e-002, -8.4271669941676297e-001,
          -6.9780655266092184e-001, -3.1405387707239946e-001,
          6.7280764128980075e-001, -4.9012226006361559e-001,
          5.4982832320975628e-001, -8.0360485993515640e-001,
          3.5705230190978193e-001, 4.9222856814996602e-001,
          -1.3128130950667247e-001, -5.1043179823622919e-001,
          8.9763836791052642e-001, -2.1698567107513483e-001,
          -5.0141298905853426e-001, 7.8771504266933323e-001,
          6.3952355794007210e-001, 1.1845372153030571e+000,
          -1.0693516782372923e+000, -5.0113311720166009e-001,
          -2.2005601966101462e-001, -5.2871361747063728e-001,
          5.7045909392682698e-002, -3.7592343728263522e-001,
          3.6389208168487303e-001, -4.7198147582025195e-002,
          -2.4063704465556196e-002, 4.5818020390900283e-001,
          3.0367620516333943e-001, -4.8067698402974240e-001,
          6.4749244826997243e-001, 5.3195090186021143e-001,
          1.0932766379153002e-002, -7.4214662782353635e-001,
          -2.5727765705327899e-001, -9.0857520619261584e-002,
          -3.9789115594012686e-001, 1.5651989508445322e-002,
          8.5219557883027253e-001, 3.7232110444366501e-002,
          -9.9239086929533671e-001, -2.8588168124926661e-001,
          7.6045606084415696e-001, -1.6810422548000767e-001,
          -3.5777759324764641e-001, -8.5850249081409341e-003,
          -2.7589906426248351e-001, -4.3819210369458594e-001,
          -4.7230127302178920e-001, 3.8383813156684260e-001,
          -5.2745683068472493e-001, -2.2085285080280084e-001,
          7.1122346743954012e-002, 1.5046702440595397e-001,
          3.9260278864880177e-002, 5.2627878000582295e-001,
          1.1335156340776960e+000, -1.0691979820988674e-001,
          -4.2703717770975291e-001, -1.0420666066082476e-001,
          -1.4209852458906794e-001, 7.1847112264611868e-001,
          6.8479325292096382e-001, 8.3648936319045311e-002,
          3.5556500336781405e-001, 4.2889304952987028e-001,
          -3.4830497492629592e-001, 1.7600844989436157e-001,
          -2.4074525948682726e+000, -3.6756506886380169e-001,
          -2.2902116591637250e-001, 3.9331072907448961e-001,
          4.1490237848545530e-001, 1.3635828413754440e-002,
          9.1506954726826206e-001, 4.4058663462591319e-001,
          -6.6599418407254252e-002, -1.2393254380076923e-001,
          -2.1829351708562800e-001, -1.2740316802133003e-001,
          -1.4714429853414932e+000, 6.0504951161191101e-001,
          5.0275629862199955e-001, 1.0921263324638761e-001,
          -2.2558595423072406e-001, 4.8696847342208144e-001,
          2.9500073868711418e-001, 3.0142159516093670e-002,
          -1.5217797988118248e-001, -8.4863347174794157e-001,
          2.8764746597639840e-001, 1.5639037829703772e-001,
          8.2277900507275770e-001, 2.2019240874064644e-001,
          1.0735416548192602e+000, 2.3180205498588835e-001,
          -7.5752541114898742e-001, 1.1814153638159645e-001,
          -4.5697621365864888e-001, -3.7220536710647928e-001,
          1.3555000941162498e-001, -3.4976653965934461e-002,
          -9.5299688790106518e-001, 4.6494830753920041e-001,
          -5.6087389573455293e-001, -6.7794574790416107e-001,
          2.2912126472573588e-001, -1.8002279881510067e-001,
          6.5023913295925229e-001, 1.0578571262272669e+000,
          -1.8345745026062623e+000, 3.6835198930638252e-001,
          -4.8576150561320730e-001, 2.7652614321629232e-001,
          -3.0093176404314531e-001, 2.3443415158656539e-001,
          6.0196621544056816e-001, -3.9915130943638111e-001,
          3.5734961053404102e-001, -2.5393128038754351e-002,
          -1.2446416445860890e-001, -2.6732672976584426e-001,
          -3.3733454852089789e-001, -3.5187672679335269e-001,
          -5.7509093846893855e-001, 6.2922379654856375e-001,
          2.8786354921049084e-002, -7.7689694383862296e-001,
          1.2225626785042067e+000, 1.1713430916408554e+000,
          1.0272659021530002e-001, -1.3421042572360525e-001,
          3.0148062859799368e-001, 9.0676314087612883e-003,
          2.1690433531622266e-001, -9.2694610571726466e-001,
          5.9547846109915828e-002, 3.2917127058164064e-001,
          1.0790498421335484e-001, -1.8385270581726881e-001,
          5.6395028903928679e-001, 8.4209267518691788e-001,
          6.4137647409190549e-002, -1.6056936928211760e-001,
          -5.5662811835243819e-001, 4.4137943174794791e-001,
          -4.9575159840906845e-002, -4.4041025380166368e-002,
          2.0194872775446215e-001, 1.4532532828018377e-001,
          5.0938627817111903e-001, 9.1310476685953448e-002,
          2.2921314474029604e+000, 1.9531717460246098e-001,
          2.7880248836269322e-001, -1.1340928785440434e-001,
          -1.3810247546277890e-001, 1.1222071515095469e+000,
          -5.0054446402295227e-001, 4.1549857639797888e-001,
          -3.0902990869583263e-001, 4.0347771943279465e-001,
          7.4208280612845057e-001, -8.4253076851661529e-002,
          1.8574827995781837e-001, 3.0781951312914849e-002,
          8.7613985888328971e-001, 7.4218140616548767e-001,
          -2.8859281713482527e-002, 6.1012181156154421e-001,
          -5.6300819027920246e-001, 9.7721338815899672e-001,
          -1.5571333944045423e-001, 3.9410544609001125e-001,
          -3.1225827972072140e-001, 8.6119582908388670e-001,
          1.1890299016235932e+000, 2.7483416858402604e-001,
          2.4037565324505736e-001, 4.8268966859024975e-001,
          2.0734279719704007e-001, 4.0609473159068288e-001,
          -2.5432939470303232e-002, -1.6651368300697106e-001,
          -6.3479655902894250e-001, -3.5938818156465341e-001,
          -2.4155472186186913e-001, 3.7091206645438474e-001,
          -2.1338842862418694e-001, -3.0767835013289752e-001,
          -1.5476118460988036e-001, 6.4327468862652382e-001,
          -4.7031900451898589e-001, -1.5472138974125740e-001,
          4.6973195463712001e+000, 1.7642039665420722e-001,
          2.4879388036755287e-001, 2.8961510372471871e-001,
          -2.7988727923946305e-001, 1.5815187348186391e-001,
          -7.1927751186147326e-001, 7.9250249953877494e-001,
          3.7513717365981136e-001, 3.4569530486502043e-001,
          -8.3644434594330030e-001, 1.9961724698313554e-001,
          5.5471461323580262e-001, 6.3324822552408988e-001,
          -4.6270189803834100e-001, -3.1850047222474820e-001,
          -2.8863136923808341e-001, 4.7097692609898084e-001,
          1.2313928580521752e-001, 4.3469278951117662e-001,
          -7.6327782697405047e-002, -1.3558079333260362e-001,
          -2.6412339650592875e-001, -1.4509832707263881e-002,
          1.7149698770070992e-001, -4.2516422768610107e-001,
          -4.0967248632225334e-001, -1.2360446099451876e-001,
          -4.2135755704667882e-001, 3.8151578055728841e-001,
          8.4903194848263763e-001, -1.6382084386139756e-001,
          -3.6391476070749568e-001, -5.6849532658180268e-001,
          2.7492109428391376e-001, 3.4355360838290094e-001,
          3.8559236398883728e-001, 1.5132631769824725e-002,
          5.1339995363782209e-001, 6.9951333120980883e-002,
          -1.8685852827273260e-002, 2.6891101242262822e-001,
          2.0816192781580063e+000, 6.2580668558564334e-001,
          6.7638565284190433e-002, -2.7780702734176421e-001,
          2.7417291477032074e-001, 4.0914042995931232e-001,
          2.9937661480098587e-001, -2.8460819558807393e-001,
          -3.4361469015578078e-001, -5.6802660935822815e-003,
          3.9678966939716037e-001, -8.1299896567157603e-001,
          9.1350603472176539e-001, 1.6734246935200436e-001,
          2.4687708055371005e-001, -1.2044342098372531e-001,
          3.2821029830189347e-001, 1.5046440491799121e-001,
          -2.0042878575758633e-001, 7.3534531633822908e-001,
          3.5077991159465494e-001, -3.6868402307396679e-002,
          3.7580175348198498e-002, 9.1559780365448051e-001,
          4.3074518978218962e-001, 3.6534919093607987e-001,
          8.0168690597225101e-001, 3.0207692228250571e-001,
          -3.2846431050603564e-001, 2.7258748652967879e-001,
          -3.2883017900474770e-001, -1.4536109604145325e-001,
          -3.5611753973408772e-001, -2.0552976262839662e-001,
          -5.2138537504664451e-001, 4.2403335049808411e-001,
          4.4034189151174336e-001, -4.1401752796648633e-001,
          6.4708344560939879e-001, 1.3104892005562427e-001,
          2.3610197348900139e-001, -4.8467452230958369e-001,
          1.4547190537526700e+000, -1.6841409231734172e-001,
          1.3032359167728286e-001, -1.8184777137757543e-001,
          7.4306863676449120e-001, 6.5355008031903605e-001,
          -6.0692770703395960e-001, 4.7854900030264763e-001,
          -1.9336744926396990e-001, -3.1509415239104782e-001,
          -3.3293589877361573e-001, 2.2585532083347296e-001,
          -5.7463004453525168e-001, 8.7585559411241554e-001,
          6.3163449383833603e-001, -7.8452636277501935e-004,
          -3.4682530624899496e-002, 1.0800176086073567e+000,
          -2.6755559614706798e-001, 3.4244285533378060e-001,
          5.6838033950659837e-003, -5.5320150663628509e-001,
          -8.0113969871674640e-001, 8.0184086623337081e-001,
          -3.0536521602124822e-001, 1.3891099769037452e-001,
          1.5424820197012903e-001, 4.7989552472417679e-001,
          1.6080876294812718e-001, 5.0355298992213020e-002,
          -3.0203100330832344e-001, -2.9245292237216197e-001,
          -1.4318993742472130e-001, -4.3397371559781975e-002,
          -4.6402108010162735e-001, 3.1473243769628949e-002,
          1.3478276189039609e-001, -4.5848429330843471e-001,
          -6.0306492672745890e-002, 1.1182515840264282e-001,
          4.2679490617099197e-001, 5.4864670973900342e-001,
          -3.4644726017203746e+000, -3.3246215837337188e-002,
          -2.2786306808562812e-001, 1.5993003925944904e-001,
          -2.9353121247874275e-001, 4.1804191274342317e-002,
          -9.5907766669165201e-002, -7.6656834569964472e-001,
          2.1124258583415167e-001, -3.2497308923898505e-001,
          2.8106634018465575e-002, 9.5952250720621871e-002,
          4.4759345425543706e-001, -3.3427539015021701e-001,
          -6.0499643097473611e-002, 4.5583985646009678e-001,
          1.2310411957616160e-001, -1.0745805250068627e+000,
          3.8963108555122145e-001, 1.6074011332146151e-001,
          8.4865486068669102e-002, 6.7002680275118753e-001,
          2.9155328133339115e-001, -5.4720679145908491e-001,
          7.2020132931973846e-001, -4.5792742338365250e-002,
          -1.2317696728810935e-001, -3.3831345546648522e-001,
          8.2569580548799970e-001, -5.3424313244262511e-001,
          6.9558789381344843e-001, 1.1923494073708392e+000,
          1.4947230438516979e-001, 1.7117666237930254e-001,
          -2.8613981183134263e-001, 3.6553353758341156e-001,
          -1.1646757771353831e-001, 4.2408739122672495e-001,
          2.1380256970917536e-001, 4.3149203594763724e-001,
          -1.6027772149387637e-002, -4.8004998437240320e-001,
          -2.1938580229588021e+000, -1.3094235816932365e+000,
          4.6401678084914737e-002, 8.0941601350283465e-001,
          -8.4665057547755163e-001, -4.7660692038439750e-001,
          5.8390872436079078e-001, -1.2998161226527538e-001,
          -2.2668472198406153e-001, 6.9885395765193217e-002,
          -1.0446511675240224e+000, -2.7035633978900220e-001,
          -7.7797956703339943e-001, -4.5841351534202379e-001,
          -4.1365862961563366e-001, -3.4537064111146099e-001,
          4.9257653347975072e-001, 2.8946101866701163e-001,
          8.0371899896605181e-001, -1.7550453915066275e-001,
          -1.0533154550479529e-001, 5.7643562888553834e-001,
          2.8128669278925322e-001, 1.2448643188108313e-001,
          -7.0050726627249449e-001, 3.2171074864866367e-002,
          -5.7966582722073756e-001, -4.5620006455376998e-002,
          -4.7653331304218416e-001, 2.3168979632837697e-001,
          1.6071248503715793e-001, 7.4382650798910321e-001,
          -2.3662454418500256e-001, -2.1864244515903303e-001,
          -7.2936602455212696e-001, -8.7415975791387768e-001,
          3.3716307960849157e-001, 4.4521325336506395e-001,
          -2.5101410303296984e-001, -5.3478999842790254e-001,
          4.4764130509836325e-001, 4.8825744558882800e-001,
          3.0694623386426834e+000, -1.5899806020985080e-001,
          -4.2179682742767816e-001, 4.6425119309325191e-001,
          -3.6325779632502005e-002, -5.6388281211034863e-001,
          -4.6971027581619434e-001, -1.2145815370552376e-001,
          2.4917310781868224e-001, -2.3182894970099951e-001,
          -2.6692986376680033e-001, -1.6816470582649096e-001,
          -9.2227495686851360e-002, 6.2960777722997263e-001,
          2.5839500951296546e-001, 2.5646019407980530e-001,
          -9.0832382151002033e-001, 6.3893795799454955e-001,
          4.4375298833453886e-001, 3.6618461865134122e-001,
          2.0845327352190537e-001, 9.8619411185090533e-001,
          -1.1897778569094775e-001, -2.0702234011261220e-001,
          4.3952675119372864e-001, -3.0418675996238653e-001,
          8.6623523835868899e-001, 2.0155843499307113e-001,
          -3.5341094039897096e-002, -2.5828976720696251e-001,
          -1.0835091971038322e+000, 2.1227509410895454e-001,
          1.8615565661311319e-002, -6.7527295853152458e-001,
          4.7208909065181542e-001, -3.8430723002992517e-001,
          -1.8402808755485311e-001, -4.2267352639110467e-001,
          -2.9108223302568947e-001, -2.1732589239855929e-001,
          4.0123777040322145e-001, -2.0116015703761578e-001,
          -8.3565962066941246e-001, 5.8447861867270823e-001,
          8.2861289954663436e-002, 1.8565255289404831e-001,
          -4.5089716272918107e-002, 1.0559198567643158e+000,
          5.1967463957847015e-001, 8.6138390979660873e-001,
          -1.9859922317531556e-001, -5.0897933986736665e-001,
          5.1363406100359769e-002, -1.1341483920594952e-001,
          3.0727310393910762e-001, 4.0337017467252401e-001,
          -2.5268602357720849e-001, 3.1796684885324261e-001,
          2.0277444115764762e-001, -1.3763671621967488e-001,
          2.2697993600250110e-001, 6.8574397556251498e-001,
          3.0248573223493508e-001, 2.2565110161010246e-001,
          -1.7565285451617507e-001, -7.3533224046735818e-002,
          -3.0394460286874991e-001, -8.3651866488838503e-002,
          -5.0449143115960438e-001, 1.7690065287545439e-001,
          -4.9926785227829645e-002, 5.7894075493502184e-001,
          -2.5109570112283841e-001, -5.9390338289657035e-002,
          1.2575060521924139e-001, -2.7848601613735929e-001,
          2.5988791809197853e-001, -5.4580574926211302e-003,
          -2.5043821629717272e-001, 3.5094659735959882e-001,
          -4.9055490860884726e-001, 8.2044646882765498e-002,
          -7.6278016186348560e-003, -3.7441131160348162e-001,
          1.1079035438751825e+000, -5.1185033989013573e-001,
          -1.1229167896721218e-001, 6.1576355161496099e-001,
          -9.6949876237532373e-002, 3.7007629414290988e-001,
          -1.6024125277796282e+000, 9.2972054410454785e-001,
          1.0666225104687230e-001, 2.1736397124729670e-001,
          6.5925300272228082e-001, 9.2616925347474988e-001,
          1.1599215918278580e-001, 5.2511038642302021e-001,
          -2.1938384631143137e-001, 6.1557187870970498e-001,
          2.7585713179369498e-001, 2.2919959617502197e-001,
          -4.3270787068595040e-001, 4.0287399001193425e-001,
          -1.6059314055574861e-001, 3.1144212013223638e-001,
          6.4045357405544634e-001, -4.7860865600202601e-001,
          2.8152170704326140e-001, 1.4566828592387113e-001,
          -1.3326454427737733e+000, 1.1737636570628638e+000,
          3.1899485378380360e-001, 5.5091469597797960e-001,
          1.1657796546338324e-001, -5.3697394703112300e-001,
          -4.6455745025750436e-002, -1.9815342058935492e-001,
          -7.6385262640020535e-001, 2.7992775830929739e-001,
          -1.6578523869002695e-001, -3.9017114590151430e-001,
          -1.1247084584739664e+000, 3.1554879799791422e-002,
          -3.4597137340157354e-002, 7.2656274069422899e-001,
          1.7798660598650884e+000, 4.6988636557569163e-001,
          2.8177968057225289e-001, -2.8120937767967474e-001,
          -7.4674569924765632e-001, -9.6058114785986498e-002,
          -5.0282893910574146e-002, -1.6733442074667132e-001,
          2.1035936489111387e-001, 1.5566133965359094e-001,
          3.7662924273567833e-001, -2.8397496360581193e-001,
          7.2838528092869292e-001, 8.8486940765608989e-003,
          -1.8319229531194006e-001, -3.5043880950068118e-001,
          1.2956810224705212e-001, 3.0467751000422993e-002,
          -5.8758441454860466e-001, 2.0022345337951064e-001,
          8.4000709186686048e-002, 4.3765997002815216e-001,
          -3.3171735390363044e-001, 3.7261555075853603e-001,
          -1.4486738610194494e-001, 1.9695160594757913e-001,
          -3.4944669084829999e-001, 4.3871649527330095e-002,
          1.0776485613197576e-001, 7.3154579942657483e-001,
          -1.4110160633732460e-001, -3.3836928150259410e-001,
          -1.7194328782497972e-001, 7.7116749963811204e-001,
          -1.2923480552939401e-001, -8.4727977742569938e-001,
          5.3942814294707908e-001, -1.2839864139445517e-001,
          6.8604414217698617e-001, -5.1428916731385177e-001,
          3.7818960763778758e-001, -2.3430107341764284e-001,
          -3.0534509065950663e+000, 6.5694533303527092e-001,
          -3.6002707860451416e-001, 1.5964939421286408e-003,
          -2.0936559014548281e-001, 4.9346640039710216e-001,
          -7.7205786564984069e-001, 3.7387299395645723e-001,
          8.6544223307949075e-001, -3.7363699113937920e-001,
          -4.4305716697017178e-001, 6.5162869676359014e-001,
          4.3234026126206909e-001, 4.2343350633802518e-001,
          3.8286133567598407e-003, 4.9090637947409205e-001,
          -1.1205386152135441e-001, 2.2647330072116592e-001,
          6.1801190391496397e-001, 3.9635016930093736e-001,
          7.8846864192425303e-001, -3.3104769432183689e-001,
          1.1286068522716418e-001, -4.5430108352190373e-003,
          1.1642967090294210e-001, -4.6113428224845349e-002,
          2.4062121500516724e-002, -8.0599164195070017e-001,
          1.8007283505327917e-001, -1.0863317392757024e+000,
          2.2678777784753155e-002, 1.5181742711698532e-001,
          -3.1523423100977360e-002, 2.7362247032913389e-001,
          1.0038285389504340e+000, 7.6861838477816094e-002,
          -3.6117351463883079e-001, -3.7049127306577578e-001,
          -2.0832394003428073e-001, 2.0529146862453521e-001,
          1.5002704566840930e-001, 9.4545247975652613e-001,
          -2.3726521027419105e+000, -1.6575284460237236e-002,
          4.6871346294194510e-001, -3.8889305808645863e-001,
          5.2492797179073303e-001, 6.1428774970426203e-001,
          1.3668081298263421e+000, 1.5816230769913353e+000,
          -2.3634986719106399e-001, -2.0181510955058782e-001,
          -7.4440134196139007e-001, 5.8031220204546496e-001,
          -2.2670093013386791e-001, 9.6793863735342545e-001,
          -4.1168576223600338e-002, -1.7130425537410779e-001,
          -2.4087882310958039e-001, 1.2382065903170805e-002,
          -3.7776338539661902e-001, -3.1345306049210570e-001,
          -2.1653084726492924e-001, -1.1071775425083816e+000,
          -4.7872734638676667e-002, 1.4095161476040127e-001,
          -2.9312307358578943e-001, 4.2855334456067867e-001,
          -4.3658866766479032e-001, 1.1523601049751968e-001,
          -1.1542068635723604e-001, 4.0557351682898973e-001,
          -5.0060708195401493e-001, -3.0660952557299737e-001,
          -6.9856153683800715e-002, -1.4751350897519891e-001,
          6.5855602184889131e-002, 4.4288680325757585e-001,
          -2.9853705740642217e-001, 6.8069859081522333e-001,
          -4.8550672069692008e-001, 1.9764603394528191e-001,
          -1.5129853604508547e-001, 1.2618355374122264e-001,
          -2.9150591633536131e+000, -1.4812501101418574e-002,
          -3.8335779740258685e-001, 4.7667247206696534e-001,
          1.2822664727578545e-001, 5.7141099988420896e-001,
          -4.3571500028959859e-001, 1.1192508194972010e-001,
          -7.5026699724412990e-002, -8.5962174339622477e-001,
          -6.5495730191349091e-002, 3.8430298699980037e-001,
          4.0501547097785043e-002, -1.1946269606626966e-001,
          -4.1690094923625193e-001, 4.3761268797620467e-001,
          3.9420198946815310e-001, -5.1656681795318182e-001,
          -2.0142517551114433e-001, 8.6372423792112374e-001,
          4.1340719551256228e-001, 5.8531620721327760e-001,
          -2.8740767725693545e-001, -5.1275096788920071e-001,
          -4.6081798862966794e-001, 5.8420090248122125e-001,
          -1.5372715985112867e-001, -3.6033230054372567e-001,
          1.3114514714913394e+000, -5.0182587821170066e-001,
          4.2015981337769753e-001, 6.8941412566221905e-001,
          -3.8498817600552226e-001, 3.0772184554214776e-001,
          -1.0474180719264370e+000, -1.3535798857898859e-001,
          2.9833252178501712e-001, -6.1180292868338246e-002,
          2.5049928525170412e-001, -7.5003450055875706e-002,
          1.6658768364387996e-001, 8.3013901857253256e-002,
          2.8106995802186154e+000, -1.0099429452965183e-002,
          -1.5457960524791420e-001, 2.6379772743382435e-001,
          -3.1883742726263942e-001, 4.7277315467872416e-001,
          -1.0990076057608991e+000, -4.9044368102741642e-001,
          6.4534940310914291e-001, -1.0197755872174688e-001,
          6.5883605697191483e-001, -5.8193330211356709e-001,
          -7.5443300490475151e-002, 3.1056366809178659e-001,
          3.4008240744369883e-001, 8.4514587438484978e-001,
          -8.2174790851021907e-003, 1.4917032365550978e-001,
          -2.2527856509928243e-001, 1.1886366796339702e+000,
          8.0609548548473464e-002, 8.1408721715414034e-001,
          -1.6432392499408235e-001, 4.3793730571237155e-001,
          8.0268346552127967e-001, -7.8645650505417150e-002,
          1.1672215141577145e+000, 5.5327097801485425e-001,
          7.6313103929681048e-001, -1.8635519763826366e-001,
          -2.2391964958689972e-001, -2.5446377599796832e-001,
          -2.3946274464541986e-001, -2.6446702517810344e-001,
          -6.9567422219163999e-001, -1.5542313502500311e-002,
          -1.6913326459938829e-001, -9.3552664275333441e-001,
          -9.9133687189549902e-002, 1.0525967284645392e-001,
          -4.2548178262543018e-001, 4.9422702779024087e-002,
          7.4741335791248031e-001, -6.8527713981051053e-001,
          2.1889894052227352e-001, 2.6895310357537799e-001,
          9.6802666614915461e-002, -1.7703433302835740e-002,
          5.5663419247529010e-002, -2.0601214893635961e-001,
          -4.0606416916895892e-002, -2.6474704354223266e-001,
          -2.0548517779281612e+000, 5.3165471018726894e-002,
          4.8685591411068496e-001, -1.6213731446550309e-002,
          -6.1606282960455228e-001, -6.8995576965647121e-001,
          7.0200667968465957e-001, 3.2286173320321543e-001,
          5.9899507963305632e-001, -6.1486337133509472e-001,
          -3.0935792876556617e-001, -3.1910396614150860e-001,
          -3.9985127475311744e-002, 4.8826471696843739e-002,
          -4.0315876051374766e-001, 2.7710119177822773e-001,
          1.1472531712137475e+000, -1.2336478766875501e-001,
          -1.0614207264269366e+000, -3.5612695795585936e-001,
          8.2144913995050783e-001, 2.5161702842751588e-001,
          -1.5455713232873219e-001, 1.3793147621981200e-001,
          -9.6057134772756103e-001, 6.4956521907552051e-002,
          6.4370085545280686e-001, -1.1454299016835245e+000,
          2.1663605268751840e-001, -2.8635159393738080e-001,
          3.6583387860787207e-002, 9.4929060684556710e-001,
          6.1692283494236955e-001, 5.4121499807597739e-001,
          -5.4160440950734641e-002, 3.1320121397387801e-001,
          -2.2884218165484060e-001, 1.5138761456085800e-001,
          5.8050588064931896e-001, -4.1467201764649392e-001,
          -3.3912678588855161e-001, -3.6176466659180184e-001,
          -7.6581182605403619e-001, -3.3045574174406017e-001,
          8.0589308604321008e-001, 4.6036436758540533e-001,
          2.4311859172609712e-001, -7.3854913565346136e-001,
          -3.4384448693689791e-002, -2.5919836983973404e-001,
          1.1303433667605396e+000, -1.0888154853587095e-001,
          -2.6196563822595198e-001, -1.7265525086827990e-001,
          3.7221896818897943e-001, 8.0269639054193848e-002,
          -6.8742786043257220e-001, -8.4644743784288701e-001,
          -5.5400814057613068e-001, -2.9415602943851932e-001,
          -1.0368377508601050e+000, 3.2063428917769160e-001,
          1.3252160702392886e+000, 1.6497323801204211e-001,
          2.7496052649701003e-001, 2.7384344562162383e-001,
          2.4703979339473897e-001, 3.5351629758178321e-001,
          -3.5585858858686342e-001, 5.8639355436483587e-001,
          7.4348962912227612e-001, -3.2416495213389428e-002,
          -2.4847868915086951e-001, 3.4563059883397729e-001,
          -3.5967362451756002e+000, 2.1808966993077467e-001,
          -1.5908831756863648e-001, -5.0070951954692799e-001,
          1.9920044786157903e-001, -7.9868343912463599e-002,
          -1.5917525764672025e-001, -5.2926911123015763e-001,
          2.3107105761382626e-001, 1.1956663919536437e-001,
          -3.8454394348189463e-001, 5.8044869464458138e-001,
          -3.9211944222187683e-001, -2.4856911583273897e-001,
          -2.6455853487077036e-001, 2.8024340775304935e-001,
          1.1037248558397002e-001, 3.9992481039801064e-001,
          2.0803762894859901e-001, -7.1711548274522230e-001,
          5.6568418207496661e-002, -7.4033540145412713e-001,
          3.5014394663127379e-001, -2.5084692004786036e-001,
          3.9242274908459984e-001, 5.2950097029637866e-001,
          9.1516440086057194e-001, -4.4254667406318804e-001,
          -6.1782500770634075e-001, 1.1007080354767525e-002,
          2.9657683513851246e-001, -3.3152652470139182e-001,
          8.2028884732361959e-002, 5.4955021974874674e-002,
          4.1368305695811719e-001, 6.8592131713470716e-001,
          4.7943615521940092e-001, -2.0493852386808689e-001,
          -5.3462119357180493e-001, 3.5366369059008862e-002,
          -6.8148367226143414e-001, 3.3451890843685203e-002,
          -1.6374468968789866e+000, -9.1295689025429383e-001,
          2.2635938913796245e-002, -5.8113673051338709e-002,
          -2.8190422123461523e-001, -8.6569633843643579e-001,
          6.6464303471265446e-002, -1.6395929146786774e-002,
          2.0965449127745048e-001, 1.6849470507952138e-001,
          5.8176270096395394e-002, 4.1644540620707660e-001,
          -5.5667132706714105e-002, -1.4317006039763749e-001,
          7.3698665295072616e-002, -4.1130327145990221e-002,
          -6.2086137913846810e-002, -2.1995576187039970e-001,
          -1.0208515679540592e-002, -7.5431372037567401e-001,
          5.2092044940296456e-001, -1.5255420311486487e-001,
          5.3714913865746609e-002, 4.0120169504164516e-001,
          5.0109375061205086e-001, 6.9965479105633210e-001,
          -7.1760337024703413e-002, -6.2297998481873218e-001,
          -6.1894652271066733e-002, -9.8513142421781874e-001,
          -2.0807470594281308e-001, 6.6128172302498744e-001,
          -2.7380750624154504e-001, 1.9192226321089381e-001,
          -4.0863816363633761e-003, -3.1556878624825607e-001,
          2.4507624575963000e-001, -3.0941545127105955e-002,
          7.1395393015302844e-002, -6.2685638500865726e-002,
          3.2293711520183616e-001, 9.8319611280736674e-001,
          -1.1741181500513789e-001, -1.1349975133224070e-001,
          2.8968280674483521e-001, -1.9910989842423804e-001,
          5.7527363486656602e-001, -3.1746187493514894e-001,
          3.1037787447634596e-001, 2.2037720954377329e-001,
          -6.3814576549167626e-002, -8.1363079949865691e-001,
          -1.1042160126032783e+000, 3.1621268395544910e-001,
          -8.8321665623282669e-002, 4.2339616541768776e-001,
          1.5616646967873371e-001, -7.2222930725476353e-001,
          -2.8625031100432569e-001, -4.5166676616977035e-002,
          -7.3350211754462369e-001, -8.6887318640516120e-001,
          3.1421749924341813e-001, -5.6264011448862039e-001,
          -3.4264182681638961e-001, -1.6770433165336560e-001,
          -1.0570847066444335e+000, 1.8740389979762259e-001,
          -8.2563868591572220e-002, -2.3698951402016188e-001,
          7.5881396196677020e-001, -2.9377485050489016e-001,
          -1.0512619498905371e+000, 5.5391265277409958e-002,
          4.8477692522096091e-002, -1.0113161889916585e-001,
          1.2241631328605742e+000, -5.1936950775963686e-001,
          1.1886645235977505e-001, 9.6647325765730829e-001,
          -1.7120337772758673e-001, -3.8090070267464443e-001,
          -4.9532364102073317e-002, -6.6311801743739296e-001,
          -3.0927338666862498e+000, -1.7536363859157666e-001,
          1.1938885642547442e-002, -5.6594365713871519e-001,
          -2.0995072264026991e-002, 5.5702631224482635e-001,
          7.3128279510297059e-002, 2.3240868917922750e-001,
          -1.8861072369049903e-001, -1.5237543327970082e-001,
          3.3097301071290530e-001, -1.0188602505849747e-002,
          -2.2221480682167585e-001, -5.0011205780570600e-001,
          4.9842314307349048e-002, 7.0465299392124292e-001,
          4.4517967653470092e-001, 3.5341815048074360e-001,
          2.6473780681337994e-001, 1.3372514712469818e-001,
          9.9488642948519168e-002, 6.6035117010285538e-001,
          2.2659684291105889e-002, 4.3632536711406289e-001,
          -2.7026154693173504e-001, 1.1896553237686056e+000,
          -1.1881954114885912e-001, -4.8690046901059536e-001,
          9.7581879542661376e-001, -3.2278600061979829e-001,
          -3.4981660313124069e-001, -2.5763145178475488e-001,
          1.5511386224346183e-001, 2.6169307699184829e-001,
          -1.6315660548705499e-001, -5.2226872280090186e-001,
          -2.7530901432387878e-001, -4.5544619007281538e-002,
          -8.4532430908508527e-001, -5.3197170495844583e-002,
          -2.1176331569466969e-001, -7.9402446845941688e-001,
          5.4745991430281755e+000, 2.2525869101957894e-002,
          5.5725468193159440e-002, 3.4526709594598678e-002,
          7.0753486723586601e-001, -2.9106250196492583e-001,
          6.3008338377573053e-002, -1.3009590234378327e-001,
          -6.6895313171917506e-002, 6.4969230828371416e-001,
          5.9923918121399156e-001, -3.5582183365191389e-001,
          -5.7936319054937502e-001, 1.5352966745182525e-001,
          5.7878745337757864e-001, -1.0306416460211414e+000,
          -1.0507236631771202e+000, -3.3718852654870779e-001,
          -6.7044172972733640e-001, -7.2665554298813306e-001,
          -7.5701067427586632e-001, -7.5016292857750766e-001,
          3.5694914964397595e-001, -3.8135058714050141e-001,
          4.3425139891794218e-001, -1.2552687077085114e+000,
          5.0410733632234472e-001, 9.7720500271897681e-001,
          -8.8531512716622018e-001, 2.8312425111652162e-002,
          1.8653290163818986e-001, -2.2494792648882451e-002,
          2.1788540369103600e-002, -3.2532634311125054e-002,
          -9.7264816567250123e-001, 1.2726231066227633e+000,
          -1.3278004095571609e-002, -6.5501745933927347e-001,
          6.8967939458051117e-002, 3.3270705191490269e-001,
          -1.8594972522868580e-001, 4.1636544009146359e-001,
          4.7059112047166884e-001, -2.5596942296771386e-001,
          -1.2184596815434617e-001, 3.7660945887640418e-001,
          -2.7544625393627520e-001, 1.3275547258021718e+000,
          4.8379565089117388e-001, 1.8111650547083455e-002,
          -3.3109511761630306e-001, -6.4683419104452922e-001,
          -7.6675004878221076e-001, -8.8926606320457457e-001,
          -4.6450110472370881e-001, 1.0831575402160239e-001,
          5.9972298160258264e-001, -1.2135705646770947e-001,
          2.6221312946681069e-001, -7.1198839148105764e-002,
          4.8640469194054758e-001, 6.0328146199669508e-001,
          -5.5829301687571720e-001, 1.7163628357167629e-001,
          1.4379772031251192e-001, -3.2066117256718463e-001,
          -1.2832345001123351e+000, -1.1024596798626227e+000,
          3.4704342770990998e-001, 9.1518190410190425e-001,
          -9.5374798735018890e-002, 3.4100275357346366e-001,
          2.5214334784616182e-001, 2.2718486547608857e-001,
          1.8879265794315551e-004, -5.7003268760374559e-001,
          -9.4831454302664139e-002, 2.5075186351932499e-001,
          -1.7254267448594393e-001, 3.1851153772336899e-001,
          -3.1369745231787033e-001, -1.4864479008201040e-001,
          -4.0708040511929566e-001, -1.7244600270725255e-001,
          2.1654966198906602e+000, 4.2753012476099228e-001,
          -1.8947788864615139e-001, -6.8468858626465276e-002,
          1.2034755558731466e-001, -5.9392976847369008e-002,
          -1.0406836992656894e+000, 1.8119089011542602e-001,
          -1.5511838478497664e-001, -1.4493112921518642e-001,
          -3.7885424074388307e-003, 2.9530142843675666e-001,
          7.5928266361852037e-001, 5.0338228035543930e-001,
          -4.5345046073602360e-002, -3.2565960130587640e-001,
          -1.4470661610878088e-001, 3.6273010495230812e-001,
          5.4229701394363061e-001, -7.6008440708049552e-001,
          4.1151948543653749e-001, 1.0144029747642485e+000,
          -6.0722970550234101e-001, 1.3781053195699783e-001,
          -6.8524114593732022e-001, 3.1082916073932898e-001,
          -1.3881905884045627e+000, -6.7762777622152925e-001,
          -5.6890218289048855e-001, 6.2730355461796103e-002,
          2.4669106448148856e-001, -3.5450794918037976e-001,
          -1.0849536897425907e-001, -8.7772775620123828e-003,
          1.0288528467757039e+000, -1.1939225048737583e-001,
          1.2400761863199114e-001, 4.7210026543270966e-001,
          3.0969660846911506e-001, -5.9457032041982250e-001,
          -1.5556610146013856e-002, -4.6187159248461823e-001,
          1.3631403041755172e-001, -9.7780536741174773e-001,
          2.3465210476456067e+000, -1.9419727554904487e+000,
          1.7318102572544933e+000, 5.7437668286065102e-001,
          5.8016228407445858e-001, -1.0533188445954045e+000,
          -2.4704576534931473e+000, 2.2652833903391656e+000,
          1.9850899519344536e-001, 1.0699531064755035e+000,
          3.2244344957109893e-002, -8.9207699530344364e-001,
          -4.0125406143240214e-002, 1.2370776858919434e+000,
          2.0997061607216239e+000, 9.5051131645712605e-001,
          -1.3778859610534198e+000, -1.3314120346595852e+000,
          -2.2037598470526372e+000, 1.5765759446480598e-001,
          -2.3059980058133336e+000, 2.3573275845258097e+000,
          1.1390338650025487e+000, 9.6212762758038084e-001,
          3.4129386567318165e-001, 5.0516660972601268e-001,
          -5.6543719357618583e-001, 1.6122148713218611e+000,
          3.9990977702088243e-001, -6.0050996084940245e-001,
          -2.4111059970813713e+000, -1.9820335321368929e+000,
          1.3591305940265425e-001, 1.2528332609665296e+000,
          1.8248616253986762e+000, 5.9953384194767256e-001,
          -7.6267060324257030e-001, 2.0750842788781672e+000,
          -1.8197058463579863e+000, 1.1220770254740240e+000 ]
      - [ -8.2491925991759041e-001, -2.8791774402706455e-001,
          6.6962082792142297e-001, -3.3071232739734124e-001,
          7.1132779183324701e-001, 1.1478545938325189e+000,
          -6.1089356526885896e-001, -2.6122561859621651e-001,
          1.6737752136252398e-001, 4.2949943593719675e-001,
          -1.0853110958667504e-001, 3.0276742049420785e-001,
          1.0813630227296831e+000, -1.8500737406606613e-001,
          4.0196915013322804e-001, -4.3017409047163907e-001,
          -4.7009935625493598e-001, 1.6693170165572388e-001,
          1.5475837769756823e-001, -1.4889940819019254e-001,
          3.1654146011388734e-001, 8.6475001557322317e-001,
          2.1015331063957560e-001, 3.7361617502162475e-001,
          1.8427439334430873e-001, 1.3799093868085035e+000,
          -3.3749553621556898e-002, 4.2320003094870451e-001,
          1.3487261113934593e-001, -1.9354980290322024e-001,
          2.4844249120525430e-001, -5.5000584773126293e-001,
          2.4450122304318736e-001, 1.3603163807399117e+000,
          1.9060906639988956e-001, 2.8244806937982009e-001,
          5.7287818517214106e-001, -1.8282969887308953e-001,
          7.2256719409082903e-002, -1.3191028588719503e-001,
          -7.0591355897198071e-001, 1.3125096772031480e-001,
          9.4160062502698560e-001, 7.7292186468573831e-001,
          -8.4558781784321368e-001, 5.8523262979151591e-001,
          -3.1300107069739158e-001, 3.9427448828591327e-001,
          8.3076215086448058e-001, -2.5099737893458429e-001,
          4.8817036477273795e-001, 2.0546878693586884e-001,
          9.4954932978807638e-002, 7.2596406832455807e-001,
          -8.9849042259262091e-001, -6.5406270240991349e-001,
          5.5977679828334703e-001, 6.7038735225850998e-001,
          1.1192485138804258e+000, 1.4118518511732417e-001,
          8.6791781639425958e-001, -4.3424586174155261e-001,
          -1.4472815851947288e-001, -2.7332897435363041e-001,
          5.5849235781301743e-001, 3.9622725099584000e-001,
          -2.3767831703204682e-002, 8.3159901940422343e-001,
          1.1727543591868155e+000, 9.3120098802313839e-002,
          1.1071731995913663e+000, -5.6871106905576052e-001,
          -2.0355409551236832e-002, -9.6228297745781821e-001,
          7.3884370329018345e-001, -7.6904116904794387e-002,
          9.5210904630664417e-001, -9.5336581053140801e-001,
          -1.3317427459123699e+000, -1.9700879316166722e-001,
          3.2703468922024898e-001, 3.8900562441527364e-001,
          4.9136660315138281e-001, 4.2774550400410655e-001,
          -5.4266686757395666e-001, -1.4261944692107320e+000,
          -7.8401758226192775e-001, 4.3145892155721921e-001,
          -1.1825840796219640e+000, -3.7345493169166499e-001,
          -1.1434540144224330e+000, -1.0001012890559382e+000,
          2.0942321201964181e-001, -4.2037773729011313e-001,
          -2.5943865892677742e-001, -7.5597921229077825e-001,
          -9.1884041281399376e-001, -6.3699032511075648e-001,
          -6.5776918920176164e-001, -1.3418810080440191e+000,
          -2.4395318770887536e-001, -1.0372242100562046e+000,
          -1.0759332134041919e+000, -1.1029276201040863e+000,
          -1.1222452720233711e+000, -3.1590252831204774e-001,
          -7.2584906471794419e-001, -1.8728693465084817e-001,
          -8.7145320934127812e-001, 1.4404289402021420e-001,
          -4.1773555615420221e-001, -3.0019139069788081e-001,
          1.1908058095008629e-002, -6.4987602011659273e-001,
          -3.5966192303790917e-001, -8.8290193027562225e-001,
          1.3212592967787640e-001, 3.2943220508182625e-001,
          -6.1189321443475597e-001, -4.6055701069745375e-001,
          5.3415173276300554e-001, -6.6175787779804673e-001,
          1.9081556968437657e-001, -3.9076982170507429e-001,
          -1.6913173596685005e-001, 2.8244243936945251e-001,
          -3.2709026667770380e-001, -2.6195764576757802e-001,
          -6.9144972559912554e-001, -7.7620802028429215e-003,
          5.2206513286717826e-001, 1.5327150746688747e+000,
          -2.9798629487992362e-001, 4.8096633908920700e-001,
          5.6086996708342822e-002, -1.6018214262465022e-001,
          -4.3101953264786955e-002, 8.4493205358452328e-001,
          5.7855661114916057e-001, 6.0951418347044040e-001,
          3.0295082186281441e-001, -7.8228139732592150e-001,
          7.8651868392377464e-002, 1.7389306772695055e+000,
          8.0002036458016257e-001, -1.6907801033742673e-001,
          5.8634215570564285e-001, 1.0171052218611575e-001,
          8.9957271371460057e-001, 8.1016847882252652e-001,
          -1.9257879102990455e-002, 1.4705478126944047e+000,
          9.7257318425381556e-001, 2.6265724185517941e-001,
          8.9162679778948442e-002, 3.5533777582356296e-001,
          3.3763822463214654e-001, 1.0519611766660601e+000,
          4.9971917859668397e-001, -4.4128832750592389e-001,
          1.3596994703890780e-001, 1.0570789170360213e+000,
          1.0644768619856950e+000, -1.1814936943086071e-001,
          5.8991669801231272e-001, 8.2216380930212252e-001,
          -3.4154494705841815e-001, -3.5942577453581676e-001,
          -9.6446785659092804e-001, -8.0552473225231569e-001,
          -3.4263840270461471e-001, 6.0919923866274572e-001,
          9.2384388798354222e-001, 5.2230354272067347e-001,
          2.1717697787856560e-001, 2.2753657422662793e-001,
          3.4515608177198565e-001, -8.4823110340789110e-001,
          -9.1338244954060410e-001, 7.8706657001363356e-001,
          -1.7416692920170487e-001, -1.1169485823204701e+000,
          -1.1505317296418751e+000, 5.3373666811914999e-001,
          -2.8571111428616541e-001, -1.4537090949819798e+000,
          -9.1565403655419308e-001, -5.0457380958885767e-001,
          -7.9331676676031349e-001, 4.1885741641766977e-001,
          8.4192973104834301e-001, 1.0104527175023823e+000,
          -3.2428163200789356e-001, -5.0798565981482779e-001,
          -9.5569865797719436e-002, -7.5082840790437066e-001,
          -2.8570678935670873e-001, -7.4901536040519423e-001,
          2.1929810733547350e-001, -4.5247217019334435e-001,
          5.1663541441036531e-001, -1.3703255005508902e-001,
          -1.3284291555807853e-001, 1.7562623833576027e-001,
          -8.3075639052843475e-001, -2.6588551928645277e-001,
          -2.3172852660425136e-001, -9.9153984382353533e-001,
          -1.0346147395205150e+000, -9.3956062694881992e-001,
          7.4902594440597314e-001, 8.6724786533185316e-001,
          -4.0961691721486082e-001, 6.1774495682037012e-001,
          -4.2863199950447017e-001, 1.9793211070167036e-001,
          6.6368476836944146e-001, 4.2324273213825986e-001,
          -1.2771902360536531e+000, 5.7104009181971860e-001,
          -5.1238691460880470e-001, -2.6830184256317108e-001,
          -8.1778321578367508e-001, 6.7390274310023679e-001,
          5.5535715743341574e-001, -3.6392721862469005e-003,
          1.1958727026958763e-001, 8.3284468067586170e-001,
          -9.5066413590471588e-001, 8.9860618578123175e-001,
          1.4353542336378780e+000, -6.6584371902166917e-001,
          -1.3070376948166174e+000, 5.1935269328324241e-001,
          -5.3437792434651223e-002, -8.6233290250946681e-001,
          4.5020213775840068e-001, -8.8757476659917256e-001,
          -3.0336178803565067e-001, 9.6037615008789901e-001,
          1.3385153999050994e+000, 4.1469589989966776e-001,
          -6.0688451172595681e-001, 6.6056252685309746e-001,
          -1.1411720514170218e+000, -5.5314982531328072e-001,
          8.1575101325005961e-001, -6.7615546648812251e-003,
          6.1312012587387459e-003, 2.9260463700235919e-004,
          -6.5308184036703437e-002, -1.0482330298808398e+000,
          6.8924952850677501e-001, -6.6008071831448678e-001,
          8.9948836964632739e-001, 4.4810055329778475e-001,
          1.4542624446591497e+000, -4.9192438788744758e-001,
          9.3383752999130321e-001, -9.2087443847083006e-001,
          -7.0850994555190699e-002, 4.3105418005191404e-001,
          4.4735689926723060e-001, 1.6275108926106018e-002,
          1.7044661748923604e-001, -8.3521854967670239e-001,
          -9.5601355486964679e-001, -6.9799551196534626e-001,
          -1.0123104132092819e+000, 4.7605511477262513e-001,
          -1.3374482576060873e+000, -6.3472634533494818e-002,
          3.8705053033272180e-001, -3.0424907636859394e-001,
          1.5279892541625728e-001, -1.6100292959033289e+000,
          -1.5413188754497160e+000, -8.8955289823774275e-001,
          2.4536588037997902e-002, 2.0447678107714404e-001,
          1.0603305900085771e+000, -3.7758781029324684e-001,
          -2.1001958300720566e-001, -3.1076809909222003e-001,
          1.3719851055814494e-001, -7.8896799072025092e-001,
          -4.6624328986040783e-002, -5.9267403176891753e-001,
          5.9714733197703407e-001, -5.4186791487825914e-001,
          -6.0010243110503092e-001, -4.4576382731536246e-001,
          2.9121596033648028e-001, -3.1149837648298545e-001,
          -8.1478967838208438e-001, 9.3957258176637992e-001,
          4.9340793429386359e-001, 6.0263905719406341e-001,
          -4.3947391959315513e-001, -8.1812280723293485e-001,
          1.1298419422834008e-001, 1.8362230422091436e-001,
          5.0537064396687426e-001, 6.8411109828292171e-001,
          7.9656567243352927e-001, -1.5708801380076742e-001,
          1.2988478265392803e-001, -3.1410406785316131e-001,
          1.0339552904734242e+000, -4.7224325911711279e-001,
          1.3062391823049087e+000, -2.5499229674952945e-001,
          1.4674153209683376e+000, -2.3757221474063406e-001,
          1.2540707937708837e+000, -2.4380037336781214e-002,
          6.2334226026655504e-001, -9.9464918521460444e-001,
          1.1958571241604379e+000, 8.4973890268633634e-001,
          1.7191308202979391e-001, 3.4672179485301674e-001,
          1.4040962094302165e+000, 1.0090951739496763e+000,
          9.8563745834063821e-001, -6.0384128315046870e-001,
          2.6304867558338491e-001, -3.4706960278431809e-001,
          -5.2926830348362963e-001, 8.2715849440156933e-002,
          7.9796813380164244e-001, -7.6610297706264444e-002,
          -8.8087674239706559e-001, -1.0394578546784574e+000,
          -3.9583203020597646e-001, 3.1293857093116728e-001,
          1.2468550052397058e+000, 7.9830619975039563e-001,
          -5.8047183332051194e-002, 4.1737066858146438e-001,
          8.1334352460323500e-001, 1.3372078606866594e-001,
          2.2610188812517168e-001, 3.0059396702754256e-002,
          1.4931057670199677e-001, 7.2124475179374958e-001,
          4.5374976814389956e-002, -4.0162177825375636e-002,
          5.0349095729437299e-001, 9.8803632606411484e-001,
          -2.1978980079099988e-001, 1.1086712455230217e+000,
          1.1929530188488255e+000, -2.6508027085145264e-001,
          1.4637715115548715e+000, 2.9687439492992868e-001,
          7.8129154103962162e-001, -2.2647145920351708e-001,
          -4.2964858792705579e-001, -1.0094284914496104e-001,
          -9.6793449670427273e-002, 1.5688912809025932e+000,
          6.2789459630556477e-001, -5.0816222249657383e-001,
          2.1741703204120136e-001, 1.0095680725163281e+000,
          -4.3280931219414720e-001, 1.1684500763955350e+000,
          7.8022150985104088e-001, 1.6570082346378197e+000,
          5.0396115754947246e-001, 8.3514604889649180e-001,
          1.2262543965194930e+000, -4.4642471932485389e-001,
          7.7316889269959299e-001, 9.5695144223761663e-001,
          1.0328301208503079e+000, 1.2277072594812106e+000,
          -1.0311298250454132e-001, 8.5032379013719328e-001,
          -9.1398110772916130e-001, -7.1759460110309148e-001,
          -7.2709474586841016e-001, -8.1243795073212488e-001,
          -1.3960805731251142e+000, 1.0139876436460767e-001,
          -4.3064664413486810e-002, 1.0536749310087266e-001,
          1.6394341685649787e-002, -7.1185416876843344e-001,
          -1.0054909948967926e-001, -9.6189336304682585e-002,
          -3.3157950982858575e-001, -8.6325548004793651e-001,
          5.8064323308608323e-001, -9.4576054746900728e-001,
          4.7021824780182514e-001, 5.9434010943473607e-002,
          8.2196058735770527e-001, -2.3951874212573543e-001,
          -3.8868355135544719e-001, 2.2730447450308215e-002,
          -1.5948342193344494e+000, -1.3046212770372962e+000,
          -7.1328849726716681e-001, 3.3127736292645354e-001,
          -8.3552607703100157e-001, -1.4942008747970448e+000,
          -1.3482137788050479e+000, -1.2578155609076427e+000,
          -1.1489641576992065e+000, -4.6705966850501307e-001,
          -9.8752675080780050e-001, -4.9059830562216444e-001,
          -4.7794940817677566e-002, 2.5144305308326276e-001,
          -3.6162762821235750e-001, 2.0069326460580728e-001,
          -6.2381585733232414e-001, -3.9698943482818699e-001,
          7.4669082504282036e-001, -7.6390085167600508e-001,
          9.6984038768537395e-001, 3.8863283199059706e-001,
          4.6955993542077334e-001, -7.3700722308076894e-001,
          3.8275506794038289e-001, -8.0679968055409990e-001,
          -4.5306563345655892e-001, -6.7213291493102223e-001,
          1.3940157642715048e+000, 1.0093152393422786e+000,
          7.6679748419252713e-001, 3.6908023713041013e-002,
          8.5553498965881347e-001, 6.0501019481245910e-001,
          -6.9232288136833642e-001, -3.4610016423917611e-001,
          -8.2601444408561620e-001, 8.1212171727212301e-001,
          -9.8039138024060624e-001, -9.5362015957189017e-001,
          9.9359784807125387e-002, 2.5279817321900977e-001,
          5.0447374545289725e-001, 5.2975285792541482e-001,
          -1.3818327006140576e+000, -4.7065190710893262e-001,
          -2.0422145249158360e-001, -1.4073366411618685e-001,
          -5.7459923139230751e-001, -4.1481859205992377e-001,
          -6.7671131586213806e-001, 5.8212665120943474e-001,
          5.1227094361281311e-001, -1.0462533974895230e+000,
          -1.8092316284189638e-001, -3.8918474314790708e-001,
          5.7441005794990863e-001, -9.6818020233223856e-001,
          1.0389565988479386e+000, -1.2666932269103106e+000,
          -5.8507260761011359e-001, 3.1066927707779762e-001,
          -6.8970295820320360e-001, 6.3951087614475521e-001,
          -1.1552843074361079e+000, 2.2293796419513559e-001,
          -8.2100291715837648e-001, -2.0497875253613990e-001,
          5.7729996742723433e-001, 1.0651139900625062e+000,
          -1.8302700111425654e-001, -5.9368793305475487e-001,
          -2.3392875633165641e-001, -3.4424760805992788e-001,
          2.0121524219637227e-001, 4.2641037858702557e-001,
          1.9062973190658064e-001, -4.8779108442415642e-001,
          -4.3577426453920903e-001, 4.6704656464542957e-002,
          -5.1004149852499903e-002, -7.0514125361131730e-001,
          -4.8463562446454045e-001, -1.1637897687582366e+000,
          7.8475974869050602e-001, 3.8615584780439532e-001,
          -8.4275233535209648e-001, -1.2881832355111256e+000,
          -1.2657555091206769e+000, 3.0308740786266991e-001,
          5.5079477009680966e-001, -6.9267219577599415e-001,
          -6.8350549806685246e-001, 3.1742838149819463e-001,
          5.7276106738524046e-001, 6.0546781551525308e-001,
          -9.2195793560230022e-001, 2.4192596726904433e-001,
          -4.4679242623153514e-001, -4.4883637245559971e-001,
          -2.2957062942059886e-001, -1.2043326569815199e-001,
          4.0234993629069343e-001, 6.7779817680738944e-002,
          -5.5207422367673531e-001, 5.5652753378669539e-001,
          7.4625734236697339e-001, -8.4702558374822634e-001,
          4.5370591276348482e-001, -9.4887910409929499e-001,
          -3.5431828580190672e-001, -2.2580513669768343e-001,
          1.1461937821186547e+000, -6.7379566303108340e-001,
          -4.6848519385990106e-001, -5.1260437865504183e-001,
          1.5004158132279638e-001, 7.6415293096541581e-001,
          2.3583998421841076e-001, 6.0576136567760480e-002,
          -3.5227592444365086e-001, -9.6549990607152791e-001,
          -3.4335233762498779e-001, 1.0590021001091576e+000,
          -6.8958469710309267e-001, 4.1908457314901121e-001,
          9.5874053827999117e-001, 1.1589223354558009e+000,
          1.3200116370926268e-002, -1.0226646578734899e-002,
          -7.8745472165327635e-001, 5.5750104369754305e-001,
          8.2093954653909385e-001, -6.8384460090248278e-001,
          7.8793608086178724e-001, -9.8762802577500974e-001,
          9.9919860092362156e-001, 2.8611934344354412e-001,
          -4.1121782958164876e-001, -8.4193701332797888e-001,
          -1.0414955240837269e+000, -6.4350811509599215e-001,
          1.1037659854814506e-001, 6.8814851442470848e-001,
          -7.0423493927966388e-002, 4.6013659348578567e-001,
          2.5241090825822664e-002, 7.3629604504054036e-001,
          -7.3086059325210684e-001, 2.1631671472559066e-001,
          4.9743539813188716e-003, 1.7918949836224762e-001,
          -2.0710480565704367e-001, -5.0898904297458181e-001,
          1.4718647173060123e-001, 1.1976023920714356e+000,
          -5.7887448728114665e-001, 2.3608329297147390e-001,
          1.4408902345973792e-001, -4.5100222808471320e-002,
          9.8865162279437480e-001, -3.2561376847080592e-001,
          3.0756223094231366e-001, 3.9732228699145986e-002,
          -6.0487205243796616e-001, -3.9589550697763148e-001,
          7.8742060818584980e-001, -3.5923232430120594e-001,
          8.8460346461117478e-001, -4.1746032987300846e-001,
          1.0516781754077342e+000, 5.2304105869823958e-001,
          -6.7799950303830225e-001, -3.5167424054089669e-001,
          -7.7052982615549173e-002, 6.1781726099372625e-001,
          4.5087557402813316e-001, 3.3505233165079545e-001,
          -7.4059535071383006e-002, 6.3060725539114226e-001,
          8.5175933345615817e-001, 2.1234350757300316e-001,
          -5.3866164487451573e-001, -4.7994501602886808e-001,
          1.1803878997022201e+000, 5.6534347040910704e-001,
          -2.4315544824953436e-001, -1.1165412320256729e+000,
          5.2577703788616947e-001, -7.2230471527570006e-001,
          5.1841869806792083e-002, -1.8358087216714192e-001,
          2.7942383774463531e-001, -5.2591221505234353e-001,
          -6.8816706295313945e-002, -4.0911138399074082e-001,
          2.2191375095474742e-002, 1.0531048659251896e+000,
          -7.1594029445395746e-001, 5.8830403683007526e-001,
          3.9608422828557571e-001, -2.6978210805821007e-001,
          7.8340152599689783e-001, 1.0626592647199640e+000,
          -1.3350288197598816e+000, 2.0242661595225647e-001,
          -4.2582522202731210e-001, -8.0873487117697568e-002,
          -5.4552440461927931e-001, 9.4484567925470286e-001,
          7.6401465124828749e-001, -3.2518617386633247e-001,
          7.5584991063100393e-001, 4.2646805932677856e-001,
          -3.1588869468449604e-001, -6.4937379086693392e-001,
          8.8986644745222776e-001, 5.7058519163758548e-001,
          -7.8388814358694581e-001, -1.4466744666280343e-001,
          2.8239225735573320e-001, -4.5202343589732685e-001,
          3.3264262957280016e-001, 7.8046038445721044e-001,
          -4.1909183023987201e-001, -6.9099984558543459e-001,
          -1.0705259170661856e+000, -6.0352778874336488e-001,
          -7.4493475160282296e-001, -2.5407532204076966e-001,
          -6.9807427993703397e-001, 4.8244891081002200e-001,
          -3.6824399493027116e-001, 2.7587286322525462e-001,
          4.4975797649247790e-001, 8.4105180759207609e-001,
          -6.2287411679819438e-001, -5.4585938362125619e-001,
          -7.2936307054434391e-001, -9.7983866246066545e-002,
          -6.9047208519252931e-002, -3.3801796338427381e-001,
          -1.0860625560863826e+000, -1.4551870964945501e-001,
          -2.1686943763237782e-001, 7.6150984135857935e-001,
          -1.0734370959917756e+000, -1.0552654434736257e+000,
          -6.4752522147613312e-001, -7.0723250501866430e-001,
          -9.4006125380476346e-001, -1.0603986958817069e+000,
          4.9120520947920493e-001, 1.4153750080274510e-001,
          -1.1371424717227796e+000, -3.5047982500749825e-001,
          6.2002518129650928e-002, 9.5155803618462070e-002,
          -6.0601097667673476e-001, -9.0163365705720344e-001,
          -8.0672963692433375e-002, 3.3957686813785720e-001,
          5.4875894542505611e-002, -1.2114572194870183e+000,
          8.5493575126709453e-001, -1.4036014586552277e+000,
          -1.6682581025108367e-001, -8.6530168619788517e-001,
          6.8311374419528503e-001, -1.6008740158654935e-001,
          -2.6100800964167814e-001, 6.1078124516228527e-001,
          -1.1999166720355738e+000, -3.1083989064503675e-001,
          1.2788242732128818e-001, -1.2555912297936953e+000,
          -2.9979388071059448e-001, -2.5775965660123745e-001,
          -6.6957335073456958e-001, -4.2439786316355366e-001,
          5.0319926876625620e-001, -1.0592699289432626e+000,
          -1.1487803294904837e+000, -1.2066551475962624e-001,
          -1.5503964496973106e+000, -2.7341738351965039e-001,
          -6.6813229857078016e-001, 3.2082610903238284e-001,
          -5.6683232220812216e-002, -1.0601183065950848e+000,
          -7.2742627922986114e-001, -1.1208606695204100e+000,
          -1.4999656582614367e+000, 2.1575619134670887e-001,
          -4.4043697380087654e-001, -5.0754105662359694e-001,
          -1.2061931449847967e+000, -5.7777405320563668e-001,
          -7.4826447116648076e-001, -1.2177010501290315e+000,
          2.8792492154704308e-001, -6.5411477693917992e-003,
          -2.6827858676492633e-001, -1.0006031743782955e+000,
          -5.4626645788648798e-001, -2.3331436234674965e-001,
          -9.5187422655719844e-001, -8.1376595117805350e-001,
          2.0214171195421304e-001, -4.5224485004529247e-001,
          -1.6879589581037990e-001, 6.1471629604407307e-001,
          -5.7782255757694823e-001, -4.0151673609059871e-002,
          -1.2597405330201430e+000, -3.5307987271362856e-001,
          -5.3866662378363428e-001, 6.9514642912946079e-001,
          -8.7796967872224718e-001, -7.9816127578346407e-001,
          -1.4264025138404672e+000, 4.3938569515150383e-001,
          -7.7460987974948325e-001, -3.2162657991051968e-001,
          -1.5066335006289144e-001, 3.8193127594133391e-001,
          1.6764929607921336e-001, -3.3936056059327774e-001,
          -2.0004339244053637e-001, -4.8193831785417823e-001,
          6.1483687819450727e-001, 7.8721408664193981e-001,
          2.0101697483247399e-001, -1.6271317716463463e+000,
          -7.3162816942564413e-001, 5.1403253548957084e-001,
          2.2242011652240951e-001, 3.7689457535541193e-001,
          9.1568489753264537e-001, -5.4360367548167676e-001,
          1.0403266037469372e+000, 2.1685020994943832e-001,
          4.4082107932676551e-001, -3.1286300080953694e-001,
          1.0557792819678939e+000, -1.3215897352481927e+000,
          -7.6563573173482363e-002, -9.4182850400289286e-002,
          -3.9832591481477486e-001, 6.9935570990037443e-001,
          -2.1208052204910208e-001, 3.5920207336821749e-003,
          -8.2287994858471392e-001, 8.1659003557382176e-002,
          3.4679428857789116e-002, -4.6845040701925095e-001,
          -4.6568353367054116e-001, -1.1497949972784813e-001,
          1.2813900654620514e-001, 5.1077946923264665e-002,
          -1.3746271635138363e-001, 1.1306573888435538e+000,
          -5.6959472189404059e-001, 1.2844384990495981e+000,
          1.4127896681751042e-002, 1.1303351287169437e-001,
          9.3079623653955235e-001, 5.8031183716490276e-001,
          6.7560725606750049e-001, 1.6572914093947912e+000,
          -7.4382544856363170e-002, 9.8729596292144628e-001,
          -1.2199768412049794e-001, 1.6821087564020363e+000,
          2.8351034888648236e-001, 6.3498704893427382e-001,
          4.2590084940945683e-001, 2.3760087399127836e-001,
          -2.7486105999330185e-001, 2.6595280693931383e-001,
          3.8798791081956541e-001, 2.8469289664360559e-001,
          1.3902391576245805e+000, -1.0369691589009371e+000,
          2.2334187273542030e-001, 5.7690598036944474e-001,
          1.3614283312142066e+000, -5.2148072010830659e-001,
          -3.0239959396531246e-002, 1.5113810661787358e-001,
          3.6573190541770983e-001, -1.4808764880418778e-002,
          -1.9097295223912711e-001, -8.5002470757127435e-001,
          1.2827419917335889e-001, 1.3392081792431094e+000,
          -8.2149143755518406e-001, 7.7872891687797752e-001,
          9.6286843052630489e-001, -8.6099252852600963e-002,
          -7.1479001304545919e-001, 4.3403210698238881e-001,
          3.9684701683442658e-001, -5.8467790101943429e-001,
          4.0385883181980364e-001, 2.3593294330906125e-001,
          9.2501780850483284e-001, 1.8205533066468500e+000,
          -3.0339620085100444e-001, -4.9786368255284746e-001,
          -1.1167567664336822e+000, 4.8966534128049249e-001,
          -5.4740952864390391e-001, 8.7376745826659641e-001,
          2.5242089074298446e-001, 1.4702728374768956e+000,
          -1.0212203581343515e+000, -1.8927866444659845e-002,
          -3.6157439219646786e-001, -1.3073328872295456e-001,
          5.5180351140210870e-001, 1.1156201040218985e-001,
          -1.0929036211946033e+000, 3.7750919492667595e-007,
          7.1379296845348861e-001, -1.1467770707110601e-001,
          1.2133784984592155e+000, -7.5952375769156122e-001,
          1.0069572478629625e+000, 7.6436457507890565e-001,
          -6.2118465678526780e-001, -6.8788381569356216e-001,
          7.4663669990773784e-001, 2.4901035040355893e-001,
          1.1956804617077785e+000, 9.9837436629287146e-001,
          -4.6516166882932108e-001, 5.2023981314708101e-001,
          -2.9426496930939272e-001, 1.4721238744071716e+000,
          7.3993413547720355e-001, 1.3136177546442436e+000,
          1.0170856595725948e+000, 1.1527431305158682e+000,
          6.8045333778376793e-001, -1.8258905100895001e-001,
          -3.0225519638296838e-001, -1.8852624260149020e-001,
          1.3582160410120248e+000, -1.0166130091472650e-001,
          3.1925977593129418e-001, -6.0644678161157639e-001,
          9.9049776993646321e-001, 3.9932973756004092e-001,
          4.4451594839893427e-001, 4.8457970919898535e-001,
          8.3207280322363220e-001, 5.1985933318224287e-001,
          -2.9073125374981601e-001, -6.2080917028868887e-001,
          -2.6194572217207129e-001, -2.3420607316222483e-001,
          1.5520687991467066e+000, 1.0658965561607767e+000,
          -3.0191214834348490e-001, 1.3289089695027119e+000,
          -4.3113953459105084e-002, -4.1010983740599655e-001,
          1.5836822472018133e+000, 4.5354924182503420e-001,
          2.8742072715138139e-001, 8.0594736783064236e-001,
          8.2762681079170719e-001, 6.2530484144465187e-002,
          3.2758044020207133e-001, -2.3134902858839521e-001,
          2.5154274159111739e-001, 5.7615000735718891e-001,
          9.9801689162227836e-001, 6.4738834925765409e-001,
          -1.1369445775250422e+000, 3.1875286045362783e-001,
          1.9186858961623096e-001, -4.5558820455926191e-001,
          1.1548517309603890e-001, -4.6980653784246623e-001,
          1.9488790373504081e-001, -8.1118755119116792e-001,
          6.8421294549972933e-001, -1.1897010264213148e+000,
          -1.1530686702002362e+000, -7.8065748750807162e-001,
          -1.0040249188687753e+000, -6.1955088854193263e-002,
          -8.0150058805931360e-002, 5.6510291725827821e-001,
          -3.7945609844698297e-001, -1.2010096918509805e-001,
          -1.3618300928070093e+000, -1.4464409051720872e-001,
          1.0268554853889635e+000, 1.5839209192900625e-001,
          5.3299358616554215e-001, -4.7504916131673021e-002,
          3.7626574818241204e-001, 4.4376803808502330e-001,
          -1.2103727413124739e+000, 9.3249022008900118e-001,
          -1.3416425892529746e-001, -1.0007045959234400e+000,
          -1.0180260571782807e+000, 1.6719708481398761e-002,
          -2.8474087167442447e-001, -1.1171117255233001e+000,
          6.3163196875241145e-001, 6.7270556033280271e-001,
          1.0343706587817858e+000, 7.4657804979460463e-001,
          -1.1055062935951461e+000, -5.9784947456491355e-001,
          7.8045406080529067e-001, -7.9937215942247497e-001,
          1.1802372233897147e+000, 9.5997905667507699e-001,
          8.0413641079834364e-001, 4.2341773601755323e-001,
          1.3878122028937410e+000, 9.4715682538211154e-001,
          -6.7574326976097709e-001, 9.3858596758655699e-001,
          1.3962762563920097e+000, 1.3889147106734583e+000,
          7.9745937892956509e-001, 1.1273175699797682e+000,
          1.4024093163704314e+000, 1.2124119027087545e+000,
          1.8558966921695938e-001, -4.6918752773022521e-001,
          7.7475875600940836e-001, 7.2919938939154216e-001,
          9.1301569057643739e-001, -1.4374722681358480e-002,
          1.9691498464471002e-001, -2.5914174110818772e-001,
          -4.3747194296212794e-001, -8.4532366289655117e-002,
          1.3355161081562332e+000, -4.6045076466833468e-001,
          6.0648570038824468e-001, 3.2428773453849241e-001,
          -6.2165779331495662e-002, 5.0728194771491431e-001,
          -5.3984896863480936e-001, -3.1475971889631443e-001,
          -3.8573237071336153e-001, -3.5212021947197347e-001,
          8.8545551948572376e-001, 1.1256889873220624e+000,
          1.0422681613928573e+000, 2.0451775135757883e-001,
          -7.0790843786167434e-001, 8.7307022151322100e-001,
          6.6899323272973699e-001, 6.3672311787347424e-001,
          -1.0741621579116882e+000, -3.6388558533440829e-001,
          -2.8302248370687605e-001, 3.4350239099488283e-001,
          -1.2667882299371702e-001, -8.5324587763238535e-001,
          1.9762860848197109e-001, -1.0494961685825857e-001,
          -1.7823140664518986e+000, -7.2761667531551855e-001,
          2.4253895771952005e-001, -5.2258888759024202e-001,
          -7.3405878556411974e-001, -4.5439187009493043e-001,
          -2.3647241621058132e-001, -1.1916595335789588e+000,
          -9.3415331840013605e-001, -8.1800384132572557e-001,
          -7.5575608555939522e-001, 9.2093721151027291e-002,
          -9.2930337942558494e-001, -7.5082431564226582e-001,
          -5.6548044852283119e-001, -1.1142775612532725e+000,
          -1.0794112366131248e+000, 2.9766039578213177e-001,
          -6.2503725778405161e-001, -1.1794740746351218e+000,
          -1.3791928712700081e+000, -1.5890942871727216e+000,
          4.8938549358591227e-001, 8.7122002292945999e-001,
          6.0748033298891169e-001, -3.3039687253240091e-001,
          2.9391317880705115e-001, -1.8221847470876248e-001,
          -1.2121634100078402e+000, -9.3580586314222880e-001,
          -8.8810614431725943e-001, 9.7793452623035337e-001,
          -4.9293998769444952e-001, -3.8552444196599027e-002,
          5.6917363743173022e-002, 1.1264102360364132e+000,
          8.0026797952900997e-001, 5.9689603943013758e-001,
          4.6872757945652162e-002, 1.2533249796726037e-001,
          2.2436989510765101e-001, -7.8424388215737537e-002,
          6.3321800231452341e-001, -6.4028558112986189e-001,
          -1.1566633329655294e+000, 1.2983965896879357e+000,
          -7.4458946510000512e-001, -7.0271474646297427e-001,
          8.0183674284442105e-002, -8.5057074603934946e-001,
          -3.2022967356530048e-002, -1.4746969723468435e-002,
          -3.3346949550679417e-001, -1.7321355024313675e-001,
          -3.5826719955310915e-001, -1.0514620223646705e+000,
          -5.8591093550121309e-001, 7.2083190456192248e-001,
          -2.8740902328586698e-001, 8.5556619641711196e-001,
          -3.6976660830348607e-001, 7.3318911320673841e-001,
          -1.1712099372740421e+000, -4.9832933095971460e-001,
          5.9930973325868130e-002, -1.2823818747405713e+000,
          -5.9741791158497604e-001, -3.5496094821013552e-001,
          6.6027868824047442e-001, -6.5502545152510117e-001,
          -3.1562230516416728e-001, -2.6202757893998224e-001,
          4.5631917319440735e-001, -7.4620289691909580e-001,
          -4.5314575540547919e-001, 9.0521587396161218e-001,
          -8.0490508198569743e-001, 1.0782035972172999e-001,
          7.4001008702561544e-001, 7.5984932422765161e-001,
          2.9631356894821570e-001, 2.8530189833612019e-001,
          -3.4173687063333502e-001, 2.0408779863295579e-002,
          -5.5032053837453597e-002, -8.7117098945253979e-001,
          -5.1840214772819160e-001, -1.4273497079065343e+000,
          -1.2180635264462516e+000, 1.0803881773005977e-001,
          -1.1344139401012274e+000, -3.9984521804307976e-001,
          2.1678072970082504e-001, -6.3771705946038115e-001,
          5.7454850822702908e-001, 2.2405112690189183e-001,
          9.4698459913294264e-001, 6.6950110838208754e-001,
          1.2157592078634218e+000, -9.0988842669350789e-001,
          5.1856437832722790e-001, 1.4547239362514944e-001,
          -5.3792842673557562e-001, 1.0423641763851275e-001,
          -4.4968494760647171e-001, 6.7864800224474009e-001,
          2.2605817799916619e-002, 1.1589818803097982e-001,
          4.9407405177373209e-001, -1.2471345193311576e+000,
          7.9061009943937377e-001, -1.0216548280127233e+000,
          3.2200647518782516e-001, 5.2847390491872115e-001,
          1.0534150730486484e-001, -3.4829822638240809e-001,
          6.8517610672770901e-001, -1.0809957140040716e+000,
          -2.0476311891176760e-001, 2.9512534883063246e-001,
          3.9837134951615744e-001, -8.2459883122530298e-001,
          -2.6014600293049257e-002, -1.4109425177330293e-001,
          -8.7884673516136658e-001, -1.0278041438550487e+000,
          -1.1946008927254176e-001, 7.9168963080852350e-001,
          -1.9065517407474619e+000, 9.2139483997727489e-001,
          -1.1443378484457711e+000, -3.7515442005879251e-001,
          -9.2183894580758352e-001, -2.3578501294087828e-001,
          -2.4695477358341525e-001, 3.2340845739654045e-001,
          -3.4225511528837277e-001, -5.0301674080289509e-002,
          -9.0643126402130736e-002, 8.2483247967613793e-001,
          3.8270068757347808e-001, 3.3052456263364921e-001,
          -5.7907466780415751e-001, -5.3975013292814356e-001,
          -1.0429314370772336e-001, -3.5500134147486329e-001,
          8.0019559097610915e-001, 2.3830224014815854e-001,
          7.0595624675436452e-001, 7.9704356288251421e-001,
          2.8446852028227282e-001, -3.4469982495435614e-001,
          -3.0203054484635466e-001, -4.9582195144043811e-001,
          -4.1892006220683710e-002, -8.9297116988623282e-001,
          -1.0735280598076564e+000, 6.3988529401279859e-001,
          8.5210820792864073e-001, 1.2372916737706889e+000,
          1.0775681188502940e-001, -9.9198273399025683e-001,
          5.4613612167444181e-001, -2.2655286415339324e-001,
          6.3406739633330622e-001, 1.0872724709640262e+000,
          -7.5810600118959104e-001, 5.3503953175223062e-001,
          -6.3597412372206918e-001, 1.4773113309813593e-001,
          9.4468084507610395e-001, -8.3583390898100096e-001,
          -2.8261119947579499e-001, -3.3684149864767599e-001,
          -7.9250989174909037e-001, -6.3906298009644660e-002,
          4.0251783221132603e-001, 1.3447832975814200e+000,
          -6.4718125428454354e-001, -6.2217064749287276e-001,
          -4.5519577625307844e-001, 1.2784128384787857e-001,
          8.0658821522780755e-001, -4.6068982383311236e-001,
          4.6778048203487477e-001, -3.7772995702146911e-001,
          -6.8016289309321032e-001, -1.2657440971286660e+000,
          -9.2781463021501157e-002, 6.6668490195930596e-001,
          -8.0630745850592345e-001, -9.4416334690606862e-001,
          8.2054746716154175e-002, -5.8826525987530069e-002,
          1.0190599579136372e+000, 1.3011918761176682e+000,
          7.1990050844663322e-001, -4.4536875923383323e-001,
          7.1445371533435198e-001, -1.1937821676848253e+000,
          -5.6119192253277128e-001, -4.6296119142707653e-001,
          -6.5867436015797964e-001, 2.0607662790258902e-002,
          8.1997122245159770e-001, -6.6348292588423585e-001,
          -8.8239792622301549e-001, -1.1159423887223368e+000,
          7.4587084594716824e-001, 9.5318270098138114e-001,
          -8.9440958607637122e-001, 4.1537707542225588e-001,
          2.7862470638370507e-001, -1.9760690154456056e-001,
          6.5033353782713466e-001, -1.5817267485406375e-001,
          -1.1120867346540910e+000, -8.6722235594923680e-001,
          -7.5182609649019017e-002, -5.0265211849812019e-001,
          -1.1634488324515450e-001, 4.8722870325693259e-002,
          -6.5820565625973548e-001, 9.1218236173746414e-001,
          -7.9251674028946617e-001, 7.9910753758840425e-001,
          1.1998232573353067e+000, -6.4934956722520809e-001,
          1.2233580727400499e+000, 2.3712941346326105e-001,
          1.0351037606140549e-001, 1.0076281746195652e+000,
          4.4748461608714446e-001, -5.8904887784242066e-001,
          6.3481522132560575e-001, 1.1916014712149456e+000,
          -9.5763464607703952e-001, 7.7486531225588517e-001,
          -4.0514569083092000e-001, 1.0946226431000305e+000,
          1.3583689855759298e-001, -9.1973215341415293e-001,
          -1.5380071959666652e-001, 6.0513800679377816e-001,
          -9.1556323640823090e-001, 6.7508460924621549e-001,
          -4.1175726677174335e-001, -4.8225396207682869e-001,
          -1.1272488710984216e+000, -6.8289937605530693e-001,
          -5.1800563721866111e-001, -7.0952096202593262e-001,
          1.6106868933254739e+000, -8.2680678967082560e-002,
          -1.0064714783394784e+000, 7.9547080196362946e-002,
          -2.6773044868309326e-001, -1.0351057119378515e+000,
          -1.2678935193172274e+000, -1.0613661222112978e+000,
          -1.3797230470409025e+000, 7.3549143377943618e-002,
          8.8243433555946674e-002, -5.2780455876259857e-001,
          -4.4192443368809636e-001, -8.3230189558576939e-001,
          1.1156653496170262e-002, -6.2624106012686864e-001,
          -1.0787467495444417e-001, -1.6551969349935342e-001,
          4.4450871078060389e-001, -6.6629282405868717e-001,
          -7.5832122628419940e-001, 2.9682446083773301e-001,
          -4.7507669755404736e-001, 6.3460456524668052e-001,
          -7.4708296980816014e-001, -7.7727688569285658e-001,
          1.0311109918941461e+000, -3.8547118073755937e-001,
          7.4332451222642326e-001, 7.8460183396906358e-001,
          7.7158269001079127e-001, 1.3370338838078386e-001,
          -9.6565853354902731e-001, 5.2809788726375567e-002,
          -7.6375229343658868e-001, 1.3500020567216765e-002,
          -4.4888939227404956e-001, 5.7476172671527859e-001,
          -4.8210428979802399e-002, 3.6291601919873834e-001,
          3.3527024937614704e-002, 5.4525113895434985e-001,
          -6.5808816674685480e-002, -9.0486816389415178e-002,
          1.6096927590423309e+000, -8.8218155065431014e-001,
          -4.2364722404590660e-002, 5.3707102029305276e-001,
          -1.2354365320550811e+000, 4.2004609511966334e-001,
          -1.9233856655332857e-001, -3.9051729654782291e-002,
          -1.2166213156231113e-001, 2.5628376869831065e-001,
          -1.2122709083918899e-001, -4.4306962787586196e-004,
          -3.5796626614633920e-001, 9.9835157827351284e-001,
          -7.4854761158395400e-001, -6.1462734553177889e-001,
          5.3409027513195861e-001, -5.6710541766327793e-001,
          -1.0381488789017745e+000, 7.2010659615024619e-001,
          -1.6300721714093938e-001, 1.0625291612652996e+000,
          8.4681000532695838e-001, 8.5014557313070904e-001,
          6.8928393770454144e-001, -7.9159620070734882e-001,
          -8.3256666050747319e-001, 1.1158653797704383e-001,
          -4.1856120080009412e-002, -1.1409389238866747e+000,
          -3.1940856809509838e-001, 1.3870897038457192e-001,
          2.3595231907814532e-001, -1.0338334373197857e+000,
          2.1446680236089394e-001, -8.9929017743335693e-001,
          3.2548148337362331e-001, -2.6123660793875525e-001,
          2.3958608095879277e-001, 6.4230058578869331e-001,
          6.7217650839760978e-001, -1.0595476007091356e+000,
          -5.6874695464462843e-001, 3.9206511130453253e-001,
          -8.4928307486488031e-001, 4.6495209199468916e-002,
          5.3157661517541732e-001, 2.3020537862657867e-001,
          -1.1911089900949607e+000, 8.0607273381256139e-001,
          -8.5380834149276563e-001, 1.1569988592093423e+000,
          5.0229807988366548e-001, 3.5996265576185760e-001,
          5.4066444099584920e-001, -6.9124777776670598e-001,
          1.9201956117377925e-001, 4.2510979663708326e-001,
          -1.0967401406603804e-003, 1.1099165465417169e+000,
          -5.9265291353061189e-001, -5.9122010929202196e-001,
          1.0903783295855538e+000, 2.9141038187985630e-001,
          3.9173714716448149e-002, 5.5218498226631196e-001,
          2.3465571866697646e-001, 6.3735449211510009e-001,
          -1.2686287381464012e-001, 2.4174374661578643e-001,
          3.5224808343041109e-001, 4.8791054818559852e-002,
          4.3242376266558136e-002, -4.3473598850201767e-001,
          -1.2788495727802035e-001, 1.1986278613439350e+000,
          1.0508157447283533e+000, 1.3363273667048625e+000,
          -1.2036521995562216e-001, 3.4254240581037892e-001,
          -4.6027494776889699e-001, 8.3982949361253467e-001,
          1.1406590761692550e+000, 8.6782765725526556e-001,
          3.4074265926081038e-001, -5.7458397998255022e-002,
          -1.5679817561558396e-001, 2.2886767645869446e-001,
          1.2897175330826187e+000, 4.7815214093557667e-001,
          3.9046198115488706e-001, 3.0716855138154031e-001,
          -5.1385683547891137e-001, 7.5028476150999579e-001,
          -6.6538378389945071e-002, 1.2835296646911551e+000,
          2.2425464501161710e-001, 1.2023808447969260e+000,
          7.7758020169063768e-001, -1.2190783321085931e-001,
          -2.1571545054837005e-001, 1.1537315792098648e+000,
          9.2757288649783931e-001, 6.8842839548307466e-001,
          6.0470202337793233e-001, 1.2117127555623821e+000,
          7.3047263297737752e-001, 3.9707435734061369e-001,
          1.1636836230198704e+000, 5.1468108885872854e-001,
          7.7924550647195767e-001, 1.1418856642748727e+000,
          4.0834750072487817e-002, 8.3809000445182846e-001,
          -3.2189010538604795e-001, 2.9728430879607659e-001,
          3.6536680261571924e-001, -4.1197073135097739e-001,
          9.2225062323512630e-001, 1.0553548838791029e+000,
          -6.7990294108382832e-001, -4.7232034823694924e-001,
          2.9351786769486971e-001, 8.5128016444400167e-001,
          1.5952971465902815e-001, -1.7145783862295930e-001,
          8.0203337729624324e-001, -4.3273702182934110e-001,
          -2.0345487737575763e-001, -1.7421567235583102e-001,
          -2.0681949194958332e-001, -1.1354440814845770e-001,
          4.1682576422521206e-001, 8.4380587742335056e-001,
          8.1550099196674264e-001, -4.8716506868037329e-001,
          4.7783753588550848e-001, 1.8139184028151150e+000,
          -9.5364888015752247e-001, 9.7379847852040202e-001,
          1.1688454614525943e+000, -1.7153758218752246e-001,
          1.2008598199424694e+000, -5.8323075158672222e-001,
          7.1696235974801392e-001, -4.9032723376064546e-001,
          7.6986551269905679e-001, -3.8437804785540794e-003,
          1.0089503499809627e+000, -2.9836414889803853e-001,
          1.0078368486408371e+000, -7.0423794137963958e-001,
          9.7966920651611319e-002, 1.5038264073298955e+000,
          1.2198240825266482e+000, 7.3630040923755169e-001,
          2.0787713530590364e+000, 6.1071263010411792e-001,
          4.6894773941175433e-001, 4.3308747678550191e-001,
          -5.0591154363571245e-001, 9.1968042966880947e-001,
          -8.8592325154730756e-001, -6.7173426154475768e-001,
          -4.6057636806955138e-001, -4.7159886387277566e-001,
          -1.3037735225352132e+000, -5.5701189247431271e-001,
          -4.3919539651509992e-001, -9.1450794118138201e-001,
          8.3975228850429418e-001, 1.0258884551568965e+000,
          5.9631412132811012e-001, 1.4306106824370020e+000,
          -2.8507073667687716e-001, 1.1353663464561134e-001,
          -8.9704449428145375e-003, -1.2203600617601280e-001,
          6.9333286389437329e-003, 2.8811745482543333e-001,
          1.8581228847367869e-002, -4.2640343892880489e-001,
          3.2098311174703748e-001, -5.6804155704121462e-001,
          1.0574672807648418e+000, 8.8847898435081951e-001,
          7.9398664331481772e-001, -3.1554559852658065e-001,
          4.6739563448149790e-001, -1.1332949852076137e+000,
          -9.3645898084630308e-001, 9.9267543890694609e-001,
          -8.2596063154527471e-002, 8.3521575614010291e-001,
          -5.1717052376410677e-001, -9.0109595453793712e-001,
          -1.1226199019197749e+000, 8.1264132491774577e-001,
          3.2750507351296426e-001, 1.3304873095355021e+000,
          -8.9831039100527588e-001, 9.2785440829439136e-001,
          7.5546070426858836e-001, 2.5879074053466589e-001,
          5.1743352211870919e-001, -1.4819324120223179e-001,
          -2.1827298344100643e-001, 6.0102181791218201e-001,
          -5.2521270664325048e-001, -9.4067471728994378e-001,
          -1.0732410917938187e-001, -9.4650213195260333e-002,
          4.6138047594901432e-001, -1.4436166649567889e-001,
          6.5602032034014690e-001, -3.0895995235168278e-001,
          -2.2475063018909180e-001, 3.5346122446699335e-001,
          4.0341020784747555e-001, -2.2635278535610001e-001,
          1.8120824063184257e-002, -1.8414980994881933e-001,
          -4.7980903047242285e-001, 3.5273532268392430e-002,
          -3.7953604057779855e-001, -8.2713823850807855e-001,
          -1.8277374003270089e-001, -1.2515662161012779e+000,
          -1.0278057031638470e+000, -2.1943373001116059e-001,
          -6.6285840023242892e-001, 3.5020814352609336e-001,
