%YAML:1.0
my_nn: !!opencv-ml-ann-mlp
   layer_sizes: !!opencv-matrix
      rows: 1
      cols: 3
      dt: i
      data: [ 11, 42, 42 ]
   activation_function: SIGMOID_SYM
   f_param1: 1.
   f_param2: 1.
   min_val: -9.4999999999999996e-001
   max_val: 9.4999999999999996e-001
   min_val1: -9.7999999999999998e-001
   max_val1: 9.7999999999999998e-001
   training_params:
      train_method: BACKPROP
      dw_scale: 1.0000000149011612e-001
      moment_scale: 1.0000000149011612e-001
      term_criteria: { epsilon:9.9999997473787516e-006, iterations:1000 }
   input_scale: [ 1.0501081891381682e+001, -5.1243029600546972e+000,
       1.9291500143375394e+001, -9.4397185067520457e+000,
       3.1924315236350856e+002, -5.9408972197964118e+000,
       2.4086259282717106e+002, -4.7602961178392693e+000,
       5.9156708689035593e+000, -1.8196905606627640e+000,
       4.9885638137830606e+000, -2.7943539650862492e+000,
       1.1918537381521164e+001, -2.0783251443375508e+000,
       1.0272143600130562e+001, -3.5922306086330229e+000,
       6.9767826889435003e-001, -1.6943615101719929e+000,
       4.3118332023542050e-001, -8.4183410141201143e-001,
       6.7392207099596402e-001, -3.5300679909312405e-001 ]
   output_scale: [ 1.0526315789473684e+000, 0., 1.0526315789473684e+000,
       0., 1.0526315789473684e+000, 0., 1.0526315789473684e+000, 0.,
       1.0526315789473684e+000, 0., 1.0526315789473684e+000, 0.,
       1.0526315789473684e+000, 0., 1.0526315789473684e+000, 0.,
       1.0526315789473684e+000, 0., 1.0526315789473684e+000, 0.,
       1.0526315789473684e+000, 0., 1.0526315789473684e+000, 0.,
       1.0526315789473684e+000, 0., 1.0526315789473684e+000, 0.,
       1.0526315789473684e+000, 0., 1.0526315789473684e+000, 0.,
       1.0526315789473684e+000, 0., 1.0526315789473684e+000, 0.,
       1.0526315789473684e+000, 0., 1.0526315789473684e+000, 0.,
       1.0526315789473684e+000, 0., 1.0526315789473684e+000, 0.,
       1.0526315789473684e+000, 0., 1.0526315789473684e+000, 0.,
       1.0526315789473684e+000, 0., 1.0526315789473684e+000, 0.,
       1.0526315789473684e+000, 0., 1.0526315789473684e+000, 0.,
       1.0526315789473684e+000, 0., 1.0526315789473684e+000, 0.,
       1.0526315789473684e+000, 0., 1.0526315789473684e+000, 0.,
       1.0526315789473684e+000, 0., 1.0526315789473684e+000, 0.,
       1.0526315789473684e+000, 0., 1.0526315789473684e+000, 0.,
       1.0526315789473684e+000, 0., 1.0526315789473684e+000, 0.,
       1.0526315789473684e+000, 0., 1.0526315789473684e+000, 0.,
       1.0526315789473684e+000, 0., 1.0526315789473684e+000, 0. ]
   inv_output_scale: [ 9.4999999999999996e-001, 0.,
       9.4999999999999996e-001, 0., 9.4999999999999996e-001, 0.,
       9.4999999999999996e-001, 0., 9.4999999999999996e-001, 0.,
       9.4999999999999996e-001, 0., 9.4999999999999996e-001, 0.,
       9.4999999999999996e-001, 0., 9.4999999999999996e-001, 0.,
       9.4999999999999996e-001, 0., 9.4999999999999996e-001, 0.,
       9.4999999999999996e-001, 0., 9.4999999999999996e-001, 0.,
       9.4999999999999996e-001, 0., 9.4999999999999996e-001, 0.,
       9.4999999999999996e-001, 0., 9.4999999999999996e-001, 0.,
       9.4999999999999996e-001, 0., 9.4999999999999996e-001, 0.,
       9.4999999999999996e-001, 0., 9.4999999999999996e-001, 0.,
       9.4999999999999996e-001, 0., 9.4999999999999996e-001, 0.,
       9.4999999999999996e-001, 0., 9.4999999999999996e-001, 0.,
       9.4999999999999996e-001, 0., 9.4999999999999996e-001, 0.,
       9.4999999999999996e-001, 0., 9.4999999999999996e-001, 0.,
       9.4999999999999996e-001, 0., 9.4999999999999996e-001, 0.,
       9.4999999999999996e-001, 0., 9.4999999999999996e-001, 0.,
       9.4999999999999996e-001, 0., 9.4999999999999996e-001, 0.,
       9.4999999999999996e-001, 0., 9.4999999999999996e-001, 0.,
       9.4999999999999996e-001, 0., 9.4999999999999996e-001, 0.,
       9.4999999999999996e-001, 0., 9.4999999999999996e-001, 0.,
       9.4999999999999996e-001, 0. ]
   weights:
      - [ -1.4081340376272558e+000, 6.7073439637832277e-001,
          -1.1081657989200131e+000, -1.1116474510575596e+000,
          -4.1889976828450670e-001, -4.1805832419429539e-001,
          3.6919701703464264e-001, 4.0494665223619392e-001,
          1.2723371482194785e+000, 1.2720861427908299e+000,
          -8.2698132854753381e-001, -4.5446619874899630e-001,
          1.5781611785271312e+000, -1.4768768894502915e+000,
          -3.5152938882640389e-001, 2.4411680617861534e-001,
          1.5109529107957370e-001, -5.9648447994670095e-001,
          -8.4754091448160995e-001, 1.3822713512341307e+000,
          -4.5219393567271182e-001, -1.3858344761381585e+000,
          2.0490235314892118e+000, -7.1731138966820895e-001,
          -1.7610163902861977e+000, 2.7617267419017871e-001,
          -4.3659635082303710e-001, 9.7142661375253972e-002,
          6.3091947138183180e-001, 4.0848394723404159e-002,
          -2.1528795213464074e+000, -2.4962954206607713e-001,
          -6.9331437416843289e-001, 1.6926926464643286e+000,
          -2.4926486623111659e+000, -3.9753904806834833e-001,
          1.2800859641799722e+000, 2.2091039902308499e-001,
          1.5864133200279543e-001, 5.9082785766790247e-001,
          -1.0319898767378375e+000, 3.2296887966104676e-001,
          -3.9167234550047469e+000, 8.4504036201307664e-001,
          5.8142253046714520e-001, 2.0469353148944630e-001,
          5.9800840632321117e-001, -1.2104259823144015e-001,
          2.1077358660452652e+000, 1.5289708916854841e-001,
          -2.8118811195611432e-001, 3.1105687796687492e-001,
          -1.4202352771781241e+000, 5.7727246315020082e-002,
          2.4631080601584701e-001, 2.4226905894352507e-001,
          1.1643699531031272e-001, -2.0923769831294123e-001,
          4.7259408549684370e-002, -2.4834056398892343e-001,
          -3.0237453637787121e-001, -1.8688974644206102e+000,
          -1.2868813953644620e+000, -8.2738462019184511e-001,
          -1.9654000039490431e+000, -1.1723950880654408e+000,
          1.0324209197392575e+000, 1.9018131621170525e-001,
          -8.6203069237406982e-001, 7.6568227995921792e-002,
          -6.9075140410415581e-001, 1.0398459221214715e-001,
          7.2719623392862376e-001, -1.9698041165254646e-001,
          -3.1653142558638614e-001, 7.6192807573186860e-001,
          1.4587721254996324e+000, 3.0966878605580334e-001,
          -5.0603981902490225e-001, -1.6340376568015069e+000,
          -7.0567556606279003e-001, 5.4739317951080502e-001,
          -1.0971548845007746e+000, 3.5235302992424178e-001,
          2.1219667720161510e+000, -7.9247656615339823e-001,
          2.4394153386371928e+000, 8.9586864421448498e-001,
          9.8864801295450266e-001, 5.4754227110133646e-001,
          2.5125142829086050e-001, -2.1485675976876832e+000,
          3.8437587223267533e-001, 1.0437970500074221e+000,
          -2.4088584578427148e+000, 4.0727811105182549e-001,
          1.1847486214236940e+000, 1.0271126799397949e+000,
          -1.0122902783548946e+000, 6.7619927361215737e-001,
          -2.0778026147687784e-001, -1.7492490028955365e+000,
          8.2118152245210418e-001, -8.1220401721695135e-001,
          1.2236955958350555e+000, 8.5271866162726295e-001,
          -7.5348103864493676e-001, -1.0151289565892350e+000,
          4.4394532765461103e-001, -1.9013766715083340e+000,
          3.8311866854522664e-001, 7.1203170461940957e-001,
          1.8855938045532787e+000, -3.1673747668707181e-001,
          1.6908323956696529e+000, 8.9112020450689916e-002,
          -3.1767295466709681e-003, -1.1265028609804943e+000,
          -5.2750967457669695e-001, -1.8713922296486485e+000,
          -4.1867840646159521e-001, -1.2484605557835762e+000,
          -1.8677258737460425e-001, 6.8876639889246777e-002,
          -1.1402830109233421e-001, 2.7371114504810046e-001,
          -2.2419804977141036e+000, 1.4190983873848912e+000,
          2.2125903540905886e-001, -8.9807853560827955e-001,
          -1.5406760589226079e-001, -9.2121006522392979e-001,
          2.5441492988759390e-001, -2.0350171077506154e+000,
          7.6052989248824421e-001, -8.4607112643875526e-001,
          -6.9413324450301384e-001, -2.0267954466963903e-001,
          -1.0028451001984455e+000, -9.8144096421271909e-001,
          3.5291072768931980e-001, 7.1415207299887609e-002,
          7.7447411516634990e-001, 4.6106243471381736e-001,
          6.4326099669530346e-001, -5.8623681065246525e-001,
          3.9065101771226368e-001, -9.9678489487338029e-001,
          6.1065357958032074e-001, 2.8311791398498909e+000,
          9.9561766154862363e-001, 9.1041859189441587e-001,
          -1.6331172817050632e-001, 8.9542104721577059e-002,
          1.3077132265349038e+000, 4.6388685341703195e-001,
          -1.2881676771463893e-002, 1.2434123436146144e-001,
          7.4011244580258650e-002, -4.8644439118651134e-001,
          1.3564718972343222e+000, -1.1573836366767019e+000,
          -5.0150407771404415e-001, 5.6997856715911577e-001,
          -1.2527139895787016e+000, 6.9708522763123770e-001,
          3.9668046730331979e-001, -2.3684158727642476e-001,
          -1.8958807207707105e+000, 5.0089937080903013e-001,
          -5.6315768404822619e-001, -7.8584075699407163e-001,
          6.1127753358918446e-001, 1.4490884211534862e+000,
          -1.7347117556412744e-001, 5.1672574834019569e-001,
          1.2220972037355011e+000, 3.2050594479497058e-001,
          -1.9355167124584132e+000, 5.2907828966610015e-001,
          -9.3428319583713859e-001, -4.3394368190377319e-001,
          -5.0859535748967277e-001, -4.6446848635946802e-001,
          -1.3114512965014293e+000, -4.2693799962719498e-001,
          -3.5504803404911289e-001, 5.1931038827181010e-002,
          4.4268519028031295e-001, 8.9776161212361016e-001,
          -1.1297914563428237e+000, -3.8156639108685081e-001,
          3.5615397997228393e-001, -1.4503402233642693e+000,
          -1.1092902383383798e+000, 2.4527935126570191e-001,
          -1.7568106206842935e+000, -5.9708693589663431e-001,
          7.0706855735175045e-002, -4.2355014046682110e-001,
          -2.4664644263393321e-001, 6.3641511028169828e-001,
          5.1756237246100367e-001, -2.6654593775277363e-001,
          -8.0168951655288131e-002, -6.3434589076237780e-001,
          6.3215787327467843e-001, -8.8488073290834945e-001,
          -1.6268657557957739e-001, 2.5887252333171051e-001,
          4.0464580196466932e-001, -6.8597559480319670e-001,
          5.5716146454958138e-001, 1.6362142645173994e+000,
          -6.8930144773418800e-001, -3.5966506728476016e-001,
          1.1633211189259245e+000, 2.6443582746303046e-001,
          -5.4410744178979054e-001, 4.9771498953027399e-001,
          6.1393073814620669e-001, 3.8227358936647265e-001,
          5.7677575251002433e-001, 1.0922672297273759e+000,
          2.1665265834285455e-001, -1.8837211533188070e-001,
          2.6211028468832714e-001, -3.7079606783477581e-001,
          -3.3422133062613646e-001, 8.2031172936634211e-001,
          -1.2228423870893144e+000, -1.4621461572063403e+000,
          -1.9640084587294725e-002, -5.3423549821949412e-001,
          4.0888529221987996e-001, -5.1305500373801560e-001,
          5.5149080807801343e-002, 4.4550032343615209e-002,
          3.0186885608474484e-001, 1.2587991798889434e-002,
          -4.2708820568871330e-004, 2.4324556273630657e-001,
          1.8789949256781218e+000, -6.5363418895659608e-001,
          -2.3006298511673101e-001, 4.5486221721166858e-001,
          -6.0306525271615585e-001, 4.5382576598511537e-001,
          3.6335403793191157e-001, -7.4743905817101641e-001,
          6.1645346550794056e-001, 7.3368239361382460e-003,
          -7.5406485990208760e-001, 9.0954958589576163e-001,
          -5.5744159351736389e-001, 5.2904020114911943e-001,
          -1.1276368589249579e+000, -1.0695388577550373e+000,
          -1.0619257739886547e+000, -2.6640079926808452e-001,
          7.3406527436366609e-001, -1.2654638599574339e+000,
          -5.1388533031663297e-001, 1.1522901140090447e+000,
          -2.3323117616630870e-001, 8.5830418285430177e-001,
          -8.6477431977705327e-002, -3.8047894949624117e-001,
          -7.1546553234875832e-001, -1.7406027063140832e+000,
          4.0660417126063425e-001, -4.3512050144015041e-001,
          -1.3223015450059661e-001, -1.0648692068655774e+000,
          -1.2764395533329429e+000, -1.4235738396321262e+000,
          -5.2523830024970375e-001, 6.1574685253679817e-001,
          3.8883888606325701e-001, 1.4196178945833859e-001,
          -5.4862691320078028e-001, -4.6831411482608737e-001,
          -8.4035124600675148e-001, 7.1786604800897325e-001,
          1.3257970708851272e+000, 5.4869490759850559e-001,
          2.2178781151607485e-001, -2.3248092323411285e-001,
          -8.2455035316036529e-001, -5.6826521658310336e-001,
          5.3337432967605947e-001, 2.6793490821952098e-001,
          -1.0658705453943571e+000, -6.7160116165966538e-002,
          -3.5670618145892785e+000, 4.2961713911229255e-001,
          -1.7365282385997829e+000, -4.4898932773549138e-001,
          9.1958060064286462e-001, -1.0556433990447939e-001,
          3.0060818181635546e-001, -1.1272348238665151e+000,
          3.9328244550412716e-001, -3.6660175167445297e-002,
          -2.0709473703422598e-001, 1.8617460155051449e-001,
          -1.1445886463274977e+000, 1.3903883729525905e+000,
          6.5673224528094640e-002, -5.0163282083141336e-001,
          -2.5849825228340700e-001, -6.3235894123917469e-001,
          -1.4279775232822558e+000, -8.5785638933546807e-002,
          -9.6535542132707242e-001, -6.4262948766196337e-001,
          1.1992724722864576e+000, 1.9885299155602862e+000,
          4.7178939509092077e-001, 7.5550592131105571e-002,
          6.8745147260887773e-001, 1.9221252354426593e-001,
          1.1405514182583040e-001, -1.1142690047719102e+000,
          1.5252699642480452e+000, 3.1253096192011748e-001,
          -1.8220398187755252e-001, 2.2117657184372927e-001,
          -4.1843125824143435e-001, -3.1356507351889906e-001,
          2.1523965375319576e-001, -2.3764374315678705e+000,
          8.1545772655949977e-001, 1.8669746374718454e+000,
          -2.5397903135135153e-001, 3.2699531543064175e-001,
          8.9610806446689739e-001, 1.0476372938866942e+000,
          3.8367957415447212e-001, -1.1477959600257528e+000,
          8.1117562818369804e-001, 9.5206116912418282e-001,
          -1.2750577439796450e-002, -1.2463864922078843e-001,
          -8.7888691906490224e-001, 7.0861908141308994e-001,
          5.5277550787051666e-001, -3.1338114865263883e-001,
          -8.5461082085862761e-001, 7.6098298440092305e-002,
          -8.3950621676318038e-001, 1.7445556213968499e-001,
          -1.4012471648969433e+000, -2.3489873397413596e+000,
          2.1962776202101494e-001, 1.0223093480798813e+000,
          -1.7765268795743681e+000, -1.9363834990549317e-001,
          -4.5899055989068560e-001, 1.4070740951958519e-001,
          -1.2132349865830108e+000, -8.0638247294978378e-003,
          1.1381230472638961e+000, -6.2349774250775772e-002,
          9.2112317271392866e-003, 7.2813013570281226e-001,
          4.5494267006345512e-001, -1.0156447197953096e+000,
          1.2307869037302619e+000, 8.5006201633069656e-001,
          9.0498048669097286e-001, -6.3501657772325582e-001,
          -1.1446878967711998e+000, 1.9189518953316667e-001,
          -3.8514784952379849e-001, -5.6919931430303583e-001,
          6.1870487662855522e-001, -7.6527980782950711e-001,
          2.1330043908066934e+000, 5.9584018796645988e-001,
          1.3068777432058401e-001, -3.2654807744017980e-002,
          1.7198633777032459e+000, -1.3424738754010818e-001,
          1.0212796067619101e+000, 2.0216014841055228e+000,
          6.9831815033609412e-001, -1.6539063360163184e+000,
          1.8138283928318191e+000, 1.7480701089032660e-001,
          -1.9238706910058243e-001, 2.0108098911793486e+000,
          1.8410587601837719e-001, 4.0571451548181664e-001,
          1.7555801227343253e+000, 3.6853216574797770e-001,
          2.7399233811892637e-001, -2.6283695422474918e-001,
          -3.1123001915710441e-001, -7.7058571396250430e-001,
          -2.0411544477218616e-001, -1.2571192506251105e+000,
          5.7706733226130746e-001, 4.9185568252621570e-001,
          2.1913240656368477e-001, 1.9949311996168764e-001,
          8.5672599046725817e-001, -4.4594509883581368e-001,
          -4.4020113703850250e-001, 3.8389134545857223e-001,
          7.4446587442123102e-001, -1.2511367419319535e+000,
          8.9970588305581978e-001, -1.6315497074905133e-001,
          -3.0246024343514127e-001, 6.9892017425964725e-001,
          -9.6318529692192212e-001, -9.3522252371627468e-001,
          -1.3565050087536732e+000, -2.6311024167661301e-001,
          2.0393044556859610e+000, 3.1589338223320118e-001,
          6.7328999037815318e-001, 4.7356298022818494e-001,
          3.4259912107267210e-001, -6.7726125424727401e-001,
          2.0491391451561061e-002, 1.4488493921562565e-001,
          3.7313843190578289e-001, 3.6721065640594480e-001,
          -2.3215098094726139e-001, 1.4161722285296907e-001,
          -5.3804825499166120e-001, 5.7107885647549698e-002,
          2.5630222560738641e-001, 5.4657761951886319e-001,
          1.6536277203012968e+000, 1.1600089218392469e+000,
          -4.5458488109797152e-001, 4.7826754312336861e-001,
          3.4665215481304940e-001, 4.1242289717060060e-001,
          1.3502324348339079e-001, 8.6508978879709453e-001,
          -4.8716128436394879e-001, -1.6775060195629535e-001,
          -1.9413151307614529e-001, 1.9700360714076146e-001,
          7.6416394321837700e-001, 2.4301700624912026e-001,
          3.0249627487298286e-001, 6.9274863331950554e-001,
          -3.5607890846003666e-002, -3.6398018197623311e-001,
          5.7012055499906356e-001, -8.2627178258662148e-001,
          -2.4987271128995617e-001, -9.3685072667225019e-002,
          3.2526573604462888e-001, -6.9947271279276479e-001,
          -8.9724124436956365e-001, 6.8559206445858101e-001,
          -1.3870958348627925e+001, 1.7797254701763205e+000,
          -1.6751955301887894e-001, 1.7697946259469342e+000,
          2.3731556001655921e-001, -8.4508936658326328e-001,
          -7.3315117738872471e-001, -6.4507920871539393e-001,
          1.1412570518034353e+000, 9.6465930564537827e-001,
          1.6355071551312268e+000, -2.0916130358535097e+000,
          -1.6837597375024913e+000, -2.3998293217630609e-001,
          2.2975891277871479e+000, 2.9314798253034469e+000,
          1.0723900955864001e+000, 2.8490308665310854e-001,
          2.2138011122077486e+000, 9.5835570357519839e-001,
          -2.0987633064796789e+000, 1.8776492669500930e-001,
          1.7285444440661648e+000, 1.8679835620577383e+000,
          3.0438837701620225e-001, 1.3217608854826399e+000,
          -2.4215715093640289e+000, -3.1857514563766571e+000,
          4.1738062543599874e-001, 2.4896551876815813e+000,
          1.0574086482922487e+000, 2.0160185778559758e+000,
          1.6831246293021227e+000, 7.1707945167830534e-001,
          7.4226635598238233e-001, -5.8428208768751244e-001,
          -2.6310502902037411e+000, 1.2007739948542004e+000,
          -2.0107560427509310e+000, -1.0605665362010148e+000,
          -1.6492810536584976e-001, 2.3914610635793014e+000 ]
      - [ 1.0502791729983390e+000, 1.1278206668332342e+000,
          3.0671679859893226e-002, 1.1625788119864118e+000,
          -3.3660029104708172e-001, 1.7887828856755272e+000,
          1.1449178170743521e+000, 1.0198054128347684e+000,
          -3.4747625913197425e-002, 7.7671660855570601e-001,
          1.3548473658317017e+000, 1.1939472401310272e+000,
          8.9497821123806914e-002, 1.1717652561702199e+000,
          1.5999541212447963e+000, 8.8003910686494136e-001,
          6.9595850502231504e-001, 7.7323898487794418e-002,
          1.8351166874740826e-001, 3.2626922359814131e-001,
          1.1562241866192817e+000, 6.1247679352776274e-001,
          1.0665090576678822e+000, 1.3562813392113987e-001,
          5.3386622394063377e-001, 9.9359797577831854e-001,
          5.6809018176035586e-001, 8.5719425824761319e-001,
          6.7140779131091746e-002, 1.0636635838096833e+000,
          -8.3886121150519771e-002, 1.6853802685344264e+000,
          1.4169167301837833e+000, 3.4882620527949781e-001,
          3.0763080254053432e-001, -1.7677745210260423e-001,
          5.1133648275884247e-001, 1.0973039466644390e+000,
          -5.5364612774662625e-001, 8.6690742248543318e-001,
          -4.7054724952487970e-001, -3.4774536370395259e-001,
          -1.7054037879169612e-001, -7.0885925604018810e-002,
          4.5213584663979056e-001, 8.4193219964779342e-001,
          5.5042336636229516e-001, -9.3294928065731864e-001,
          -8.0157919207913153e-001, -3.5072470094239527e-001,
          -2.0831119096355111e-001, -9.8097540893904966e-001,
          -1.1046359652704694e+000, 9.2831082262239484e-001,
          -9.1329854277598033e-001, -6.1232619477267791e-001,
          -1.6915069497457866e+000, 7.5497913745077294e-001,
          7.0791957499998415e-001, 1.0233427017012529e+000,
          -5.2930221991810122e-001, -4.7891232615712015e-001,
          1.4233545815254482e+000, 6.0174518553818535e-001,
          5.0321075221959577e-001, -1.3883542527558393e-001,
          1.0931246424320133e+000, -7.4800349965473772e-002,
          2.5539236990275860e-001, -1.0413392981768601e+000,
          -6.7668965077955745e-001, -2.1355215232685593e-001,
          -9.7357511647935246e-001, -1.9288197759075731e+000,
          -1.1981708987055837e+000, 9.4613626969752701e-002,
          9.0634377664979104e-001, -1.1038315134120904e+000,
          1.3167292674556674e-001, 4.0153487564035667e-001,
          -6.6827850992066662e-001, 8.1497831869548765e-001,
          -2.4991357155172134e-001, -8.0282296910243478e-001,
          4.1339153405448403e-001, 2.2355401808277744e-001,
          -5.4094685504533824e-001, 5.7947224114252693e-001,
          5.5501165656829121e-001, 1.2044946152303938e-001,
          -8.9041061363789664e-001, -6.9569403795072393e-001,
          -3.1549314578106863e-001, 1.4206293093845592e+000,
          8.1127194443093664e-001, 1.3483283416548348e+000,
          8.9416149975840264e-001, 5.6137805891818049e-001,
          9.7180517034650926e-001, -1.5440616314192033e+000,
          1.4724428864687342e+000, -1.2041697110901717e-001,
          -4.4637779459671056e-001, -1.2903354127154083e+000,
          7.9462869998808372e-001, 5.6931251198982002e-001,
          9.8180945645721640e-001, -5.2308156145477080e-001,
          1.5056374664365382e-001, 4.2886553690631030e-001,
          5.5700565734135482e-002, -4.8800606520060441e-001,
          1.1997964054164272e+000, -1.6009768027446450e-001,
          -9.2473568746049339e-001, -8.1736775767516123e-001,
          -2.9401874706672948e-001, -2.3977336755843531e-001,
          -9.8495110651561724e-001, 1.2889078865680124e+000,
          3.0081593973136023e-001, -5.8139396016477030e-001,
          4.9087578859683861e-001, -9.1559499161803282e-001,
          -7.2635040356695046e-001, -5.2722244604693813e-001,
          -5.9363860371000776e-001, -1.5404938408673807e+000,
          -1.7550160496341081e+000, 7.4559423743193104e-002,
          -2.7489450524934916e-001, 6.7118825665522086e-001,
          -8.5488478127402356e-001, -1.4012085724372997e-001,
          1.8926087355533339e+000, 2.4419466251060082e-001,
          -9.3172058485035469e-001, 7.8467193605735186e-001,
          3.1030140723850491e-001, -9.1058476427228652e-001,
          -1.0873044890560812e+000, 6.3919366422443435e-001,
          3.9883224418617236e-001, -1.4953923715054726e-001,
          -6.7445650605241403e-001, -1.7243398673549262e-001,
          9.7294808377701536e-001, -9.6194423114021710e-001,
          -6.1195240144397434e-001, -1.5930406437051459e-001,
          -5.6288047510997807e-001, -1.1469286839200091e-001,
          -1.9812079341492372e-002, -9.9883942601553355e-001,
          -2.7091730424378352e-001, -8.2668522036361269e-002,
          4.7996647343187038e-001, -4.2852081654361540e-001,
          1.2443583512571321e-001, -8.5240157270414452e-001,
          -4.4099686860734155e-001, -2.8877697886982673e-001,
          -1.3001325003699354e-001, 3.0457231636079010e-002,
          -4.8385533277086107e-001, -2.4432907419679550e-001,
          2.5374103806812296e-002, -1.0721877853836002e+000,
          3.1185053391691003e-001, 1.5662915793411827e+000,
          7.7930693961583408e-001, 5.7811870969310086e-001,
          1.6832093496076003e-001, -1.1495414158798805e+000,
          7.2186865194578709e-001, -2.0363246879411090e-001,
          3.8845456111897064e-001, -1.0266216556374288e+000,
          -1.0162196643051595e+000, -1.0462957141657505e+000,
          -4.1316438565927821e-001, 2.8235505649189580e-001,
          4.9158625919953469e-001, -9.7719257996586784e-001,
          1.2979830263183337e-001, -4.1272562736905899e-001,
          5.2104020978777721e-001, -3.0163562908008401e-001,
          7.2550737460298598e-001, -9.2194818292397407e-001,
          5.4554442253088975e-001, 5.9065569349479230e-001,
          -1.0001474260792298e-001, 9.8448267909454845e-001,
          -1.1585003335862272e+000, 2.3233811223089404e-001,
          -9.6087747242057264e-001, -2.1169295643659214e-001,
          -1.3538722083946983e-001, -5.2713607130478335e-001,
          1.5682636348996598e-001, -6.1629384275296140e-001,
          5.4996799996329493e-001, 8.2063701453277882e-001,
          -1.3176402452029898e+000, -5.7641432715149221e-001,
          1.9233619329761076e-001, -2.7358379406809558e-001,
          4.9095380928427336e-002, 5.4173493710325482e-001,
          -2.2650181170396990e-002, -3.2365638402481983e-001,
          6.4363665367705658e-001, -5.2377284870564345e-001,
          1.4482277344279917e+000, -2.9832246721394862e-001,
          4.8894134355684821e-001, -3.7272976761530130e-001,
          7.1771497705489617e-001, -6.7914439000436566e-001,
          3.8497517404199942e-003, 4.4319688759375642e-001,
          2.2892494029354835e-001, 6.5169768350015278e-001,
          -9.9553465614983550e-001, -2.8477763547551943e-001,
          6.8427556710026233e-002, 2.3238398139562819e-001,
          -5.3225911829723771e-001, 1.2087770586593065e+000,
          5.4095392556939137e-001, 3.7291381037389859e-001,
          1.0748019072478103e+000, -3.7338191858331254e-001,
          -9.0425937459615113e-001, 1.5753437698168747e-002,
          3.2984660626810676e-005, -5.4711798780369314e-001,
          1.3957402597615451e+000, 5.2803530905006357e-001,
          9.7943674137120462e-001, -1.7665224972750183e-002,
          7.2193484801901164e-001, -6.3565387097598514e-001,
          2.5301469616790040e-001, 1.1493416061909658e+000,
          2.3606370730538326e-001, -3.3351265580575751e-001,
          -7.2079734756367519e-001, 5.6837059408877688e-001,
          3.6762092926889822e-001, 1.2423114260523260e+000,
          -6.5137008812117514e-001, 3.2312198060150504e-001,
          2.7793094140030145e-001, 2.6146331711878534e-001,
          1.0835073737678107e+000, -4.0871287638488890e-001,
          5.8451818118539467e-001, 2.3115104555588203e-001,
          -3.5749808857593539e-002, -9.2771914513190348e-003,
          6.9807999325966386e-001, 7.4628881376669987e-001,
          4.1264138861164412e-001, 3.0223236785069707e-001,
          1.2491862398619111e+000, -6.5320499313939151e-001,
          6.6148583151321672e-001, 1.5420646929934970e-001,
          1.3104084586005884e+000, 3.0191266700426345e-001,
          -8.3141093507627006e-001, -2.6873258274483547e-001,
          1.0399625787272693e+000, 9.9481264652792423e-001,
          1.1200381174279235e+000, -2.6289092327839880e-001,
          1.4883943912692812e-001, 1.1172347191115539e-001,
          -7.5519266423720688e-001, 7.9862365149022640e-001,
          1.2604318636386134e+000, -7.3465647627445119e-001,
          -5.6185221836752253e-001, 3.4769530859875608e-001,
          1.3401648035801685e+000, 7.7408150130260844e-001,
          -3.1671166343425589e-001, 8.3271419542838299e-001,
          -1.0641531406280524e+000, 5.7478525094422495e-001,
          5.1278138017146513e-001, -4.8359284020609711e-001,
          2.7046287898774812e-001, -1.5636286785211166e+000,
          5.2113990805944310e-001, 1.2504274033072196e+000,
          -3.2359655507162383e-002, -9.1840645236542706e-001,
          -6.8878176261983159e-001, 7.7390428362414831e-001,
          8.2978557910500583e-001, 5.4899958096171586e-001,
          6.5895945506511255e-001, -3.1820665180045032e-002,
          8.3169999347652024e-001, -4.5884427348572582e-001,
          -1.5950741128776633e-001, -1.4946650784166353e+000,
          1.0750356567535582e+000, -8.7014504111929991e-001,
          -4.3437763553444769e-001, 1.5195062955103986e+000,
          1.3756991056781116e+000, 1.9097921364183182e-001,
          -6.2154866598951519e-001, -3.1516129336224913e-001,
          7.7012402163593197e-001, -4.0923522724558481e-001,
          1.0589022411570834e-001, 6.4742158880592615e-001,
          -7.7352489175956884e-001, -7.9931755806755445e-001,
          1.0791407997842142e+000, -4.5607953230994402e-001,
          -5.7403841530170019e-001, 2.8535643072827571e-001,
          -1.9693174454405016e-001, -8.0939795429927786e-001,
          -1.1283482513154648e+000, 6.7486401151451089e-002,
          6.5278624496426990e-002, -2.1170009426188932e-001,
          1.3876119873095671e+000, 3.2741435400842567e-001,
          -1.8521630012208082e-001, 5.7213881469777239e-001,
          -1.7693379023660646e-001, -1.7651055640248318e-002,
          3.2917291448025210e-001, -7.3926758753742339e-001,
          9.9633908221221457e-001, 2.7110726557246662e-001,
          -8.7218634698752173e-001, -7.6365375086615439e-001,
          -8.8621623696339935e-001, 7.7090798179635012e-001,
          -1.2131223959549586e+000, -4.2533234816768706e-001,
          -7.7684834903921696e-001, 1.0471713330861654e-001,
          4.6885633335491217e-001, -3.2795625874748220e-002,
          -6.9394431364764853e-001, -1.9356961116397650e-001,
          -9.1087056470250993e-001, 8.7244825693001704e-001,
          -1.0224113971000279e+000, 5.1076773511750373e-001,
          -4.8171422582261325e-001, -9.6425710491276806e-001,
          -7.3821889738219282e-001, -1.2761969810872484e+000,
          2.8711064442551582e-001, 5.0686198176018793e-001,
          5.6683137586286503e-001, 8.4694112071566019e-001,
          -3.6597403033828385e-001, -4.4365211984161046e-001,
          4.0320185543304354e-001, -1.5842877625318654e+000,
          -1.3553001225329544e+000, 9.1909295694885873e-002,
          2.2084887474927031e-001, -9.7973810501495381e-002,
          -5.0496720574776244e-001, 2.5680845866129659e-001,
          -3.6906933590070784e-001, 9.5697573898507651e-002,
          5.4738244422355486e-001, 9.1029267636390077e-001,
          3.3449284382512623e-001, 3.2216244502658076e-001,
          -1.1368991017819943e+000, -1.1380301278335261e+000,
          1.0391293143197300e+000, -1.9164356765392318e-001,
          -2.5793970082276130e-001, -1.6560278735998124e-001,
          7.6100470376326501e-002, -5.6828320736538207e-001,
          1.1345124798151041e+000, -6.4262225581383092e-001,
          3.2394454640347453e-001, -9.8865265728416996e-001,
          8.6748811500155613e-003, 1.8068080886556503e-001,
          -8.8126162050326973e-001, -5.5629360954133296e-002,
          1.0720160240227063e+000, 5.1163663728944409e-001,
          -3.4141335324665137e-002, -1.1870771578850943e+000,
          5.8522750114984778e-001, 7.4412489105776358e-001,
          -1.7023428163315063e-001, -4.5987690008258264e-001,
          -1.3237525376697508e+000, 5.6799362925491970e-001,
          4.0398844168168546e-001, -1.2912553463618084e+000,
          -5.3476461727814961e-001, -4.2802022970583287e-001,
          2.2448538996110856e-001, 1.9083547361331303e-003,
          -5.8377980083015146e-001, 1.8842711159263130e+000,
          -9.8703942694608104e-001, -3.0911123291190978e-001,
          -3.3628029564942269e-001, -1.4051983649457027e+000,
          -1.2540272569940383e+000, -9.8945986081507831e-001,
          -1.1534223655552158e+000, -3.8781206310793376e-001,
          -5.6402162087981579e-002, 9.8548901744638018e-001,
          -1.0315350629526649e+000, -9.7565630563421957e-001,
          -2.2298420872621919e-001, -6.7674336319926554e-001,
          3.9982873748716757e-002, 2.0484029375141818e-001,
          -7.9889601247391695e-002, -8.8216885609551632e-001,
          8.9247837620223236e-001, 7.9837998815885791e-001,
          -1.4040333509179932e+000, -1.8834573287101447e-002,
          -1.6754874842505693e-001, 7.2207274563575541e-001,
          7.1718201256293934e-001, -1.4997214476676723e+000,
          -9.1057977848787136e-002, 6.9063778864980252e-001,
          -9.0114091043725209e-001, -3.4579170539656180e-002,
          -1.2973918229966142e+000, -1.1468566869952528e+000,
          1.3620540315013641e-001, 4.8431511082726225e-001,
          -9.7587838260361837e-001, -4.0225506025841867e-001,
          -6.9950890918778308e-001, -1.0093837943790835e+000,
          -1.2700141590156075e-001, -5.0536714905886981e-001,
          -7.7167818389807338e-002, 1.9719568349365360e+000,
          4.4692629650634214e-001, 8.3364302037825333e-001,
          3.4839475792103830e-001, -5.2117975433232622e-001,
          -8.9789497605994070e-002, -7.8705859916195747e-002,
          -2.4859280857326577e-001, 1.3213256140242258e+000,
          1.7944524583095198e-001, 1.3760381357134732e+000,
          1.1939285103409674e+000, -6.6673423781950514e-001,
          1.1045883120464078e-001, 1.1371124390290905e+000,
          -2.1455849322133977e-001, 5.3343378038443878e-001,
          1.1812636146600000e+000, 1.2819206252243049e+000,
          4.0857228980376470e-001, 1.2166593494304558e+000,
          6.3294635350064199e-001, -1.5886577128156923e-001,
          1.2694606790189800e+000, 2.4768413760931862e-001,
          7.6540666799463841e-001, 5.8608704539667444e-001,
          -3.0146195457281327e-001, 3.0752309524311433e-001,
          -4.0882486573137811e-001, -4.5860981841540671e-001,
          5.3061008335867695e-002, -5.0169991529244506e-001,
          -1.5642965001592186e-002, 6.3355237729994207e-001,
          2.4590926033382440e-001, 1.0539964632857428e+000,
          3.7359762844192440e-001, 2.6859448912934361e-002,
          -1.4399371894110802e-001, 4.2562944756625321e-001,
          9.2537186115350878e-001, 1.2092734187158349e+000,
          1.2094777646362795e-001, -3.2214355055835453e-001,
          5.8200480750924788e-001, 2.8442741513734149e-001,
          1.3963303039502103e-001, 3.8651176029606044e-001,
          2.1663493411269447e-001, -4.3187431608246035e-001,
          5.2050036698828003e-002, 1.3115709696224784e+000,
          1.0528418232593957e+000, 1.9297022664899510e+000,
          9.0467161915013217e-001, -3.5116815739677826e-001,
          -1.2727120548900794e-001, 6.2416848169778594e-001,
          3.9107355357512913e-001, -9.9166290761954623e-001,
          4.2502092367409033e-001, 2.7421372470707056e-001,
          1.5051042416617260e+000, -6.2755380942350703e-001,
          2.5100679673219778e-001, 1.2999135599199518e-001,
          6.7298830139747357e-001, -3.2014537534009002e-001,
          -1.2549322060180493e-001, 3.1768539907896154e-001,
          2.2577119639244997e-001, 4.8317462402795930e-001,
          8.0639326723465810e-001, 5.9895184948343172e-001,
          -3.9841896475867800e-001, 1.0529272084856149e+000,
          -7.9144129972023580e-001, -9.4229432692864976e-002,
          4.3893007223092922e-001, -4.8221574700739273e-001,
          -8.1024446684993645e-001, 6.0221487440098287e-001,
          -6.9934762536771344e-001, -6.9041754511393394e-001,
          1.1837253346318374e-001, 4.1599474235284717e-001,
          2.8387584282479750e-001, 4.9200599500573421e-002,
          -2.5736430380524028e-001, -3.8482832321521016e-001,
          4.0041516604152144e-001, 1.2898739451531438e+000,
          9.9471951722747143e-002, 1.0759828766034325e+000,
          -4.1498770236574561e-001, -6.3024237623749402e-001,
          1.0097289966516803e+000, 1.9051392957750990e-002,
          -1.2245704289556834e+000, 7.9328774979708638e-001,
          -5.2075696762529440e-002, 6.8851559405462071e-001,
          1.2146135108182687e+000, -6.9913851252684389e-001,
          8.9200550764162723e-002, 1.0508374031038117e-001,
          7.3234487056831910e-001, -8.0874261349612442e-001,
          1.1955073606898734e+000, 7.3979656773013114e-001,
          -6.3313214409034246e-001, 6.9090558601530672e-001,
          -1.2930868649300189e+000, 4.6843197507533840e-001,
          7.5970347330892740e-001, -7.6868633322062307e-001,
          1.7329189147429191e+000, 2.4413894929240831e-001,
          8.5580353244467999e-001, -8.2076486081315592e-001,
          7.3452847548905198e-001, -3.2810035094457951e-001,
          2.0520422449166695e-001, 2.3553931665465780e-001,
          5.2438378188143520e-001, -7.6778057645152242e-001,
          -5.3989339691341296e-003, -6.8445507794425231e-001,
          -2.9508894221962251e-001, -2.8458432570655001e-001,
          -7.2683729650515261e-001, -5.9781732546941146e-001,
          -8.6947786553574080e-001, -9.4379789755469523e-001,
          4.8681304372927708e-001, -2.2632624241854365e-001,
          1.1534919836837358e-001, -1.4008830135638468e+000,
          5.8178903051591235e-001, -9.7663787649234468e-001,
          3.0406066003880167e-001, -6.6183630581743369e-001,
          -5.0962148897516701e-001, -1.1685373744359009e+000,
          -8.7286455703922544e-002, -6.2600861390103779e-001,
          -1.1114034604988403e+000, 1.1518021865149002e-001,
          3.3427101661016333e-002, 1.5241908708497137e-001,
          -1.4511726067248758e+000, -1.2346006223847195e+000,
          -1.9857660222720205e-001, -2.1031582273128160e-001,
          -8.0167827716231155e-001, -1.0237181430609024e+000,
          -1.2862523790410858e+000, -7.2791908421462892e-001,
          1.8284594053671577e-001, -5.2393477813135858e-002,
          -4.5524673077401889e-001, -1.7850525803299114e-001,
          -5.9547452409852375e-001, -1.7310029018983417e-002,
          2.6779200618100835e-001, 6.5351256370928124e-001,
          -5.2573857786721379e-001, -1.0066376457401887e+000,
          -8.9536279601181545e-001, -1.1822896222924817e+000,
          1.2518242126372317e-001, 4.1116233068032471e-002,
          -2.7717108042101307e-001, -1.0367619202742340e+000,
          -6.6204188786281715e-001, -3.6976082219281436e-001,
          -8.5771457744766921e-001, -7.8849684683196020e-001,
          -9.4783181064807542e-001, -9.5483379945354296e-001,
          -1.3962897664333906e-001, -7.7198165796223717e-001,
          -1.3030788761226944e+000, 4.1885567687390901e-001,
          5.7425060614093848e-001, -1.7055859356179748e+000,
          -7.0872002592488215e-002, -7.5088436908248302e-001,
          -8.5333582991389823e-001, -3.3992411741937623e-001,
          -3.2392893396493333e-001, -1.6298982407481288e+000,
          -8.5061822480966731e-001, -7.9190844368261526e-001,
          -9.0542061782293326e-001, -1.7123457305137391e+000,
          1.8582867352144389e-002, -3.7267593081400169e-001,
          2.3081403694286670e-001, -1.2523972700484614e+000,
          -1.0757865039173762e+000, -1.1059110277762605e+000,
          -1.5494938364149471e-001, -1.4272424004107980e+000,
          -1.1801023917913647e+000, -1.3932799857421188e+000,
          -9.9793042244197017e-001, -7.4209767101306090e-001,
          -6.0544195972232824e-002, -1.2505844360413003e+000,
          -2.1904533136447812e-001, 2.1678743025204320e-001,
          8.6570261177153007e-001, 5.7059947060173762e-002,
          -1.4010845979907662e+000, -2.1038789811624561e-001,
          -2.7528552254451732e-001, -1.0910725778104047e+000,
          -9.6722901409619078e-001, 7.8717129599566049e-001,
          -1.3506846417439329e+000, -8.7492745113059844e-001,
          3.4900947430871632e-001, 3.0671428172518467e-001,
          8.1377276666521836e-001, 5.4306313140720397e-001,
          2.5438966336670360e-001, -5.3937110493888640e-001,
          9.5461082384172358e-001, -1.0551548491432678e+000,
          -4.7784601557935591e-001, -1.7976029285470829e+000,
          -1.1067810047978507e-001, -1.2000488284897287e-001,
          -6.5398928238847598e-001, 2.3747519633454919e-001,
          -3.4755516855243179e-001, -3.7772773331958281e-001,
          -5.3303002356586859e-001, -1.5085913592863961e-001,
          8.3440118943613070e-002, -4.6388164295561601e-001,
          -6.6690484752693152e-002, 1.5635750526792616e-001,
          -1.1631675590917501e+000, -5.9786447057920300e-001,
          8.6725516548363468e-001, -3.5716559786164531e-001,
          -8.6019789949067549e-001, 2.0621608074289480e-002,
          1.0264576668883663e+000, -1.7643462937875456e+000,
          8.7529782888894592e-001, -7.1635312276284446e-001,
          -7.4382906137822336e-001, -7.4308177184176782e-001,
          -1.0966243482535207e+000, -1.6166520564689024e-001,
          -9.9822098625629718e-001, -1.1956657660421928e+000,
          6.9400856869095884e-001, -3.5164867369610597e-001,
          -1.0384094066977554e+000, 8.3653552465598002e-001,
          -6.5246594530446056e-001, -5.3049826451358961e-001,
          -6.3171089684258042e-001, 3.0714633604535091e-001,
          4.8921541027942922e-001, 2.9861793517252089e-001,
          1.1675911723084580e+000, 6.6980886202419015e-002,
          -2.1801544262488012e-001, 7.0926756856864404e-001,
          -9.5288025499562190e-001, 5.8976223163745023e-001,
          -8.4769551626842421e-001, -1.1557916932494996e+000,
          3.7645914518709978e-001, -6.3931452756205354e-001,
          1.4087712743914522e+000, 2.6396538921485374e-001,
          -1.4797046033865067e+000, 7.1741054686134531e-001,
          -3.5229474567694707e-001, 5.5381408936626286e-001,
          7.1496789405164130e-001, -8.4992286242499582e-001,
          5.2766575030865759e-001, 4.5101158258452501e-001,
          -7.4612763237206925e-001, 1.8074660437050660e-001,
          -8.1257480794764747e-001, -9.8267217383760264e-001,
          1.1165196217294968e+000, 1.0800057330826957e-001,
          -5.8610465733844741e-001, -5.6351248748210325e-001,
          9.0888416648445394e-002, -1.1759842113745369e+000,
          6.7859909511590955e-001, -1.3690008616032084e-001,
          -4.5740955799255516e-002, -1.1289122854297891e+000,
          -1.2108203872707608e+000, -1.1115001226820256e+000,
          6.2738641804588102e-001, 5.2035082280948275e-002,
          2.9123781490379952e-001, 5.4030514076563851e-001,
          5.0913903814509331e-001, -5.2984273537718729e-001,
          -8.7415378887128892e-001, -7.6536515545872741e-001,
          -1.2386336238573699e+000, -6.1462857080045230e-001,
          3.2622182033145333e-002, -1.8192583668347433e+000,
          -1.6165146447245404e-001, 4.8545588000843881e-001,
          -1.4478194697137270e+000, 5.3612902492336800e-001,
          -1.9290334362797440e-001, -1.2991136615439609e+000,
          -1.2852309976049179e+000, 5.5604171808464453e-001,
          -1.4639815495434130e+000, -6.0363362188713576e-001,
          -1.0126280860102554e+000, -1.1603072452821235e+000,
          5.0420644614907251e-001, -6.1426161944365354e-001,
          1.0581536901249772e-001, -5.3197786211666787e-001,
          -8.3968631791316961e-001, -1.0363657515573645e+000,
          -1.0908797721231600e+000, -1.1459705820975807e+000,
          -7.2505685392135966e-001, -1.7125334865490041e-001,
          -1.8707713769955822e-001, 2.5579300412239514e-001,
          -2.8550005140781215e-001, -3.3263284926599063e-001,
          -2.0589284451833142e-001, -1.4208432710850039e+000,
          3.7013064156957221e-001, 5.2987819229270605e-001,
          -8.9447828411897945e-001, 4.2680104266566876e-001,
          2.9170566710336820e-001, 1.0014512053308997e+000,
          -3.2090313534711296e-001, -9.1734692185568434e-001,
          -6.2531890092756859e-001, 3.0972502044580213e-001,
          -7.6067814471730810e-001, -7.2784794186810109e-001,
          -7.3907813313440318e-002, -2.3236783709655298e-001,
          -2.0678917237107197e-001, -1.6851793412364663e-001,
          8.0104182881961028e-001, -5.5403817376082942e-001,
          -1.3718259739985679e+000, -5.5767996907198181e-001,
          -5.5484823573350361e-001, -8.8040103169111461e-001,
          3.1570513246310949e-001, 9.7191708561322421e-001,
          -6.4283182637794234e-001, -7.0641659286130351e-002,
          6.2858879976610382e-002, -5.4481374853446929e-001,
          -8.2268056674102263e-001, 1.0977977513597370e+000,
          4.3239296378987990e-001, 1.0932516448730834e+000,
          1.2978247541790414e-001, -1.2238626068317826e+000,
          9.8110093981724911e-001, 7.9315302437348434e-001,
          1.8741091051067713e-001, 9.2336366005807358e-001,
          2.5513503364475237e-001, 2.2839440610712355e-001,
          -3.2619867574107987e-002, 1.1933662146072470e+000,
          -1.1718965007411740e-001, 7.9497386296422901e-001,
          8.2427511679091714e-001, -9.3806679084080846e-001,
          3.4774857413533344e-001, 3.4000978467266046e-001,
          1.9719002411872971e-001, -1.2324830204956290e+000,
          8.6553993427781439e-001, 6.0359220891823573e-001,
          -4.9911385538919051e-002, 1.6104085493304865e+000,
          -1.0785197946859437e+000, -1.4381447085029292e-001,
          3.2150857274303063e-001, 1.1389858971178173e+000,
          1.7670489417496438e-001, 2.2297054828787080e-001,
          -5.8488817874373433e-001, -7.4646485639575633e-001,
          -5.9471574524850257e-001, 1.6810033139113947e+000,
          4.4285047809533240e-001, 1.9587994268809692e+000,
          8.6150581726112152e-001, 6.5871804836129721e-001,
          3.5348808602452458e-001, -5.4025443482420044e-001,
          -1.1734843510455104e-001, 1.1201630250605561e+000,
          1.9099766677632243e-001, -1.1038605388496741e+000,
          -7.3932140260055601e-001, 5.1513075070149383e-001,
          -7.4362830946537473e-001, 4.7485873508120369e-001,
          -1.5641071775341846e+000, 5.3267838436444914e-001,
          4.7151068940641044e-001, 7.5933441512400701e-001,
          3.8436186247077581e-001, 1.9998548873756322e-002,
          5.2722124290052741e-001, 1.8290866343139747e-001,
          -4.9840393083693740e-001, -1.3310518980747190e+000,
          7.1422374370019370e-001, -4.5243313435169513e-001,
          -1.0097055660843828e+000, -9.5207299046918026e-001,
          -3.9110230167789517e-001, 6.6683467888330994e-001,
          -7.5028305158594599e-001, 9.7134067107890798e-001,
          1.0535666655494724e+000, 3.6602145299964944e-001,
          1.5052318536738307e-001, -4.8011605092782927e-001,
          -8.7521372613408244e-001, -3.6467119571442125e-001,
          -2.1180220024423643e-001, 4.4517203856834657e-002,
          9.8873674661811448e-002, 5.1352225867769030e-001,
          -3.6476479428374918e-002, 9.1588023497152216e-001,
          9.5817694687656974e-001, -1.4989587470974766e-001,
          -2.1060523504305828e+000, 1.1340734712962537e+000,
          -8.3381890692677563e-001, -7.5774825958422709e-001,
          -9.2694629332842926e-001, 6.4360954803754833e-001,
          9.6630630718789112e-001, 2.3900714636540261e-002,
          -7.4675447945211038e-001, 1.3772637075487146e-001,
          6.7013364327455693e-001, 7.8482130623811108e-001,
          -7.4648606658092576e-001, -1.3248912414673506e+000,
          4.9918475586599592e-001, -4.7355776875231220e-001,
          6.5504047233244367e-001, -1.4932369519516107e+000,
          -1.1029975841959314e+000, -2.5906683578501055e-001,
          -6.6072421214152244e-001, -5.7918061236153906e-001,
          7.5360899545967408e-001, 1.3208442445855455e+000,
          -4.3206463996787925e-001, -1.0276594504924756e+000,
          -2.8035844138909566e-001, -8.1956629604152686e-001,
          3.6946169919082222e-001, 1.0163026468719316e+000,
          -4.8863235442301112e-001, -1.4383680485610033e+000,
          5.4987262718204602e-002, -1.2351854455773095e+000,
          1.2778617425543186e+000, -7.6783581996126471e-001,
          5.8253872457044042e-001, 8.7050267095601752e-001,
          1.0293992648539767e+000, 1.4165797005263206e-001,
          7.5049653606931732e-001, -1.5494087230296099e+000,
          -4.9724764666533389e-001, -2.4051724741914654e-001,
          9.8831889070781309e-001, 4.6586216105631567e-001,
          2.8623289078533948e-001, 4.6147783922931440e-001,
          -4.8170695782763956e-001, -1.1064378193280138e+000,
          1.2203461421705100e+000, 1.0322060863569256e+000,
          -8.8241650701764973e-001, 6.4895261020562001e-001,
          4.2787117350307341e-001, -2.1972569392072172e+000,
          2.9648329943378798e-001, -7.6333042191348788e-001,
          -2.1617825750155162e+000, -9.9688533414484326e-001,
          7.7307902474252477e-001, -6.9102143678154992e-001,
          1.0886160006418319e-001, -5.4977415488167691e-001,
          5.5894450576815802e-001, 1.8082093734883682e+000,
          -1.0244326210123311e+000, 9.3807603290319141e-001,
          -1.7300566317273878e+000, -8.2679953178703847e-001,
          6.6278699141568898e-001, 5.1257232111370310e-001,
          -1.6236307983537981e+000, 1.5489474687310514e-001,
          7.3091082208436714e-003, -6.2216978255967781e-002,
          -3.3332550842682218e-001, 8.6122555049519078e-001,
          1.1795119850273161e+000, 3.1586519911347211e-001,
          -1.4046817313638638e-001, -9.7079017374714860e-001,
          -1.9767276728419103e-001, -3.7814818598425720e-001,
          1.4365199630341954e+000, 1.2543944300369612e+000,
          1.1818554740156229e+000, -1.2660404439295743e+000,
          2.5954855620863720e-001, 1.0018248156521683e+000,
          1.1108665768054899e+000, -5.7587709991306668e-001,
          -2.8413009618788743e-001, -4.6438413937891976e-001,
          -1.2845255712537269e+000, -3.5373705389569293e-001,
          -9.7098075336161016e-001, 7.7591055300595513e-001,
          -3.3153552975700762e-001, 1.8670340455229117e-001,
          -6.6489183937969831e-001, 6.2620001905483880e-001,
          -3.1840344094837303e-001, 3.9818978621614409e-001,
          -3.3565019506602062e-001, -8.0999093373997177e-001,
          -7.1033216315560499e-001, 6.3610188392590095e-001,
          9.5192264395134274e-001, 1.2451753817469358e+000,
          -4.2852324751356080e-001, 4.3465264868610426e-001,
          9.7722593150739528e-002, -7.4849455700900980e-001,
          -3.9140771584397238e-001, -9.2291494561308218e-001,
          6.7036380930112960e-001, 7.0455568843281446e-001,
          9.3188930737820519e-001, 1.4387345479836230e-001,
          -1.1495315277864175e+000, 4.0226939225335079e-001,
          1.1499106845860869e+000, -9.5306384836539670e-001,
          -1.3242875124608974e-002, -3.9358767619833457e-001,
          2.4575991923953380e-001, 5.1429514306293367e-001,
          -4.7546871910651040e-001, -6.0533186167442699e-001,
          1.0507442132119080e-001, 7.1797666641948743e-001,
          -6.3079352088261698e-001, 9.9190531880991040e-001,
          -4.9357888058280058e-001, 6.2835439683498001e-002,
          -4.3060301254325412e-001, 5.9051279491460684e-001,
          -1.4753435818928107e+000, -9.6121763142497763e-001,
          7.9958182448642123e-001, 6.3092595902529691e-001,
          -1.0970373715432773e+000, -3.6764050005946580e-001,
          4.7936273424823567e-001, -1.2018497381014590e-001,
          -6.5787641453591339e-001, 2.0342505936704617e-002,
          -2.7496422268389908e-001, -6.0281594497677660e-001,
          -8.5625033003173434e-001, 2.6162499224489155e-001,
          4.8405077553352588e-001, -9.2919899374893189e-001,
          -6.0480639611993270e-001, -2.7788519814820223e-001,
          2.6712845715082717e-001, -1.1323986753541551e+000,
          1.3931980187302218e-001, 6.0311220823668510e-001,
          1.1934657303562546e+000, 1.1400017983955353e+000,
          -1.3123072941267082e+000, -7.6473993178995059e-001,
          -5.7704992254604481e-001, -1.1529680418627535e+000,
          -1.1169412484103391e+000, 2.5492996904514353e-001,
          -2.2242389319441275e-001, -2.9789437933708912e-001,
          8.5035691068914321e-001, -4.0343242877091279e-001,
          -1.2484252189981579e-002, -7.3547810494814569e-002,
          -5.3642498732780874e-001, -8.6419835319462468e-001,
          -3.9489290704816971e-001, 9.9046111761235978e-001,
          4.4419087361947496e-001, -9.5259773615495508e-002,
          1.0566932026196887e+000, -2.5352612980964229e-001,
          9.6554847663462040e-001, 7.4805679050469642e-002,
          1.0547618156348475e+000, -3.3139380675854874e-001,
          9.5946975454815642e-001, -8.6456235858344069e-002,
          2.6988218116094170e-001, 8.9289564122550735e-002,
          1.1900314812422346e+000, -2.5457807038449565e-001,
          -2.9173918715221187e-001, -1.0310706885477246e-001,
          -6.4885179709269991e-002, 1.3373964330428738e+000,
          4.5438943505938478e-001, 7.0955225640268738e-001,
          1.1575789535195144e-001, -6.2788283977593964e-002,
          3.3208621636138436e-001, 5.9383291970150709e-001,
          5.6476499378104317e-001, -3.1201053409123647e-001,
          1.5695097099584825e+000, 4.2073051045277371e-001,
          -1.4562797436880454e-001, -1.4023287058856616e-002,
          9.5892863039682674e-001, -2.7092994200023213e-001,
          -1.1736586690447377e+000, -5.8226886520935536e-002,
          1.7007492834058255e+000, 1.2856958105452736e+000,
          9.8285239886785158e-001, -4.4928265314586879e-001,
          4.5153880743324404e-001, 7.7263529960858579e-001,
          -2.9691773680258920e-001, 1.4933169091623300e+000,
          1.2363062493211554e+000, 1.1190559516976177e+000,
          4.5082239054723450e-001, 2.5360790925996668e-001,
          1.0407928052872761e+000, 7.3961431325783034e-002,
          1.3558532965939118e+000, 1.3023606348434287e+000,
          1.1505638610564628e+000, 1.4587653840250079e+000,
          5.1975371989619802e-002, 4.8223190485988626e-001,
          6.5293360322020777e-001, 1.4972560099795328e-002,
          1.1761212411924031e+000, 1.2402007242824651e+000,
          5.8796848608691177e-001, 1.0638389887897510e+000,
          6.0720201248283323e-001, 7.9834395300689853e-001,
          -8.3825347282166562e-002, 1.2339399081161482e+000,
          6.3784136961151661e-001, -2.2777074374765793e-001,
          4.7846783430165817e-002, 5.0363854463473112e-001,
          1.1746726379548475e-002, 1.3860895138509826e+000,
          3.8772555241608647e-001, 8.0581697960200893e-001,
          -5.9840185904314794e-002, 6.2165106896484668e-001,
          1.2007585360964717e+000, 1.4034052898658496e+000,
          5.0587031255668946e-001, -1.2290390574314443e-001,
          6.7028225256077212e-002, 5.2928139499670146e-001,
          1.1410465843385140e+000, 7.9245491965966719e-001,
          9.8358993069935230e-002, 1.0880953913998064e+000,
          2.5830266542695229e-001, 4.7823639614797953e-001,
          -6.9550347740700191e-001, -1.7495711449021749e+000,
          -2.8003633084151636e-001, -6.0965240988961689e-001,
          -6.1362448945275594e-001, 7.2519802667415667e-001,
          2.3213917065996612e-001, 8.1557408924844699e-001,
          -2.9026503299715734e-001, -1.0155886531686442e+000,
          1.7699630839434610e-001, -9.1328182909529221e-001,
          -2.1100818010821229e-001, -6.4962132326341693e-001,
          -8.6592230815967575e-001, 1.3075131230753895e-001,
          1.3688681592187717e+000, -9.7151137018840139e-001,
          1.1044524652645500e+000, 8.2856589083186483e-001,
          4.2016364842430670e-001, -9.7513738415321938e-001,
          2.5268131870155019e-001, 2.6564399588862812e-002,
          -3.1320520223867478e-002, 1.1710620855783520e-001,
          6.6396044321218362e-001, -6.7099166699791701e-001,
          1.6877369618047872e-001, -6.4912108672874991e-001,
          -6.4304030666796408e-001, -3.0345957801486828e-001,
          8.0959606049516042e-001, -4.5933290024176598e-001,
          -8.2648891509114041e-003, -4.4308536976844937e-001,
          -3.4076214225839713e-001, 8.4355654840532401e-001,
          8.6397836419181667e-002, -1.1400979143123011e+000,
          -8.0747417564311819e-001, -1.7231004898537136e-001,
          -5.0521809616489899e-001, -1.2516166067640371e+000,
          2.3262053709443795e-001, -1.0722381506553071e+000,
          1.2237250425433513e-001, -7.3464900047406231e-002,
          -5.7411712137409809e-001, -1.0968724841115181e+000,
          8.4069742814473464e-002, -5.1387771632077406e-001,
          -5.2526670874401793e-001, -1.8987572731868489e+000,
          -4.1987784864455446e-001, 6.1719071017894289e-001,
          -1.3136837258706624e+000, -2.4889646097108312e-001,
          -1.0391542545470394e+000, -5.2636409880085211e-001,
          -4.2091007851448653e-001, 1.0135685928331384e-001,
          -1.3606450030792236e-001, -6.6976353757218698e-001,
          -3.9426814734410637e-001, 2.2260043807276114e-001,
          -3.3187654214560763e-001, -1.6625084272006260e-001,
          -1.6004749069901438e+000, -5.6735864269327163e-001,
          -2.8745097232853134e-001, -3.3424742214594227e-001,
          -5.6404267729789592e-001, -5.8390994892214665e-001,
          -1.8702436535888819e-001, 4.9725791087825405e-001,
          -8.2584834713034916e-001, -3.9110007779612649e-001,
          -3.7186880963622077e-001, -3.7192620128742809e-001,
          -1.3384896213627910e+000, 2.4486981115651790e-001,
          -6.7937876954394860e-001, 2.9128811938553784e-001,
          -1.5375533527366109e-001, 2.1443529939291792e-001,
          -1.2716654487597687e-001, -3.3747532324943041e-001,
          -1.1890189290363744e+000, -7.5355943026976471e-002,
          -5.7410151254531305e-001, -1.0213270737605054e+000,
          -8.2050866753366558e-001, 4.0482101385971597e-001,
          2.7646532156655862e-001, 8.5076596633189139e-001,
          -3.6891930708698090e-002, 1.0798292098329629e+000,
          9.8313641099076893e-002, 5.3886768066408874e-001,
          -5.5969730978230360e-002, -8.7104631940531185e-001,
          8.0984851936442037e-001, -8.9758365106305460e-001,
          3.5788801766111600e-001, 7.9978124157418873e-001,
          -2.8737479644545094e-001, -7.8093011489280606e-001,
          1.2805158832999921e+000, -8.6635445568408886e-001,
          4.3055326311364472e-001, -1.2339524311524270e+000,
          -1.6376961014237081e-003, -1.2580448361919916e+000,
          -8.6651597306334771e-001, -8.2959979905996989e-002,
          -5.3332312867067533e-001, 1.2866671069218942e+000,
          -1.0273938967236067e+000, 1.1609746708257112e+000,
          7.3119059814720899e-001, -4.0065619775048528e-001,
          -9.8572539472035414e-001, 5.5485562186878661e-003,
          -1.4409104818856953e+000, 1.2442765708695845e-001,
          -6.2123250272277053e-001, -1.4256100046314377e+000,
          4.3170010666881264e-001, 2.0016392422088911e-001,
          -4.1226773384440618e-001, 2.5244630801412399e-001,
          -5.0110658067702540e-001, 2.7153017239221894e-001,
          -2.4583667541029658e-001, 3.0377853397627003e-001,
          -8.7673083406455166e-001, -1.3102253428681168e-001,
          -5.2749444596399830e-001, -6.9021884091328545e-001,
          1.6969320597195281e-001, 5.0019536423045019e-001,
          -1.0040294189544281e+000, 2.5338501699651539e-001,
          -2.2139327181574839e-001, -4.3096953670171928e-001,
          -8.6489263141666495e-001, -1.1350663175584099e+000,
          -9.3792940613198139e-001, -3.2020144009972967e-001,
          -1.2786730587208190e+000, 3.1935688289731884e-001,
          -2.0231524151586933e-001, -1.9168684703087169e-001,
          -1.5334484363395651e-001, 1.9300854256906366e-001,
          -3.1894468732929215e-001, -8.4317718983351020e-001,
          -4.7167731782056188e-001, -5.1648931555644539e-001,
          3.8632287385889807e-001, -1.5195194200817124e+000,
          -3.5533774706904608e-001, -5.8664432218446227e-001,
          -3.0384310170323647e-001, -3.6452528403257889e-001,
          2.4923022402539935e-001, 2.1203891127188901e-001,
          -4.3729205292601964e-001, 4.4653349379469587e-001,
          7.6361320803063315e-001, -1.2324729249904796e+000,
          7.7941281446181648e-002, 7.0553214145901832e-001,
          -1.3575617258247494e-001, 7.9470088427591357e-001,
          4.7308540028790108e-001, -6.3368809222344932e-002,
          -8.8818661574489433e-001, 1.1202689404977202e+000,
          3.8708849320851274e-001, -5.5471453616383304e-001,
          -1.4274125384606804e+000, -1.2821784902269646e+000,
          -7.6511783252475285e-001, -1.0574403371908436e+000,
          7.5709932396827118e-001, 8.5824571294436214e-001,
          -7.9148503490310773e-001, -1.0444817562966892e-001,
          -9.2495016591959953e-002, 1.3459888904320507e+000,
          -8.4458303227102116e-001, -1.4272153351521057e+000,
          8.0526281361193455e-002, -1.2235627743904127e+000,
          8.0071045032186788e-002, -1.1420581159068760e-001,
          -2.2690042513200340e-001, -6.2893908726647840e-001,
          5.5358962285956026e-001, -4.2888996536618135e-001,
          -5.6070443085941113e-001, 6.8987462883012229e-001,
          -1.2668464325098368e+000, 4.7354804781969029e-001,
          2.7039850865390863e-001, 6.5844565269429189e-001,
          -4.8096535470748530e-001, -9.2259926063288622e-001,
          -3.4312861492030522e-001, 5.3025710977137896e-001,
          2.6835839014908797e-001, -6.8899005600291030e-001,
          1.1580170396741223e+000, -4.0993108335653491e-002,
          1.9782071146995320e-002, 1.4609440928989992e-001,
          3.7915259220800379e-001, -5.4479852366832027e-001,
          -1.3219607922223391e+000, -4.3394496126821103e-001,
          -1.3444527215589794e+000, -9.0022864122845203e-001,
          -8.2147109637799962e-002, 5.5506175337609021e-001,
          -1.1043089948142084e+000, 8.4882236195480532e-001,
          2.1843605842783148e-001, -1.8944299220037435e+000,
          6.3434821446533052e-001, 4.9915765803419565e-001,
          -7.1253453838223568e-001, 9.4280362608966092e-002,
          -4.8087377844089413e-001, -4.5285744576329512e-001,
          -7.1906402855698903e-001, 2.1773675333699413e-001,
          -1.1524127365653256e+000, -7.9201131484174370e-001,
          -1.1025134805846739e+000, 4.2148376070336568e-001,
          -6.0202340722879988e-001, -5.8327236836236751e-001,
          -2.5892663330464150e-001, 8.7206599455687472e-001,
          5.0934465414256413e-001, -8.3592339633902191e-001,
          -6.4729373374772614e-001, 9.3026472263911442e-001,
          -1.4425298177258628e+000, 4.3835856106769161e-001,
          2.5640158991950052e-001, 1.1065975459505506e+000,
          -8.1332947688320667e-001, -1.0669630339718241e+000,
          -1.6383902693319801e+000, -3.9994975791484788e-001,
          2.9717040727572047e-001, -7.2813561169402963e-001,
          3.9839231212627957e-001, -7.0301015962644531e-001,
          -1.3185947120214707e+000, -1.2420447367998864e+000,
          1.0799189223764931e+000, -2.5024805295195435e-001,
          2.4674276686679689e-001, -4.7843848748194545e-001,
          9.3604078294347248e-002, -7.9382053785191808e-001,
          -1.2526130350667315e+000, 8.1891819028301982e-001,
          -1.4773997588874509e-002, -4.6203879509662016e-001,
          1.1435253397386516e+000, -7.7847765125541279e-001,
          -8.3087877931987930e-001, -6.9881544934623974e-001,
          -3.8431813924962543e-001, -5.0611389479510394e-001,
          3.2419402230925182e-001, 9.7629052809610550e-001,
          -1.9435155256465844e-001, 9.0090434035967037e-001,
          -4.5759019006749829e-001, 2.9727485584262681e-001,
          2.3097055750066933e-001, 5.0502775363220997e-001,
          6.1736270247890790e-001, 8.6007690503909151e-001,
          8.7049160712539472e-003, 2.5096763704673691e-001,
          -3.5638316937754383e-001, 1.4679539884699194e-001,
          -1.0944964318432713e+000, -2.3916016326435374e-001,
          -8.0108832635281446e-001, 6.4799450844031892e-001,
          -7.2165360250415700e-001, 7.5633359485815399e-001,
          8.3836663163373126e-001, -4.4697813941828833e-002,
          4.4233806947274851e-001, -1.2668078924234920e+000,
          -3.6345126208848355e-001, -1.7631376452152689e-001,
          2.3515253343670142e-001, -9.0142397666115559e-001,
          -8.1199656649593777e-002, 8.8391269799165073e-001,
          1.2945564146148924e-002, 1.2592437452814733e+000,
          3.9380235325400331e-001, -6.4956955047727205e-001,
          1.5319229716490779e-001, 1.9678206089421885e-001,
          -7.0878178425457583e-001, 5.9601844493652500e-001,
          9.0777531105924303e-001, -3.6866782021627448e-001,
          -7.7367203699521381e-001, 1.9140050795854391e-001,
          -3.4574878919931645e-001, -3.7301964795405818e-001,
          1.0614110420496650e+000, 1.2217651692925644e+000,
          7.3723066467244813e-001, 7.6221456299401114e-001,
          -6.5697702935128621e-001, 3.5052737904475710e-002,
          -9.5853720862326319e-001, 6.4935432555660222e-001,
          1.7950424797480342e+000, 5.8499713976862489e-001,
          3.1165312567559605e-001, -4.6022158685306530e-001,
          6.2820988979539949e-001, 4.6786242535791189e-001,
          1.1419179058046964e+000, 8.6965389013822991e-001,
          1.3577158681829080e-001, -1.1750287407710656e-001,
          5.7711274609602969e-001, -9.7192826467971349e-001,
          6.1831599462928285e-003, 2.8188462592786351e-001,
          6.1298493054719953e-002, 1.8582771428634803e-001,
          1.1919987221096287e+000, 1.1616906693134220e-001,
          1.0715901059362971e+000, 8.3113322036882720e-001,
          1.0747951144873020e+000, 1.9142740404480718e+000,
          8.9528645817455821e-001, -7.9246335654293662e-002,
          1.1408512184634867e+000, 8.4935522165351873e-001,
          -2.8488207857227421e-001, 1.1696266186540689e+000,
          1.0326237227023689e+000, 1.6873588990390678e+000,
          1.1488317428336836e+000, 1.9466513362140803e+000,
          2.7085410213249367e-001, 7.8554688066499900e-002,
          -9.9609352176122143e-002, -9.0775501856109695e-003,
          9.3105975779558758e-001, -7.8570039884597775e-001,
          2.5927383756086603e-001, -1.7785795106738211e-001,
          1.0633515739574011e+000, 4.0079354008197854e-001,
          4.0168053308148305e-001, -9.2943576087944824e-001,
          -3.0300598305668136e-001, 1.1415437814408630e-001,
          1.1635622923852815e+000, -8.3420180145424383e-001,
          5.2113501250228467e-001, 3.5752930567604008e-001,
          -1.0690900717212637e+000, -1.8387733360635306e-001,
          5.3403892637191885e-001, 9.5898396834441138e-002,
          -1.8769935172313479e-001, -3.4554515425334348e-001,
          2.5335429581173022e-002, -1.3589144347311382e+000,
          -6.4087157081556523e-001, -1.1086209743940167e+000,
          -8.8264511667383283e-001, -3.2012320177321481e-002,
          2.9159871012504876e-002, 2.6556880216110151e-001,
          -2.0348477101375112e-001, -2.0500656976538774e+000,
          -1.3030329196603954e-001, -1.0699427257806362e+000,
          6.4486701585466644e-001, 2.9778140709975082e-001,
          1.7405185905281778e-001, -1.1749828970962954e+000,
          -2.1811826768223633e-001, 3.4632873427974914e-001,
          -5.8948573522007684e-002, -4.5085245247831701e-001,
          1.2354773504676262e+000, -1.2837968226274650e+000,
          -1.1863661839862218e+000, 1.2320926220765330e-001,
          -8.1504298311378731e-001, -3.5394206980832577e-001,
          -7.0432722165480310e-001, 4.6151220632588436e-001,
          -5.0291287247693728e-001, -5.0903630818462553e-001,
          1.3283181028284041e-001, 1.1683897516129778e+000,
          1.0865631233673251e-001, 1.0895521457463311e-001,
          -2.3188490316283930e-001, 5.2091728352105349e-001,
          1.1993294253413653e+000, 1.2046027003146673e+000,
          -4.3816351105841622e-001, 6.3596955223693519e-001,
          8.6022809026464786e-001, 7.1100604971231676e-002,
          1.1610348417825036e-002, 1.6129257156601515e+000,
          1.0454511383264720e+000, 2.9424212353927379e-002,
          -2.8752352718677826e-001, 1.8204621364007176e-001,
          -7.3226453141497574e-002, 7.2334095482265848e-001,
          2.4182959559097419e-001, -5.5693062611257615e-001,
          -8.3327950271854334e-001, -1.0192484555019766e-002,
          9.9189413834629736e-001, 1.1246291227194343e+000,
          1.5549420987390159e+000, 5.7256098887720497e-001,
          1.4141091534608266e+000, 1.9135068350772280e+000,
          -1.0661524264586755e+000, 7.4708460069013993e-001,
          7.6652496351301747e-001, 1.1327257641362185e+000,
          7.2847192851591758e-001, 6.6999273761727318e-001,
          1.0488961887313661e+000, 1.2120365753312108e+000,
          1.3996653979497486e-001, -7.6588667362113561e-001,
          6.3300450104603201e-001, 3.0227513789022936e-001,
          1.2267101272932788e+000, -6.9700818100367079e-001,
          -5.7809043541375593e-001, -2.1962499861743837e-001,
          1.2578797547987046e+000, 3.1332223582852142e-001,
          -1.2061146727689840e+000, -3.5292237615763833e-001,
          -4.3384776246691276e-001, 5.1028428660318581e-001,
          7.6763303844102904e-001, -5.9077550467488160e-001,
          3.3095344440690688e-001, 6.1728831840974241e-001,
          -1.8258941384209409e-001, 8.2007442877447068e-001,
          1.0647413656311184e+000, -1.5069792104960933e-001,
          -5.2878481948302614e-001, 1.5087012896051355e+000,
          -6.8022279084608461e-001, 8.2728079705568669e-001,
          1.3637989174906244e+000, 6.1559022771299865e-001,
          -4.8730737066765473e-001, -1.2126017508681398e-001,
          2.7600862722420283e-001, 1.3125708481788698e+000,
          -3.3176091840708778e-002, -1.1282462334564660e+000,
          4.8857404259275761e-001, 2.3047772914774453e-001,
          -5.5957020621131071e-001, -1.9910987464789345e-001,
          1.3190040034965682e+000, -1.1530733271222571e-001,
          -4.4118938608183184e-001, 1.8155683391974733e-001,
          1.0057605625673985e-001, -4.8555411731164416e-001,
          6.8666439031568660e-001, -1.4174418682717933e+000,
          -6.1792726838936940e-001, -8.1155882324820927e-001,
          5.7401234281559155e-001, 1.8892371584138704e-001,
          1.1887960430250570e+000, -8.7187767659187820e-001,
          -6.6453595411517130e-001, -4.4068429941554667e-002,
          8.3564982192704007e-001, -1.9464736152670739e-001,
          -2.8893941574625348e-001, -1.0297076929181439e+000,
          1.6672895464023366e-001, -8.0883544125683171e-001,
          -4.8368540722392950e-001, 3.4804050911294737e-001,
          -8.5893152020635699e-001, 7.7782483123412860e-001,
          4.5743911363195111e-001, -5.8342006336616870e-001,
          4.3853982131434072e-001, -8.8269802400598341e-001,
          9.7038284891523297e-001, -2.3438724625007937e-001,
          2.3223375091225706e-001, 9.9012141220666283e-001,
          1.0985254707810856e+000, 2.1159148789150309e-001,
          -3.9181941904153644e-001, 7.4331008434957901e-001,
          2.6337176284654840e-001, -9.5956424036393567e-002,
          2.5920720907705946e-001, 1.5803830440653738e-001,
          -4.9082916844913954e-001, 7.8561649906409481e-001,
          -5.7801792691940868e-001, 2.2120866183435639e-001,
          -4.2263005594510361e-001, -7.1254394662552201e-001,
          -5.0398289560324794e-001, -8.1857889770850178e-001,
          -5.2846775508632315e-001, 4.6029725262985738e-001,
          -6.7099224764529097e-001, 8.4411870369742209e-002,
          -7.7374832250334880e-001, 7.1433526417993931e-001,
          -7.6558901559582193e-001, -7.5597252793847036e-001,
          -8.8076214688898724e-001, -1.2062932480424722e+000,
          -9.4558863764340739e-001, -6.3990118691506170e-001,
          -1.1148010336476533e+000, -8.2817346830404970e-001,
          -4.4333048810867515e-001, -1.1214438058690299e+000,
          1.2624892422518005e-001, 3.2925763909051536e-001,
          -1.0177553777041097e+000, 3.2969156847423137e-001,
          7.4957946639765505e-001, -3.4312649763493054e-002,
          -4.5981154617406383e-001, -1.4211302149007397e+000,
          -1.3242807912321222e+000, -4.8288020293109746e-001,
          2.2854843058565089e-001, 7.8479231922671888e-001,
          8.6804791548550875e-001, -6.7277001419158655e-001,
          -1.0058907143676439e+000, -3.2805921660292442e-001,
          1.7479083752716759e-001, -1.0264001047986018e+000,
          -5.0340422376381011e-001, -1.1880038478748869e+000,
          -1.0929968328727793e+000, -2.9204052796932178e-001,
          -2.8705207819882084e-001, -4.3729089625323314e-001,
          -5.2104452388523226e-001, -1.1054139705946151e+000,
          -1.1615876324588312e+000, -3.8714071743015394e-001,
          -8.3656777361436185e-001, -1.2943375365713718e+000,
          -1.4378563135902640e+000, -1.1026388191657241e+000,
          -9.1639730198313774e-001, -1.9253826569131433e-001,
          -3.0839442128816175e-002, -4.5680935168006409e-001,
          -1.2844540533984694e+000, -4.9890586760693001e-001,
          -1.6367418257537807e+000, -1.8959015657473661e+000,
          -1.1311851104372839e+000, -8.6449490140220264e-001,
          -3.3113047188437639e-001, -1.1640530464473027e+000,
          -4.1489094999589798e-001, -1.7258463583782762e+000,
          -8.7979625939681572e-001, -1.8958590462661478e+000,
          -1.2101726896384106e+000, -3.9907065037968664e-001,
          -1.6440651493753322e+000, -5.9851037414067032e-001,
          -8.2923583531690559e-001, -1.4001023893562405e+000,
          -1.0084941254055420e+000, -1.5367214883725209e+000,
          -1.4238966933500004e+000, -1.8266875415151216e+000,
          -1.3640573905096662e+000, -7.0089101744038729e-001,
          -1.5092863270428878e+000, -1.0403288781780130e-001,
          -1.4033249379163677e+000, -1.7443243157681156e+000,
          -1.7192935043132529e+000, -1.1338299865326464e+000 ]
