%YAML:1.0
my_nn: !!opencv-ml-ann-mlp
   layer_sizes: !!opencv-matrix
      rows: 1
      cols: 3
      dt: i
      data: [ 8, 41, 41 ]
   activation_function: SIGMOID_SYM
   f_param1: 1.
   f_param2: 1.
   min_val: -9.4999999999999996e-001
   max_val: 9.4999999999999996e-001
   min_val1: -9.7999999999999998e-001
   max_val1: 9.7999999999999998e-001
   training_params:
      train_method: BACKPROP
      dw_scale: 1.0000000149011612e-001
      moment_scale: 1.0000000149011612e-001
      term_criteria: { epsilon:9.9999997473787516e-006, iterations:1000 }
   input_scale: [ 1.1449679671843457e+001, -5.3948742406847883e+000,
       1.8885756373848359e+001, -8.6963956847848038e+000,
       1.5644164877066481e+002, -5.1199661232300908e+000,
       1.1930910788785366e+002, -4.2842661927015735e+000,
       6.1200725963833600e+000, -1.9047116194047349e+000,
       4.6963873114344477e+000, -2.4945275945530487e+000,
       9.9255858058999742e+000, -1.9937051046518688e+000,
       7.3409680839177911e+000, -2.8324531745985744e+000 ]
   output_scale: [ 1.0526315789473684e+000, 0., 1.0526315789473684e+000,
       0., 1.0526315789473684e+000, 0., 1.0526315789473684e+000, 0.,
       1.0526315789473684e+000, 0., 1.0526315789473684e+000, 0.,
       1.0526315789473684e+000, 0., 1.0526315789473684e+000, 0.,
       1.0526315789473684e+000, 0., 1.0526315789473684e+000, 0.,
       1.0526315789473684e+000, 0., 1.0526315789473684e+000, 0.,
       1.0526315789473684e+000, 0., 1.0526315789473684e+000, 0.,
       1.0526315789473684e+000, 0., 1.0526315789473684e+000, 0.,
       1.0526315789473684e+000, 0., 1.0526315789473684e+000, 0.,
       1.0526315789473684e+000, 0., 1.0526315789473684e+000, 0.,
       1.0526315789473684e+000, 0., 1.0526315789473684e+000, 0.,
       1.0526315789473684e+000, 0., 1.0526315789473684e+000, 0.,
       1.0526315789473684e+000, 0., 1.0526315789473684e+000, 0.,
       1.0526315789473684e+000, 0., 1.0526315789473684e+000, 0.,
       1.0526315789473684e+000, 0., 1.0526315789473684e+000, 0.,
       1.0526315789473684e+000, 0., 1.0526315789473684e+000, 0.,
       1.0526315789473684e+000, 0., 1.0526315789473684e+000, 0.,
       1.0526315789473684e+000, 0., 1.0526315789473684e+000, 0.,
       1.0526315789473684e+000, 0., 1.0526315789473684e+000, 0.,
       1.0526315789473684e+000, 0., 1.0526315789473684e+000, 0.,
       1.0526315789473684e+000, 0. ]
   inv_output_scale: [ 9.4999999999999996e-001, 0.,
       9.4999999999999996e-001, 0., 9.4999999999999996e-001, 0.,
       9.4999999999999996e-001, 0., 9.4999999999999996e-001, 0.,
       9.4999999999999996e-001, 0., 9.4999999999999996e-001, 0.,
       9.4999999999999996e-001, 0., 9.4999999999999996e-001, 0.,
       9.4999999999999996e-001, 0., 9.4999999999999996e-001, 0.,
       9.4999999999999996e-001, 0., 9.4999999999999996e-001, 0.,
       9.4999999999999996e-001, 0., 9.4999999999999996e-001, 0.,
       9.4999999999999996e-001, 0., 9.4999999999999996e-001, 0.,
       9.4999999999999996e-001, 0., 9.4999999999999996e-001, 0.,
       9.4999999999999996e-001, 0., 9.4999999999999996e-001, 0.,
       9.4999999999999996e-001, 0., 9.4999999999999996e-001, 0.,
       9.4999999999999996e-001, 0., 9.4999999999999996e-001, 0.,
       9.4999999999999996e-001, 0., 9.4999999999999996e-001, 0.,
       9.4999999999999996e-001, 0., 9.4999999999999996e-001, 0.,
       9.4999999999999996e-001, 0., 9.4999999999999996e-001, 0.,
       9.4999999999999996e-001, 0., 9.4999999999999996e-001, 0.,
       9.4999999999999996e-001, 0., 9.4999999999999996e-001, 0.,
       9.4999999999999996e-001, 0., 9.4999999999999996e-001, 0.,
       9.4999999999999996e-001, 0., 9.4999999999999996e-001, 0.,
       9.4999999999999996e-001, 0., 9.4999999999999996e-001, 0. ]
   weights:
      - [ -7.3694680934539225e-001, -1.6153258377669419e-001,
          -1.5106682623506882e+000, 1.3905619299153557e-001,
          -1.4125610515649916e+000, -8.5617319182246110e-001,
          6.0352957161144827e-001, 1.4257132458353940e+000,
          -1.0220476616274659e+000, -1.7629791352710034e+000,
          4.8387779815754944e-001, 9.0348505495793138e-002,
          1.8060814040380397e+000, 4.1792911419251677e-001,
          -8.6998224030825133e-002, -7.8925837403777599e-001,
          -1.9960188789057265e-001, 1.2959595660989751e-001,
          -6.0045420160790508e-001, 1.0691505025063228e+000,
          1.6631271471956393e+000, 6.4258823465766179e-001,
          -5.9635995395841537e-002, -3.1368545401845381e-002,
          -3.9877458980043329e-001, -1.8393878200692940e-001,
          -6.7307666454363779e-001, -1.4293700913806011e+000,
          2.1600669458594102e-001, 1.1619259556764788e-001,
          -1.4134924755295394e-001, -1.0995588804364919e-002,
          -1.9978561720269442e-001, 2.3301166302141572e+000,
          2.0171120494461650e+000, -1.0551363923187929e+000,
          -2.0858261610929194e+000, -1.5026977713360992e+000,
          -1.5629939176747251e-001, -1.6245574005398604e+000,
          -7.6439199639248123e-001, 2.2620390281479414e+000,
          -1.8254804641872893e-001, 3.4512903705099512e-001,
          1.3795506309266936e+000, -1.6371697622112857e+000,
          -3.5156529183405553e-002, 1.4092595497895091e+000,
          1.9644780642571955e-001, -4.4596445592369860e-001,
          -2.5807437320831483e-001, 4.6072811555664318e-002,
          7.9246012907497065e-001, -3.0089617838036165e-001,
          5.9144724400634963e-001, -4.8858656844721560e-001,
          -1.3098041568644494e+000, 1.0332747542820180e-001,
          2.7686444081946631e-002, -2.8578725217350507e+000,
          -7.2005405363591291e-001, -6.9922720220111623e-001,
          1.2446097999301893e-002, -3.3649393623980017e-001,
          3.3816781687361142e-001, -2.2292732669171844e+000,
          6.6147858143896579e-002, -1.1125401366975277e-001,
          3.4548442996959805e-001, 3.7282673884864964e-001,
          9.4579293324020697e-001, 3.8536804961269927e-001,
          3.9291828594102185e-002, -9.2492756238257889e-001,
          -8.5230215970020018e-001, 4.1830291848288276e-001,
          -5.4427921409771640e-001, -1.3557953323134231e+000,
          1.1935221196822381e+000, 3.1886071657488482e-002,
          5.2786168536956446e-001, -2.1429028409560931e+000,
          -2.7746397565790408e+000, -2.8189699582138954e-002,
          -3.8177178055915084e-001, 3.3199253083536456e-001,
          -6.2352362955817697e-001, 1.8031017798249314e+000,
          -1.3729347950584154e+000, -5.4466197211243683e-001,
          -7.9958479883918820e-001, 7.5336670641006476e-001,
          2.4825166958729103e-001, 7.5482166100252412e-001,
          -1.8560347106038133e-001, -1.1040828864672632e+000,
          -2.4904387960976426e+000, -3.2522297158987629e-001,
          -7.2283267304462784e-001, 7.5887637400152225e-002,
          -8.9416338702755105e-001, 5.7898548254599524e-001,
          -1.9601009840256798e+000, -4.1143747604507667e-002,
          3.3098777617205227e-002, -1.4162033630776460e+000,
          1.7356477020501966e+000, 1.0160846480597359e-001,
          3.5420947534870151e-001, -7.7881160356121881e-001,
          -1.2541056348182171e+000, -1.4021474432466838e+000,
          -1.1523898706860372e+000, -1.9675267963913241e-002,
          -3.0384059935575525e-001, 2.1374733275909752e+000,
          1.6830388497200199e+000, -2.7455679068972696e+000,
          7.5674887762809351e-001, 6.9038406732367241e-001,
          1.0355907924073763e-002, -1.3285403670784528e+000,
          -3.7248275679029763e-001, 1.6097617206804047e+000,
          1.2083026984049407e-001, -6.4374705881818609e-002,
          1.0335650551276510e+000, 1.2359225429327136e+000,
          1.2917697804070649e+000, 7.0709809350561181e-001,
          4.8220870327874826e-001, 3.4150758508775042e-001,
          3.4877170089291604e-001, -2.7444630031800576e-001,
          6.0945875883277234e-001, 1.4869346370875005e+000,
          1.4549405338545076e+000, -4.2837074484188409e-001,
          5.8710059446925367e-001, 1.0702299798160249e+000,
          -2.1682886185658018e-001, -7.9043805157742530e-001,
          -2.5315599393592925e-001, 9.0891613254675563e-001,
          -2.5258161751851899e-001, -2.5389149456011739e-001,
          3.4633251849962171e-001, 1.7400842876021319e+000,
          -3.8678978732402697e-001, 1.6277015944094986e+000,
          -7.5614207491648788e-001, 2.2852753181812537e+000,
          6.6236976217901000e-001, 1.2409081156219706e+000,
          4.2914477081962714e-002, 7.4903255035773153e-001,
          1.5248464693889958e+000, 1.6899901342222152e+000,
          1.2701003837344421e-001, 1.2797861811068449e+000,
          1.6700119083243821e+000, -4.7170025740757134e-002,
          3.3514706023470031e-001, 4.2918298529222138e-001,
          2.5672261970065824e+000, -6.2803503610741840e-001,
          3.5959047496787794e-001, -5.4832839637149777e-001,
          4.7510025980095577e-001, -4.0788597732965143e-001,
          9.9348034933496154e-001, -1.2275352254714509e+000,
          -1.0123605616086362e+000, 2.2471484603106531e-001,
          3.4752355219252912e-001, 3.8576645753242389e-001,
          -2.8590413462194952e-001, -1.5946917672913655e-001,
          -1.9330497457882925e+000, -1.4417625043799642e-001,
          2.0665573845734522e-001, 9.2034550986896391e-001,
          1.8715103680761449e+000, -1.1932541572431021e+000,
          -1.9777415396895417e+000, 3.2890675683467249e-002,
          -5.8663489618631659e-001, 9.1533772247882161e-001,
          2.2121850136720486e-001, 1.0865351835128059e+000,
          1.7251302587292569e-001, -7.6904283926163819e-001,
          -5.4120541835032142e-002, -1.2679253692068209e+000,
          1.3564039903614189e-001, 3.8208139381389733e-001,
          -6.5699763387398163e-002, -7.8298390352474434e-002,
          -4.6881734948757142e-001, 2.2072201203622730e+000,
          -1.7411169187501803e+000, 2.0562294717466592e-001,
          6.3776368811605300e-001, 4.0913272895521369e-001,
          2.8674425192093161e-001, 2.0371195229399044e-001,
          -3.4169664786635945e-001, 1.8662038843157336e+000,
          -3.9807323146627033e-001, -7.5820395953833408e-001,
          9.0624881049580153e-001, -1.7870483475374803e+000,
          -7.2907982787727543e-001, -7.3927004755857573e-001,
          6.9252237321960963e-001, 2.7462644958547994e-001,
          -9.2824562336538263e-001, 1.1159387879718065e-001,
          1.1439823401408711e+000, 1.5391869657187482e+000,
          -6.5270426849405350e-001, 4.9971867252070423e-001,
          6.8099725053679894e-001, 4.2465005352751793e-002,
          1.8848405161678763e+000, 4.7281397542291242e-001,
          -2.3320934848653038e-001, 1.4700389455481438e-001,
          -1.4545841294489488e+000, -2.2087956964279454e-001,
          3.6961210822654872e-001, -1.1727039239625643e+000,
          -2.4001568343315297e-001, 2.8226207352114424e-001,
          1.4115497537225261e+000, -2.9548247578351172e-001,
          1.7192391438887400e-001, -1.8041979979553230e-001,
          1.2047177703749854e+000, 4.1271735248701980e-002,
          8.7334396384966997e-002, -3.3021342853292063e-001,
          8.8517594288972801e-001, 5.3544799082268124e-001,
          5.1220644392123549e-001, -3.6457174793783825e-001,
          2.0479502179723759e+000, -4.6349281133593136e-002,
          1.2461884867248374e+000, -7.6010557608851603e-001,
          -8.1067952430600054e-001, 5.4116625937866114e-001,
          -9.5290257032909120e-001, 2.9679993903647067e-001,
          2.3215629276993028e+000, -1.6400273056217565e-001,
          -3.9787818375292772e-002, 8.1735983331299533e-001,
          2.6641536202299130e+000, -2.4521494395592716e+000,
          -3.2902513389782384e-001, 1.0510665858333899e+000,
          -9.2235175860645044e-002, -1.0905108799444614e-001,
          -1.0912786792851454e+000, -2.5061506128267880e-001,
          -4.3413147253030505e-002, -1.3115492431117365e-001,
          1.9673459492161230e-001, 3.7790381623882047e-001,
          3.4138792240662019e-001, -1.8891224691499597e-001,
          -1.6594502190142548e+000, -3.1958621689275624e-001,
          3.3200326983584105e-001, 8.6954401580690333e-001,
          -5.2956274267623915e-001, -1.8028148925545817e-001,
          1.1256309969680144e-002, -2.4136778153295912e-001,
          1.1588666361987450e+000, -1.8657999914918752e-001,
          1.5096727085419408e+000, -4.7041453592751709e-001,
          1.2274636299458871e-001, -7.8918529248349001e-001,
          -2.8767738061656085e+000, 2.2698534276675808e+000,
          -4.9072959472505284e-002, -1.7878253093570249e+000,
          -9.5914910870044512e-001, -1.4215425559260371e+000,
          2.0682556955381357e+000, 5.0829770454335538e-002,
          -3.3468598269538263e-001, 4.8060013687611935e-001,
          -2.3090084253660445e-001, -2.0798041247957397e-001,
          5.8123613654124273e-001, -2.0277839052411837e+000,
          -2.2221783567146365e+000, 5.9823558851465863e-001,
          -7.7872809297469403e-001, -2.5021610723028520e-001,
          1.2333445176263566e-002, 7.0325854411609212e-001,
          -2.1084462791694968e-002, 6.0104785709937408e-002,
          -8.2860164693943403e-002, -1.3956047307755076e-001,
          -1.9034233094111010e+000, 3.6560542694756400e-002,
          7.1532601862177936e-001, 1.5788268106856265e+000,
          -7.7487212661118465e-002, 1.1698686213102754e+000,
          -7.4277781323135694e-001, 1.2559371793577820e-001,
          6.0134293280876355e-002, 1.2033762019057090e+000,
          -1.2789882577118967e+000, 1.3048094042080222e-001,
          1.7589243500871349e-001, -1.0188207645210845e+000,
          -3.4967923650667287e-001, 2.5661996960467115e-001,
          1.9787251978788017e-001, -2.9886365353728400e-001,
          1.6168137657768853e+000, 2.2200771970589015e+000,
          -6.2518036427571111e-001, 2.2698179365018096e+000,
          -1.1649172155155811e+000, 9.8920436091537645e-001,
          -8.5129192310916635e-001, 1.4932288820835538e+000,
          -1.6915183957786415e+000, 1.8559366457586473e+000,
          -2.6602126661437033e+000, -1.6488245297052102e+000,
          8.5228280438198120e-002, 2.8302659869565111e-001,
          -6.8853479787947569e-001, 2.1860809347073991e+000,
          2.3760181047161124e+000, -1.9507687968568610e+000,
          4.8605272246161707e-001, -6.5901958646959924e-001,
          1.1125954948987913e+000, -2.9959255670555374e+000,
          3.0273022368813374e+000, 6.5079264884834220e-001,
          -3.7497903288573875e-001, -2.4846138096517603e+000,
          6.6240586878250762e-001, 2.6379029138745297e-001,
          1.6105073957705940e+000, -1.1997155932594576e+000,
          2.1311524956084287e+000, -2.6028380387876191e+000,
          -1.6900479452200490e+000, 8.5818414718700309e-001,
          1.1187033505411362e-001, -1.0892435885240710e+000,
          -5.4921501960628472e-001, -1.4570275043220455e+000,
          -2.8705228242247558e+000, -8.5317468667756813e-001,
          -6.0671737881937349e-001 ]
      - [ 3.8457340943331425e-001, -5.9518647952200243e-001,
          -4.2145639753732117e-001, 2.7902837619136128e-001,
          -2.0083224228533356e-001, 3.9237220839010989e-001,
          -1.1688038629885633e+000, 3.0269920972759262e-001,
          1.4862498212821157e-001, -9.4362700879528005e-001,
          6.2153970561200733e-001, 1.6315994741262119e-001,
          -9.4018403601935130e-001, 8.3134663994824221e-001,
          6.6754257232314207e-001, 1.0672786594217300e-001,
          1.4332738079059322e+000, 1.3458033414449366e-001,
          -4.1199390323355789e-001, 6.7628825887829480e-001,
          2.1559575454585604e+000, -1.5171620413957634e+000,
          -8.8851689304342540e-001, -1.8516375746260802e-001,
          2.6825730495835054e-001, -9.2106298713765467e-001,
          -2.0800301979336083e-001, -6.7849381468114434e-001,
          4.5203478232090388e-001, 6.2560095444202546e-001,
          -1.0384347493928696e+000, -6.3414106495751399e-001,
          7.6216224754375794e-001, 2.2324723105285782e-001,
          1.4035742629867014e+000, -3.9567716597877828e-001,
          -8.1106400214296637e-001, -5.5972818730242835e-001,
          -7.8808139223381909e-002, 3.7849576992232298e-001,
          -6.1883059588819988e-003, 6.4643525761743115e-001,
          5.1573344839455992e-001, -3.9005072024264109e-001,
          -1.0174336127216428e+000, -1.2646264121211495e+000,
          -1.3625254498475572e-001, 5.4814863946165393e-001,
          -9.8674844181110499e-002, -3.1120525945287963e-001,
          -8.3695160209323771e-001, -1.0711291136706182e+000,
          -6.8505096646221919e-001, 1.4095432280630471e-001,
          1.4386819201935669e-001, -6.1249995499364840e-001,
          -4.8885510129898452e-001, -7.9769518132222317e-001,
          -1.1111109260243581e+000, -3.5658669369165547e-001,
          -1.2249183850368726e+000, -8.0652105438658728e-001,
          1.6046781757783413e-001, -4.4688824468604904e-001,
          -2.6305481888812383e-002, 1.3401516638884784e-002,
          -6.2128409321396472e-001, 1.1775597574108947e-001,
          -2.9831454819032166e-001, -4.4780014412087149e-001,
          -7.0163680609890466e-001, -1.0995696912785864e+000,
          1.4810825274665235e-001, -1.0021382244220314e+000,
          3.0590780253393857e-001, -8.2686419282327295e-001,
          -6.7883697019663447e-001, -9.4462503719280200e-001,
          1.0632033052660841e-001, -9.5715784369581156e-002,
          -5.1317110755361506e-001, -6.8604661436973147e-001,
          2.7801145110195102e-001, 6.7173378497107161e-001,
          -3.8098028295091479e-001, -2.5465487950467985e-001,
          3.6732411881968136e-001, 1.7835928452629155e+000,
          -1.0970005913496693e-001, 1.0047603586219402e+000,
          -5.6272840942533098e-001, 9.3561809490896108e-001,
          8.4342183164866469e-001, -6.0170751453933624e-001,
          9.7358302078436576e-001, -2.4682871847840557e-001,
          5.6747066124919143e-001, 6.2202300049976189e-001,
          7.7936113164795151e-001, -3.3407906435354878e-001,
          -6.8007247118097081e-001, -1.0484507275791810e+000,
          -1.1288884306966109e+000, -6.9730040777987456e-001,
          4.6050242440167372e-001, -9.1811583788520090e-001,
          3.9846179158376177e-001, 1.0485003765813288e+000,
          3.0692701976763681e-001, -6.6417318900961508e-001,
          -1.0967136252502669e+000, 4.9902735005579540e-001,
          9.0366732010826767e-001, -7.2181002349008805e-001,
          4.4428481400980624e-001, 1.0780877922369427e+000,
          9.0408631094502778e-001, 7.6101863834784422e-001,
          9.8527349491073091e-001, -5.8739065139470692e-001,
          3.0720831190075931e-001, -9.8162874876220030e-001,
          3.8778169396650258e-001, -1.0291252768125358e-001,
          -7.1165978005917752e-001, 9.3709765329691996e-001,
          -9.0717617484060475e-001, 2.5117490037860196e-001,
          1.4083655866656167e-001, -1.2242851232020207e+000,
          -1.2117422847873371e+000, -1.3604310601134737e+000,
          -1.0724504492786495e+000, -9.4261610507822879e-001,
          -7.7920727375740961e-001, 2.5087097009219361e-002,
          7.6579793608514168e-001, 6.7580697260466704e-001,
          -5.1083520166996499e-001, -7.8451238341266816e-001,
          -3.4335740257212555e-001, -9.6023870619121388e-001,
          -1.0988384603914461e+000, -2.2979522984418169e-001,
          3.8763593626381887e-001, -9.2867608843304394e-001,
          4.9211574988701962e-001, -4.3316388844841192e-001,
          -9.1663304701146164e-001, -2.1394703070447125e+000,
          3.0989677634621832e-001, -3.7777192740272884e-003,
          -6.3232687445271263e-001, -1.4379321031650729e+000,
          1.5739598777842018e-001, 9.2212865992744386e-001,
          -1.1324148894162258e+000, 7.4141540752990520e-001,
          1.4843463583746436e-001, -6.0779349528698035e-001,
          -3.8381633177619151e-001, -1.5890545258338438e+000,
          -8.3590342862133715e-001, -1.0317746387687109e-001,
          1.2825758619594845e+000, -5.2345790585492746e-001,
          7.1731417249773977e-001, -1.1355296180225471e+000,
          1.1953754056029422e+000, -9.9420563753471980e-001,
          2.5627833358892194e-001, 4.3456847693378381e-001,
          -6.9912518749094299e-001, 3.4327910936872863e-001,
          8.7895952302251612e-001, 3.0927926800970756e-001,
          6.4249558552000208e-001, 1.5975436950583591e-001,
          4.4666285908183401e-001, -8.6894283166458441e-001,
          -1.1662306800415619e-001, -6.6615297031379062e-001,
          1.4308422013907831e+000, 1.7587805689391947e-001,
          -1.1610309529568863e+000, -2.6782294433525278e-001,
          -9.8200949575760210e-001, -4.4160426725180846e-001,
          -9.2370245215957303e-001, -2.3608680595262949e-001,
          -5.7597912012013497e-001, -5.4325961302836256e-001,
          -1.1582104419714170e+000, -5.9202383039776318e-001,
          -9.5418377975574209e-001, 2.0209180967460780e-001,
          -1.2295186670110307e-001, 6.9501862844784190e-001,
          9.6435668424315624e-001, -7.4485141426945112e-001,
          8.0924685461729373e-002, -1.3745408308641449e-001,
          5.7258526975582640e-002, 9.0415458067572751e-001,
          1.3005854000739225e+000, -1.9737965418170172e-001,
          1.1816532612846460e+000, -1.2967133192717373e+000,
          -1.4888699036181796e+000, -1.0881470845187382e+000,
          -5.9533761425119042e-002, -8.0733979595620875e-001,
          -3.2208289542550100e-001, 9.9868360666453582e-001,
          9.3633052847087461e-001, 6.5846545313426197e-001,
          3.4244253872338748e-001, -1.0335542660245278e+000,
          2.4812367680893366e-001, 9.9285109468661842e-002,
          1.0983145086620574e+000, 5.5966847906291284e-001,
          -2.8846700309493056e-001, -1.1443620595452626e+000,
          5.8105483774151123e-001, -9.5102052843969742e-001,
          2.7787936158620441e-001, -1.9484629731703620e-001,
          -2.9681314803298842e-001, 3.9646766109799852e-001,
          3.8357141663881777e-001, -1.0774509359353504e+000,
          5.3093769264067329e-002, 5.2945818364875075e-001,
          1.3850288902326569e+000, 7.7227036180637129e-002,
          -4.3861885729418454e-001, -1.2397833405537995e+000,
          -7.9860354160820102e-001, 8.9408907024048556e-001,
          2.1017477654663719e-001, -9.9942326792683012e-001,
          -6.9416321298481953e-001, 1.2088690993139319e+000,
          2.2801175200837881e-001, -4.3027893557337421e-001,
          1.1297567849094938e+000, -5.5010246291654574e-001,
          3.8837027684881564e-001, 2.8821445307242005e-001,
          7.8551487421994493e-001, -1.6451189683592071e+000,
          2.5148929767669403e-001, -8.3851590289357103e-001,
          -1.2453940487420920e+000, 7.5503157432397372e-001,
          6.1040385415432441e-001, -6.9281883586745718e-001,
          2.7281066018009958e-001, 5.3236848836347905e-001,
          -9.1773664386432263e-001, 1.3644249565091866e+000,
          -3.6356170816672051e-001, 3.2548185852861115e-002,
          1.1708562881261547e-001, 1.0122733826748280e+000,
          -2.9869216676357163e-001, -5.2928914499240065e-001,
          -4.6801225474874558e-001, 7.7685337819964639e-001,
          -6.2684447906360227e-002, -2.8380539203467542e-001,
          -4.0703392507922542e-001, 3.1491088816146440e-001,
          -8.9109149670000731e-001, -3.7220379962836697e-001,
          1.0645209436569351e-001, 4.8745647608560222e-001,
          1.9263299211067059e-001, -5.4425372576465503e-001,
          -3.7118309825853191e-001, 7.4975592726207063e-001,
          -7.9416183946222807e-001, 1.3538220917429364e-001,
          5.8433855906601584e-001, 1.1777344773432259e+000,
          4.5980228072692003e-001, 1.0463036049037491e+000,
          -9.7124772161191808e-001, -2.8248366204803532e-001,
          -2.6760691269115727e-001, 5.0437743161225279e-001,
          -1.4802715619794813e+000, -1.1984912172014116e-001,
          2.7755704213455812e-001, 2.4818050383106866e-001,
          -3.9744878795338723e-001, -1.1035381139824552e+000,
          -4.7104076829579494e-001, -2.0392374523547768e-001,
          4.5339347551592912e-001, -4.5035772652808664e-001,
          -1.3210695848013143e+000, -5.5924541094447433e-001,
          -8.1803840145840981e-002, -2.5102156125086494e-001,
          -6.8401314750033226e-001, 9.3444252435818775e-001,
          -4.7294508349565290e-001, -4.7464777066302860e-001,
          4.5266540704059610e-001, -9.7206029945133321e-001,
          -4.4364423020377491e-001, -4.4169844088982008e-001,
          -4.9436580785170220e-001, -8.2944237989468594e-001,
          -1.4964620332543266e+000, -6.2853059666640132e-001,
          -3.6589282531269651e-001, 8.7532668700192662e-001,
          -1.1629734271635086e+000, -2.6291098936085294e-001,
          -3.2521471027719273e-001, -6.2241689956812130e-001,
          -2.2508128889853254e-001, 7.3310040536193699e-001,
          7.5033496972406732e-001, -8.6541419166399414e-001,
          4.7315516169961230e-001, 4.8938599349175266e-001,
          3.0157665717695692e-001, -1.5135544161186278e+000,
          -1.1559375962744546e-001, -1.3185013953545084e+000,
          6.6646619573697241e-001, 1.6911015617632539e+000,
          7.9913123283877374e-001, 6.0307792410023231e-001,
          1.0448386493661468e-002, -9.4750785920840175e-001,
          5.2413050308760512e-001, 8.9054218741211777e-001,
          -6.3490967684692257e-001, -6.4317946563156669e-001,
          9.3428116080705126e-001, -6.6032860544495287e-001,
          3.8800085889224856e-001, -4.6673990556340650e-001,
          -6.2899987591234929e-001, 9.8641183748367844e-001,
          -9.6707783905781830e-001, -4.8423934110909428e-001,
          1.5767279298986487e+000, -4.4169033571967858e-001,
          -2.1300947008460594e-001, 7.1653782061166360e-001,
          -1.8404044198761707e-001, 1.8870839022498226e-001,
          7.2657476765664797e-001, -9.5737264281023526e-001,
          1.3332355423577986e+000, 2.5307134720685243e-001,
          -5.3909688305990133e-001, 7.9491042450503691e-001,
          8.4848257213372813e-001, 5.5544001456720493e-001,
          4.9306161051748176e-001, 5.9701913632773329e-001,
          7.4190639552104620e-001, 5.3303620339345859e-001,
          -1.3672309411215182e+000, -7.5022324080730651e-001,
          6.9061118643678171e-002, 7.2502807250571044e-001,
          -1.1761331310285331e-001, -9.1108366647445960e-001,
          -4.6714158712999920e-001, 4.1980924707376008e-002,
          7.4464318506941218e-001, 3.6937820950810946e-001,
          -8.4724911341634134e-003, -9.7474418959134057e-001,
          4.1159528240192111e-001, -2.9857834976094316e-001,
          2.0400920657184776e-001, -7.0061796335113002e-001,
          -9.6947369025550822e-001, 3.6478831034481329e-001,
          -9.3867547311801414e-001, -1.4581613560947773e+000,
          2.9206961101696216e-001, -5.5567422633780816e-001,
          -1.2589537285737853e+000, 2.9013283865877942e-001,
          4.2980783598949435e-001, -2.7423607799779804e-002,
          3.4947447275888738e-001, -5.1164888640441852e-001,
          1.2080626668328433e-002, -1.1327434752761241e+000,
          -3.0376482710474346e-002, -9.5194264869880452e-001,
          -6.3657488909883897e-001, 1.4512759483929258e-001,
          6.4205137682017754e-001, -1.0038678267132664e+000,
          -1.4719484333928341e+000, 4.6991453931960560e-002,
          -1.2378355599591462e+000, -4.6173843931865183e-001,
          6.9448502460132433e-001, -5.2667488878042824e-002,
          9.0240100284401159e-001, 7.1934331642507968e-002,
          1.1116204342609968e+000, 3.3995052436142970e-001,
          1.2944497253743378e-001, 8.5911982398400671e-002,
          5.3014022222694024e-001, -1.8046182831044288e-001,
          1.0824002646657425e+000, 1.0924708442356206e+000,
          -3.4725374074235466e-001, 4.4167510412450001e-001,
          9.0111989472046994e-001, 1.1759635722815636e+000,
          5.0716994981499353e-001, 1.2356157459696564e+000,
          1.6769732280307972e-001, -2.6201127922844442e-001,
          9.9209683267681270e-001, 1.0645483667562072e-001,
          1.3918048743585234e+000, 8.8862427793641940e-001,
          6.4288561999251648e-001, 1.2041356298448356e+000,
          7.0829154115579573e-001, 1.2001137854798301e+000,
          1.0477857726193491e+000, 8.5044111112648679e-001,
          9.7167870831246317e-001, 6.4518423906306339e-003,
          1.1276741949975086e+000, 3.1848945841460481e-002,
          1.2859374462536441e+000, 6.3492770043689051e-001,
          3.2603234225867050e-001, 1.9675568312058206e-001,
          -7.8566852195377040e-002, -3.9567299234976389e-001,
          -7.2038581465389118e-001, 9.3406034725159570e-001,
          8.5474036468870596e-001, 9.8421152902225828e-001,
          -1.2514835102225352e-001, 3.1044583079902643e-001,
          -7.8337244023624919e-001, -2.1789524195361190e-003,
          7.4532197304645775e-001, 5.8219891746995667e-001,
          -1.5953525916263459e-001, 1.4431528970452709e-001,
          1.3818809336486839e+000, -2.3748049459361550e-001,
          9.5486701759404335e-001, -4.6121058214826649e-001,
          7.1601952342213016e-001, 1.5654332560375723e+000,
          7.7948249943326686e-001, 5.4878061204983364e-001,
          -8.5010129289050207e-001, -1.0735924545540791e+000,
          9.1701745538990909e-001, 9.0579587322774727e-002,
          -9.6361391531272947e-002, 6.0034294616473549e-001,
          1.7884293012977209e-001, -1.2072426435126619e-001,
          -2.4951782845836196e-001, 5.8469611064221695e-002,
          7.6315919082487358e-003, -2.9922981810178573e-001,
          4.7316434914093919e-001, 1.0188883060882519e+000,
          -4.9869838934198563e-001, 5.1719452017851031e-001,
          7.3376239541845756e-001, -3.9993194132543625e-001,
          1.0170251794280476e+000, -1.8967419553529363e-001,
          2.1756270809464714e-001, -5.1658126375449798e-001,
          1.1324122874595790e+000, 9.6415164155063071e-002,
          7.5269729182382372e-001, 4.0050350733330070e-001,
          9.5130656927845447e-001, 5.1792340585278196e-001,
          1.0776188803651152e+000, 8.0273840499980398e-001,
          2.1912639517594804e-001, 1.6380132035298547e+000,
          8.7508806671416450e-001, 7.2322675286963123e-001,
          -6.9091910944256907e-001, -5.2204981136592943e-001,
          1.9638964072030884e+000, -9.3303709773754828e-001,
          1.9183257249149696e-001, -2.7679691832910885e-001,
          -7.7519918349611194e-001, -2.7029402392254259e-001,
          -2.7995566412315986e-002, -1.0303098844464851e+000,
          -1.0884483374372851e-001, 1.1828884051337030e+000,
          -9.1581410185137679e-001, -5.9809560226679803e-001,
          -1.0794742250382219e+000, -9.0419646282882726e-001,
          -1.3504871130581428e+000, -9.3535790254015738e-001,
          -3.1682251783222398e-002, -1.1852469921589797e+000,
          -6.5305961168232518e-001, -5.0913354453794513e-001,
          -7.9112835880958088e-001, 1.6090767628645657e+000,
          5.9686286901141772e-001, 1.1663138155421883e-001,
          -6.0941037157508737e-001, -1.3152323078665853e+000,
          5.4744499979091277e-001, -5.3692119162970386e-001,
          -1.3576744620298782e+000, 4.4432028051658595e-001,
          1.6498466247194943e+000, -4.6617383303546406e-001,
          -9.3169461168661716e-001, 1.2812653166740506e+000,
          -9.9248519044637451e-001, -4.2192077283570023e-001,
          -4.8530571053253846e-001, 6.8508024925303901e-001,
          2.7396292634223640e-001, 5.3899492876499977e-001,
          -8.4777690666904115e-001, -5.6418232233180976e-001,
          2.7657443656820024e-001, -4.3231740522735479e-001,
          -9.2000977934133910e-001, -1.1488516565621270e+000,
          7.7674399926440141e-001, -7.5213731704449849e-001,
          9.0963925168734383e-001, -3.9606001070403490e-001,
          7.5310141292508903e-001, -5.6748403264162472e-001,
          4.3001996557985334e-001, -9.3941528401514252e-003,
          5.5088885569934043e-001, -1.1415227000631509e+000,
          -5.3906371762095340e-001, -1.4962763627154771e+000,
          -3.0404156085736467e-001, -5.1792625636663669e-001,
          1.1969394516090055e-001, 1.0708597765366410e+000,
          -7.0509675328055621e-001, 1.1571633076325024e-002,
          -1.3113397272825131e+000, -6.2294428310786676e-001,
          -8.0104147902784328e-001, 5.7969769919125869e-001,
          1.2084011909007715e+000, 7.1786527869919436e-003,
          3.7262937633903992e-001, 1.8915195791787148e-001,
          7.7096303119960952e-001, -1.1744589053823771e+000,
          7.4983223917179587e-001, 3.2371166438589544e-001,
          5.2969504633699138e-001, -2.6525725983731868e-001,
          1.9331234141143249e-002, -3.1982508011551053e-001,
          -9.7136553873412868e-001, 8.7709939075691801e-001,
          -4.5647596137820051e-001, -1.3231179494780902e+000,
          -2.1003392118838490e-001, -5.5705487135687815e-001,
          -1.0956194522281499e+000, 1.1685013799548798e+000,
          -3.0613661665242770e-001, 5.0179018614504312e-001,
          -1.2773293819261038e+000, 5.1280045710207345e-001,
          7.9382623095380211e-001, 1.6015685706162817e+000,
          1.0027496129459397e+000, -1.1856114974776810e+000,
          -5.7889495990219419e-001, -8.2410582398824261e-002,
          5.5332120836428000e-001, -3.9803694570570497e-001,
          -9.1873637305128386e-001, 1.0354201993569665e+000,
          -8.8622680721850644e-001, 1.7691179492391689e+000,
          6.1407379282857943e-001, 3.6597157413669451e-001,
          1.1249537743801474e+000, -5.0392127032749656e-001,
          -9.7329708629714162e-001, -1.0876158530265325e+000,
          1.5505643363978291e-001, -9.8402087255110537e-001,
          -7.3712087475439636e-001, -5.7433221508334698e-001,
          1.0097717154755359e+000, -1.2550283724486505e-001,
          -4.5130065128681263e-001, -9.2678320632385969e-001,
          6.9973565515908420e-001, -1.1264869550941341e+000,
          6.3181035198985669e-001, -1.2335723750974183e+000,
          -5.0264982953763415e-001, -1.4839022601974530e-002,
          -1.0593237104849083e+000, -7.4293110955818908e-001,
          -1.7590774645483842e+000, -4.5113318095740274e-001,
          -7.5681569616186506e-001, 4.0425413866658808e-002,
          -1.2519825283604238e+000, -2.8813284362514879e-001,
          -2.7286945489060782e-001, 5.7461458156384271e-001,
          -2.1867235252120884e-001, -5.0811469909881313e-001,
          -9.1117729941274939e-001, 6.6954665674733771e-001,
          -3.0037418326352100e-001, 9.3919326341350784e-001,
          4.0801907528839754e-001, -4.4463953092540021e-001,
          -5.8891986207972946e-001, -1.3713363190785253e+000,
          1.6638801624731647e-001, -1.5169624562311761e+000,
          -6.4604800116655803e-001, -5.1511529886417429e-001,
          -8.9445502859464632e-001, -7.4794624525820097e-001,
          -5.3709319513878551e-001, -1.1499200094308983e+000,
          -1.1874966438523225e+000, -2.4782337641693652e-001,
          -2.1185905331136093e-001, 5.9231852353495755e-002,
          3.0780089234553137e-001, -9.1450535606391126e-001,
          -8.8385206823552986e-001, -1.4178205784106570e+000,
          -4.0176080230051134e-002, -4.2181669785417558e-001,
          -5.5018926013278768e-001, 2.1937379270853184e-002,
          -6.3320573370395250e-001, 1.1549752985313575e-002,
          -1.9467633583349378e-001, -5.3176581293432512e-001,
          -1.2534480318900145e+000, -9.3152232276917046e-001,
          -1.5095142389643967e+000, -1.2118953685126872e+000,
          -1.2432914599574570e-002, 9.8997418566010326e-002,
          -1.1611042758199610e+000, -6.6239577287141238e-001,
          -8.4936374663382230e-001, -1.2571888103472022e+000,
          -4.8224530811711963e-001, -2.6786548636276197e-001,
          -1.3739631415895557e+000, -9.8660418389963456e-001,
          -3.7345134008286995e-001, -4.2488056719424801e-002,
          7.3992470479930195e-001, -6.6537273908028249e-001,
          3.2681428893614023e-001, -7.0252711743870422e-001,
          -9.4749245473753407e-001, -1.5814886711169465e-001,
          -5.1992107898701578e-001, 1.7787058497452315e-001,
          2.9576494514037249e-001, 1.8306745694387064e-001,
          2.5038858152089039e-001, -7.7209499145797139e-002,
          8.8398643788604381e-001, 3.3209123926253775e-002,
          1.0263810581215958e-001, 4.5096016855500426e-001,
          -5.1236925252392440e-001, -1.5582922646313982e-001,
          -7.3630246255429066e-001, 1.0260637658607634e+000,
          -6.3976273057874844e-001, 1.2517174382591474e+000,
          6.9250479817908850e-001, 6.5721378078007386e-001,
          -1.9206176746197010e-001, 1.8776899540633241e-001,
          5.8739506435384969e-001, 1.2525168306540613e+000,
          -1.0812793283250695e-001, -5.8368833704909662e-001,
          6.5278798767802382e-001, -1.3596784975399930e-002,
          3.0357821888350067e-001, 1.0714746782547255e+000,
          7.3318621027712416e-001, 5.1554049095337462e-001,
          1.3570980991752839e+000, 9.2484374668552349e-001,
          1.2644219530659817e+000, 8.4384604487657056e-001,
          5.0764007858951610e-001, 8.0515140051436473e-001,
          1.0577228199692177e+000, -4.7873334537039708e-001,
          -6.0280288733487608e-001, 5.6961865020931768e-001,
          -6.5858542962850630e-001, 5.9308806983936824e-001,
          6.3729998855020431e-001, 3.0178119050865065e-001,
          -3.7657243056184730e-001, -4.8697956519422225e-001,
          9.5998446672438242e-001, 1.0773503624641465e+000,
          8.6245843029394598e-001, 4.5353618553616132e-001,
          9.8678600424899107e-002, -1.0759222362108369e+000,
          -1.0338477033915261e+000, -9.7355663628947375e-001,
          2.4436452593092842e-001, 6.6378105352637262e-001,
          -8.2230148823910898e-001, -5.4350293090928048e-001,
          4.9283566793087374e-001, -4.3951639744417070e-001,
          -5.8933811855305787e-002, 5.1820530533983289e-001,
          2.0533153260799235e+000, -1.0419682107536932e+000,
          -5.0013230694822275e-001, -1.0662291685166807e+000,
          -9.1271432340336900e-001, -3.5178324222575669e-001,
          1.7612916751917179e-001, 8.7770587788647625e-001,
          -3.4499977964566098e-001, 1.4383828918892627e+000,
          4.6126863946922048e-001, 6.0210349396000473e-001,
          3.7025667427900660e-001, 5.5875691830619900e-001,
          -5.1875904497973926e-002, -5.1632444417593781e-001,
          -9.2433123465762601e-001, -8.5926687484372355e-001,
          1.5669903696423797e+000, 5.7049109482703392e-002,
          -1.4808672958053221e-001, 8.8170530749192033e-001,
          -6.4495360263984569e-001, -9.2604327026047861e-001,
          -5.8488124641163219e-001, 5.8262838681061380e-001,
          -7.5450254005935594e-002, 1.2171602423007841e+000,
          2.9780093168681171e-001, -9.2382820127083343e-001,
          -1.8359879356922446e-001, -6.4811357074218645e-002,
          -1.4101867234354092e-002, 3.8969344818236974e-002,
          1.1449203638239285e+000, 7.6364996605562208e-001,
          -8.9495932816356649e-001, -6.2272606482719994e-001,
          -8.1224155758183469e-001, -2.4259396535344364e-003,
          -3.5213406047444745e-001, 8.7697797746002060e-002,
          -5.6458700678799482e-002, 9.8128345524295268e-001,
          8.1684201842016846e-001, -7.7737118062432897e-001,
          1.1645919332158039e+000, 5.7179334652074432e-001,
          1.0114585035625303e+000, -3.2298232285064743e-001,
          -6.7129856461959669e-001, 1.0287552460326994e+000,
          1.3182388429694480e+000, -1.7392029884275853e-001,
          1.4721164679711765e-001, 1.1286121603362820e+000,
          1.1290570494342209e+000, 9.3197144898367279e-001,
          -3.0871096654786567e-001, 8.1539764599459985e-001,
          2.9227148514284129e-001, -8.0872398171344351e-001,
          6.1764620887681698e-001, 9.3400415339172105e-001,
          -3.7295806049032204e-001, 6.0745269176537620e-001,
          -1.3278141547967839e+000, -8.6529472159098242e-001,
          9.9556043591287335e-002, -8.5458511429463591e-001,
          -1.5607772227207108e+000, -5.2080524714308496e-001,
          -2.2737596125963822e-001, 1.1116215608944402e+000,
          3.2842990029434704e-001, -7.5585848130360100e-001,
          1.2753809075517717e+000, 1.0245004578527341e-001,
          -1.5552783059232131e+000, -1.3041619433699516e+000,
          -1.0062553792569815e+000, 7.7016532069026100e-001,
          7.8374740301856360e-001, -5.3249154385635400e-001,
          -9.2070849910920105e-001, -7.2753784140417654e-001,
          -8.0901834935446260e-001, 7.8435859799977570e-001,
          2.6255336368168253e-001, -6.1019200134820606e-001,
          -9.3957789865296848e-001, -6.9288413227279910e-001,
          -3.7546034256396660e-001, -1.4651221492323330e+000,
          -6.2868970282953529e-001, -2.0570343390892051e-001,
          -7.4886316198354441e-001, 2.5579569995455587e-001,
          3.8883184392079195e-001, 6.6084246041968109e-001,
          8.7732650239792778e-002, -1.9245491196751049e-002,
          -5.9371337340797636e-001, 8.1426298610260670e-002,
          1.3017692811927244e+000, 1.2305969767844214e+000,
          6.1684535746753821e-001, -2.5464961711777395e-001,
          -1.3633772649766618e-001, 1.1803214455665960e+000,
          5.9197539068573146e-001, -9.2599581306735415e-002,
          7.6697419137786438e-001, 5.1922684466015145e-001,
          1.3411458260706766e+000, 9.2360414301089500e-001,
          1.0337425952344346e+000, 1.1887494581084461e+000,
          5.4431261352058946e-001, 1.2227441021894833e-001,
          1.4168046578964744e-001, 5.3914767369737138e-001,
          7.0345599436717887e-001, 1.5764990059481427e+000,
          -1.6585125500541895e-003, 9.2968557438008859e-001,
          1.4221691578401521e+000, 3.5906773706177925e-001,
          1.1414740701190329e+000, 8.0605854005222100e-001,
          3.6664065661848427e-001, 1.0954234720499267e+000,
          -7.7802218693142106e-002, 6.7539666098439055e-001,
          4.3035221343655800e-001, 1.1638502030595788e+000,
          1.7915741348328312e-001, 8.5030376611747427e-001,
          -1.8327656135744855e-001, 1.4107610319499704e+000,
          2.2305441651441346e-001, 7.0948849988558915e-001,
          3.5410515069338805e-001, 5.7677660447421120e-001,
          -1.2259373055520955e+000, 1.5758810426023068e-001,
          -1.3199096827532579e+000, -5.4740830926116113e-001,
          -1.5293042617039038e-001, -1.1135132036228879e+000,
          -1.1836016089630599e+000, -6.7637716279237436e-001,
          -8.9900987882103456e-001, -6.9685509197510165e-001,
          -8.4425328899875129e-001, 7.7521142130921206e-002,
          -1.3714116651837702e+000, -7.8678168807599902e-001,
          5.0342304147697092e-001, -1.5114517532786231e+000,
          -5.4413922237807465e-002, 9.9850805823985783e-002,
          -1.5593459788174200e+000, -1.2109035614896115e+000,
          -3.7677934837755633e-001, -4.7644625291372650e-001,
          -8.0598761427487353e-001, -6.0267457190359419e-002,
          -3.8971719856357290e-001, -8.5849366549321648e-001,
          -9.8850319747673318e-002, 4.4246027686210887e-001,
          -1.2438266029670915e+000, 5.3314090397853142e-001,
          -1.1654085292854975e-001, -4.1942151348304102e-001,
          -9.5331042767541763e-001, -4.5915380638359327e-001,
          -7.8991420922244304e-001, -8.4954553030858437e-001,
          -4.0096543560984166e-001, -8.7091210006664754e-001,
          -1.4171903629902203e+000, -1.1479566441480327e+000,
          -1.3414642215706547e+000, 5.9735307987301089e-001,
          3.5184291681868353e-002, 6.4189914024299566e-001,
          1.1292779250832341e+000, -2.4412204349966760e-001,
          2.9129202668589610e-001, 2.5376677209818441e-002,
          -3.7201881257014435e-001, 5.7691262332070448e-001,
          9.9261080658459078e-001, 8.9924959533218357e-002,
          -8.5626558133657327e-002, -9.3858944803132305e-001,
          -9.8835537688109576e-001, 7.9500840402246920e-001,
          5.7159200351623929e-001, -1.6427855902251809e-001,
          6.5171189695963871e-001, -8.5378640552992258e-001,
          -3.4069988671713340e-002, 2.2690043829734635e-002,
          3.8437915827329067e-001, -1.4086131038424790e+000,
          -1.4814170080640315e-003, 8.1975511308845017e-001,
          7.6427742388320885e-001, -1.0241938094826002e+000,
          -1.1455156921439094e+000, -1.2248346412037161e+000,
          -1.2818840247810230e+000, -4.5819450785570515e-001,
          1.4085323141524782e-002, -9.1924619199351174e-002,
          9.9071226370208121e-001, -4.7883216158070327e-002,
          -1.0696149071911560e+000, -4.8073193398131914e-001,
          2.2916262074353097e-001, -5.9961942290099313e-001,
          6.9428068204234628e-001, -5.0281630465965080e-002,
          2.6706164519691888e-001, -1.9143280155529180e-001,
          5.2809890673026616e-001, 7.2321562208106283e-001,
          9.4880706678656013e-001, -9.6526915195849405e-001,
          1.0500331024577023e+000, -3.6219498136424005e-001,
          6.6278723772165538e-001, -4.5018494421826583e-001,
          6.9752162027440301e-001, 5.5520379285244670e-001,
          -3.5978315002319317e-001, -5.4725185756659200e-001,
          -1.5428949590216035e+000, -1.6643462460869912e-001,
          5.8274224686029774e-001, -8.2826494254587146e-001,
          9.3404966564090228e-003, -9.4403295114152375e-001,
          -1.2406086918910342e+000, -6.0969074688127955e-001,
          1.0097912406515137e+000, -4.4460924852738554e-001,
          4.2721639913278250e-002, 1.5539768911887791e-001,
          2.7492349396242521e-001, 1.2091177810622735e+000,
          6.2436514570375801e-001, -3.1264755757914758e-001,
          -4.7065547418380405e-001, -9.6637795429192333e-002,
          -3.6305221987976366e-002, 2.7084232266364211e-001,
          -7.0451064664069052e-001, -3.5506366574117199e-001,
          -6.6859831462661112e-001, -3.6095395831281407e-001,
          5.0377527840515057e-001, 3.1401836955111884e-001,
          -6.7169431744457841e-001, 3.9401965137192407e-001,
          -1.3251348692329301e-001, 1.5830481501893282e-001,
          1.0470519930200137e+000, 9.7100740526513130e-001,
          7.1777230996644481e-001, -9.9634944013477118e-003,
          -1.7534107064173668e-001, 1.0583975642144248e+000,
          4.8753521258769056e-001, 9.4030735382425457e-002,
          -2.5798451382669679e-001, 8.7704002394704927e-001,
          1.0600909138624850e+000, 7.5556403803603123e-001,
          5.0481252957846923e-001, -1.3026473486425552e-001,
          9.2764647724767024e-001, 1.6914110826191788e+000,
          7.6342661711193538e-001, 5.7057320684857171e-001,
          -2.7052432398015369e-001, -8.7487363675358906e-003,
          4.4831257578577055e-001, 2.8978534522156391e-001,
          3.0855309068364578e-001, 1.3513993192493008e+000,
          4.2084862474470192e-001, 6.9660910030281797e-001,
          1.3779908678647006e+000, 7.3864854325147986e-002,
          2.6286876053804759e-001, 2.8975417891638855e-001,
          8.6521184395378281e-001, 8.7302416812334271e-001,
          4.2707725809219227e-001, 7.1161877329265422e-001,
          5.6543783499327083e-001, 2.6699212179717835e-001,
          1.2480377222598955e+000, 1.1586809273907608e+000,
          -3.4174858429906396e-001, -1.5849991842631428e-001,
          4.4125175352334395e-001, -5.5391428182863900e-001,
          1.0353066941909039e-001, -2.7545175541128486e-001,
          -3.6674920474860362e-001, -5.7393852716389326e-001,
          -8.5924891051557639e-001, -7.5869448071818901e-001,
          4.6692409322374262e-001, 6.2016287672157633e-001,
          -1.2115741125767767e+000, 4.9352206129967846e-001,
          -3.4459926986894751e-001, 5.6838396917955780e-001,
          7.9761179843515961e-001, -1.5023663392535949e+000,
          2.6217529022817401e-002, 1.3179216240036795e+000,
          -9.0005403442793064e-002, 3.6368930299410202e-001,
          3.8648400557245643e-001, 3.1763538709564804e-001,
          -5.9497294203952977e-001, 1.0594008135336781e-001,
          -9.9409401412280662e-002, -6.5818751377943130e-001,
          1.0359868725994319e+000, -1.5606481829763297e-001,
          -1.0118457669632626e+000, 9.8857718988910270e-001,
          -1.2024502109016073e+000, -1.0161860445860174e+000,
          -6.1962475190060251e-001, -1.4474631095565003e+000,
          -8.9898909700440188e-001, -5.9980598705911625e-001,
          1.2352252850770810e-001, 5.1017778199150621e-001,
          1.4385824136241889e+000, 5.7534134578356932e-001,
          -1.0064309501813484e+000, -5.2728714777011987e-001,
          -3.3286398744890339e-001, -1.2721069394943929e+000,
          -4.6797878176620772e-001, -1.1900037652914306e+000,
          -5.5488053609718861e-002, -9.0069892117645567e-001,
          4.0684397803752137e-001, 8.8935194506900239e-001,
          -5.0485834469516233e-001, -4.9638320630053884e-001,
          -8.6863852580091150e-001, -8.4787011780797938e-001,
          -3.2997091671297892e-002, -6.4434764044907819e-002,
          6.0925070766822165e-001, 3.6037446088253910e-001,
          6.0608577058980417e-001, -1.4816124162786140e-002,
          2.8076759279590380e-001, 7.5874307169539901e-001,
          2.7705472821928662e-001, 3.9586575059391615e-001,
          1.3035229956443537e+000, -1.0050487900047315e-001,
          -1.1011106174353624e+000, 7.8970212543897100e-001,
          -1.6335710118358060e-001, -8.3666818926496100e-001,
          2.9363021417172264e-001, -1.2121795177058436e+000,
          5.5364123019198719e-001, -5.0416479022562619e-002,
          -1.3622498303636510e-001, 4.9385328741721513e-001,
          -5.0224051654898283e-001, -5.0651446764024122e-001,
          -3.2717775920425435e-001, -8.5203130696828100e-001,
          -6.0460106189896445e-002, -7.1971615418754686e-001,
          -6.4861757072568005e-001, -6.5797002456893017e-002,
          -9.9239432854107246e-001, -1.5045958136993969e+000,
          2.6737442298544700e-001, -1.2568605863114506e+000,
          -2.9756851122430522e-001, -8.9860830298291117e-001,
          3.1242945922416610e-001, 6.6615932907797371e-001,
          -1.3369980485446629e+000, 7.0505134097631775e-002,
          4.6370168781360871e-001, 5.9016380732374474e-001,
          3.6734050857947281e-001, -1.7185545092104859e+000,
          -1.4292493392490444e+000, 3.3559577900791665e-001,
          1.3024094218911569e-001, -1.4614326472083532e+000,
          -6.1101238263502333e-001, -4.7266347633729877e-001,
          -4.9604097986311457e-001, -5.9785307428675927e-001,
          -5.8159201715425446e-001, -1.6880031390542118e+000,
          -5.8410313412432335e-001, 3.5664845749706126e-001,
          -1.3238476256222613e+000, -6.7160834500121236e-001,
          -3.9911056101729431e-001, -3.9505080485070532e-001,
          2.5843999458030975e-001, -5.0383361147630135e-001,
          -4.4846342172237552e-001, -3.6914210896381150e-001,
          9.7934367939703437e-001, -2.3142649718121619e-001,
          9.0846750467599580e-001, 7.8631501621584166e-001,
          -4.0438695918242562e-001, 2.5403355920274123e-002,
          5.7093809437302889e-001, 2.8186890240648632e-002,
          3.9813039064871036e-001, -1.9209952399460750e-001,
          -4.7278142078905971e-001, 1.3100443516199459e-001,
          9.3656410389292871e-002, 1.3469496383163200e+000,
          4.1034070921301702e-001, -6.0280798627270038e-001,
          -4.5204280788095569e-001, -6.7019127291959235e-001,
          -8.1459291483531993e-001, -2.4167863897071262e-001,
          6.1110860546505852e-001, -5.1548777308874905e-001,
          -1.3018260517567329e-001, -1.2777159321214824e+000,
          -5.8456133744490402e-001, 5.0165276219158179e-002,
          1.0031202844961744e+000, 9.2797758859121682e-001,
          1.5771865342776521e+000, 2.8168234023015526e-001,
          3.7958046057877809e-001, -1.3756684110338577e+000,
          -4.9244295165033697e-001, -6.5340640911130565e-001,
          2.1913170647369501e-001, -1.9768736973599849e-001,
          -2.1952859652532425e-001, 6.4862685153472099e-001,
          6.3929318658740275e-001, 7.5649774481937282e-001,
          2.6915382832509488e-001, 4.9916768126772576e-001,
          1.1002136573779140e+000, 7.2522837681588304e-001,
          -8.9702912864570306e-001, -9.0858320664215009e-002,
          -3.0904188246018557e-004, -3.2335296518233353e-001,
          8.0859310030779549e-002, -1.0762958905873561e+000,
          -9.7792334696264838e-001, -1.1379893647102453e+000,
          -7.2353176034369449e-001, -1.4532939087274330e+000,
          -4.0094350851919247e-001, -5.4190659251973061e-001,
          6.4523157145983434e-001, -4.9298805265589191e-001,
          -1.2466882354751079e+000, -5.0395568616446140e-001,
          -7.8063734729376100e-001, -1.1917336465243054e+000,
          -6.1323685361357261e-001, -1.6024249472029514e-001,
          -6.0682852809012144e-001, -9.0112594800777268e-001,
          -1.5143131585567340e+000, 4.8844769501566382e-001,
          -6.4416269898923839e-001, -1.5387891477666735e-001,
          5.6710606319362244e-001, -1.2478201373363509e+000,
          2.8397242258809208e-001, -2.5541585077859341e-001,
          -1.2051045951047328e+000, 7.1253392596409215e-001,
          1.0243580538385904e+000, -5.4196090040609857e-001,
          -1.8171875033661336e-001, -1.5186651456452149e+000,
          -6.5280995393126165e-002, -7.0132191798309984e-001,
          -4.4392274029845141e-001, -2.6862857706141385e-001,
          8.9330785636303492e-002, -4.2480413031954189e-001,
          -4.4835969917906993e-001, 5.0663136976361123e-001,
          5.5122583314527719e-002, 1.0600239115079220e+000,
          1.1736819896381494e+000, 8.4070552351695660e-001,
          9.4691616105202114e-001, -2.5071649278047542e-001,
          -5.7710920062486459e-001, -4.0875517081551641e-002,
          9.6781888159984342e-001, -2.9365446077960122e-001,
          1.2282776239761299e+000, 1.2374596363040600e+000,
          6.1913699241729503e-001, -9.2498968030426038e-002,
          1.2743371028067488e-001, -5.1451757889302963e-001,
          5.0177355376299382e-001, 5.1934332491385804e-001,
          1.0991116806339809e+000, 5.1068996594854241e-002,
          1.0079320767175928e+000, 6.7019486377026971e-001,
          1.2622568651597468e+000, 1.9999176305709904e-001,
          8.8570354421840536e-001, 1.3844093207863635e+000,
          7.3036217478472165e-001, 8.9372574737170452e-001,
          5.0837325254500554e-001, 8.1985952510571458e-001,
          -6.6017390060992470e-002, 5.2577926575181133e-001,
          6.8221175685454671e-001, 3.8939467475147665e-001,
          8.2326123480825886e-001, 1.1041742475216436e-001,
          4.8241716556343841e-004, 7.9924942540540034e-001,
          -3.9558793284534183e-001, 1.5123715293965498e+000,
          7.8440347009274902e-001, 1.1989750074340895e+000,
          4.8395386007840109e-002, -4.2863874346363745e-001,
          7.5717634431606218e-001, -4.4571919191583659e-001,
          4.8720725801785275e-001, 7.9964177944963633e-001,
          1.1395151707709139e+000, 2.4506131315503391e-002,
          -7.4664221300596056e-001, 1.1258101001919585e+000,
          -6.7764733263429200e-001, 5.0238261463913338e-002,
          9.4481229135640277e-001, 1.1412799298929064e+000,
          2.0988793799874772e-001, 5.6997065923665458e-001,
          5.2000579777610878e-001, -3.6029082981413829e-001,
          3.5804043109208794e-001, 9.4070737223892575e-001,
          7.2464246541039579e-001, 8.9868716856945841e-001,
          -2.6276382426681510e-001, -6.4058764844987937e-001,
          -5.2303660428545329e-001, 6.9782731677659748e-003,
          -8.1333640463741497e-001, 1.2973582462845332e+000,
          4.0227883189443625e-001, 1.2847780501993478e+000,
          -8.4472152571456260e-001, -1.7729658476130422e-001,
          -3.0818742904920682e-001, 4.1402141554018868e-001,
          1.0802343193002137e+000, 7.0333995442181052e-001,
          3.2377630799117146e-001, 5.9779736032908859e-001,
          5.1827243879514207e-001, 1.3350831282088056e+000,
          -2.4999365954156375e-001, 1.1854635912087612e+000,
          3.6092759620819481e-001, 2.1784640981302456e-001,
          -1.2234457252233144e+000, 8.6896269233418366e-001,
          9.3894178045018062e-001, -1.1598322242813324e+000,
          -4.1023991606566940e-001, -1.0646960081275193e-001,
          8.5400436578302230e-001, 1.2613092636346404e+000,
          -7.4432224269908032e-001, -2.5317003942744370e-001,
          -5.5434613186892534e-001, -6.1113531191859671e-001,
          1.0261294925783905e-001, -6.3249246209476373e-001,
          6.2102924118519442e-001, 6.9947789252258719e-001,
          6.1128426575090256e-001, -4.1028185030233455e-001,
          7.1031544831756144e-001, -1.6764838261172318e-001,
          5.3956821166646241e-001, 2.1100618307146773e-001,
          -1.2184083971930904e+000, 9.3908876988863776e-001,
          -1.3589771607801590e-001, 6.3411912482081989e-001,
          -5.9917997108655752e-001, 1.5255034924036901e+000,
          8.9942719768863366e-001, -4.4579745296069229e-001,
          -9.7127436853730698e-001, -8.4304803503087555e-001,
          -2.4397131114256340e-001, -7.0857144686669038e-001,
          -5.5230989062003544e-001, 2.7944245301494036e-001,
          1.0383754856355931e+000, -5.4279692005605495e-001,
          1.3418941847258902e-002, -1.1273069763358876e+000,
          9.4519136634563450e-001, -4.2815002313599179e-002,
          8.7870093140843986e-001, 5.9037647536865256e-001,
          -1.1092181206541727e+000, -2.4374345833438207e-001,
          -1.0556358295598953e+000, 2.5462504852834128e-001,
          1.6463650411556810e-001, -7.8754151409826545e-001,
          4.1674355882458614e-001, 4.6830853846981824e-001,
          -1.2002404700321683e+000, -2.1092081902055468e-001,
          -3.2166295899253899e-001, -1.2378192300146635e+000,
          6.0394369971286899e-001, -4.4677365315356460e-002,
          -1.3767491208954856e+000, -4.6182919922223126e-001,
          -1.0562446909721011e+000, 1.1937961957691583e+000,
          8.3021224987592168e-001, 3.0350911629871635e-001,
          -7.2610841740450416e-001, 4.6669447885819976e-001,
          5.5234661671805696e-001, -4.6683792438362091e-002,
          5.0840552777451697e-001, 1.2551032016812678e+000,
          -8.1026457099835292e-001, 8.0545102854025785e-001,
          -1.2828100061761745e+000, -3.7107452242559408e-001,
          -1.8997458140321211e-001, -3.4569735904174653e-001,
          -1.1398473767980750e+000, -1.2259208683382652e+000,
          1.4243333198190830e-001, 1.1699050776986468e+000,
          -8.3723904501442947e-001, 7.6877006548415350e-001,
          -2.1736074180193315e-001, 3.3275588503294190e-001,
          -6.1423730239874730e-001, -9.3851965254958847e-001,
          -4.1805947928539527e-001, 8.3143351591612102e-001,
          5.3014490594116170e-001, -1.0290732212488580e+000,
          1.8357812935828524e-001, 8.7579710151254186e-001,
          -5.9890655110041369e-001, 1.3210654728524189e+000,
          1.5808494739925187e+000, -7.7769691074759853e-002,
          -9.1118037197963353e-001, 1.1489831062129672e+000,
          -8.1641610411995358e-001, 8.8134440430151273e-001,
          -2.5105830486490638e-001, 1.1003887484395649e+000,
          -2.5324739105263749e-001, -1.1533205081683113e+000,
          2.3476836192279471e-001, -1.0307972855558825e+000,
          -3.9981798311772726e-001, 1.8318152572199491e+000,
          8.1488737621259522e-001, 1.1039719481481767e+000,
          -6.8136259643672881e-001, 2.7822853586124180e-001,
          -5.5738069793661105e-001, -4.8759884614038934e-001,
          6.5705009358155575e-001, 1.2651114094720211e+000,
          2.9111029545139394e-001, 1.0034689564525296e+000,
          -9.2715853372459101e-001, -1.0136528778975942e+000,
          1.4938942151407530e+000, -6.0501480055171042e-001,
          -3.6113685845012244e-001, 2.0849684982468717e+000,
          -5.6474160091434134e-001, 5.9993961961526920e-001,
          1.1080308859246724e+000, 5.1365782069314003e-001,
          -7.8158728586576509e-001, -8.4189238008984457e-001,
          -5.8239876450102435e-001, -1.0685047714628846e+000,
          2.1597167916520596e-001, -6.2170582952952114e-001,
          1.7931495848719936e-001, -4.3662004304682263e-002,
          -1.1297799264197618e-001, -4.9664044590831630e-001,
          3.2237443766500573e-001, 9.0134019401452681e-001,
          -5.8312228703421498e-001, 1.4916999855838817e-001,
          5.4897875837107479e-001, -6.1514016781786141e-001,
          1.1255342638429395e+000, -1.3773815692649904e+000,
          5.4037378248880796e-001, 8.3351656781745087e-001,
          5.7431268546829894e-001, 1.2782562407446441e+000,
          -1.0307093321919261e+000, 1.4465331344313475e+000,
          -1.9211132584042181e-002, -1.7394034822675400e-001,
          3.1236462260022102e-001, 4.4977559952807894e-001,
          -5.6730341344831414e-001, 1.1406347594851391e+000,
          -3.2139126351712610e-001, -3.4236433535191235e-001,
          7.2007210191872784e-002, 9.7790123160861564e-001,
          1.8756681160804553e-001, 6.3761609081715276e-001,
          -8.6679188202613200e-001, -9.4145720523460252e-001,
          1.1180226288853390e+000, 9.1854198292565703e-001,
          -1.9485913524281193e-001, 1.0515724238214406e+000,
          1.0760923261040116e+000, -7.8224788323960781e-001,
          1.3246834304490314e+000, 1.2172072937777327e+000,
          -5.6672711838280876e-001, 6.9484197968276276e-002,
          1.4149901044827504e-001, 9.6471262776205979e-001,
          -5.7925580572758562e-001, 9.5412214874081103e-001,
          -8.1828877298325131e-001, -3.2691615419997211e-001,
          7.9322033063568043e-001, -5.7950841344853654e-001,
          -5.3158430277200941e-001, -6.6732570128267710e-001,
          -5.9170354149931392e-001, -9.7238731669919942e-001,
          -2.2873922983550959e-001, 5.2754516832981591e-001,
          1.1274953954880513e+000, 1.0376151858347591e+000,
          -9.0342873725806982e-001, -5.9036365951330338e-001,
          -4.1183370518831119e-001, -7.7352809909247522e-001,
          7.6987120568165834e-001, -2.0459287269266138e-001,
          -1.1935493203158082e-001, 1.0275382367146575e+000,
          6.4528059869002075e-001, 8.8105960990160015e-001,
          8.0757304298412458e-001, 1.5829729127970469e+000,
          -2.6109513409123469e-002, -5.6454533179815880e-001,
          1.1422527920734979e+000, 7.3741095720720407e-001,
          6.5417778546548722e-001, 7.3685149322572585e-001,
          5.8151085788827717e-001, -6.5510761523889149e-001,
          8.7841283180246454e-001, -1.9675791627741904e-001,
          1.4026837972379449e+000, 1.3271153381745544e+000,
          -1.8191370103763840e-001, 1.3932365748313795e+000,
          7.9328348984406860e-001, 8.7680080541402439e-001,
          7.4534749547529866e-001, -1.2557648796779539e-001,
          1.2280545973740953e+000, -1.1485228113405761e-001,
          1.1170150857684245e+000, -3.7604965444329047e-001,
          1.4013050820115720e+000, 7.5433814719042713e-001,
          -4.5589323293122663e-001, 2.3585563897418779e-001,
          8.2079799938022924e-001, -8.3783327080330261e-002,
          1.1306601790135724e+000, 6.8407038964677458e-001,
          8.7954136074620781e-001, 7.5016755618919684e-001,
          1.3415043955921453e+000, -6.9998289398220240e-002,
          7.4102131934232029e-001, 3.0108088443623332e-001,
          5.3243748046578343e-001, -5.2754672458411778e-001,
          -8.1341454705413740e-001, -4.6007323155683444e-001,
          7.7568630182302900e-001, 7.5075483543956911e-001,
          8.4011024484186059e-001, -6.3793187809898533e-001,
          -7.5921645845463470e-001, 4.3215192467977837e-001,
          5.3147442870676509e-001, 4.7139523242867248e-001,
          7.2229468770178795e-001, -5.1460278876974741e-002,
          8.1716930372606400e-001, 1.1690280994298665e+000,
          -3.0645559667306449e-001, -5.3397578547150837e-001,
          7.9640798825280779e-001, -1.1989877236321003e+000,
          1.1453564858547107e+000, -6.3648000991578535e-001,
          1.0708324489011650e-001, 1.7947834186485115e-001,
          4.2983445961690830e-001, -5.4925382265176215e-001,
          8.1099112125953399e-001, -5.1539895851329209e-001,
          -6.5310455824427160e-001, -1.0804435636611773e+000,
          1.3761436071311453e+000, 5.9704216164666846e-001,
          -9.6461781086186860e-002, 2.7365225904563972e-001,
          1.4255878014148923e-001, 5.5479220572119314e-001,
          5.9517176498355411e-002, 7.5311562462468784e-001,
          -8.9705702928821474e-001, 1.2213840953576258e+000,
          6.4795906060716016e-002, 8.9541448986876582e-001,
          -1.9172222349176102e-001, -1.3102957046501995e+000,
          4.8118051607649676e-001, -1.1219181850350572e+000,
          8.1795226204921179e-001, -5.1391095772740747e-001,
          -1.0000987959787682e+000, 7.4242916311806539e-001,
          -6.1634389383884802e-001, -1.2662460775861784e+000,
          -6.2945768857277229e-001, -4.6135912179182176e-001,
          -8.4411231148607824e-001, 1.4219683976936623e-001,
          5.1755269231807444e-001, 2.0965021751883714e-001,
          5.9026096432348685e-001, 2.9089087269117186e-001,
          -5.7909495673074152e-001, 4.2008114284438752e-001,
          -6.3220943981183808e-001, 7.0650647280132195e-001,
          4.1952785530105613e-001, 8.5505935140806877e-001,
          1.2265700761378100e+000, 1.2846570738956997e+000,
          -1.0492751918219547e+000, 1.1754418085600891e+000,
          4.0360832122695721e-002, 1.7674676408683812e-001,
          -8.4822937560668865e-001, -5.5022595612962788e-001,
          1.8931171383254528e-001, -4.9992341879633412e-001,
          -5.7011207217051640e-001, -1.1907944375871785e-002,
          -2.1315996893996886e-001, 1.0498548103219580e+000,
          -9.1859513061932208e-001, -9.0477579007116371e-001,
          -1.4330817645087619e+000, -6.0953390207622839e-002,
          -1.0022864615164120e+000, -1.2449228418582310e+000,
          -1.8764553838950471e+000, -7.0017957112021145e-001,
          -1.6804052381763526e+000, -1.3448383944815929e+000,
          -5.3568056299637357e-001, -1.0566684363172067e+000,
          -1.2940715804194050e+000, -1.2074622725656348e+000,
          -1.2091251094184448e+000, -1.8788742640820639e+000,
          -1.2919165465810800e+000, -2.6025424167588745e-001,
          -3.2415620390363503e-001, -9.1429171406985654e-001,
          -2.2863110938077794e-001, -1.5825625073265781e+000,
          -1.9159386064523436e+000, -1.1042455479824775e+000,
          -1.2128229870659915e+000, -1.0161765048618578e+000,
          -2.8859576076539811e-001, -6.0813322978238626e-001,
          -1.6098080970802300e+000, -1.4852775135818039e+000,
          -1.3560216232459414e+000, -1.1077113669513834e+000,
          -1.4604228143390197e+000, -7.8247517339524586e-001,
          -1.6953820035428211e+000, -1.4527162130856781e+000,
          -5.2707613429989619e-001, -1.3130532084774948e+000,
          -5.0927063611355983e-001, -6.1858911152587959e-001,
          -1.2960670089003272e+000, -4.8918504843166222e-001 ]
