%YAML:1.0
my_nn: !!opencv-ml-ann-mlp
   layer_sizes: !!opencv-matrix
      rows: 1
      cols: 3
      dt: i
      data: [ 9, 41, 41 ]
   activation_function: SIGMOID_SYM
   f_param1: 1.
   f_param2: 1.
   min_val: -9.4999999999999996e-001
   max_val: 9.4999999999999996e-001
   min_val1: -9.7999999999999998e-001
   max_val1: 9.7999999999999998e-001
   training_params:
      train_method: BACKPROP
      dw_scale: 1.0000000149011612e-001
      moment_scale: 1.0000000149011612e-001
      term_criteria: { epsilon:9.9999997473787516e-006, iterations:1000 }
   input_scale: [ 1.2515634666853639e+001, -6.0714275574847765e+000,
       1.9051416540665471e+001, -9.3403395599633470e+000,
       3.2451827888159880e+002, -5.8111895360990955e+000,
       2.5298743822656724e+002, -4.9770673050345078e+000,
       6.5513500426344704e+000, -2.1644752809317622e+000,
       5.4633471324172032e+000, -2.8166108356788078e+000,
       1.1533954839228434e+001, -2.1487158756124614e+000,
       7.8932497099820678e+000, -2.7704721002920589e+000,
       8.5490909763400680e-001, -2.1894013475992860e+000 ]
   output_scale: [ 1.0526315789473684e+000, 0., 1.0526315789473684e+000,
       0., 1.0526315789473684e+000, 0., 1.0526315789473684e+000, 0.,
       1.0526315789473684e+000, 0., 1.0526315789473684e+000, 0.,
       1.0526315789473684e+000, 0., 1.0526315789473684e+000, 0.,
       1.0526315789473684e+000, 0., 1.0526315789473684e+000, 0.,
       1.0526315789473684e+000, 0., 1.0526315789473684e+000, 0.,
       1.0526315789473684e+000, 0., 1.0526315789473684e+000, 0.,
       1.0526315789473684e+000, 0., 1.0526315789473684e+000, 0.,
       1.0526315789473684e+000, 0., 1.0526315789473684e+000, 0.,
       1.0526315789473684e+000, 0., 1.0526315789473684e+000, 0.,
       1.0526315789473684e+000, 0., 1.0526315789473684e+000, 0.,
       1.0526315789473684e+000, 0., 1.0526315789473684e+000, 0.,
       1.0526315789473684e+000, 0., 1.0526315789473684e+000, 0.,
       1.0526315789473684e+000, 0., 1.0526315789473684e+000, 0.,
       1.0526315789473684e+000, 0., 1.0526315789473684e+000, 0.,
       1.0526315789473684e+000, 0., 1.0526315789473684e+000, 0.,
       1.0526315789473684e+000, 0., 1.0526315789473684e+000, 0.,
       1.0526315789473684e+000, 0., 1.0526315789473684e+000, 0.,
       1.0526315789473684e+000, 0., 1.0526315789473684e+000, 0.,
       1.0526315789473684e+000, 0., 1.0526315789473684e+000, 0.,
       1.0526315789473684e+000, 0. ]
   inv_output_scale: [ 9.4999999999999996e-001, 0.,
       9.4999999999999996e-001, 0., 9.4999999999999996e-001, 0.,
       9.4999999999999996e-001, 0., 9.4999999999999996e-001, 0.,
       9.4999999999999996e-001, 0., 9.4999999999999996e-001, 0.,
       9.4999999999999996e-001, 0., 9.4999999999999996e-001, 0.,
       9.4999999999999996e-001, 0., 9.4999999999999996e-001, 0.,
       9.4999999999999996e-001, 0., 9.4999999999999996e-001, 0.,
       9.4999999999999996e-001, 0., 9.4999999999999996e-001, 0.,
       9.4999999999999996e-001, 0., 9.4999999999999996e-001, 0.,
       9.4999999999999996e-001, 0., 9.4999999999999996e-001, 0.,
       9.4999999999999996e-001, 0., 9.4999999999999996e-001, 0.,
       9.4999999999999996e-001, 0., 9.4999999999999996e-001, 0.,
       9.4999999999999996e-001, 0., 9.4999999999999996e-001, 0.,
       9.4999999999999996e-001, 0., 9.4999999999999996e-001, 0.,
       9.4999999999999996e-001, 0., 9.4999999999999996e-001, 0.,
       9.4999999999999996e-001, 0., 9.4999999999999996e-001, 0.,
       9.4999999999999996e-001, 0., 9.4999999999999996e-001, 0.,
       9.4999999999999996e-001, 0., 9.4999999999999996e-001, 0.,
       9.4999999999999996e-001, 0., 9.4999999999999996e-001, 0.,
       9.4999999999999996e-001, 0., 9.4999999999999996e-001, 0.,
       9.4999999999999996e-001, 0., 9.4999999999999996e-001, 0. ]
   weights:
      - [ -1.3161403653619230e+000, -4.3340060746289905e-001,
          1.4799250815135987e+000, -3.0049913679373624e-001,
          6.7751521406389348e-002, 7.9829467965111922e-001,
          -4.2597256399932224e+000, 2.8503971059202331e+000,
          6.4105587433063038e-001, 9.3037837941634416e-001,
          1.4453098400788933e-001, -1.6845840133885742e-001,
          -2.0658140739453561e+000, 4.1274861942642782e-001,
          5.6191817692514512e-001, 3.1305766563273753e-002,
          -1.2032486142309445e-001, -2.6196816937045213e+000,
          3.4669414319599517e-001, 1.1664962806955383e+000,
          -3.0929416563263240e-001, -9.6498768180169547e-001,
          -5.9662674588923527e-002, -1.9425721401810117e-001,
          -1.9500578275841368e-001, -1.6383949089383660e+000,
          2.0811128558769298e-001, -9.4520017198921524e-001,
          1.2905370016933124e-002, -2.6415123908818023e-002,
          -6.2987268906957952e-002, 1.2288279389034404e+000,
          -2.6050942269482530e-001, -2.8973683671558961e-002,
          -7.7081160604641963e-001, -1.0958253969469229e+000,
          -3.6317057221297957e+000, -1.5075230464476754e+000,
          1.1648077127306410e-001, 3.1246586478625053e-002,
          -5.5439398965187903e-001, -8.3875358075453854e-001,
          -6.7741980638520527e-001, 6.6081071962029092e-001,
          6.4706428172355868e-001, -2.3631008074359208e-002,
          -8.6382062424617578e-001, -1.3160592184667302e-001,
          -8.4954006699973628e-001, -8.9088888844115099e-001,
          -9.8162293028178693e-002, 5.4098470104269425e-001,
          -1.5066710229287339e-001, 2.8871370794289120e+000,
          1.5083430877846118e+000, -1.5284160161724940e+000,
          1.3762300166772221e+000, -2.1926146314265071e-001,
          3.3194726509090150e-001, 2.1707434546270026e+000,
          -1.8314711689860141e-001, -1.2760434404132981e+000,
          -1.9726355442372598e-001, -1.7968380004947707e-001,
          -2.4376233323919069e-001, 1.2215648502573673e+000,
          -2.5899692337939523e-001, 4.8295832219277046e-001,
          -6.0841905487703718e-001, 2.2550787368480885e-001,
          -1.8358599400957484e-001, -5.9342584920676267e-001,
          -7.7283778278226278e-001, -4.4641054799215241e-001,
          1.4286516090164110e+000, 1.6602687875157112e+000,
          -9.6733215050695476e-001, 2.1734826270998178e-001,
          -5.8399933031503914e-001, 1.1621049621749568e+000,
          1.0481774633025895e-001, -1.2136390305889697e+000,
          -3.0872666326346780e+000, -7.1774398823944774e-001,
          5.8814639868772933e-001, 4.2339218831581388e-001,
          -2.1051060722291987e-001, -7.7418957303319547e-002,
          -7.1218855886330401e-001, 1.7142950969844648e+000,
          -6.0412469938054780e-001, -1.5995996564998720e+000,
          8.3266156969037408e-001, 2.5968677720950017e-001,
          5.0901842309464440e-001, 5.1686463717980513e-001,
          1.6519589938351189e+000, -2.0699015203317246e+000,
          1.4035906133040865e+000, 8.2589756311535301e-001,
          1.1213925846293558e-001, 2.5583526495699083e-001,
          5.1429872686883416e-001, 2.9689698211781790e-001,
          -3.7867120338570169e-002, -5.8737675227614305e-001,
          -8.3044440009139109e-001, 2.0386803275355092e-001,
          4.7228153699184905e-001, 1.0681305584576608e+000,
          -7.3598780656165008e-001, -5.4135839177916500e-001,
          -3.6536926786581464e-002, 5.6753426289915776e-001,
          7.6155251405546809e-001, 1.8836938468035016e+000,
          -8.4339949907318446e-001, 1.1543149901685921e+000,
          -5.2672864431824928e-001, 1.0138142718959591e+000,
          1.2280476780310708e-001, -9.7451365060450074e-002,
          2.4433525480783969e-001, 5.1635683470620046e+000,
          8.6507621523208711e-001, -2.4516653101219821e-001,
          2.4077720305343537e+000, 4.1252115515961962e-001,
          3.3355345264982417e-001, -1.2246273836367445e+000,
          -1.1658127085522891e+000, -3.8211906985766719e-001,
          9.4937180937860877e-001, -4.7317861071489153e-001,
          -2.3843567250386721e-001, 8.0180589197651642e-001,
          1.3052647475952237e+000, -7.0516258226805559e-002,
          -1.5625228824700208e+000, 5.6645689156987300e-001,
          8.3837377193855900e-001, 8.0039185179458305e-001,
          -8.6593842511385566e-001, -8.0930373963316271e-001,
          1.5925998961386152e+000, -4.6707802701055089e-002,
          3.4438122782881919e-001, 1.4313680341618040e+000,
          -1.5113420738970722e+000, -8.3464853296017480e-002,
          -2.2806596425306344e-001, -3.6044624054138097e-001,
          3.4457106207588012e-001, -2.2570886129418716e-001,
          1.8834838279364485e+000, -9.5715094508890750e-002,
          1.5775112279558201e-001, 1.4255803536743838e-001,
          -2.8568320811853448e-001, -1.2881143357375628e+000,
          1.3381580439364993e+000, -1.3786970440209687e+000,
          -1.6460126085749893e-001, -1.6750184225869880e+000,
          2.1009844807838225e+000, -1.1888838462464128e-001,
          2.1575181351822642e-001, 3.4817608744488632e-001,
          -8.4753799703840269e-002, 5.6251374539551902e-001,
          1.4711785885547743e+000, -5.9114983748011019e-001,
          -1.3495412126557915e+000, -5.9266838525276766e-001,
          -1.0737593749070623e-001, -3.0195950941802197e-001,
          -4.9832828590654710e-001, -7.6584717707405525e-001,
          3.7288374837280380e-001, 8.0482607146572516e-002,
          6.0416827624141489e-001, -1.1608102714878783e+000,
          4.7779757760201746e-001, 1.1969096494712002e+000,
          -4.7888152061407596e-001, 3.1557769192456719e-001,
          -1.2616441280014598e-001, 2.7772523450516166e-002,
          8.6508285731068668e-002, -1.5435500054836775e+000,
          8.3339047518747289e-001, 2.4384499310478813e-001,
          9.5856795692915997e-003, -2.7525100628665550e-001,
          3.0557634750858131e-001, -2.1748228385183610e-001,
          2.4664446693907804e-001, 1.8828257490879803e+000,
          1.9134532630133372e+000, 2.7458121685042478e+000,
          -3.3897628019778803e-002, 6.0683758926357217e-002,
          1.0940565921369254e+000, -8.6242689882067916e-002,
          5.8528999431564410e-001, -2.1209785691555418e+000,
          1.0072971500763859e+000, 4.8126179913324313e-001,
          9.1612289417189977e-002, -4.2871292653027371e-001,
          -1.0369902679819716e+000, -1.1177334315523146e+000,
          -1.9836081464701999e-001, 1.4775799318105814e-001,
          -5.9067567805447385e-001, -6.8917454253033783e-001,
          1.4868819872315761e-001, -2.6778726128105995e-001,
          7.2092435524605236e-001, -3.2376785109039852e-001,
          -1.3285337705670883e-001, -3.3156560852754990e-001,
          2.6928954581199149e-001, -5.0523236425372142e-001,
          -6.3049873697332948e-001, 8.3644524643750306e-001,
          1.6313359567568259e-001, 1.4345788457355566e-001,
          2.6038694189329847e-001, -1.7686600169958766e+000,
          4.5971856998865313e-001, -4.5673648539191249e-004,
          -8.8142850738492806e-001, 4.7262367627557422e-001,
          -2.0201239394539165e-002, -1.4120270691093977e+000,
          -4.9050556201523970e-001, 3.4303528914579923e-001,
          -1.7715988371420266e-001, -4.9902326484673887e-001,
          -1.4623664830642771e+000, -7.2610576854680542e-001,
          6.8973746273561742e-001, 5.4555111211416107e-001,
          5.1904985849252105e-001, -7.6275908302406437e-001,
          -7.0060445436588303e-001, -2.2129851676147427e+000,
          9.5045870735703952e-001, -1.4043785592350959e+000,
          2.3346326190181615e-001, 2.2345516722518819e+000,
          1.3098111969865625e+000, -9.4600954639884405e-001,
          1.0317392391251661e+000, -6.5010647604053196e-001,
          -3.3230677773166939e-001, -2.0137147311779355e-001,
          -4.7650465946836296e-001, 5.1619159762877689e-003,
          1.3214989277208522e+000, 1.5268281919042235e+000,
          1.8669748150494164e-001, 1.1343599709515311e+000,
          3.1393846921106222e-001, -3.1357612634246496e-002,
          9.0391460607095700e-002, 6.1233777523729793e-001,
          -1.1320819989511571e-001, 2.1486906848476095e-001,
          8.5033633413948295e-001, 1.0950999605347695e+000,
          4.3939173082813587e-002, -2.0118227169026541e+000,
          5.0521072246122167e-001, 7.1272203221656311e-002,
          9.4107134831676431e-001, 4.0669420343266477e-001,
          7.4057750737401534e-002, 9.0301373330964574e-001,
          -2.8369290093726414e+000, -1.9022112530730149e+000,
          -1.9214844088664942e+000, 9.9084887011838263e-001,
          -6.9935699023344400e-001, -6.2910908376242941e-002,
          3.7269468368082975e-001, -6.3526998540410839e-001,
          -2.6854136671813329e+000, -1.1512942195054394e+000,
          -7.9517486721814967e-001, 2.2138786799846097e-001,
          -6.9664737339944371e-001, -1.0376517968023760e+000,
          7.5728391892745728e-001, 5.6487123699173625e-001,
          -1.8219324314575513e-001, 3.8300463391876961e-002,
          -2.3057162770824682e-001, 1.5085990493674608e+000,
          -7.4957997810029009e-001, 1.3375991096772299e+000,
          -5.0693551327045483e-001, -8.1431630174292657e-001,
          -2.0451509832261312e+000, 5.3076142040404328e-001,
          -5.1232274906652608e-001, 6.6834424469228548e-001,
          -4.0894373110027410e-001, -2.0023200076754791e-001,
          3.6443166705188018e-002, 3.0501197911649109e+000,
          -2.7895991237504408e-001, -1.4278033738742241e-001,
          8.9340919796528129e-001, 1.7594967778424528e-001,
          -1.6202252315950978e-002, -2.0506713299266463e-001,
          -1.3343899114704536e+000, 1.8682374751846389e-002,
          1.3940866327745228e-002, -2.6195787928495184e-001,
          1.0880056935939997e-001, 1.1932247778503116e+000,
          4.0242836583760672e-001, -8.3399130933372523e-001,
          -9.2068178851138480e-002, 6.1865175530000249e-001,
          2.3800588137045793e+000, 3.7938378922114940e-001,
          9.4912016382990350e-001, -7.1368302865604316e-001,
          1.8945435995558846e-001, -1.4350339097183973e+000,
          -2.8399064140829764e+000, 1.1636741655289766e+000,
          7.6812462494622635e-001, 6.2164501210812473e-001,
          4.8178452584044761e-002, -1.6550259292337835e-001,
          -7.7046839581721416e-001, -2.5070368192265424e+000,
          -1.6380769008585691e-001, -9.1669675931133010e-001,
          1.4415929563682368e+000, 1.3681543850015989e+000,
          1.0677285995453951e+000, 5.7158691974106945e-001,
          6.3853389383077630e-001, 1.2474266919246471e+000,
          6.4930399491139587e-002, -1.8412413431187760e-001,
          1.2686260228327599e+000, 4.8414719354909314e-001,
          3.3598171276998073e-001, -1.0335527116424958e+000,
          -3.5386976599988818e-001, 1.1711263527757841e-001,
          1.3342255216227299e+000, -7.8559428337941639e-001,
          1.3963552419049544e-001, -5.1091906415599986e-001,
          1.8111643198020384e+000, 1.3112761458329736e-001,
          -1.1290416631155389e+000, 2.0722169665907346e+000,
          9.7391457907814771e-001, -4.0172812688527931e-001,
          7.1629450914592041e-001, 5.5591828198392497e+000,
          1.2321625505780491e+000, 4.5874346960531814e-001,
          5.2404311153611305e-001, 2.9671154415065657e+000,
          1.5178257508106161e+000, -5.1732573056453768e-001,
          1.2963430028053649e+000, 1.4291491710386164e+000,
          -8.4071563793311632e-001, 2.3344469906349672e+000,
          -3.0159643881160769e+000, -2.3153671447227388e-002,
          3.9938946763177668e-001, 4.7225155593299933e-001,
          -1.5620603168679268e+000, 1.8767871206554820e+000,
          1.1604610182506201e+000, -1.3202410261841366e+000,
          -2.6420103760815616e-002, -9.2727064373215151e-001,
          2.2180673598278822e+000, -3.2296175989022862e+000,
          2.7643643881332634e+000, 2.3835175763525732e-001,
          -6.9240026640661634e-001, -2.6763193382524317e+000,
          1.1393481243142001e+000, 1.2836682793191434e+000,
          2.9245007857960874e+000, -1.4298519389311690e+000,
          1.1526180329873805e+000, -2.2629458355766512e+000,
          -2.4277814055592848e+000, -4.0169360258232722e-001,
          2.3316436636945534e-001, -4.0017709363795773e-001,
          -2.4312118326518686e-001, 5.5513749078787766e-001,
          -3.0603641699727602e+000, -1.3746273987064979e+000 ]
      - [ -4.0188160575613474e-001, -2.8012685385441966e-001,
          1.1863139783330494e+000, 6.6037209763319157e-002,
          5.4502905538897228e-001, -7.3690847706757628e-002,
          4.5293691186918372e-001, -9.7699381218813042e-001,
          -3.5098646011088647e-001, -1.3776304049105794e+000,
          9.5420942463872810e-002, -6.3814991259206633e-001,
          -1.9575031344254604e-001, -1.0047190803915724e+000,
          2.6205438870791791e+000, -1.0341029997440370e+000,
          7.6504118567730350e-001, -6.7383217748102009e-001,
          6.9034818120669583e-001, 3.1169968529680592e-001,
          -7.2453323962264143e-002, -1.3507705692519001e+000,
          1.7193251871962797e-001, 2.5168767214224580e-001,
          2.9854012134449198e-001, 2.3053332826049530e-002,
          6.8987908154419719e-001, -1.2883681408971728e+000,
          -7.0577051212737263e-001, -6.5263638269789848e-001,
          -1.5948202163143026e+000, -4.6200636923031518e-001,
          -8.9146309458883022e-001, -9.7001274036546647e-001,
          -9.9522572223018058e-001, 1.1249875529951565e+000,
          -6.9283483636041432e-001, 1.7926852334204579e-001,
          5.2655087859719230e-001, -5.8298070154188419e-001,
          -4.7018940608691867e-001, -4.3414634112714012e-002,
          -5.7280678300739230e-001, -5.9440919471864584e-001,
          7.6684834505636745e-001, 5.1417863538106801e-001,
          -1.6925508723331395e+000, 4.8220234037846116e-001,
          -9.0598369149379221e-001, -1.1495220476346704e+000,
          1.0755514223843268e+000, 7.9730706481725422e-002,
          -7.7329142307735443e-001, 6.4968718597926245e-001,
          5.1952775540076790e-001, -7.6527742540027210e-001,
          5.4584002397153497e-001, 2.6430963804685237e-001,
          -1.9671191374314019e+000, -4.2106899162472650e-002,
          1.0608869784870629e+000, -7.3923005343117620e-001,
          8.0828620100809920e-002, 2.9550848015929432e-001,
          6.0705746494697810e-001, -9.6420785958093003e-001,
          7.4064117497017445e-001, -1.3898612552904893e-001,
          6.1655457882196318e-001, -6.6868163167922740e-002,
          -4.7481423868270167e-001, -8.7561937257451061e-001,
          7.7394536162544059e-001, -9.1944474765051210e-001,
          1.3422880965079278e+000, -5.1518583990695677e-001,
          -9.3762993055065114e-001, -5.1430432077966726e-001,
          -7.2666469059382721e-001, 2.4748664217293626e-001,
          -2.9114818104366339e-002, 2.2967773829114497e+000,
          6.9898593087378091e-001, -4.7088981244121320e-001,
          -7.0254027736704914e-003, -1.1401948741333015e+000,
          9.7939501162531717e-001, 8.9760097009165563e-001,
          -1.1779625175042370e-001, -2.5862793376858334e-001,
          3.9652770212861033e-001, -1.5201412021499058e-001,
          -3.1835986557278328e-001, 6.3323432520683542e-001,
          8.0393558626644890e-001, -5.0782360713900021e-001,
          8.3890740330810259e-002, -1.0642691655987437e+000,
          -7.7527328109487870e-001, 5.6278087043873504e-001,
          -1.2189114474269158e+000, -6.5117884980339968e-001,
          5.7455737907326643e-001, -8.9368096346508621e-002,
          7.6518017660007376e-001, 4.4840229161285083e-001,
          -5.9623932429781590e-001, 2.6084336189092805e-001,
          -1.0273025083415485e-001, 5.2877939328855406e-001,
          -1.2366840227789593e+000, -1.4223095976799680e+000,
          3.2912309327028472e-001, -7.9231756502300710e-001,
          9.0541315497235109e-001, -2.8008279354340360e-001,
          4.2017798203938245e-001, -6.2068489013575012e-001,
          4.4150453907229159e-001, 1.3027174492235061e-001,
          -9.0295327097405798e-001, -7.0307748186831986e-001,
          -7.2179389809032657e-001, 7.8045811621915118e-001,
          1.4687669119783986e-001, 3.5660523635678287e-002,
          4.3809290286271486e-002, 7.8047024736931547e-001,
          -4.8184757590200833e-001, 7.6252480500194741e-001,
          -9.9613179356809634e-001, -7.1376321122189457e-001,
          2.8747172721324221e-001, -3.6993337543235166e-001,
          9.0761942721777411e-001, -1.7342054741116875e-001,
          5.1841545294998170e-001, 2.4167498218465247e-001,
          -7.7803721148041377e-002, -2.9274844590615157e-001,
          -1.4536382495201838e+000, -1.0770211162501995e+000,
          2.1064089905196880e-002, -1.9337373459529434e+000,
          -9.9854287637909309e-002, -6.7100494975758940e-001,
          -7.2523458567901045e-002, 4.2321741559253218e-001,
          7.4574046745290529e-002, -7.9134127155640133e-001,
          -6.1412969996971933e-001, 7.7571741056227594e-001,
          -3.2062529404951012e-001, -1.2979497303444265e+000,
          -1.2120423138497198e-001, 3.8597099769656673e-001,
          9.8301646388426689e-001, 5.8591307567789996e-001,
          1.7003215335267102e-001, -1.9420079934739662e-001,
          9.8770361955939523e-001, -9.6666880037326453e-001,
          6.9295573225214446e-001, -5.1888248655356839e-001,
          -9.1248169452435790e-001, 3.6624836558345464e-001,
          -1.2183937048032878e+000, 3.2532251842532284e-001,
          -9.2568502115873599e-002, -1.2892674061968676e+000,
          -1.0453691222225410e+000, -1.2410481923616703e+000,
          -1.5708549355072234e+000, -1.3262768523937882e+000,
          -1.2832138884454478e+000, -1.8584024754893769e-001,
          5.2906087579742411e-001, 5.3086311619166271e-001,
          -1.2368869197479493e+000, -1.3971971180613538e+000,
          -4.9880852588573982e-001, -9.0304893578520973e-001,
          -1.2253016700422008e+000, -1.4005361637821057e-001,
          1.0015156699500967e-001, -1.0382073025239977e+000,
          3.1346686693732206e-001, -3.3231612086832618e-001,
          -1.0411689315623238e+000, -1.4648439672559472e+000,
          -5.6190911225274565e-001, -4.7580848710956186e-001,
          -5.8205249160695904e-001, -1.3771906165155376e+000,
          -1.8498919230607001e-002, 7.6227437605824389e-001,
          -1.0412090964736174e+000, 6.8390896414902769e-001,
          -8.3172868032692304e-001, -5.5831967440353514e-001,
          -1.2905268291231808e-001, -7.1400237515663134e-001,
          -1.0397825407383048e+000, 3.1522316391717944e-002,
          -9.1636230844702526e-001, -4.1092257715816199e-001,
          9.0710730496660807e-001, -3.8245574344054689e-001,
          1.2794594305200582e+000, 7.1200688381666721e-001,
          4.9887509697242127e-001, 7.0384250278118632e-001,
          -1.1076439570714387e-001, -1.5443737593181842e-001,
          7.4389716405633821e-001, 6.5130048248648575e-001,
          7.9360260536709548e-001, -4.8230461338062552e-002,
          7.3066353400032225e-001, 1.0796724425699891e+000,
          -6.5097526116677384e-001, -2.7211466051902961e-001,
          1.2244867861430266e+000, 2.0046977593036003e-001,
          -1.2287413268668870e+000, 5.6386803742302549e-001,
          -7.0463115116727182e-001, -5.1161502953472682e-001,
          -1.0479515344008650e+000, -4.0957731729036012e-001,
          -1.2207715783299207e+000, -5.4627876718287505e-001,
          -8.3066507557478941e-001, 5.6299523881580098e-002,
          1.3674303361237269e-001, 6.1068938280388907e-001,
          -6.4346787142513784e-001, 4.9762264324362571e-001,
          7.5609876814919252e-001, -1.3046910896301482e+000,
          7.7404466000413774e-001, -5.5438591373767698e-001,
          5.9777766504078689e-001, 1.2353437152246289e+000,
          3.1000503978245342e-001, 1.6324418463752088e+000,
          9.4849257558926214e-001, -1.1209609023312757e+000,
          -1.2463513879697874e+000, -4.5112568941574871e-001,
          2.7078243395505069e-001, -1.6783715172763722e-001,
          3.2826958675553569e-001, 1.0902339997427266e+000,
          1.9414048688556984e+000, 8.6056115418515267e-001,
          1.1393795004478260e+000, -8.7261812768516323e-001,
          4.9722101433790894e-001, 1.1978674953280607e-001,
          2.1473786195870250e+000, 7.6536934006128665e-001,
          4.2551476014051848e-001, -2.0364145136104570e+000,
          1.0282066676518107e+000, -7.9289219691469770e-001,
          -1.8105766797516898e-001, -3.7134153010519505e-001,
          -6.0183880283027325e-001, 1.9120293286791401e-001,
          4.7107145968671488e-001, -1.3326662730945298e+000,
          -3.9195701896082347e-001, -3.4357736088372060e-001,
          7.1177663188235885e-001, 3.0792197201637053e+000,
          -1.6857559874380557e+000, -7.3440103170699167e-001,
          8.3082694246091493e-002, 7.4512587149567922e-001,
          -1.2718764742364799e+000, -3.2899494326026679e-001,
          -8.5368105058027233e-001, 3.2179556949575311e-001,
          -2.9469720196762049e-002, 6.5076360714225803e-002,
          7.2007212141520088e-002, -9.5716413687402224e-001,
          -3.0169774779441594e-001, 7.4246972482331874e-001,
          4.9310108032274280e-001, -4.5982731405115018e-001,
          -1.9881742372542744e-002, -5.7061538197473871e-001,
          -1.8267993052218210e+000, 2.0240634337921626e+000,
          9.2213567037010291e-001, -1.1138199835223015e+000,
          -2.4174429736403907e-001, 6.1382604149172115e-001,
          -2.3900971557770673e-001, 1.2792818302821971e+000,
          -9.6136869889965715e-001, -5.3838440288865130e-001,
          1.3135291360759607e+000, 1.6284780470389987e-001,
          -5.9953920710083142e-001, 7.8258859079781173e-001,
          -5.1743406933024962e-002, 7.8431282627608123e-001,
          1.4471386481479151e-001, -8.3208391917362434e-001,
          -1.1962531738436126e+000, 4.1267406410012192e-001,
          -6.2967841247790579e-001, 4.2396060843579109e-001,
          9.3813345606500076e-001, 7.4044784044432932e-001,
          1.0647084825551702e-001, -1.1447391716905087e+000,
          -1.2770364991207108e+000, 8.9166441834793264e-001,
          -8.6181481790737213e-001, -2.4687111287467942e-001,
          7.0507998416045159e-001, 4.2152990499461168e-001,
          4.3465266508978979e-003, -6.0153598220699778e-001,
          -1.3789091782385625e+000, -1.0557542140570986e+000,
          -8.4712588796021171e-002, 6.5077392580705717e-001,
          -1.2536495227718667e+000, -3.7510193627597088e-001,
          3.6506255006918886e-001, 5.0389969683419189e-001,
          -4.6582351370703518e-001, -1.1224970731807340e+000,
          -4.5340296437133248e-001, -1.6863057874666090e-002,
          1.8764053722224627e-001, -4.1999575079600510e-001,
          -5.5274275698998072e-002, -3.8139062680440472e-001,
          -4.9859929525417052e-001, 3.2854818976540817e-001,
          -8.9845271534884141e-001, 9.2034014184049628e-001,
          5.8587670332554875e-001, -2.8832096804001905e-001,
          3.8634306952312625e-001, -4.5306311855229353e-001,
          -5.2647582498937995e-001, -9.6861549384078127e-001,
          -2.5193160484180088e-001, -4.9191270065693882e-001,
          -1.5797285290925769e+000, -4.9621539481148791e-001,
          1.3846981798280453e-001, 5.5713152170177560e-001,
          -8.9596827506010090e-001, 1.0267445655270711e-001,
          -4.8760228521395355e-001, -9.2874953061461998e-002,
          -1.7395176444981922e-001, 5.4742286819076535e-001,
          4.5941140544124093e-001, -6.8546403485203400e-001,
          8.8444362390351539e-001, 4.0256436977683641e-001,
          8.5650400542186400e-001, -6.0346009531238441e-002,
          2.7516290728418186e-001, -1.5925040072556056e+000,
          5.8287402665325772e-001, 1.0866807713689313e+000,
          7.8953825395715760e-001, -1.3367091845919554e-001,
          -2.4830767102632453e-001, -9.3366538805812560e-001,
          6.7481110575388803e-001, 1.0592862637321294e+000,
          -3.3597160576018653e-001, -6.4058983155954397e-001,
          8.0054225420631198e-001, -1.3068098920490545e+000,
          4.2386904161780103e-001, -8.1564821923651287e-001,
          9.1211623644295678e-002, 4.3312623925033622e-001,
          -7.9417929124499254e-001, -8.7023774515708163e-001,
          1.3925795444804159e+000, -6.7948691890211677e-001,
          -5.1083956761391092e-001, 9.2500118388054364e-001,
          2.7789584856308136e-001, 6.5386305867434102e-001,
          6.4773217496310403e-002, -2.9764191363769149e-001,
          1.5318772730890823e-001, -5.7907887221970022e-001,
          -5.7611489269696803e-001, 3.7048572410452885e-001,
          6.9408448269163847e-001, 1.8218848929141318e-001,
          -1.2622212358090457e-001, 7.0572617185996167e-001,
          7.3336166074072417e-001, -2.9094976014958206e-002,
          -1.2295073869466395e+000, -3.6591407224027656e-001,
          2.2818045513577551e-001, 3.5761876426740213e-001,
          -8.9477814358494268e-001, -6.9491196430366975e-001,
          -1.0693952181125155e+000, -1.3384992999564549e-001,
          -7.2656455632833421e-003, 3.2132695657565569e-001,
          -4.3820399737063076e-001, -9.0504830924337498e-001,
          1.7211736600672309e-001, -2.1830860190625884e-001,
          -3.1088051008504414e-001, -1.3497925082307483e+000,
          -7.0940829363936608e-001, 4.6639295380365474e-003,
          -1.0128745379873110e+000, -8.8328286767912811e-001,
          -1.7268381247573536e-001, -6.9693056699594969e-001,
          -1.1550084061721524e+000, 4.9831546004342597e-003,
          6.0083230759862083e-001, 9.5207398061247575e-002,
          -1.5692493705170638e-001, -1.1199434854166157e+000,
          -7.0769307637966916e-001, -9.1541484086628544e-001,
          -3.7436347256896979e-001, -8.0301149394756333e-001,
          -9.0520423828477059e-001, -6.2815709816997767e-001,
          -1.2912854747327063e-001, -1.5727147109756581e+000,
          -1.0122578927912975e+000, 2.8342509389744036e-001,
          -1.3331333818097506e+000, -1.5402935174126323e-001,
          -6.6311654897985661e-001, -7.1582424543519610e-002,
          9.9893498500147426e-001, 3.4689570829256902e-002,
          1.0586097130212417e+000, 2.1242058263001215e-001,
          2.4084562263307416e-001, -9.9833802676790373e-002,
          4.3574342758843848e-001, 2.8054351816361395e-001,
          1.3797634389817981e+000, 1.2571429418931366e+000,
          -5.5294645385504082e-001, 6.5954451558217453e-001,
          7.2114463071285395e-001, 1.6366012496062852e+000,
          7.5475392742112724e-001, 9.2325241878841258e-001,
          4.3102873608729231e-001, -2.8577765561804125e-001,
          1.0646884287811045e+000, 5.5167575169128757e-001,
          1.4893689497124329e+000, 9.4326219166850800e-001,
          6.8995375674717885e-001, 1.1932788400131378e+000,
          1.0336747699969770e+000, 1.2241297243538922e+000,
          9.8693011787766061e-001, 1.0687814512224589e+000,
          1.1657972217317336e+000, 3.8251837401513161e-001,
          9.3936412968983007e-001, 9.1296082838586062e-002,
          1.1407975729634909e+000, 4.9230630193549629e-001,
          3.2555336903207316e-001, 2.4791414913758174e-002,
          1.0699305976580774e-002, -4.0008133185031339e-002,
          -8.7493578957415674e-001, 1.1511978418702642e+000,
          3.7672162318423702e-001, 8.0374241724731443e-001,
          -4.5813511560621900e-001, -2.8520331266408355e-001,
          -9.7953676243792664e-001, 1.1451150206394827e+000,
          3.0001995941847853e-001, -3.1020311262364764e-001,
          -1.3664588665164306e+000, -3.8732336118657784e-001,
          7.3314805651404069e-001, -9.1845019234333858e-002,
          7.4441761526398575e-001, 6.4193380169915007e-002,
          1.0165288879949173e+000, 1.1163136011950139e+000,
          1.3633616548434984e+000, 1.6384714861112055e+000,
          -8.1737309718548068e-001, -1.3054380249477622e+000,
          3.4049964496030255e-001, -5.8654925233818600e-002,
          6.4237280202035485e-001, 6.5034997250497073e-001,
          8.1909430178725329e-001, -9.7309930355281586e-004,
          -1.1277722812071897e-001, -9.0875326464885242e-001,
          1.1444155978475969e+000, -1.4129552217893364e+000,
          3.9368456166622462e-001, 1.0655974205530834e+000,
          -4.3493378167726932e-001, 1.0744442452741131e-001,
          9.6308479861137730e-001, -1.0252464529149130e+000,
          2.5989852449047091e-001, -3.5588203824620684e-001,
          1.3225138191325239e-001, -5.8246844730802250e-001,
          -5.6159380438678486e-001, 1.9527265083257006e-001,
          1.2918441098792719e+000, -2.9196220309714771e-001,
          8.9254133317803208e-001, 5.2818202492889799e-001,
          1.1504793398786572e+000, 4.6496849002638718e-001,
          -2.8770415109138164e-001, 1.2136332498572890e+000,
          6.8163832642551980e-001, 6.8572610801883302e-002,
          -2.6714309221564864e-001, -7.5329042943594582e-001,
          8.1985581472923008e-001, 4.2655222147884315e-002,
          8.7423735006533487e-001, 3.3853317051321341e-001,
          -2.2461948496078479e-001, -9.0413070193794548e-002,
          -9.3453586272248215e-002, -8.5699516778525153e-001,
          2.7809199664222789e-001, 1.3051356600307131e+000,
          -6.3092514258494925e-001, -8.1081775682411228e-001,
          -4.3650129643360830e-001, -9.1012983220522026e-001,
          -8.1905321441000500e-001, 3.6796820929822471e-001,
          -6.9938360730000515e-001, -9.8115377583349817e-001,
          -1.1464084447333229e+000, -4.8191645645540376e-001,
          -1.2403478838768098e+000, 4.5850056067213618e-001,
          1.1691171859561438e+000, -6.8977542007660475e-001,
          5.7802220430818382e-002, -1.3169026939916890e+000,
          -6.7491473993080831e-001, -1.6046096109368568e-001,
          -1.2171896228592245e+000, 3.3962553929362543e-001,
          2.6198489185363044e-001, -9.0704015950148165e-001,
          -1.8264515361592443e-001, 1.2624670894255217e+000,
          -1.7900455143116872e-001, 2.0989488189895447e-001,
          2.1140148423260513e-001, 3.1559011749643268e-001,
          5.2907696801855741e-001, 5.0671023455292374e-001,
          -7.8100200277524401e-001, 5.6874643344899989e-001,
          -2.5674666310468396e-002, -5.9545721696884524e-001,
          -4.2380938030179449e-001, -7.0813704768248154e-001,
          2.1659596194767408e-001, -9.6593279970758916e-001,
          6.6149933507770142e-001, -4.6771301663290743e-001,
          7.5535170833041798e-001, -1.3437034976636666e-001,
          -4.1678455895926602e-003, -1.2824384701009302e+000,
          9.0547689381894905e-002, 3.2522519701203528e-001,
          -6.6283185590822913e-001, 7.8308904044640491e-003,
          -4.3594583409148258e-001, 3.0523097577331187e-001,
          3.6213792798210076e-001, -9.5874923469606177e-001,
          -9.0426262149071412e-001, -3.1729347846748235e-001,
          -1.3762342538331345e+000, 4.9055681489553554e-001,
          -4.2746963591904052e-001, -1.9275434093731175e-001,
          -1.0995171026157269e+000, 5.1921258102809209e-001,
          1.8827735866711884e-001, 1.3841491179683832e-001,
          9.3650870001003472e-001, -1.8024246802456321e+000,
          6.2786288491274489e-001, 7.2902379278787710e-001,
          1.7197378548568949e+000, 9.5322098260520682e-001,
          -3.8101491115875991e-001, -4.9305892372837290e-001,
          -9.5950603581833127e-001, 9.1844629671698963e-001,
          1.5410657571021238e-001, -1.4789401483232448e-001,
          1.0004122331530800e+000, -7.0814088158797839e-001,
          2.7001026759307983e-001, 1.0435914282747953e+000,
          -3.6213576313686574e-001, 6.0467543284324687e-001,
          -1.5263535363863894e+000, 6.3076200671411919e-001,
          -1.5715790796395523e-001, 7.6411799511144107e-001,
          7.5694893887333026e-001, -1.0272311066334159e+000,
          -4.5517207463482862e-001, -3.5782469005620732e-001,
          2.0339610834991823e-001, -5.5848666836353766e-001,
          -7.0276612023798102e-001, 1.1351091249355805e+000,
          -1.2458632345273370e+000, 5.6762599759840948e-001,
          6.5238419656012392e-001, 4.7394434083622566e-001,
          8.6229639306521944e-001, -1.5041208308816933e+000,
          -4.1950517206330845e-001, -3.7958735098675533e-002,
          1.3381814048066720e-001, -7.6938966872620151e-001,
          -5.6179593146140250e-001, -5.0792295543231236e-001,
          2.2084657978820890e-001, 2.5216818452374784e-001,
          -4.5400098677631545e-001, -1.7897242433846290e+000,
          1.4001503606643126e+000, -1.0985176246956045e+000,
          7.2245833502482582e-001, -5.4959950035351823e-001,
          1.0733893949368228e-001, -8.9743762950226558e-001,
          -6.3669596454482369e-001, -1.5754582204202974e+000,
          -1.0189341172072901e+000, -2.2394972641095515e-001,
          -7.7856669322277627e-001, 2.3349863749293098e-001,
          -8.6748097641999966e-001, -2.1714820990460795e-001,
          -1.8313675215215368e-002, 7.8830614378225050e-001,
          -4.0142816252518476e-002, -5.8644485237179411e-001,
          -7.6806785632435981e-001, 8.6258399212479298e-001,
          -7.6518632097962413e-001, 7.9556181773834189e-001,
          -3.6606583501363543e-001, -3.2987241604054508e-002,
          -4.8097804522307797e-001, -1.0824638208833186e+000,
          7.1538605846151049e-001, -1.4398558255847089e+000,
          -6.5512023349861415e-001, -3.7501519143086437e-001,
          -1.0223220035274003e+000, -8.3803387442644039e-001,
          -1.2881325792392267e-001, -1.0061810158434210e+000,
          -1.1926706898181021e+000, -5.3235179759657114e-001,
          -2.6458047840807392e-001, 7.6235528392051222e-001,
          2.2045778439709025e+000, -8.0781613451798773e-001,
          -5.9537507210412821e-001, -8.7823042779723548e-001,
          8.6394690941025953e-001, -6.6845827709765271e-001,
          -2.7611877659690137e-001, 5.9032921536041594e-001,
          -7.2631039674493503e-001, -2.5333314262472334e-001,
          2.6016712574418274e-002, 5.1291008219272327e-001,
          -1.0598715823311027e+000, -9.2971156233501207e-001,
          -1.2438642559513791e+000, -1.5159834866384247e+000,
          1.1575811220466205e-001, 5.1962249335091759e-001,
          -1.4123732708161874e+000, -4.9850933952437276e-001,
          -2.8476741809234751e-001, -1.3405873984625520e+000,
          4.3103904776457291e-001, -8.4094473472379050e-001,
          -3.5850036620361520e-001, -1.9472415844679443e+000,
          1.9730583323591386e-001, 5.8706741299908327e-001,
          3.8922875316596561e-001, 3.1237944866680623e-001,
          4.1406604153954812e-001, -3.6523037785721002e-001,
          -8.0973355345660747e-001, 4.9713405419717538e-001,
          -2.7826218073554232e-001, 1.1473292792168932e+000,
          2.6190148863640095e-001, 5.6433743789060808e-001,
          1.5409268536606854e-001, -7.6806221265552366e-001,
          -5.9855629433225720e-002, -6.8946911792433763e-001,
          -1.8658601628816496e-001, -7.5609375983117372e-002,
          -1.5606951856034248e+000, -2.9858880796807880e-001,
          -7.0880704213379320e-001, 5.8579465994765967e-001,
          -4.3453886020798266e-001, 1.2011411687777971e+000,
          7.5514948961553474e-002, 3.4409694271474972e-001,
          -3.1001759022076414e-001, 6.0930069425778233e-001,
          2.0792303171593080e-001, 9.9744837273014786e-001,
          -8.3271336334549939e-001, -1.0731049624942597e+000,
          9.2109236648367232e-001, -3.2294664885156826e-001,
          2.1786683902496104e-001, 3.5113522363658783e-001,
          8.0988777053015060e-001, 1.8182044395400088e-001,
          6.8723930494279151e-001, 6.0619220563358844e-001,
          1.2133148004385548e+000, 7.0585709920663708e-001,
          4.7534242539870636e-001, 2.3814797859939060e-001,
          1.6735489364420453e+000, -1.0455612831285468e+000,
          -4.6930800142964413e-001, 1.2319450027739256e+000,
          -9.1123628353811859e-001, 1.4383423479457966e+000,
          3.2853690661304802e-001, 2.8427208131926157e-001,
          -4.7944489299119453e-001, 4.7653990091603432e-001,
          1.0959670991415529e+000, 1.4644877995384133e+000,
          2.8760526492444477e-001, 8.8245483757706422e-001,
          -4.7397901574975881e-001, 1.9728663247711764e-001,
          -7.8405407871259980e-001, -7.5280520758517599e-001,
          3.2790860483975265e-001, 8.5996095843030163e-001,
          -2.5547320388639955e-001, 3.0905200105736569e-001,
          -5.7563559594581926e-002, -5.7101291688162970e-001,
          2.6487575915942152e-001, 3.0457432971316345e-001,
          3.8272204065430043e-001, -3.0273651414763164e-001,
          -4.5402472939712951e-001, -1.0756216270211725e+000,
          -1.0924353029757761e+000, 1.1750070405155455e-001,
          -3.2682078492983879e-001, 7.7084533699513536e-001,
          5.6232040580180787e-001, -1.4014812406682500e-001,
          2.9900760244652341e-001, 6.4979368470495735e-001,
          1.9545055896307845e-001, 5.3001686536535253e-001,
          4.2626352164223100e-002, 6.8732149863420222e-001,
          -1.0055220211413343e+000, -7.5130717372208988e-001,
          5.8238530298272240e-001, -1.1507543255437157e-001,
          -4.4867438661659381e-001, 9.4866027471147440e-001,
          -4.1116236162830566e-001, -7.1497966270136304e-001,
          -1.3056986066662857e-001, 2.6087403735553988e-001,
          2.0078303176278081e-001, 8.9329014064932433e-001,
          3.5305754238659665e-001, -5.9749485660926849e-001,
          9.3726480050215988e-001, -2.3029571759838924e-001,
          2.9690106006383077e-001, -1.0829105978516902e-001,
          9.4162120109271841e-001, 1.3504167225777013e+000,
          -7.7929435417016335e-001, 9.1957883356828640e-002,
          -9.9374526941271879e-001, 1.5937548522206493e-001,
          6.9699425106406573e-002, 7.3511796024750131e-001,
          -8.2413988130486771e-001, 1.1478237233230901e+000,
          6.3891575287640179e-001, -9.2956509244297914e-001,
          1.3758334282895162e+000, -1.0349719407963563e-001,
          1.2177081995412309e+000, 5.4521433382536466e-001,
          -6.7525705779497813e-001, 1.2915982761829861e+000,
          1.1676416055607377e+000, 2.5915794334725439e-001,
          1.1461659383546281e-001, 6.9114207735716660e-001,
          3.2064201132456127e-001, 7.6402554052224048e-001,
          4.6369725425702896e-001, 4.9933867421030675e-001,
          2.1022847919668833e-001, -5.6779376151725758e-001,
          -1.0667147539983660e-001, 5.0220385548752033e-001,
          -7.4624502771707979e-001, -4.5659941142564037e-001,
          -1.5023629563272356e+000, -1.9828893098256392e-001,
          6.8726900069927799e-001, -3.9472636505992620e-001,
          -1.3879316099202976e+000, -9.8413298269373825e-002,
          -5.5123656597595905e-001, 7.8674390017685714e-001,
          3.6034152344786741e-001, -5.8724337180800545e-001,
          4.6090448457617894e-001, 3.9358904594581395e-001,
          -1.6853865965198207e+000, -7.2893763284942226e-001,
          -1.2287290009573353e+000, 4.0245271875569311e-001,
          -1.5371982988800117e-001, -4.5640350645241018e-001,
          -7.7455231125661150e-001, -7.4775851941932148e-001,
          -8.4375574212248228e-001, -8.0004682751210823e-002,
          -1.0955512532640621e-001, -7.1940634320812513e-001,
          2.5466738844802533e-001, -1.0214298288615187e+000,
          -3.0159109044462101e-001, -2.2615506465729567e+000,
          -6.9441646611122498e-001, -2.1080826409921288e-001,
          -9.6969679655618568e-001, 4.2300549697976925e-001,
          6.0700739432875606e-001, 4.8954951530985308e-001,
          -2.2058107690965401e-001, -3.5421445015362779e-001,
          1.7509798753519139e-002, -4.0676744209697518e-001,
          1.1972779941707818e+000, 1.1647404778678221e+000,
          5.8229521399731776e-001, -2.1128415591850000e-001,
          -2.3563585170605794e-001, 1.2169049887011449e+000,
          6.0170607829065070e-001, 1.5357073470026643e-002,
          1.4165851765288133e+000, 6.9744251441232474e-001,
          1.5295971424292036e+000, 7.3400140144086257e-001,
          1.2486671533157558e+000, 9.0638729186359124e-001,
          1.0335243307092272e+000, 3.9040821156112715e-001,
          -1.3821161017202246e-001, 8.8336238054669824e-001,
          7.7244863286402521e-001, 1.4681343624477092e+000,
          3.0005807555419706e-001, 1.1179034463995852e+000,
          1.4676771233149053e+000, 3.5206517733720311e-001,
          1.0051621221428719e+000, 9.2627829411687845e-001,
          5.7240188999325969e-001, 9.5195175845340929e-001,
          1.5767726726291614e-001, 7.1003520873964077e-001,
          8.2689464415405489e-001, 1.0395617586209285e+000,
          1.9191473324414010e-001, 9.4855342069942783e-001,
          -2.7262396896951541e-001, 1.3896460485577806e+000,
          -5.1034063104382077e-002, 6.1887272326108578e-001,
          5.7722281051607172e-001, 4.5666595186164222e-001,
          1.0351327732105551e+000, 4.3755267336523845e-001,
          -1.3288105488827171e+000, -8.3086956987301108e-001,
          5.1868738494875596e-002, -8.4258666542252636e-001,
          -1.2250899060300846e+000, -5.8383728981041250e-001,
          -1.0020628411202650e+000, -9.6760817512773234e-001,
          -7.5980202174292222e-001, 9.5723375706058308e-002,
          -1.1458221740919932e+000, -8.5239787007428014e-001,
          7.3807095698746983e-001, -1.7667490972262319e+000,
          2.5560656487664618e-002, 3.7922550247367387e-001,
          -1.7578133012138806e+000, -1.0954096053335591e+000,
          -1.4763193004390759e-001, -6.8236955225630458e-001,
          -8.9628807542452249e-001, -1.8056163541009822e-003,
          -2.1117093513786156e-001, -5.1530580217939903e-001,
          7.4198733365871600e-002, 4.0810151029945674e-001,
          -8.5650332100945592e-001, 2.7117063516036827e-001,
          -3.4604872993878233e-001, -7.4459174513223669e-001,
          -5.2888347896264454e-001, -3.4079460173687148e-001,
          -6.2746138967844567e-001, -6.2678773410256938e-001,
          -1.0553026459336265e-001, -3.8529202523539718e-001,
          -1.2028842067959016e+000, -1.3269437179939609e+000,
          -1.0927525666576972e+000, -5.7094541403233134e-001,
          -2.7135427233607357e-001, 9.6926854277791719e-001,
          -1.4125667962795488e-001, -5.4320316025557858e-001,
          -9.8253149589321032e-001, -2.3376782586286368e-001,
          -6.3107067069359057e-001, 3.8446002318443862e-001,
          -2.3532411044979690e-001, -3.5216125602095405e-001,
          -4.4672884245190136e-001, -1.0228683609146847e+000,
          -7.5331111771708470e-001, 8.6317207475993141e-001,
          2.2193454623061220e+000, -3.6501829189097085e-001,
          1.5449352046479283e+000, -7.6248123230555798e-001,
          -3.5374475313219822e-001, 5.3890360185298192e-001,
          1.8816643114187397e+000, -1.2183618464187331e+000,
          5.2427635070484535e-001, 6.5576759791902395e-001,
          1.0690314134451158e+000, -1.5856550948944199e+000,
          -5.8488608242481810e-001, -1.0076768602049015e+000,
          -1.1218080546538032e+000, -7.2744045194930795e-001,
          2.0836065109349336e-001, -2.9207907005421953e-002,
          9.1008983452361492e-001, -6.5490904464179500e-001,
          -4.7900607293733510e-001, -2.7392667855845471e-001,
          -1.6146490118677417e-001, 1.9362486079337110e-001,
          1.4014713163919879e+000, 2.6608372692975474e-002,
          1.5350128568103301e+000, -7.5668907163596566e-001,
          3.8444676730916616e-001, 5.2025763355513521e-001,
          2.5294396871523800e-001, -4.0773214359804266e-001,
          1.1834741177611607e+000, -6.9646288937607315e-001,
          3.1167879885762323e-001, -9.6308531777321416e-001,
          9.6345676962941151e-001, 1.1788667646833129e+000,
          -1.9978622500524545e-001, -5.8703334363261261e-001,
          -9.0981624392202576e-001, -7.8590147498892016e-001,
          9.8225387301285849e-001, -1.0604373285715047e+000,
          6.0606973105407053e-002, -8.1738108218306538e-001,
          -1.0005697623419190e+000, -4.5595880359705487e-001,
          8.3022794665603938e-001, -7.5765285897988768e-002,
          -1.2356304184161032e-001, 6.1166635777992717e-001,
          2.6205939724250782e-001, 1.1210598559599669e+000,
          8.6975922697731434e-001, -4.9020383741960416e-001,
          4.1137202299278658e-001, -6.6888714368772950e-001,
          2.6754266015835798e-001, 2.0410183190614092e-001,
          2.2535834722697451e-001, 5.4625225051873052e-003,
          -2.5843918509498420e-001, -4.4365241117324034e-001,
          8.3080851180271864e-001, 4.0552390452396370e-001,
          -3.0905995163676203e-001, 9.5818228771810732e-001,
          -1.3399912381894244e-001, 3.7013413802489065e-001,
          1.0072885471318105e+000, 7.8982399605561981e-001,
          6.3750631878279385e-001, 8.0261085645205454e-002,
          -1.5904225618213014e-001, 7.4710832698657337e-001,
          7.9669365037239859e-001, 1.9171513245104055e-001,
          -7.0828626955642723e-002, 7.5948231578786318e-001,
          1.1494966338421151e+000, 6.0344525315354536e-001,
          7.1553074944264039e-001, -4.6269671211662186e-002,
          9.2446652114747652e-001, 1.6633010515056703e+000,
          6.3873453952926840e-001, 2.7156789227507949e-001,
          -1.8331514415690575e-001, 1.1539735343236585e-001,
          6.9358295160478112e-001, 1.0692165727405790e-001,
          2.2890450085249331e-001, 1.1175996949362179e+000,
          6.6895095930716175e-001, 5.6865824278227795e-001,
          1.2400954514259614e+000, 3.2712321780852105e-001,
          4.4631371511880047e-001, 2.5293513880366919e-001,
          1.1038479525828064e+000, 9.1796088035520218e-001,
          5.4085735305901417e-001, 5.5324066054971988e-001,
          2.8456496813322374e-001, 1.3278126165615431e-001,
          1.3542270679222737e+000, 8.3912691426719954e-001,
          -4.3969749889032189e-001, -1.0450437826897481e+000,
          1.1776081286851925e+000, -1.6703192469823953e+000,
          -2.4564707742586853e-001, 6.7546745736494807e-001,
          -2.4054129357123644e-001, 2.0116110419524094e-001,
          -1.0454400699217272e+000, -4.8919615561123009e-002,
          3.5111283060167253e-001, 1.4849037722717668e-002,
          -1.3457806539844861e+000, 7.4570888488033504e-002,
          7.9958152509111036e-002, -4.4884881142309824e-001,
          4.7723166786599985e-001, -5.9271194634775581e-001,
          -1.5665083588579401e-001, 9.2440228859072471e-001,
          -3.9064795835881272e-001, 3.3768842548931216e-001,
          4.6920729306887132e-001, 4.1814002838696368e-001,
          -8.8639970317993547e-002, 2.7204449094160155e-001,
          8.2646875187023627e-002, -8.9993995768855040e-001,
          3.8161707408448063e-002, -5.7980466692983867e-001,
          1.4291803678410925e-001, 4.2431539706601856e-001,
          -4.7201664572194668e-001, -1.4158484523530597e+000,
          -1.0928683847219129e+000, -9.5195762485250568e-001,
          -1.2071011111137120e+000, -1.2321708350951202e+000,
          -2.0421259400482264e-001, 9.6936072870808421e-001,
          9.4031267625399284e-001, -6.4053175520807182e-001,
          -5.2425898628239642e-001, -8.3355495035908345e-001,
          -2.4393534645906118e-001, -6.9648235272092185e-001,
          -9.8629562112894864e-001, -7.0843572477495442e-001,
          -7.0982510334591475e-001, 1.4655404199234842e-001,
          -1.4726864953775468e-001, 8.4746255371963974e-001,
          -1.9162931500428210e-001, -8.4131577246949862e-001,
          -1.2363117280172975e+000, -3.1651427400171755e-001,
          -3.5828138087119338e-001, 6.2258741073274740e-002,
          1.0407184911152528e-001, 3.1594617830895527e-001,
          6.7943347553438416e-001, 2.7124792064631603e-001,
          -3.7712808579415463e-001, 5.4089962521539880e-001,
          -1.3055063043533272e-001, -4.4973224420567622e-002,
          7.4359797065429811e-001, -2.3668646900135129e-001,
          -9.8560647963398529e-001, 6.0082863284683130e-001,
          -5.4880212868575229e-001, -9.4531384231428872e-002,
          1.8086161145144186e-001, -1.1354561590900765e+000,
          2.8347538961402935e-001, -3.0187793775619146e-002,
          -4.4783001791154309e-001, 7.5736181958317467e-002,
          -1.5983100988467742e-002, -5.0287912149837488e-001,
          -1.0268874433812601e-002, -8.4770754973846307e-001,
          -7.8729204992604329e-001, -1.2480088446215463e+000,
          -7.7704056350248873e-001, -7.8144798944657179e-001,
          -9.9491757091375788e-001, -1.5142507384683079e+000,
          -7.8254998768256007e-002, -7.0888028578182938e-001,
          -1.9692187487382717e-001, -1.0456789375952802e+000,
          -1.2333318586299433e-001, 2.4239602237775734e-001,
          -1.0343439185719590e+000, -1.9954436673668377e-001,
          6.2200560510538327e-001, -1.8258385990304429e-001,
          -1.4149093997201251e-001, -1.2102603806779459e+000,
          -1.3957542633941398e+000, -1.3239770723269673e-001,
          -4.0104255174184966e-001, -1.5215013071821357e+000,
          -6.9997844586364710e-001, -8.4672199121947511e-001,
          -7.4240253058438876e-001, -9.0147725405472645e-001,
          -6.1400341822031845e-001, -1.4902713967593604e+000,
          -4.7627583827827102e-001, -1.4517787946024282e-002,
          -1.1484826989634449e+000, -9.9334476266638860e-001,
          -7.7454666299300856e-001, -5.2998247299585854e-001,
          -2.8811255125830199e-001, -8.2036360703966704e-001,
          -3.4394854421093357e-001, -5.4337701527085747e-001,
          4.3233800165599756e-001, -8.7163899521619126e-001,
          5.8639898863204376e-001, -1.0691087366023595e+000,
          -8.3950635188721834e-001, 1.1422453282964856e-001,
          7.0344960373241583e-001, -7.0023240696264519e-002,
          7.9309745929632192e-001, -3.8262551040722070e-002,
          -4.6456470495851038e-001, 7.1408023056853076e-001,
          5.2915583171145564e-001, 6.3952413153952281e-001,
          4.8819053751466601e-001, -8.9626441052469374e-001,
          -2.5920149335906040e-001, 1.4958808518326056e-001,
          -1.2956560807899098e+000, -2.8823047271470859e-001,
          7.5233726416164470e-001, -5.1497232236146329e-002,
          -3.8559462895791791e-003, -6.5881591784068438e-001,
          -7.0189561784073251e-001, 9.6724317064951201e-002,
          8.6701903591337537e-001, 3.6617555106699207e-001,
          1.1708087795955466e+000, 2.6934075703510690e-001,
          1.0301864925835766e+000, -9.0114955915535289e-001,
          -2.4081967839805543e-001, -6.1083079640338533e-001,
          5.6697412650424095e-001, -1.8712077515108194e-001,
          -2.2116095058824539e-001, 5.5571303977178155e-001,
          6.5258717534512367e-001, 1.1244715950706217e-001,
          -6.9410575922201220e-002, 5.2811019129505887e-001,
          1.1534165855904159e+000, 1.4799854344175534e+000,
          -3.8590809442333701e-002, 1.8229940865425223e-001,
          2.3056643740036170e-001, -3.1238259133043150e-001,
          8.0886984125696215e-001, -1.4979199191849946e-001,
          -7.8811025044891625e-001, -2.4512110350662863e-001,
          6.8453981965058974e-002, -9.2345069338612695e-001,
          -1.7162760240703279e-001, -5.9377710938149675e-001,
          7.2313116742693040e-001, -6.7602998821651461e-001,
          -9.2691581880830942e-001, 4.5334706311017249e-002,
          -1.1468019425559655e+000, -5.6605732239057005e-001,
          2.3826749258523270e-002, -7.7025233654985176e-002,
          -8.0805411686315365e-001, -1.3395331616124850e+000,
          -1.2963740340660568e+000, 1.0448093718120437e+000,
          8.3201976245457207e-002, -4.6042974212752491e-001,
          7.0471525849695504e-001, -1.3613606622928869e+000,
          1.2177420903934271e+000, -2.6557104134893449e-002,
          -1.1462272786693530e+000, 1.0008160336353635e+000,
          9.3992819600828204e-001, -2.0168204118116187e-001,
          -5.3937986431986407e-001, -1.3344062647893886e+000,
          1.0791959656795327e+000, -5.8824924648223242e-001,
          -5.9228630969114282e-001, -2.6950441514291557e-001,
          -7.7251208036373387e-001, 1.9420636600432828e-001,
          -5.0037709967154576e-001, 5.1509081480964924e-001,
          -1.1684814721124658e-001, 1.0933917163351634e+000,
          9.1442778517968515e-001, 7.3305147955618100e-001,
          1.1693936539644854e+000, -2.6602788682497280e-001,
          -3.9971445787727482e-002, 1.4618169389494701e-001,
          1.2270873773519686e+000, -5.5834899843262620e-001,
          1.1490777840412287e+000, 9.5486665805361060e-001,
          9.1845765969055104e-001, 5.1956087740311435e-002,
          -1.6476773000227588e-001, -3.6742458923226451e-001,
          3.8049203083750827e-001, 3.3758942071672332e-001,
          1.3233147635110272e+000, 1.4246548316839061e-001,
          8.9856388304998824e-001, 6.4007009160864303e-001,
          1.2176453945374719e+000, 5.3074985166131253e-002,
          1.1624147179980915e+000, 1.3014465737074052e+000,
          7.8956913250980920e-001, 1.0961631831581440e+000,
          7.4622561024469947e-001, 1.0418222235925292e+000,
          3.8794682931965179e-003, 1.3835231337709747e-001,
          4.9280562939768435e-001, 4.2097799036618389e-001,
          7.2698042170102217e-001, -1.2060897150695230e-002,
          -3.4674521231261655e-002, 5.8852870953281533e-001,
          2.2768949881167416e-001, 9.9206034399843912e-001,
          1.0576821429039316e+000, 1.3624646703479366e+000,
          -4.3825937884236726e-001, 1.9874937295822345e-001,
          8.0134015466484187e-001, -5.2781347279107194e-001,
          8.2293811654936566e-001, 8.7277187495511555e-001,
          6.9458193476796715e-001, 1.5048300007550228e-001,
          -6.2148292138870354e-001, 1.2011421408432190e+000,
          -7.9786274891491993e-001, -7.9970035288822716e-001,
          6.1077045059220270e-001, 1.3693445947422209e+000,
          9.3214652484402527e-001, 9.1659594394180977e-001,
          4.7310624898867759e-001, -4.9828717468230760e-001,
          3.1002533401188526e-001, 1.5628185699335635e+000,
          3.1266856691367012e-001, 1.0728942420333438e+000,
          -5.0083497729267124e-001, -1.6366677268223767e-001,
          -1.2840484317720435e-001, 1.8124924458186240e-001,
          -6.4298361361148193e-001, 8.3449249609180487e-001,
          5.6592784360198944e-001, 2.4224535484040048e+000,
          -8.0069380505199605e-001, 9.0315628193877961e-001,
          -8.9328846837723530e-001, 6.9251631390529200e-002,
          -8.3290775015188515e-002, 6.2533701085071791e-001,
          1.3899127622512000e-001, -2.1112917640357396e+000,
          1.5839384015921745e-001, 1.0747675911786512e+000,
          -4.8322358213771163e-003, 8.3831182305753427e-001,
          1.1363724605302832e+000, -9.0305260611349802e-001,
          -8.1002267757331692e-001, 6.0756344379047388e-002,
          -5.8183384208688083e-001, -6.2304975647745897e-001,
          -9.4968807917794440e-001, -7.0803753706036621e-001,
          1.1004812610352221e+000, -2.3385480529527050e-001,
          -1.6249278401493268e+000, 6.2328126213460966e-001,
          -6.8349032731404330e-002, -4.2009093228594319e-001,
          7.3627509877925290e-001, 8.2578364264185677e-001,
          2.3358555321268089e+000, 3.7147643890871246e-001,
          3.7748512604648160e-001, -6.2936603390637080e-001,
          2.5046796284029149e-001, 2.6684738492294607e-001,
          3.3002367010412204e-001, -5.8872063091385107e-001,
          -1.1951129917173007e+000, -5.1241843399313280e-001,
          -1.9821376785968117e-001, 1.1639225841475805e-001,
          -4.3277227116288182e-002, 8.6590699281812389e-001,
          1.1923472775422981e+000, -3.8479846587181948e-001,
          -5.4490371651242875e-001, -4.9393073238670371e-001,
          -8.5659381785996280e-001, 2.1704164777264806e-002,
          8.7142979122535602e-001, -5.0518674045516321e-001,
          1.0626280482004029e+000, -7.5203354080023120e-003,
          -6.8425752759509928e-001, -2.6982591513332660e-001,
          2.1737871210060913e+000, 8.1100556846129856e-001,
          -2.1832953449775147e-001, 1.0271330865978651e-001,
          -1.7382258859729076e+000, -2.8400875658666414e-001,
          -1.4071219034514513e+000, 5.0663035485971819e-001,
          -5.1702447881927072e-001, -9.4772029370290189e-001,
          -9.3632267767110630e-002, 9.8286909632111219e-001,
          -1.0404431268633874e+000, 3.7527353723797491e-001,
          3.1910246226919065e-001, 9.1569958214059688e-001,
          8.9751084880711374e-002, -2.2397464981558418e-001,
          -1.4673657403386813e+000, -3.3294197209772575e-001,
          -1.5195515050759045e+000, 8.5404545982346058e-001,
          9.1382269568171959e-001, 1.4200984870872455e+000,
          4.0490847915050360e-001, -1.4474954170194440e-001,
          3.0041418928670705e-001, 3.2528769156553378e-001,
          3.9402009180369957e-001, 7.6633476271551160e-001,
          -5.9674132519039436e-001, 4.1381934276602805e-001,
          -9.9096718250171689e-001, -8.8609547011353995e-001,
          -4.3043197376834269e-001, 7.3436796436455831e-001,
          -4.8487177438062734e-001, -1.1990653794629291e+000,
          -6.6511573058848816e-001, 3.2830094546141442e-001,
          -1.5604363641262344e+000, 4.5874222412329468e-001,
          -9.4756759080912067e-001, 3.5384745470304999e-002,
          -1.5542916222754908e+000, -1.2797478719985056e+000,
          -4.7175936129762835e-001, 1.1003592624616811e+000,
          8.8952002167425837e-001, -1.7524706045783778e-001,
          2.1765583502483710e-001, 1.9353296580808237e+000,
          -3.8098376635660774e-001, -5.8650939742467723e-001,
          9.4390183677659412e-001, -1.3106793280454965e-001,
          -2.5210821456667670e-001, 1.4988572615033251e+000,
          -1.4233506036163992e+000, -1.9324414439190234e-002,
          3.4190304096919860e-001, 1.0480586092349558e+000,
          1.0589353209011158e-001, -5.1212783180351862e-001,
          7.7228695961748561e-001, 1.5144229989685662e+000,
          -1.2399710411433813e+000, 1.2452922150319659e+000,
          5.3573936773464170e-001, 8.1215450755662988e-001,
          4.8877126796661653e-002, -5.2206281790180142e-001,
          -5.6953277305096661e-001, -4.9823622036018600e-001,
          1.0954330054626220e+000, 8.3324073638112284e-001,
          -9.6198918029185654e-001, 4.4682847103286141e-002,
          -2.8096397215212182e-001, -1.5513279643859352e+000,
          7.1645503153691714e-001, -4.9630111379449304e-001,
          -7.3913660654633007e-001, 1.2431825718701286e+000,
          -3.8555881087997029e-001, 4.8109148251986750e-001,
          1.3657058236159406e-001, 8.5798697521558420e-001,
          -2.1785624792952135e-001, -3.9272228685098887e-001,
          4.0788103393451314e-001, -9.4708541163907634e-001,
          -9.9892070975832459e-001, 2.7485037215795638e-001,
          -4.0564994554039679e-001, 4.5497139656762192e-001,
          1.1642219557109628e+000, -8.4531067874864485e-001,
          1.5903071131330279e-001, 1.2521008869841301e+000,
          -1.0718594268644808e+000, 7.5339463837135445e-001,
          5.1741526475857003e-001, 1.8967593812170426e-002,
          1.5468522819358772e+000, -9.6761502471208272e-001,
          2.0870475101408817e-001, -4.4306529519429422e-001,
          1.0298454308590019e+000, 1.3434422821513123e+000,
          1.7748507896943533e-001, 1.2464780143270595e+000,
          -2.3496549207418349e-001, -2.0195678150523547e-001,
          5.5500785008100362e-001, 9.6471222361314457e-001,
          -3.3121469049344876e-001, -5.2847004395241981e-001,
          -3.0527397699220632e-001, -8.7200294401543066e-001,
          9.8687198395631948e-001, 9.0443150987473608e-001,
          8.0845525256308659e-001, 7.4975321371743686e-001,
          -9.2674603637358366e-001, -1.1652674622368913e+000,
          1.2041031822502737e+000, 6.6825115412407821e-001,
          -9.3590597827325150e-001, 4.6303142631767358e-001,
          1.0063271436247876e+000, -5.0077535276010027e-002,
          1.1296648812796606e+000, 7.2402872761483850e-001,
          -3.6077496451077862e-001, 3.2859059173279503e-001,
          5.3381419038102951e-001, 1.1576245070650641e+000,
          -1.9716597701108904e-001, 7.4873725968456417e-001,
          -8.9412263756499877e-001, -7.8504976332751730e-001,
          5.0468549293334231e-001, -6.0924360165215863e-001,
          1.5836897701865310e-001, 1.2370600843299309e-001,
          -7.4048658255155650e-002, -5.7099496970904806e-001,
          -1.0007419175384802e+000, -2.0141799361185403e-002,
          9.5738165612067827e-001, 2.8883876674867826e-001,
          -4.8613209508698185e-001, -1.0903358647289341e+000,
          -2.4875976136180120e-001, -5.9984130396051383e-001,
          -3.8151362243239333e-002, -8.8090836847957606e-003,
          -2.0662092592433490e-001, 1.0282024500108942e+000,
          8.8616945235136546e-001, 8.0512832661320755e-001,
          8.1762434934726835e-001, 1.3309597640187301e+000,
          1.0914098098869320e-001, -5.8242908206857380e-001,
          1.2170626834891460e+000, 1.2207788538076374e+000,
          1.0689749692887034e+000, 9.4203093734094812e-001,
          5.4928161637360629e-001, -5.9533697964408250e-001,
          7.1777197993795294e-001, 2.1912398320775081e-001,
          1.6345927957946622e+000, 1.2396067393715038e+000,
          1.1220691221458494e-001, 1.3154440565500023e+000,
          8.6311328555853029e-001, 1.2739102276516909e+000,
          1.0038960409810540e+000, 2.2299437532196657e-002,
          1.2232921352889490e+000, -2.3505472008167544e-001,
          1.2837027165771810e+000, -1.3246033372785837e-001,
          1.1869442617501502e+000, 9.4759739461363646e-001,
          -1.8171334891232735e-001, 7.4769972474960489e-001,
          6.0692574177898495e-001, -9.1370446605394215e-002,
          1.1244217242099057e+000, 5.1536702027437853e-001,
          9.7502336572658255e-001, 5.2480450436692283e-001,
          1.2557316559359182e+000, 2.4262924249960660e-001,
          4.1372186506348269e-001, 4.2345438969739907e-001,
          1.8492620040924521e-001, -4.4589310661219672e-001,
          -1.0703464750473901e+000, -8.3549808579019313e-001,
          5.0910465264149940e-001, 8.1088988097694681e-001,
          9.2660289221281211e-001, -9.2736953242778988e-002,
          -2.7359666752052719e-001, 8.6480023280032618e-003,
          6.9004356132811040e-001, 1.2525495822691673e-001,
          8.0827928294137619e-001, 2.4868155992731861e-001,
          -2.8701366271341489e-001, 5.2467670582037929e-001,
          -2.5750828522672192e-001, -8.0791608786669056e-001,
          7.7615522179037089e-001, -1.1011964513181296e+000,
          1.0647701828953027e+000, -4.8819641152746601e-001,
          -1.1295196312430184e-001, 1.2332702026210245e-001,
          2.3673508327383910e-001, -2.1463904820737753e-001,
          1.4008032689614056e+000, -3.0501894223999643e-001,
          -9.1167375563517195e-001, -6.0380112789738209e-003,
          1.2195227504673618e+000, 1.1635830454659195e+000,
          -3.2812414776729193e-002, -2.5910061989646271e-001,
          1.0434803838862867e-001, -1.2009218149407629e-002,
          9.3471377027003810e-002, 1.1854703569806002e+000,
          -7.5265051599106847e-001, 1.1885309737256766e+000,
          1.2204632679286187e+000, -3.2709274279133571e-001,
          -1.1375926644790904e+000, -1.2109676427157268e+000,
          -9.4224019213416177e-001, -1.5648810621626783e+000,
          -1.5830720219919944e-001, -4.3322229964459830e-001,
          -1.1450953392205030e+000, -5.1553777159657455e-001,
          -1.7098488639213032e+000, -1.8325126602280031e+000,
          -1.3516913322737232e+000, -1.3802385785987221e+000,
          -1.3950943650204750e+000, -1.3336767351867258e+000,
          -6.4282307148905582e-001, -5.6122161694714057e-001,
          -1.2612910710196572e+000, -5.4076453712467776e-001,
          -1.4687485302792047e+000, -1.4701761226555938e+000,
          -1.3880731335963963e+000, -2.8508948032512926e-001,
          -2.2608761908484779e-001, -4.0078149231196063e-002,
          -4.2754675567223266e-001, -2.9591177187626949e-001,
          -1.1301223732707810e+000, -5.5109559487168469e-001,
          -4.3204248214401880e-001, -1.1953201199221244e+000,
          -3.8454278854062252e-001, -1.6050386940456440e+000,
          5.0176782931146767e-002, -9.4245789794834556e-001,
          -1.1993607706115683e+000, -4.4310718128507087e-001,
          -1.2629937959704838e+000, -3.8811457706033803e-001,
          -9.9499728922070529e-001, -1.6312701906868499e+000 ]
