%YAML:1.0
my_nn: !!opencv-ml-ann-mlp
   layer_sizes: !!opencv-matrix
      rows: 1
      cols: 3
      dt: i
      data: [ 8, 41, 41 ]
   activation_function: SIGMOID_SYM
   f_param1: 1.
   f_param2: 1.
   min_val: -9.4999999999999996e-001
   max_val: 9.4999999999999996e-001
   min_val1: -9.7999999999999998e-001
   max_val1: 9.7999999999999998e-001
   training_params:
      train_method: BACKPROP
      dw_scale: 5.0000000745058060e-002
      moment_scale: 5.0000000745058060e-002
      term_criteria: { epsilon:1.0000000474974513e-003, iterations:500 }
   input_scale: [ .Nan, .Nan, .Nan, .Nan, .Nan, .Nan, .Nan, .Nan, .Nan,
       .Nan, .Nan, .Nan, .Nan, .Nan, .Nan, .Nan ]
   output_scale: [ 5.2631578947368418e-001, 4.9999999999999994e-001,
       5.2631578947368418e-001, 4.9999999999999994e-001,
       5.2631578947368418e-001, 4.9999999999999994e-001,
       5.2631578947368418e-001, 4.9999999999999994e-001,
       5.2631578947368418e-001, 4.9999999999999994e-001,
       5.2631578947368418e-001, 4.9999999999999994e-001,
       5.2631578947368418e-001, 4.9999999999999994e-001,
       5.2631578947368418e-001, 4.9999999999999994e-001,
       5.2631578947368418e-001, 4.9999999999999994e-001,
       5.2631578947368418e-001, 4.9999999999999994e-001,
       5.2631578947368418e-001, 4.9999999999999994e-001,
       5.2631578947368418e-001, 4.9999999999999994e-001,
       5.2631578947368418e-001, 4.9999999999999994e-001,
       5.2631578947368418e-001, 4.9999999999999994e-001,
       5.2631578947368418e-001, 4.9999999999999994e-001,
       5.2631578947368418e-001, 4.9999999999999994e-001,
       5.2631578947368418e-001, 4.9999999999999994e-001,
       5.2631578947368418e-001, 4.9999999999999994e-001,
       5.2631578947368418e-001, 4.9999999999999994e-001,
       5.2631578947368418e-001, 4.9999999999999994e-001,
       5.2631578947368418e-001, 4.9999999999999994e-001,
       5.2631578947368418e-001, 4.9999999999999994e-001,
       5.2631578947368418e-001, 4.9999999999999994e-001,
       5.2631578947368418e-001, 4.9999999999999994e-001,
       5.2631578947368418e-001, 4.9999999999999994e-001,
       5.2631578947368418e-001, 4.9999999999999994e-001,
       5.2631578947368418e-001, 4.9999999999999994e-001,
       5.2631578947368418e-001, 4.9999999999999994e-001,
       5.2631578947368418e-001, 4.9999999999999994e-001,
       5.2631578947368418e-001, 4.9999999999999994e-001,
       5.2631578947368418e-001, 4.9999999999999994e-001,
       5.2631578947368418e-001, 4.9999999999999994e-001,
       5.2631578947368418e-001, 4.9999999999999994e-001,
       5.2631578947368418e-001, 4.9999999999999994e-001,
       5.2631578947368418e-001, 4.9999999999999994e-001,
       5.2631578947368418e-001, 4.9999999999999994e-001,
       5.2631578947368418e-001, 4.9999999999999994e-001,
       5.2631578947368418e-001, 4.9999999999999994e-001,
       5.2631578947368418e-001, 4.9999999999999994e-001,
       5.2631578947368418e-001, 4.9999999999999994e-001,
       5.2631578947368418e-001, 4.9999999999999994e-001 ]
   inv_output_scale: [ 1.8999999999999999e+000, -9.4999999999999996e-001,
       1.8999999999999999e+000, -9.4999999999999996e-001,
       1.8999999999999999e+000, -9.4999999999999996e-001,
       1.8999999999999999e+000, -9.4999999999999996e-001,
       1.8999999999999999e+000, -9.4999999999999996e-001,
       1.8999999999999999e+000, -9.4999999999999996e-001,
       1.8999999999999999e+000, -9.4999999999999996e-001,
       1.8999999999999999e+000, -9.4999999999999996e-001,
       1.8999999999999999e+000, -9.4999999999999996e-001,
       1.8999999999999999e+000, -9.4999999999999996e-001,
       1.8999999999999999e+000, -9.4999999999999996e-001,
       1.8999999999999999e+000, -9.4999999999999996e-001,
       1.8999999999999999e+000, -9.4999999999999996e-001,
       1.8999999999999999e+000, -9.4999999999999996e-001,
       1.8999999999999999e+000, -9.4999999999999996e-001,
       1.8999999999999999e+000, -9.4999999999999996e-001,
       1.8999999999999999e+000, -9.4999999999999996e-001,
       1.8999999999999999e+000, -9.4999999999999996e-001,
       1.8999999999999999e+000, -9.4999999999999996e-001,
       1.8999999999999999e+000, -9.4999999999999996e-001,
       1.8999999999999999e+000, -9.4999999999999996e-001,
       1.8999999999999999e+000, -9.4999999999999996e-001,
       1.8999999999999999e+000, -9.4999999999999996e-001,
       1.8999999999999999e+000, -9.4999999999999996e-001,
       1.8999999999999999e+000, -9.4999999999999996e-001,
       1.8999999999999999e+000, -9.4999999999999996e-001,
       1.8999999999999999e+000, -9.4999999999999996e-001,
       1.8999999999999999e+000, -9.4999999999999996e-001,
       1.8999999999999999e+000, -9.4999999999999996e-001,
       1.8999999999999999e+000, -9.4999999999999996e-001,
       1.8999999999999999e+000, -9.4999999999999996e-001,
       1.8999999999999999e+000, -9.4999999999999996e-001,
       1.8999999999999999e+000, -9.4999999999999996e-001,
       1.8999999999999999e+000, -9.4999999999999996e-001,
       1.8999999999999999e+000, -9.4999999999999996e-001,
       1.8999999999999999e+000, -9.4999999999999996e-001,
       1.8999999999999999e+000, -9.4999999999999996e-001,
       1.8999999999999999e+000, -9.4999999999999996e-001,
       1.8999999999999999e+000, -9.4999999999999996e-001,
       1.8999999999999999e+000, -9.4999999999999996e-001,
       1.8999999999999999e+000, -9.4999999999999996e-001 ]
   weights:
      - [ .Nan, .Nan, .Nan, .Nan, .Nan, .Nan, .Nan, .Nan, .Nan, .Nan,
          .Nan, .Nan, .Nan, .Nan, .Nan, .Nan, .Nan, .Nan, .Nan, .Nan,
          .Nan, .Nan, .Nan, .Nan, .Nan, .Nan, .Nan, .Nan, .Nan, .Nan,
          .Nan, .Nan, .Nan, .Nan, .Nan, .Nan, .Nan, .Nan, .Nan, .Nan,
          .Nan, .Nan, .Nan, .Nan, .Nan, .Nan, .Nan, .Nan, .Nan, .Nan,
          .Nan, .Nan, .Nan, .Nan, .Nan, .Nan, .Nan, .Nan, .Nan, .Nan,
          .Nan, .Nan, .Nan, .Nan, .Nan, .Nan, .Nan, .Nan, .Nan, .Nan,
          .Nan, .Nan, .Nan, .Nan, .Nan, .Nan, .Nan, .Nan, .Nan, .Nan,
          .Nan, .Nan, .Nan, .Nan, .Nan, .Nan, .Nan, .Nan, .Nan, .Nan,
          .Nan, .Nan, .Nan, .Nan, .Nan, .Nan, .Nan, .Nan, .Nan, .Nan,
          .Nan, .Nan, .Nan, .Nan, .Nan, .Nan, .Nan, .Nan, .Nan, .Nan,
          .Nan, .Nan, .Nan, .Nan, .Nan, .Nan, .Nan, .Nan, .Nan, .Nan,
          .Nan, .Nan, .Nan, .Nan, .Nan, .Nan, .Nan, .Nan, .Nan, .Nan,
          .Nan, .Nan, .Nan, .Nan, .Nan, .Nan, .Nan, .Nan, .Nan, .Nan,
          .Nan, .Nan, .Nan, .Nan, .Nan, .Nan, .Nan, .Nan, .Nan, .Nan,
          .Nan, .Nan, .Nan, .Nan, .Nan, .Nan, .Nan, .Nan, .Nan, .Nan,
          .Nan, .Nan, .Nan, .Nan, .Nan, .Nan, .Nan, .Nan, .Nan, .Nan,
          .Nan, .Nan, .Nan, .Nan, .Nan, .Nan, .Nan, .Nan, .Nan, .Nan,
          .Nan, .Nan, .Nan, .Nan, .Nan, .Nan, .Nan, .Nan, .Nan, .Nan,
          .Nan, .Nan, .Nan, .Nan, .Nan, .Nan, .Nan, .Nan, .Nan, .Nan,
          .Nan, .Nan, .Nan, .Nan, .Nan, .Nan, .Nan, .Nan, .Nan, .Nan,
          .Nan, .Nan, .Nan, .Nan, .Nan, .Nan, .Nan, .Nan, .Nan, .Nan,
          .Nan, .Nan, .Nan, .Nan, .Nan, .Nan, .Nan, .Nan, .Nan, .Nan,
          .Nan, .Nan, .Nan, .Nan, .Nan, .Nan, .Nan, .Nan, .Nan, .Nan,
          .Nan, .Nan, .Nan, .Nan, .Nan, .Nan, .Nan, .Nan, .Nan, .Nan,
          .Nan, .Nan, .Nan, .Nan, .Nan, .Nan, .Nan, .Nan, .Nan, .Nan,
          .Nan, .Nan, .Nan, .Nan, .Nan, .Nan, .Nan, .Nan, .Nan, .Nan,
          .Nan, .Nan, .Nan, .Nan, .Nan, .Nan, .Nan, .Nan, .Nan, .Nan,
          .Nan, .Nan, .Nan, .Nan, .Nan, .Nan, .Nan, .Nan, .Nan, .Nan,
          .Nan, .Nan, .Nan, .Nan, .Nan, .Nan, .Nan, .Nan, .Nan, .Nan,
          .Nan, .Nan, .Nan, .Nan, .Nan, .Nan, .Nan, .Nan, .Nan, .Nan,
          .Nan, .Nan, .Nan, .Nan, .Nan, .Nan, .Nan, .Nan, .Nan, .Nan,
          .Nan, .Nan, .Nan, .Nan, .Nan, .Nan, .Nan, .Nan,
          7.3087070205192617e-001, 9.6068972389631094e-002,
          -1.1862575328558306e-001, 4.8400060269050832e-002,
          1.2657859303744257e-001, 1.4828716875510542e-001,
          6.0128569806043884e-002, 9.5504229411833605e-002,
          9.5605687554542018e-002, 1.2013537320609742e-001,
          -1.6409042974129592e-002, -2.9451963969522724e-002,
          5.1087315542396643e-002, -1.7739132947059918e-002,
          5.1906205397802871e-002, -2.0527325413196289e-002,
          -1.4031575622372320e-002, 1.5749302636517502e-002,
          5.3485352628562825e-003, -1.2969071884621935e-002,
          -4.3468778066588969e-004, -7.6896168787993387e-004,
          -6.4598939327448947e-005, -5.1325810312771443e-004,
          -2.7035507861266225e-002, -1.7353883808822201e-002,
          3.0829893121074065e-002, 4.4093390314714986e-002,
          -3.3304648869374828e-002, -4.4128501234115720e-002,
          -5.0440245172042125e-002, 5.7646475468133167e-002,
          1.0852057903201792e-001, -3.3808566154752168e-002,
          -7.1810043313235830e-002, -3.8188264417731217e-002,
          6.2273712628159811e-002, -9.5629936127362477e-003,
          1.2732259320404241e-001, -2.7582424723781255e-002,
          1.6176987616030883e-001 ]
      - [ 4.4953516432883950e-001, -1.6208303598516044e-001,
          -3.9046006320447740e-001, -4.1490930140872251e-001,
          2.9324706943129164e-001, 3.8146123861748704e-001,
          -9.7402646147898231e-001, 3.7315827459482753e-001,
          -2.2850771446257001e-001, -9.4009028316509458e-001,
          7.7743351245920300e-001, 7.5587974451689369e-002,
          -2.6484594093922015e-001, 5.9743516058457669e-001,
          7.7286632464859351e-001, -1.7081889590502783e-001,
          8.6203836697787739e-001, 2.4441704099569619e-001,
          -4.1274777374363114e-001, 1.1379168752709480e-001,
          9.5667714565692075e-001, -2.4812243368585768e-001,
          2.1888162692015431e-003, 3.7579387794149166e-001,
          5.4369251762332405e-001, -7.0090152779077775e-001,
          7.2700312888969720e-001, -1.9615484972502148e-001,
          5.0271424803805281e-002, 2.4622721010070410e-003,
          -3.5666429344818666e-002, 3.1177272766129416e-002,
          8.0951373962828344e-001, 1.4357157780487376e-001,
          8.1982631896804870e-001, -7.5367922868974579e-001,
          -8.0016454193810405e-001, -2.3150843672715007e-001,
          -6.7324142472162429e-001, 4.5071717059311167e-001,
          -5.1015818674080254e-002, 8.0576475217265819e-001,
          9.5122712674797372e-001, -4.1271125662920079e-002,
          -5.4819144207638182e-001, -9.3129258459965847e-001,
          8.0899396575974158e-001, 7.2572445625920112e-001,
          2.2659279023885817e-001, 3.3062055252423950e-001,
          -3.6022008425145674e-001, -6.7200500008087649e-001,
          -2.8389929278659803e-001, 7.9405749919113455e-001,
          3.9625136237821657e-001, -3.0754120009662977e-001,
          1.1097304079803783e-001, -4.2100027729246531e-001,
          -4.3369984409145296e-001, 4.1154040948892279e-001,
          -9.1287139049447141e-001, -4.7622783058690599e-001,
          5.7660809776604660e-001, 1.7191774205518232e-001,
          2.8606942561561832e-001, 3.9901157859831360e-001,
          -3.7659396618070695e-001, 4.6689888318103884e-001,
          1.9760924035650487e-001, 3.0466044050582754e-002,
          -3.6504141708467158e-001, -7.3677989579822656e-001,
          3.9861604666141526e-001, -6.0751063711028697e-001,
          8.1185924325889047e-001, -4.8554495101409145e-001,
          -3.9604071537315780e-002, -3.9928393538233875e-001,
          5.2683401406455910e-001, 1.4792191453819586e-001,
          -2.9697501430790219e-001, -4.3900378504592175e-001,
          -1.9414796172595530e-001, 8.4223579776955337e-001,
          7.2999373874067476e-003, 2.8397327953318929e-001,
          1.1656277822181221e-001, 6.1346244381323700e-001,
          -2.6738612452043425e-001, 4.7777855607189423e-001,
          -3.2086097762431476e-001, -2.2862305021236015e-001,
          4.6160631747064379e-001, -4.3183582264604065e-001,
          9.4460815155387168e-001, -3.1195897900939928e-001,
          5.8215348181110105e-001, 8.7680791731736707e-001,
          4.4793172489820926e-001, -2.2420924566233535e-001,
          -6.8132098960332221e-001, -8.9761951962565956e-001,
          -3.0094770940466709e-001, -5.9322605347570545e-001,
          3.1106258580159013e-001, -9.8254857383495842e-001,
          5.8736914109032035e-002, 6.5402659577176026e-001,
          3.9553735242570848e-001, -5.4890882018450093e-001,
          -5.3217632610125831e-001, 8.0502216676066995e-001,
          1.0433411906300423e+000, -7.1374144683965235e-001,
          -1.7290178468695147e-001, 6.7684995227939804e-001,
          8.8138305203765299e-001, 2.3155351478992559e-001,
          5.8013046526658307e-001, -1.6337492873928192e-001,
          8.5863945403267228e-001, -8.0149680842300819e-001,
          7.3994990019177909e-001, 3.3655064115978267e-002,
          -4.0642832005159191e-001, 9.7900499674136932e-001,
          -7.6949048039525381e-001, 8.0535021310570210e-001,
          6.8420388469124438e-001, -9.2523889529599335e-001,
          -8.7625468690755870e-001, -6.9488758185895128e-001,
          -8.2167728297789577e-001, -4.5796035061214330e-001,
          -5.5344714276102602e-001, 3.8989928373269084e-001,
          8.2966066633887747e-001, 7.4362527988333615e-001,
          -2.1480901468539468e-001, -6.8377445775737600e-001,
          9.0612959172536936e-003, 1.0627564847600533e-001,
          -8.7313435534992889e-001, 4.2649570316405372e-001,
          1.0213561691036732e+000, -4.0083989226564104e-001,
          7.8864624058939126e-001, -2.9233842300070412e-002,
          -8.1252836112822024e-001, -8.5834596990965495e-001,
          6.6495465208493768e-002, -2.7422756411727028e-001,
          -1.3261863555205056e-001, -7.4532638573978227e-001,
          6.0546084468394779e-001, 7.7267669971114472e-001,
          -4.0559612582118609e-001, 9.3613640550368549e-001,
          -3.0297112175877561e-001, -7.7722097234785750e-002,
          1.0184432447962750e-001, -4.6867152735937184e-001,
          -4.0818021362244084e-001, 1.3223947603328309e-001,
          9.6760620782522200e-001, -4.6918929952898253e-001,
          8.8353114218992623e-001, -6.6269798210220582e-002,
          6.9496360290110115e-001, 2.9271357255679908e-001,
          -3.0917650336226332e-001, 3.5729684767666303e-001,
          -2.2183856473196756e-001, 1.7545868448751864e-001,
          5.7001758600697972e-001, 4.5433742190438636e-001,
          9.3901089712095820e-001, 5.9336564334561781e-001,
          7.8215088428075774e-001, -4.1167712114837923e-001,
          -3.2153101215189756e-001, -3.7502644051564465e-001,
          1.1083827738834759e+000, 1.0444542739368436e-001,
          -5.1960316528849892e-001, 1.8088566443845081e-001,
          -4.0550967237485674e-001, -1.8786381209492473e-001,
          -7.6755664910457999e-001, -3.1088423716645275e-001,
          -6.7038514070554389e-001, -3.5323257546202214e-001,
          -5.1109687790881386e-001, 2.4055611990026926e-001,
          -5.5411919400480292e-001, -8.6751817547553900e-002,
          -5.5879472551254838e-001, 5.7917629076359201e-001,
          7.6216809192071977e-001, -7.1583184372822084e-001,
          2.2799041427082375e-001, 8.5933569329878293e-002,
          3.9876106381260262e-001, 1.0525977087766434e+000,
          6.2069813421114017e-001, 2.2219985322986754e-001,
          9.7063562525202540e-001, -9.2379427948299264e-001,
          3.6684044134706384e-002, -7.1015277490887907e-001,
          -1.3940738785976278e-001, -3.5683203866988333e-001,
          4.4489934301312550e-001, 8.8389212197173039e-001,
          7.4356645494790707e-001, 6.9675925564244856e-001,
          5.8400450387810077e-001, -7.0113088930795342e-001,
          2.3697339413454974e-001, 3.1109081730021171e-001,
          9.9642412451163065e-001, -2.2592292092111547e-002,
          3.0547718351302550e-001, -3.7010227271219898e-001,
          1.0371313623665304e+000, -2.4384464107157103e-001,
          2.0133878787335471e-001, 1.2759944650956787e-001,
          -3.4754120104686981e-001, 3.7354891030353066e-001,
          2.8821282167078610e-001, -4.8006262929082061e-001,
          -1.0346748080935368e-001, -4.0314940344472819e-002,
          6.0850587356892827e-001, 7.2433672653335912e-001,
          -7.2520182043819115e-001, -5.7649612842245723e-001,
          -4.6102491430191583e-001, 4.0758999922808214e-001,
          -6.2216179157338758e-001, -4.6467329249274525e-001,
          -4.9151515804802220e-001, 6.6767526190796245e-001,
          9.1362604032721700e-002, 1.8526929035378739e-001,
          8.6992920071684943e-001, -5.4527766951923951e-001,
          1.2299753083915013e-001, -3.1401174439634368e-002,
          5.1708417880135904e-001, -7.8267425356136533e-001,
          -1.7392153558405854e-001, -5.8980645337868187e-001,
          -8.0177787257048805e-001, 9.9335551974640013e-001,
          7.2186832146798052e-001, -7.9325956376214590e-001,
          1.7889195498663105e-001, 6.6365610595380953e-001,
          -3.1321538875851929e-001, 1.0645283452869339e+000,
          -3.6853468927498662e-001, 1.9923782148765917e-001,
          3.3631816966108130e-001, 5.5949192736969122e-001,
          -5.3381520789102277e-001, -2.4685476143595056e-001,
          -2.7783432536132374e-001, 7.0607564588166105e-001,
          -4.9352526645555124e-002, -6.7807985468003762e-001,
          -3.3553940260173959e-001, 5.7891648624238945e-001,
          -6.4646043175554702e-001, 1.9924736136125865e-001,
          5.3993357093918015e-001, 5.1053459916955024e-001,
          -2.1155906623544726e-001, -5.0919503871385863e-001,
          -8.2859866682912331e-001, 9.8386701454170200e-001,
          -5.3580072202872953e-001, 1.7400137504489330e-001,
          5.3658237812412346e-001, 9.9042322203255917e-001,
          -1.5274699411158796e-001, 9.7510825967337145e-001,
          -8.2901737177091694e-001, -2.1848558337472040e-001,
          8.0327306992338005e-002, 6.8282390149954908e-001,
          -1.8991540795454301e-001, -1.7101892018691200e-001,
          4.8417827096898869e-001, 6.5053725288541853e-001,
          -2.4325337519173446e-001, -5.4865536931174830e-001,
          -3.7925919630310595e-001, 3.3456564162611918e-001,
          5.8417146307112100e-001, -3.4294146042286822e-001,
          -6.6641817387156643e-001, -2.6719136950313464e-002,
          4.0544396168327318e-001, 9.2229599547728591e-001,
          -4.4175015221594321e-001, 9.7473696552848610e-001,
          3.9243459498229682e-001, -5.3632981420954247e-002,
          6.7364943257426102e-001, -5.5084155898821607e-001,
          -5.6891281123372306e-001, -1.7332847975962931e-001,
          -1.4578434481986932e-001, -4.5666291341435933e-001,
          -9.1466252779832635e-001, -4.5705183916851477e-001,
          2.5272011999174682e-001, 8.2122246826358292e-001,
          -5.8808158362369989e-001, 2.6696100016751934e-002,
          1.0028181981406295e-001, 2.9439106500575653e-002,
          9.2823528532871472e-002, 8.0906919282055045e-001,
          8.9389261329311653e-001, -6.7074075144261525e-001,
          5.9954204004685752e-001, 3.3950312372973701e-001,
          6.7614473808517916e-001, -5.8206834565296894e-001,
          -9.6973503271815337e-002, -8.0456505898261776e-001,
          8.4107926701083247e-001, 8.6228137952101647e-001,
          7.6012162418261675e-001, 1.6941164855750310e-001,
          -5.6754637292377808e-001, -9.2637283885381150e-001,
          9.9325735191748710e-001, 8.6933549203127081e-001,
          -3.8475100972848153e-001, -3.2447733537314000e-001,
          3.7452806104107300e-001, -5.1842957596459127e-001,
          5.7406390490932602e-001, -4.9799325937882577e-001,
          -4.0288564634508861e-001, 1.0834209930875591e+000,
          -8.3765671254606255e-001, -7.7425791939764110e-001,
          1.0276205271413765e+000, -4.6838273374834849e-001,
          -2.2969478156596337e-001, 9.2302045267911237e-001,
          2.9462600902509301e-001, 5.6456071749699344e-001,
          8.7215222274178217e-001, -8.3989007315491104e-001,
          8.8592913333753143e-001, 4.8528122380328172e-002,
          -4.1960649304424247e-001, 7.9103157705589100e-001,
          6.7830537692658122e-001, 2.9493573246461396e-001,
          -2.4129592624688734e-001, 5.6543167511572345e-001,
          7.8073199144793248e-001, 7.5845306436076465e-001,
          -7.4505107924103253e-001, 2.1768014422359938e-001,
          6.3343706753438511e-001, 7.2461349160842758e-001,
          -3.6274733575625595e-001, -5.6431850837642461e-001,
          -5.7087178227529312e-001, 2.9399858937336931e-001,
          7.3975541905693620e-001, 8.7055380088725143e-001,
          3.6198839619895101e-001, -3.5976265602651897e-001,
          4.0150114386052149e-001, -7.8323430990985238e-002,
          6.5541265830313522e-001, -8.2157658143574275e-001,
          -3.0359098675953483e-001, 7.5161524250558309e-001,
          -6.4781321737973463e-001, -3.2028356425577509e-001,
          3.4783082383305153e-001, -2.4746908100598433e-001,
          -8.5116043462972379e-001, 3.9370127590223192e-001,
          6.7622068240414313e-001, 5.0882756040851918e-001,
          4.7513188675369467e-001, -9.1983966618923485e-001,
          -3.0491836800714828e-001, -5.3781037830937239e-001,
          -5.3771454525073700e-003, -7.3905605679448927e-001,
          -3.3197553008568292e-001, -2.4037996463590899e-001,
          2.8430643353910479e-001, -7.7085930079177767e-001,
          -7.0856279992516069e-001, 4.3750694433959442e-001,
          -7.6363201048277163e-001, -1.3241176906555449e-001,
          3.5143320857197208e-001, -3.0264106069331548e-001,
          5.0881203538368358e-001, -9.7932011978411164e-003,
          5.1523795894782254e-001, -1.5650012296708696e-001,
          -1.3437477215957894e-001, -1.3332032945761282e-001,
          3.9067202896082087e-001, -5.3939607288346969e-001,
          5.4310827764642722e-001, 7.1309554333650693e-001,
          -6.7608151840138542e-001, 2.9044784860487460e-001,
          5.0847172156914422e-001, 7.8842349360010111e-001,
          6.4839562278271257e-002, 8.9478547386610408e-001,
          3.1460248730870902e-002, -5.1493449469387609e-001,
          6.0905540809712533e-001, -1.5112445423912332e-001,
          1.0188277630323084e+000, 4.4348464356142914e-001,
          5.0685634548257685e-001, 8.4615122028377610e-001,
          3.7651740965091857e-001, 8.1847104408787530e-001,
          6.7425100007954175e-001, 7.2305128554041731e-001,
          9.9771100092358300e-001, -2.0772098694621946e-001,
          8.5533244040930678e-001, -3.8065836464420955e-001,
          8.4558819298742305e-001, 1.1012146250658320e-001,
          9.7529609873038395e-002, 3.0169876722132666e-001,
          -2.1301135126341703e-001, -5.5694045186399987e-001,
          -7.6591698699559052e-001, 9.0958950335295519e-001,
          2.2598870459107559e-001, 5.6525873709048968e-001,
          4.5732602617078738e-001, 6.7717850445551980e-002,
          -5.2586426400329667e-001, 8.0570440562611183e-003,
          6.4073946899507273e-001, 2.4856744562806404e-001,
          -2.7339959569266409e-001, -3.0046320879700456e-001,
          7.2886715033560368e-001, -2.3745684889993415e-001,
          6.7666237062032497e-001, 2.1512854972969103e-001,
          2.3396257057137440e-001, 8.1732447631864302e-001,
          7.0535623781483858e-001, 7.7982100665595688e-001,
          -8.2382368123699989e-001, -7.0932685905372428e-001,
          1.0212823256061165e+000, -3.8805100588593427e-001,
          -3.7793592586794444e-001, 5.0264575415183754e-001,
          4.7558092607104252e-001, -3.4340088720532652e-001,
          -2.2366587020121684e-001, 1.4232189683314128e-001,
          3.9090305847908707e-001, -1.1516149962205251e-002,
          4.0531264384539001e-001, 8.2417274222354231e-001,
          -7.8044939603988106e-001, 3.6166101690967001e-001,
          6.5888276242850352e-001, -4.0790022417621430e-001,
          8.4499610470419029e-001, -4.2713664397221968e-001,
          -1.7453185313061026e-001, -6.3568674321360708e-001,
          4.1670061779078044e-001, -5.5379080620324914e-002,
          6.6966341448228628e-001, 1.4644034884096080e-001,
          5.1296537918403173e-001, 8.2471811615941926e-001,
          9.6628988997807608e-001, 4.9774219045439216e-001,
          -1.9273114035448641e-001, 9.1631637715691938e-001,
          9.8053517143321522e-001, 3.6545034141594873e-001,
          -5.7356822578259392e-001, -3.3305538358036935e-001,
          8.3953172149730382e-001, -4.5451028008244548e-001,
          5.3692220004799418e-001, 1.9663292048007491e-001,
          -1.8495263515066022e-002, 1.3246836314321245e-001,
          2.1111706667214511e-001, -6.6459616143503238e-004,
          2.1730569090471574e-001, 9.8897345758040678e-001,
          -6.9025334620432599e-001, -6.9220782318307184e-001,
          -6.6935465311732090e-001, -7.4880539629192056e-001,
          -5.8781767276744790e-001, 2.1944501186623810e-001,
          -3.8689796131601950e-001, -8.8849306535637262e-001,
          -1.0054568703276097e+000, -3.1635187392904096e-001,
          -7.7752523164344700e-001, 5.6179716481954867e-001,
          9.9501830312980677e-001, -7.3434759801552845e-003,
          2.8615946006689746e-001, -8.6548318803385726e-001,
          1.6744118169821112e-001, -8.8546351658414679e-001,
          -8.1884072336155467e-001, 4.2425145532778991e-001,
          5.0031004642872101e-001, -9.2876925109707997e-001,
          -3.0827629261845679e-001, 7.9753396187915837e-001,
          -7.3578240896943337e-001, 1.2665548420661940e-001,
          5.5850826820094879e-001, 8.6035460850798728e-001,
          3.6879265411095413e-001, 5.8481229313696637e-001,
          -4.0547800111234655e-001, 2.3026924009477584e-001,
          1.7079318095700449e-001, 3.0752875743113001e-001,
          -3.5645694778212006e-001, -6.4674257563337445e-001,
          3.1292157300440554e-001, 6.5046530677428894e-003,
          8.4355257057174771e-001, -3.1430474368070843e-001,
          7.4594422247968950e-001, 5.4263477627871447e-002,
          -1.2460054203931434e-001, -4.4890526051512857e-002,
          3.0711765895378496e-001, 2.1341723917701955e-001,
          -2.4823450871626948e-001, -4.4330566079728373e-001,
          -3.7625226798716083e-001, -5.5570378781888863e-001,
          1.5314793696064424e-001, -2.4356449535961805e-001,
          -2.6841168930213744e-001, 4.3828452598519217e-002,
          -5.9395350190667284e-001, 3.6458796301719681e-001,
          -2.6690538096668848e-001, 2.1900424578796909e-001,
          6.1038494672711041e-001, 3.7616738702754465e-001,
          6.4962417914253046e-001, 4.8210479189226732e-002,
          8.0683098211145021e-001, -7.7104688464479965e-001,
          4.7963690998471809e-001, 6.8967363923132208e-001,
          1.1044133903363638e+000, 5.4590019077852081e-001,
          -4.1679356027764375e-001, -3.1194848444400430e-001,
          -7.2213508712432894e-001, 7.1650001039194300e-001,
          3.2841058085161945e-001, -7.6923394085188845e-001,
          -9.1879609330616594e-003, -2.2775877715406523e-001,
          -6.7015379685350529e-001, 9.5458419632567293e-001,
          -2.3412881242061093e-001, 5.0405543769551819e-001,
          -6.4690877906099620e-001, 5.8287896332461808e-001,
          3.3578274048835521e-001, 5.6656904054895196e-001,
          7.6274377264221016e-001, -7.0147494151626089e-001,
          -3.0527646301418726e-001, -1.1770017779560443e-001,
          8.5784262020180102e-001, -3.5956306557974993e-001,
          -7.5120579639291507e-001, 7.6309501551126990e-001,
          -6.5539851657642223e-001, 7.1101161522535994e-001,
          4.8747793238419079e-001, 4.5333096363339570e-001,
          9.1218202619041278e-001, -4.9038843374248120e-001,
          -3.2395474122712153e-001, -9.8763121381570440e-001,
          5.5825998851931358e-001, -6.0472409972456787e-001,
          -4.1884448870181767e-001, -1.3467161837410677e-001,
          8.1396261451087160e-001, -5.2416219460357134e-002,
          -1.8254184052827813e-001, -8.3330939662088888e-001,
          1.0067205201667615e+000, -8.8396233104926225e-001,
          1.0268319670581958e+000, -3.2557791022893662e-001,
          -8.4494457337965130e-003, -5.2853835916806713e-001,
          -1.7291765495413500e-001, -3.0194232947796901e-001,
          -7.4486149863870810e-001, 1.1075886274472578e-001,
          -4.7240760952037758e-001, 5.0791437420710650e-001,
          -4.4636073249248509e-001, 2.2726967463386893e-001,
          1.9648137085978448e-001, 8.8299338982837283e-001,
          -4.4361078289610395e-003, -1.3237071078615029e-001,
          -4.3061501249739575e-001, 7.6348571814850608e-001,
          -3.4964067144162204e-002, 1.1764035146533747e+000,
          4.6418351410411818e-001, -2.8524933180028794e-001,
          -1.1071197000387234e-001, -9.2944435746527643e-001,
          4.8200493921466081e-001, -7.8295864171782470e-001,
          -4.2292598209821469e-001, -2.9578489552726400e-001,
          -4.7382638643627184e-001, -7.0769667431608330e-001,
          -3.3497829907613969e-001, -5.5604444165068445e-001,
          -7.2403995381715924e-001, 2.0456622651783085e-001,
          3.9134207086932671e-001, 8.6927505099189140e-001,
          5.0108081580770991e-001, -2.6855004996297183e-001,
          -1.5428169174924583e-001, -8.5606776279008145e-001,
          5.1752570399085351e-001, -1.2999483564597938e-001,
          -3.3933803253417390e-002, 1.5663587204394688e-001,
          -7.5662124707444794e-002, 6.3817913226848533e-001,
          2.6553916499449953e-001, 1.1609079456080684e-001,
          -2.2519163905417511e-001, -6.7255686573651485e-001,
          -9.1512223834855810e-001, -5.5193869677573948e-001,
          5.5174817010914567e-001, 4.6860178170410383e-001,
          -8.2199723242868861e-001, -4.3797508430125442e-001,
          -2.4406478105613727e-001, -8.2017293950025083e-001,
          2.1000965820638223e-001, 5.3742782153671696e-002,
          -6.6792570953552977e-001, -7.5976471089638353e-001,
          -3.9167364511772745e-001, 5.4120994514476961e-001,
          6.6859263535831548e-001, -5.5647993554895414e-002,
          8.6111698162653405e-001, -1.2977734428033022e-001,
          -6.1875150641416776e-001, 3.6196940651596199e-001,
          -2.6476613604030330e-001, -4.2082635487927039e-002,
          5.5280597393123143e-001, 1.6430835827589685e-001,
          2.9090972475445565e-001, -7.7441388013097578e-001,
          2.1642568604663240e-001, -3.9415595174371165e-001,
          1.8550099820036828e-001, 2.4341139478156509e-001,
          -8.3628808501551655e-001, -4.3751442327559148e-001,
          -7.9854380137158043e-001, 7.8556073042032393e-001,
          -6.1190935314650030e-001, 9.0279934460227229e-001,
          5.6166929889998385e-001, 5.3315505878777925e-001,
          -2.2516411750284637e-001, 5.8281917969395657e-002,
          2.1720185129656874e-001, 9.5733657867873490e-001,
          -5.3893854977129108e-001, -7.8622088973288928e-001,
          5.4986678552711243e-001, -1.0233683874167995e-002,
          -1.6935506308879986e-003, 6.6156883097276031e-001,
          4.4226614699336686e-001, 3.0522641460917638e-001,
          8.3327053757394431e-001, 1.0929844561917692e+000,
          8.2777491022965766e-001, 8.5507578894209590e-001,
          -3.2914855409433082e-003, 5.3858464653960769e-001,
          9.2094055800685315e-001, -6.6671018912394286e-001,
          -2.2520160121534191e-001, 6.4810566921648793e-001,
          -6.0448464135288338e-001, 7.2117055884870895e-001,
          9.0125704251489525e-001, 4.7292392320121329e-001,
          -4.3515329495141347e-001, 6.5089373437860934e-002,
          7.6745315682635529e-001, 9.6688236440635600e-001,
          6.6558713275691916e-001, 8.6139263035140035e-001,
          -6.2966102912038324e-001, -6.8043768432773621e-001,
          -7.8971635168385323e-001, -5.6274780183959439e-001,
          7.3575129507903936e-001, 8.6208499463513499e-001,
          -4.8247546559471111e-001, 9.4528038670517595e-002,
          2.6605372220108786e-001, 7.5191199013278032e-002,
          -2.1743531619116463e-001, 2.7267577192719056e-001,
          5.9617220870989174e-001, -6.2972089969739353e-001,
          -2.1211893130273374e-001, -8.5193167455785734e-001,
          -5.9592419051539736e-001, 2.1604470846617566e-001,
          -1.7024049551645906e-001, 6.1224781364985992e-001,
          3.3279518902314581e-001, 3.6897192324883304e-001,
          4.2674089218365541e-001, 2.6286699940998237e-001,
          6.1891900235437824e-001, 5.4186120063488308e-001,
          -2.3832437044204785e-001, 7.6898733682284093e-001,
          -4.4965008380594429e-001, -3.8942358854531806e-001,
          4.2586221018695819e-001, 1.3974478264333684e-001,
          -3.4062978550889478e-001, 8.7681420711429447e-001,
          -4.6833123808230520e-001, -8.1054060243942627e-001,
          1.2102696839819510e-001, 1.7157947867465662e-001,
          3.8059526837456026e-001, 9.6711856422639264e-001,
          7.4150627834484428e-001, -4.5101675797159302e-001,
          5.9987844712221894e-001, -4.9701179648745819e-001,
          -2.2324763567279601e-001, 1.6978319377451848e-001,
          9.8917482624817343e-001, 9.0876686842479548e-001,
          -6.8743669738467950e-001, -2.9884465447889647e-001,
          -5.7905218426998672e-001, 1.5660731381045551e-001,
          -1.2294643183374179e-001, 8.8539840145818260e-001,
          -8.1546499057080957e-001, 5.1755782883249324e-001,
          5.7491379480790927e-001, -8.1264983805659052e-001,
          7.8389981805942177e-001, 2.5936313266487193e-001,
          8.0775500090200558e-001, 2.3566292239474179e-001,
          -7.0689731371756526e-001, 1.1977905406606455e+000,
          9.5526684918645577e-001, -2.9526637595113508e-001,
          7.4021709020443999e-002, 9.5364540036623058e-001,
          5.9941428926986473e-001, 5.8315955274432629e-001,
          4.2691438401554910e-001, 5.7204773839623035e-001,
          2.9141782304258546e-001, -5.5902067527716781e-001,
          9.0412073503244553e-002, 9.3104272656850484e-001,
          -5.0279795448719455e-001, 1.9804868611526694e-001,
          -8.8455920006946998e-001, 3.1391380058014673e-001,
          -1.1092668580984720e-001, -3.0094893410502921e-001,
          -5.1580592444932249e-001, 6.2621821597838512e-001,
          1.4048817548095824e-001, 1.0670836883554784e+000,
          7.3380930875092754e-001, -8.3910679047812342e-001,
          6.6879508019852041e-001, 9.3983595573685697e-001,
          -9.3628423623922408e-001, -7.0145924012745708e-001,
          3.8159804159812794e-001, 7.6982421108231036e-001,
          -6.9772963593508000e-002, 2.4050367625630700e-001,
          -1.6403023629967639e-001, -5.1329256650978117e-001,
          -6.7797096308360372e-001, -1.7438693321215912e-001,
          3.4478787061762267e-001, -4.6819396977320576e-001,
          1.4870496953272433e-001, -2.8787711442009817e-001,
          -3.1766135985939048e-001, -9.0439787309690756e-001,
          -6.9365192294102318e-001, 1.8029402580032686e-001,
          -8.0671354243258142e-001, 2.1060666022608554e-001,
          8.6445781879442274e-001, 5.3893711598234617e-001,
          -1.0211207229444764e-001, -1.2565582428760602e-001,
          -1.2670671970700462e-001, -2.0273385928692170e-001,
          9.6279275457681912e-001, 5.7882078412836091e-001,
          4.7271008295976574e-001, -8.2698247338966990e-001,
          -7.1120355923340750e-001, 8.1781484539002802e-001,
          4.9030611890599929e-001, -1.5023546254968562e-001,
          5.3633707910888284e-001, -7.2456963684073700e-002,
          9.6432690351824402e-001, 6.1230042530840056e-001,
          8.8699908029303054e-001, 6.7442377434475709e-001,
          1.1320736242350535e-002, -3.5205267029669990e-001,
          -2.5587594591796825e-001, 3.6561363610281261e-001,
          5.0819224388201856e-001, 9.0649491898756240e-001,
          -4.5802561513531892e-001, 6.6437463005154385e-001,
          8.6416900828695176e-001, 9.7957863976724971e-002,
          6.5692531760240025e-001, 4.1347370095044284e-001,
          6.7312318905401264e-002, 6.8128541619634542e-001,
          -3.0164378476454817e-001, 5.8914202920438496e-001,
          2.2455494032022047e-001, 9.6458652534175848e-001,
          -3.5569853549676278e-001, 5.9121530923239718e-001,
          -7.0708939685524175e-001, 1.1284737104377371e+000,
          1.9104801693084297e-001, 3.5839287374486778e-001,
          -6.0831545965596708e-002, 5.6522393129597948e-001,
          -9.5017406423196815e-001, 7.5880016332762645e-001,
          -8.0136884758539473e-001, 1.2916152281030668e-001,
          5.1201563879456236e-001, -1.0231198431538877e-001,
          -9.1402407117951101e-001, -3.2022691192045882e-001,
          -4.8748240402962739e-001, -2.5009484068378579e-001,
          -2.1721834472394888e-001, 6.2602354441261499e-001,
          -7.2946599531523704e-001, -6.0440377265677547e-001,
          9.4521979585173066e-001, -7.2122626450843885e-001,
          4.7931620563393346e-001, 7.7714352931487984e-001,
          -6.2585714771072964e-001, -7.1242419934552359e-001,
          2.0227822690550054e-001, 1.9035354598781287e-001,
          -2.6528776108511670e-001, 4.3819449997781701e-001,
          1.1138367444498394e-001, -3.8081656843013545e-001,
          5.2271209719091283e-001, 9.7507324162130327e-001,
          -6.3103465741823406e-001, 8.5518432028158353e-001,
          2.2522244225903734e-001, -1.1760638672520463e-001,
          -5.4117911996842494e-001, 2.3712151895345782e-001,
          -5.4707868137349946e-001, -1.3830068217025793e-001,
          2.2430849388654558e-001, -2.2938150283560305e-001,
          -9.7310653531809810e-001, -7.2452731164655104e-001,
          -7.7887836911750785e-001, 3.7242059321710280e-001,
          3.1807302645299762e-001, 5.4294413220204840e-001,
          3.1620814594787688e-001, -1.5622096797487989e-001,
          6.7664195687571316e-002, -2.1877388795337771e-001,
          -7.3313031490382230e-001, 4.3078547919881005e-001,
          9.3658818103666297e-001, 2.2314466286699161e-001,
          -1.0191200335576693e-001, -6.7907649804450021e-001,
          -7.6745524292979928e-001, 6.9961159654008986e-001,
          6.1598953037092175e-001, -5.1850345409685272e-001,
          1.2055682793748643e+000, -5.8137341078272942e-001,
          -3.2449835534792998e-001, -1.1578516270217791e-001,
          1.0058981083502743e+000, -8.2496130306272386e-001,
          3.0662044660863230e-001, 9.9864562625253217e-001,
          8.9302206561122233e-001, -8.9529015176782389e-001,
          -8.0473667355972844e-001, -6.8292262727186082e-001,
          -5.5961376550774788e-001, 4.4650571016151698e-002,
          3.1587717143358995e-001, -2.2928789738801134e-001,
          1.0072000019729344e+000, -1.2210407106778136e-001,
          -4.7389148298704320e-001, 8.5662073810471404e-002,
          9.8447371224299599e-002, -1.8937864950908684e-001,
          7.7847819705876276e-001, -2.1657001370094650e-001,
          9.1663445104026145e-002, -7.0361721740806682e-001,
          3.7487476258927172e-001, 9.3190541847726860e-001,
          1.8956452410915736e-001, -1.1957463318404471e-001,
          7.6387077867882991e-001, -7.5403945471331141e-002,
          3.9700642276269027e-001, -8.6620692790274090e-001,
          4.8111689475189162e-001, 5.9149638875680433e-001,
          -1.3687732205843486e-001, -3.5367316633075963e-001,
          -8.6837480702220493e-001, 6.8528016317924240e-002,
          7.4161079497087778e-001, -3.9252288750048497e-001,
          3.2395726556335180e-001, -6.6397129915051467e-001,
          -4.3983331200353326e-001, 1.4908788618087745e-001,
          7.8821774335001682e-001, -4.3978193192108150e-001,
          1.6558690426894099e-001, 4.3261279400882569e-001,
          4.2376911592328220e-001, 9.8935410751488195e-001,
          6.6371752155459285e-001, 8.6860629906201872e-002,
          -4.1473742482113463e-001, -6.4715571415248951e-001,
          2.3581451918074234e-002, 2.2574554106047887e-001,
          1.6324444438679944e-002, -2.4848807458665575e-001,
          -4.9391778195389890e-001, -7.8411895185296246e-002,
          7.4281175047668646e-001, 3.0897603077112690e-001,
          -3.7491085712153166e-001, 2.8473661987176740e-001,
          -2.3726921359871050e-001, -7.8111084135239900e-002,
          8.1307888327207545e-001, 3.8696242917130630e-001,
          1.1712144316606304e-002, -3.1806085508000892e-001,
          -2.1494759008263828e-001, 6.2946488285294766e-001,
          2.0876485671148712e-001, -3.5873999100784454e-001,
          -5.1525627797124218e-001, 7.4167214955619654e-001,
          8.3621523065931158e-001, 3.7395403989963716e-001,
          -3.9758932915660877e-002, -6.4482093555315667e-001,
          7.2399405930833427e-001, 1.1658643942242448e+000,
          3.7530682123804487e-001, -8.6094598519444301e-002,
          -7.2757970483538803e-001, -2.6564661836203213e-001,
          1.4100727464525811e-001, 4.5480551472697368e-002,
          -7.5808002620001244e-002, 8.1603291986827164e-001,
          2.6568508323347562e-001, 4.0030737477808126e-001,
          9.2690559462795619e-001, 1.5665500966082008e-001,
          -8.6168403903328805e-002, 1.6735001388572671e-001,
          4.0835874465357225e-001, 6.6290056341082859e-001,
          6.9905763257194914e-002, 5.0994431583450717e-001,
          5.6931090996548250e-001, -9.6159709969358756e-002,
          8.3895880565026781e-001, 8.8961201511450039e-001,
          -6.1568534270758063e-002, -6.4468580863817326e-001,
          5.3168225708650751e-001, -5.3321416970370161e-001,
          -1.6774249328974614e-001, 3.9939502016366568e-001,
          -5.4290391709573016e-001, 1.8436578040780663e-001,
          -5.6362054843795328e-001, -6.6943101930565879e-002,
          7.7282889094112217e-001, 7.2234316686233857e-001,
          -6.2201818824621424e-001, 5.5080831510865691e-001,
          1.9903532934935447e-001, 1.6181470039034165e-001,
          4.3824596667629029e-001, -6.3780383757596359e-001,
          1.4811737779844447e-001, 1.0331942382830059e+000,
          -3.0280754300785984e-001, 6.4041938189204395e-002,
          6.2351932808808241e-001, 5.1560869027750433e-001,
          -1.6644439323209123e-001, 7.5693231327850732e-002,
          1.7886455312682623e-001, -5.3368080475583524e-001,
          5.0174686755382425e-001, -7.2067884913145142e-001,
          -1.4630563411249256e-001, 9.7030084895438584e-001,
          -7.6523887680193137e-001, -9.3611521326282077e-001,
          -9.4298459353922626e-001, -7.7597452685203094e-001,
          -4.2416016701887593e-001, -4.4149967554438158e-001,
          -1.4022444291064978e-001, 5.5605229942142198e-001,
          1.0306058072671274e+000, 4.6262639360094276e-001,
          -2.5989475244958909e-001, -2.9626686129831187e-001,
          6.3946815411404484e-002, -6.7276704892101102e-001,
          -6.7336878379345921e-001, -6.8871822493242818e-001,
          -3.6578919631418538e-001, 2.1254927709816665e-001,
          1.2815645138847484e-001, 9.3467687820139111e-001,
          1.3346127418122748e-002, -4.4581207114393612e-001,
          -9.6456970030834432e-001, -2.7907682583304938e-001,
          9.9029474402137940e-002, 8.4113927319227483e-002,
          5.8147133237615900e-001, 7.7845933078788387e-001,
          7.9998758501313372e-001, 7.1158634895952932e-001,
          -2.6938296732977074e-001, 9.8435316044722643e-001,
          3.9863856818035825e-001, 3.1918819483983041e-001,
          8.2958377467316302e-001, -5.5012597142862600e-002,
          -8.2649994460699461e-001, 8.6100945921915650e-001,
          -3.9479980996509217e-001, -9.9854707192399181e-002,
          9.4847073952218808e-002, -7.7190196520259002e-001,
          5.9876846796617489e-001, -1.7264269555834361e-001,
          -1.0144090308575354e-001, 2.2975212900915551e-001,
          2.7885670509221699e-001, -3.1751935050186914e-001,
          7.1315335183789796e-002, -4.9532196031416503e-001,
          -7.7310328862764649e-002, -7.7491106720888903e-001,
          -2.1678075927059387e-001, -1.2863419189642378e-001,
          -5.8833346683842336e-001, -7.0212694551932309e-001,
          2.9485722324386876e-001, -4.6747273991967186e-001,
          1.1222820297940621e-001, -1.3972824215820648e-001,
          6.6669331876624194e-001, 8.6594528712320384e-001,
          -3.4291102154516612e-001, 2.0106318203815896e-001,
          8.3556878792846223e-001, 9.6479527640695850e-001,
          3.7309673553290151e-001, -7.3143618914791242e-001,
          -3.9034593705346499e-001, 2.4091939818167393e-001,
          1.1798857238602993e-001, -5.3567076575007566e-001,
          5.6165891329791974e-002, -2.1526550596699209e-001,
          -3.4900009306935575e-001, -6.9347984696950227e-001,
          9.2638277277442664e-003, -8.6970276092003984e-001,
          -6.5808535381946106e-003, 4.8030289405058507e-001,
          -5.6456082914996530e-001, -4.3218326064026047e-001,
          -7.2791061565240678e-001, 5.6865631332033879e-002,
          -8.2495182141476109e-002, -2.1306987265990462e-001,
          8.8447258619692368e-002, -3.2939871217899225e-001,
          7.2480720411126121e-001, -2.3140380377904479e-001,
          7.4809184672763007e-001, -3.3996846697049374e-002,
          -5.5293856286206233e-001, 1.2536280589146537e-001,
          9.2643998526513638e-001, -1.9151956143666138e-001,
          8.0604076804410552e-001, -3.0786245940279433e-001,
          -2.1910902496743925e-001, 6.5525699773293145e-001,
          6.4292306783086239e-001, 6.6034182512543194e-001,
          1.8682246129504479e-001, -7.3621483022021750e-001,
          -3.5458186805708458e-001, -1.8068694359146015e-002,
          -8.3815813728266408e-001, -2.6103685579661001e-001,
          8.1618054258166683e-001, -3.1169522772014480e-001,
          -7.9919130193967888e-002, -4.7830679273486498e-001,
          -1.9092733677503035e-001, 6.8887572098013869e-002,
          6.9750776908065726e-001, 5.6298215501896287e-001,
          8.1144639439392019e-001, 5.9851705158859381e-001,
          6.7914446988253108e-001, -9.5706539991049544e-001,
          -1.2774453730401616e-001, -3.9086626452849049e-001,
          3.6737507224940158e-001, -3.2881442835801994e-001,
          -4.4284201181481408e-001, 3.5275072429229370e-001,
          4.2731054528542356e-001, 4.3333246386801394e-001,
          2.5544090240098843e-001, 1.2971646225884928e-001,
          1.0344328550644930e+000, 1.0831894800603910e+000,
          -7.0574570188930708e-001, 4.2607077261405829e-001,
          3.7208605123288280e-001, -1.9389327615047525e-001,
          4.2882652406331245e-001, -2.0156859156190512e-001,
          -9.9918681970606937e-001, -5.4608602937765249e-001,
          -3.2509463809067315e-002, -6.2419775767507879e-001,
          8.1238950542953631e-002, -3.2088685207508533e-001,
          1.2325056969924897e+000, -2.7574388627198576e-001,
          -7.7894411910706862e-001, -6.0085888245559098e-002,
          -4.8028713123181371e-001, -3.8933990520796463e-001,
          1.2816876995811791e-001, 1.0814415425951519e-001,
          -4.4570285227828643e-001, -2.7956889065031143e-001,
          -7.1864323034514122e-001, 8.7110561914224327e-001,
          -3.0612666594158611e-001, -3.0932039668091449e-001,
          9.6080580054362796e-001, -7.4480096026382836e-001,
          1.0198930127464012e+000, 1.0465050957717155e-001,
          -4.8988627075909230e-001, 9.5384046932084687e-001,
          9.4713572734045992e-001, -1.2284330752565691e-001,
          -4.3125519271937351e-001, -8.3126080015342485e-001,
          5.3103807746483378e-001, -2.9438954078756158e-001,
          -2.5346614548032953e-001, -9.8928797139790831e-002,
          1.7105438196560188e-001, -6.7803603283712077e-001,
          -6.3372130647628344e-001, 1.8999015768461947e-001,
          -1.5952367445576487e-001, 5.9001426743665142e-001,
          6.2694031482622270e-001, 5.4047624309668252e-001,
          8.9446412195680525e-001, -2.9765829725491366e-001,
          -8.4885253582860520e-001, -4.1174656338337540e-001,
          7.7012137999283881e-001, -4.8899810882090022e-001,
          9.6169765950014874e-001, 8.0991236439183723e-001,
          1.2384636162454392e-001, -5.1991042528342024e-001,
          -1.1794513877992119e-001, -6.0166830844065622e-001,
          1.1095184819007288e-001, 5.0207182740305469e-003,
          7.9316355126414817e-001, -1.1915663338197256e-001,
          7.4694621697967967e-001, 5.7874011534788128e-001,
          8.6757639822441635e-001, -1.1301808606833388e-001,
          6.8435678987933501e-001, 8.7556220417429309e-001,
          4.4975120466853563e-001, 1.0338313413752429e+000,
          4.7627580001673708e-001, 5.8545636703784965e-001,
          -4.1228364651407756e-001, 3.6186545512861053e-002,
          3.3694646441962028e-001, 1.4470931980247756e-001,
          9.4807575626788987e-001, -2.1738590630522575e-001,
          -2.6913772030685201e-001, 7.2447748665450074e-001,
          -6.2746596467858506e-001, 1.0513550608812487e+000,
          9.1848708343089325e-001, 1.1818783425539683e+000,
          -5.4263112119640056e-001, -7.8187535915636930e-001,
          5.0001006865611830e-001, -4.5452344716556503e-001,
          6.8981856077875414e-001, 9.3585012180273464e-001,
          5.5746896149382674e-001, -1.9233370878257913e-001,
          -7.2048822326848383e-001, 9.0237374923648428e-001,
          -8.4288179845609668e-001, -1.4839718803984467e-001,
          6.2203849525177979e-001, 1.1589477799822234e+000,
          3.6505417500954584e-001, 6.0026692224674072e-001,
          4.4497807455677663e-001, -4.7964885915663547e-001,
          2.8506140665012630e-001, 9.7935694969501297e-001,
          4.5454918126049326e-001, 8.5902633473063517e-001,
          -5.8773386076015433e-001, -5.3906070441062459e-001,
          -1.9489249130628999e-001, 2.2759675819076297e-001,
          -5.9593133311202307e-001, 7.1256677351903464e-001,
          4.3089447327748648e-001, 1.0276729858833955e+000,
          -9.4774674217472243e-001, -7.9223482072366680e-002,
          -4.3668221817888664e-001, 3.4733363274881163e-001,
          -1.0169210278352551e-002, 1.1356293490632910e-001,
          2.5216193525122854e-001, 3.6361757803656963e-001,
          3.1235409808130377e-001, 8.2158650665171307e-001,
          -1.1204627469086806e-001, 6.9369741503934190e-001,
          7.7018233858381491e-001, -1.7690470057218414e-002,
          -3.1142905575562974e-001, 4.8413346854250217e-001,
          1.1297583888482540e-001, -7.7602898204304538e-001,
          -5.6046319989842974e-001, -2.5409117094149480e-001,
          8.1582930627399364e-001, 9.0905593093572185e-002,
          -4.0658697058676879e-001, 3.1381986293470859e-001,
          -1.4799393306779879e-001, 1.0242680876862255e-001,
          3.8358017210721701e-001, -2.2336433719693441e-001,
          9.1410004696546032e-001, 7.0914155750652008e-001,
          4.4590141411330542e-001, -2.5823624288686875e-001,
          2.8892459783844215e-001, 2.2781264066847126e-001,
          3.1760341536758485e-001, -4.2548040210274934e-001,
          -9.1290184535463370e-001, 4.7536019406323538e-001,
          -1.5249932008748637e-001, 4.2518372154757317e-001,
          -3.1526826488107040e-001, 5.5954413502505862e-001,
          2.4277121983886701e-001, -2.0014786678501154e-001,
          -4.2531163267874467e-001, -2.5602925635058144e-001,
          -2.0992469657200397e-001, -6.2857213674273618e-002,
          -7.6118887117574341e-001, -4.0605264120673557e-002,
          9.9225951087395570e-001, -2.7860636721830045e-002,
          -3.7449912695865006e-001, -5.3337378847968120e-001,
          7.4608309444279053e-001, 4.3086116100094018e-001,
          3.8136710725532852e-001, -1.9106650830921115e-001,
          -8.5855087507173211e-001, -2.8130426395396833e-002,
          -6.4960413391493244e-001, 2.2400073146441987e-001,
          -6.1282783857043543e-001, -7.6911525608926112e-001,
          3.1915744785054984e-001, 1.1533396504003832e+000,
          -4.1537571459015421e-001, 2.0201987814220199e-001,
          2.3540914211086458e-001, -2.2471109648526785e-001,
          4.1925739587760985e-001, -3.2863168563870900e-002,
          -7.8300592906874367e-001, -4.3798079708790227e-001,
          -7.2971615807254364e-001, 1.0900070463961573e+000,
          7.3083787444098636e-001, 7.8808813265651334e-001,
          -7.1273160026852489e-001, 7.7526181831540941e-001,
          3.9308813161677787e-002, 3.0021418346253970e-001,
          1.8018369438237797e-001, 1.0047857062625043e+000,
          -5.8936659451410845e-003, 1.0166046474095622e+000,
          -8.7263902736208876e-001, -3.2378346977862427e-001,
          -6.8541267591336261e-002, -6.7389425495661082e-001,
          -4.7249607116975534e-001, -7.1493892546720172e-001,
          -4.6850911023387493e-001, 4.6112567934451654e-001,
          -7.5872007380682271e-001, 2.2538616555234392e-001,
          -4.7844056910334010e-001, 4.7419075395301757e-001,
          -2.8043187198065950e-001, -7.5877360752760581e-001,
          -4.6020407592862228e-001, 1.1534834113526462e+000,
          7.2082438605663013e-001, -2.6282594701361128e-001,
          5.8242315671611267e-001, 7.6480458620275893e-001,
          -2.7829116984709540e-001, 8.3268823224217769e-001,
          8.6968134416714493e-001, -2.7717953632716130e-001,
          -6.3507974015585966e-001, 1.1055875900473338e+000,
          -7.1071302217265719e-001, 7.8267249563852581e-001,
          3.9049914403372035e-002, 3.6133400120334930e-001,
          1.7861492581056990e-001, -1.2279528024747774e-001,
          1.3262245203008704e-002, -2.3451120415090701e-001,
          -2.7609796900752859e-001, 8.6864344322250475e-001,
          4.6429856275304615e-001, 8.8061206667860759e-001,
          -1.9048502378163176e-002, 4.4834660858184561e-001,
          -4.4979969938957581e-001, -3.8899797976541700e-001,
          6.9205536712940463e-001, 8.7528394330572912e-001,
          1.3659518641130516e-001, 3.5153967570172306e-001,
          -2.7564584859250901e-001, -7.1574385480015024e-001,
          5.4999994747439318e-001, -2.6269114002947924e-001,
          -2.4092932158325120e-001, 1.0621679775975061e+000,
          -2.7689676446464384e-001, 2.3162546407639958e-001,
          7.1250303465846032e-001, 3.0860612653842262e-001,
          -5.4309879371441572e-001, -5.5734696752911250e-001,
          9.3437210162047674e-002, -7.9093043025468868e-001,
          -3.8045581613172291e-001, -1.5988629024969014e-001,
          1.9507370624860437e-001, 3.0206946431479326e-001,
          9.2735675954221741e-001, -1.1891642227127038e-001,
          2.4741946062613240e-001, 8.2096368457309055e-001,
          -6.5532398501050482e-001, 4.4386885208473170e-001,
          5.5085719572011627e-001, -4.0525731034194767e-001,
          1.0262307637458479e+000, -8.4304207776329243e-001,
          6.4169889457575779e-001, 3.7215971384034230e-001,
          6.9758273806416549e-001, 8.5998197684934286e-001,
          -2.8686162293175155e-001, 9.1123959742622695e-001,
          1.8214381486335271e-001, -7.4581018978024119e-002,
          4.1295844201340864e-001, 7.3144319703375993e-001,
          -2.8952694416554259e-001, 8.7045259087620230e-001,
          -2.9631209209561543e-001, -2.5528542297749585e-001,
          4.0943579250860884e-001, 9.1261692497295421e-001,
          3.5915424395824047e-001, 7.8660038562134638e-001,
          -5.1531008267966749e-001, -7.0606304648375295e-001,
          8.6340537475120760e-001, 5.7603761918966978e-001,
          -6.2516186582406574e-001, 1.1295119243111442e+000,
          9.7059460292612010e-001, -4.2432737965402610e-002,
          6.9060055050311986e-001, 6.7555475013361532e-001,
          1.2142832406382213e-001, -3.9161295396604621e-003,
          3.2915963066792814e-001, 1.0187779650826843e+000,
          -8.0303918012513620e-001, 8.0817117346724499e-001,
          -9.3024080466160863e-001, -4.3421638203259494e-001,
          6.0772195374349780e-001, -3.9689548682895098e-001,
          -2.7317682855028787e-002, -9.8997917168945918e-002,
          4.5468636955476337e-002, -5.9718391300500784e-001,
          -8.2839944978558977e-001, 3.8495567288009630e-001,
          1.0295889897141579e+000, -2.2620282029089694e-001,
          -7.8252459891487725e-001, -8.1120616537329693e-001,
          -1.5813768581077656e-001, -4.9183026937862001e-001,
          7.7634675403608921e-001, -2.2664587137421374e-001,
          -4.5054725100599152e-001, 7.9364052821423936e-001,
          3.3232665019468138e-001, 7.0576356115337147e-001,
          1.3264801829445927e-001, 8.2273341727012150e-001,
          -3.0678701280505671e-001, -7.2048064243183785e-001,
          9.4223197420886140e-001, 3.5426569160734850e-001,
          1.3801219351738622e-001, 4.1495035003105435e-001,
          3.9126010064206301e-001, -8.9103287746048687e-001,
          4.2313560583162813e-001, -7.4705103082151436e-001,
          8.0446565469879816e-001, 1.1247337066985061e+000,
          -4.7757896431267544e-001, 1.0588582524491246e+000,
          3.4061512588613763e-001, 4.4507155917548669e-001,
          5.1039750740052447e-001, -5.2481148993698112e-001,
          1.0214848368633653e+000, -5.9426508563826808e-001,
          7.5241278567297831e-001, -6.8459865296790934e-001,
          9.4769135157681028e-001, 4.6317709522109157e-001,
          -3.8275900774948468e-001, -5.4663882491712695e-002,
          5.6207230607093184e-001, -6.5534153521013394e-001,
          7.7173626745955171e-001, 1.7800390941149036e-001,
          6.3899629726875662e-001, 7.6807366984598624e-001,
          1.0181210735163877e+000, -3.4810355906775514e-001,
          5.8679731013352199e-001, -3.2542068213921221e-002,
          5.8937964020116085e-001, -3.3170918008763300e-001,
          -6.3367938650238498e-001, -7.3259272439000278e-001,
          7.6000790196724877e-001, 7.9574732468515719e-001,
          1.0566582196372978e+000, -4.3220731687120684e-001,
          -4.6352757454293453e-001, -8.0006716509873205e-002,
          5.9371806460745979e-001, 5.7065650232691623e-001,
          6.6937899791002753e-001, 1.5818717420412071e-001,
          5.0325476855780560e-001, 6.8817623025582064e-001,
          3.0419310904946355e-003, -6.3989103276114745e-001,
          5.9460233852116917e-001, -8.6853610135848680e-001,
          1.0646047511076335e+000, -3.9371091217713777e-001,
          5.8634989119740466e-002, -5.0203854837944657e-002,
          -3.9389408590641484e-001, -3.7694701478786380e-001,
          1.0431092574101426e+000, -3.4016992755851566e-001,
          -5.6512048851709562e-001, -6.9560477158611578e-001,
          9.6417519980113187e-001, 6.0606852428536762e-001,
          -4.0798855811430634e-001, -3.0827657236026018e-001,
          1.8590399213072073e-001, 4.0950771089955096e-001,
          3.4379825213976795e-001, 8.0323896110621984e-001,
          -8.8677167450008421e-001, 9.5457043439215661e-001,
          3.2389072571814520e-001, 6.8989568765827203e-001,
          -7.9128496178114321e-002, -3.6955991866265886e-001,
          9.6133518428558710e-003, -3.6996010991298489e-001,
          7.0891844951678840e-001, 2.2726584650383433e-001,
          -4.1137803714943599e-001, 1.0189329162964400e+000,
          -4.2945241275020113e-001, -8.1116734024893533e-001,
          -4.2403173629765040e-001, -6.7235590483507757e-001,
          -9.0218693817145967e-001, 5.6392277162993021e-001,
          6.5846637606423852e-001, 3.7060454692102657e-001,
          4.0000307061301532e-001, 3.3523594704371079e-001,
          -4.3313277790419069e-001, 1.0088158616048522e-001,
          -2.9671098937664847e-001, 9.9177810247150311e-001,
          6.8334914390804591e-001, 6.9220855366770750e-001,
          7.1663287622525185e-001, 8.4631655218241497e-001,
          -5.7192400395205978e-001, 5.1084910328083211e-001,
          4.7587379532348761e-001, -8.3049263099932324e-002,
          -1.3767252313253483e-002, -6.0312079739278390e-001,
          7.4958634913733391e-001, 8.9399582882638190e-002,
          -2.7397904666090322e-001, 1.8370638992599433e-001,
          -6.7616332790088940e-001, 8.6953728354519211e-001,
          -5.6461601332253430e-001, 7.6691169811896427e-003,
          -4.5313595857208450e-001, 8.5068641412109536e-001,
          -3.1112834759549007e-001, 2.1399028242797369e-001,
          -5.3958946201397318e-001, 1.2796970383368550e-001,
          -1.0098497490866309e+000, -9.2452075608914752e-001,
          5.0202168331731711e-001, 2.8623615252103657e-001,
          -2.5702469928908311e-001, -3.3372647435385766e-001,
          -7.3115112935373805e-001, -8.8247453390121355e-001,
          2.9316498008166280e-002, 1.0444411447366850e+000,
          3.9440113978625074e-001, 1.3001616139025246e-001,
          6.1860860613998558e-001, -4.7709187936781328e-001,
          -7.6883739717913591e-001, -2.2867527542534993e-001,
          2.5688971623005694e-002, -2.1375209691406297e-001,
          6.3532764533891728e-001, 4.1905529016136639e-001,
          -8.7978366081856862e-001, -3.1957887412152114e-001,
          -6.5676129043250120e-001, -7.6812967085890582e-001,
          -6.4316441636035893e-001, -1.7594634569644921e-001,
          -5.1109885201256677e-001, -7.0005361703935443e-001,
          7.6244123563225175e-001, -6.1160623764488053e-001,
          5.3835432792204777e-003, 2.9560359470308245e-001,
          -4.5192726553702456e-001, 1.1872753757442739e-001 ]
