%YAML:1.0
my_nn: !!opencv-ml-ann-mlp
   layer_sizes: !!opencv-matrix
      rows: 1
      cols: 3
      dt: i
      data: [ 8, 41, 42 ]
   activation_function: SIGMOID_SYM
   f_param1: 1.
   f_param2: 1.
   min_val: -9.4999999999999996e-001
   max_val: 9.4999999999999996e-001
   min_val1: -9.7999999999999998e-001
   max_val1: 9.7999999999999998e-001
   training_params:
      train_method: BACKPROP
      dw_scale: 1.0000000149011612e-001
      moment_scale: 1.0000000149011612e-001
      term_criteria: { epsilon:9.9999997473787516e-006, iterations:1000 }
   input_scale: [ 1.3015043628186904e+001, -6.1881510082049545e+000,
       1.7907864691725173e+001, -8.5511676927063682e+000,
       2.0508800015455574e+002, -4.1862944757460001e+000,
       2.1391920847345261e+002, -5.0864820847810943e+000,
       8.4331512941294093e+000, -3.0237610581704932e+000,
       6.9025769250993187e+000, -3.6487532899546915e+000,
       9.1766695031256642e+000, -2.2995527049117634e+000,
       7.1543939742578448e+000, -2.2322789516146568e+000 ]
   output_scale: [ 1.0526315789473684e+000, 0., 1.0526315789473684e+000,
       0., 1.0526315789473684e+000, 0., 1.0526315789473684e+000, 0.,
       1.0526315789473684e+000, 0., 1.0526315789473684e+000, 0.,
       1.0526315789473684e+000, 0., 1.0526315789473684e+000, 0.,
       1.0526315789473684e+000, 0., 1.0526315789473684e+000, 0.,
       1.0526315789473684e+000, 0., 1.0526315789473684e+000, 0.,
       1.0526315789473684e+000, 0., 1.0526315789473684e+000, 0.,
       1.0526315789473684e+000, 0., 1.0526315789473684e+000, 0.,
       1.0526315789473684e+000, 0., 1.0526315789473684e+000, 0.,
       1.0526315789473684e+000, 0., 1.0526315789473684e+000, 0.,
       1.0526315789473684e+000, 0., 1.0526315789473684e+000, 0.,
       1.0526315789473684e+000, 0., 1.0526315789473684e+000, 0.,
       1.0526315789473684e+000, 0., 1.0526315789473684e+000, 0.,
       1.0526315789473684e+000, 0., 1.0526315789473684e+000, 0.,
       1.0526315789473684e+000, 0., 1.0526315789473684e+000, 0.,
       1.0526315789473684e+000, 0., 1.0526315789473684e+000, 0.,
       1.0526315789473684e+000, 0., 1.0526315789473684e+000, 0.,
       1.0526315789473684e+000, 0., 1.0526315789473684e+000, 0.,
       1.0526315789473684e+000, 0., 1.0526315789473684e+000, 0.,
       1.0526315789473684e+000, 0., 1.0526315789473684e+000, 0.,
       1.0526315789473684e+000, 0., 1., -1. ]
   inv_output_scale: [ 9.4999999999999996e-001, 0.,
       9.4999999999999996e-001, 0., 9.4999999999999996e-001, 0.,
       9.4999999999999996e-001, 0., 9.4999999999999996e-001, 0.,
       9.4999999999999996e-001, 0., 9.4999999999999996e-001, 0.,
       9.4999999999999996e-001, 0., 9.4999999999999996e-001, 0.,
       9.4999999999999996e-001, 0., 9.4999999999999996e-001, 0.,
       9.4999999999999996e-001, 0., 9.4999999999999996e-001, 0.,
       9.4999999999999996e-001, 0., 9.4999999999999996e-001, 0.,
       9.4999999999999996e-001, 0., 9.4999999999999996e-001, 0.,
       9.4999999999999996e-001, 0., 9.4999999999999996e-001, 0.,
       9.4999999999999996e-001, 0., 9.4999999999999996e-001, 0.,
       9.4999999999999996e-001, 0., 9.4999999999999996e-001, 0.,
       9.4999999999999996e-001, 0., 9.4999999999999996e-001, 0.,
       9.4999999999999996e-001, 0., 9.4999999999999996e-001, 0.,
       9.4999999999999996e-001, 0., 9.4999999999999996e-001, 0.,
       9.4999999999999996e-001, 0., 9.4999999999999996e-001, 0.,
       9.4999999999999996e-001, 0., 9.4999999999999996e-001, 0.,
       9.4999999999999996e-001, 0., 9.4999999999999996e-001, 0.,
       9.4999999999999996e-001, 0., 9.4999999999999996e-001, 0.,
       9.4999999999999996e-001, 0., 9.4999999999999996e-001, 0.,
       9.4999999999999996e-001, 0., 9.4999999999999996e-001, 0., 1., 1. ]
   weights:
      - [ -1.7823796353793320e+000, -3.9074353871396389e-001,
          -2.1340062245159014e-001, 2.6257785653728705e-001,
          -3.3764183080784562e+000, -1.6180033298434191e+000,
          -3.7318663645693306e-001, 7.6599219585158651e-001,
          -5.2220083094006935e-002, -6.6493492889436645e-001,
          -5.4963115681399086e-003, 4.6959642406847324e-001,
          9.1872347316376735e-001, -1.9216677949580487e+000,
          1.8704176169553538e-001, -1.0629228887552677e+000,
          5.1470581588894537e-001, -1.1016546526111253e+000,
          -1.0755671340508974e+000, -4.3720505671417026e-001,
          1.0927855008522400e+000, 3.4184619041916342e-001,
          -1.1390760136122612e-001, 8.4330858889680893e-001,
          1.0228198867540400e-002, -9.4625960208650328e-002,
          -4.7778730594466379e-001, -1.0744883363562165e+000,
          4.1935491598285607e-001, 1.4173919094671719e+000,
          1.2211716247963944e-001, 1.3846713873728048e-001,
          -3.5338321621690266e-001, 1.8945190198713229e+000,
          1.8895969602285536e+000, -9.8404726269158749e-001,
          2.7822885425803784e-001, -1.0241111544509611e+000,
          -3.8920130648644996e-001, -2.1335471619513946e+000,
          1.2453946290363609e-001, 3.4669330670230951e+000,
          -9.2853637282700630e-002, -5.6959323552706853e-001,
          2.4872466778298674e-001, -1.3686546625299273e-001,
          1.3381217771713472e+000, -7.4489180682331557e-001,
          -7.8135517896301054e-001, -3.0305566236389753e-001,
          -2.5156729966545077e-001, 1.7980270521065006e-001,
          4.3424068145745021e-001, 5.9940484597527721e-001,
          -3.2834532119154020e-001, -2.5969899822794216e+000,
          -6.6246089884066994e-001, -2.1100324254662270e-001,
          -1.6643662834904049e+000, -1.3291742890392046e+000,
          -2.2393078622745848e+000, 1.3830582977286932e+000,
          2.6217414881684838e-002, 7.3030274980533993e-001,
          1.0540298283199032e+000, -1.6284796513282180e+000,
          6.5346177329284145e-003, 8.1536334362052942e-001,
          2.5890241654132545e-001, -5.8731089153573457e-001,
          1.3479253686823975e+000, -1.6699260668005714e-002,
          6.1457763787674223e-002, -1.2726171232767374e+000,
          3.3769778405272510e-001, -5.3561164028879749e-001,
          -7.2965322056861803e-001, -9.9535475526307304e-001,
          8.7577610939867956e-001, 1.1084278545488020e+000,
          1.1255387972063506e+000, -7.8382289335308852e-001,
          -1.7707699359680920e+000, -1.2920749882881899e+000,
          -4.1052185493627391e-001, 6.3813630493718271e-002,
          9.5834335400505871e-002, 1.5886121627249696e+000,
          1.9878777435780470e-001, -6.6104382253527119e-002,
          1.3552455184294558e+000, 1.6939332135618327e-002,
          8.1514802493063990e-002, 5.4890420368352100e-001,
          1.8017951196339372e+000, 4.7451232315450631e-001,
          -4.6294725792165509e-002, 5.5315813800302926e-001,
          6.1885351909635300e-001, -1.8227277684191656e+000,
          -6.8774552892995233e-001, -1.7161143829250483e+000,
          -1.1786666992976356e+000, -2.0116019382095998e-001,
          -6.8887544555465974e-001, -5.0521962447120661e-001,
          9.3871485836367430e-001, 4.7930198427540310e-001,
          7.0399075198910047e-002, -1.2537874114423473e+000,
          -1.1977367485859525e+000, -3.0646755882989192e+000,
          -4.2290167150577601e-001, -1.9481604672356567e-001,
          -5.5149863985231051e-001, -3.3337273327439815e-001,
          3.7600637500409551e-001, -5.3411468611802959e-001,
          1.7673178850748363e+000, 1.9360713696350171e-001,
          -2.3076610853531165e-001, -7.3924700527313414e-001,
          7.5606209402166713e-001, 1.4150205159328406e+000,
          1.0365938995202326e+000, -8.5381902052235958e-001,
          9.6355248835940543e-001, 1.4824487500185879e+000,
          5.3242693194916912e-001, -3.8834846446588172e-003,
          -7.0611295104565563e-001, -6.1031040622372279e-001,
          4.0496920750828641e-001, 2.1437610521073115e-002,
          3.6926481977561482e-001, -1.3082835086845086e+000,
          -2.1847881550327636e-001, 1.1957407847195503e+000,
          2.2888879058650460e-001, -2.5149370645657931e-001,
          -5.1418951996395801e-001, -7.5739812762742165e-002,
          -1.4105667500207126e+000, 2.1612481498441499e-001,
          1.0714473808778593e-002, 1.8918756359396069e+000,
          3.6244653771878915e-001, 2.3105720202797451e+000,
          -3.5141869628126038e-001, 3.5821014989186866e+000,
          -2.0613083117377545e-001, 5.2759870654684193e-001,
          7.9329009069038980e-001, 1.4181239863493111e-001,
          4.9536440884675059e-001, 1.4148655466551012e+000,
          4.2603138582342509e-001, 1.4640306305312552e+000,
          7.2878745873795603e-001, 1.1573250215581763e+000,
          1.7519927375239341e+000, -1.7705676563309014e-001,
          1.8144362241565715e+000, -4.9181721244029655e-002,
          5.2387949073499185e-001, 7.9166333430634050e-001,
          -2.0533490776703780e+000, 5.0956167940779484e-001,
          1.4833204311134167e+000, -1.6881359886667744e+000,
          1.8857643448439604e-001, -7.2397385262984426e-001,
          9.5487841780997451e-001, 6.1288956069192047e-001,
          -2.7382778343364228e-001, -8.0667075097726998e-002,
          6.3346037073962580e-001, -7.1602106240454388e-001,
          -7.0899421732009116e-001, 1.4921047514807548e-001,
          -2.3729532086719005e-001, 1.8383732053362056e+000,
          8.0500194145184034e-001, -1.4602074321222860e+000,
          -7.8090361627362506e-002, -3.9006418938515075e-001,
          -2.4019165432907064e-001, -1.4931112944531486e-001,
          -1.0747143530569232e+000, 3.6312399633289300e-001,
          8.2089075694893487e-001, 4.5762031088628655e-002,
          -1.6590457907610628e-002, 2.3799648496527981e-001,
          3.2870521141892495e-001, 1.9712833957926418e-001,
          9.6798565782075929e-001, 1.6511069765423085e+000,
          5.3338625593358524e-001, 1.6118434987634780e+000,
          -1.1795242603345391e+000, -7.1524476567346440e-001,
          6.6578074644030560e-001, -1.5882280455726576e+000,
          1.6407457580970711e-001, -4.7468370221236267e+000,
          -5.6382009573131020e-001, -2.1359400252226987e-001,
          3.8140413770040549e-001, 2.4064201782550054e-001,
          7.0818102967775032e-001, 1.3502647051370473e+000,
          1.2682517674677148e-002, 5.7664537795539239e-001,
          1.0521056985392012e-001, -1.5227997166150231e-001,
          -6.2977394886970950e-001, -1.0156356261235122e+000,
          2.1466957424403259e+000, 2.6503268240227046e-001,
          -3.2930364805529222e-001, 3.2460286768519603e-001,
          -6.1984812995962446e-001, -3.4478078242362464e-001,
          4.8181471234753609e-001, 7.3389584860220736e-001,
          -6.5985279326557600e-001, 5.6378214060302012e-001,
          2.6727058178390173e-001, 9.7510959394294028e-001,
          3.5422739092458178e-001, -3.3116479926547132e-001,
          4.9602882747253446e-001, -3.5102197417097786e-001,
          1.5779098482855993e+000, 1.7860252375752114e-001,
          3.1875560143045634e-001, -1.8092870599915010e+000,
          6.8237234151651016e-001, 5.9513834771770224e-001,
          9.4813098027340370e-001, 1.6802620603982559e+000,
          1.0064436907466017e+000, 2.9617758134120185e-002,
          -1.6514020099624235e-001, 5.2882712475739557e-001,
          3.1980661187999093e+000, -4.6487671183284202e-001,
          6.6062314804267164e-001, 1.7659815390660044e-001,
          -1.2104481121185355e+000, -6.8062392400306204e-001,
          2.8804593690923952e-001, 3.5047626982191465e-001,
          1.1259428874580120e+000, 2.8253665390213267e-001,
          3.8594284589895284e-001, 8.3458094943373795e-001,
          -9.9477540900153116e-001, -2.6771221724371577e+000,
          -1.9026578762819446e+000, 4.0423631527632375e-001,
          3.3632282342920294e-001, -4.9915127842986584e-001,
          -2.2765866849772705e+000, 1.0584171616790385e+000,
          -1.5220030700914575e-001, -9.1406500418565684e-002,
          1.7285352312413366e-002, 6.9794301078001081e-002,
          1.2586713385693632e-001, -1.7791710982770569e-002,
          -1.0525217956674084e+000, 1.7250620558514412e-001,
          5.4402633934015654e-001, 2.0218016853566922e+000,
          2.1830015204949454e-001, 6.8741042101871947e-003,
          -5.2731601939895067e-001, -1.8098546926739354e+000,
          1.2977240896704232e+000, 1.8244486456588167e+000,
          1.0042558281414005e+000, -2.1799788512885945e+000,
          -3.5752811180774358e-001, 9.1891978966089405e-001,
          -8.0276705314262353e-001, 1.4932035529603278e+000,
          1.9309803991976865e-001, -1.1664373344877417e+000,
          -2.1385375671738588e-001, -2.8089107550311088e-001,
          3.7387933207487345e-001, -3.4128260744017735e-001,
          -1.2826712720414873e-001, -1.4683990897917298e+000,
          3.1924210763224090e-002, -7.6735838891298633e-002,
          6.5352902918245734e-002, 1.3341127284475970e-001,
          -1.0809614579984328e-001, 1.2776354944076853e+000,
          -5.5263526590486145e-001, -4.0225852430184883e-001,
          -1.3696663194945784e+000, 3.1920516170229835e-001,
          -1.2631337807387874e-001, 8.8423078141755332e-003,
          -3.5223213308055307e-002, -5.4023609963916552e-001,
          -9.7605607169398345e-001, 4.3809864908211663e-002,
          2.5818237678688299e-001, 2.3969503089892263e-001,
          9.4589383493229956e-002, -3.4998526723300988e-001,
          -6.4866707367628462e-001, -1.7998742475683147e-001,
          -2.7460662705683764e-001, -8.5377920914993605e-002,
          -2.0645938359622074e+000, -3.5385373663972358e-001,
          -2.9308655118427720e+000, -2.4423977254207792e+000,
          -7.2637724659306679e-001, 1.1707316747140989e-002,
          1.2515151469686758e+000, -1.5494036890467289e+000,
          1.5989174452009784e+000, 1.8226841687116526e+000,
          -1.1492477688758269e+000, 2.5333013681801364e+000,
          -1.4917703568800533e+000, 2.2141700218649452e+000,
          -1.2428727074215373e+000, 1.7976245417491212e+000,
          -8.2783595406457877e-001, 2.4856848265565477e+000,
          -2.9304241264842004e+000, -2.0080401240970711e+000,
          -1.0709846961490110e+000, 5.2958090512596590e-001,
          -4.7620262776429234e-001, 2.5862534911931139e+000,
          2.5620698581946244e+000, -6.5354932905508678e-001,
          5.7289627364400730e-001, -2.1968634768571640e-001,
          1.5604750718197167e+000, -2.8590514879277213e+000,
          2.5440744169476037e+000, 2.6915700388408675e-001,
          -3.3981543134189718e-001, -2.8450382968685024e+000,
          -2.7150798661605358e-001, 2.6198207690184261e-001,
          1.9431810631756397e+000, -9.2339890642720668e-001,
          2.8757006153132552e+000, -2.4668329637651274e+000,
          -1.8168898863246905e+000, 1.4934404727212568e-002,
          1.4429796565532673e+000, -1.2404274569606584e+000,
          -1.3027424279374944e+000, -1.2003443718127147e+000,
          -2.5944867481203429e+000, -3.7586564029734904e-001,
          4.5811766144258663e-003 ]
      - [ 4.0501647976440835e-001, 1.3795663723302259e-001,
          6.5777135212562579e-002, -1.6132930470705917e-001,
          2.1141973578574733e-001, 1.6057560774459745e-001,
          -1.0748316384770289e+000, 1.1473769246548779e+000,
          -1.6364216633333446e+000, -2.0165090162564909e+000,
          1.0856243053784649e+000, -5.1388610117442113e-001,
          -1.1692680803390265e+000, 2.5843266869193998e-001,
          9.7296551465817005e-001, 5.5703509940995011e-001,
          9.8767052581389259e-001, 2.4361383499750897e-001,
          -3.3126388326353107e-001, 1.1450924249488363e+000,
          8.5586412679571955e-001, 4.6004752139619343e-001,
          1.3403969313121089e+000, -2.3913067282515369e-003,
          3.4902056356434230e-001, -1.3453557795348872e+000,
          1.0847849918069712e+000, 4.7404982608395985e-001,
          -5.7826689666212128e-001, 9.1816745579238482e-002,
          -9.4652626840023568e-001, -1.1333895599647989e-001,
          8.0268773005522598e-001, -1.2351854448886062e+000,
          7.7083562848298826e-001, -1.1425852450333820e+000,
          -1.2934620615025803e+000, -2.0999469443980047e-002,
          -7.6245803675432366e-001, 3.9345711692828683e-001,
          -5.4118109076234577e-001, 7.7847805565424921e-002,
          7.8547130700807422e-001, 8.2618443690606924e-001,
          -1.9566843654247967e-001, -5.6902798247377584e-001,
          -1.1891695278487868e+000, 1.6558478097759219e-001,
          6.8332281626708702e-001, -2.1525937724502500e-001,
          -3.7558623748065073e-001, -1.4242750634164643e+000,
          -1.0092119040655403e+000, -8.0445265349697836e-001,
          2.7483196465569354e-001, 9.1111872962548190e-002,
          -1.8515369553721833e-001, -9.9846560144031560e-001,
          -2.5792627623183617e-001, -1.4332379464522247e+000,
          -4.4825633532487424e-001, -1.1583543321002463e+000,
          -6.4340281525495657e-001, 1.2369118948319073e-001,
          1.9609879201751815e-001, -8.6762012509209341e-002,
          1.5938187616946675e-001, -4.7562809592410965e-001,
          9.5772673588213841e-002, 2.8914965399595000e-001,
          -2.1574838364020293e-001, -3.7535130657022975e-001,
          -1.1726051469396714e+000, 4.1460617741929308e-002,
          -8.2269758304955898e-001, 1.6570615138539987e-001,
          -1.0391834776774203e+000, -5.1460152960810801e-001,
          -1.1458733192490862e+000, 2.9123247214665093e-001,
          1.7337394652742696e-002, -3.8110302146932129e-001,
          -5.5427817605277285e-001, -6.6140684490943225e-001,
          -3.1600010436982329e-001, 6.3044650786325140e-001,
          -4.4935364942231789e-004, -2.9756100669016533e-001,
          8.1946819598370413e-002, 6.0438559131290193e-001,
          -2.1812440840812880e-001, 9.5087075457972914e-001,
          -5.8204791220674346e-001, 1.5569347654969920e-001,
          9.5307127727686547e-001, -2.5535711651983745e-001,
          7.3608860761671491e-001, -2.0448805697618522e-001,
          2.2834385516774880e-001, 1.3175271738450773e+000,
          2.5332839437418503e-001, -3.9751544727247273e-001,
          -7.1411296470481622e-001, -1.0192686286897779e+000,
          -3.1010158730803583e-001, -8.0252988827207272e-001,
          3.0265414857795903e-001, -8.0460206306763649e-001,
          2.3843458662574854e-001, 1.1998434965658846e+000,
          5.1911915295932654e-001, -1.2041711326028410e+000,
          -1.1831653614056135e+000, 8.5291619535009200e-001,
          9.3477840874284757e-001, -2.2549977097297169e-001,
          1.3796575375951145e-001, 7.4005085365998768e-001,
          1.3269574456914137e+000, 5.7463811248866137e-001,
          8.8995080910173374e-001, -3.4117775390965854e-001,
          1.2909884323902041e+000, -8.9997075078759048e-001,
          4.1260861713183644e-001, -1.2518752304810504e-001,
          -2.5624142732110966e-001, -6.8623159304082337e-001,
          5.6014298000864871e-001, -1.3867691112862890e+000,
          4.7023683250014597e-001, -1.1014346715115245e-001,
          -1.2219696625342751e+000, -1.3193820694817793e+000,
          -1.1908527666210909e+000, -1.2275639298791277e+000,
          -9.3164140297476106e-001, -9.6464393479146981e-001,
          -2.0619543323956005e-001, 5.8238898137941175e-001,
          5.3760597112157904e-001, -9.3758231530410374e-001,
          -1.0862703929690285e+000, -4.0998840731775182e-001,
          -8.7851047226401358e-001, -1.4272969989774089e+000,
          -4.2942347027726618e-001, 4.3741252477376380e-001,
          -8.7463556934366804e-001, 5.4565702613366696e-001,
          -5.0894968211849068e-001, -1.0743856628518123e+000,
          -1.7614430005567450e+000, -1.2620431116636532e-002,
          -6.8911924764966603e-001, -7.0345814470929269e-001,
          -9.9150928621533851e-001, -6.1175135935828701e-003,
          7.2348658681780476e-001, -9.5008647756253728e-001,
          9.0270196727876506e-001, -5.9553260236803007e-001,
          -8.5401172352753507e-001, -3.9776693506214911e-001,
          -1.1541406237848986e+000, -7.2997445069955547e-001,
          -1.6776276623232661e-001, -6.5056765461196375e-001,
          5.8119427573735061e-001, -7.0411108744717443e-001,
          5.7701563335000028e-001, -5.6128883056946410e-001,
          1.1194586718149315e+000, 7.8536280808532966e-001,
          -8.2271995415813287e-002, -9.1535875579270648e-002,
          -2.5387932154466419e-001, 5.2060164409648746e-001,
          9.5401801387732610e-001, 3.4331076331441307e-001,
          6.9510961960792383e-001, 3.6959511348521007e-001,
          9.6535108563954863e-001, -1.2850247557866012e+000,
          -7.4842651975655330e-002, -6.9783579680923336e-001,
          1.5823594209649843e+000, 6.2526240711484549e-001,
          -1.0596516858297720e+000, 4.6746989215832419e-001,
          -1.3022034224072589e+000, -2.8397309018888145e-001,
          -6.5997783567048118e-001, 2.1440820297399638e-001,
          -8.9857654097580231e-001, -9.2422371820968185e-001,
          -1.0660442814020570e+000, 1.4514603471506298e+000,
          -7.7161823684342945e-001, 4.8450298827130134e-001,
          -6.5055516896779897e-001, 1.3151792797454136e+000,
          8.2259440071047185e-001, -5.4943067855929617e-001,
          1.6853930784065846e-001, -2.2413889445533242e-001,
          4.2660463202457738e-001, 1.0380957375839406e+000,
          6.5315858888634371e-001, 3.4922519377340477e-001,
          2.7508650666533785e-001, 1.2685727646633380e+000,
          -1.6140666472094201e+000, -5.9018619790350550e-002,
          -5.9282873914793699e-001, -1.8127013618100515e-001,
          -5.6740836029114694e-001, 1.0135193021218820e+000,
          7.7887877873877254e-001, 5.4789209782229586e-001,
          3.6666135257283328e-001, 5.2778866169031435e-001,
          -1.0249749681286013e+000, 1.4647133704286319e-001,
          -9.4410606717443546e-001, 9.2910254162156991e-001,
          4.0100578773835543e-001, 3.7579028986573848e-001,
          -1.3831039049858413e+000, 8.8021923931826851e-001,
          -8.0894293645025284e-001, 4.9477406299752508e-001,
          1.1897652478226185e-001, -4.6179677065510749e-001,
          3.8100604495476625e-001, 2.8241881580025952e-001,
          -1.6361319661077565e+000, 1.2743373112278218e+000,
          1.2658804770782031e+000, 1.0521052134952160e+000,
          7.1786096704887936e-001, -9.6981585225269096e-001,
          -8.1589659638482781e-001, -5.2984006379558068e-001,
          6.9561013997072285e-001, -1.7649915912758605e+000,
          -6.0395140481753151e-001, -1.1344409851614279e+000,
          9.3866445456122483e-001, -2.0737806909896003e-001,
          -2.2944639082562185e-001, -9.7974022625278795e-002,
          7.3435849346415283e-001, -6.3700680578365776e-001,
          8.5342686311016144e-002, -4.2955082455846483e-001,
          6.7681530487430963e-001, -6.0430280892201882e-001,
          1.4409715740430112e-001, -7.1472927247221896e-001,
          -8.3843955511114798e-001, 1.3863241890493254e+000,
          9.5662173312804788e-001, -6.5987933397776288e-001,
          9.8007474494416075e-002, 6.8716905443326926e-001,
          -3.9955990536444125e-001, 7.8881160269906936e-001,
          -3.8239651238952482e-001, 1.9741623537187940e-002,
          5.0770605618462294e-001, 5.6804282411299445e-001,
          -5.8299637294380535e-001, -4.0521443752489526e-002,
          -4.4937588557491936e-001, 6.4702827586090028e-001,
          -4.7190428224839582e-003, -8.4649590837538299e-002,
          -1.1475252639459879e-001, 9.9762264995353345e-001,
          -5.6817697973652004e-001, 5.4062653653083470e-001,
          3.9572158314497280e-001, 1.0212743851547947e+000,
          -3.8130731938872946e-002, -1.4430725288110817e-002,
          -5.5445424903098328e-001, 1.3722360023333093e+000,
          -3.6735030949742242e-001, -1.8169970628175422e-001,
          6.8012815210952893e-001, 9.1796504420972580e-001,
          -2.9380849898207528e-001, -3.3742103508114674e-001,
          6.7867417943389807e-001, -1.5074662032906003e+000,
          -2.8755814917982919e-001, -2.4593247271019517e-001,
          4.7524888215231120e-001, -5.2246387263787930e-001,
          -1.7003303053303465e-001, 4.9022109473135950e-001,
          4.4794189198277523e-001, 6.2381427045808416e-002,
          -1.1296880575860391e+000, -3.5112630901988257e-001,
          -1.3070298348000356e-001, 4.9996025504043035e-001,
          -1.0293229249916416e+000, -2.4511421372836073e-001,
          -6.0000777488924206e-001, 1.0465719745634165e-001,
          3.0805116977899244e-001, -1.2052974993080527e+000,
          5.9930669661662717e-001, -7.3953621856196838e-001,
          -2.0551537425524824e-001, 6.4007243403414882e-001,
          -1.0731877473578211e+000, -9.1371928693213167e-001,
          -2.4476668860710191e-001, -6.3881882896637843e-001,
          -6.1899712510293103e-001, -9.6000845616097530e-001,
          -6.3035413254388339e-001, 6.2584403020854940e-002,
          7.3490536276568863e-001, -7.0645077136523760e-001,
          1.8886895626632078e-001, -3.0095413288460648e-001,
          -2.6732600908915882e-001, -2.7395154338808547e-001,
          4.2394166978478626e-001, 7.0671873395912499e-001,
          -1.1815081225002730e+000, -2.9682075512528017e-001,
          4.6159253889354984e-001, -1.1010274527588605e-001,
          4.3524469135047655e-001, -1.2113086068836594e+000,
          4.5997663551886458e-001, -4.4738537538154455e-001,
          5.4464794539077865e-001, 1.2500964296968560e+000,
          8.7029149365376401e-001, 9.5383247875194033e-001,
          -6.4887967252592371e-001, -6.5570964069457494e-001,
          7.1931130399368970e-001, 7.8828239794810451e-001,
          -3.1060631305378505e-001, 2.0561869549432166e-002,
          5.2615400964195280e-001, -2.9867029665788442e-001,
          1.0322034434135083e+000, -8.2108749702977624e-001,
          -9.7124063204183764e-001, 8.5347923750152777e-001,
          -1.4955350838775159e+000, -7.4239375759980708e-001,
          1.1524599236107893e+000, -3.1750028504170907e-001,
          -1.5153897619553605e-001, 6.7662923226377580e-001,
          9.2434876872144522e-001, 6.2542618539279538e-001,
          8.4800462157001710e-001, -6.7004858508324183e-001,
          1.0732065561063051e+000, 3.0572487006997229e-001,
          1.5842873626421472e-001, 7.4561505917632642e-001,
          4.3786346159186607e-001, 1.0985577002891473e-002,
          -2.7972345081658451e-001, 4.6583003953977570e-001,
          7.9549101343624223e-002, -6.6702572198310561e-001,
          5.2448074364942121e-001, -1.2607544056653992e+000,
          -4.6310070405375642e-001, -2.2508943812475740e-001,
          2.9373830766949305e-001, -7.3960212237650513e-001,
          -8.2343785388559876e-001, -9.1642808662537356e-001,
          -6.1735634678750879e-002, 4.8953758535387337e-001,
          5.1464188983804504e-001, -1.8477448304892719e-002,
          -1.0659518150652909e+000, 8.3313003613203956e-002,
          -2.1037723568613351e-001, -1.9509480417899711e-001,
          -1.1930495441111761e+000, -9.6794973907193627e-001,
          1.3736128361925756e-001, -9.9961555111906397e-001,
          -8.6819992578623739e-001, -9.7841703418113712e-002,
          -7.1356603869312540e-001, -1.5585414489488285e+000,
          1.9789240577800901e-001, 4.9373722311780532e-001,
          -2.2565172293269292e-002, 1.1123672112144770e-001,
          -1.2133875988196161e+000, -7.6048241473708589e-001,
          -9.5514817804598584e-001, -3.5718281859470791e-001,
          -8.2515219358535052e-001, -8.2465278166036704e-001,
          -4.1977816983769201e-001, -2.3745379139634284e-001,
          -1.1954112010574678e+000, -1.0615142324348070e+000,
          1.4658978259338770e-001, -8.9845051453077118e-001,
          -6.2262335614969289e-001, -2.3022659774297124e-002,
          8.3161154334116760e-001, -1.5568139342389115e-001,
          7.7790470513041987e-001, -1.0735812260983128e-001,
          1.0212625322121958e+000, 2.8934332552618122e-002,
          1.1236252040703366e-001, 3.4971278450438778e-002,
          3.1786868601367640e-001, -1.9690166891478866e-001,
          1.0390575284715551e+000, 1.2094138695601306e+000,
          -4.8276383577154619e-001, 5.7202408763940904e-001,
          6.2036587829930778e-001, 1.3120404928264604e+000,
          5.7318175080078071e-001, 1.1882149313349473e+000,
          1.6332973248773905e-001, -2.9492472780894508e-001,
          1.0626288914165949e+000, 2.7507474003901111e-001,
          1.3523747851613632e+000, 8.9711591871940655e-001,
          7.3632194468690948e-001, 1.3401797473438901e+000,
          7.6630882837038128e-001, 1.1181943050722081e+000,
          9.1365905649871038e-001, 1.2108217432421795e+000,
          8.6974602976403648e-001, 1.7695967325476603e-001,
          1.1345301469996429e+000, 1.0505787900347660e-001,
          1.4237958006346803e+000, 5.4292474227082488e-001,
          3.3083875243261657e-001, 3.0144126702057200e-001,
          1.0231914680588383e-001, -4.4528911647742481e-001,
          -5.9438931153703722e-001, 6.1236516860508960e-001,
          1.2402294152793607e+000, 8.1291305317192397e-001,
          1.2961047087488247e+000, 3.4709808918408541e-001,
          5.5435298820679701e-001, -4.8349377566295010e-001,
          1.5200119651548966e-001, 7.0994570504254506e-001,
          -7.4388910196766439e-002, -7.9898220598358452e-002,
          5.5944774481298622e-002, 1.3655844471875371e+000,
          -1.8663030578229720e-001, 8.5627582266107305e-001,
          4.4945063664482743e-001, 6.4019815771378563e-001,
          1.3873458414237965e+000, 8.9818048459773570e-001,
          6.1378078424637228e-001, -6.0402287089642548e-001,
          -5.4357961492715112e-001, 1.0628322873434604e+000,
          -2.5635437866599692e-001, -1.5660796413678030e-001,
          4.9046309443278774e-001, 6.3269091261995969e-001,
          -2.2354466636949491e-001, 1.2440742810332943e-002,
          -1.6513442058696109e-001, 4.2286458131169730e-001,
          -1.1537516006230203e-001, 4.7549304555194560e-001,
          1.3619475391241664e+000, -2.2386535899141474e-001,
          5.7035276880885466e-001, 5.2660785565819090e-001,
          -4.9164321406018724e-001, 7.6390134215139116e-001,
          1.1005740466765328e-002, -7.8730295948419016e-002,
          -3.7619427943032219e-001, -1.3894681370480833e-001,
          1.5651359447659781e-002, -1.3392412115322013e-004,
          7.9323864834450386e-001, -5.5479212353290112e-002,
          1.3473927305649100e+000, 1.0611503489575529e+000,
          1.1451003511553395e+000, 4.2099807929725003e-001,
          5.2147700045400447e-001, 1.2208546887556693e+000,
          6.3994461121558599e-001, 5.6781616820783731e-001,
          -5.4535896651463389e-001, -2.4751638578311910e-001,
          1.2704175620599107e+000, 2.0927552780214940e-002,
          7.8284850786455074e-001, 4.9246958484685111e-001,
          4.6933039854755004e-001, -1.7440949450028043e-002,
          1.3278626364351262e-001, -9.8972702818059657e-002,
          -1.5280810570912753e-001, 1.0120050641436362e+000,
          -9.0387383288450640e-001, -5.9678851093925789e-001,
          -7.7200710913087256e-001, -1.1862614128077946e+000,
          3.7736652119558556e-001, -1.4495663899069486e+000,
          -3.1121023093333311e-001, -7.4354518440795792e-001,
          -1.0573248914681981e+000, -5.4975005302985469e-001,
          -7.0837847183757929e-001, 3.0325216619138445e-001,
          7.0721279051753483e-001, -5.3155101543581829e-001,
          3.4025873697189146e-001, -7.7703752709412888e-001,
          -4.3851458936546472e-001, -9.0130057116735940e-002,
          -8.0365971085267618e-001, -1.1693059418801675e+000,
          7.1705111966416754e-002, 9.5321290265682579e-001,
          -1.1506269283717010e+000, -2.3858208798412489e-001,
          1.1048332093345334e+000, -1.4813757734053876e+000,
          -7.1998780700738652e-001, 8.2029499367452330e-001,
          8.0525128647151456e-001, -2.0378639370740523e-001,
          6.8438606922392153e-001, -4.1646319201326948e-001,
          -8.9509778846403121e-001, 5.2019374732504342e-001,
          6.4908416939157804e-002, -8.6066083036740981e-001,
          -1.1478258037484133e+000, 6.7893012003390774e-001,
          -8.9346112599600092e-001, 1.9599959521191752e+000,
          -8.1816616628283378e-002, 8.3728152226053942e-001,
          -7.5697770669352060e-001, -2.6873539770568063e-002,
          -5.4018326317061228e-003, 1.1205014458998657e+000,
          5.1266314623255149e-001, 5.9908504263859275e-001,
          -2.0373147698755775e-001, -3.2977846987657566e-001,
          -7.1581894582472982e-001, 1.5088762088692534e-001,
          -4.3343569572484225e-001, -1.5205532989894339e+000,
          4.1433301783362908e-001, -1.3236944382114315e+000,
          4.4994641987758427e-001, -4.8918882691261939e-001,
          -5.2206471978640756e-001, 1.1150549335034642e-002,
          1.5054575697976795e+000, 5.1608025152890658e-001,
          8.6275274933842905e-001, -7.5094745646648906e-002,
          7.1328995098751169e-001, -8.2642373809142056e-001,
          6.7947309928583632e-001, 2.5048465306275225e-001,
          1.5162489633048195e+000, 4.8896621685967800e-001,
          -2.6942500688088994e-001, -4.5001380051767742e-001,
          -8.3403390307436154e-001, 7.4356268510808032e-001,
          -1.7240492131540275e-001, -1.3643519991984918e+000,
          2.3187370944938931e-001, -7.1977919861836526e-001,
          -8.5999445028472321e-001, 6.0683883691978358e-001,
          9.4244145310298857e-002, 3.3503705218620733e-001,
          -9.6977521084867369e-001, 7.4057713957655602e-001,
          3.1513722887021128e-001, 4.5673807087561641e-001,
          6.0315169088637788e-001, -1.4811477179020380e+000,
          -1.0335156072660812e+000, -7.2372050654456788e-001,
          6.3029355360483141e-001, 1.8851726787548714e-001,
          -8.3460864488650544e-001, 1.5576145199706246e+000,
          -7.0008007589100263e-001, 1.1629434178426916e+000,
          1.1773652250226987e-001, -6.7290712101746419e-002,
          1.2264715703305367e+000, -5.5701322515167528e-001,
          -4.2875104796173852e-001, -7.8742757954141165e-002,
          -1.2615951232124130e+000, -6.2625780309369536e-002,
          -1.1252600589379456e+000, -1.8323311568011542e+000,
          -3.6665600670107551e-001, 6.2239102778120237e-001,
          -2.9634627974769806e-001, -4.7719955765188204e-001,
          -1.0074612019605931e+000, 9.5008232114386415e-001,
          -1.2494031791990514e+000, 9.5249657885482597e-001,
          -1.1221049150810527e+000, -3.8252837517237309e-001,
          -7.6477911077410798e-001, -2.5803743806550788e-001,
          -7.8224769128488902e-001, -1.5096396740941043e+000,
          -3.8285844743708486e-001, -6.9874822235809853e-001,
          4.4218045519352861e-001, -8.7702435497795384e-001,
          -2.8927738631612132e-001, -5.1846345702317420e-001,
          5.5039536360358554e-001, -4.7829403393273087e-002,
          -8.5902249163063193e-001, -3.5010392177261668e-001,
          3.0721523264909489e-001, -3.1802457542517909e-001,
          1.1374339108532594e+000, 1.2887296221510935e-001,
          -2.7173739385388579e-001, -9.8276562018120336e-002,
          -8.6957441580415551e-001, 6.9656291861726102e-002,
          -1.5569566931914773e+000, -8.1538409102713738e-001,
          -3.8036652229975643e-001, -6.2180183487606489e-001,
          -7.6688442744819063e-001, 4.3649649503588922e-001,
          -5.5977907780377545e-001, -6.5601335455049670e-001,
          -1.0569335410886049e+000, -2.7542398127934559e-001,
          2.1376701629198611e-001, 1.6486518195628588e-001,
          2.5622376608095127e-001, -4.2266077457714396e-001,
          -4.2058799315559059e-001, -1.2187612565241195e+000,
          2.6991633533006175e-002, -3.6775339605949942e-001,
          -4.0035868541656972e-001, 9.1200141784052891e-002,
          -1.0049918067254060e+000, 2.3041786521043395e-001,
          -2.2530133220803841e-001, 7.8100980176325982e-002,
          -1.3579752476023073e+000, -1.4743881386612927e+000,
          -1.6084811360608409e+000, -8.4303523390543744e-001,
          2.0012782272847682e-001, 2.2727106757581575e-001,
          -1.4742852476656338e+000, -5.6552135790580549e-001,
          -1.0048082667461595e+000, -9.4892404610563774e-001,
          -2.3748558343333789e-001, -2.6510109045952929e-001,
          -7.9331409857301138e-001, -1.3496205836833475e+000,
          -5.9431114510772032e-001, 5.9164470882044004e-002,
          7.3562287371339641e-001, -6.0385913818643411e-001,
          4.7627937741963222e-001, -1.1209209180833959e+000,
          -1.1979105224946576e+000, 2.6154434540553068e-002,
          -5.7333396789617430e-001, 7.1940158078195648e-001,
          -5.1047055749038082e-002, 2.0282465750084328e-001,
          1.1772289040915748e-001, -1.1977373765612462e-002,
          -2.4090439695540594e-001, 1.1736215306340794e-001,
          -2.5603552297300258e-001, -7.5912409535230915e-002,
          -1.0117652332767119e-001, -6.0074523288195258e-001,
          -3.2008255202910996e-001, -7.7314704659585687e-001,
          7.0090549594967211e-001, -6.5675589317446281e-001,
          1.6463803150850598e+000, 2.2895291787976693e-001,
          3.6009018415603350e-001, -8.2275541679201469e-001,
          6.7311730201418479e-002, 6.6915838959046292e-001,
          1.3797522345045876e+000, -5.6758128748734171e-001,
          -1.2008265351297556e+000, 4.9589948115806187e-001,
          8.4708684134948378e-002, 4.6252387860373523e-001,
          1.2702546726346511e+000, 1.2732111314251910e+000,
          -5.8986499650247404e-001, 1.2205064967651347e+000,
          1.0590386194112644e+000, 1.2279601098850998e+000,
          7.9740600519657512e-001, 6.8937864083823475e-001,
          3.0363384482824829e-001, 1.2002255781101179e+000,
          -7.2023938641083129e-001, -2.8855154337626876e-001,
          5.8477467402789662e-001, -4.6673523517612264e-001,
          9.6065028313762857e-001, -5.9088503514476712e-002,
          1.0568134759248535e+000, 4.8770479938958006e-001,
          -9.8087235951559015e-001, 6.7119667907960590e-001,
          9.9269545186020691e-001, 1.1940352836945438e+000,
          8.9164130989217916e-001, 2.9129999912678350e-001,
          2.0072614156430013e-001, -6.5183691290261225e-001,
          -1.0872950768060126e+000, -1.0701329303036220e+000,
          5.0551736564459948e-001, 6.6431190300175802e-001,
          -1.7254868248426439e-001, -2.4097383365015634e-001,
          6.4092809927866934e-001, -9.3026580990771968e-001,
          -1.0744224885519824e-001, 6.0999087262604457e-001,
          1.2118689638143301e+000, -5.0086366497505341e-001,
          -9.8973911558292593e-001, -1.1221987583223796e+000,
          -8.5723146779742232e-001, 1.9953707277966662e-001,
          1.5489212044874404e-001, 4.6970639272542736e-001,
          -3.8973813370882615e-003, 8.0855433573293023e-001,
          4.7728696055675873e-001, 6.5522801546519482e-001,
          9.0978472870689817e-002, 7.3940254087642232e-001,
          -7.7291235463471364e-001, -1.0983960863543797e-001,
          -7.9215782420487180e-001, -7.6441754808026519e-001,
          9.7556463448505393e-001, 2.3186770633479942e-001,
          -7.3758777919297558e-001, 1.1185324985816140e-001,
          1.0319308042123132e+000, -4.3224657319419446e-001,
          -7.4888543788962580e-001, -3.5725156032695293e-001,
          4.3760621635004826e-002, 4.4959168172501879e-001,
          1.5249913372783794e+000, 1.1973219373713402e+000,
          -1.0884299898632803e+000, 9.5714040081672824e-001,
          -2.3050362465601804e-001, -2.9597334418002996e-001,
          -3.5828995250312363e-002, 9.9018518680232936e-001,
          2.6877925973179315e-002, -4.6059060041404393e-001,
          -5.5568814491538499e-001, -1.0717234003670317e+000,
          -9.4944232129707332e-002, -4.3706315260398926e-001,
          1.2506765066096190e+000, -1.1003685734263360e+000,
          2.2045506452550528e-001, 5.9498155617183490e-001,
          -6.9421681564778093e-001, 1.1162716500191547e+000,
          1.1474968651795032e+000, 7.9090850320534534e-001,
          -5.6317041394791913e-002, 5.8077013790846199e-001,
          1.5608293581026935e+000, 1.5952171302288467e+000,
          -3.1591047061581135e-001, 2.9439253671673948e-001,
          1.0543574570829599e+000, 9.9227280785174532e-001,
          9.6265408159339516e-001, 2.9501790071286738e-001,
          6.9245548198449069e-001, 3.4239518528824853e-001,
          -1.1907558582555824e+000, 1.1080793235407728e-001,
          3.8058385230843744e-001, 7.8558831311453792e-001,
          -4.5644649540930093e-001, -1.6007344453731789e-001,
          -1.3055014547166348e+000, -6.9148762240689332e-001,
          -2.1351525497104784e-001, -8.8514182297377786e-001,
          -1.0429133036121085e+000, 5.4893164268665369e-002,
          -1.7646063650040086e-001, 9.2904464881560767e-001,
          4.6640319201429892e-001, -6.0010582211911434e-001,
          4.4982834898570084e-001, 1.1015129154854963e+000,
          -1.2847213087084628e+000, -9.6555349865728390e-001,
          -9.6883881341273792e-001, 6.8759533138149287e-001,
          2.1502440802431508e-001, -1.0817773194794251e-002,
          -4.1313666817853123e-001, -5.5997186956836165e-001,
          -1.0546718393272456e+000, -3.5697152300726470e-001,
          1.8938692826204470e-001, 1.2303967770317598e-001,
          -1.4590801101372941e-001, -2.8983333817935297e-001,
          -4.0362009290193124e-001, -1.4665737835647445e+000,
          -9.4345824075093099e-001, -1.4327210902082935e-001,
          -8.6171712790642285e-001, 4.7382885597793412e-001,
          6.6715464241280431e-001, 7.8995906054095122e-002,
          -6.8724868740730927e-001, -2.2128805995577625e-001,
          -1.6651733357448250e-002, 2.0215769502924703e-002,
          3.0419888242217225e-001, 1.3482548999491808e+000,
          1.2432202224903595e+000, 8.3882709987776849e-001,
          -2.6374190202682074e-001, -5.1372769328991996e-001,
          1.0852727640136612e+000, 7.0985434702608985e-001,
          -1.7405887318963956e-001, 8.5901672118096029e-001,
          3.7194451815385837e-001, 1.1808457325800759e+000,
          8.4485555741342588e-001, 1.1465659899737610e+000,
          1.0428105289018832e+000, 6.2844667233201745e-001,
          2.1955990565391503e-001, 4.9808060261771127e-002,
          4.8483207212095714e-001, 8.3059917924594362e-001,
          1.5325442132368752e+000, -1.1313236300758062e-001,
          9.8950804182824537e-001, 1.3858463130081224e+000,
          2.4428772892838987e-001, 9.3459908558628291e-001,
          9.0924953540451670e-001, 4.6420212910601261e-001,
          1.0461604811227552e+000, 1.3344782163275229e-001,
          5.5384846503124174e-001, 5.6971221331540756e-001,
          1.0789950196237545e+000, 2.3374242640410089e-001,
          8.5105165125666260e-001, -2.6094332075631249e-001,
          1.2478259278848065e+000, 2.2860194062512817e-001,
          7.8127165042291769e-001, 8.5373466879196669e-002,
          7.3778760504278618e-001, 3.8669136334512388e-001,
          -1.2936212030508669e+000, 3.2933582829721264e-001,
          -1.2415209466527029e+000, -3.5062250651551985e-001,
          6.8502431145814363e-002, -9.4050880176648299e-001,
          -1.2100489297722632e+000, -7.4483107728077791e-001,
          -1.2585250923927056e+000, -8.8311523642992817e-001,
          -6.9290114304876793e-001, 9.9469104072441888e-002,
          -1.2773399881835763e+000, -8.5674538320975036e-001,
          6.8100099609485321e-001, -1.4885996356961451e+000,
          -2.2840050813897884e-002, 1.1954211785259952e-001,
          -1.8723442206092651e+000, -1.1663904311881499e+000,
          -2.8614312967388028e-001, -4.4474238253326054e-001,
          -8.0167226143142178e-001, 1.3697546524953100e-001,
          -3.2259937744250444e-001, -6.9604389080436857e-001,
          -1.8868927732097329e-001, 1.1274652557852074e+000,
          -1.1442094085766228e+000, 7.7130453319011061e-001,
          -6.3704045254932562e-002, -6.4672198729701846e-001,
          -7.1759774128281817e-001, -4.2344936712497427e-001,
          -6.9128752270303617e-001, -8.1229819528699299e-001,
          -3.4303659796573099e-001, -7.8251569795826326e-001,
          -1.7253402343768238e+000, -1.0840681831502348e+000,
          -1.1342604646885717e+000, -2.6819342707729749e-001,
          8.9068426246389176e-001, 3.4057291539088203e-001,
          4.0016554792847675e-001, 2.7926013970929742e-001,
          -1.2684399362290183e-001, -7.1447770843553959e-001,
          -4.2218312066372166e-001, -7.9531191141331692e-001,
          -1.8921877906074211e-001, 5.2592414215746108e-001,
          1.4248278940127981e-001, -1.8078550398480284e-001,
          -5.7670687908648310e-001, -6.1220272435173195e-001,
          8.3187994991297431e-001, 7.9964529880913493e-001,
          -5.4005637033292908e-001, 1.0330334164979476e+000,
          -1.3681349602284012e+000, -2.2908448873158732e-001,
          -5.5500953289467547e-001, 1.2518545086770672e+000,
          -7.0933225662392574e-001, 5.4283289999619511e-001,
          8.4154989854176465e-001, 1.0215420037634360e+000,
          -8.1061773819805416e-001, -2.9757091810355363e-001,
          -8.5234585753523351e-001, -7.7837455464823491e-001,
          -1.4973678791390535e-001, 2.7286931380167058e-002,
          -1.4295688040625321e-001, 7.6927436994992704e-001,
          6.5393895819801137e-002, -5.2084175850269354e-001,
          -5.2772477025592429e-002, -2.3337322806095098e-001,
          -4.6973656668197422e-001, 5.6803231157147693e-001,
          -1.3457760425380491e-001, 5.2583917352451714e-001,
          5.0791208924001974e-001, -8.1402043719816330e-001,
          5.9351997886293595e-001, 3.3293134473590080e-001,
          4.2257213746715672e-001, -2.5762245224594016e-001,
          1.1011338469041567e+000, -4.9233122998848744e-001,
          -8.7330455745924795e-002, -6.2893124597586014e-001,
          5.9650712395504180e-001, 8.5331834814319629e-001,
          -3.4738064571421423e-001, -4.5399434784015757e-001,
          -1.1339378279386789e+000, -7.9573149563886203e-001,
          1.0057660563594457e+000, -7.2811967133413147e-001,
          -2.6822487263810452e-001, -1.4051172136157899e+000,
          -8.2621935733120222e-001, -2.2559755879894161e-001,
          9.1859359416099873e-001, -3.2491287375035433e-001,
          7.6131786119013308e-003, 7.6634115632188371e-001,
          1.2124714464808881e-001, 2.9045438624256886e-001,
          1.2670083704915946e+000, -8.8056126684665692e-001,
          -6.5406727405513732e-001, -1.5304651874353833e-001,
          3.6758844485320530e-001, 2.8995592774692125e-001,
          2.0201468730313924e-003, 9.5193977190537862e-002,
          -1.0124251546988199e+000, -7.4827108597222458e-001,
          8.6688714334860373e-001, 1.3301502327202122e-001,
          -3.4515480433423640e-001, 4.9816987601341228e-001,
          6.7096842031966042e-001, -7.3920347210239185e-002,
          3.2412553552345619e-001, 1.0659057142966450e+000,
          9.9402034393940719e-001, 4.9219881848055358e-001,
          2.6737995778418257e-002, -6.3377804345039035e-002,
          1.0288256158158700e+000, 6.9367902731024789e-001,
          4.1696989732784642e-002, -2.5182448050859546e-001,
          9.0979139169482792e-001, 1.0596616613289638e+000,
          8.7439243881555118e-001, 4.8863027172259665e-001,
          -9.1678594830515214e-002, 9.3580723786117048e-001,
          1.6996916741222337e+000, 7.6557971570291217e-001,
          4.5186649795219436e-001, -1.9067985446678268e-001,
          1.3002080700637844e-002, 4.5385274743366155e-001,
          2.4055325577606354e-001, 2.6485018472605437e-001,
          1.3279649541850702e+000, 8.0890363634187246e-001,
          1.0384730844002716e+000, 1.3272542285522233e+000,
          9.6689581085044690e-002, 3.5578040015370815e-001,
          2.8847381492373630e-001, 9.2174236341710902e-001,
          8.6579205148688965e-001, 5.0803222101166323e-001,
          6.3459987337651325e-001, 5.2277777026443539e-001,
          3.1794430578494526e-001, 9.8308175758473892e-001,
          9.9805009012404322e-001, -4.2645111009421749e-001,
          1.2417258690813285e-001, -3.5414352060912974e-001,
          5.3255479427563190e-001, -1.1725300315341514e+000,
          2.5662324625169397e-001, 2.7890095070962473e-001,
          -2.1391103761118130e-001, -5.4190767503601889e-001,
          -1.0415663722894895e+000, -3.9817386875888583e-001,
          9.5427157404309426e-001, 6.3018122232767748e-001,
          -1.0252599749636881e+000, 3.1209481862481808e-001,
          6.0284894598944638e-001, -8.9582555221346405e-001,
          4.8162316522937937e-001, -1.1917705267455869e+000,
          -3.8847403448627604e-001, 1.1506750007092095e+000,
          -6.9393227164059712e-001, 1.2664587730337359e-001,
          1.0356206969712209e+000, 1.8833292121591599e-001,
          -5.4595995059597768e-001, 1.4708802293982778e-001,
          -3.7540928161632720e-001, -8.9488795225364726e-001,
          -5.3231563158682560e-001, -1.9361734507580521e+000,
          -4.8055710215131225e-001, 1.0662799601778501e+000,
          -5.0875106023696637e-001, -6.2771590474674321e-001,
          -1.2396777479122645e+000, -1.0439447581161010e+000,
          -8.0206057320064383e-001, -9.0907165736279705e-001,
          -5.2107253543296661e-001, 3.4627264040296940e-001,
          1.8896395420642207e+000, -4.5249057746446786e-001,
          8.2056797380427937e-001, -5.7953457736401093e-001,
          -5.1124427580070131e-001, -5.3989497223357288e-002,
          -1.1941249075937757e+000, -9.0394639076438654e-001,
          -8.5181210881396863e-001, -6.6794593523179946e-001,
          -3.5304796663429328e-001, -5.9040495665102125e-002,
          1.2427434704370093e+000, -3.0149643409949423e-001,
          -6.8217602367963071e-001, -9.5333118636558278e-001,
          -4.8022828832909487e-001, -5.4546786174637041e-001,
          -7.1815428520599744e-002, 2.5280387792011551e-002,
          1.6044768099083478e-001, 9.2233480901575204e-001,
          6.8393459362996312e-001, 1.6322601321617725e-001,
          1.1794305266772995e+000, 5.5582925340752487e-002,
          5.5973531395911080e-001, 1.0829299810923092e+000,
          1.3287345583296789e-001, -9.3930238639162689e-001,
          1.4156658221667323e-001, 4.8047049189750668e-001,
          -6.6988123003074940e-001, 2.5334406010065641e-001,
          -9.1844510240765498e-001, 5.4722628834918496e-001,
          -2.9968495112441201e-001, -2.0992664151852636e-001,
          3.5236634106734055e-001, -1.5754610671185814e-002,
          -1.5948266728145044e-001, 4.6196450168946551e-002,
          -6.9235659682518280e-001, -4.6398838003883580e-001,
          -5.5014956319963275e-002, -1.0321157545538615e+000,
          -5.0184866062361344e-001, -7.6388617245940593e-001,
          -1.0119267609597180e+000, -1.3669457365127975e+000,
          2.4072373648622900e-001, -6.2174314832577171e-001,
          -4.7965231918353113e-001, -8.3438190753702235e-001,
          1.5251096108492829e-001, 5.3601693048710819e-001,
          -1.2014554437338352e+000, -9.1723731469007197e-002,
          7.8049439916777208e-001, 7.1953748869924630e-002,
          2.7739595302964998e-001, -1.6377103125646131e+000,
          -1.0737858144408556e+000, -2.0169470270472948e-002,
          -1.3252218563204218e-001, -1.7316108244506958e+000,
          -5.5881051563268336e-002, -5.0763378352306754e-001,
          -5.2416312023082001e-001, -1.0406322492741369e+000,
          -2.7508108687581018e-001, -1.1963465311698427e+000,
          2.3414361628419204e-002, 1.4896596635908205e-001,
          -7.7606658564227837e-001, -7.3658210128395685e-001,
          -6.6751124278559282e-001, -2.1322800656332108e-001,
          -2.9585649964572897e-001, -5.8880738223643592e-001,
          -2.3742859776372688e-001, -5.7398864281870809e-001,
          5.2372655784679256e-001, -3.6591110971105045e-001,
          6.8576548566104401e-001, -3.3587365475735009e-001,
          1.5492521539683404e+000, -7.5929526986697582e-001,
          1.5389236497303235e-001, 4.4921401545887413e-001,
          -1.1142173460641980e-001, 4.3344998786376648e-001,
          -2.2546561244891739e-001, -4.6470643353154817e-001,
          3.8228469043558766e-001, 3.6930371792371031e-001,
          9.2838550383759622e-001, 5.9144777169038387e-001,
          -7.9720841139006049e-001, -9.5831167618500870e-002,
          -1.2085392731785564e-001, -1.8139759147531078e+000,
          -4.2945816407492433e-002, 8.4448450584506152e-001,
          -5.2954895854171879e-001, -2.8749227299891733e-001,
          -2.0733787648456556e+000, 3.3225842847774817e-001,
          4.2354190164282751e-001, 1.0043029194616777e+000,
          8.0621339353671417e-001, 1.2699602991829726e+000,
          1.1133361157961774e+000, 5.2690107668825403e-001,
          -1.1894811651183193e+000, -1.4048898808920935e+000,
          -1.0427386535171925e+000, 3.1602362260794836e-001,
          -5.7639962308592467e-002, -9.5050688016252738e-001,
          6.7510077590461759e-001, 1.5896161868089571e+000,
          6.9748945877921797e-001, 3.1583576491627241e-001,
          -1.7926435515364869e-001, 1.0122725819181180e+000,
          1.3173133698287280e+000, -1.4105430894873128e-001,
          -1.0078038128561679e+000, -6.5466358182361656e-002,
          -1.3494116809781895e-001, -8.2738401660565852e-001,
          -1.9617695579461782e-002, -9.5733026823392009e-001,
          -1.2230068665556320e+000, -9.5147119276739578e-001,
          -6.1513807514581298e-001, -1.0463969287234425e+000,
          -3.6713609577879835e-001, -6.5681166407490454e-001,
          6.4221623473800182e-001, -4.8778975831891969e-001,
          -1.1071263995557237e+000, -8.3999710770645264e-001,
          -8.9526617947968234e-001, -9.8314152965997770e-001,
          -7.8182544652725994e-001, -3.7834680877269183e-001,
          -1.1156300168384383e+000, -8.2476174613939701e-001,
          -1.1771626624056715e+000, 5.8823729969311300e-001,
          -7.0366809343681958e-001, -5.5521746753905232e-001,
          3.7274969149006826e-001, -1.4478823211356835e+000,
          4.3474693049027868e-001, -4.5149006860302415e-001,
          -8.6064773780238246e-001, 5.3980420465782597e-001,
          8.0632315283378964e-001, -7.7853441311184435e-001,
          -5.4421143326533250e-001, -1.2654148415829309e+000,
          3.4915755433854057e-002, -8.0473889305521962e-001,
          -8.0739255900130680e-001, -3.4973423164208350e-001,
          -1.9260755835114171e-001, 7.2056373690144104e-001,
          -3.1184958763389442e-001, -5.0054119137528941e-001,
          5.2875414234979423e-001, -1.1967893070397478e-001,
          8.9742556423438380e-001, 7.0930199006197814e-001,
          7.8384841587342402e-001, 9.2697522816419631e-001,
          -2.8707884708474640e-001, -5.5433179560252466e-001,
          -1.2747240645075422e-001, 8.8743646221849748e-001,
          -4.3722938162583175e-001, 1.1085654470727857e+000,
          1.1189872887440042e+000, 3.7144588283443425e-001,
          -1.0890248545433999e-001, -1.1172460139665319e-001,
          -5.1546118370437555e-001, 3.9865170736829675e-001,
          4.4116726827902114e-001, 1.1107920829567839e+000,
          1.4558681346619803e-001, 9.2047952571912417e-001,
          6.7098789977998763e-001, 1.3434706041228830e+000,
          2.8760206516729375e-001, 1.0337084395314171e+000,
          1.1914341749501811e+000, 8.8731279718946554e-001,
          9.2478627686006420e-001, 7.8411325239564322e-001,
          8.2800828646924629e-001, -5.6288834559290492e-002,
          3.0692946305196556e-001, 7.3288028330408794e-001,
          2.3504463588961555e-001, 8.9080402022912242e-001,
          1.8545620117652906e-001, -2.1635687355422292e-001,
          9.6067273770330341e-001, -3.7710426075833631e-001,
          -2.8422640788539888e-001, 1.4848048534321017e+000,
          1.3813127340686586e+000, 6.0366908521388085e-001,
          1.3362290467788027e-001, -8.5548279996494947e-001,
          1.0274179537046704e+000, -7.2635740178408015e-001,
          -5.4501506568119668e-003, 9.8613714089083271e-001,
          6.5237532440436996e-001, -1.1292983620907074e-001,
          -8.5837030022189742e-001, 7.6484776912682284e-001,
          -6.6623435503164041e-001, 1.0787091214854166e-001,
          1.4704673511875874e+000, 9.6442488299269891e-001,
          3.8096477874151563e-001, 7.4583666220258049e-001,
          4.0676451021342969e-001, -2.2220768496227844e-001,
          9.6981522109959320e-002, 8.8097645602452590e-001,
          2.9724191981578463e-001, 9.4416424956906753e-001,
          -6.0731359735100177e-001, -1.3116823573656120e+000,
          -7.1101693905792118e-001, -1.0030040032082068e+000,
          -7.7933131798893684e-001, 1.2729401222405938e+000,
          5.8877544443949370e-001, 1.6042189711848960e+000,
          -8.8719918652527963e-001, -2.3811654396988297e-001,
          -4.2888092762109292e-001, 1.0545956410929463e-001,
          7.2006460734534275e-002, 2.8327823016509363e-001,
          1.0217736568385440e+000, 5.4677997551226154e-002,
          4.1266681332583793e-001, 4.2432520410943775e-001,
          7.9863611304262905e-001, 1.7994297287064737e-001,
          1.5452896664463074e+000, 1.0119592255936728e-001,
          7.5011929073467487e-002, -7.1369546985180543e-001,
          4.2284327793036836e-001, -4.9143781702625865e-002,
          -9.1399790084674493e-001, -5.1252865948550441e-001,
          -1.4047526385533679e-001, 9.3255387286100666e-001,
          6.5087694451855715e-001, -5.0409344299958381e-001,
          -3.6510181111323502e-002, -7.1761172124404207e-002,
          -4.5161761675413775e-001, 6.3416147234095166e-001,
          -9.5150151338972777e-001, 1.6778072516586446e+000,
          7.3615007808425492e-001, 7.4051115399365630e-001,
          -1.0088259737043823e+000, 2.7574103067602618e-001,
          3.3896881777900234e-001, 3.3921799692543098e-001,
          -7.6419581884798571e-001, -1.6653977961447775e+000,
          8.6648818604679578e-001, -3.6874418707681494e-001,
          1.5505503469550969e-001, 1.1537259020108999e-001,
          7.2391919152200490e-001, 2.0898257030449249e-001,
          -5.4262067407007142e-001, -9.3775639757688467e-001,
          -3.2783820097819438e-001, -3.9188113625943688e-001,
          -3.4484165782958438e-002, 1.4426085720757476e-001,
          -3.8783308283858264e-001, -1.1186941550232676e-001,
          8.0640705896270781e-001, -1.0117682540517261e+000,
          -1.9978475188476086e-001, -1.0885117326750964e+000,
          8.1151123278864168e-001, 1.8106975251022481e-001,
          3.2764487500345896e-001, -5.4995688692402990e-002,
          -1.3013430350784825e+000, -2.8659259039134070e-002,
          -1.3244427047849414e+000, 5.1045451345236866e-002,
          -9.6164075062327070e-001, -1.1905700794224798e+000,
          1.9172269437498443e-001, 7.9024942333198689e-001,
          -9.0846405162902510e-001, -9.9344328884555522e-001,
          -4.7449935337230165e-001, -1.1256382157919032e+000,
          5.3526145977094353e-001, -3.3118235950079185e-002,
          -1.3336213765019029e+000, -6.4171740177029712e-001,
          -1.3709669679528622e+000, 1.4274459495989218e+000,
          1.2016667709215687e+000, 2.4229357319327880e-002,
          -7.0008201461978592e-001, 6.5196646890510590e-001,
          2.1533745188075218e-001, 1.4900225093646888e-001,
          5.8444898532395706e-001, 9.9909429013272277e-001,
          -3.7680712401796351e-001, 8.7252233522063527e-001,
          -1.0451809030541852e+000, -5.2279072642679536e-001,
          6.6764152613266037e-001, 1.5042295960376001e-001,
          -1.3050114519725780e+000, -8.0686006759538864e-001,
          -1.2058233494755186e+000, -1.3277851595264707e+000,
          9.7651791630233420e-001, -1.1339500707820036e+000,
          1.8504551440677572e-001, -6.8148272251925035e-001,
          -4.4170398338516015e-001, -1.0954598126427474e-001,
          -7.7450033678767094e-001, -4.6586573286499744e-001,
          1.0672722805511785e+000, 5.1700063175426614e-001,
          -1.9840145899208358e-001, -4.1549099122568378e-001,
          7.3640524029620413e-001, -1.0985046268292127e+000,
          9.3646671616070509e-001, 1.1189897620467275e+000,
          -1.8490091548454997e+000, 1.5264855016098394e-001,
          1.1484454236179009e+000, -7.0744311038479424e-001,
          8.9623233251318923e-001, 8.1746347106429429e-001,
          9.0554986894144385e-001, 5.0072931704799328e-001,
          5.6111561505491743e-002, 7.5090557865050978e-001,
          -3.8277868205238980e-001, 8.8077375365071139e-002,
          1.1065314462180458e+000, 8.2236059689099661e-001,
          1.3513589312945919e+000, 4.2625107721820038e-001,
          1.0839169416978382e-001, -7.5553613551138377e-001,
          -9.3089227155499388e-001, 5.6996498715115795e-001,
          1.0072155911941303e+000, 4.1478059242780596e-001,
          -7.7169752065241837e-001, 1.5377711259894597e-001,
          -5.2805462811508985e-001, -1.2166376181994367e+000,
          1.1401552383908902e+000, -4.1794916158135687e-001,
          -3.9250127831538173e-001, 8.6411330079340853e-001,
          -6.7903027004311611e-001, 6.5515876507208382e-001,
          8.0996653275342378e-001, 9.7024146410478618e-001,
          -5.7307974819687157e-001, -5.1391914900845648e-001,
          -6.0494825578515925e-002, 4.4080587285950301e-001,
          -3.0566068088545928e-001, -3.9191971073519583e-001,
          -3.4748394455893322e-001, -3.1129399652548340e-001,
          4.9867549925956972e-001, -3.9210070012061748e-001,
          -1.2300072729420922e-001, 1.1512535814410962e+000,
          -9.4863235900010734e-001, 1.1544479445439317e+000,
          1.5388198405132905e-001, -1.4729887972420022e+000,
          2.1437130522513081e+000, -6.6911324788269766e-001,
          9.3117244988633008e-001, 5.7504006916415606e-001,
          1.1892786301519935e+000, 1.3695481985514641e+000,
          6.7918466856133530e-001, 1.2767134257104711e+000,
          -5.6591279423420786e-002, -6.6374438567178906e-001,
          2.6534957968379341e-001, 3.6518999080645831e-001,
          -9.2118007818213232e-001, -4.9093340868886011e-002,
          9.6974524086013336e-001, 2.4720726273941612e-001,
          -3.8263025327505884e-001, 1.7263754662689805e-002,
          1.3615408012268004e+000, 5.9221622893877190e-001,
          1.0763915831397128e+000, -1.0528947740600585e+000,
          -8.3457975835869080e-001, 1.4995777648425390e+000,
          8.0234312129251950e-001, -5.5026479633823144e-001,
          1.3121764319091038e+000, 9.6376725549974129e-001,
          -3.8907443083363480e-001, 8.9298795319420976e-001,
          1.4483263688407151e+000, -2.1227910986292403e-001,
          -2.3209629835822959e-001, 9.7817987461986633e-001,
          1.0847425751459536e+000, 4.9307883000757846e-001,
          8.8556652491753063e-001, -7.6352718817926424e-001,
          -9.2851062660403172e-001, 1.0466470298222554e+000,
          -6.3565400229560509e-001, -7.4054476205729547e-001,
          -1.1502898829795023e+000, -3.3500294572602074e-001,
          -8.8167263364861992e-001, -5.8214867700571993e-001,
          2.7264371429922785e-001, 1.5569746649326692e+000,
          -3.3414870534797275e-001, -5.3877998405889804e-001,
          -8.1614516321596198e-001, -3.6057248636537065e-001,
          -8.9397694360447955e-001, 5.6916880434787553e-001,
          -4.8751688402711252e-001, 6.0360099235524461e-002,
          -1.1406757535348294e-001, 1.1797677327486789e+000,
          6.5375598422236503e-001, 7.7059950386212717e-001,
          7.3001076872790371e-001, 1.0723408024500789e+000,
          -6.4071789249720068e-002, -7.1093245451729159e-001,
          1.0875625459340839e+000, 6.5332104100993060e-001,
          5.7226916285644880e-001, 5.6240626432614049e-001,
          5.5904058876352181e-001, -6.7969844974193649e-001,
          1.1241245119007663e+000, -6.2587969362630480e-001,
          1.4368790773653850e+000, 1.2150486434497116e+000,
          -1.4135442167682985e-001, 1.4809241504217123e+000,
          8.0896441831767585e-001, 1.2269473063490410e+000,
          6.9470738652151187e-001, -2.5000766026168764e-001,
          1.3318127001335600e+000, -2.0863744310369078e-001,
          1.1269670791425259e+000, -5.0479225208561884e-001,
          1.4551085841353910e+000, 8.3758821506585590e-001,
          -4.8845659837590177e-001, 3.5141219901461646e-001,
          6.6746709673494531e-001, -7.2518002491632788e-002,
          8.7249389822227863e-001, 5.8795917142855736e-001,
          6.6968449876722447e-001, 7.2152170305982555e-001,
          1.4439822150078849e+000, -1.7232700699867104e-001,
          6.6291571925749682e-001, -2.0529793947737615e-002,
          5.7998849498073202e-001, 6.5565714536335074e-001,
          -5.2158845777470142e-001, -1.2482196465586179e+000,
          -1.2234991310382113e+000, 1.2891954534991852e+000,
          6.7204287055470091e-001, 1.0413458731581029e+000,
          -5.4081913595119790e-001, 3.8314849999195338e-001,
          1.9599118611766170e-001, 7.3823499645326185e-001,
          3.8542479879128549e-001, 6.6855718327820202e-001,
          -7.7618916922846815e-001, 6.2973924034239270e-001,
          1.6878309179728097e+000, -6.4365750483647677e-001,
          -8.1367559988698501e-001, 7.4940844478152169e-001,
          -1.1049146274530213e+000, 7.9973939685484252e-001,
          7.4458364102284541e-002, -2.4278888318416930e-001,
          7.8104284800077040e-001, 2.2670604601735719e-001,
          -9.5674335726308424e-001, 2.9719582787054238e-001,
          -6.9779002190683304e-001, -5.4579650240231214e-001,
          -1.5923733520331531e+000, 1.3739112939934308e+000,
          8.4956723299024317e-001, -1.6975598905506186e+000,
          -4.3776457322990364e-001, -4.8739163479886083e-001,
          3.6812250612679887e-001, 6.1713137461881529e-001,
          2.0366758127100426e+000, -7.2419482025716797e-001,
          1.1924004161632269e+000, -7.3286772627675717e-002,
          -2.6716484951718267e-001, 6.0510296554606557e-001,
          -3.4880510548738541e-001, -6.7303574224283091e-001,
          4.1219836405273164e-001, -4.3667964521455194e-001,
          7.8310920748336899e-001, 1.0325569431341153e-001,
          -2.5169297154271925e-001, 1.0791788781492619e+000,
          -4.9050762454999353e-001, -7.0163372811988589e-001,
          -4.0334861780485742e-001, -7.2018155364025094e-001,
          -1.3181959067816778e+000, 9.4897328052179997e-001,
          5.5976676070667986e-001, 5.9905793828637643e-002,
          -3.9539645544105141e-002, 2.6604277656196945e-001,
          -8.8852523983284026e-001, 3.3513412558861494e-001,
          -5.6321622814388916e-001, 1.0727658690221329e+000,
          7.1099842454069570e-002, 8.3782282414359244e-001,
          3.1546935454339592e-001, 9.3791278949491830e-001,
          -3.8998093064933043e-001, 4.7498145433940647e-001,
          7.1645829742308476e-001, 2.0827285706853917e-002,
          -2.8853260670218961e-001, -3.9742665774238428e-001,
          9.6067248543221107e-001, -1.2167021911454266e-001,
          -4.9904637574732857e-001, -3.9013794419344677e-001,
          -9.1778149933356279e-001, 5.8636045922883173e-001,
          -7.1797185044620826e-001, -4.5363372758309184e-001,
          -1.0380294636462013e+000, -1.1425331262962179e+000,
          -2.0148890032476793e-001, -8.8796661046958725e-001,
          -1.0441210804732373e+000, -1.4664270894711910e+000,
          -6.0548625983134663e-001, -1.4253975738860198e+000,
          -1.3683775206983073e+000, -4.2376020250421848e-001,
          -8.1239487819791467e-001, -1.2347248273393410e+000,
          -1.0301012844134607e+000, -1.3320931940395797e+000,
          -1.5568071100424168e+000, -1.2417636293707961e+000,
          -1.8184963248724498e-001, -3.5657496413990292e-001,
          -8.1140272830041393e-001, -3.4657800455051896e-001,
          -1.5992748137615405e+000, -1.8441728051966406e+000,
          -1.0558948592691766e+000, -9.7702057828637923e-001,
          -9.0076855218964691e-001, -5.1113145009710675e-002,
          -7.0085020230597395e-001, -1.8036575731865869e+000,
          -1.2459054386933412e+000, -1.5776283702367819e+000,
          -1.0107316467815743e+000, -1.5611720897070980e+000,
          -5.8834196663354765e-001, -1.7493036899837675e+000,
          -1.2218580303347495e+000, -3.6946974943147604e-001,
          -1.1574866696607522e+000, -3.8489979579268407e-001,
          -5.9025532644275069e-001, -1.0051935088265003e+000,
          -6.2276946733628280e-001, -1.2715790533921664e-001 ]
