%YAML:1.0
my_nn: !!opencv-ml-ann-mlp
   layer_sizes: !!opencv-matrix
      rows: 1
      cols: 3
      dt: i
      data: [ 9, 41, 41 ]
   activation_function: SIGMOID_SYM
   f_param1: 1.
   f_param2: 1.
   min_val: -9.4999999999999996e-001
   max_val: 9.4999999999999996e-001
   min_val1: -9.7999999999999998e-001
   max_val1: 9.7999999999999998e-001
   training_params:
      train_method: BACKPROP
      dw_scale: 1.0000000149011612e-001
      moment_scale: 1.0000000149011612e-001
      term_criteria: { epsilon:9.9999997473787516e-006, iterations:1000 }
   input_scale: [ 1.6155441137152323e+001, -8.0076229185667938e+000,
       1.7300545098492218e+001, -8.6861097073686615e+000,
       3.3339536687404535e+002, -5.5384178810257083e+000,
       3.2302568924823709e+002, -5.9101714041298132e+000,
       8.3058732762338749e+000, -2.3909914139398674e+000,
       6.7902784483164114e+000, -3.7462219057717441e+000,
       1.2810261245423172e+001, -2.2478180750680266e+000,
       8.6337405326350360e+000, -3.3157587001383950e+000,
       8.3447863853863824e-001, -2.2388451277865906e+000 ]
   output_scale: [ 1.0526315789473684e+000, 0., 1.0526315789473684e+000,
       0., 1.0526315789473684e+000, 0., 1.0526315789473684e+000, 0.,
       1.0526315789473684e+000, 0., 1.0526315789473684e+000, 0.,
       1.0526315789473684e+000, 0., 1.0526315789473684e+000, 0.,
       1.0526315789473684e+000, 0., 1.0526315789473684e+000, 0.,
       1.0526315789473684e+000, 0., 1.0526315789473684e+000, 0.,
       1.0526315789473684e+000, 0., 1.0526315789473684e+000, 0.,
       1.0526315789473684e+000, 0., 1.0526315789473684e+000, 0.,
       1.0526315789473684e+000, 0., 1.0526315789473684e+000, 0.,
       1.0526315789473684e+000, 0., 1.0526315789473684e+000, 0.,
       1.0526315789473684e+000, 0., 1.0526315789473684e+000, 0.,
       1.0526315789473684e+000, 0., 1.0526315789473684e+000, 0.,
       1.0526315789473684e+000, 0., 1.0526315789473684e+000, 0.,
       1.0526315789473684e+000, 0., 1.0526315789473684e+000, 0.,
       1.0526315789473684e+000, 0., 1.0526315789473684e+000, 0.,
       1.0526315789473684e+000, 0., 1.0526315789473684e+000, 0.,
       1.0526315789473684e+000, 0., 1.0526315789473684e+000, 0.,
       1.0526315789473684e+000, 0., 1.0526315789473684e+000, 0.,
       1.0526315789473684e+000, 0., 1.0526315789473684e+000, 0.,
       1.0526315789473684e+000, 0., 1.0526315789473684e+000, 0.,
       1.0526315789473684e+000, 0. ]
   inv_output_scale: [ 9.4999999999999996e-001, 0.,
       9.4999999999999996e-001, 0., 9.4999999999999996e-001, 0.,
       9.4999999999999996e-001, 0., 9.4999999999999996e-001, 0.,
       9.4999999999999996e-001, 0., 9.4999999999999996e-001, 0.,
       9.4999999999999996e-001, 0., 9.4999999999999996e-001, 0.,
       9.4999999999999996e-001, 0., 9.4999999999999996e-001, 0.,
       9.4999999999999996e-001, 0., 9.4999999999999996e-001, 0.,
       9.4999999999999996e-001, 0., 9.4999999999999996e-001, 0.,
       9.4999999999999996e-001, 0., 9.4999999999999996e-001, 0.,
       9.4999999999999996e-001, 0., 9.4999999999999996e-001, 0.,
       9.4999999999999996e-001, 0., 9.4999999999999996e-001, 0.,
       9.4999999999999996e-001, 0., 9.4999999999999996e-001, 0.,
       9.4999999999999996e-001, 0., 9.4999999999999996e-001, 0.,
       9.4999999999999996e-001, 0., 9.4999999999999996e-001, 0.,
       9.4999999999999996e-001, 0., 9.4999999999999996e-001, 0.,
       9.4999999999999996e-001, 0., 9.4999999999999996e-001, 0.,
       9.4999999999999996e-001, 0., 9.4999999999999996e-001, 0.,
       9.4999999999999996e-001, 0., 9.4999999999999996e-001, 0.,
       9.4999999999999996e-001, 0., 9.4999999999999996e-001, 0.,
       9.4999999999999996e-001, 0., 9.4999999999999996e-001, 0.,
       9.4999999999999996e-001, 0., 9.4999999999999996e-001, 0. ]
   weights:
      - [ 5.3539234906630540e-001, -7.7901870890509473e-001,
          3.8780192861016721e-001, 4.0530928994463139e-001,
          5.1174197241960206e-002, 1.3352776400786153e+000,
          -2.6165760654097010e+000, 7.1827551223949682e-001,
          -2.3619078272332730e-001, 1.9006812415805936e+000,
          1.1282009737482941e-001, -1.3100177648245925e-001,
          -1.3715073048641544e+000, -8.5068513393570955e-001,
          1.1326816956848240e+000, 7.8388063419702358e-001,
          4.3994898373169650e-001, -1.1802420562378551e+000,
          -4.7102841216378383e-001, -4.8187019368776385e-001,
          -6.8658175580769787e-001, -1.4221243282589018e+000,
          6.2599316319395512e-002, 4.1004423033704600e-003,
          6.2055947532983069e-001, -4.2238740526871715e-001,
          2.4530451879454482e-001, -1.0372683331406032e+000,
          -3.8979289264149847e-001, -1.8554496764351178e-001,
          4.4606221163956385e-002, 5.8950407474848288e-001,
          6.0780758909294841e-001, -1.8770330727838933e-001,
          -3.4451312306314380e-001, -1.3988667446019094e+000,
          -1.3147209780688658e+000, -6.4533328124681977e-001,
          2.5985044859900547e-001, 5.0406073423528625e-002,
          -2.8712144556874462e+000, -3.1667462892690939e+000,
          -1.2411785223159615e+000, 4.0461239201758379e-003,
          -1.7571811074775107e-001, 5.0763117203407850e-002,
          5.7938290388196656e-001, -1.1696793294853065e+000,
          -4.9603637745635271e-001, -2.2049072514124249e-001,
          -1.0955111784204599e+000, 5.3720159548204825e-002,
          2.9706173853273246e-002, 2.3248260661562612e+000,
          7.3200174586847688e-001, -1.2486143668033010e+000,
          -5.0445083154053350e-001, -1.5292424165000307e-001,
          7.4560539338949261e-001, 2.7717827070954726e-001,
          4.2957008181517438e-002, -1.6836559991446465e+000,
          3.2144943410276744e-001, -1.3440224525214423e-001,
          -2.9063105329043680e-002, 5.0909767916221638e-001,
          4.6664579409208945e-001, 1.1140826294318227e+000,
          3.8670413678967036e-001, 6.3001595449028425e-001,
          -7.0149052748841086e-003, 2.6801705855299457e-001,
          5.1611456484820595e-001, -1.4463292897780483e-001,
          8.6627996695929854e-001, 1.9601536201900205e+000,
          -1.7975659453825681e+000, 1.1489949719403900e+000,
          5.0645753581128394e-001, 7.5616964686364330e-001,
          6.6258313168774965e-002, -5.8281185070025221e-001,
          2.6373445818645176e+000, 1.0124999594314921e+000,
          5.6253237773158815e-001, 3.1471014382231037e-002,
          1.1007768695699664e-001, 5.5861956960759562e-001,
          -9.2354448177035597e-001, -9.0291760567114043e-001,
          -2.3262220524963867e-001, -2.7028176840302881e-001,
          6.4519176892065844e-001, -1.0899885367080975e-001,
          7.0620315250552346e-001, 2.7089573567419505e+000,
          -2.2902683896394377e-001, -1.0805281279166199e+000,
          4.5743086250698517e-001, 2.3565195252762050e-001,
          -1.2162201717106096e+000, -1.4455064374807671e+000,
          -7.6099364878675757e-001, -8.4839797820768698e-002,
          -3.5058209255564365e-001, -4.9366544440626853e-002,
          -1.1791593212416542e+000, 4.9899525477833773e-002,
          4.4180453812540649e-001, 1.2845762672127352e+000,
          -1.2031992706208976e+000, -2.0365818276622896e-001,
          7.9078286219065741e-001, -1.1267872996928643e+000,
          -2.9899607347636309e-001, 4.5833219918838142e-001,
          -3.6299554402814105e-001, -1.0073700075648633e+000,
          -4.7227988014410471e-001, -2.0352059177644062e+000,
          1.7553690684685281e+000, 1.5348410583644798e-001,
          -1.9786377373179045e-001, 1.5297189265826385e+000,
          1.2094051817003844e+000, -9.8363957759601606e-002,
          1.4106559365032094e+000, -1.0348383063676079e-003,
          -2.1393777595500171e-001, -1.2288344102824287e+000,
          -1.7798715162503558e+000, 5.4400098575313569e-002,
          -1.0804992887864522e+000, -3.6092908348156361e-001,
          -2.0237119625752694e-002, 5.5929873210906489e-001,
          1.2678303779244740e+000, 5.3086299257710923e-001,
          2.0371835003280872e-001, 1.3237483661779594e+000,
          -4.7660797757931295e-001, 9.4216546090512088e-001,
          -2.6117405084080114e-001, -1.0381770076748469e+000,
          -1.0617851648807897e-001, 2.3387235104477136e-001,
          -3.2797307461802545e-002, 5.0501981536144258e-001,
          -1.0728724504088971e+000, 8.8320884824682788e-001,
          7.7934119499283960e-001, -5.8202534656842753e-001,
          2.6235474595044012e-001, -7.2272919660825863e-001,
          5.9753285725454897e-001, -1.5504465048481364e-001,
          3.2079369072599445e-001, 6.1159748554503712e-001,
          -1.0876143499752647e-001, -1.0769125409358553e+000,
          1.8496365133266617e+000, -1.2147125835026915e+000,
          -1.5906242300344703e-001, -8.7618742047377762e-001,
          2.7738894585942160e+000, 5.1484165439629792e-001,
          -4.0828969549901045e-001, 1.3400908870567968e-001,
          -4.0785899288104571e-001, 9.7937493943056109e-001,
          1.2761427698370489e+000, -1.0562473061450555e+000,
          -1.0322813343118699e-001, -4.0997867532890914e-001,
          -5.3065982276803569e-001, -2.8917980912989288e-002,
          -8.1737292525391614e-001, -1.5409961068997775e+000,
          -6.7789334743114338e-001, 7.8043115266485630e-001,
          6.3414123476152240e-001, -6.3708670975821979e-001,
          9.3304487957822244e-002, 1.2060057169723859e+000,
          -8.8588817915819584e-001, -8.1883395147276894e-001,
          2.1645836496848290e-002, 5.2665792788832384e-002,
          1.7166666105737924e+000, -2.8161348824498694e-001,
          8.4880478888600253e-001, 5.0902621500401024e-001,
          -7.3542587614385979e-002, -2.5722538560676583e-001,
          6.7917590489070076e-002, -8.3449538309510218e-001,
          -7.4267525108197743e-002, 1.2102233960772837e+000,
          1.1911036817887941e+000, 7.4668746463160696e-001,
          1.0215083169334811e+000, -5.1422115325839712e-001,
          7.3350092826782964e-001, 2.7380843708606128e-001,
          6.1944277205498222e-001, -8.7453772559759368e-001,
          1.8583580775573663e+000, 8.6389358491336421e-001,
          -3.0651935935060415e-001, -3.6137551780196880e-001,
          -9.4837173240808326e-001, -5.8131919645742969e-001,
          2.2878099047560524e-001, -1.0571434889376710e-001,
          -8.6189621108033210e-001, -4.9461812354870444e-001,
          5.9304970398467764e-002, -3.4127733947792066e-001,
          9.6324851726828675e-001, -4.1970554303937302e-001,
          -8.3588761751350482e-001, -9.3477105278810457e-001,
          -2.8277628414602674e-001, -1.1776641363789933e+000,
          -7.7422187300052547e-001, 1.3377005289830248e+000,
          -8.0574768050712703e-002, 1.1800233918919584e-001,
          5.6694574604744169e-002, -2.0965814921880046e+000,
          3.4590766928448952e-001, -4.3750499629655054e-001,
          -3.4182173821563239e-001, 5.5935567995412605e-001,
          -1.1967531051989830e-001, -4.6604691968131062e-001,
          -5.1399792054249926e-001, 1.1183717538050786e-001,
          -3.6177021215391270e-001, 3.3393839804170454e-002,
          -1.2954781167017810e+000, 5.0031631485878081e-001,
          7.0452398204437605e-001, 1.4726318725839382e-001,
          1.8472681466091356e-001, -8.3622233769105225e-001,
          4.0320400983327737e-001, -2.6522112472274761e+000,
          3.5923322847607742e-002, -4.0220463367899362e-001,
          -2.6586608006045326e-001, 8.1462888912661480e-001,
          -1.3133833857909651e-002, -4.4934804136152440e-001,
          6.4891156966380070e-001, -1.1388335344241196e+000,
          -5.1459636794549769e-002, 1.1520145725312408e-001,
          -4.1958791841799087e-001, -1.4617285169629524e+000,
          7.7960493926611296e-001, -1.2429570150330535e-001,
          -2.7807993753835941e-001, 4.2414685378296474e-001,
          2.0167671198470200e-001, -1.9096330982742146e-002,
          -2.5216317897867230e-001, 7.8530466468070381e-001,
          4.2041063180657451e-002, 9.0711618815671247e-002,
          4.2364827355848311e-001, 1.0430537755112581e+000,
          4.3784420251161432e-001, -1.2278484354295878e+000,
          3.3972339237636667e-001, -1.9377373521924601e-001,
          2.2177782581075328e-001, 1.9934663408145814e-001,
          -2.4484815660125617e-001, 1.1008330023089283e-001,
          -1.5162657652608396e+000, -7.5745112692514527e-001,
          -2.6114475687518895e-001, 4.1925394424734813e-001,
          3.3719901022417764e-001, -2.3635783223266818e-001,
          1.1094797788211492e+000, 7.8206170650157325e-001,
          -4.3099677012477006e-001, -8.8260739967095181e-001,
          -4.0500765695586421e-001, -6.3273191710459267e-002,
          -9.9720557463863546e-001, -9.0414488669752802e-001,
          2.9118688302826240e-001, 2.8108714007675777e-002,
          3.0890469593806519e-001, -2.5318394990940446e-001,
          -3.8871094351146749e-003, -1.8310714474016443e-001,
          -6.0943813423551296e-001, 4.7546704427198455e-001,
          -9.3163625840394992e-001, -7.1859265229690739e-001,
          -1.2510482371284384e-001, 1.8190887466296746e+000,
          -1.2270141619686876e+000, 5.8838647727561144e-001,
          -8.5970943481175233e-001, 3.5419747794635546e-002,
          1.0096535867949688e-001, 2.0809998881556524e+000,
          -3.0820971352665227e-001, 6.7695946852562272e-001,
          5.9734653135095184e-001, 3.5295743114775674e-001,
          9.9384547447873544e-003, 1.1857349919977485e+000,
          -8.7904515213915901e-001, 6.2466641300994952e-001,
          -9.2753704055762132e-001, -9.6699605833994451e-001,
          9.8449611319064201e-001, 1.2603345092018474e+000,
          -3.2239896404294519e-002, -1.8860106315209166e-001,
          -1.9099542350532985e-002, -9.5832123069379893e-001,
          1.0304648679544630e+000, 3.7595192265957150e-001,
          -4.1960831122189152e-001, 1.1407265653255410e+000,
          1.0174458882602212e-001, -2.2881586028632130e-002,
          -1.0489121177700746e+000, -1.4856704145857293e+000,
          6.0336878307976793e-001, -8.8873678424327063e-001,
          3.5813486198455513e-001, -1.4589208442168322e-001,
          -6.2238100833223953e-001, -7.6405598211944870e-001,
          -1.1248603031271249e+000, -8.8553201796160541e-001,
          1.3219898038253250e+000, 4.9552461512699975e-001,
          -8.6608544933910903e-001, 1.7249688989046990e+000,
          1.7112984752019178e+000, -1.0672046366791390e+000,
          -6.0141040514648567e-002, 1.9323549475495277e-002,
          8.5825560283444413e-001, 7.8041168814193140e-001,
          -8.1979385336580501e-001, 5.8164362112514989e-001,
          -1.2007526529831913e+000, -1.2101061095130275e-001,
          2.2548251105468511e+000, -5.2931713876029296e-001,
          -4.3059398133252091e-001, -1.1434930473877705e+000,
          1.5083386044274930e-001, -5.6045226746478138e-001,
          1.1133439871117394e-001, 2.8755903800012167e-001,
          1.9472151734068427e-001, -2.7855781964737373e-002,
          9.5787536298205533e-001, 5.8467174242882640e+000,
          4.6564214262867448e-001, 1.2687738466660610e+000,
          -1.1033104525051884e-001, 2.9388473657758589e+000,
          -9.7151684039672070e-001, -5.0047009634896888e-002,
          4.2964247441608983e-001, 2.0296516907214746e+000,
          -7.7681667459917825e-001, 2.3895841944855158e+000,
          -2.9739522812180814e+000, -9.8187673182889579e-001,
          7.6465895593910571e-001, 8.7572518712704694e-001,
          -6.6176996688063583e-001, 2.2491246214026028e+000,
          1.7425810709708105e+000, -4.9763855814551161e-001,
          -3.2480167597066228e-001, -7.3199089583053545e-001,
          1.1664397971407796e+000, -3.2054318368952357e+000,
          2.8831277242014375e+000, -8.1757073204808198e-002,
          -4.1913115019570035e-001, -2.2847722224538654e+000,
          1.2221734628914225e+000, 1.3735997656551882e+000,
          2.8619355718763546e+000, -1.3196843612241735e+000,
          1.8728881912044006e+000, -2.1615687552361629e+000,
          -2.0350473396369453e+000, -7.3041091843600170e-001,
          8.0147804599462213e-001, -7.1811124854309438e-001,
          -8.8476210727085713e-001, -7.7578915080575639e-001,
          -3.1226368338148265e+000, -1.0945454251244329e+000 ]
      - [ -3.1385556949304377e-001, -4.2425824543452972e-001,
          6.1444562112291545e-001, -6.6469511962398786e-001,
          -2.5314788201157311e-002, -4.7244889628528330e-001,
          -2.2391271862613669e-002, -8.5542464800193019e-001,
          -8.5088751947828689e-001, -1.0258588248839273e-001,
          -1.2601775506036092e-001, -2.8401886680733646e-001,
          -1.5092238854337225e-001, -6.9628544526287495e-001,
          -1.8974994933846987e+000, 1.2742957169694799e-001,
          7.1072451864857444e-001, 1.0702296692789931e-001,
          2.0473032569479593e-001, 4.4223107874528733e-001,
          -2.1079227382786506e-001, -6.7402600805002255e-001,
          -1.0584562139656315e+000, 2.0164436236982994e-001,
          -6.1521405802791107e-001, 3.3696423454251934e-001,
          1.7555705839749167e-001, -1.8632984729017554e-001,
          -5.5842968046722108e-001, -3.4509691484119437e-001,
          -4.9777419510169479e-001, -5.1033010659024503e-001,
          -7.1275203199718440e-001, -7.1302761043864826e-003,
          -1.9889199124794699e+000, 4.3652391740057789e-001,
          -1.6312296729118572e+000, 4.5424460587744830e-001,
          6.4680670859477818e-001, -5.0168884001839398e-001,
          -3.1756335676972669e-001, -8.9267558672074102e-002,
          -2.6899582597769384e-001, -6.4387670904059668e-001,
          -4.8511525842153083e-002, 4.1785289838934828e-002,
          -1.7341739034016961e+000, 1.5820619910288566e-001,
          -5.5070959517010598e-001, -1.4605330566013062e+000,
          9.9736698351224284e-001, -1.4225057225276902e-002,
          -9.1333485239230919e-002, 7.0712295688088500e-001,
          8.9781297405851013e-001, -8.8454406662108942e-001,
          5.4701050059135370e-001, 1.9841938708281678e-001,
          -1.1778440890403212e+000, -5.2655970997269749e-002,
          9.1322096345529269e-001, -7.3095876181905295e-001,
          9.6650946137515670e-001, -2.4393281711450651e-002,
          8.6559622420085502e-001, -1.8239053906739633e+000,
          4.5243146643679105e-001, -4.1452982481539713e-001,
          9.9790110160482814e-001, -1.8913087071184390e-001,
          -3.6714831396890441e-001, 2.6510362522624509e-001,
          8.8161236812513633e-001, -2.8194783282837427e-001,
          1.6722467105792720e+000, -9.5841710241961897e-001,
          -6.4283834809719009e-001, -1.2042506848056034e+000,
          -1.1914764621192220e+000, 9.8132712866105487e-001,
          -5.3786713320760338e-001, 5.4220372038102671e-001,
          7.3003814293961089e-001, -4.1126948544962671e-001,
          -5.5590358738843693e-001, -1.1695384331365259e+000,
          5.8448789829590675e-001, 7.1525842460706301e-001,
          8.6301063679967580e-002, 3.6502819514683088e-001,
          -4.3600737538626594e-001, -8.5325849059485004e-001,
          -4.5509505293271935e-001, 4.9954208261346539e-001,
          4.5655149167143061e-001, -2.3701531448000013e-001,
          -4.0573148072723553e-001, -3.3377151013688144e-001,
          -6.4826098966321799e-001, -1.2192438378996670e-001,
          -1.2517719834026508e+000, -5.3474936005871587e-001,
          2.1592901166559803e-001, -2.3400996828279300e-001,
          -1.5719202539621605e-001, 4.3767930269369243e-001,
          -4.9668025346136185e-001, 3.4352459769635296e-001,
          -2.6192940186502733e-001, 1.9025007425601057e-001,
          -4.9658199820863097e-001, -7.4570916581918645e-001,
          7.5333017325578255e-001, -5.6313560804502549e-001,
          3.2049338936925620e-001, -6.7689478360143140e-001,
          -3.3261883652186724e-001, -4.1583928816247862e-001,
          2.4554295361795719e-001, -3.2497217032233522e-001,
          -5.7798401815251776e-001, -8.6347286719673788e-001,
          -1.0869033957154373e+000, 7.4885554945424759e-001,
          3.8366699887517314e-001, 3.2854923209298514e-001,
          3.2347258063134748e-001, 2.6305810860289042e-001,
          -4.5054246456549679e-001, 8.6931207616510198e-001,
          -8.5606746038123938e-001, -5.0008934964931928e-001,
          1.6775213476314030e-001, -5.2702358097427660e-001,
          7.5321563420170512e-001, -3.4057260581750748e-001,
          5.8617205118481952e-001, 4.9482941658169277e-001,
          -1.3759161406316384e-001, -2.1255770512780686e-001,
          -9.0141038055309952e-001, -1.0248683976518489e+000,
          -1.8601290793556965e-001, -7.7462857331461110e-001,
          2.1525552850322824e-001, -7.2699029721061514e-001,
          3.0498456920915490e-001, 1.5564609509200089e-001,
          1.9235892786192124e-001, -8.4147518246057418e-001,
          -4.1950860449667787e-001, 5.7232027871554680e-001,
          3.7240229771005573e-001, -8.6618492187279006e-001,
          -1.6079694798999425e-001, 3.8649593233784085e-001,
          1.0990340192030599e+000, 1.1311708492972376e-001,
          -3.3918214445617278e-001, -9.6713224798653019e-001,
          9.0122889451578425e-001, -9.9280859948762812e-001,
          5.9741338825147594e-001, -4.0564613074585615e-002,
          -8.6777274425926920e-001, 6.6493973924577976e-001,
          -1.1682606462904470e+000, 3.6632844740552523e-001,
          1.1705600351279372e-001, -1.2392913632178693e+000,
          -1.1580934424936919e+000, -1.1472727244546415e+000,
          -1.3219118292123939e+000, -9.9437881047202348e-001,
          -1.0472437941609132e+000, -2.1186218961469264e-001,
          5.3147474638811321e-001, 5.2858361043258462e-001,
          -9.8928297444891078e-001, -1.1938690291735510e+000,
          -4.8120503648566043e-001, -5.4529657481986638e-001,
          -1.1138456033120105e+000, -2.7470630781020730e-002,
          2.9677126563205702e-001, -8.6204538123360908e-001,
          3.5019445743279715e-001, -3.5661951073312687e-001,
          -1.0263759110782169e+000, -1.4423435916937031e+000,
          -5.0092981783112023e-001, -6.0330176879676178e-001,
          -4.8517050880648233e-001, -1.2700247154817528e+000,
          1.3645458805088725e-001, 7.8805158605307046e-001,
          -1.1518788067386441e+000, 5.6518518265606466e-001,
          -8.0799205056588486e-001, -8.0369641115687684e-001,
          -3.8141633620467807e-001, -8.5582231521251950e-001,
          -1.0060462413991214e+000, -1.0388712526623993e-001,
          -1.0008534971170462e+000, -8.4828098006550556e-001,
          7.3637481200608657e-001, -1.0336913078681093e-001,
          7.6718476750248787e-001, 6.6790255497763473e-001,
          1.2760026902741106e-001, 3.6803211537144925e-001,
          1.5280806963448512e-001, 9.0713064010904221e-001,
          7.1835968130152628e-001, 3.9401101834994001e-001,
          7.2529865622410061e-001, 7.2060029096214062e-001,
          7.4102282315196277e-001, -8.0751598470628039e-001,
          -8.6648610157290296e-001, -7.5552691125425242e-001,
          1.0102296504259207e+000, -7.8856913994571204e-002,
          -6.3636124046809805e-001, 2.3798734002986134e-002,
          -7.9981877440499438e-001, -4.6474694698550589e-001,
          -1.0224830036857391e+000, -5.7750265594603034e-001,
          -8.7645943444875396e-001, -2.7775389778766135e-001,
          -6.1680257795379034e-001, -1.7967878077078445e-001,
          -5.0267280570254813e-001, -2.9205916389955914e-003,
          -5.7227933821348331e-001, 4.5606222715639683e-001,
          3.4901881428261761e-001, -6.7167864972607771e-001,
          -4.9449776197741202e-001, -1.1340805898294445e-001,
          -5.5563515992233969e-001, 4.2410990876273852e-001,
          4.2777514281906592e-001, 1.1731830464920292e+000,
          7.5978630534810154e-001, -1.4173919410263665e+000,
          -9.2497604777620590e-001, -8.2915066645515956e-001,
          -3.3509702546960352e-001, 1.1005433046334695e-001,
          5.7167718680467816e-001, 1.1243686518636336e+000,
          1.0704843899467884e+000, 8.5294565584457049e-001,
          5.8052482864001687e-001, -7.8590548913563529e-001,
          3.6072379269729932e-001, 2.0160697504387290e-001,
          1.2019779008023941e+000, 4.3591456127849720e-001,
          4.9737823853217727e-001, -1.1306206220993908e+000,
          9.7564887928902522e-001, -1.0278356184460435e+000,
          -1.9311237845860627e-001, -1.9476951945385329e-001,
          -6.0615109025585112e-001, 1.6149442805222175e-001,
          1.2434136730961357e-001, -8.1626425501711586e-001,
          -1.6531830436350456e-001, 4.2327984263261592e-001,
          7.7806278987342659e-001, 1.3759729554992324e+000,
          -1.7822898519203492e-001, -5.0477594866616271e-001,
          -2.1551575214668894e-001, 9.1835816379596680e-001,
          -1.6182822242261541e+000, -9.7437223430701925e-001,
          -4.8837800890436894e-001, 1.0728537503817397e-002,
          3.8781379481555306e-001, -1.9856564499645893e-001,
          3.8284275179756821e-001, -6.8051722416128813e-001,
          -1.9735492800555562e-001, -3.7715388190391858e-001,
          4.2850838865410285e-001, -1.1134077818908941e+000,
          -2.7614815720036273e-001, -1.0317903725211781e+000,
          -5.6338583536808839e-001, 1.1022350416100921e+000,
          1.0771711139582114e+000, -1.1339808037312511e+000,
          -1.4117531906689712e-001, 6.1362563869204256e-001,
          -1.5537949304677759e-001, 8.7600809607713304e-001,
          1.6697505221438122e-001, -6.2141035383470666e-001,
          9.6313143340024786e-003, 5.4615358499506406e-001,
          -7.6844079150782363e-001, -8.6418227089627805e-002,
          -4.2435535602242330e-001, 7.0596495034082785e-001,
          -1.0999638109375318e-001, -7.1217249481923262e-001,
          -6.8111136551346252e-001, 5.6326610844195568e-001,
          -4.0492221840514986e-001, 4.8471251477462096e-001,
          7.8611400685124311e-001, 6.0923539857928288e-001,
          -2.3603947436979747e-001, -1.1206865836905107e+000,
          -1.2184669597004067e+000, 9.3337607200966266e-001,
          -3.1513981186817647e-001, 1.1374700980473010e-001,
          2.8929755185262473e-001, 1.0002244836186056e+000,
          -3.9472979047404660e-001, -6.5569788118182015e-001,
          -1.0389817776935988e+000, -4.1853790543107061e-001,
          -2.0627984915064085e-001, 4.2960878922945672e-001,
          -6.2657095270425489e-001, -3.4733676992325396e-001,
          2.4175001176065486e-001, 3.1666919030665702e-001,
          -3.6380201880912127e-001, -1.0390429892164814e+000,
          -5.3927051651291469e-001, -8.5150966677377510e-002,
          4.0505790868488967e-001, -9.0354809142653525e-001,
          -1.0231626844779580e+000, -4.2005527939007087e-001,
          -1.3810998023147858e-001, 1.4274277598390589e-001,
          -7.8470396448812807e-001, 8.8061624450218645e-001,
          -1.8035953209979114e-001, -1.9919495436563292e-001,
          4.7715216703083790e-001, -8.1223888874645156e-001,
          -5.8812868357103743e-001, -5.5793772358763383e-001,
          -4.4394572726447840e-001, -6.5398797511413875e-001,
          -1.5670213812303471e+000, -7.5167859190151487e-001,
          -1.2399893451683616e-001, 8.6200561369075257e-001,
          -9.2844719222115257e-001, -2.2967236557982296e-001,
          -3.0099314612852390e-001, -2.3040318042967056e-001,
          -2.2673651801328640e-001, 4.7516618439369951e-001,
          4.9583674012396811e-001, -8.0267032524028425e-001,
          -1.5266313524373282e-001, 2.3006359700944479e-001,
          4.0543297519643695e-001, -4.6613490694349580e-001,
          1.3544629716180673e-001, -1.1045715142366872e+000,
          -2.0969153781934882e-001, 1.0345545589188276e+000,
          6.7642524486540812e-001, 9.2092654298908672e-001,
          -3.0923635412996969e-001, -9.5782156356005121e-001,
          8.5855001098081452e-001, 7.6378494867498492e-001,
          -3.9803180899092011e-001, -1.0554399579805400e+000,
          4.8750661544306656e-002, -1.2663444873127974e+000,
          3.6131855487821096e-001, -5.3477904491440542e-001,
          -3.0304068692447111e-001, 1.6440512900307140e+000,
          -1.1124450098463292e+000, -4.1772441338222421e-001,
          1.3868189041738959e+000, -9.7186163801246683e-001,
          -7.7660250126923991e-001, 8.6541363803878202e-001,
          9.1227778328663622e-001, 1.0645185148891543e+000,
          6.9643088851777257e-001, -8.7578118851087350e-001,
          8.6526720238447641e-001, -3.4254824339013390e-001,
          -8.4861627906532655e-001, -1.2356059015759399e-001,
          5.7923374625351143e-001, 3.4941466703107527e-001,
          -8.8612293260717989e-001, -9.0710409194500879e-003,
          6.5278840847612163e-001, -8.3560197612695142e-001,
          -1.2006467734531867e+000, -3.5055655089035700e-002,
          2.6069676594793961e-001, 3.6855141273817965e-001,
          -7.2930975789420127e-001, -7.6449869539604787e-001,
          -7.1155725198941111e-001, -3.0429661497953359e-002,
          3.8226628430897153e-001, 4.6246578033515034e-001,
          -6.2999166173498697e-002, -8.5064199879434566e-001,
          2.0371912008506327e-001, -2.3798372877505858e-001,
          -4.7684723605496075e-002, -1.2053279478997687e+000,
          -7.9371368838717660e-001, 1.4776520441589761e-001,
          -9.1781744513499808e-001, -7.5397140466366608e-001,
          -3.7654090632919235e-001, -6.8155189865418575e-001,
          -1.2503369198060106e+000, 6.2469922891130125e-002,
          6.0537408424963624e-001, 2.2299837520593627e-002,
          8.1680003658119655e-005, -1.1601686150262762e+000,
          -6.3728870667693771e-001, -1.0322274996043781e+000,
          -3.2799639194105179e-001, -7.0839802166249477e-001,
          -1.0295643077001004e+000, -5.3968170207110133e-001,
          -1.7620775692463875e-001, -1.3735703748885262e+000,
          -1.0655212954653450e+000, 3.2333378228865943e-002,
          -1.3715158134847609e+000, -3.2805264087581226e-001,
          -8.2811511780126623e-001, -5.1141541888980235e-002,
          8.1382179354029083e-001, 1.8399223507761957e-002,
          1.0006404963358715e+000, 1.6118079606751179e-001,
          2.8788949843413220e-001, 7.6628027643589050e-003,
          5.3350247724218491e-001, -6.1373025080549704e-002,
          1.0588026240044930e+000, 1.0628931684233822e+000,
          -4.5062866561086867e-001, 5.8896089208002667e-001,
          8.2005967898546195e-001, 1.3970505077411528e+000,
          6.7616654680428923e-001, 9.5801974604265516e-001,
          1.5192504240821206e-001, -3.7715003353624749e-001,
          9.6709530441259151e-001, 3.8518153759770996e-001,
          1.2342248143547687e+000, 8.7202876918676009e-001,
          6.2665598007938017e-001, 1.2336025117675451e+000,
          7.9846650486145643e-001, 1.1738968890551391e+000,
          9.4508243496199495e-001, 1.0033060146091077e+000,
          1.0572107793104701e+000, 2.2562669140295605e-001,
          8.5991016665827058e-001, 1.2883303983865391e-001,
          1.2998743609933041e+000, 4.8563156576702965e-001,
          5.7577219688003722e-001, 3.1579887464985484e-001,
          2.4716274724753229e-001, -4.6086876351351759e-002,
          -8.2154904153911579e-001, 1.0904649467862202e+000,
          3.5956568362487129e-001, 7.6393774451981866e-001,
          -1.0642173316065537e-001, 1.6549202972187815e-001,
          -6.0000381802676894e-001, 8.2630127602190229e-001,
          4.5434760384394279e-001, 2.1576313747749229e-001,
          -9.6825843449641513e-001, 2.4496059830516798e-001,
          9.5745206062227406e-001, -1.4793410575760690e-001,
          8.5096406314158290e-001, 7.6297072581267456e-001,
          9.9449744313834376e-001, 1.3257827623935672e+000,
          1.0198335118835342e+000, 8.1106160486704237e-001,
          -9.4644376916991824e-001, -1.2728587950977204e+000,
          2.8728910090340481e-001, -4.8153954695861434e-001,
          -1.8028498662137418e-001, -5.4072817090597858e-002,
          1.0845549899556062e+000, 1.6953349010308122e-001,
          -1.5891121279050918e-001, -4.5223358968883398e-001,
          7.5283012434402130e-001, -3.3960342212038752e-001,
          3.3049370690498736e-001, 7.9649885293857803e-001,
          -7.3176909964999226e-001, 4.8241499785081125e-002,
          1.5590144379690050e+000, -8.2175017706357834e-001,
          -3.9338563583324257e-002, -4.3642123103795616e-001,
          -5.1728052036230199e-001, -9.8999034261362862e-001,
          -9.4703732467999666e-002, -3.3185872316173148e-002,
          1.0920885993232081e+000, -4.8966687355031130e-001,
          2.5517311011398491e-001, 8.8562485171928529e-001,
          1.8753936232770194e+000, 5.8997738952358081e-001,
          -8.1168901363033774e-001, 8.9627584153729090e-001,
          9.3486750179209310e-001, 3.3311036376957515e-001,
          -5.1865070883038122e-001, -2.0243530243304964e-001,
          9.1885200200096651e-001, -5.0118222789818068e-001,
          9.3674965548090272e-001, 6.0901328227439300e-001,
          -5.1606650509036088e-002, -8.3392215140091999e-002,
          -1.0953213680580594e-001, -9.0071561993161642e-001,
          6.9632129166334189e-001, 9.9011136572485181e-001,
          -6.0768865140493844e-001, -6.0014328072101086e-001,
          -5.4421998945996342e-001, -9.9650429357964865e-001,
          -1.7336804746719863e+000, 7.5341575341883282e-001,
          -1.2397626687461918e+000, -9.0036465687966449e-001,
          -9.3120851950477679e-001, -5.5685862536224651e-001,
          -8.6404141046946781e-001, 7.6670392342741511e-001,
          1.6150317024219343e+000, -1.0628825346794057e+000,
          6.3941232211268448e-002, -6.3812528092116139e-001,
          -2.4893478535855898e-001, -4.5766820436178807e-001,
          -1.3308020570385488e+000, -1.8598893724613322e-001,
          1.9250628393333905e-001, -1.2635312684981843e+000,
          -6.3768257699210895e-001, 1.1366260201995568e+000,
          -6.8101406629802508e-001, 1.3833737361538348e-001,
          4.1120568426089810e-001, 6.2621565141241908e-001,
          1.2290534975346754e-001, 2.6668039442347546e-001,
          -4.3995637453883274e-001, 1.5025258465550162e-001,
          -2.1136609778711413e-001, -1.4793174764351863e-001,
          -6.2640457149757367e-001, -1.1240964639376869e+000,
          1.6062189417930406e-001, 4.6515703208922496e-002,
          7.0660170178729620e-001, -1.0115346651956207e+000,
          5.9632227690843087e-001, -4.3125478853947262e-002,
          -3.9469417883715613e-001, -6.0681394912712752e-002,
          4.9344862409682701e-002, 3.8401061635419387e-001,
          -2.7177052649461869e-001, -1.3203342222988998e-001,
          -3.6175372454138327e-001, -4.5645226477546413e-001,
          1.7323926603431192e-001, -8.0490518122110799e-001,
          -1.1329843548497824e+000, 9.1923192434811909e-002,
          -1.0429824183034313e+000, 3.1664208652914066e-001,
          -4.1622892909902526e-001, -7.3562930393690149e-003,
          5.6867436568823274e-002, 3.4583785880332935e-001,
          7.5084326432125659e-001, 1.6504088720595583e-002,
          1.0414891849979879e+000, -1.0630399985559633e+000,
          1.8639323954673820e-001, 5.0381381142957704e-001,
          9.5497078726540152e-001, 9.4036859482355784e-001,
          -2.2218156479754012e-001, -4.1158763675003368e-001,
          -1.1072147492480648e+000, 6.9460678913272300e-001,
          1.7602481836877415e-001, -7.4495669092889760e-001,
          -1.5681959291864297e-001, -6.3392567450447124e-001,
          -6.6253532363383749e-001, 9.9057863724020667e-001,
          -1.6770746431257047e-001, 9.5758577472794570e-001,
          -8.3820053790655757e-001, 6.1767984981983115e-001,
          3.5679209468364226e-001, 2.6720981984484304e-002,
          6.8345530106735419e-001, -7.1469053424813256e-001,
          -2.9604239645874494e-002, 9.3401126163492693e-002,
          1.2364091510773958e+000, -4.1058508482993056e-001,
          -7.5727906752996654e-001, 9.1820443379378014e-001,
          -4.7066177088727124e-001, 7.8189219218001149e-001,
          2.9036928736584061e-001, 2.2130519011722855e-001,
          3.4164969734277534e-001, -1.0577973358250641e+000,
          -4.5648456696750550e-001, 1.7416449090154595e-001,
          2.5921966487051618e-001, -6.7264884685403603e-001,
          -7.6060050776127885e-001, -4.3312836321134346e-001,
          3.7549237013589626e-001, -1.7987179651471538e-001,
          -3.0275391359770087e-001, -1.3200849294945793e+000,
          1.1426780363540285e+000, -1.3100481828635451e+000,
          6.4519772227723615e-001, -6.1379131371394369e-001,
          -2.1884271257285728e-001, -8.4432977242808394e-001,
          -9.1286024715606895e-001, -9.7121476347112878e-001,
          -8.9217536541715359e-001, -5.9796721098545602e-001,
          -7.1950537816718252e-001, 2.3086371015006993e-001,
          -8.6617129337301035e-001, -6.2284053438258526e-002,
          -7.5986359791474861e-002, 6.3631455477658483e-001,
          -1.0524703243176906e-001, -2.7882950633633546e-001,
          -8.7016013776315171e-001, 5.1806244086409314e-001,
          -4.9110120167267918e-001, 1.1873414654545937e+000,
          3.0145700857285046e-001, -2.1821129689952823e-001,
          -2.5508838022890218e-001, -9.5214013327421321e-001,
          4.1341295011802748e-001, -1.4771014762427113e+000,
          -1.3991311829766071e+000, -4.7856942180367068e-001,
          -9.7890572969149492e-001, -1.0571956987328905e+000,
          -1.7131793508664858e-001, -9.8413070645683731e-001,
          -8.4752455677177196e-001, -2.8854153018768441e-001,
          3.9695219862639679e-002, 6.2934726990997192e-001,
          4.5859958015876201e-001, -9.1763803099541252e-001,
          -3.3368862930024495e-001, -1.1767512291393534e+000,
          1.3786181282759888e-001, -4.1526977345925331e-001,
          -5.9143877632008335e-001, 5.6951400104985388e-002,
          -3.5246092822341757e-001, 1.1756944116274780e-001,
          1.3036683600276979e-002, -1.2438244274563914e-001,
          -7.9433945420060592e-001, -9.1612084314127651e-001,
          -1.4420988982618634e+000, -1.1140673093868816e+000,
          2.5422858240898671e-001, 1.4032571450329379e-001,
          -1.5749216522961216e+000, -3.1374229919197721e-001,
          -2.4155107894938824e-001, -1.1550157696849139e+000,
          -1.3538811383750782e-001, -3.1756209999125462e-001,
          -1.0239824288482715e+000, -9.1449907039232348e-001,
          -3.7808575205226536e-001, 5.0376303011783717e-003,
          4.8133071255371834e-001, -1.7354125846364712e-001,
          7.0409889958379179e-001, -3.6807427144207888e-001,
          -7.5491929713279748e-001, 1.8404949580271412e-001,
          -4.8385674371059945e-001, 4.6577680637973901e-001,
          4.3468984538648686e-001, 3.6014840476344634e-001,
          -1.7883366295732342e-001, -6.1053130538563716e-001,
          1.5290926652709702e-001, -5.9140125528857390e-001,
          2.3636825220218827e-001, 2.0345555549323147e-001,
          -1.3541562578610999e+000, -3.6413145533382568e-001,
          -6.8077909547447346e-001, 5.4129980464435901e-001,
          -5.2142600264637873e-001, 1.0023790166130102e+000,
          1.1463734261991194e+000, 5.4215282944536525e-001,
          -1.8662455282335322e-001, 1.1530502142257330e-001,
          2.3407292634194807e-001, 9.7648804989390836e-001,
          -1.6906101918640093e-001, -8.6309187022669787e-001,
          1.2732583336337260e+000, 3.6473497879630619e-002,
          5.5068351747450277e-002, 7.5179434678655865e-001,
          5.7936914619111557e-001, 2.3241572513321740e-001,
          1.0305759037440427e+000, 8.3665218473305203e-001,
          5.1917632562115978e-001, 8.4144859145688078e-001,
          7.9487499842857512e-001, 4.0145381052905799e-001,
          7.9418259471360819e-001, -9.1297156027202819e-001,
          -7.7261618054795078e-001, 1.4182959874661236e+000,
          2.4710559714758554e-001, 8.1980143770019920e-001,
          2.0596648943920692e-001, 3.9625520363227762e-001,
          -3.8840463365929367e-001, 1.3345757748870762e-001,
          1.1813389038604196e+000, 9.6880131293486438e-001,
          5.1945548122763197e-001, 9.4309072238615665e-001,
          -1.1940036737081590e+000, -5.0088482288905034e-001,
          -6.1129681829480775e-001, -7.2242253878030993e-001,
          2.6682870528018299e-001, 6.8669821894454841e-001,
          -4.4057645076321089e-001, -1.4134563981374842e-001,
          -2.1258167487475219e-001, -4.1859362105429448e-001,
          -5.7858235418585469e-001, 5.5845331563917855e-001,
          5.4669249202881653e-001, -1.0354202758213078e+000,
          -3.4439976625251267e-001, -1.1424697392608296e+000,
          -8.1018709816961687e-001, 2.3940851990276313e-001,
          -7.2541459859200974e-001, 7.8163035258557667e-001,
          -1.7521845561583635e-001, -1.7551265303666683e-001,
          5.0636145741095162e-001, 8.2126563407851044e-002,
          5.6799961546151911e-001, 9.4861670108727325e-001,
          3.3726830745817066e-001, 6.0997793354413710e-001,
          -1.2642268380641255e+000, -3.1200710570533907e-001,
          3.3058679367235561e-001, -1.1134024554029420e+000,
          -3.3987299946206950e-001, 8.7425966541719635e-001,
          -3.6945085685216622e-001, -7.9043537106105455e-001,
          -2.6130345941790735e-002, 3.0664528546095132e-001,
          1.8860031041940020e-001, 7.1561149765274357e-001,
          6.7652975107024860e-001, -4.4469205318277460e-001,
          8.3028983691995872e-001, 1.7823473556760852e-002,
          4.0836892361456850e-002, 2.4621024081827234e-001,
          1.1193457918938439e+000, 1.4802765441678403e+000,
          -1.0748108771424656e+000, -5.0785559198450625e-001,
          -6.3339495782683197e-001, -1.6804058300283492e-001,
          -4.9161762139632303e-002, 1.2051763708485184e+000,
          -1.2663231773481758e+000, 1.2574739422575518e+000,
          7.1045537359502697e-001, -7.4877729120146075e-001,
          1.1497496903169617e+000, -2.9548961508073712e-001,
          9.5295600000397662e-001, 6.6335789657811428e-001,
          -7.4141281770509715e-001, 1.4259951673137654e+000,
          9.2636244628828346e-001, -2.8456328481923587e-001,
          4.8744086704326328e-001, 9.0170681053940138e-001,
          5.7275028621174429e-001, 6.0330269344056742e-001,
          6.9900569860556772e-001, 9.8440791129871219e-001,
          9.0421655690097436e-001, -7.4945122618496296e-001,
          -4.2125873327863500e-001, 6.6728983696433120e-001,
          -7.6166847453100150e-001, -5.6926289320745183e-001,
          -1.3493539715255711e+000, -3.8071231137903734e-002,
          -1.9704172559826127e-001, -9.8041105892158920e-001,
          -5.9654910399540040e-001, 4.9535439837116318e-001,
          -8.7645366027686453e-002, 8.0567943371679451e-001,
          3.4837518422327540e-001, -7.6735522990910499e-001,
          4.8063723352566545e-001, 6.6328172904576388e-001,
          -8.9176758547848167e-001, -7.1826395259637466e-001,
          -5.1540408274740346e-001, 5.2653040661792216e-001,
          -3.9400321769239793e-001, -1.0958014165559972e-001,
          -4.9001326123232863e-001, -9.3246232091014014e-001,
          -1.4223036728173002e+000, 2.4750253653591245e-001,
          7.1465530069926009e-001, -9.5487107537295002e-001,
          1.2704847518865275e-001, -4.6266029325149205e-001,
          2.3671329328557675e-002, -7.8936078083164718e-001,
          -6.5299434820228952e-001, 8.9394356247370299e-002,
          -1.0379024671411001e+000, 3.7904667197218922e-001,
          1.2080787151999341e+000, 4.5190403617703662e-001,
          4.1935384817909323e-002, 6.8558113960785705e-002,
          -5.6092551981321537e-001, -5.0042599027809453e-001,
          1.1821839051511733e+000, 8.4705383533144429e-001,
          5.3925374094464551e-001, -2.1285776069394924e-001,
          -4.1565178042504103e-001, 1.2019143511723751e+000,
          6.9196365284825656e-001, -3.8555954173967656e-002,
          1.0501463245870639e+000, 5.5964952696923476e-001,
          1.3379250390969477e+000, 7.8303936265899421e-001,
          1.1339951933802170e+000, 8.9906608551965228e-001,
          6.3567209425944771e-001, 2.7529934376976972e-001,
          -1.9562474249262549e-001, 5.2064415431375388e-001,
          6.0032397427073692e-001, 1.3976520035550661e+000,
          1.6188011177148148e-001, 9.1201897559063461e-001,
          1.3742344143217311e+000, 3.8023426917794095e-001,
          9.1912100174730960e-001, 7.8015757059474633e-001,
          5.0207588778379797e-001, 9.8510363807572932e-001,
          4.8787869102657644e-002, 6.1116172790765055e-001,
          6.2268474076262825e-001, 9.6012881927454263e-001,
          2.5221577774356624e-001, 9.8197918342087154e-001,
          -3.2853261970527503e-001, 1.5266901391983765e+000,
          8.9890096549978066e-002, 7.8593087523631699e-001,
          4.3381059643419312e-001, 5.5454705474389476e-001,
          9.9124307480488849e-001, 3.8811372403667882e-001,
          -1.1433237808877854e+000, -4.1549510448544574e-001,
          -9.3859842696771105e-003, -6.1318551612502414e-001,
          -1.2322900600960494e+000, -6.3920379467434618e-001,
          -7.9286264102552240e-001, -7.0645022378229205e-001,
          -6.7825297299575393e-001, 1.8513076386048996e-001,
          -1.2124229274267393e+000, -8.1082384103021921e-001,
          7.5636072745863359e-001, -1.3622405445432668e+000,
          2.4789569598560302e-003, 3.6090513319635215e-001,
          -1.3663518378020356e+000, -9.3515975559674003e-001,
          -1.6066518659468890e-001, -5.2461340744555984e-001,
          -6.4423443292698546e-001, 2.3227946048342791e-002,
          -4.0185521218040432e-001, -5.1772885524772638e-001,
          4.7112827515582628e-002, 4.7309097270985595e-001,
          -9.7196382098292067e-001, 3.5881938972263416e-001,
          -1.7725852415879112e-001, -4.9629991444188215e-001,
          -4.8748471197048904e-001, -4.0292416419892890e-001,
          -8.1483165117354495e-001, -6.2959620792464055e-001,
          -3.8095681799049397e-001, -6.4347021360490442e-001,
          -1.3252854293055760e+000, -1.2127043531736106e+000,
          -1.0899941536581250e+000, -6.8640053312396898e-001,
          1.2447384369453612e-002, 8.1614094953255945e-001,
          4.7247789071561308e-001, 2.6793217030472327e-001,
          -1.1560534668027571e-001, -8.0551803867782679e-001,
          -3.8090088532533789e-001, -1.2895574509647198e-001,
          1.3601180946265840e-001, 6.5802144164079646e-002,
          -3.1081587583256592e-001, -1.2383957953384566e+000,
          -1.0093691593079710e+000, 3.6631832305517992e-001,
          6.3465249574592142e-001, -1.3596539477029683e+000,
          1.1272974796871091e+000, -4.9069231629620153e-001,
          -1.5160564284988615e-001, -1.5607812045462946e-001,
          1.4861439030832386e+000, -1.2261557561332941e+000,
          8.0583238376231936e-001, 1.1782584077440685e+000,
          9.7748386245998564e-001, -1.0945064778171016e+000,
          -6.4784401439862116e-001, -1.5794625750093858e+000,
          -7.7143723346350024e-001, 8.1774192966243930e-001,
          4.1161196285229362e-001, -2.3214633290495412e-001,
          1.2449144155849816e+000, 7.9304797972865182e-001,
          -5.8602437230208360e-001, -7.0011599774377931e-001,
          -9.8976429561671275e-001, 5.2442910207446258e-001,
          8.6415369524801089e-001, -3.3145321007656992e-001,
          1.0916430172078915e+000, -9.2607167391398537e-001,
          -1.0368032105725571e-001, 7.8633254244224549e-001,
          2.8926780162860133e-001, 7.7117612656713061e-002,
          8.6243771486226095e-001, -2.9546637443867174e-001,
          7.1819517718081394e-001, -4.1355528812174963e-001,
          5.1219105092886463e-001, 7.3267355113549004e-001,
          -3.6044287999561736e-001, -2.5902607079987255e-001,
          -9.4305355485955955e-001, 1.5867526140011223e-001,
          1.0314075634374729e+000, -8.4724566257296496e-001,
          6.7657215034720192e-002, -8.4182552296038837e-001,
          -5.0666459902539707e-001, -2.8188703094355499e-001,
          7.8410546339589104e-001, -6.7755166538904610e-001,
          -2.2645223694944136e-001, 9.6511161469262230e-001,
          1.9296021161385410e-001, 1.1592217063612154e+000,
          2.7479636473684149e-001, -5.2794205498359825e-001,
          -5.3024110083551224e-001, -5.0459630112266740e-001,
          -3.6502328937346153e-002, 1.3631255480520993e-001,
          -2.2624789122562544e-001, -3.1871936345441498e-001,
          -2.8518187619827740e-001, 2.6734315771503142e-001,
          6.1830002885311564e-001, -2.1014882772718907e-001,
          -4.4743094882374052e-001, 9.1456387578586895e-001,
          -3.2329864480030784e-001, 1.0496049893875121e-001,
          6.5312187028049629e-001, 6.8178468352508836e-001,
          2.6288574042163432e-001, -2.0610266973278069e-001,
          -3.0799251644097501e-002, 6.9281381957967880e-001,
          -9.1885606113084085e-003, 6.0222565660399338e-003,
          -3.3542880734849800e-001, 5.9066244710781191e-001,
          9.9649432155437145e-001, 4.6470869403279580e-001,
          1.4595989546241225e-001, -4.6510193856308796e-001,
          9.4701691244053687e-001, 1.7226995148077184e+000,
          3.2492137011010142e-001, 4.7862221737681919e-002,
          -1.1498523503337095e+000, -2.4443537969408272e-001,
          4.3868278335265265e-001, 2.2164346284369182e-001,
          1.1072258379545337e-001, 1.4884982762859538e+000,
          5.7314576181404775e-001, 5.0327252275000656e-001,
          1.2717753886053149e+000, -1.4115713458931975e-001,
          -2.0329856314658605e-002, 1.7506777651076016e-001,
          1.3557258232336540e+000, 7.3139105275909844e-001,
          7.7177122811864743e-002, 2.4520593246799016e-002,
          2.0165485342690570e-001, -7.6577343410845644e-001,
          8.6525597580269464e-001, 8.1462859765219775e-001,
          -1.6668982019377693e-001, -8.9706779198758002e-001,
          7.9098975977327823e-001, -8.2440781346967451e-001,
          -4.3913204234679842e-001, 1.5042366788573405e-001,
          -2.3352653710089568e-002, 1.3469992371347891e-001,
          -1.3987269620774618e+000, -5.7317311673358706e-001,
          1.7381671400985152e-001, 3.1740182660261745e-001,
          -1.2685052642035315e+000, 2.8796153986732309e-001,
          2.6818658177528715e-001, -5.0856456559070222e-002,
          3.9876398320857548e-001, -7.8022630256956182e-001,
          -2.3428597652830224e-001, 1.1003978646678305e+000,
          -6.1583107931636627e-001, -3.9543235990278169e-001,
          5.9759849092619788e-001, 1.6626755629816917e-001,
          -2.3202283347724084e-001, 6.9733842459417245e-002,
          -3.6727281669172703e-004, -1.1121459456704963e+000,
          -1.6038591789911575e-002, -5.4320384099098640e-001,
          -6.1601416359344729e-001, 7.6940948624516592e-001,
          -6.9926659620374665e-001, -1.3465515603466125e+000,
          -8.1988631436899906e-001, -6.3358087092528281e-001,
          -8.4308945031932492e-001, -1.5664636378610670e+000,
          -2.5724302868313503e-001, 1.2050586146633557e+000,
          8.6564019768425360e-001, -4.3877543707109662e-001,
          -4.7304315502519872e-001, -7.3725467962649427e-001,
          -7.3271645257175011e-001, -8.5384433694023110e-001,
          -1.2096627763818526e+000, -6.6226507163444559e-001,
          -1.0791457158957176e+000, 1.7807122693901858e-001,
          1.6893208999701002e-002, 7.2925140181698656e-001,
          -2.2036534016155762e-001, -8.0113199920023015e-001,
          -1.0735775219986858e+000, -2.9570335828539551e-001,
          -2.4852725191329900e-001, 1.3919881533440320e-001,
          2.6623827545964235e-001, 3.4942974667795884e-001,
          7.5670600500975660e-001, 3.1928878080454892e-001,
          -2.4670616817491559e-001, 7.1509656890293449e-001,
          5.3268615245882078e-001, -1.2711239006715777e-001,
          9.8283483607980271e-001, -4.6065111533578236e-002,
          -8.8283742716972990e-001, 7.7637105421725328e-001,
          -4.2831448455680449e-001, -9.7861166551520148e-002,
          7.3034303685833052e-002, -7.5838718298594232e-001,
          8.9890194393029077e-001, -1.9146068838319719e-001,
          -3.4407186067988305e-001, 4.5538165732697028e-001,
          -3.3222347360972231e-002, -3.9993934271845957e-002,
          7.1415395885517055e-002, -7.4979253099711096e-001,
          -1.1491087842377536e+000, -1.2007192864307905e+000,
          -5.2221708191749361e-001, -6.5787307416785323e-001,
          -1.0148507177696511e+000, -1.3758515577573618e+000,
          -4.7663240055555223e-002, -7.9989998304227028e-001,
          -2.8829304955330393e-001, -7.6387439357640774e-001,
          7.2275195164738654e-002, 4.0558939376634573e-001,
          -1.0448324295342111e+000, -9.4500171182975601e-002,
          5.9896349466832732e-001, 2.2491129205551541e-001,
          -1.7479212394750152e-001, -1.1556990405391225e+000,
          -1.0683198106961433e+000, 6.9430092128624880e-003,
          -3.1193003138133440e-001, -1.2346837403575828e+000,
          -4.1230328185017573e-001, -6.6143431337223391e-001,
          -7.4663933529565252e-001, -9.6837880095404816e-001,
          -5.2498304429968223e-001, -1.4769449939158676e+000,
          -3.1843917691358242e-001, 7.3551199610232293e-002,
          -1.0180340617053480e+000, -8.5125617488287897e-001,
          -6.9771633804507804e-001, -4.8684623923136566e-001,
          -4.0031037694324501e-001, -6.6469076665468918e-001,
          -6.4799392284968904e-001, -9.1662278597857405e-001,
          2.9098084139408159e-001, -7.3192043679800023e-001,
          4.7569765070579628e-001, -1.0517628092009899e+000,
          -7.6407747771876533e-001, 1.9530144030617083e-001,
          1.0997885173654274e+000, 2.6865504149791691e-001,
          1.0222013158968963e+000, -3.9476690420127952e-001,
          4.1432247922109627e-001, 3.8560831561499559e-001,
          7.5030935936584597e-001, 8.0655734079295138e-001,
          1.9604927770468641e-001, -1.0199964639550860e+000,
          -4.1093131966686391e-001, -4.4851948209074607e-002,
          -8.6435699336239480e-001, -4.0568939171266327e-001,
          5.0669087529486490e-001, -2.5178208940362334e-001,
          -4.8116778279554809e-002, -4.4627203379339636e-001,
          -3.9299391474131379e-001, 4.9089575744840863e-001,
          8.4830823320314774e-001, 7.2844404057839252e-001,
          1.3798112009735679e+000, 4.2661613707619350e-001,
          1.1032777498365254e+000, -1.3546916574253232e+000,
          -1.5531200201405873e-001, -1.1383880162553035e+000,
          6.3433752254655806e-002, -3.3867426273950818e-001,
          -5.7146725293354783e-001, 9.2667990917000093e-002,
          -9.1359290101629617e-002, -9.6886818416321008e-004,
          -4.3270775580127596e-002, 4.1529458340337927e-001,
          6.6309661798584985e-001, 1.3457969818855118e+000,
          -8.3426642837404835e-002, 1.2240058631534009e-001,
          1.2765994413725229e-001, -5.4136794694860635e-001,
          1.5259442302800666e-001, -8.1979928088176324e-001,
          -1.0208531601931379e+000, -1.1526002801971278e+000,
          -2.4534334039785097e-001, -9.9965385104671245e-001,
          -7.7236326806287989e-002, -6.6008938833958830e-001,
          7.1419121115471895e-001, -3.5832011874994013e-001,
          -1.4586306455976745e+000, -5.1566406383730945e-001,
          -9.7691659386470275e-001, -1.0158221674901471e+000,
          -4.8091792579696674e-001, -1.4390038263381463e-001,
          -4.9333722424467880e-001, -6.2829843439065802e-001,
          -1.5536167327649293e+000, 6.5743814868961969e-001,
          -3.7851073191209533e-001, -4.7955808678381334e-001,
          1.0997872300430012e+000, -1.1320078975962065e+000,
          1.3167912370913901e+000, -1.8855672111467530e-002,
          -5.4466353444405802e-001, 7.1817860720991600e-001,
          9.1925134259323327e-001, -5.1510194928170072e-001,
          -5.5859314254771231e-001, -7.6166093536860147e-001,
          4.7624518555279799e-001, -5.9790583930666408e-001,
          -3.0630292415167387e-001, -6.5251520988891776e-001,
          -1.3511729423106983e-001, 4.9827405405129793e-001,
          -4.9191036488685885e-001, 8.3525265668340343e-002,
          -1.6554375766655210e-001, 1.0295716442855971e+000,
          7.4653956264302690e-001, 6.3268237148363160e-001,
          9.8928621438432940e-001, -3.2792631347812756e-001,
          -4.6679458555962716e-001, -5.0266527880616335e-002,
          9.5314662425965424e-001, -5.2093151161645146e-001,
          1.0045404275119882e+000, 1.1081362033796767e+000,
          3.0772302757288239e-001, -1.3804601544838102e-001,
          -2.6105375766285543e-001, -5.0758769322750474e-001,
          2.0595043700482102e-001, 3.4082250288651028e-001,
          1.1744243225172430e+000, 2.0701953803118878e-001,
          1.3417821010375830e+000, 9.3182717426976258e-001,
          8.8920022324117209e-001, -3.9114151483254422e-001,
          1.2299115910954428e+000, 1.0316790467120251e+000,
          5.8200421988397111e-001, 6.9508340758534470e-001,
          5.1351533921860382e-001, 5.7513372037823685e-001,
          5.4079105374041515e-002, 1.8904837959438459e-001,
          1.1172563667770562e-001, 2.2088948186994570e-001,
          9.3064595946922268e-001, -5.9586382427104324e-002,
          -6.2281841040875453e-002, 8.1766682139175328e-001,
          1.3331925584355445e-001, 1.1384145227564855e+000,
          9.3576443981992352e-001, 1.1163387772708153e+000,
          -1.7516934135196199e-001, -5.8882517300273085e-001,
          9.8159777643005808e-001, -5.3267787299358638e-001,
          6.8973904314849133e-001, 1.1463269018216444e+000,
          1.1380889657852271e+000, -5.8338585691139914e-002,
          -8.5105353803574169e-001, 1.0930223404066028e+000,
          -8.5869464598372192e-001, -2.3765187676892394e-001,
          4.3954246132616032e-001, 1.2479645952945584e+000,
          5.2070055157457762e-001, 5.7122270616372584e-001,
          2.7435906233883345e-001, -1.0992557386045656e+000,
          2.3560588651298076e-001, 1.1764360972563690e+000,
          4.6443320268283078e-001, 7.7280791921971981e-001,
          -1.2800149435898259e-001, -2.9061130851080380e-001,
          -7.3984060508473712e-002, 2.3494800418841766e-001,
          -8.5419710930758863e-001, 6.9138213372728707e-001,
          4.4508387804927974e-001, 1.5223076628878565e+000,
          -1.0413674285868053e+000, 9.6619548592732418e-002,
          -7.9544069282365437e-001, 6.4083473507378905e-002,
          -6.8028394169792716e-001, 1.7273773378294294e-001,
          -1.5147289346039902e-001, 8.9972811569679900e-002,
          3.9336299626516436e-001, 1.3237140732407149e+000,
          -4.1819302772673628e-001, 1.0249874732182296e+000,
          4.7937282247037161e-001, -3.1845450581180529e-001,
          -5.9808533488825844e-001, -1.6822520103443264e-001,
          1.5071069670206416e-001, -5.7468830469545606e-001,
          -6.8333425087256949e-001, -5.8172632801433366e-001,
          7.7293438221376953e-001, -1.4746290742815896e-001,
          -2.4391892616328303e-001, 6.2148862298732055e-001,
          -3.1896408551375544e-001, 1.3526230779247303e-001,
          5.1271304561384112e-001, 1.1138921369719951e-001,
          7.9122130838274851e-001, 1.0417167629213115e+000,
          4.3885185615024691e-001, -2.6635254362979371e-001,
          1.4864020659362345e-001, 6.1887365541030370e-001,
          2.7549057731659959e-001, -6.3448502369155668e-001,
          -1.0790319019653105e+000, -1.2478770723164921e-001,
          -4.2273165335430363e-001, 3.5651436827153143e-001,
          -4.5067384823396436e-002, 1.5276614602046954e+000,
          1.3259596047848961e+000, -5.5481533698109298e-001,
          -7.7423640518908932e-001, -6.2605601221669194e-001,
          -7.0817960621467413e-001, -2.2354446508498238e-001,
          1.1913263844344752e+000, -4.4564170228808342e-001,
          1.2201645531325389e+000, -9.5045264322881096e-001,
          -6.5486942177595353e-001, -8.6068268803388748e-001,
          1.1794688187556139e+000, 4.9645445880939487e-001,
          3.5805089743662283e-001, -2.8134058689630698e-001,
          -1.4985139415167337e+000, -2.6163355145802020e-001,
          -9.3297226178619863e-001, 1.9343992851356040e-001,
          -6.1244304043670628e-001, -5.1030861629395941e-001,
          5.6186386424329249e-001, 1.2048848988182708e+000,
          -1.2739601378861083e+000, 1.7480471775329570e-001,
          7.4606014066103110e-001, 5.7838429941595237e-001,
          5.7862037814085565e-001, -1.9753589705271563e-001,
          -1.2272275724815562e+000, -7.2981669702962182e-001,
          -9.8863870644684515e-001, 8.1113122724644982e-001,
          1.2899969956251998e+000, 1.0911619884637309e+000,
          -6.2842594257674622e-001, 7.3433733075134600e-001,
          9.4784634189440900e-002, 3.5498125088843097e-001,
          7.0577651308569256e-001, 3.4904745784875074e-001,
          1.5585685169429439e-001, 6.0042600702683890e-001,
          -6.5458778160116993e-001, 7.1202584070745545e-001,
          -1.4068698823330539e-001, 1.2007151482449949e+000,
          -6.5252594538211661e-001, -8.6667622211292805e-001,
          -8.1474391636762544e-001, 7.5085892356276851e-001,
          -8.3563158884124422e-001, 1.8320316691267960e-001,
          -4.9975716682910032e-001, 1.5207753410320854e-001,
          -5.2506757307612528e-001, -8.7883307898814200e-001,
          -6.0834870177716882e-001, 6.8632623692222883e-001,
          5.1302794409473873e-001, -1.2751563292396481e-001,
          7.2833269757709207e-001, 1.6844001555988073e+000,
          -4.3556685725345490e-001, 9.8161193637837785e-001,
          1.1021519930261854e+000, -5.4316455967126687e-001,
          -4.5217970727530427e-001, 1.3305320181319902e+000,
          -3.1210449520937428e-001, 5.0951390732094282e-001,
          2.8004127773245907e-001, 2.0349681861526156e-001,
          4.2169245487820539e-001, -6.3020978590820220e-001,
          1.6043962705709289e-001, -7.3207389006237256e-001,
          -3.5313304623630076e-001, 7.7864625963466605e-001,
          5.1762206255137100e-001, 1.0883752634345767e+000,
          -2.1740958123956972e-001, -3.0241826790044713e-002,
          -3.2594433213107049e-001, -4.6322530570632858e-001,
          1.3757902474989274e+000, 9.8561007421080649e-001,
          -1.4423555206727359e-001, 6.8765356080235684e-001,
          -2.3118317607804434e-001, -9.7250598156971790e-001,
          7.1893694717817869e-001, -6.3520882541672430e-001,
          -3.6970466450526607e-001, 4.5177808504890798e-001,
          -3.7215275878572340e-001, 2.5179713885544158e-001,
          6.4135700644614935e-001, 6.3433963529433846e-001,
          -4.9680266956608043e-001, -4.3187929449378304e-001,
          6.5314796357645796e-002, -2.3592707630381124e-001,
          -9.0012268620442248e-001, -2.8628877563249877e-001,
          -1.3013852000359169e-001, 3.5456224221981325e-001,
          1.4523627713556730e+000, -1.7848336581279775e-001,
          4.7253484660027928e-001, 1.4169755368932782e+000,
          -7.6484511333424554e-001, 4.3476349900616540e-001,
          5.5067948598968752e-001, -2.6159467765995631e-001,
          1.1864509744729612e+000, -8.5718044918650271e-001,
          1.0356324266858746e-001, 5.4466271974937079e-002,
          6.8231629845024200e-001, 1.3997405249773631e+000,
          3.2050571861091046e-002, 1.3638167862888448e+000,
          -2.7149420640836728e-002, -2.6645730476854107e-001,
          1.5896028104494639e+000, 9.7906018883850843e-001,
          -3.8757152070764822e-001, 1.6097060753147988e-001,
          -5.0309978199576066e-001, -4.7738605323965644e-001,
          5.2433560326988848e-001, 8.1866691893379651e-001,
          6.4492725844662180e-001, 1.1073787234616697e+000,
          -1.8840390904346557e-001, -6.1164993417929858e-001,
          1.1777548873430026e+000, 8.8612549117678341e-001,
          -6.1845905529579615e-001, 9.8879322657644320e-001,
          1.1066453984036657e+000, -2.7954836310441207e-003,
          2.7394020651312728e-001, 1.1544235524802875e+000,
          -9.7602713571799254e-002, -6.1486263398980452e-002,
          1.3070335056398005e-001, 6.9712437395790827e-001,
          -1.0641730394348263e+000, 5.7545632004397940e-001,
          -1.2467318027308800e+000, -3.7745937321567741e-001,
          9.8340743473214920e-001, -2.9007184565051364e-001,
          -1.8503914675479183e-002, -3.1921020827701185e-001,
          -7.9568093025587178e-002, -6.4348513843783028e-001,
          -4.5899379299210930e-001, 3.7009147990931363e-001,
          4.3756825471793426e-001, -1.6150236790677910e-001,
          -9.9283434162047834e-001, -9.4231225241533989e-001,
          -8.6501803483837875e-002, -8.3959911850249480e-001,
          4.4176878615191162e-001, -4.7537066766428543e-001,
          -6.6389819703616504e-001, 9.4206567240923311e-001,
          6.7064909338285816e-001, 8.3576464614219492e-001,
          7.0216479544765098e-001, 1.2173946614406974e+000,
          1.7161324784585708e-001, -4.2989908857238979e-001,
          9.9588334488809604e-001, 8.8496241352257021e-001,
          7.4731067621803238e-001, 7.9600293995432447e-001,
          5.6657653834859101e-001, -6.0322227011279128e-001,
          7.2695191430558648e-001, -1.6739531164439389e-001,
          1.4869192792362180e+000, 1.2860618702418698e+000,
          -1.7988226854312270e-001, 1.1987517915225483e+000,
          6.9965723617374775e-001, 1.0751165523700723e+000,
          7.4674998431732365e-001, -1.0054253926561879e-001,
          1.2776134594125872e+000, -2.5575485781933693e-001,
          1.2034757606934912e+000, -2.7066749906590770e-001,
          1.2225248657760770e+000, 8.0799374631597043e-001,
          -3.2712957204651516e-001, 4.3465550209639509e-001,
          5.6734407174447432e-001, -6.1699635129169275e-002,
          1.2220258739920447e+000, 5.3892823027443937e-001,
          1.0328838307873573e+000, 6.8514556929948245e-001,
          1.3535683480790413e+000, 1.7165648516933849e-001,
          5.0294884918690130e-001, 3.6849777968337427e-001,
          2.7788192201000550e-001, -8.6533507588987357e-001,
          -1.3147164097158843e+000, -7.8567407602927974e-001,
          1.0360582409073800e+000, 1.9865048273485724e+000,
          1.0495389023401906e+000, 2.2741302216478371e-001,
          -5.9005513256689068e-001, -2.8509756946052422e-001,
          1.0084511144770649e+000, 5.7951141945823448e-001,
          7.8365794578191406e-001, 1.2395591201630324e-001,
          4.6105755114263591e-001, 7.3649728933187142e-001,
          2.4310279461631676e-001, -1.0146655118422836e+000,
          5.6625421604929815e-001, -1.5077832619197946e+000,
          -5.3021813961168140e-001, -5.2631667581721431e-001,
          3.1978137407347541e-002, -1.7216207640956377e-001,
          4.0830554418774345e-001, -7.2835841728029427e-001,
          1.3079539559027495e+000, -9.4073250143938991e-001,
          -1.1496135569597141e+000, -3.8719210909348223e-001,
          8.1094985862674018e-001, 6.5762784844775324e-001,
          -5.9541451057958328e-001, -4.1034237103143673e-001,
          -6.5600056095793646e-001, -6.4860780247409211e-002,
          9.9466308162081310e-002, 6.3211745611981385e-001,
          -1.2744684452620474e+000, 7.1230971008539323e-001,
          1.2788648218580330e+000, -3.1875405509903770e-001,
          -8.7707128073295426e-001, -1.2310129877817073e+000,
          -9.5719419732767397e-001, -1.4888381253791132e+000,
          -2.2915571244932842e-001, -5.1763123834124192e-001,
          -1.1323828703261836e+000, -1.6251106718200570e-001,
          -1.5311700522166416e+000, -1.6415122447810448e+000,
          -1.5173154412445196e+000, -1.3391944885605782e+000,
          -1.5246721682381281e+000, -1.0527731099473256e+000,
          -4.6844536331917513e-001, -5.7950592170134607e-001,
          -8.3253277114809676e-001, -3.8792711357739479e-001,
          -1.2480696001979985e+000, -1.2630365667657941e+000,
          -1.1134314687944002e+000, -1.3361136966114559e-001,
          -1.4830984345820633e-001, 5.2716031801051617e-002,
          -5.2609099536812765e-001, -1.7688183335162005e-001,
          -1.2472003392662872e+000, -4.6108338119024334e-001,
          -3.1544745404964947e-001, -9.8449178028723661e-001,
          -2.2572745795632548e-001, -1.7067107606081224e+000,
          -6.1222343383306864e-002, -9.5675343611867758e-001,
          -1.4940240981583379e+000, -6.5124359779509755e-001,
          -1.5140372890409737e+000, -3.5353719536303041e-001,
          -1.1056155281580349e+000, -1.6480593236710808e+000 ]
