%YAML:1.0
my_nn: !!opencv-ml-ann-mlp
   layer_sizes: !!opencv-matrix
      rows: 1
      cols: 3
      dt: i
      data: [ 8, 43, 43 ]
   activation_function: SIGMOID_SYM
   f_param1: 1.
   f_param2: 1.
   min_val: -9.4999999999999996e-001
   max_val: 9.4999999999999996e-001
   min_val1: -9.7999999999999998e-001
   max_val1: 9.7999999999999998e-001
   training_params:
      train_method: BACKPROP
      dw_scale: 5.0000000745058060e-002
      moment_scale: 5.0000000745058060e-002
      term_criteria: { epsilon:9.9999997473787516e-006, iterations:1000 }
   input_scale: [ 1.3484371023518232e+001, -6.5901186913059622e+000,
       1.0936149207114036e+001, -5.3260407895347717e+000,
       1.8210685067284162e-004, -1.8332840039704064e+000,
       1.9718665866419585e-004, -2.3610278228769133e+000,
       6.7683492802519618e+000, -2.6917276836579904e+000,
       6.3738061927391474e+000, -3.1932568929784133e+000,
       9.1786701552786987e+000, -2.2042252084231984e+000,
       7.2983935467298986e+000, -2.1924919564686198e+000 ]
   output_scale: [ 5.2631578947368418e-001, 4.9999999999999994e-001,
       5.2631578947368418e-001, 4.9999999999999994e-001,
       5.2631578947368418e-001, 4.9999999999999994e-001,
       5.2631578947368418e-001, 4.9999999999999994e-001,
       5.2631578947368418e-001, 4.9999999999999994e-001,
       5.2631578947368418e-001, 4.9999999999999994e-001,
       5.2631578947368418e-001, 4.9999999999999994e-001,
       5.2631578947368418e-001, 4.9999999999999994e-001,
       5.2631578947368418e-001, 4.9999999999999994e-001,
       5.2631578947368418e-001, 4.9999999999999994e-001,
       5.2631578947368418e-001, 4.9999999999999994e-001,
       5.2631578947368418e-001, 4.9999999999999994e-001,
       5.2631578947368418e-001, 4.9999999999999994e-001,
       5.2631578947368418e-001, 4.9999999999999994e-001,
       5.2631578947368418e-001, 4.9999999999999994e-001,
       5.2631578947368418e-001, 4.9999999999999994e-001,
       5.2631578947368418e-001, 4.9999999999999994e-001,
       5.2631578947368418e-001, 4.9999999999999994e-001,
       5.2631578947368418e-001, 4.9999999999999994e-001,
       5.2631578947368418e-001, 4.9999999999999994e-001,
       5.2631578947368418e-001, 4.9999999999999994e-001,
       5.2631578947368418e-001, 4.9999999999999994e-001,
       5.2631578947368418e-001, 4.9999999999999994e-001,
       5.2631578947368418e-001, 4.9999999999999994e-001,
       5.2631578947368418e-001, 4.9999999999999994e-001,
       5.2631578947368418e-001, 4.9999999999999994e-001,
       5.2631578947368418e-001, 4.9999999999999994e-001,
       5.2631578947368418e-001, 4.9999999999999994e-001,
       5.2631578947368418e-001, 4.9999999999999994e-001,
       5.2631578947368418e-001, 4.9999999999999994e-001,
       5.2631578947368418e-001, 4.9999999999999994e-001,
       5.2631578947368418e-001, 4.9999999999999994e-001,
       5.2631578947368418e-001, 4.9999999999999994e-001,
       5.2631578947368418e-001, 4.9999999999999994e-001,
       5.2631578947368418e-001, 4.9999999999999994e-001,
       5.2631578947368418e-001, 4.9999999999999994e-001,
       5.2631578947368418e-001, 4.9999999999999994e-001,
       5.2631578947368418e-001, 4.9999999999999994e-001,
       5.2631578947368418e-001, 4.9999999999999994e-001,
       5.2631578947368418e-001, 4.9999999999999994e-001,
       5.2631578947368418e-001, 4.9999999999999994e-001,
       5.2631578947368418e-001, 4.9999999999999994e-001,
       5.2631578947368418e-001, 4.9999999999999994e-001 ]
   inv_output_scale: [ 1.8999999999999999e+000, -9.4999999999999996e-001,
       1.8999999999999999e+000, -9.4999999999999996e-001,
       1.8999999999999999e+000, -9.4999999999999996e-001,
       1.8999999999999999e+000, -9.4999999999999996e-001,
       1.8999999999999999e+000, -9.4999999999999996e-001,
       1.8999999999999999e+000, -9.4999999999999996e-001,
       1.8999999999999999e+000, -9.4999999999999996e-001,
       1.8999999999999999e+000, -9.4999999999999996e-001,
       1.8999999999999999e+000, -9.4999999999999996e-001,
       1.8999999999999999e+000, -9.4999999999999996e-001,
       1.8999999999999999e+000, -9.4999999999999996e-001,
       1.8999999999999999e+000, -9.4999999999999996e-001,
       1.8999999999999999e+000, -9.4999999999999996e-001,
       1.8999999999999999e+000, -9.4999999999999996e-001,
       1.8999999999999999e+000, -9.4999999999999996e-001,
       1.8999999999999999e+000, -9.4999999999999996e-001,
       1.8999999999999999e+000, -9.4999999999999996e-001,
       1.8999999999999999e+000, -9.4999999999999996e-001,
       1.8999999999999999e+000, -9.4999999999999996e-001,
       1.8999999999999999e+000, -9.4999999999999996e-001,
       1.8999999999999999e+000, -9.4999999999999996e-001,
       1.8999999999999999e+000, -9.4999999999999996e-001,
       1.8999999999999999e+000, -9.4999999999999996e-001,
       1.8999999999999999e+000, -9.4999999999999996e-001,
       1.8999999999999999e+000, -9.4999999999999996e-001,
       1.8999999999999999e+000, -9.4999999999999996e-001,
       1.8999999999999999e+000, -9.4999999999999996e-001,
       1.8999999999999999e+000, -9.4999999999999996e-001,
       1.8999999999999999e+000, -9.4999999999999996e-001,
       1.8999999999999999e+000, -9.4999999999999996e-001,
       1.8999999999999999e+000, -9.4999999999999996e-001,
       1.8999999999999999e+000, -9.4999999999999996e-001,
       1.8999999999999999e+000, -9.4999999999999996e-001,
       1.8999999999999999e+000, -9.4999999999999996e-001,
       1.8999999999999999e+000, -9.4999999999999996e-001,
       1.8999999999999999e+000, -9.4999999999999996e-001,
       1.8999999999999999e+000, -9.4999999999999996e-001,
       1.8999999999999999e+000, -9.4999999999999996e-001,
       1.8999999999999999e+000, -9.4999999999999996e-001,
       1.8999999999999999e+000, -9.4999999999999996e-001,
       1.8999999999999999e+000, -9.4999999999999996e-001,
       1.8999999999999999e+000, -9.4999999999999996e-001,
       1.8999999999999999e+000, -9.4999999999999996e-001 ]
   weights:
      - [ 3.1209382448506917e-001, -1.2164323149573645e-002,
          1.2079774793901663e-001, 1.9803803253080423e+000,
          7.9962510613016857e-001, -1.0366489833150367e+000,
          -2.1498006435895549e+000, -1.4651614223087952e+000,
          -5.0590958908341954e-001, 2.6530134167952307e-001,
          4.7455760050217882e-001, -1.0300319745710502e+000,
          1.4283141097437659e+000, -1.8705854413648323e-001,
          -2.0838721135814760e-002, -1.8035299547517558e+000,
          -8.1086383718436639e-001, -2.6140537256749017e+000,
          -6.0316063223980580e-002, 3.4360391516098064e-002,
          -1.1842172297366292e-001, -1.2334881169955784e-002,
          4.7790086010723459e-001, -9.9637065199730313e-001,
          -2.4367623458117271e+000, -1.0112547659702327e+000,
          3.0864329080794300e-001, -7.7869240904264558e-002,
          -1.3488445634695345e-001, -1.0965504422060410e-001,
          -2.9393315390986943e+000, -3.4704136389309392e-001,
          -4.3600463835044084e-001, 5.7949889094910813e-002,
          -1.2470392009783703e-001, -6.4918471692263802e-001,
          -1.3006142681023417e-001, 8.8819063869146786e-002,
          -1.2885141897115826e+000, -4.5749575091861461e-001,
          8.9146938096236095e-001, 2.5984822023047260e-001,
          -1.7499673817541400e-001, -8.9087665482492195e-001,
          4.8316393370809213e-001, 7.3155585424136549e-001,
          6.0540373975665995e-001, -3.1938981737231105e+000,
          3.7911512242299505e-001, -7.4348601146789073e-001,
          -1.0942752659842239e+000, 8.7525745717149617e-001,
          5.8221475607280615e-001, -2.8911238051590691e+000,
          -1.1137530779988078e+000, -1.0301939746993476e+000,
          -3.4687913146345223e-001, 1.6903973622704052e+000,
          1.8447182667452963e-001, 1.9065692128049394e-001,
          -6.8846365618330441e-001, 3.7461667518392427e-001,
          6.5070395877128773e-001, -2.5059106195054013e+000,
          9.1517942564164154e-003, 4.5211817499359763e-001,
          -2.4628601710710596e+000, -1.8922974361378816e-001,
          -1.6678593305337511e-001, 6.8534686392641964e-001,
          1.9359623988253477e-001, -1.9557559560394869e-001,
          -2.7340937862043024e-001, -5.1306014903645403e-001,
          -1.0154630277722272e+000, 1.9022106559389174e+000,
          1.6975797680101847e+000, -7.7720968540283586e-001,
          1.9050634504180508e+000, -1.1016219528467276e-001,
          -3.5593898450938533e-001, 2.3947882815149285e-001,
          8.2573484262848751e-001, 5.1515810135831197e-001,
          -5.9603649990222551e-001, -4.3717562715196939e-001,
          -7.6832816102652901e-001, -4.2817823595489563e-001,
          6.7668335219932607e-001, 1.1302033729323340e+000,
          5.8541717663677273e-001, -8.1736358047964430e-001,
          9.6671250996192826e-001, -6.1360848583277039e-001,
          1.1234996004122491e+000, -2.0548943948478806e+000,
          -1.3854674828866953e+000, 1.8399354916390989e-001,
          8.4537044146837037e-001, 5.8902120146862758e-001,
          -1.8203316780839758e-002, 8.0713519830165045e-002,
          -1.1403150421031780e+000, -1.3382310348660553e+000,
          -1.5724299675208742e-001, -4.3016780973347796e-001,
          6.2086717554785031e-001, 1.9544041965913930e-001,
          1.6645276107349144e-001, 4.1876413418288044e-001,
          9.6889927091978167e-001, 1.6178347342841721e+000,
          -2.6678608207351090e-001, -4.7128047129235025e-002,
          8.0091723452615254e-002, 5.6763668156845248e-001,
          4.4406388987758355e-001, 2.4278717285807074e+000,
          -7.7814361575169155e-001, -2.9067963138873516e-002,
          2.0529269368327555e-001, -1.0614187567998548e+000,
          3.2840077640899162e-001, -1.0772012336570258e-001,
          -1.2492747744732198e+000, -2.6249404811175647e-001,
          -8.4824359007391204e-003, 5.1260511490100535e-001,
          1.2110752580514671e-001, -2.1271997567879843e+000,
          3.9312116533527569e-001, -1.5114995917187872e+000,
          -3.5814052712911507e-003, -7.1740540668124866e-002,
          2.0974584988056817e+000, -7.4072359355085560e-001,
          4.4238479659054003e-001, -1.0630867553163112e+000,
          -5.1655021342400687e-002, 1.6534445583318100e+000,
          -1.0157231766288582e-001, -8.6697033263740897e-001,
          -1.4857175589028970e-001, -5.8934785834993164e-001,
          5.7095588797002816e-001, -2.9237880504644037e-001,
          -4.1771759139045689e-001, -4.3480209906698014e-002,
          3.2764816457909247e-002, 1.7374813204403510e+000,
          -1.9160192774609944e-001, 1.7329845290446415e+000,
          -1.7247259761852166e-001, 3.4305547849132362e-001,
          1.8237161084116777e+000, -1.9650371833604119e+000,
          5.1235656990825294e-002, -1.2540100383185640e-001,
          1.5113026126919954e-001, 3.1585380912900229e-001,
          1.6477698396834606e+000, -2.3028138279026159e-001,
          1.0316096750032000e+000, 1.0777568413807133e+000,
          1.8527031527082771e+000, -5.7661496061678426e-002,
          4.7837388683835297e-001, -1.1194600745152592e+000,
          1.0053248060707773e+000, -1.3563774666272905e+000,
          8.0048452907609846e-001, -3.2384657209191769e-001,
          1.4197077380347940e+000, 3.5460980414351340e-001,
          1.4083578939540040e-001, 5.2783382118950739e-001,
          -1.6264118839106854e+000, 1.2243993408692787e-001,
          1.2736183028574366e+000, -1.1616835584739205e+000,
          8.7808917820486521e-001, 3.8619248330299316e-001,
          2.1114986339721264e+000, 1.9001470802072606e+000,
          -9.5326844125533916e-001, 8.5914292941352027e-002,
          -1.7932221920082383e-001, 2.8895947638908731e-001,
          -1.9680219377134318e+000, -6.1178270228462850e-001,
          1.3753173637174548e-002, 1.0437998128533009e-001,
          -8.2698447889115034e-001, -2.1841199970367089e-001,
          -1.3539255560326657e-001, -1.2296148016148534e+000,
          4.5073714380473257e-001, 3.7633047358470684e-001,
          -2.1272445216151126e-001, 4.3703342721607169e-001,
          3.2137811288611084e-001, 5.4249367421146943e-001,
          -1.9560602295153887e-002, 1.4859455946301752e+000,
          -2.3561279979995646e+000, -3.4449403810728574e-001,
          -1.5469265549658351e-001, -1.5644218455852954e+000,
          1.3641748268269469e-001, 1.3804536037815177e-001,
          -4.8417361831319017e-001, -3.7688770002169564e-001,
          2.2667940520563781e-002, 6.3343356890242231e-001,
          -2.5506810456480106e-001, 7.2339143817870344e-001,
          2.3270749729986526e-001, -8.6585557621000098e-001,
          -1.3463284554946169e+000, 6.2163551460757716e-001,
          5.1490409644969697e-002, 4.7729541711912837e-001,
          1.0726384087834462e+000, -5.8413755111181624e-002,
          1.8048344358222637e-001, -1.4246645667391244e+000,
          -1.4219389153058002e+000, -1.1186541497490834e+000,
          4.2521070210895358e-002, -5.6638621684592194e-001,
          2.9916743743133467e-001, 2.1317286863927118e+000,
          5.7036107297454453e-001, -2.6073767167989863e-002,
          -3.6315501333494749e-001, 5.9463175026497550e-001,
          -2.8041277282761307e-001, 1.8722375742911939e+000,
          5.5310161764897114e-001, -1.4050443235971593e+000,
          -2.4518028659279548e-001, 2.2020107699685024e-001,
          3.0692711588142085e-001, 3.8325539665339559e-001,
          8.3670697644526271e-001, 7.7745528746123094e-001,
          -1.1963248640670612e+000, 9.6366093677165099e-001,
          -4.4789571152632018e-001, 5.5833815868530368e-001,
          1.6130198999624326e-002, 4.8565680143095380e-001,
          2.3669969392153031e-001, 1.1277091976539857e+000,
          -4.6585087380340512e-001, 7.8687312087803118e-001,
          1.0945390044889304e-001, 1.0468625512195164e-001,
          -3.2125470765411808e+000, -3.2600112692378475e-001,
          -1.1517472453643787e+000, -1.8847816482190076e-002,
          9.9575462624780164e-001, 5.3631111848526517e-003,
          -9.0888264118610895e-002, -1.3104119245851256e+000,
          9.1376846114181220e-001, -1.7052088579696534e+000,
          -1.0459999805165474e+000, 6.5725680977320755e-001,
          1.7608800978477421e+000, 2.2709510691954515e-001,
          -5.3831129203119910e-001, -9.9064132948993647e-002,
          -1.3589172358869421e+000, 1.5228912931667973e+000,
          -1.9866482072646161e-001, -2.0123567119246888e-001,
          -1.5040934841676032e+000, -1.1604605673633095e-001,
          -1.1352501654562681e+000, 1.3711163406415936e+000,
          -5.9395953237188337e-001, -2.7935944583182698e-001,
          -9.1355770737225284e-001, -6.1166436334326668e-002,
          5.5604710535357343e-002, 7.7203346492893147e-003,
          -1.0341870259630213e+000, -3.8817056702004188e-001,
          1.7944721052083248e+000, 1.2690439568268680e-001,
          -2.0094867426159322e+000, -7.4398172865964352e-001,
          -2.0277106844516760e-001, -4.4237644809863258e-001,
          -6.3340378334241706e-002, -9.2810599155683751e-002,
          -1.1742979496440931e+000, -2.8653335722587847e-001,
          -1.1731448746972682e-001, -4.0081295522633811e+000,
          2.0845957126987991e-002, 9.4866682842603989e-001,
          -9.8047579695586762e-001, -1.2184311816171267e+000,
          2.1006385891284718e-001, -2.1213822620137579e+000,
          -1.9141021726143224e+000, -1.6258301514857527e+000,
          1.8688295649309927e-001, 9.2908217368660694e-003,
          4.8729520408245042e-001, -2.1589925972263396e-001,
          -8.4958773663728018e-002, -2.7120167495465491e-001,
          -1.0454148758493325e+000, -3.9696805457104317e-001,
          -4.6904524253213890e-002, 9.2283361884228796e-002,
          -1.9472418099165108e-002, 1.2516658860626522e+000,
          1.3779633256376633e-002, -2.9361594649311495e-001,
          1.8030277439778823e+000, 1.1524001271784290e+000,
          -8.3405122925285424e-001, 1.0346190228048784e+000,
          1.6738470146596943e-001, 4.4758706453806661e-002,
          1.6707509180845179e-001, 1.2553679250588836e+000,
          -4.3056550631100876e-001, 2.3738124071834106e+000,
          -1.1429039494429347e+000, -2.0541506363957693e-001,
          -3.9856951234033960e-001, -2.2117874511716769e-002,
          -3.3337817312583085e-001, -6.4399321191350045e-001,
          5.7340140798923600e-001, -1.4390267813166080e-001,
          3.9639498446988178e-002, -4.0942043248830773e-001,
          5.2909774451215386e+000, -3.0331818396179311e+000,
          -5.8228407144547212e-001, -1.1684604761721284e+000,
          8.6714345591514652e-001, 9.6868529133073067e-001,
          -4.3449799992232790e-001, 8.6717071894030806e-001,
          -1.7802234907167755e-001, 8.6711881021390158e-001,
          3.2441671650228217e-002, -9.8280378039701896e-002,
          1.4851919356878795e+000, 2.8397201366434701e+000,
          4.7851549500371182e-001, 6.2856732804588339e-002,
          -8.7190344574875256e-001, -6.7843555994222393e-001,
          -2.9399633136525085e+000, -2.9929832125257132e+000,
          -3.0659526805512993e-001, 3.0069607002450174e+000,
          -1.2103769348627358e+000, 9.8247555664145814e-001,
          -8.1909493752966933e-001, 9.8099163338605122e-001,
          1.2110837157184791e+000, -2.9549938772238731e+000,
          2.6543906920298510e+000, -1.9098439797521793e+000,
          -6.7056314668404660e-001, 4.8393716352598837e-001,
          -1.3251171050848114e+000, -9.3388245018701396e-002,
          7.8192154641967693e-001, 4.0066182073410500e-001,
          -2.0048674614858721e+000, -2.1592499197436927e+000,
          2.0960266105682566e+000, 1.3528369718130484e+000,
          -2.4063778283441839e-001, 2.2574914309015819e+000,
          -2.1271856008297609e+000 ]
      - [ 9.5172906387037493e-001, -5.3218364308016319e-001,
          -7.4007250294477744e-001, 1.4200933414742765e+000,
          5.1239386799792053e-001, -5.7295199890137782e-001,
          -7.6723441585242480e-001, -1.2558945459534974e+000,
          -2.1859286916273965e-002, 1.0437102940520921e+000,
          -5.1826396543942421e-001, -8.6682293365500540e-001,
          1.6018928203303370e-001, 3.9641986892334946e-001,
          -3.5133401137521841e-001, -8.4528879516155608e-001,
          -6.0982936014575953e-002, 6.7195266923847707e-001,
          -1.5611303440509797e-001, -6.7524323323961066e-001,
          -5.8563629722828137e-001, -3.0572211450404851e-001,
          -6.7951346473987206e-001, 3.1710103115177585e-001,
          2.4976176427862574e-002, -2.5513162903963843e-001,
          -1.7848292917376491e+000, 6.8564840164737073e-001,
          4.1557742567342015e-001, 1.5178515776086826e-001,
          3.8249561988590286e-001, 1.1774629573243591e+000,
          -1.1817261916926887e-001, -7.1390050946792361e-001,
          3.9972870622965007e-001, -7.6058668489162562e-001,
          5.4166761078363823e-001, 7.1003488692091909e-001,
          -1.1450563477195752e+000, -1.3016369812321156e+000,
          -2.2748455388197955e+000, 6.1509207926451448e-001,
          4.3043538916281529e-002, 1.6360791405028354e+000,
          1.4891456083072956e+000, 8.7142971693502669e-001,
          1.1714800423529113e+000, 2.9445497220422551e-001,
          1.3857397084558312e+000, 1.1141608223114634e+000,
          2.1153627534623441e-002, 1.1060448275682402e+000,
          1.0265797281233591e+000, 4.5458311555621295e-001,
          1.3552405620532543e-001, 8.4048611216236124e-001,
          8.6826839627764629e-001, 1.4364695470573419e+000,
          4.6336975757638815e-001, 3.9579290496448288e-001,
          8.7031432810843135e-001, 6.5249317577190158e-001,
          1.1540664967293974e+000, -1.0545537554549790e-001,
          8.1234307546751561e-001, 1.3219796003317672e+000,
          1.9005230482637163e+000, 6.1347104248484730e-001,
          4.5926411340937162e-001, 1.0335984783898491e+000,
          1.4716264140231661e+000, -5.0074891281711353e-001,
          -5.6712515461742850e-002, -1.4133960771976456e-001,
          1.1005133657581792e+000, 1.8389303528909311e-002,
          3.7283219068186924e-001, 2.4224710408807207e-001,
          -1.9030610545063348e-001, 1.1485176360785110e+000,
          -3.7748920750763387e-001, -6.0845082795119276e-001,
          4.6067480433845143e-001, 1.1683301205338675e-001,
          1.5160837293630418e+000, 1.9815559738807573e-001,
          1.2602639603144236e-001, 1.1255027677690304e+000,
          5.7136721989494987e-001, -2.5660493284688046e-001,
          -8.8781917656750764e-001, -3.7064643053894436e-001,
          8.4252746363472797e-001, -5.5603658119267416e-002,
          -1.7481658254365379e-001, 4.8337869952750029e-001,
          -3.3032089653630181e-001, -6.4732548531554712e-001,
          5.6972136896116909e-002, 8.9825531826206451e-001,
          1.7202381501848047e+000, 6.6887299362844688e-001,
          1.0609053935522530e+000, -2.6965990178870208e-001,
          1.0682380909433806e+000, -8.9776065263967186e-001,
          -7.9264007611384901e-001, -2.3344411387254260e-001,
          3.6367148323666681e-001, 1.2351758278846596e-001,
          2.6335769520195940e-001, 1.5072696730243210e-001,
          -7.9473702188768569e-001, -4.4542606708866295e-001,
          1.2487931814022588e+000, 2.6017878814786516e-001,
          5.9646641731571692e-001, -6.2822289421731703e-001,
          2.2310411618227036e-001, 7.0796314294635365e-001,
          -5.2168935144377016e-001, 6.7759201016726264e-002,
          -4.9478643757695717e-001, -2.9524838839321732e-001,
          1.1469877560309180e-001, 2.3850377072901052e-001,
          7.7015252037926141e-001, -5.4123936640748709e-002,
          -2.3547236868437299e-001, -3.5281191880210394e-001,
          6.2830662425194717e-001, 2.4564360491289117e-001,
          7.4569031240173431e-002, 6.1315743690391798e-002,
          -2.4472672825654104e-001, -2.5668768611198417e-001,
          -4.3340149063647981e-001, -6.6715800269426373e-001,
          -1.0635363902165507e+000, 1.9843331558713398e-001,
          7.3841977767312461e-001, 8.9599527501615284e-001,
          3.9857834654330510e-001, -8.7934931540414663e-001,
          -9.9803700354238845e-001, 1.0203253657798184e+000,
          -7.1637335325924978e-001, -5.6503667005224589e-001,
          1.6455251103465063e+000, -1.1881374429669425e+000,
          -1.1733688930853732e-001, 3.0964015446454307e-001,
          -3.2834964141090828e-001, 7.2150502475928624e-001,
          5.1244955780902313e-001, 3.8734807729911958e-001,
          -7.5638343028838495e-001, 3.1391350491141301e-001,
          -1.4530710925898769e+000, 3.9198594467842535e-001,
          -1.2159849804523475e+000, -7.6307060955085226e-001,
          -1.1368933394953622e+000, -1.9459901474273508e-001,
          -6.4207431636147472e-001, 7.6820635301240958e-001,
          -4.4566766858291795e-001, 1.2806271031937497e-001,
          2.3421084037572845e-001, -1.2443388006633682e+000,
          -6.3139624030907249e-001, -4.9182163455172867e-001,
          -2.1619302560730822e+000, -1.4453668212940896e+000,
          4.2113441672014595e-001, -4.4562076972031667e-001,
          -5.8632937382224526e-001, -1.6302806432084527e+000,
          8.4558381584343323e-001, 2.0923555711513599e+000,
          7.8787316950317854e-001, 1.6196437851792032e+000,
          2.9161431072005140e-001, 7.3979607270235903e-001,
          4.8517283741000566e-001, -2.0989058296399410e-001,
          -1.0194356528756499e+000, -1.3927705550621330e-001,
          -1.1555942293048347e+000, -1.7820889868119683e-001,
          -1.7868882972484512e+000, 5.5262010517327653e-001,
          5.6351220856973872e-001, -7.0265698835268697e-001,
          -8.2219920966470883e-001, -8.7142668455621353e-001,
          -1.4304159981573907e+000, 7.2124728781492498e-001,
          -9.5586448974068838e-001, 1.0604648688130658e+000,
          -9.5936482039209459e-001, 1.0348746573780178e-001,
          5.1302749048819163e-001, 6.6571383578698806e-001,
          1.2136392508286955e+000, -1.6342716782752047e+000,
          -4.8928242881860295e-001, -6.8390858551507105e-001,
          -2.3694607658242085e-002, -7.1802610234215036e-001,
          -4.0307028494594371e-001, 2.0545079482674206e-001,
          6.1548029402708604e-001, -1.0988757364042652e+000,
          -2.2033557691540298e-001, 3.7206936273092356e-001,
          -5.1765232344709489e-001, -5.2080846634627931e-001,
          3.8885760132897368e-001, 8.9977969459877327e-001,
          3.8633748917053229e-001, -3.2529053963974791e-001,
          -2.5091296143942343e-001, -5.0485416274405182e-001,
          5.6831342971874932e-001, -6.6681607322022707e-001,
          -1.0020205661509735e-001, -2.0921090330365652e-001,
          -4.9258474403265828e-001, -3.2478909219175200e-001,
          7.5183190309411729e-001, -6.4515338641726450e-001,
          -2.2777845779589370e-002, 4.6098531924195982e-002,
          8.1632469097123828e-001, -7.4155923379224675e-001,
          -9.7806824670580594e-001, 2.0491977627899621e-001,
          -1.5443404217393500e-001, 7.2858294126316692e-001,
          -5.9068835945543474e-001, 1.6005541052979154e-002,
          -1.9431791666723616e-001, -3.4762439911071019e-001,
          -6.5228736676016819e-001, -7.7850966432203106e-001,
          1.1520447461765808e+000, 1.0903657891329064e+000,
          -8.0559048445954640e-001, -4.4723870110814784e-001,
          -1.2329088084628579e+000, -9.6235032243082563e-001,
          -1.1136093933993458e+000, -1.4052865137346360e+000,
          -8.3578241732960454e-002, -3.3109120697247785e-001,
          -4.9781452135261250e-001, 1.5821917766833415e+000,
          -1.9841581929799576e-001, -5.9991234374659275e-001,
          -6.0240371960827621e-001, -9.9476071608193628e-001,
          -1.6836677271776829e-001, -1.0687972343026109e+000,
          -2.8165421362583842e-001, -1.6925299534729925e+000,
          -5.1262926271469089e-001, 8.1137734808180068e-002,
          -2.7104117789489740e-001, 7.4984890134359583e-001,
          1.0959700713865639e+000, -2.4544015830100335e-001,
          6.6616162147933844e-001, 3.7562283953180042e-001,
          -4.2142643985700740e-001, -1.5253596559055473e+000,
          4.6298605259242048e-001, -2.8558795121953762e-001,
          7.4246534465251335e-001, 6.0547059679233972e-001,
          6.7702056202902383e-001, 5.7268530865511746e-001,
          -6.8807245955654928e-001, -7.9836053046101341e-001,
          1.2458539114240796e+000, 1.4627784265732262e+000,
          8.6930525203093412e-001, 5.3441772625301354e-001,
          1.4177193467651542e-001, 1.2854782942548295e+000,
          3.6557072394511608e-001, 1.1981095963474022e+000,
          1.2050044034520733e+000, 3.4643909737533035e-001,
          9.6812941395382612e-001, -7.6744074028782772e-001,
          -1.5295619549730491e-001, 6.7535170548732304e-001,
          -2.9164605225973395e-001, -5.1210453595983807e-001,
          8.0447784086587226e-001, 6.2070511374862081e-001,
          -1.0836038358507065e+000, -3.4874729470462490e-001,
          -3.6511929379197089e-001, 1.1279620673823709e+000,
          -9.8954242600023712e-001, 7.4382142048627631e-001,
          6.1124494815967911e-001, -1.5283229951553414e+000,
          -3.6387055263340812e-001, -7.0378066864482469e-001,
          -1.1857208824515681e+000, 7.1867778190990483e-001,
          5.9331773926899478e-002, -4.1125582627729912e-001,
          3.7897871882376660e-001, -1.6552445162710980e+000,
          2.5891234742064489e-001, -5.3741911427832323e-001,
          6.1442212919600747e-001, 1.1897427026626737e+000,
          -4.4253000999190639e-001, 3.4416829953818101e-001,
          4.7698442283536413e-001, 7.2101388329529637e-001,
          2.2092145210135861e-001, -9.6731615368198728e-002,
          -1.1405806112757798e-001, -7.1668713424285790e-001,
          -5.9145760775810588e-002, 1.5049379882212113e-001,
          3.4177004489713081e-001, 1.4627664372006444e+000,
          -2.7110109913688479e-001, -1.1508761987459482e+000,
          5.8995836439536442e-001, 7.5192962430215349e-001,
          -5.8819514856454269e-001, 5.5888772276951171e-001,
          -1.0769314220398423e+000, 6.1611813520242686e-001,
          -7.0835533407367168e-001, -1.3777677083702800e+000,
          -6.0778505371189622e-003, -1.1344345745147180e+000,
          6.3461113032175567e-002, 2.9431906283124543e-001,
          -7.4011714279889118e-002, -8.6265950647942047e-001,
          -5.8105470035283935e-001, -5.8699026122758091e-001,
          -1.5027031670401119e+000, 1.1904796414393147e-001,
          -6.1694740152543823e-002, -3.7853264972734091e-001,
          1.0214413771296988e+000, 5.5093701137626516e-001,
          3.1215467253148315e-002, -1.9675532318255068e-001,
          5.2561784927613342e-001, -8.5272235424226606e-001,
          9.9156150468827076e-001, 2.2864024958601020e-001,
          3.9366374182244157e-001, 2.7697800541960099e-001,
          -3.1267752761799705e-001, 4.6191822095820595e-002,
          9.8230139406836170e-001, -9.5234038178173230e-001,
          -4.1777092449048170e-001, 1.0895252662476205e+000,
          7.9363230671897045e-001, -9.3274290894150413e-003,
          -1.5377689712636630e-001, 3.2899785411527371e-001,
          -1.0889400303537946e+000, 6.3346253531935792e-001,
          4.8856423072156790e-001, 1.8393299994787629e-001,
          1.3905698463189946e+000, -5.2773328761263831e-002,
          -1.8502340203591081e-001, -1.9399239087714440e-001,
          -1.5504027217904126e+000, -7.2288391580669198e-001,
          5.9546057206402958e-001, 6.3570042038736307e-001,
          -7.2311895364676182e-001, -1.0414865810244452e-001,
          -4.2829358808889606e-001, 9.2977631469967503e-001,
          6.1924589513896400e-001, 7.2557773310453266e-001,
          -9.9295739061047372e-001, -5.6774945310661440e-001,
          -8.2683290239092300e-001, 3.1561666839960562e-001,
          -3.9791972535561264e-002, 3.5132953353926466e-001,
          1.7840889922294575e-001, 2.8493395452296250e-001,
          -1.2851985915537834e-001, -6.6614877737887590e-001,
          1.6261911813747387e-001, 2.9224645163361945e-001,
          -5.5524303697201971e-001, -8.4151236653596628e-001,
          9.6718369798697323e-001, 4.1238638992487103e-001,
          8.0155238787021396e-002, 4.7059948925321360e-001,
          1.8513006242887128e-001, -2.4079376520046597e-001,
          -2.0511662167659572e-001, -7.7998470129661790e-001,
          -3.0502943697786833e-001, 1.0793585888822226e+000,
          -1.1630991436230109e+000, -1.7387025009802271e-002,
          1.4166039181897286e-001, -1.1928598169396443e+000,
          -8.2228967461776636e-001, -9.4773560666831524e-001,
          -6.8655350483487965e-001, -9.3420352359733039e-001,
          1.2371312431424100e-001, -7.8827526347614474e-001,
          4.7824171189816961e-001, -1.1967524172359609e+000,
          -1.4009586821967610e-001, 3.1403530359855036e-001,
          1.3623593231603646e+000, 4.2867187379546295e-001,
          1.3231676426119907e+000, 1.2480065126163764e+000,
          1.2388225292574571e+000, 5.0494524943796781e-001,
          4.5342581219650313e-001, 5.1138541004358051e-001,
          -1.0870930457892884e+000, 6.0899333115017262e-001,
          3.6658028922237201e-001, 8.0044387083469204e-001,
          -1.1252327800906066e+000, 1.8806591849796953e-001,
          -5.0040799685668225e-001, -1.4837884598122911e-001,
          -1.4471935912054803e+000, -5.0133625154933836e-001,
          8.7817530869871441e-001, 6.9671767138476970e-001,
          2.0475300541836261e+000, -3.1921598745599528e-001,
          -6.9531808816502683e-001, 5.4015354215128719e-001,
          -1.0602996736432775e+000, -1.0853394725670604e+000,
          -7.3340816163139710e-001, -2.1275407273941109e+000,
          -1.1336853214229610e+000, 4.3864968998975962e-001,
          4.3441730326768968e-001, 1.1909939632926672e+000,
          7.9580672522561868e-001, 1.2098550055253829e+000,
          -1.0775423350243905e+000, 2.2417857220658310e-002,
          -4.3266139725961028e-001, -6.0281634583105526e-001,
          4.4846405739491851e-001, -7.3923032380557807e-001,
          9.5302328900252453e-001, -4.3911799888493203e-001,
          -6.4585662038735858e-001, 6.2592276562553961e-001,
          -1.1572827946967739e+000, 1.3319596300033818e+000,
          7.9315190902247790e-001, -1.6442785512815716e-001,
          2.4208944148158837e-001, -5.1268210923258883e-001,
          4.5746206181225407e-001, -5.4668580338970407e-001,
          -9.5085268724772265e-001, 2.6843258300308698e-001,
          2.1307745310903461e-001, -9.1966452300755938e-002,
          3.3542928372240655e-001, -7.1273894698813001e-001,
          -4.4791930227378596e-001, -1.8963854701418689e-001,
          -6.3328683109411088e-001, -1.3955484922076311e-001,
          1.6366313009816405e-001, 1.0450834762825683e+000,
          -7.0895744962239460e-001, -7.7683533419444881e-002,
          -5.4233463359603007e-001, 9.9789295205437567e-001,
          -1.0534989363483949e+000, -8.9466902825777916e-001,
          8.3040785913796211e-001, -1.2909179379083802e+000,
          2.2367513012039989e-002, -1.2991478063545685e+000,
          7.9218476834138052e-001, -1.5780949016829887e-001,
          -3.4537857819801770e-001, 1.7126160678720875e-001,
          7.0119023176332205e-004, -5.4871707704496425e-002,
          1.2148179992986023e+000, 7.5892116388365849e-001,
          8.5335939694514917e-001, -4.1383119321729128e-001,
          -1.3145703387339469e+000, 1.1107975723284937e+000,
          8.5126482147860305e-001, -1.2227789396320812e+000,
          9.3876073279468369e-002, -1.1920448410775579e+000,
          7.3328922359903931e-002, 4.6646846276871276e-003,
          -4.8167354069664110e-002, 1.2230031046039140e+000,
          -1.4572972509871298e+000, -9.9890391950010804e-001,
          -8.4827773810114959e-001, 2.2439425018421669e-001,
          6.9616122407284686e-001, -3.3718073163574325e-001,
          -9.7771385227651120e-001, -1.0515368021210845e+000,
          -9.2311507228570822e-001, -3.7725114992290704e-001,
          -5.8790166849641434e-001, -1.4643685365688925e+000,
          6.2596556088334654e-001, -1.7181286859741294e+000,
          5.5909480670648415e-001, 6.1868914274679954e-001,
          5.2959933884457100e-001, -1.0405934518430311e+000,
          5.8117326443786221e-001, 8.0232175004127770e-002,
          2.7158019676733269e-001, -1.2510077336194242e-001,
          8.3777274996760642e-001, 5.4722540767632466e-001,
          1.3132465450957365e-001, -6.8097880112695575e-001,
          4.5492051975302938e-001, -4.0262262833049267e-001,
          -9.4688773544605864e-001, 7.7505865125884743e-001,
          -4.5967334364030626e-001, -1.0062601811084364e+000,
          9.5645438708037700e-001, -1.2750714929681466e+000,
          -6.4326312686164311e-001, -1.1887531515742495e+000,
          -2.8750344521055032e-001, -1.4182807217709916e+000,
          -8.8108428399979666e-001, -3.6918973074210998e-001,
          -1.4183331967580548e+000, 1.5354602552020952e-001,
          -7.3344390747309829e-001, -1.2777060357009110e-001,
          -8.3762347631854384e-001, -7.7069866553021382e-001,
          -5.7650832412005826e-001, 2.1871844409567336e-002,
          -8.3278507854714279e-001, -1.2699817860707012e+000,
          -1.2866614829558018e+000, -2.6845721039194720e-002,
          1.2899446487253799e-001, -7.5411661940286145e-001,
          -6.5513423070182653e-001, 1.3741538814949253e-001,
          1.1993719742984568e-001, 6.9545754275953109e-002,
          -1.0258421990005069e+000, -1.0717906313873893e+000,
          -8.5345310982612199e-001, -1.4008282662865932e+000,
          -1.0765264985782492e+000, 1.9752368705477955e-001,
          -7.7397116938413579e-001, 1.1070096863663608e-003,
          -8.7819774342960488e-001, -1.1333579256975606e+000,
          -1.0744411883292868e+000, 3.0951319962196894e-001,
          -5.3751591603697979e-001, -4.7098682478100334e-001,
          -7.4081896141558223e-001, -1.2498424039772509e-001,
          -8.8587985212578912e-001, -9.4036166438323521e-001,
          -2.8792932939450883e-001, 1.4759114206768890e-002,
          -2.6477241161739745e-001, 1.2572669436898795e-001,
          1.5761249922170456e-001, -8.8317053390550171e-001,
          2.4422416433349645e-001, -4.2768509068968286e-001,
          6.9286852508740748e-001, -1.0553563616668977e+000,
          2.9149144515677383e-001, -9.0726655661199784e-001,
          7.8529387242624171e-001, -2.2662518351070213e-001,
          6.9570430812296122e-002, -7.5813737842137363e-001,
          8.7835542710528813e-001, 2.1876368407292124e-001,
          1.3667535325078843e+000, 1.8438868555283355e-001,
          -5.3466711598932903e-001, -3.9123573526802609e-003,
          -2.2740164455295475e-001, -7.3686789404674380e-001,
          -1.4140822863894265e-001, 5.2777683725862812e-001,
          4.8267476414147956e-002, 7.4700662766349502e-001,
          -5.7925333259012590e-001, 2.8353695229207687e-001,
          1.3106827107861290e+000, -9.3057007882149401e-001,
          -9.5418529528281171e-001, 7.3582148852006035e-001,
          5.6127210641061154e-001, -2.6134506421874737e-001,
          -1.2334448045143938e-001, -1.1526573581754609e+000,
          -6.7975047053018200e-001, 7.8377718502305196e-002,
          -3.4230316108377912e-001, 9.4794740320129300e-001,
          -4.4536435948442377e-001, 4.6339643782162249e-001,
          -9.3222950819629113e-001, -5.8438464442988269e-001,
          -1.1742175674445445e+000, 1.5698640914309839e-001,
          8.8930573046509132e-001, -9.9685944311663366e-001,
          2.8016414205011314e-001, -3.8121909479266330e-001,
          1.0083780031283283e+000, 7.1920654148584540e-001,
          3.0897928718539591e-001, 2.5869126727750263e-001,
          9.6650933871399625e-001, -8.1016658912361561e-001,
          -4.7809936831872984e-001, 9.6458785370758093e-001,
          1.0090681797635068e+000, 7.0628918939246788e-001,
          -5.6677988976485572e-001, 1.0624546226704763e+000,
          5.5511285119174647e-001, -4.8621720599073021e-001,
          -1.0854348169107057e-001, -5.8388759826258874e-001,
          2.3958282574765377e-001, 7.5924951924074793e-002,
          2.3430952059902840e-001, 6.3216644312616355e-001,
          5.1077491295865496e-001, -7.3619408186797985e-001,
          -2.8385965670012969e-001, -9.1241169675563963e-002,
          4.9261287896233474e-001, -7.2416158603970937e-001,
          2.6838161017411977e-001, 6.3453803657515728e-001,
          4.9618063597813850e-001, 7.6051198163054490e-001,
          -1.1094328893485179e+000, 1.1084061136761629e-001,
          -2.3137928921231791e-002, 1.9800936442647063e-001,
          -4.7494253117954849e-001, 1.2017541789020883e-001,
          1.9675823129970729e-001, -4.8657893489202936e-001,
          -5.8271664191304762e-001, -1.9638364049660673e-001,
          1.1629180452433985e+000, -1.0981906276579243e+000,
          -8.4992073468408968e-001, 1.2904649611806127e+000,
          8.4351321090185438e-001, -9.3694013441797308e-001,
          8.5147874550993929e-001, -4.4483643014523810e-001,
          7.0917223527649009e-002, 8.8764061751017875e-001,
          -6.3205192342768912e-001, 6.6896098681602167e-001,
          -7.2130844505743155e-002, -7.3499818107451598e-001,
          -2.3920148304995967e-001, 8.7996476187376738e-001,
          9.5200276024774777e-001, 1.1404446700580593e+000,
          7.8223197859251059e-001, 1.0656523899398994e-001,
          -5.5715303355577039e-001, 1.0257258706396091e+000,
          4.9534504781717936e-001, -1.1669117132492250e+000,
          1.0611581737060392e+000, -5.4544699277977970e-001,
          -1.2142072114130392e-001, -6.1652247604625232e-001,
          -4.5339846487847263e-001, 5.7156322678316307e-001,
          -1.0050312023942196e+000, 5.8297189429508522e-001,
          1.1605125045524729e+000, -8.8727809303755378e-001,
          -1.7466881631224503e-002, -1.6790203941808102e-001,
          6.1575988564361994e-001, -1.1404581164167129e+000,
          -2.3802186249516383e-001, -9.0345435082250225e-001,
          -4.1202227728615509e-002, 5.4378924664848316e-001,
          -4.7852953187690611e-001, 5.0260821535618383e-001,
          2.8692790037925847e-001, 8.7548502269187545e-001,
          -4.4848382323087477e-001, 8.0566303761105940e-001,
          -5.0238730464693071e-001, -5.3224410906356545e-001,
          9.4934671543583438e-001, -1.7561592568414242e-001,
          -4.7724701952360055e-001, -1.4580117134523390e-001,
          -1.0327143308253954e+000, 1.3494994520043557e-001,
          -2.3025624555996915e-001, 1.2038194571768035e+000,
          1.6010456264576112e+000, -8.2943658352879202e-001,
          3.4079018954942369e-001, 9.7606250183980936e-001,
          3.4053392347342298e-001, 1.4360141314037478e-001,
          1.3015719272068074e+000, -4.1970429837770928e-001,
          1.2135436178893741e-001, 6.2923705321940726e-001,
          7.9696565445342349e-001, -1.2363420284600473e+000,
          1.5971631926882779e+000, 1.2295494516840046e+000,
          2.6412264373785638e-001, -2.8308872120974043e-001,
          1.1235790289365717e+000, -9.7736403413173956e-001,
          -2.4029646864259288e-001, 1.5028385815505054e+000,
          -2.1998616553317690e-001, -4.5623339564770221e-001,
          8.3987272329343987e-001, 1.2812983482831557e+000,
          2.0355059185515101e-001, 8.9264683224613917e-001,
          1.1554065401815223e+000, 3.1355442938174094e-001,
          -1.5030910567816899e-001, 1.1083574885456511e+000,
          1.1477731259620587e-001, 1.2421412759332602e+000,
          1.2462740316634111e-002, 9.8344363963584220e-003,
          1.2879429455311204e+000, 7.9202786563809935e-001,
          -2.6918604524332285e-001, 1.2730442483804276e+000,
          1.3461524824623380e-001, -2.2798419857412414e-001,
          4.7987435816837631e-001, 9.9691492271884830e-001,
          1.8502595638115557e-001, 5.2049234960398794e-001,
          -2.1149730185832999e-001, 1.3225307648183844e+000,
          1.2413946142487731e+000, -1.3421713306383798e-001,
          -1.9163264420013690e-001, 6.6034186313407128e-001,
          1.2241938392293388e+000, 2.4565443216402388e-001,
          -2.7392064166353036e-001, 1.1706704580548015e+000,
          1.1693740310992076e+000, 1.2266354045207004e+000,
          9.6561618354191603e-001, 9.7765863229794581e-002,
          1.1098062444269781e+000, 9.0083057476552786e-001,
          7.3583123932451455e-001, 1.0635290572839775e+000,
          1.2528675308740128e-001, 6.1592885403394870e-001,
          5.5400787568520560e-001, 1.5019141359427202e+000,
          1.2423515296025729e+000, 1.3071572398362690e+000,
          -4.8394402345830445e-001, 1.4088448930033426e+000,
          2.9110176113813974e-001, 9.8171740838433874e-001,
          7.6370682546045576e-001, 3.2099209233408815e-001,
          1.0871021315246387e+000, 1.4715354253656026e+000,
          9.0627588034948858e-001, 1.3566674457770558e+000,
          8.0488114772651265e-001, 9.3511310233189160e-001,
          -1.2391425258589721e-001, 1.3717153861546096e+000,
          -1.8116219859172294e-001, 5.7917034136977985e-001,
          3.5555303084484308e-001, -2.3939010997287016e-001,
          1.0713179994145694e+000, 4.5389753023805834e-001,
          6.2817901190862446e-001, 1.1369176501718130e+000,
          5.3522200414672405e-001, 3.6873843453404875e-001,
          -4.8796356103097788e-001, -2.0611694525778998e-001,
          6.8404347148713540e-001, 8.3959842594963016e-002,
          3.2789858477700945e-001, 1.0256940399720265e+000,
          1.0204963858884544e+000, 1.5277406875645310e+000,
          4.8490950981063041e-001, 2.3056151715153078e-001,
          3.4751123363528852e-001, 1.0965823835447375e+000,
          1.8420613674571618e-001, 2.1872124539182580e-001,
          5.6409736874238725e-001, 6.3305258763185812e-001,
          -8.2175118883426324e-001, 5.6289101111642803e-001,
          -9.2032562921920125e-001, 9.7397169157060048e-001,
          -4.0959242439842170e-001, 6.7670862779579205e-002,
          9.2076514260768250e-001, 4.2392316340307623e-001,
          1.5449137338116463e+000, 5.6460548089223972e-001,
          2.9121980505162715e-001, 5.5850079074853487e-001,
          -6.9148421731896381e-001, 1.0666016994525305e+000,
          -5.2673394251444661e-001, 6.4218496237572054e-001,
          -1.6211238202253364e+000, -3.4723447746596607e-003,
          8.0439988139671299e-003, 1.9677205137389414e-001,
          -5.3458375419600124e-001, 9.0635678728269597e-001,
          1.1684351029766782e+000, -6.4918684343063482e-001,
          -1.5210582613069501e-001, -2.6585503239861602e-001,
          -9.1771881914133724e-001, 2.6557869975580745e-001,
          5.8602106956913824e-001, -1.3548832256115164e+000,
          -1.2375953309695760e+000, 8.4076893304963685e-001,
          3.1305871796791063e-001, -3.3507017320189636e-001,
          -1.1391588781160182e-001, -1.0754063359108819e+000,
          -7.3062621929592098e-001, -2.1467998143839537e-001,
          6.7479101096797431e-002, -9.8868590162628855e-001,
          1.9243006810667274e-001, 1.5595807066569112e-001,
          -1.1465232486540884e+000, -5.3646534411472979e-001,
          -7.9309370490444431e-001, -1.0219285724619793e+000,
          3.6918372916881226e-001, -1.0415449793872273e+000,
          -6.3569015114231830e-001, -1.1600874681582343e+000,
          -3.3373333748410561e-001, -2.1301340881967115e-001,
          -1.2082337870983697e+000, -1.5000832847983288e+000,
          -4.4640520148711388e-001, 5.3116499890835944e-001,
          5.4956856316222114e-001, -6.5833971367995447e-001,
          -1.8458154211752559e-001, -1.7999407457770694e-001,
          -1.2504456268084452e+000, 4.1773509617109003e-002,
          -8.5919582190451149e-001, -1.4186543308311925e+000,
          -9.2062140168123541e-001, -4.0035798155179786e-001,
          -1.3013869683430666e+000, -1.3670932938579856e+000,
          -6.6947813546117818e-001, -9.2062533210968300e-001,
          -9.7631810326911350e-001, -6.6766390721134072e-001,
          -8.2540979078999566e-001, -8.8186957033707836e-001,
          -6.6626965541670891e-001, 4.6001137869754882e-001,
          -1.2774195201249012e+000, -5.5774048267163923e-001,
          -1.9062137220413911e-001, -7.8392542509685514e-001,
          5.4051198027373204e-001, 3.8004969521325282e-001,
          3.8843094105742815e-001, -1.0776136433443433e+000,
          -7.7840523847699949e-001, -1.3820275688521504e+000,
          5.3981057492027607e-001, -2.5910442692586261e-001,
          3.5692035446070264e-001, 1.5754760317762146e+000,
          -9.2931042535292330e-001, 8.9112562474376134e-001,
          -7.0185629232820068e-002, -8.5132332587441095e-001,
          5.7982533790212132e-001, 9.9927746563415221e-001,
          -5.9166656339929935e-001, 8.2053467197045449e-001,
          -3.0813991871973240e-001, -7.8109472863083118e-001,
          1.5951939593996320e-001, 8.5477227848027826e-001,
          -5.0368387880278498e-001, 4.1164314502186439e-001,
          1.5424348743229566e-001, 1.5518772136481269e+000,
          5.3762113746458495e-001, -4.6528445653207817e-001,
          5.5842737711687374e-001, 1.0739125985715019e+000,
          -7.9119296430662323e-001, 6.7350697019660744e-001,
          2.8155619977871926e-001, 1.1251889706910072e+000,
          -4.7962327492760926e-001, -8.6674403224917707e-001,
          -9.7919448823351218e-001, 1.9443361417791793e-001,
          -2.5838194013654459e-001, -2.6140972747195557e-001,
          -6.3234360091457631e-001, -1.3454111207450510e+000,
          4.9203404908821874e-001, -2.2952980938883046e-002,
          2.0075549424220068e-001, 9.3974637498350277e-001,
          1.9163734341909291e-001, 1.7872587388644517e-001,
          -2.8907861722774741e-001, -7.5182901520973955e-001,
          -4.9508631576230011e-001, -1.3266053153541866e+000,
          -9.9671138215695287e-001, -1.0953447031847212e+000,
          -5.1308688563787164e-001, 4.3955676595675103e-001,
          6.1276047442610049e-001, 1.4782262537765167e+000,
          1.9211191942765835e-001, -2.1753570707901415e-001,
          2.9030551021750312e-001, -1.0176710982418875e+000,
          4.3077283869732724e-001, 4.2503154939925819e-002,
          -4.3829764478944794e-001, -1.3971476918371164e+000,
          -6.4021802926442983e-001, 5.8692519752655981e-001,
          5.6234611985288195e-002, 1.0661808532999619e+000,
          5.4755871542462427e-002, 9.1990230869095538e-002,
          -1.1804771235528317e+000, -9.3650093470150908e-001,
          -4.3893606755440900e-001, -9.4630996173988802e-001,
          1.6311101402339856e-001, -1.1058122568011957e+000,
          9.0929857220168608e-001, 1.9509411248659405e+000,
          7.8215619172456974e-001, 8.5509017098701923e-001,
          -5.3873105052801973e-001, 3.5652441812647034e-001,
          -6.1462680029084682e-001, -2.2351926316773704e-001,
          -2.2677902075792633e-001, -1.7120726238599571e-001,
          -1.2821851974684198e-001, -6.5196256269627084e-001,
          2.6660559277663043e-001, 7.3282279171350484e-001,
          -3.1120279547013463e-001, 4.6572991423492704e-001,
          -5.3361803614858283e-001, 5.1966950741149631e-001,
          -1.0701882059593917e+000, 3.8160681020307308e-001,
          4.5083576402414277e-001, 5.4257078473034226e-001,
          -8.1305735433094140e-001, -1.2577634585204100e+000,
          1.1129806140581366e+000, -1.0469729768683058e+000,
          -1.0832031181095887e-001, 3.3268771948450682e-001,
          2.9755346625993667e-001, -2.4278421447807061e-001,
          1.3474786769540210e+000, -1.4673574168628754e+000,
          5.9035662942797962e-001, -5.0932848054603283e-002,
          3.0124692091087490e-001, 8.0559215406577267e-001,
          3.2504109254336816e-001, 7.1141201266740159e-002,
          -3.5741818789872865e-001, 1.0445934781652793e+000,
          7.7049157359982512e-001, -9.5853329787487590e-002,
          9.7891987116581458e-001, -9.4293977862942968e-001,
          2.4409498998085100e-001, 4.5232245936833970e-001,
          -1.5347791993546247e+000, 2.9622772217313459e-001,
          -9.3253263944846310e-001, -1.0672419526034900e+000,
          -5.8472285606580443e-001, -1.6328309035885644e-001,
          -4.5679405765822634e-001, 2.0874834620465299e-001,
          1.0181057843209854e-001, 1.0880483150073736e+000,
          -2.5894219710345945e-001, 7.2187110309709046e-001,
          6.1941304580224654e-001, -3.4595856842931705e-001,
          1.0844491785986596e+000, -3.7821769092981672e-001,
          2.2584065619905591e-001, -1.2388443261463948e+000,
          -6.3919724921495480e-001, -8.0048182125486667e-001,
          1.2581982405710261e-002, 7.3838721671859175e-001,
          -1.0890686442688748e+000, 6.3959365648883748e-001,
          -3.1239652528847595e-001, -1.4921153697431593e+000,
          -9.6599409408380243e-001, -1.1461911499802904e-001,
          8.8614189834943990e-001, 4.3347668387460771e-002,
          -9.2540044024561319e-001, -8.0910438720420974e-001,
          3.0040442466083489e-001, -9.8798119783923014e-002,
          1.3960507788094875e-001, -7.9940136486905400e-001,
          -8.0733034470120604e-002, -1.1690305180181475e-001,
          -4.4484011819135466e-001, 6.6324029734030510e-001,
          1.4931991141485201e+000, -1.0765647239377714e-001,
          -2.3393394566504438e-001, 3.5785296689434881e-001,
          -4.1789743456464683e-002, 7.9945213331032074e-003,
          -3.1130207178525299e-001, 2.4245331111892343e-001,
          -9.1527621315496432e-001, 9.1753357775927691e-001,
          -6.5181935347280173e-001, 3.9423537417850374e-001,
          -8.7296873004890130e-001, 1.7567055201954833e+000,
          8.9261802759844056e-001, 8.6996220122057111e-001,
          -4.1071762978528575e-001, 3.3301720005474411e-001,
          -8.3161901028268426e-001, 1.4285990771226353e+000,
          4.1014207666362951e-001, -9.0972694006288601e-001,
          -7.3462328758910289e-001, -2.6090045080308039e-001,
          6.0447082952717363e-002, -6.5208946686103653e-001,
          6.6526532635378077e-001, 6.8019580094425658e-001,
          1.7110544672878378e-001, 8.2981940465306070e-001,
          8.1184671942208264e-001, -6.3654487115882907e-001,
          8.8316262290598024e-001, -1.0880528759760104e+000,
          -3.9404839181690360e-001, -8.7972935045602485e-001,
          -1.4522632578734664e+000, -1.5041515391706013e+000,
          -2.4834321179596633e-001, 5.6919354443909786e-001,
          -8.3872853217073695e-001, -2.2594540614531095e-001,
          -1.0286584830197376e+000, 5.1653889166186140e-001,
          -6.8951332822865741e-001, -7.6500915357232524e-001,
          -2.9502256125577064e-001, -6.1208063288873393e-001,
          -8.8915018866053119e-001, -4.7374923921138978e-001,
          -3.5075296487055041e-001, -2.6044292907705280e-001,
          -4.8567819500906462e-001, -4.2020275229620002e-001,
          -6.1476171815672742e-001, -7.6221056378672614e-001,
          -5.5026157726792302e-001, 1.0470229976961927e-002,
          -4.9878258031484435e-001, 7.3951426633543260e-002,
          1.2510565126022020e+000, 3.6917791482338681e-002,
          1.4834683325616986e+000, 3.1773666074682849e-001,
          5.4880365643283202e-001, 1.3018955910335528e+000,
          1.8653578599501364e-001, 3.6089834796396608e-001,
          8.0478904709846100e-001, -5.4054357309125445e-001,
          8.5544052747112076e-002, 6.1991926917658113e-001,
          8.1006229130315099e-001, 2.9853306980553534e-001,
          -8.9383164572443420e-004, 9.8000690200599239e-001,
          2.5337553622470685e-002, 7.1802581714827141e-001,
          1.2215110546111962e+000, 6.6673366740374174e-001,
          2.0637021949640852e-001, 9.8991217893491568e-001,
          1.7737381237839009e-001, 5.4807504051385325e-001,
          3.6679458597470066e-001, 1.3960418186545576e+000,
          1.4032729813524802e+000, 1.5697853489372853e+000,
          1.4804605414209964e+000, 1.1927572000580984e+000,
          4.4700873078344133e-001, 5.9976149321160033e-001,
          1.2826948459187351e+000, 7.0248019523553362e-002,
          1.0945146160239179e+000, -2.5362365208398341e-001,
          1.2047230632675707e+000, 4.2828483581249577e-001,
          6.3680025843077859e-001, 3.3424705902966884e-001,
          -1.0843479567003556e+000, -4.7086622067527045e-001,
          -1.1330017502851180e+000, 1.6792570146209540e-001,
          2.5899668751567687e-002, 1.8434512250966933e-001,
          -8.4632689249187310e-001, -1.2043046312894641e+000,
          2.6952800135471788e-001, -3.8640233952000308e-001,
          8.9947959201224420e-002, -1.2446960706513983e+000,
          -1.3392478360155674e-001, -8.5305697711004980e-001,
          -6.4365840542824759e-001, -3.2981677768570312e-002,
          -1.1905258124456941e+000, -1.3057843556976063e+000,
          -4.9299660166942823e-002, -1.1079719698587525e+000,
          -2.9835424365807606e-001, -4.1978583514825463e-001,
          -3.8138287452368641e-001, -1.1873840723723166e+000,
          -2.1474040522962579e-001, -1.4465882399850718e+000,
          -6.2412017263572206e-001, -4.8529759866936550e-001,
          -2.6296296180536410e-001, -1.2547710067578490e+000,
          -1.1595401858587735e+000, -1.8232615566489896e-001,
          -1.1736690672367527e+000, -6.1336534066134796e-001,
          -6.4525463010147888e-002, -2.8418817605295621e-001,
          -1.4438893517420190e+000, 3.1505076641065394e-001,
          2.1896911207151826e-001, -8.9693614290819179e-001,
          -1.0372825203406528e+000, 3.9770285528260729e-001,
          -1.6203023954533616e-001, 1.1241200826164561e+000,
          -6.7371682574427133e-002, 5.2626846558491447e-001,
          7.0718117588335117e-001, -7.7814444242539180e-002,
          3.1283995607484577e-001, 7.4843527558610345e-001,
          -5.3338849010071365e-001, 8.9285121144129509e-001,
          6.1828054991619230e-001, -2.0298455917765834e-001,
          -3.9075185511567118e-001, 3.1241370828627275e-002,
          8.4919066314275671e-001, 5.0738121938893856e-002,
          1.2843920717835327e+000, 4.6515357382194789e-001,
          -6.6236606623353345e-001, 7.9542307783464306e-001,
          7.8957131549221304e-001, -7.2251291221973379e-002,
          8.6246459737004511e-002, -4.5471936947724623e-001,
          1.2513898910565315e+000, -1.5969027997948504e-001,
          5.9250094700295197e-001, 9.0166084286996495e-001,
          1.1315836060113085e+000, 1.3962544130218659e+000,
          5.3080754317892420e-001, 8.3291737229607615e-002,
          5.8747232910227243e-001, 2.6986640717469768e-001,
          8.6485152648634922e-001, 1.3155272351298808e-001,
          -3.7876202955189692e-001, -1.4658303011019830e-001,
          1.1875453038866643e+000, 1.1907763768892323e+000,
          -2.1265874116710073e-001, 1.1535918780035959e+000,
          1.2104543313340277e-001, 3.9850042831973860e-002,
          -7.0402583416790399e-001, 2.8806150798742303e-001,
          -6.1803414803005630e-001, 5.9941139106687658e-001,
          -1.4289865969746822e+000, 1.0316465588232464e+000,
          7.3812990193111683e-001, -1.2385434971706468e+000,
          -9.5237153948012565e-001, 2.8962167631172492e-001,
          8.7964565618513557e-001, -9.1748235178995940e-001,
          -3.0829890231078938e-001, -8.7930857032119392e-001,
          -1.6598339820356591e+000, -1.3145205041365302e-001,
          5.2044218137758880e-001, -2.9112136222419793e-001,
          1.0045941802789442e+000, -1.3648081933129155e+000,
          1.3990013744792573e-001, 1.4613201985555830e+000,
          1.2275010286410100e+000, 1.3870388211032261e+000,
          -1.1889491392359841e+000, -7.8469887860713849e-001,
          3.1391226854960225e-001, 6.5504784960345827e-002,
          -6.6502739434223068e-001, 9.4885410118202458e-003,
          -6.0315700193943422e-001, -1.3527548318885130e-001,
          -6.9362157755813525e-001, -5.7006446521165643e-001,
          -7.2754959134438846e-001, -9.1504081244655769e-002,
          -2.1556875631660294e-001, -7.4800136023672692e-001,
          -8.8524745788481729e-001, 5.4635141554238853e-001,
          4.1838484319807251e-001, -4.1873786900965615e-001,
          -8.2213757793887932e-001, -1.5271357497205573e+000,
          1.6688257758484448e-001, 5.4647013622496832e-001,
          -6.6877408857468706e-002, 1.0137614648907216e+000,
          -3.0719358541659947e-001, 5.2753400473789269e-001,
          -1.5503651711712724e-001, 1.3509040582989718e+000,
          -6.6411338593333102e-001, -3.3270771516559444e-001,
          -1.1669161250000781e+000, 1.1162522598516134e+000,
          1.8585312573700097e-001, -2.9071577695960626e-001,
          5.9690714325064587e-001, 2.5778317905710585e-001,
          7.7687940386195808e-001, -6.6015714015701865e-001,
          1.4316897757559335e+000, -1.6839419307587741e-001,
          8.0148857272759289e-001, 6.1084496814802935e-001,
          6.2926819220429031e-001, -1.8164380979781017e-001,
          -7.2325819005909897e-001, 1.0313029582850031e-001,
          -1.1251182975554441e+000, 3.5754491664123589e-001,
          1.0295516487207699e+000, 3.3881804854702219e-001,
          1.0497591385157721e+000, 9.2398823875674785e-001,
          1.0428668601222086e+000, -7.9147201534113565e-001,
          -1.2731071341999669e+000, -9.4192129715422757e-001,
          -1.1953488100642622e+000, 2.9022245196825963e-001,
          4.1600405586043131e-002, -6.3422901924538633e-001,
          3.9483125721076218e-001, 6.5837528556100255e-002,
          -4.1040821301627545e-001, 9.8120982061437523e-001,
          -4.6325920625837264e-001, -7.9996644957923482e-002,
          3.2894076973619685e-001, 5.9872704221252604e-001,
          -5.6285416313979320e-001, -8.5794232639499379e-001,
          -1.3843102043111699e+000, 1.3471105104058783e+000,
          1.4365417609163103e+000, 1.4323008586392676e+000,
          9.0188237259408333e-001, -4.9709091989612880e-001,
          -1.4655475569639160e+000, 1.2400355166748682e+000,
          -3.1755647796434794e-001, 8.7003160495903953e-001,
          -3.6736300915037302e-002, -5.1770934098609091e-002,
          -1.5700956706011635e+000, -1.3868339322323557e+000,
          -2.4681912542960840e-001, -5.9525077620516098e-001,
          1.5155889437993997e+000, -8.6208940603569884e-001,
          6.4587173220054783e-001, -6.1769649902785195e-001,
          -3.1594406972690697e-001, -9.6995592054178159e-001,
          -2.9739295895708384e-001, -4.3225739806121038e-001,
          -1.6967680440880937e+000, -8.2468740180991673e-001,
          -1.6726916628211119e-001, -1.4559939672040034e+000,
          1.1359514693289869e+000, 1.2926919778525598e+000,
          1.1807457988199237e+000, 1.1735962625726659e+000,
          -8.5364202818222434e-001, -3.5312356745113094e-001,
          -1.0034703814798718e+000, -6.2738028624065501e-001,
          4.3709336126399079e-001, 2.4274052619778472e-001,
          -2.0998402877837144e-001, 2.2341756638874066e-001,
          9.8033284228609474e-001, 4.4664729626454480e-001,
          7.7656846007059233e-001, -5.6105872605945983e-001,
          8.1870786432532239e-001, 8.6296386550549983e-003,
          -5.5850406577457501e-001, 7.2093971665126566e-001,
          -3.7925838726510319e-001, 7.3952735585875076e-002,
          4.6181354284001980e-001, 1.1014669094552938e+000,
          -5.4179207018886155e-001, 5.2987946582850243e-001,
          2.3398629474228644e-001, -5.3613614299273893e-001,
          -1.0608118318476689e+000, 3.5154673086562860e-001,
          1.0986444560387125e-001, -6.7545373544387680e-002,
          1.9708283455318978e-001, 1.5498012263747832e-001,
          -5.2179033644115184e-002, -1.2444832575629988e-001,
          1.5454706315748379e-002, -9.4493030755796525e-001,
          -7.0939087615938612e-001, 8.1682479331449037e-002,
          -2.5495191217070784e-001, 6.3442065430682981e-001,
          -6.8447926101918632e-001, 9.9259000219477822e-001,
          -7.6224186176117847e-001, -7.9083447730018952e-001,
          -1.0301693719635854e+000, -1.4191043345034462e+000,
          -1.1292028653526887e+000, -5.2048942233398854e-001,
          -4.9526678024722781e-001, 3.5798334183406211e-001,
          -1.8411995424783542e-001, 4.6464535777256266e-001,
          8.3203387158983622e-001, -2.4720800532056600e-001,
          -5.7645055915703880e-001, 8.1838249024009352e-002,
          -2.3423399884957872e-002, 8.5609129598452827e-001,
          -6.2302578707376255e-001, -1.0045829172184990e+000,
          2.2481662871394031e-001, 1.6965747924086927e-001,
          -1.1792882934155067e+000, 5.8344488467155453e-001,
          -1.0072533685831382e+000, -1.0221604081333753e+000,
          -9.3728231459091171e-001, -3.2922930097997855e-001,
          -1.1617357461505580e+000, 5.3898773552183110e-001,
          -8.3178810972432515e-001, 3.1888248526699497e-001,
          -7.9433023019178650e-001, 4.1670910315509685e-001,
          -1.5931133474702799e-001, 9.4762541290136904e-001,
          -8.0206114450765142e-001, 9.0979056372506084e-001,
          -4.0731078525177822e-001, -3.1363752919899746e-001,
          -8.5468894165642750e-001, 5.5126301697680657e-001,
          -2.7330268378223393e-001, 4.7743980510701867e-001,
          -1.1143905799222362e+000, -3.4624089859501644e-001,
          -1.8752635046594909e-001, 2.6596677061765062e-001,
          -1.6811275689276436e-001, -1.9130088087660796e-001,
          -1.3073827427720026e+000, 7.0492087664628122e-001,
          7.7035536403014893e-001, -7.7731444511734571e-001,
          -5.6430300810758671e-001, 6.8713229324549940e-001,
          1.0974265316925551e+000, -9.4788875617852442e-001,
          1.6278976174823871e+000, -3.5777692136331202e-001,
          8.1993470052432116e-001, 6.9329729315590349e-001,
          -3.5238650369522301e-001, 8.0976525685808831e-001,
          3.7353535753109776e-002, -4.9551187758805321e-001,
          1.2066142694305595e+000, 5.5460876200870213e-001,
          -8.3792069058523733e-001, -1.2783562897115144e-001,
          6.5019154152372671e-001, -1.2258064454623669e+000,
          -3.1404316750217542e-002, 1.7106715600541547e-001,
          1.7152151852576975e-001, 8.8992984275601894e-001,
          8.1802319652142874e-001, 6.9999216028647360e-001,
          4.8904772289858199e-002, -2.6575464170935037e-001,
          2.8023225702521809e-001, -1.4956301066769800e-001,
          -2.5350553939048875e-001, 1.0179767656194993e+000,
          -1.0868431591727798e+000, -8.7311146625457692e-001,
          -3.1979378169652217e-001, 5.0439324507478023e-001,
          -7.5564984206845409e-001, -5.1040754488525009e-001,
          -7.5656532122293019e-001, -2.8767948174985886e-001,
          -9.2987249752268220e-001, -8.6285428556794863e-001,
          3.0573142371744879e-002, 7.4973464879668927e-001,
          8.1098995436607771e-002, 1.2708881306348645e+000,
          4.0837081106902545e-001, -6.4475772253905839e-001,
          4.0138305050427114e-001, -5.9192453082300234e-001,
          6.9154694285886775e-002, 4.3793880067882851e-001,
          1.3431262582526767e-003, -7.0566581655638527e-001,
          -1.5781362962583559e-001, 4.4648878000207776e-001,
          1.0028240529251455e+000, 4.5873961611124736e-001,
          -4.8652400955509412e-001, 2.2416403320560674e-001,
          -3.9564405913303491e-001, 1.1651148528905242e+000,
          1.2616564232573471e+000, 1.2930983791413377e+000,
          3.1975831641198343e-001, 8.4212729102611274e-003,
          -6.9243677771818182e-002, -2.0293400706205905e-001,
          -4.9616796048969147e-001, 4.3391711889399015e-001,
          5.7307309251020129e-002, -7.1373952813471059e-002,
          1.2613889953298687e+000, 1.1442121615321490e+000,
          5.7443389190595739e-001, 1.2653182535979643e+000,
          5.8107742539348572e-001, 1.8669732825407062e-001,
          7.0237553934313679e-001, 1.0479191504667293e+000,
          1.3010933540772944e+000, -3.3373891344870621e-001,
          -9.8987561394116991e-002, 8.0021557543283550e-001,
          4.0430987768157861e-001, -7.3725750815991631e-001,
          -4.4707449169734803e-001, 2.9698989327734443e-001,
          7.3786917861814916e-001, -3.9420567566879861e-001,
          7.6055592790613899e-002, -6.0825087240354344e-003,
          1.3074245622370070e-001, 1.1007843259508345e+000,
          1.5227985499049780e-002, -2.9767298802413250e-001,
          1.0753745341925740e+000, 1.5331906390030539e+000,
          3.1539571457074900e-001, 5.2562801209971710e-001,
          -4.1274574724176799e-001, 3.1083874642180320e-001,
          1.3151024784574825e+000, 1.0470406604847435e+000,
          9.3999725643749210e-001, -1.6132961236400609e-001,
          8.8368714280903504e-001, 1.1815236403270744e+000,
          7.9513753271044962e-001, 2.3727193635590493e-001,
          4.6552942251359974e-001, -6.0988172558873266e-001,
          1.4415898371135634e+000, 2.0921189753525807e-001,
          6.5175962917609076e-001, 9.8778405794721091e-001,
          6.2637999347290946e-002, 1.2674791032238237e+000,
          -7.9110965470507133e-001, 5.5269683940545644e-001,
          2.7163232744875904e-001, 1.4837785758020056e-001,
          2.6849884867695667e-001, 1.7904214202892110e-001,
          3.8468993466646978e-001, 2.5323059616170379e-001,
          3.4527158649575113e-001, 9.9780463932375651e-001,
          2.4174936525413493e-001, -1.6775712799265525e+000,
          -8.5956082160848479e-001, -1.6148427020291409e+000,
          -7.0993471631593696e-002, 6.7288049165184693e-001,
          -3.5136060397415797e-001, -2.6782956950452497e-001,
          -1.1117940278338621e+000, 4.5240552171043896e-001,
          -4.9573633682480528e-001, -1.0612576121116937e+000,
          -1.2243555603254701e+000, -1.0945264899310443e+000,
          7.8605737613689475e-001, -7.1497249824539910e-001,
          2.9609625039886239e-001, 9.0759618580288581e-001,
          -7.5439858176749752e-001, -1.0619641854492046e+000,
          -3.8550954409414773e-001, 3.3126964406757126e-001,
          -1.4702156392514862e+000, -2.1439208098141257e-001,
          -1.8892732390738490e-001, 3.8756336432214356e-001,
          4.1162741012956006e-001, -1.1931062891804103e+000,
          -1.3948775523131216e+000, 1.3252805351102432e+000,
          -9.1312226424881002e-002, 4.6977843762672289e-001,
          -1.0474800615680431e-001, -8.9616249509219678e-004,
          -5.4175991400672274e-001, -1.1464492980832763e+000,
          -7.5327531394048097e-001, 7.0978884326172567e-002,
          -6.0699178432767043e-001, -1.0054298493181850e+000,
          -9.7315173692651369e-001, -1.5248299392325232e-001,
          -4.6663008799989319e-001, 5.1571488002709331e-001,
          -7.7697053410818229e-002, -2.6297860425694880e-001,
          -9.9765093021629259e-001, 6.6071908818871886e-002,
          -6.3320806442446975e-001, -7.5408885256319169e-001,
          4.7453714439331629e-001, -1.0530621471808101e+000,
          -8.0668012979823012e-001, -6.9753463054063658e-001,
          7.6820233074092348e-001, 8.6676122001044340e-002,
          -1.1501978300219717e+000, -1.0461574418315363e+000,
          -2.9991246237557423e-001, -7.8600123640926922e-001,
          -4.2808475259263601e-001, -3.8313714366455404e-001,
          7.4380033505545395e-001, -9.1354846015185431e-001,
          2.8948973466594313e-001, -1.6813492533371557e-001,
          5.9053170570362057e-001, 2.3316386520382595e-001,
          -1.2340104993507683e+000, 1.2262329263323321e-001,
          -6.9082670805167079e-001, -9.1215312408489535e-001,
          5.4084601069312632e-001, 5.1402139805482250e-001,
          3.8558464961833394e-001, -1.3280449527729735e-001,
          -3.5388114212222835e-002, -7.8635966880624719e-001,
          -4.4824095499415001e-001, -8.5056698383689577e-001,
          -6.3074973065294837e-001, -1.6001636182025020e-001,
          3.3094724368752043e-001, -4.9855535033193515e-001,
          -3.7664177081307554e-001, 6.6228305661945797e-001,
          -2.6861002499099923e-001, -5.5576313363042662e-001,
          6.9613699077619398e-002, 6.5959043667274697e-001,
          -5.1910439913893214e-001, -7.6510360860528892e-001,
          -3.2479582740096813e-001, -3.0867370014652357e-001,
          5.4640985945225329e-001, -9.8196559505307202e-001,
          -4.3939207591450223e-002, 1.6247604489054893e-001,
          -2.1000455973022375e-001, -2.5890814179101768e-001,
          1.2277585086097766e+000, -2.4163787238985057e-001,
          1.4052650479366857e-001, -7.6813673455453246e-001,
          5.3529231891642692e-001, -1.2095785367101858e-001,
          -7.9046810579677185e-001, 4.7739442234559681e-001,
          -8.3859169175528225e-001, -3.5718460164441146e-001,
          6.2752785936225430e-001, 9.5454219328581835e-001,
          5.1907306627855854e-001, 8.5565619868983867e-001,
          -5.4034172287620175e-001, 5.2156354133156424e-001,
          1.9884534974175835e-001, 3.2154639154525200e-001,
          7.2806277199360458e-001, -1.8213994806345783e-002,
          -8.5326736209418963e-001, 1.3380782540805078e+000,
          1.0393939701208927e+000, -1.0264350985523360e-001,
          -8.1975088218431269e-001, -7.8825047850513463e-001,
          -7.5932420283266788e-001, 1.0362617211584317e+000,
          6.6597484601006604e-002, 1.2915269480439528e-001,
          -1.3431734913612825e+000, 1.5115619460392690e-001,
          -3.2650190655375860e-001, -4.9750622689099294e-001,
          -1.0845241824171146e+000, -7.6492529846051827e-001,
          -7.7330651589878818e-001, -4.0428833176002654e-001,
          -6.3145715567144567e-001, -1.1669209621575716e+000,
          1.1105576343779254e-001, -1.0776328778040047e+000,
          -9.2503209169512671e-002, -1.0168658605862879e+000,
          -2.3533329524809690e-001, 1.9371559387030407e-001,
          -8.1682730197977793e-001, -1.4278676886588342e+000,
          4.0908091603544011e-001, -3.5863086189425425e-001,
          4.9095782022510598e-001, -1.1445088343492793e+000,
          1.3968150496475371e-001, -1.7526343266079838e+000,
          -2.7351935138264671e-001, 4.5246380011890103e-001,
          -5.3457312752551867e-001, 3.2588551477476219e-001,
          -7.3596116934870934e-002, 4.5452164009682561e-001,
          5.6445119560289425e-001, -6.2735404025433628e-001,
          5.9328302537812061e-001, -2.5941961623923748e-001,
          -8.7608104805987130e-001, -1.0366754050991184e-001,
          -1.1702337577153581e+000, -4.0229308720594908e-001,
          -1.4191043023415588e+000, 6.9483363719400881e-001,
          -7.7147263472014027e-001, -2.6099235878210275e-001,
          4.7593185753154882e-001, -2.1672467557426517e-001,
          -8.2455897519463528e-002, 5.3630478626721556e-001,
          4.6896664862378507e-001, 6.8863957894143846e-001,
          -2.3024293872965981e-001, 8.6210331926282624e-001,
          2.1440952763824656e-001, 1.0715206520042577e+000,
          7.5442921085215775e-001, -4.6077994234426378e-001,
          1.2532039931906480e+000, 9.1540842744432882e-001,
          2.1497980382258397e-001, 2.3577995015686617e-001,
          7.3025422754421054e-001, -3.4778194756105996e-001,
          3.0321739986955043e-001, 6.4207040576461616e-001,
          9.8328198464322181e-001, -6.1379338715926390e-001,
          -5.6976295695377843e-001, 1.9786311204375187e-001,
          4.3165488976186600e-001, -2.5572513083916565e-001,
          1.8228738281350279e-001, 6.3123414010477197e-001,
          -2.9194441691742012e-001, 1.1537416096440722e+000,
          1.1171752929609640e+000, -3.0313655834172704e-001,
          1.0964419665412555e+000, -6.7144923929027733e-001,
          -1.5404317899553355e-001, 7.6466450936489161e-001,
          1.5189296000200971e+000, 1.0169283819360357e+000,
          8.8253901845367977e-001, -1.1675747082249989e-001,
          8.5701208970762843e-001, -5.7705261914555017e-001,
          1.0229384176218173e+000, -1.4908100967090732e+000,
          -7.4635318079018731e-001, -5.6045083114521099e-001,
          -6.9648039220297953e-001, -2.0478872849275995e+000,
          -1.3825943643656393e+000, -4.4610766123676199e-001,
          -7.0137319386182673e-001, -1.6045655212317957e+000,
          -2.1894067170390819e-001, -6.2210315551211293e-001,
          -8.4786119015720918e-001, -1.2570401838545124e+000,
          -6.8228238205331238e-001, -1.0259554726324200e+000,
          -7.9130038268887537e-001, -1.0076944856963690e+000,
          -1.4830839177312580e+000, -7.6309823322231940e-001,
          -1.5376442342700414e+000, -1.8796924165290751e+000,
          -3.3716518055220690e-001, -8.7210795567909472e-001,
          -5.3909278090235346e-001, -3.7663230638371292e-001,
          -1.9869020396665982e+000, -1.6356596788972351e+000,
          -6.2782446047800822e-001, -7.5117054744082679e-001,
          -1.1480771422589269e+000, -9.6977957926714020e-001,
          -1.4313993568529411e+000, -1.6024881164921407e+000,
          -1.4613446799398311e+000, -8.5291876626560958e-001,
          -5.4375104174296052e-001, -1.6889197305748707e-001,
          -1.1928874611940508e+000, -4.6965575082213729e-001,
          -9.1706826406380126e-001, 9.1523774345808204e-002,
          -6.6913999139830327e-001, -1.2756895180053562e+000 ]
