%YAML:1.0
my_nn: !!opencv-ml-ann-mlp
   layer_sizes: !!opencv-matrix
      rows: 1
      cols: 3
      dt: i
      data: [ 9, 42, 42 ]
   activation_function: SIGMOID_SYM
   f_param1: 1.
   f_param2: 1.
   min_val: -9.4999999999999996e-001
   max_val: 9.4999999999999996e-001
   min_val1: -9.7999999999999998e-001
   max_val1: 9.7999999999999998e-001
   training_params:
      train_method: BACKPROP
      dw_scale: 1.0000000149011612e-001
      moment_scale: 1.0000000149011612e-001
      term_criteria: { epsilon:9.9999997473787516e-006, iterations:1000 }
   input_scale: [ 1.6350444254170402e+001, -8.1058496065814616e+000,
       1.0471126548368099e+001, -5.1320809492854789e+000,
       3.0312131675545584e+002, -4.9668822625498947e+000,
       2.4157178140921917e+002, -4.3146322239467381e+000,
       6.2092232043263023e+000, -1.8927145866431800e+000,
       5.9500202100030934e+000, -3.2044900136992638e+000,
       1.2249634712362084e+001, -2.0982676113500141e+000,
       7.7793257267840961e+000, -2.9164897034297281e+000,
       8.4134723422575397e-001, -2.2435926246020106e+000 ]
   output_scale: [ 1.0526315789473684e+000, 0., 1.0526315789473684e+000,
       0., 1.0526315789473684e+000, 0., 1.0526315789473684e+000, 0.,
       1.0526315789473684e+000, 0., 1.0526315789473684e+000, 0.,
       1.0526315789473684e+000, 0., 1.0526315789473684e+000, 0.,
       1.0526315789473684e+000, 0., 1.0526315789473684e+000, 0.,
       1.0526315789473684e+000, 0., 1.0526315789473684e+000, 0.,
       1.0526315789473684e+000, 0., 1.0526315789473684e+000, 0.,
       1.0526315789473684e+000, 0., 1.0526315789473684e+000, 0.,
       1.0526315789473684e+000, 0., 1.0526315789473684e+000, 0.,
       1.0526315789473684e+000, 0., 1.0526315789473684e+000, 0.,
       1.0526315789473684e+000, 0., 1.0526315789473684e+000, 0.,
       1.0526315789473684e+000, 0., 1.0526315789473684e+000, 0.,
       1.0526315789473684e+000, 0., 1.0526315789473684e+000, 0.,
       1.0526315789473684e+000, 0., 1.0526315789473684e+000, 0.,
       1.0526315789473684e+000, 0., 1.0526315789473684e+000, 0.,
       1.0526315789473684e+000, 0., 1.0526315789473684e+000, 0.,
       1.0526315789473684e+000, 0., 1.0526315789473684e+000, 0.,
       1.0526315789473684e+000, 0., 1.0526315789473684e+000, 0.,
       1.0526315789473684e+000, 0., 1.0526315789473684e+000, 0.,
       1.0526315789473684e+000, 0., 1.0526315789473684e+000, 0.,
       1.0526315789473684e+000, 0., 1.0526315789473684e+000, 0. ]
   inv_output_scale: [ 9.4999999999999996e-001, 0.,
       9.4999999999999996e-001, 0., 9.4999999999999996e-001, 0.,
       9.4999999999999996e-001, 0., 9.4999999999999996e-001, 0.,
       9.4999999999999996e-001, 0., 9.4999999999999996e-001, 0.,
       9.4999999999999996e-001, 0., 9.4999999999999996e-001, 0.,
       9.4999999999999996e-001, 0., 9.4999999999999996e-001, 0.,
       9.4999999999999996e-001, 0., 9.4999999999999996e-001, 0.,
       9.4999999999999996e-001, 0., 9.4999999999999996e-001, 0.,
       9.4999999999999996e-001, 0., 9.4999999999999996e-001, 0.,
       9.4999999999999996e-001, 0., 9.4999999999999996e-001, 0.,
       9.4999999999999996e-001, 0., 9.4999999999999996e-001, 0.,
       9.4999999999999996e-001, 0., 9.4999999999999996e-001, 0.,
       9.4999999999999996e-001, 0., 9.4999999999999996e-001, 0.,
       9.4999999999999996e-001, 0., 9.4999999999999996e-001, 0.,
       9.4999999999999996e-001, 0., 9.4999999999999996e-001, 0.,
       9.4999999999999996e-001, 0., 9.4999999999999996e-001, 0.,
       9.4999999999999996e-001, 0., 9.4999999999999996e-001, 0.,
       9.4999999999999996e-001, 0., 9.4999999999999996e-001, 0.,
       9.4999999999999996e-001, 0., 9.4999999999999996e-001, 0.,
       9.4999999999999996e-001, 0., 9.4999999999999996e-001, 0.,
       9.4999999999999996e-001, 0., 9.4999999999999996e-001, 0.,
       9.4999999999999996e-001, 0. ]
   weights:
      - [ 2.3895231894803484e+000, 1.3963675414019169e-001,
          1.4226332250383047e-001, 1.6106915681968765e+000,
          -3.7752815341391333e-001, -2.4084280732174066e+000,
          -6.6050291701753894e-001, -1.4589835995377649e+000,
          9.1997109863366910e-003, -2.6669914096181633e+000,
          1.2202904484519177e+000, -1.8723154418520335e-002,
          -8.5643253148231746e-001, 3.8873648745322736e-001,
          2.5599397284209763e-001, -6.9626955291196146e-001,
          -3.3161756680106297e-001, -2.4066764156518244e-001,
          7.5885737541677345e-001, 1.1344121332317979e-001,
          -1.8806220173526698e+000, -7.5338035144728732e-001,
          1.4889918822726089e+000, 1.4164942602721369e+000,
          8.3178060181073113e-002, -1.2539344275729739e-001,
          4.0689714339139299e-001, -1.2458781295874707e-001,
          1.5794694368762252e-001, 2.8460858593105232e-001,
          6.0336085625568459e-001, 2.1526860241554338e+000,
          -4.4582566651537620e-002, 3.2912063375211980e+000,
          5.5837361973646682e-001, 9.0826435698447006e-001,
          1.4897084501376726e-001, -1.2469294891278240e-001,
          8.8589911421873879e-001, 1.7162841606617729e+000,
          -8.7386697734528965e-002, 2.6088591435015690e-001,
          1.6075899642082336e+000, -1.8268622430070671e+000,
          2.2793945732085694e+000, -3.3817689001326481e+000,
          1.0865953061679403e+000, 8.8542445221603816e-003,
          -3.4890793066837217e-001, 1.1042858342708417e+000,
          -9.8718323657017229e-002, 2.0738023784347587e-001,
          -1.7072766244461896e-001, 3.9270852122187933e-001,
          1.0669621270515761e+000, 8.2901852129201217e-002,
          2.3057323039446621e-002, 1.2328903342890476e+000,
          -2.8576016240101637e-001, -1.7198236273999171e-003,
          2.2096772850572338e-001, 9.9470669525674915e-001,
          7.2918188417934637e-001, 1.2846380156504269e+000,
          -1.2038205716543984e+000, 9.0458273897010810e-001,
          3.2933981855575799e-002, 9.3268237757586181e-001,
          -2.1243136805823162e+000, 9.9867343478293680e-001,
          -1.1095146549915880e+000, 2.0508663164582055e+000,
          -1.5640563745411054e+000, -1.9687087132461452e+000,
          -6.2322311993935031e-001, -5.2729377667428057e-001,
          4.3068273119329387e-001, -3.5201935676038859e-001,
          -1.7590418813535951e+000, -6.1481914998928681e-002,
          -2.1035550367774714e+000, -1.3435777620171068e+000,
          -3.4566874589436005e+000, 2.8323554470875839e-001,
          2.0569447933473242e-001, 5.9892881593903757e-001,
          1.6516370246861114e+000, -7.6072946558024579e-001,
          2.6122258003928195e-001, 2.1365251461230570e+000,
          -1.1002743846135434e+000, 9.0820320598958038e-001,
          -3.4190120609054984e-002, 9.1350612720500962e-002,
          1.0909751108197716e+000, 5.6041019273374557e-002,
          -1.8498932346026919e+000, 3.2321641544767038e-001,
          -3.4705475004306575e-002, -1.1649862070233076e-001,
          8.3127928097951742e-001, 2.3488391916593332e-001,
          3.7150969795583677e-001, -1.2184493212420211e-001,
          7.4063273030851262e-001, 9.2458106516332447e-002,
          -8.6635735885156484e-001, -1.1387447962494470e+000,
          1.9455950732681876e-001, -2.1747944729124530e-001,
          1.4895905248538039e+000, 6.6131666722954785e-001,
          -5.6329688577396231e-001, 2.4643468300412763e-001,
          2.7545654143186042e+000, 2.3024605312971130e-001,
          -1.6011796773203317e+000, -3.8898710438779099e-001,
          -1.0798080978626562e-001, 2.5230438613961237e+000,
          -4.7853917466023838e-001, 1.6748428203385365e-001,
          1.7842697518196631e+000, 9.7361276008367539e-002,
          -7.9448367483503712e-001, -1.1120305053010742e+000,
          -4.8446531856847104e+000, -2.4144665210417318e-001,
          -1.0429896763002802e+000, -1.4745377926922467e+000,
          -2.5452639465469162e+000, 6.6429244108947863e-002,
          -1.8783328264986410e+000, -3.0641239899449652e-001,
          1.3533591963709826e-001, 2.7982426062867888e-001,
          -3.0785225458651222e-001, 3.3902196430380688e-001,
          -7.3517955835297100e-001, -1.6868390724246593e-001,
          -4.1648207443396579e-001, -5.1902224817408382e-001,
          -4.0745027705635839e-001, 3.5572548012002708e-001,
          -5.7174300801527478e-001, -5.9041521426957644e-001,
          3.9848679598810127e-001, -3.9900384968501562e-001,
          2.8706740144323301e-001, 1.1347566099901938e+000,
          2.3089183444881919e-001, -7.7183545753556626e-001,
          3.2719832008940281e-001, 5.9343263830564830e-001,
          7.2724595626985813e-002, 3.9866438178593686e+000,
          -1.7504398337908142e+000, 2.1659684122402107e+000,
          -1.5910166148994062e-001, -5.5581982780717742e-001,
          2.3779295423154076e-001, 8.8023157999635271e-001,
          -9.8708308363507491e-001, 2.6501261452227443e-001,
          -2.0928601162029263e-002, 8.8838376103897010e-001,
          -7.9580168493171533e-001, 5.1417508429636560e-001,
          -1.5932656757600563e+000, 5.2560934120620284e-001,
          -1.2195604248977319e-001, 5.0189962322845938e-001,
          -5.8221844081768648e-001, -5.1535323139839651e-001,
          2.1391983740045077e+000, 1.0305882966344355e+000,
          -9.9524847237885017e-002, 6.1546241823977177e-001,
          -4.8692384593329785e-001, 5.5552035649577891e-001,
          -1.4430855568671910e+000, 2.1003954864960650e-001,
          2.0410032831384675e-001, -2.5077615734997621e-001,
          -8.4092391253269572e-001, 1.4967096448445585e-001,
          7.6111999372679828e-001, -6.7606680650661544e-001,
          -8.5952511253494557e-001, 2.6722636971742736e-001,
          5.3303189924879546e-001, -5.4590874176535342e-001,
          2.6093562194636227e-001, 2.8094581782220818e-001,
          5.3526105478858155e-001, 6.9794450875912439e-001,
          4.1369159739289169e-001, -9.1856444173490637e-001,
          -1.2130776240152490e+000, -1.3297367474183766e+000,
          -7.2148072441871403e-001, 3.1651924934647596e-001,
          9.5763246352538234e-001, 2.2040823459484726e+000,
          -1.8246918899293272e+000, 6.7144468337001006e-001,
          -6.5577212962793252e-001, -8.9340221737095304e-001,
          -7.6260760040510789e-001, -7.5557120983503223e-001,
          2.8947577345962439e-001, 4.0374605253425157e-002,
          5.2173342405168210e-001, 2.4921454631425979e-001,
          2.4730357106609988e-001, 2.1869530920826228e+000,
          -1.5488590767100174e+000, -1.0328274708850362e+000,
          -9.4817739299516549e-002, 5.6390997582288722e-002,
          1.5637649767552537e+000, 2.6322475976017064e-002,
          1.3953327376650713e+000, -4.2502721523587889e-001,
          3.6104158488706406e-002, 3.9665274310778587e-001,
          1.6770636695521748e-001, -6.6979924265429613e-001,
          -1.5526228159066147e-002, 5.8407813919185747e-001,
          8.0495915316157085e-001, -3.5729063977374631e-002,
          -1.7664745795142132e+000, -9.6868492452662913e-001,
          3.0660674806844632e-002, 4.1335235638274193e-001,
          3.0616337872131133e-001, -8.2302615388268929e-001,
          4.3990483332840274e-001, 7.4671957259886890e-001,
          -3.5159892658496239e-001, 3.0743792225001029e-003,
          8.4327371657395567e-001, 1.1398696084700859e+000,
          5.2536560050895309e-001, -7.2795791710902935e-001,
          6.6273787794998451e-001, 4.3687737321136594e-001,
          1.8356177078794382e+000, 5.2026522412981790e-001,
          6.1849080561852254e-001, 2.8326015678412763e-002,
          -4.2762151993252145e-001, -3.0861498778450340e-002,
          7.3719881826275635e-001, -2.1090073360785402e+000,
          -9.9528425843609963e-002, -4.4916906149820346e-001,
          3.6053529515652851e+000, 9.0068728824693256e-001,
          2.0645353582306014e-002, 1.1980140889650017e+000,
          6.8848392653208775e-003, -3.6919941057684957e-001,
          5.4749119405227720e-001, -4.4931952656352636e-001,
          -1.3983858695668291e-001, -5.1747199842876457e-001,
          3.5306353674994845e-001, 1.9399821713762980e-001,
          3.9342584637303601e-001, -1.0308856021505468e+000,
          7.3381837856686272e-001, -1.0706652860016441e+000,
          5.5279681334601194e-001, -7.0016537514597499e-001,
          -2.2446408382974659e-001, 1.7387721861910152e-001,
          -5.4272217781463850e-001, 1.2692019491051145e+000,
          -1.3930773455695606e+000, -7.1319417585686207e-001,
          2.8717640186148596e-001, 4.2563748313034766e-001,
          8.5097743986227492e-001, 7.0513843366675577e-001,
          -2.9453195159121728e-002, -9.8784220856076599e-001,
          3.9734510792079247e-001, -1.0077938712910396e-001,
          -4.6375148304850439e-001, 2.2152660832237561e+000,
          1.2581677156316045e+000, 1.3210518426821287e+000,
          1.0328127240492773e+000, -2.0644912715860486e+000,
          1.0611315116316226e-001, 1.9692321330423240e-001,
          -4.5149683790382372e-001, -1.9331665915684149e+000,
          -2.0555031308530816e+000, -5.3145056801318069e-001,
          8.9332976561338637e-002, -1.0298628424955627e+000,
          -1.6649833408838046e+000, -3.0762532307655155e-001,
          -1.0569174729497545e-001, -2.3662313522289588e-001,
          2.0055678142060904e-001, -4.9548731744697855e-001,
          -6.5062685674352316e-001, 4.0057884790803827e-001,
          7.6113762429739362e-001, 3.5470749066278069e-002,
          7.8346279661206020e-001, -3.4450850366541313e-001,
          -1.0586137149994257e+000, -1.5480958850638440e+000,
          3.2175091084809870e-002, -1.8751042451688682e-001,
          6.5512169212955884e-001, 7.5220285909743098e-002,
          -4.1844765899845432e-001, 1.7881375067509910e+000,
          -3.6015956879522071e-001, -1.5350780772885388e+000,
          4.5888347042610905e-001, 2.4442561927140971e-001,
          2.3021542227091912e-001, 6.6872285306999943e-002,
          2.4202003964052334e+000, 2.6061484753437847e-001,
          5.7867478970002173e-001, -1.7404950905473491e+000,
          -6.8054414306785360e-001, 2.1419292030011963e-001,
          3.1633628676470893e-001, 1.6059046600613263e+000,
          5.6055244203960475e-001, 2.0175597973667525e-001,
          -2.0651019158283641e+000, -6.5353993002223637e-002,
          1.0910974261037376e+000, 9.4103506300920306e-002,
          2.4336182939014472e-002, -6.8134042411464157e-001,
          3.7872227119853691e-001, 1.0656655296887503e-001,
          2.6964474197007360e-001, -1.4701738654242594e-001,
          -3.1705874260292899e-001, -3.1779194525900518e+000,
          2.3560566014683101e-001, 7.0730572305945338e-001,
          3.4474827740827502e-001, -1.1537846836478856e+000,
          -8.8039515675755653e-001, 2.4404435272140884e-001,
          -2.5649682183859452e+000, 1.6188165600941648e-001,
          1.1911939187234481e-001, -4.9339158386183081e-003,
          2.5970704948045489e+000, -1.5493245443672155e+000,
          -6.8732342617246422e-001, -9.3503332788150084e-001,
          -4.8262852928837791e-001, 5.5307690052944924e-001,
          5.8582339845787823e-001, -4.1778162835315064e-001,
          -3.6245333193815449e-001, -1.3258305664712036e+000,
          -8.2615573898211825e-001, 2.7734426334020229e-001,
          -1.1722552548889817e+000, 4.0011996876533024e-001,
          1.7560141344382429e-001, -1.7840295172752801e-001,
          -3.7444355339457931e+000, 2.2475012440597908e+000,
          -4.0528608931285548e-001, 1.4476670125883202e+000,
          -9.9566122592597961e-001, -9.8914326338641401e-001,
          6.3335988112678532e-001, -1.0951346676978662e+000,
          3.3802258328441361e+000, -1.9567297117535425e+000,
          6.2195261230355937e-002, -2.4504329817428450e+000,
          8.9334232765821819e-001, 3.0305061492485428e+000,
          2.1979229410877550e+000, 1.8331905850629862e+000,
          2.6223089144043192e+000, 2.4964335086639009e+000,
          -2.2221300418703906e+000, 7.4747317670499980e-001,
          1.3221283055924460e+000, -1.8798551123718972e+000,
          5.2892654973993658e-001, -7.5643826291478686e-002,
          -2.9093652904795118e+000, -2.8266166269928203e+000,
          6.0756847685578930e-001, 2.1645195820630088e+000,
          1.3537671275624374e+000, 5.4936672181263269e-001,
          -8.9787371255501947e-001, 6.2526277186567414e-001,
          1.6796982566543435e+000, -8.6845777652230893e-001,
          -2.9356831742036671e+000, 2.2156610406362991e+000,
          -1.9680257193917858e+000, -2.5711892566037755e+000,
          1.4039247862514928e+000, 1.3146604298545046e+000,
          6.5052870249046790e-001, -2.4426909814210456e+000 ]
      - [ -6.1199398973751618e-001, -1.5921282369899131e-002,
          4.3495386601814079e-001, 1.0309695622456536e+000,
          -2.9105285434127987e-001, 1.0247124315182423e+000,
          -2.5816364212013931e-001, 3.4912448883411779e-001,
          -6.6216539411427855e-001, -3.3620996114466906e-001,
          1.0936906614005235e-001, 1.9319412766994851e-001,
          4.6044923838726248e-001, 9.2932422397732883e-001,
          6.8782814458491059e-001, -3.5357177268497603e-001,
          6.3146914819550970e-001, 1.7008445698918218e-001,
          1.8876854338975693e+000, 4.7009474540102786e-001,
          -1.0765093011044007e+000, -1.0742594367708076e+000,
          6.3810659711704254e-001, 6.2934545383269791e-001,
          1.0601465320954062e+000, -4.7412362934712148e-002,
          -6.5265253965379100e-001, 1.6780491821188714e+000,
          -6.6366110632910080e-001, -5.5869637733361133e-001,
          -1.1694008816046089e+000, -8.8046951495177406e-001,
          -5.4976354735317234e-001, -3.0233217485449160e-001,
          -1.1349684397765338e+000, 9.5196027312628173e-001,
          -2.5835996500474051e-001, 1.9770771443700419e+000,
          -9.9091549662449285e-001, -1.2828781760481014e+000,
          6.8669683501289847e-001, 5.1426945400147639e-001,
          -5.3913060347709962e-001, 3.3285441571594482e-001,
          -2.8935896840971520e-001, -7.4950941119264503e-001,
          -1.0086613771624824e+000, 1.4054305785620141e-001,
          -3.6248202983415301e-001, -8.0731420273086085e-001,
          -1.9885554693084762e-001, -2.1966849288978163e-001,
          5.4184313832578335e-001, 3.1780479506473380e-001,
          -5.9806992301894413e-001, 4.2407779145328112e-001,
          -7.3694667854701812e-001, -2.3215172253461684e+000,
          -6.0219382257876231e-001, 3.4354662691576154e-001,
          -5.7055061969302967e-001, -6.0698131863607840e-001,
          -1.5728397057212520e-001, -3.7763338823221426e-001,
          7.9433881325544775e-001, -1.7692172847659915e+000,
          -4.4174499347483809e-001, -2.1136386482966904e-001,
          -7.2040334178222043e-001, -7.7835815057752958e-002,
          8.2143527755466095e-001, -1.5662828125027439e+000,
          -1.6566751673506597e-001, 8.3630981840993057e-001,
          6.1763851789981483e-001, -2.8495648145196426e-002,
          6.2552671737319065e-001, -3.8984341540101902e-001,
          8.0441446779613388e-002, -2.0299084963443051e-001,
          -5.0948236385552514e-002, -1.8968637478100231e-001,
          -9.2910857714421125e-001, -3.2896021932386749e-001,
          2.0161192004583198e-001, 8.1340548888968656e-001,
          4.5857255812028752e-001, 9.5078515044644307e-001,
          1.1903055242891509e+000, 3.4702741756408811e-001,
          8.4349775014658332e-002, -7.2634915782930431e-001,
          2.0928826883332913e-001, 4.8877128543751230e-001,
          9.3228600532281813e-001, -7.7466056099623037e-001,
          -9.7221028453123770e-001, -6.7663670535974685e-001,
          5.4060324315360335e-002, 9.9081349232630800e-001,
          6.5851238365965359e-001, 2.4426778510987981e-002,
          5.0548848336558494e-001, -7.5667446797775761e-001,
          1.1924026654228360e-001, -6.9608414516778594e-001,
          8.3237344415852332e-001, -7.6607877131607338e-001,
          -9.0039785609700482e-002, 1.1132085966044236e+000,
          -3.3281820011088807e-002, 5.9620995931206588e-001,
          -1.4351183763014934e+000, -4.4067292744973857e-001,
          -1.0609964628762723e+000, 5.4365004629781355e-001,
          -4.8186803890114971e-001, 2.2909105780281727e-001,
          -4.9952902663385623e-001, -4.5679223367120475e-001,
          4.4875165766042162e-003, 1.1149308929394472e+000,
          -8.3074641835298846e-001, -1.3021246845282111e+000,
          2.4051237247069138e-001, -5.7614981379220953e-001,
          -5.5505184491939241e-001, -2.0530783577151292e-002,
          -2.3243077242653987e-001, -1.6098051021454590e-002,
          1.9603398752368542e-001, -5.6863288283495750e-001,
          7.6992999967975628e-001, -7.7746978385927978e-001,
          1.6824807793081622e+000, -5.5588751909275691e-001,
          2.9461100105388138e-001, -1.3725848453120790e+000,
          -2.4774417675412289e-001, 2.7504398765547849e-001,
          -9.0117759314133780e-002, -1.2441639158579452e+000,
          -1.3400639341572125e+000, -1.5449071174756168e+000,
          -6.0448197592020281e-001, 5.7071284297467406e-001,
          -2.0096924601563645e-001, 1.9502108364190567e+000,
          8.2967815852046961e-002, 3.8560797813439340e-001,
          7.6159875106344654e-001, -9.3478018487387249e-001,
          -1.5650934870725963e+000, -4.2554299985809396e-001,
          7.5846159845615790e-001, -3.5681845336359391e-001,
          1.5076286349106087e+000, 1.9845584439237418e+000,
          9.3984884590438122e-001, -7.0870648902631772e-001,
          1.3386857667037970e+000, -1.8724569827712784e-001,
          1.1271498920480520e+000, 8.1858006098381797e-001,
          5.4555400779870800e-001, 4.2390669100840461e-001,
          -2.2903166258749216e-001, -4.9133402940590493e-001,
          -7.8980715906859233e-001, 6.8320156667210807e-001,
          -4.0209139456546672e-001, 3.6361408605705198e-001,
          1.1185684963775282e-001, 9.5298822658239435e-001,
          3.8838155324772705e-001, 6.0409150060193852e-002,
          6.4058406639126986e-001, 6.9535785586757259e-001,
          -6.9535081328168423e-003, -3.2787840833777127e-001,
          1.0592622741388118e+000, 4.0796805110170609e-001,
          3.7697840385582931e-001, 9.4666813438385489e-001,
          1.7513907882189195e+000, -5.8468087991714779e-001,
          2.4474451331490765e-001, 9.0121600637426125e-001,
          1.0489070217239762e+000, 2.2908411944630480e-001,
          -3.6759335257357312e-001, -9.9809206563951158e-001,
          6.8874299891610324e-001, 1.0071457131743429e+000,
          4.8299269131665407e-001, -7.3603871221431227e-001,
          -2.1806109096865414e-001, 5.5116709714164225e-001,
          -9.0772167067393228e-001, -5.2882308856597582e-001,
          1.1383210133561383e+000, -1.3666443886761439e+000,
          -7.7353419147605362e-001, 3.7039704404212948e-001,
          1.5302569368061707e+000, 1.6279683402565996e+000,
          -3.3085580835697986e-001, 5.3546456210572646e-001,
          -7.7156061349158345e-001, 2.1798764251178018e-002,
          8.1944770920894450e-001, -1.1441852832136017e+000,
          -7.8219205955054549e-001, -1.2159688341542227e+000,
          1.2926634219660507e+000, 2.6057792441382279e+000,
          2.7501311916195209e-001, -5.3084760138717202e-001,
          -3.2693675061217320e-001, 8.6677540993845859e-001,
          5.1653816679117015e-001, 7.0863355411136919e-001,
          1.2837999330341070e+000, -2.4773695874364041e-002,
          1.2066087360979769e+000, -2.0056728344804467e-001,
          1.2261176994756418e+000, -5.9980862538107506e-002,
          2.8270642362668924e-001, -3.6417810379071225e-001,
          -8.0512473767942294e-001, -2.3399682369340150e-001,
          1.5286350183867949e+000, -1.0437585233484605e+000,
          -5.2483645380871746e-001, -5.9374427813766262e-001,
          1.6141934733986532e+000, -7.3743311460973415e-001,
          -1.2270182455275944e+000, 5.0233421290468851e-002,
          -3.0633579593264665e-001, -7.4828886936452355e-001,
          1.2990628945214420e+000, -1.0209574946387083e+000,
          -8.9089249844466545e-001, -5.3549774557087371e-001,
          5.2428923805848715e-001, -2.5886051898545581e-001,
          -1.6740565991171696e+000, -9.2675414267012879e-001,
          -4.3582586244360583e-001, -1.2823039473659077e-002,
          4.1727721383204025e-001, -1.3506182534765454e+000,
          7.3366662563265106e-001, 8.1218893905333489e-001,
          6.1783541357720972e-001, 1.5798342518268669e+000,
          -1.7540050533070792e-001, -7.4427637752369546e-001,
          2.1001347038915550e+000, -1.8140562679285474e-001,
          -8.4360744867890480e-001, -8.0969623267308066e-001,
          -4.9422891696241400e-001, 7.5058896038320810e-001,
          -1.0893566125113086e+000, -7.4231573312173726e-002,
          -9.3159695106389118e-001, -3.6665397723410031e-001,
          -5.0956079099684755e-002, 1.6747419070533626e-001,
          -1.4054762271118912e+000, -2.9732236351238872e-001,
          -2.0942868407167543e+000, 1.1861738314829506e-001,
          -6.9675296985128743e-001, 1.0897147952435533e+000,
          -1.8090580578656159e+000, 5.7971252573156151e-001,
          -1.7719029074530619e+000, -1.1314594631401222e+000,
          1.7962542275323397e+000, 1.5282863127764543e+000,
          4.3848849283100799e-001, 6.0991313392907376e-001,
          -8.8849480878813258e-001, -1.8804553755490281e+000,
          -7.7784964032637594e-001, 1.3924590848051155e-001,
          -2.1320465883702015e-002, -1.3021771910077036e+000,
          -1.2285655057081242e-001, 6.1189232078746980e-001,
          -5.6632965502604549e-001, 6.1831992959017368e-002,
          1.1732596335266297e-001, 2.3035736525676842e-001,
          6.7403402073988061e-001, 1.3607484471594236e+000,
          -4.7362591520119268e-001, 2.1701788882332607e-001,
          -6.8552130548405887e-001, -6.9073459618342881e-001,
          8.8854724165357080e-001, -6.0623851857754385e-001,
          5.4239944420551323e-001, 2.2120577240206910e-001,
          -1.3621607754136034e-001, -3.4502028707747689e-001,
          8.1405471625580450e-001, 1.0845467222991190e-001,
          -5.5652230535904547e-002, -3.0275707692693843e-001,
          -3.5045308892206234e-001, -6.7705470441471516e-002,
          -6.0806080920082950e-001, -1.6950450322508659e-001,
          5.9146008846603471e-001, 5.6549841257266642e-001,
          -4.1512647377376410e-001, -3.6403581366239779e-001,
          7.3023351722146301e-001, 5.3875586618191362e-001,
          -1.1142520287973423e+000, -5.3113744852770428e-001,
          -4.9669725075022614e-001, 1.8265773995152298e-001,
          2.2185881851116959e-001, -1.4592631845120960e+000,
          -1.0134637103413000e+000, 1.0740559043943333e-001,
          -2.7339304443119011e-001, 1.1658256847017908e-003,
          -6.1884940354991180e-001, 1.2241742717587836e+000,
          1.4975310495981289e-001, -9.9808290392719112e-001,
          -6.8370024255710393e-001, -1.2100492801484128e+000,
          -1.1226635530089690e+000, -1.6901480813720868e+000,
          -8.6732276331777214e-001, -3.3028521541621275e-001,
          -2.3552652393704929e-001, 2.5081921352129050e-001,
          -4.7052650426507336e-001, -8.0665801545021942e-001,
          -6.3412657432881481e-001, -1.0913580255724624e+000,
          -3.6401657377617741e-001, -1.4124257611152097e-001,
          -1.0345607052632153e+000, -9.7678983687971632e-001,
          3.9383448330418408e-001, 4.8644330777854022e-001,
          -1.3473046246374429e+000, -2.7892735846477801e-001,
          -4.7206221067717069e-001, 2.4899048988688982e-001,
          2.5674901905582515e-001, -1.1028006184081454e+000,
          -5.0157273291907467e-001, 3.2481106885419420e-001,
          -1.7008646827007428e+000, -4.0933840889919687e-001,
          -1.4493413776291821e+000, -1.3618163504071996e+000,
          -2.3790556975265012e-001, 1.5833758511614626e-001,
          -1.7485280519063688e+000, -9.1541438541640074e-001,
          -1.2214232856373166e+000, -1.6151624973361598e+000,
          -3.6200232085886652e-001, -1.0025181903344564e+000,
          -4.8504561609964653e-001, 1.0145994813694914e-001,
          7.9194300602182710e-001, -1.1296370101923192e+000,
          -6.3272643970843445e-001, -5.0560373602307296e-001,
          7.7053494392257976e-002, 8.0748116601442588e-001,
          -4.5590504387973618e-001, 1.1136817099016132e+000,
          -9.0311655184449668e-001, 9.9252030748701958e-001,
          1.2474872487606803e+000, -7.2666100025111868e-001,
          -8.9719953544885683e-002, 8.1711193370533031e-001,
          -1.4241884973312482e-001, 6.8738451325897487e-001,
          1.0871341416123386e+000, 1.0021024237004259e+000,
          1.2730141606365331e-001, 1.3194621994335838e+000,
          3.5946583450342090e-001, -7.3919289861723136e-001,
          1.1816588626394320e+000, 1.1217871359694997e-001,
          8.7435896282104775e-001, 5.3093938764469339e-001,
          -8.0187204789275113e-001, 7.5714218821359744e-002,
          -7.4444718288162881e-001, -5.9444184846084691e-001,
          -1.6540949927103274e-001, -1.0497431618759170e+000,
          1.6216858342055943e-001, 5.9336102300898796e-001,
          -3.6614761132574725e-001, 4.2503337661175655e-001,
          -2.5757213382578253e-001, 3.2822239080118504e-001,
          -4.5246297817300857e-001, 3.4799724332423343e-001,
          6.4244222527336048e-001, 1.9835778476896742e+000,
          -3.8044101417946202e-001, -4.8549874269735260e-001,
          8.8773167766235350e-001, 5.0560327614466472e-001,
          2.0959616630166278e-001, 2.3528376737846904e-001,
          4.1989996841603044e-001, -1.0864593439234940e+000,
          4.9940641024591947e-001, 1.4336730617989015e+000,
          2.2864942126053941e-002, 8.7296468702819874e-001,
          1.1785773820737666e+000, -7.9588116850210400e-001,
          -2.4513322015444677e-001, -2.0361662682967152e-001,
          -1.5978924187505658e-003, -5.0227705277402931e-002,
          9.1934381678204957e-001, 1.4371189513636395e-001,
          8.1665631971493513e-001, -1.1381318608928570e+000,
          1.5244238177741576e-001, -9.6204954091335659e-001,
          6.4768229203925687e-001, -5.9418327172678975e-001,
          -1.5994797701746630e-001, -2.0877010271396751e-001,
          1.1378482955514948e+000, -5.8837710208155569e-001,
          5.1245932261407778e-001, 9.8144774254890252e-002,
          -1.1069211601069671e+000, -2.7509767310801590e-002,
          -9.1148260523420577e-001, -5.0673395203277039e-001,
          7.1120511720124047e-001, -3.6953656417969383e-001,
          -1.4662924462157811e+000, -1.1636196295463561e-001,
          -9.0445157249388541e-001, -3.1575998724533932e-001,
          1.1436198442038299e+000, 1.0769337140209267e+000,
          4.7538779370346085e-001, 2.0491611239303695e-001,
          -1.0381964582151137e-001, 1.5491310765539618e-001,
          1.1442526903648771e-001, 2.1311144615854585e-001,
          1.0280716304466067e-001, 7.6011912348268473e-001,
          -1.1453709085669926e-001, -5.5705832422618795e-001,
          1.1341241327335081e+000, 3.4841915144080338e-001,
          -7.0367076699089859e-001, 1.3247154753248063e+000,
          1.1784433078142316e-001, -1.4357599876553695e-001,
          1.2797696947581363e+000, -5.5862598988336132e-001,
          1.5249337575891322e-001, 2.9668441887201502e-001,
          8.3441895324297155e-001, -8.0452347093172213e-002,
          5.6768478210382434e-001, 3.3486616603049379e-001,
          -7.0681381624893652e-002, 5.7684978468275061e-001,
          8.9664271214918800e-001, 4.0556323412117540e-001,
          1.4333413350057576e+000, 3.5909617825490669e-001,
          8.5149520798960032e-001, 1.0384162810018269e+000,
          1.1397745300226287e+000, -1.9053300835376683e-001,
          1.2451187687505936e+000, -1.6612837061945421e-001,
          -3.4167364108458920e-001, 3.4435113359655406e-001,
          6.0502140399031390e-001, 2.0612526432867245e-001,
          9.2882627256331263e-001, -1.3113229405325058e+000,
          -6.8458926675282961e-001, 9.0770859396729804e-003,
          -4.3376191173155565e-001, -6.9686598980479586e-001,
          -1.8075606993042233e+000, 2.8189987628800423e-001,
          -4.8514257109004666e-001, 5.0444691872120850e-001,
          6.1589311574402839e-001, -1.0487023680457666e+000,
          9.8570963143045232e-001, -9.9630595962206370e-001,
          1.9409921184089041e-001, 4.2039524660603700e-001,
          3.9318780709294188e-001, -9.6163343906976362e-001,
          3.1852150620849501e-001, -4.6439478252856675e-001,
          -3.3412744288762863e-001, 3.3401433821909060e-001,
          2.8060962651889476e-001, 1.1499050170888054e+000,
          -1.2261148140678242e+000, -1.9715970027639793e-002,
          1.8017773169714260e-001, 2.2310178992614091e-001,
          -2.0638227340063267e-001, -1.3195533880391748e+000,
          -2.0146758899453804e-001, 3.8046752687927676e-001,
          7.1824280763929471e-001, -1.7935840731465119e-001,
          -9.6128804183535171e-002, -1.0894600982863971e-001,
          6.4609310319920799e-001, 2.3641756740847408e-002,
          1.2765209129994033e+000, 7.0062257538344674e-001,
          -8.8541056724339406e-001, -6.7157410503726478e-001,
          4.5207838882388823e-001, 1.1397750328696928e-001,
          1.5208205948068432e-001, 8.3118517053357363e-002,
          1.9068674394579199e-001, -1.3102203674832094e+000,
          -4.6603909782805558e-001, -6.8990096801885004e-002,
          -1.0004109080793231e+000, -7.2780069667453973e-001,
          -6.6740975342367626e-001, -6.5106777547630923e-001,
          1.4985474155424836e-001, -5.0191692030082768e-001,
          -1.2324022097703120e+000, 3.2166621046753499e-003,
          4.8852481622204180e-001, -1.1203123152060257e+000,
          1.2696418739332888e-001, -8.7863537062164299e-001,
          -7.6760817968668582e-001, -2.9283766933246808e-001,
          -5.9407803055035346e-001, -1.2338621736318283e+000,
          -9.3246272079055581e-001, -9.6181663641637583e-001,
          -1.0455642343020448e+000, -1.8589805116305762e+000,
          2.0088675164300948e-001, -3.9140766746046557e-001,
          3.4321448795235793e-001, -1.2374336846144114e+000,
          -1.0773545911003934e+000, -7.1260603789905796e-001,
          -1.8143463813838154e-001, -1.3257586792776050e+000,
          -1.3006410379191478e+000, -1.1197742223832883e+000,
          -7.9743558455702646e-001, -1.0877994490710237e+000,
          -2.5631635568172279e-001, -8.6260138833603617e-001,
          -1.2317584574528490e-001, 9.2405097821491533e-002,
          4.2601469556061639e-001, -2.8206240527401577e-001,
          -9.0740640830450869e-001, 1.8017375434132557e-001,
          -4.1815214240244636e-001, -3.3777960413904207e-001,
          -8.8105570465729788e-001, 3.9185916627597073e-001,
          -1.1044770963654891e+000, -1.1950327230046884e+000,
          5.5364662981043067e-001, -2.5884339409222887e-002,
          3.8466603000341754e-001, 3.8877197337016300e-001,
          -1.8172202360854334e-001, 4.2214652638424638e-002,
          6.2034059268072728e-001, -4.9947080174972786e-001,
          -4.3259101569438746e-001, -1.1608181940080720e+000,
          -4.2912989037070293e-001, -5.5236353161325269e-001,
          -5.6722914902751909e-001, -1.4112552666457531e-001,
          -7.3584960466921234e-001, -4.4489888248537106e-002,
          -1.0877667680293650e+000, -2.2501500051321707e-001,
          2.9484545474333518e-001, -8.1541283782288676e-001,
          -4.1920863533828662e-001, 4.0128456820332731e-001,
          -1.0680841758441297e+000, -9.0950747424839584e-001,
          3.0873420790673782e-002, -2.4874957479339682e-001,
          -1.1122429280704420e+000, -4.3649687020890210e-001,
          9.5303781270471366e-001, -1.0097673285936586e+000,
          -5.6340621825116455e-001, -2.4914191103856198e-001,
          -1.2810675784023757e+000, -9.8184858911534956e-001,
          -1.1757556935642581e+000, -4.2948428422786750e-001,
          -1.5636417290838538e+000, -5.9257822683802619e-001,
          1.1880970672364242e+000, -9.4846037582883425e-001,
          -1.3175603497200933e-001, 9.1889311926981776e-001,
          -2.4704704045470044e-001, -6.1832406447313359e-002,
          -8.7753696497303790e-001, 3.4044983083891467e-001,
          2.2023584236272339e-001, 1.1566722672971397e-001,
          7.8563231389900345e-001, 3.7395126412672608e-001,
          -2.9929342767819966e-001, 1.1613283532615686e+000,
          -1.0534601785925544e+000, -4.2769429069084618e-002,
          -8.1451518168028814e-001, -6.0836926952578851e-001,
          3.7147491219161693e-001, -1.1097662755961288e+000,
          1.7240210172869355e+000, 1.7352714194868360e-001,
          -5.1476227372757588e-001, 1.4088741440343375e+000,
          -3.5520751162463454e-001, 7.6549748440517928e-001,
          1.1174377812744810e-001, 5.8047810255266443e-003,
          6.3685046637899734e-001, 5.9278704579251629e-001,
          -6.1518496420559277e-001, 2.4873149285315715e-001,
          -1.0816651441240426e+000, -1.4653458621342574e+000,
          -5.1757526116648056e-001, 1.0346815653133817e-001,
          -6.8081068668749722e-001, -1.0575387716544817e+000,
          6.0859007625135286e-001, -1.5139185820065908e+000,
          9.0372770875976194e-001, 2.3925708325967140e-001,
          -1.4120861769534954e-001, -9.9577613242343210e-001,
          -8.5220687199373979e-001, -8.5915469443031633e-001,
          1.0514765161813382e+000, 2.3056392001988452e-001,
          1.7559718296645080e-001, 2.2624735850504254e-002,
          2.6118941756201924e-001, 6.2659730677907359e-003,
          -9.0641767710611332e-001, -1.0458925140322419e+000,
          -7.9545944803387858e-001, -9.1603144062570696e-001,
          -9.7937061249298962e-002, -1.1890711427163008e+000,
          -6.2649411557293888e-001, 4.9107614812981987e-001,
          -1.2691691595271726e+000, 4.3914394378613625e-001,
          -7.4641265674814539e-001, -1.1879484502903421e+000,
          -1.1810246902663142e+000, 4.7899977301849933e-001,
          -1.1459769831457709e+000, -8.3987249960883625e-001,
          -1.1847976932454320e+000, -1.2336141474280375e+000,
          1.0452801031910078e-001, -5.6349874999667049e-001,
          4.2252128164254116e-001, -9.3090236448016617e-001,
          -1.0662285898447854e+000, -1.0764467507017024e+000,
          -8.4703976991713603e-001, -4.6987272915324629e-001,
          -4.8760131418411001e-001, -3.0812995139232058e-001,
          -4.8269629504007089e-001, 3.1949736294464970e-001,
          -4.2184560664156001e-001, -1.8584897127715683e-001,
          -2.7882893595283309e-001, -1.4410389517928290e+000,
          2.9157128149067121e-002, 7.2820561977435461e-001,
          -7.8350189038636553e-001, -4.5149196198332936e-002,
          6.0494608443243836e-002, 3.2237067434006250e-001,
          -1.1829578600738790e+000, -1.1148161173656628e+000,
          -8.1363805271400302e-001, 6.1436898169400267e-001,
          -7.2909492318665337e-001, -8.3552996682344027e-001,
          -4.2419458159274154e-001, -9.7496577688397523e-001,
          -6.0026010260486296e-001, -1.8647728588467999e-001,
          4.1453255319957449e-001, 1.0023273885327964e-001,
          -1.3165500667529013e+000, -4.9766161753553068e-001,
          -1.3422762467269971e+000, -5.3181186016657678e-001,
          5.1430984036012173e-001, 5.1995431425013838e-001,
          -1.0611321843865391e+000, -5.0024835198949780e-001,
          -7.3192828187806358e-001, -7.6829648773275261e-001,
          -1.0608672875745195e+000, 4.4065733464507845e-001,
          2.4003058183608816e-002, -5.9223872147909959e-002,
          -5.1372951684275581e-001, -3.6660288434845839e-001,
          1.4655485415983436e+000, 6.1266150469275515e-001,
          6.5003079395214736e-001, 7.1453213371074020e-001,
          -2.9303397112269747e-001, 5.4622848082877684e-001,
          6.2352370576969240e-002, 6.2698969365857748e-001,
          -4.6201535449937153e-001, 2.7199234281291707e-001,
          4.6728012090248539e-001, -6.7523947726819544e-001,
          3.4946737750185963e-001, 5.0516841341372021e-001,
          4.2407799272422225e-001, -8.5968705760224018e-001,
          1.0161597630993153e+000, 3.4842840068770453e-001,
          -6.5474671440194809e-002, 1.1545154145518786e+000,
          -4.4393162449321749e-001, -1.0856090655629201e-001,
          7.4279807017402955e-001, 1.0109250029274746e+000,
          3.1109459808594288e-002, 5.1048511672262997e-001,
          -4.1554567234367806e-001, -7.8298862193404220e-002,
          1.6336803392459379e-001, 6.3305491849712880e-001,
          6.6263911986089008e-001, 9.1104110981543274e-001,
          1.7204638816496279e-001, 1.8049151365756508e-001,
          6.2454062627493245e-001, -3.4431263543771773e-001,
          -6.2534818225472477e-001, 1.4417587287956928e+000,
          5.9663909181392183e-001, -7.4549160805447856e-001,
          -8.4302852107036597e-001, -2.2340092040828802e-001,
          -6.9641943853124744e-001, 4.4758907233532774e-001,
          -1.1257153549433894e+000, -1.8444556918186339e-001,
          -1.7539181657233718e-001, 4.2982532393675904e-001,
          2.8219022111254050e-001, 8.4065032404371232e-001,
          8.5334548744463931e-002, 3.1013521109017844e-001,
          -5.4185454998172555e-001, -9.4735558955634380e-001,
          7.8904181342136248e-001, -5.7993516494306663e-001,
          -3.9435172454788531e-001, -1.5187381824414012e+000,
          -5.8696047928407069e-001, 5.9169647229962589e-002,
          -4.9663127876743118e-001, 8.3225780982984221e-001,
          7.4421716000944915e-001, 5.0484765728591274e-001,
          3.0484460207820435e-001, -2.1844852914157334e-001,
          -6.1777282451372828e-001, -4.4218122465436061e-001,
          1.2673382751671134e+000, 3.0742102091572404e-001,
          -6.8502590902966576e-001, 4.8634167764649398e-003,
          -4.3385433027005244e-001, 9.5271538851549556e-002,
          3.7742656486778664e-001, 4.6774116988385926e-002,
          -8.9538261017526743e-001, 7.0248809579782368e-001,
          -9.5392017891122594e-001, -6.6709731404028416e-001,
          -9.0155662534778302e-001, 3.4402538776743646e-001,
          -7.3804859512773535e-001, 3.3939848688511420e-001,
          -1.1027691283736529e+000, -7.4695476941235128e-001,
          6.7568699311676428e-001, 5.9413999051966249e-001,
          -6.1981300930742422e-001, -2.2601538498179777e-001,
          6.3507774706274400e-001, 1.0675116076375132e-001,
          4.1751570431810220e-001, -6.2273889025194351e-001,
          -9.8046814664504500e-001, -4.5818066646743399e-001,
          -3.7831743721921612e-001, -4.6500849644511616e-001,
          -4.6110238255410491e-001, 3.2053083992016168e-001,
          -4.5730730716740337e-001, -2.6871503478270004e-001,
          -4.4364616687982555e-001, -1.0099647966166190e+000,
          1.1301760207648176e-001, 1.0119218450347924e+000,
          -6.5957058302729887e-001, -7.1279478758766868e-001,
          4.5439062822118204e-001, -3.4953733763664446e-001,
          6.0908884329304935e-001, -7.2667982329877434e-001,
          8.9222361999505873e-001, 1.0409254634868306e+000,
          1.4050538131308803e+000, -3.0993069303818338e-001,
          2.2407679510483186e-001, -7.8650530117822481e-001,
          1.3856872982659701e-001, 1.6098850237596898e-001,
          1.2154050460063590e+000, -6.1670968507967973e-002,
          -2.2564846781805223e-001, -1.2229980228444626e+000,
          6.6690338109431768e-001, 4.5684402268209939e-001,
          9.6302425843147610e-001, 7.5003527748170584e-001,
          -7.0108414579481970e-001, 3.3622561056740957e-001,
          7.9374550983776615e-001, -5.4046540263256271e-001,
          9.6898785913138205e-002, -7.8237105188138867e-002,
          -5.5801963692672829e-001, -1.2888727621388950e-002,
          1.0137354442418109e+000, 5.6545425860633922e-002,
          6.9797925595689680e-001, 3.4836052354399372e-001,
          1.2081713662887446e+000, 1.1905784170041636e+000,
          -5.5910663377860903e-001, 4.0308885880445883e-001,
          -1.2399150887813100e+000, -5.8966520952233559e-001,
          1.1326410964232154e+000, 7.1500562191222816e-001,
          -6.1323785412998777e-001, 7.7115031704374293e-001,
          2.0394548951449390e-002, -2.1127817248573555e-001,
          -6.9638001796664184e-001, 7.9800591858919112e-001,
          9.0366905726425062e-001, 2.3140997678916922e-001,
          -5.3854237752635259e-001, -6.3077134735648965e-001,
          9.3674031155149795e-001, 6.9663375092132040e-001,
          8.2811261372160616e-001, 9.4732094442770021e-001,
          4.5038891063446357e-001, -4.8258154511260343e-001,
          -3.2057713136988047e-002, -1.4006457127754987e-001,
          -8.0006769152452739e-001, 1.1728333083771241e+000,
          2.0875777086738140e-001, -5.6007199402327223e-001,
          -7.6479527323283947e-001, 8.0629438016586585e-001,
          -9.0603295928025429e-001, 6.5605411334927410e-001,
          -2.6856286297705989e-001, -8.0252506217475636e-002,
          -1.6839143999045278e-001, 8.1409630448201342e-001,
          -3.2355766511829524e-002, 9.9122407253354472e-001,
          -6.8528805061351339e-001, 3.3292043749674000e-001,
          -9.0975592314421638e-001, 4.8428557425021190e-001,
          1.2440442165136492e+000, 9.5426271799845253e-001,
          -5.4025000757816655e-001, 1.8644613007869086e+000,
          2.1931379625792444e-001, -8.2762523880964256e-001,
          -4.4150750416782503e-001, -1.5217188380749709e+000,
          2.4194689177679368e-001, -2.6720416003243858e-001,
          8.3802155811233403e-001, 8.3514532441326494e-001,
          1.2661778208454104e+000, -6.5172905611381049e-001,
          9.8648467424401864e-001, -9.0215455409611359e-002,
          -1.1785191973079685e+000, -1.1712348479854549e+000,
          6.9306016302242632e-002, 7.5426384613932718e-001,
          -9.8238388942068011e-001, -1.2042181962050929e+000,
          4.2595589371541570e-001, 9.9616594677596737e-001,
          9.7120623955245433e-001, 1.2163469929923971e+000,
          2.0515457360677733e-001, 5.1798681234951460e-001,
          -3.3791746551537011e-001, 2.4938336093606200e-001,
          -1.2709494810919684e+000, -8.9346018818639794e-001,
          1.2215003080981495e+000, -2.9264789210073451e-002,
          -3.7061093354471242e-001, 5.5557965825150823e-001,
          7.7004851127606722e-001, -2.4735689661479140e-001,
          -4.8943794300290749e-001, -1.3339886872914999e-003,
          -8.8365997618577150e-002, -6.1642055963260256e-001,
          1.7575810223354582e-002, 9.7097964325272290e-002,
          1.0932586105348203e+000, -2.2528538214068847e-002,
          -7.4045557450505128e-001, 5.1277892525193540e-002,
          6.9419679963847714e-001, -5.8037810142786928e-001,
          2.5457160202779822e-001, 3.2897080694637681e-001,
          8.1265301514947408e-001, 7.2514369853542571e-001,
          -9.4004049357862351e-001, -6.1734293638293758e-001,
          -7.4724182156233465e-001, 2.1992958535176399e-001,
          1.4220546617682076e-001, 1.3611738465566077e+000,
          -5.1437435187144787e-001, -2.4390969986054148e-001,
          6.3144738661292654e-001, -6.1889430953049029e-001,
          3.3846434877426779e-001, 5.9666028937607829e-001,
          2.3679503304505070e-001, 1.3562307033360381e+000,
          -2.3451541715050378e-001, 7.8705383334171986e-001,
          4.6968585072370961e-001, 2.7111222972334431e-001,
          1.2729352725872116e+000, -1.1596020182959335e-001,
          7.2497964124257652e-001, 1.8559271401544697e-001,
          8.9550858634100050e-001, -1.5622249419340925e-001,
          7.2702458104723722e-001, -2.9938455429006150e-001,
          5.0226112016073721e-001, 6.4073931720406152e-001,
          1.0677527704933076e+000, -5.5613847802827909e-002,
          -2.9027606263235008e-002, 5.1587701756837280e-002,
          -5.4618853504284713e-002, 1.5402401135513553e+000,
          4.1904445011361180e-001, 1.0480373814515980e+000,
          1.6557622994544097e-001, -2.9997575844041940e-001,
          6.1185488654796683e-001, 6.3354523311710143e-001,
          1.4190155950545613e+000, -6.9167947134356733e-001,
          1.7207131958506054e+000, 8.3535376143281648e-001,
          2.1114409986648164e-001, -4.6068590879649346e-002,
          9.8987008308383595e-001, -1.6992001471870216e-001,
          3.0856829230972116e-001, 1.8974574907479280e-002,
          1.1824835527416802e+000, 1.4291548508191732e+000,
          1.1147328649835289e+000, 3.7192543554984275e-001,
          4.6195916608695521e-002, -3.7303575621305368e-001,
          -3.9408851293810515e-001, 1.3961149718494261e+000,
          8.5251237481468622e-001, 1.4907961295440264e+000,
          4.1779246730641685e-002, -1.2477850338603011e-001,
          1.0443965592104740e+000, 3.1063699599554791e-002,
          8.8547186732998906e-001, 1.0579207636603161e+000,
          1.0702896828842119e+000, 1.0458454334836196e+000,
          -4.8984597887032161e-002, 1.0912215048137215e+000,
          9.4892045019189863e-001, -5.0747209591660969e-001,
          1.1170684375133184e+000, 1.2180596043264722e+000,
          1.5258181155748474e-001, 1.1524095459640080e+000,
          6.8219037985909070e-001, 7.4175594031286859e-002,
          -5.5098264884980722e-002, 1.4007601193138750e+000,
          5.8264085152042822e-001, -6.7698346822903821e-001,
          -1.4811036005100811e-001, 4.4740707196365520e-001,
          -7.6911645412567021e-003, 1.5913871727562510e+000,
          3.2877435315903825e-001, 4.4990685584275258e-001,
          -2.7404123889296333e-001, 8.8061132219236460e-001,
          1.1515531364420393e+000, 1.9721928619436517e+000,
          1.3878656390573832e-001, 2.6916694848254159e-002,
          9.2483604949462506e-002, 5.5690061530392010e-001,
          -9.8985412592876032e-001, -1.1015201468621610e-001,
          2.5368853656434021e-001, 1.1547472968052368e-001,
          9.6171790717495553e-001, 3.4218537673298910e-002,
          -8.1782688140519377e-001, -1.0196204478314432e+000,
          -1.2013457013706939e+000, -9.0362592212375381e-001,
          1.4038389417641634e-001, 5.5414021510127132e-001,
          1.3215304587612958e-001, 7.2024881388356210e-001,
          1.8300385775355743e-001, -1.4256586872182471e+000,
          1.9318379923718249e-001, -5.6620061555796644e-002,
          -7.5463705995672992e-001, -5.4687077953265673e-001,
          -2.1711456868821308e-001, -4.2261666837995093e-001,
          9.8235204106561858e-001, 1.2157179327458463e-001,
          8.1545727812205193e-001, 6.2632618725934197e-001,
          1.6854553665316149e-001, 3.1668005365782420e-001,
          5.6651796737570781e-001, -6.9251886620631886e-001,
          1.6824963232308893e-001, 6.1989116550585599e-001,
          8.4413136391559396e-001, -1.9026567029461794e+000,
          9.4641466746846814e-001, -1.8806236688777960e+000,
          -3.8690376404533428e-001, -1.2367954999356623e+000,
          2.3061290569661935e-001, 1.3778023839553552e-002,
          -1.6089236847621058e-001, 1.3274012708930444e-001,
          2.2301688339444897e-001, -2.9547886590326011e-001,
          1.6960475280353093e-001, -9.2593238133259892e-001,
          -3.5537270934844439e-001, -3.8196827128477034e-001,
          -6.5167073510790130e-001, -7.1974734390330297e-001,
          2.9889399480763074e-001, -8.1593874194221028e-001,
          5.1593537365678832e-001, 1.8040389176694602e-001,
          -3.5654316391767354e-001, -9.0616674244792639e-001,
          1.9215443668760460e-001, -4.7939563367977595e-001,
          -3.3461977377672592e-001, -9.6519607949761121e-001,
          2.5865927790627485e-001, 7.5931121059936502e-001,
          -1.3308852153665069e+000, 4.1936856160258651e-001,
          -1.3589311018974251e+000, -3.3152694009919176e-001,
          -5.2052510515471839e-001, 1.1289065831869932e-001,
          2.6484042512978584e-001, -1.0878749343673011e+000,
          -4.9673055543146200e-001, 3.0865075716603124e-001,
          1.1335302942082575e+000, 1.3039121310631148e+000,
          -6.0382589604523362e-001, -3.8525790717221375e-001,
          -4.5166022919557375e-001, -2.4938680436100899e-001,
          1.6774309491752876e-001, -3.1775469949431895e-001,
          5.1985719589615298e-001, 7.7908227224276638e-001,
          -9.5142124124923666e-001, -1.3538436231512757e-001,
          -2.7183788959299315e-001, 8.6187465260346166e-002,
          -1.0841432093401679e+000, 4.3863169873018873e-002,
          -7.7103151584392271e-001, 3.9934386956360771e-002,
          1.6595455982948870e-001, -5.5021026326218880e-001,
          -2.6193965007448323e-002, 4.9461891911142047e-001,
          -1.2479102556271036e+000, 4.6880830934979872e-001,
          -2.5121151872918779e-001, -5.9722754449682791e-001,
          -9.2923822703955250e-001, -1.4620340291668352e-001,
          8.4843740102690290e-001, -6.0146288296656447e-001,
          -4.7586550913185377e-001, 5.2631165304018901e-001,
          1.3292749377317456e-001, 6.3054358871228511e-001,
          -1.6651786195634219e-001, -1.6199883662730169e-001,
          2.9267829259658090e-001, -1.4108944071788103e+000,
          5.8477641292460780e-001, 5.5430386265710629e-001,
          -1.5101523335160963e-001, -6.8876730639946138e-001,
          2.7070004509153078e-001, -5.6945515923368795e-001,
          -3.0810758809231320e-001, -2.7623381336849873e-001,
          8.2953315290621055e-001, -2.6335869336120654e-001,
          -5.4877150958778065e-001, -2.3895055398755607e-001,
          -3.1776009478312017e-001, 5.7272941254059118e-001,
          -7.8072513136251354e-001, 2.1958331834486786e-002,
          9.2763774207856364e-001, 1.5242370946666994e-001,
          -9.3074294805614977e-001, 5.2331581441568749e-002,
          -1.3849507012189732e+000, -8.5183838855946725e-001,
          -6.3107089062633104e-001, -1.0657925084732205e+000,
          -1.0375395652591604e+000, 8.6316439762623143e-001,
          1.2818145796178992e-001, 4.2482903089469337e-001,
          -8.9092791739809696e-001, 5.1409864974776565e-001,
          1.1129056426747942e-001, 1.2155622159346950e+000,
          -5.8644857144781659e-001, 8.4575205566086264e-001,
          2.0016595562560441e-002, -1.0185980991478678e+000,
          1.0910600512812372e+000, 6.9322946382962924e-001,
          -2.5918628750134353e-002, 1.4349160460355572e+000,
          3.4217166344360717e-001, -6.6967673338122669e-001,
          -4.9228407186241441e-001, -1.0402164719814699e+000,
          -1.5675482754358530e+000, 2.5507875243970424e-001,
          -1.3184972444356653e+000, 2.9273583565253430e-001,
          -4.9903823850269105e-002, 4.7798554037569829e-001,
          1.0209110689493360e-001, 2.1570167481074618e+000,
          1.3190580577249580e+000, -1.3446016564612169e+000,
          4.5456380451524631e-001, 9.3916356852302418e-001,
          1.8130015764600485e-001, -1.0441428061991238e+000,
          5.2987492871884634e-001, -5.4948056752405228e-001,
          4.9840286941775147e-001, 2.6710049394049024e-001,
          1.0281461922864883e+000, 9.8727597146299229e-001,
          -5.0351351744883965e-001, 1.1673660907738247e-001,
          1.2939757830190006e+000, -3.0228661011151120e-001,
          1.5379497905128903e-001, 9.1240892234183069e-001,
          -2.6173434431650933e-001, 1.0511664861089063e+000,
          1.3433274894984160e+000, -3.8296207480951738e-001,
          -4.1639921595063807e-002, 6.2889970125665062e-001,
          7.0974369637667611e-001, -5.7854764834798134e-001,
          -1.7368110582524943e+000, -1.5047882623926354e+000,
          -1.2317383901876719e+000, -8.4821906585338169e-001,
          6.3734751019330926e-001, 7.8326811576978439e-001,
          -1.5155222815847198e+000, 6.2620363734435067e-002,
          -2.5140137633089149e-001, 1.1407175655596300e+000,
          -8.9818784352372816e-001, -6.0649506162053257e-001,
          6.4589547514333590e-001, -1.5259211398658972e+000,
          -3.0310411665302992e-002, -1.5879980774606609e-001,
          3.3093099469070403e-001, 5.6234024499291699e-002,
          7.9838117151111865e-001, -1.1150560161295597e+000,
          -4.7063622037237351e-001, -4.9708506011227621e-001,
          6.4441355593296179e-001, 1.2421267279062154e+000,
          2.8265007445340851e-001, 4.8553130990367521e-001,
          -2.3174215426805361e-001, -1.7198598533137810e+000,
          -1.4351989720535416e-001, -8.7345464267141584e-002,
          1.1222687293668903e+000, 6.2250108095067438e-002,
          5.6786012860119384e-001, 2.0592164098952129e-001,
          5.7117483454056850e-001, 1.2781198750051145e-001,
          5.1661126322060358e-001, -1.3107105033120861e+000,
          -1.5935792339795336e+000, -6.4782054515480736e-001,
          -1.0075945830051392e+000, -9.4209954197104828e-001,
          -1.1517096485969004e-001, 3.5128215738358753e-001,
          -1.3135755482303539e+000, 7.7070516412725498e-001,
          4.6773083787768571e-001, -1.7260612227830225e+000,
          9.1512626964734944e-001, 6.3449261857872019e-001,
          7.2540847308380052e-001, -5.8904310348854172e-001,
          -4.7660599768694398e-002, -1.4434960387820215e+000,
          -5.0835522914589371e-001, 6.5316283134889819e-001,
          -2.5271278772905437e-001, -8.4689652725253761e-001,
          -4.9114254200950230e-001, -3.1633513871846519e-001,
          3.2807479452155280e-001, -1.5822587044999645e+000,
          -4.8031793193329508e-001, 4.1113655083650968e-001,
          -6.4834276558041493e-001, -1.5054959188428176e+000,
          -1.5051573186820184e+000, 3.2164903434173392e-001,
          -1.0661903990341244e+000, -3.1949095419162765e-001,
          3.4793475753621289e-001, 8.7174848683283612e-001,
          -1.0017977431855143e+000, -1.5852152356687004e+000,
          -6.6839268121709128e-001, 1.3755310632490164e-001,
          -1.9723971684436306e-001, -9.6099564289843886e-001,
          -5.9963671023824244e-002, -5.8568532622080022e-003,
          -3.9782747661746071e-001, -1.1219321762667209e+000,
          7.2789347214855249e-001, -1.0142664295589072e+000,
          3.5060145697788070e-001, -6.4265710751265429e-002,
          -2.7462549700583139e-001, -2.7214858545403525e-001,
          -1.0680008791096427e+000, 7.6357509530307577e-001,
          3.1118578966672496e-002, -7.0694290767569901e-001,
          -4.9406013717714892e-001, -8.2404541204755088e-001,
          -1.1244901121798348e-001, 2.7837091081160603e-001,
          6.5932582369795614e-002, -5.6639408078911757e-001,
          -7.3581454423057302e-001, 3.0419289581238823e-001,
          7.3044490646058269e-001, 2.5117684377014587e-001,
          -3.2542797474490365e-001, -2.8533329144939679e-001,
          4.7173258019874664e-001, 3.4814963553884160e-001,
          -5.2645771695883625e-001, -1.2993961582828519e+000,
          1.1265352309545571e+000, 9.0257995399683510e-001,
          -4.6828717746352738e-001, -8.3618754160385433e-001,
          -1.1989321970765132e+000, -1.8039140812880022e-001,
          6.6435602328707677e-001, 6.3007582027666709e-001,
          -8.6242803776014099e-001, 5.8869338061537058e-001,
          8.4744665012839804e-001, 2.6501754069570171e-001,
          -5.3395934525720196e-002, -1.0935978611669281e+000,
          -5.2572784053232069e-001, -2.0060511151384883e-001,
          1.2603164139115377e+000, -7.4580355886950767e-001,
          -1.6362134585659738e-001, 1.6075003279312663e+000,
          1.1651049037246694e-001, 8.9574028421483731e-001,
          4.6522858964358943e-001, 2.8626876648508631e-001,
          -8.5006967910938092e-002, -2.6461573697911722e-001,
          -1.7778346037627460e-001, 2.2464995729136567e-001,
          1.0455436498200541e+000, -1.0722436623579152e+000,
          -1.4343547210798964e+000, 6.7668523304694217e-001,
          -7.5723133564924927e-001, -9.3154946841676411e-001,
          7.1055547206514147e-001, 1.1316175067193639e+000,
          2.1288275959948136e-001, 3.4055406319421494e-001,
          -1.5701713219210903e-001, -4.9762624223815333e-001,
          6.7409289908669567e-002, 4.8749417606839462e-001,
          1.4600706236509842e+000, 4.4687016895372805e-001,
          -1.8718119293260305e-001, -2.0534421016090379e-001,
          5.4167169086167821e-001, 6.2915610206364947e-001,
          1.1971158355501548e+000, 8.0204733546426854e-001,
          -6.1112752459379797e-002, -1.7849223867418693e-001,
          2.0587558385826471e-001, -6.1249923376979298e-001,
          1.3470957030215555e-001, 5.0936728185117863e-001,
          2.1269415495635555e-001, 4.1666461536135202e-001,
          1.4547160261644907e+000, 6.3504110229458743e-001,
          7.8173102637938985e-001, 1.1126349112459877e+000,
          1.3343697712174891e+000, 9.3219512833054297e-001,
          1.2065583846618473e+000, -8.3185667466081900e-002,
          1.2697704363508724e+000, 6.6331242968907167e-001,
          -2.6411319260058186e-002, 1.4339724636891811e+000,
          1.2317414310377299e+000, 1.5304172530769122e+000,
          9.1631445936667122e-001, 1.6802878209872838e+000,
          8.6729148561912206e-001, 1.7951967328188037e-001,
          -7.0351168053706253e-002, 6.8682165501513848e-002,
          9.7285767963326131e-001, -1.2043912302725107e-003,
          4.3352081439966517e-001, 7.6709960550633394e-002,
          -3.1488557099784970e-001, -1.0233129766018996e+000,
          4.9474182474753770e-001, -7.1659962719306014e-001,
          8.4107457731806570e-002, 2.9294572774669536e-001,
          1.2386401703295078e+000, 4.2473609497553300e-002,
          4.9344463631012669e-001, 4.3539372571595830e-001,
          -1.1664411282516471e+000, -6.7142979504642830e-001,
          3.2879854882180970e-001, -1.4959042526449373e-001,
          4.6636383027438388e-001, -1.2275729167888694e+000,
          3.5449066874182178e-001, -2.5611192935700877e-001,
          3.4655594717649729e-001, -5.4271516965253797e-001,
          -4.2040146915693916e-001, 6.2834497101963438e-001,
          -6.5485558383766806e-001, -3.6269021800118278e-001,
          3.3358995946805642e-001, -2.3986121760688648e+000,
          -1.8197654633736007e-001, -7.8021067431642654e-001,
          -1.9050473994597794e+000, 2.0265684937226763e-001,
          6.1026096209535674e-001, 1.4919022360424916e+000,
          2.8320338573932791e-002, -3.3843586288952759e-001,
          5.6350235885066113e-001, -2.0674471075689618e+000,
          4.3260793211144788e-001, -1.4753677332710375e+000,
          -1.4060157255142987e+000, -4.3439970576286868e-001,
          -8.4247076898060724e-001, -6.9190620112248780e-001,
          1.0705252140110602e+000, -2.5361858432597817e-001,
          -3.4879556923929828e-001, -7.4926111170118403e-001,
          -1.2634124982379299e-001, 9.7132619040864687e-001,
          -3.8598311430879417e-001, 1.1914204893612254e-001,
          -5.6374196915734442e-001, 4.9271183749107766e-001,
          8.7721835480002397e-001, 6.7476005655634552e-001,
          -4.8853084338634484e-001, 5.7702281628367180e-001,
          1.3320230726521773e+000, 6.5461900949457297e-001,
          1.9035304190670443e-001, 8.0379225613930139e-001,
          7.5541558071481840e-001, 4.6708213533052789e-001,
          -1.0995105006605452e+000, -1.3418619659547781e-001,
          -9.3313499966398150e-002, 9.5531898865210629e-001,
          2.2013771894353176e-001, -5.3006574178107690e-001,
          -1.2773464896647235e+000, 5.7453960442825569e-001,
          8.6754383537704682e-001, 1.3203625114314859e+000,
          6.0878592110945096e-001, -1.6005683889515521e+000,
          1.8011310656425787e+000, 8.1053599303681056e-001,
          -1.1644863069321976e+000, -2.5376121040643979e-001,
          2.2568725928095996e+000, 1.1973530445977518e+000,
          -1.3269495525490721e-001, 1.3218991056663132e+000,
          1.2026248322168414e+000, 1.3294504312303501e+000,
          1.1483850259562662e+000, 1.5648048555069610e-001,
          9.1176148716762928e-001, 6.5131570693683166e-002,
          1.0219925023868419e+000, -1.6401986773565463e-001,
          5.6656262835578808e-001, 1.9754218275477142e-002,
          1.1990163461582370e+000, 4.4725596267867046e-001,
          -6.5847271112513273e-001, 9.8230615335432481e-002,
          -3.8790931508683617e-002, 6.2291961010798413e-001,
          6.5420556955615372e-001, -2.3595885840652547e-001,
          5.0135450123112735e-001, 7.0792184665793756e-001,
          4.2847953772852665e-001, 1.1974311033206384e+000,
          1.2356213526350994e+000, 5.4801867232016732e-001,
          4.3140269895985367e-001, 1.2246799209459531e+000,
          2.9874693829956472e-001, 1.0766475255212469e+000,
          1.3163982157471605e+000, 6.5542070258099339e-001,
          -3.5403888744997636e-001, -2.5444136873524266e-002,
          6.5404390215865926e-001, 1.1477599697309722e+000,
          -2.3616496225917663e-001, -4.1175565438041184e-001,
          1.2303626427166963e+000, 6.2882866719425334e-001,
          -1.9795204699980481e-001, -1.2691935141868118e-002,
          1.1080101152021855e+000, 4.7441969883216389e-001,
          -1.7716611785218325e-001, 3.3099079226782946e-001,
          -1.0277472219163080e+000, -3.9696299371096044e-001,
          7.7286810222102209e-001, -1.1957289828999251e+000,
          -8.5344708338118114e-001, 7.0908544765764900e-002,
          3.8970098293621031e-001, 8.7296211678745705e-001,
          1.3487471401780677e+000, -2.2271408705680634e-001,
          -5.1658779494389140e-001, 9.8161545088745708e-002,
          3.9153119982640089e-001, -1.5595818936683106e-001,
          -3.0471390945163090e-001, -1.4266683412468093e+000,
          1.0277457337758809e+000, -8.1114609808090532e-001,
          6.3401397042751814e-002, 9.5684507550479955e-002,
          3.5351633529155618e-001, 7.0121738679288337e-001,
          6.5491313060400486e-002, -2.4876596785144123e-001,
          5.4720152965632340e-001, -1.4053455339148255e+000,
          1.1903650440817912e+000, 3.5514416643280089e-002,
          7.4599224756131810e-001, 8.6410705882920713e-001,
          1.4355497560520678e+000, 7.2159693482701293e-001,
          -2.1432115161231771e-001, -4.6574011150543104e-001,
          -1.0614592268604575e+000, -9.4364182591205681e-001,
          6.8082561234432482e-001, -3.8698086735173798e-001,
          -1.4319949974723301e+000, 9.7625501393335534e-001,
          -6.2152262601255459e-001, -9.5284552460928207e-001,
          1.6800514201854913e-001, -2.2849274833472433e-001,
          4.0006335227748747e-002, -6.0484480759966475e-001,
          3.0245947147909086e-002, 4.0357736890695234e-001,
          -7.6436109906737812e-002, 1.3398727337977123e-001,
          -1.0740639658483381e-001, 1.2873423072170016e+000,
          -2.6408125464987503e-001, -7.1323281250456416e-001,
          -3.7093272296493235e-001, -7.0725970689170126e-001,
          -1.1934115348694876e+000, -1.0958342242842627e+000,
          -1.3470474065340612e+000, -7.4029039036585276e-001,
          -4.4410396018814302e-001, -1.1633412925739059e+000,
          1.0685449020721658e+000, 5.3194245690773419e-002,
          -9.8470445081835589e-001, 4.5059882055616834e-001,
          9.5049349849344467e-001, 1.6563288600958642e-001,
          4.9772373645917981e-002, -8.1566127186355974e-001,
          -4.1562726008839403e-002, -5.3292165095697497e-001,
          1.3097871365204716e+000, 6.8336233741452468e-001,
          5.4848344114782899e-001, 1.4199711230504389e-001,
          -1.9028497161512816e+000, -4.6346273098146462e-001,
          1.2699225642512555e+000, -5.5367082275716928e-001,
          7.4866170515584662e-001, -2.0859834117544236e+000,
          -1.0726787921424012e+000, 2.8777157667367864e-001,
          -4.3192982887282450e-001, -1.5559306703760967e+000,
          2.5762974712049924e-001, -7.1365052046899591e-001,
          -2.9786997036829625e-002, 7.3773095475763117e-001,
          3.1636173809423546e-001, 7.0681174076191022e-001,
          -6.6527058657321247e-001, 5.7667269711104285e-001,
          6.7380366824457361e-001, 1.2407129190725725e+000,
          1.4881482944608966e+000, 7.5167047883903959e-001,
          -6.2905713598276580e-001, 7.4677370399156978e-002,
          -8.7266084987264581e-001, -1.3094570414306199e+000,
          -8.8131833569871498e-001, -4.9679288545215201e-002,
          1.1107593189710978e+000, 1.6052456265170024e-002,
          -3.0598270804286516e-002, -9.3860660637216908e-001,
          -6.5670092431451921e-001, -3.7848996582321576e-001,
          -1.1966063336174253e+000, 1.2558425104058859e+000,
          4.4181576860449895e-001, 3.5916358435616991e-001,
          1.2211284556366035e+000, 3.7941842765533884e-001,
          -1.6473392936537509e-001, -1.5613217872182286e-001,
          -1.0336800394718750e+000, -9.3450337782042092e-001,
          1.0066937714563449e+000, 1.5536919761821215e+000,
          5.3657389413860845e-001, 9.5593010309484461e-001,
          -9.7526219199254816e-001, 2.3923152620517824e-001,
          8.2265104999199379e-001, 5.2731956656484147e-001,
          9.6138949713173327e-001, -3.8511247377359825e-001,
          1.0791418183090367e+000, -7.5677715001960155e-001,
          1.0266128006406661e+000, 2.0111440130489213e+000,
          2.9969357703824662e-001, -5.2315738494473940e-001,
          9.8879182522289610e-001, 1.5607451555477030e+000,
          7.9608836138214112e-001, 1.2708039590925585e-001,
          8.0835366303307887e-001, 1.6540406944887973e+000,
          3.2887453626181007e-001, 5.3003174651062712e-001,
          -9.5318978728429857e-002, -2.9992126624840826e-001,
          2.0735151769331758e-001, 1.0157062831722177e+000,
          -2.1084050910736904e-001, 1.3148952677729446e+000,
          -7.8996888384944597e-001, 8.6322731926208651e-001,
          7.3968281306514005e-001, 2.9558324495490895e-001,
          1.0715490772132710e+000, -6.0906927615600048e-001,
          1.1289596893811300e+000, -2.0314925070857734e-001,
          9.9055101509289012e-001, 1.2746748009529176e+000,
          -1.0799782286080023e-001, 7.8364431314807004e-001,
          1.0539268484595372e-001, 7.4510142717659755e-001,
          1.6488380105561098e+000, -2.2079131908990340e-001,
          1.9036170789902532e-001, -2.6583812790635220e-001,
          -7.1579090629548148e-001, -1.4029611702877496e+000,
          -1.1434103144491616e+000, -2.6617579477017461e-001,
          7.5698141459878167e-003, -7.2520054763483388e-001,
          -1.3973157430868393e+000, -2.1132729797571881e+000,
          -1.2859863861539296e+000, -1.4953215687359844e+000,
          -1.1297679215587466e+000, -1.3845182952270882e+000,
          -1.0806732365653494e-001, -1.3507210374716094e+000,
          -1.3617550853181128e+000, -1.8484565691177299e+000,
          -4.0617287826271864e-001, 7.3151019034633863e-002,
          -2.8839529153481508e-001, -1.5269547310699381e+000,
          -1.1501889166381096e+000, -6.2744541321387048e-001,
          -7.7593445846146336e-001, -9.8468627295955360e-002,
          -7.3911419267949918e-001, -5.8114961573672841e-001,
          -1.1878499264161693e+000, -1.7579191580225966e+000,
          -2.0486633053261092e+000, -1.0762509510379916e+000,
          -9.7890811996261884e-001, -1.8971122864821213e+000,
          -1.3535914929273858e+000, -1.9532011474623046e+000,
          -1.2998457498149794e+000, -8.8351768951993270e-001,
          -1.7435308651813608e+000, -7.7749862734351916e-001,
          -9.3348000103791773e-001, -1.7113557354912339e+000,
          -3.1634652031733018e-001, -1.6322374648000990e+000 ]
